~o
<STREAMINFO> 1 25
<VECSIZE> 25<NULLD><MFCC_E_D_N><DIAGC>
~h "jmodel"
<BEGINHMM>
<NUMSTATES> 3
<STATE> 2
<NUMMIXES> 128
<MIXTURE> 1 5.748963e-03
<MEAN> 25
 -2.582679e+00 3.183238e+00 2.310959e+00 8.754822e+00 4.367696e+00 3.447109e+00 4.061974e+00 3.935613e+00 5.831145e+00 5.250029e+00 5.879670e+00 3.077797e+00 -2.003618e+00 -1.633758e+00 -8.642731e-01 1.076373e+00 1.559383e+00 2.232038e+00 2.153775e+00 2.084386e+00 1.693183e+00 1.267633e+00 1.566575e+00 6.125219e-01 -4.693561e-02
<VARIANCE> 25
 1.006205e+01 1.175818e+01 1.495119e+01 1.867201e+01 2.321584e+01 2.215339e+01 2.188483e+01 2.196807e+01 2.100578e+01 2.254500e+01 2.099068e+01 1.708990e+01 1.790354e+00 2.112951e+00 3.025028e+00 3.208834e+00 3.742070e+00 3.357795e+00 3.318584e+00 3.379259e+00 3.520611e+00 3.732540e+00 3.513991e+00 2.834581e+00 3.120014e-03
<GCONST> 8.846905e+01
<MIXTURE> 2 4.549242e-03
<MEAN> 25
 -4.866520e+00 1.327346e+00 9.833152e-01 9.898767e+00 6.658207e+00 7.405718e+00 7.839746e+00 6.957786e+00 8.368494e+00 6.346527e+00 7.602829e+00 3.069321e+00 -6.263553e-02 4.123931e-02 1.432325e-01 2.262215e-01 2.673645e-01 2.809176e-01 2.964152e-01 3.222986e-01 3.532971e-01 3.089555e-01 1.963951e-01 7.900084e-02 7.948312e-06
<VARIANCE> 25
 6.950772e+00 8.938692e+00 1.068857e+01 1.587489e+01 1.749335e+01 1.560697e+01 1.689044e+01 1.842910e+01 1.653764e+01 1.753828e+01 1.820628e+01 1.434640e+01 1.250130e-01 2.268006e-01 3.367491e-01 4.657764e-01 6.490747e-01 8.121402e-01 9.298514e-01 1.003056e+00 1.052989e+00 1.075965e+00 1.076207e+00 1.012645e+00 1.017801e-06
<GCONST> 5.808314e+01
<MIXTURE> 3 4.549242e-03
<MEAN> 25
 -4.866520e+00 1.327346e+00 9.833152e-01 9.898767e+00 6.658207e+00 7.405718e+00 7.839746e+00 6.957786e+00 8.368494e+00 6.346527e+00 7.602829e+00 3.069321e+00 -6.263553e-02 4.123931e-02 1.432325e-01 2.262215e-01 2.673645e-01 2.809176e-01 2.964152e-01 3.222986e-01 3.532971e-01 3.089555e-01 1.963951e-01 7.900084e-02 7.948312e-06
<VARIANCE> 25
 6.950772e+00 8.938692e+00 1.068857e+01 1.587489e+01 1.749335e+01 1.560697e+01 1.689044e+01 1.842910e+01 1.653764e+01 1.753828e+01 1.820628e+01 1.434640e+01 1.250130e-01 2.268006e-01 3.367491e-01 4.657764e-01 6.490747e-01 8.121402e-01 9.298514e-01 1.003056e+00 1.052989e+00 1.075965e+00 1.076207e+00 1.012645e+00 1.017801e-06
<GCONST> 5.808314e+01
<MIXTURE> 4 1.671429e-02
<MEAN> 25
 3.330475e+00 2.715938e+00 -3.806096e+00 1.000032e+00 3.812835e+00 -1.980247e-02 -4.604930e-01 -4.830401e-01 1.739845e+00 1.363301e+00 -1.519936e+00 2.661032e-01 -2.633012e+00 1.154058e+00 1.680452e+00 3.000341e+00 7.753055e-01 1.846523e-01 1.538779e+00 1.032307e+00 8.739676e-01 3.818551e-01 1.029016e+00 9.681017e-01 -9.609586e-02
<VARIANCE> 25
 1.942436e+01 2.806810e+01 2.748744e+01 3.762090e+01 4.472013e+01 6.508484e+01 6.328748e+01 5.086642e+01 5.169358e+01 5.643141e+01 4.649690e+01 3.326939e+01 2.422077e+00 4.909534e+00 3.571424e+00 4.751001e+00 4.850835e+00 6.644004e+00 5.644693e+00 5.202269e+00 6.031567e+00 5.994174e+00 5.968132e+00 4.131809e+00 6.446557e-03
<GCONST> 1.044733e+02
<MIXTURE> 5 3.206198e-03
<MEAN> 25
 -3.414007e+00 2.189261e+00 5.921596e-01 9.423223e+00 6.667542e+00 6.304845e+00 7.114801e+00 4.723642e+00 5.496220e+00 3.830641e+00 4.652990e+00 2.610415e+00 -3.245032e-01 7.508753e-01 1.224406e+00 1.029941e+00 3.087135e-01 -9.934265e-02 -8.594143e-02 3.497855e-02 4.611176e-01 6.832356e-01 3.997725e-01 8.495367e-02 -2.456051e-05
<VARIANCE> 25
 1.022402e+01 1.392974e+01 2.353442e+01 2.555899e+01 2.046604e+01 1.941420e+01 2.007046e+01 2.030974e+01 2.135947e+01 2.134186e+01 2.406754e+01 1.633968e+01 1.206679e+00 1.244178e+00 1.355417e+00 1.671285e+00 2.280517e+00 2.369841e+00 2.297457e+00 2.271988e+00 2.313638e+00 2.234383e+00 2.086387e+00 1.872381e+00 1.010392e-06
<GCONST> 7.516088e+01
<MIXTURE> 6 5.475854e-03
<MEAN> 25
 9.613254e+00 -3.052853e-01 -6.609703e+00 -1.080203e+01 -2.110993e+00 6.744165e+00 -5.810844e+00 -5.301165e+00 -3.546761e+00 1.768636e+00 4.638396e+00 -1.219957e+00 4.730169e-01 8.851753e-01 -3.664579e-01 -1.454690e+00 -6.284457e-01 1.315973e+00 1.519739e+00 2.404396e-01 -1.206517e+00 -1.208635e+00 3.232246e-01 1.240047e+00 -8.606499e-03
<VARIANCE> 25
 9.177701e+00 1.789431e+01 2.416458e+01 4.143535e+01 3.605446e+01 3.023004e+01 4.401358e+01 3.732290e+01 4.081892e+01 3.895947e+01 4.156507e+01 2.815608e+01 3.159823e-01 8.530738e-01 9.536426e-01 1.966794e+00 1.593065e+00 1.984134e+00 1.923542e+00 2.027899e+00 2.391803e+00 1.933770e+00 2.216147e+00 1.459280e+00 5.890894e-04
<GCONST> 8.389012e+01
<MIXTURE> 7 5.475854e-03
<MEAN> 25
 9.613254e+00 -3.052853e-01 -6.609703e+00 -1.080203e+01 -2.110993e+00 6.744165e+00 -5.810844e+00 -5.301165e+00 -3.546761e+00 1.768636e+00 4.638396e+00 -1.219957e+00 4.730169e-01 8.851753e-01 -3.664579e-01 -1.454690e+00 -6.284457e-01 1.315973e+00 1.519739e+00 2.404396e-01 -1.206517e+00 -1.208635e+00 3.232246e-01 1.240047e+00 -8.606499e-03
<VARIANCE> 25
 9.177701e+00 1.789431e+01 2.416458e+01 4.143535e+01 3.605446e+01 3.023004e+01 4.401358e+01 3.732290e+01 4.081892e+01 3.895947e+01 4.156507e+01 2.815608e+01 3.159823e-01 8.530738e-01 9.536426e-01 1.966794e+00 1.593065e+00 1.984134e+00 1.923542e+00 2.027899e+00 2.391803e+00 1.933770e+00 2.216147e+00 1.459280e+00 5.890894e-04
<GCONST> 8.389012e+01
<MIXTURE> 8 1.165917e-02
<MEAN> 25
 -4.728724e+00 1.363625e+00 1.288753e+00 9.560076e+00 6.570552e+00 6.251602e+00 6.478164e+00 5.689239e+00 6.661805e+00 5.627011e+00 6.569632e+00 3.154285e+00 -6.294059e-01 -1.425193e+00 -1.070211e+00 -1.730157e+00 -2.301581e-01 -9.451823e-01 -1.786180e-01 -2.892252e-01 -2.533257e-01 -1.748389e-01 -2.140610e-01 8.100228e-02 9.884827e-02
<VARIANCE> 25
 9.338335e+00 9.842760e+00 1.162981e+01 1.605034e+01 1.666658e+01 1.572129e+01 1.812583e+01 1.750197e+01 1.705003e+01 1.741708e+01 1.888960e+01 1.399575e+01 2.755945e+00 2.815506e+00 3.910022e+00 3.762727e+00 3.455955e+00 3.314417e+00 3.129170e+00 3.079313e+00 2.872273e+00 2.655541e+00 2.434720e+00 1.901041e+00 6.682629e-03
<GCONST> 8.629332e+01
<MIXTURE> 9 1.199672e-02
<MEAN> 25
 9.115593e+00 3.286176e+00 -5.951129e+00 -1.047110e+01 -2.093689e+00 4.884022e+00 -2.281310e+00 -2.372005e+00 -5.285163e+00 -1.147743e+00 6.746961e-01 2.754266e-04 1.417506e+00 -1.596184e-01 -4.319297e-01 -2.674087e+00 -1.625470e+00 8.960801e-01 -1.003389e+00 -2.567463e-01 -1.548131e-01 -5.418119e-01 6.423072e-01 -2.021262e-01 7.156209e-02
<VARIANCE> 25
 1.269564e+01 2.166404e+01 3.437587e+01 5.327622e+01 4.974273e+01 3.156791e+01 4.255564e+01 5.067623e+01 4.104416e+01 4.055987e+01 3.571408e+01 2.658469e+01 2.106707e+00 2.406364e+00 4.530008e+00 4.752820e+00 4.858803e+00 4.038402e+00 4.383539e+00 6.020757e+00 4.899124e+00 4.000539e+00 3.915471e+00 2.819008e+00 2.236282e-03
<GCONST> 9.860157e+01
<MIXTURE> 10 6.596976e-03
<MEAN> 25
 8.144774e-01 7.621558e+00 5.374638e+00 7.134855e+00 1.570189e+00 -2.115191e+00 -5.273938e-01 -1.666645e+00 8.661534e-01 8.565193e-01 8.095996e-01 6.416448e-01 -1.909984e+00 -6.621451e-01 -4.662633e-01 3.015488e+00 2.438741e+00 2.708644e+00 2.361408e+00 2.266894e+00 1.863176e+00 1.526666e+00 2.322960e+00 5.108138e-01 -1.378625e-01
<VARIANCE> 25
 1.944691e+01 2.059231e+01 2.223317e+01 2.900233e+01 3.815237e+01 3.482816e+01 3.509199e+01 3.381012e+01 2.754359e+01 2.887969e+01 2.705636e+01 2.493565e+01 2.257411e+00 3.430409e+00 5.512914e+00 5.168221e+00 5.619486e+00 4.459579e+00 4.697484e+00 4.836140e+00 4.366497e+00 5.049429e+00 4.444112e+00 3.217074e+00 2.696936e-03
<GCONST> 9.745097e+01
<MIXTURE> 11 1.633820e-02
<MEAN> 25
 6.824939e+00 5.078564e+00 2.400985e+00 4.580417e+00 -2.819599e+00 8.112857e-03 -3.248884e+00 -6.131246e+00 -2.841676e+00 -5.406994e-01 -1.061736e+00 -1.174544e+00 -3.543574e-01 5.341397e-01 7.403629e-02 9.978240e-02 2.293672e-01 3.151861e-03 4.912596e-01 -6.196637e-02 -3.545969e-01 -9.980173e-02 -3.362323e-02 3.459435e-01 -2.142011e-02
<VARIANCE> 25
 1.020192e+01 2.095331e+01 1.964684e+01 2.747959e+01 3.155660e+01 3.599123e+01 4.426154e+01 3.421072e+01 3.842801e+01 2.712191e+01 3.204649e+01 2.582593e+01 7.748170e-01 1.242087e+00 1.451996e+00 2.705865e+00 1.775266e+00 3.139023e+00 1.998671e+00 2.517534e+00 2.291775e+00 1.908171e+00 1.801234e+00 2.229728e+00 8.288670e-04
<GCONST> 8.606259e+01
<MIXTURE> 12 5.904134e-03
<MEAN> 25
 1.063237e+01 3.733209e+00 -4.558583e+00 -1.573391e+01 -8.565596e+00 8.644964e+00 -8.411272e-01 -1.977504e+00 -1.605049e+00 -4.835090e+00 1.793952e+00 6.664587e-01 6.846979e-02 2.870862e-01 5.286054e-02 -3.595909e-01 -3.051974e-01 4.166879e-02 2.960812e-01 4.456489e-01 1.436390e-01 -3.836455e-01 -3.849342e-01 5.969936e-02 -6.672332e-03
<VARIANCE> 25
 9.606575e+00 2.078003e+01 2.343847e+01 3.773450e+01 4.216663e+01 3.050439e+01 4.117742e+01 4.827794e+01 4.415370e+01 3.706616e+01 3.773998e+01 2.858398e+01 2.453012e-01 6.840863e-01 7.221657e-01 1.162457e+00 1.177645e+00 1.049696e+00 1.158048e+00 1.376954e+00 1.237540e+00 1.206986e+00 1.205384e+00 9.604833e-01 5.760441e-04
<GCONST> 7.897375e+01
<MIXTURE> 13 5.904134e-03
<MEAN> 25
 1.063237e+01 3.733209e+00 -4.558583e+00 -1.573391e+01 -8.565596e+00 8.644964e+00 -8.411272e-01 -1.977504e+00 -1.605049e+00 -4.835090e+00 1.793952e+00 6.664587e-01 6.846979e-02 2.870862e-01 5.286054e-02 -3.595909e-01 -3.051974e-01 4.166879e-02 2.960812e-01 4.456489e-01 1.436390e-01 -3.836455e-01 -3.849342e-01 5.969936e-02 -6.672332e-03
<VARIANCE> 25
 9.606575e+00 2.078003e+01 2.343847e+01 3.773450e+01 4.216663e+01 3.050439e+01 4.117742e+01 4.827794e+01 4.415370e+01 3.706616e+01 3.773998e+01 2.858398e+01 2.453012e-01 6.840863e-01 7.221657e-01 1.162457e+00 1.177645e+00 1.049696e+00 1.158048e+00 1.376954e+00 1.237540e+00 1.206986e+00 1.205384e+00 9.604833e-01 5.760441e-04
<GCONST> 7.897375e+01
<MIXTURE> 14 6.488954e-03
<MEAN> 25
 -4.304074e+00 -3.574314e-01 -3.445084e-01 8.917747e+00 7.462257e+00 7.340196e+00 7.811696e+00 7.322317e+00 7.274208e+00 5.184840e+00 6.829370e+00 4.107010e+00 -2.739365e-01 1.887163e-01 3.608449e-01 3.122749e-01 1.137840e-02 5.888004e-02 9.493476e-02 1.799410e-01 2.935525e-01 5.318230e-01 4.978811e-01 7.391591e-02 -9.306580e-03
<VARIANCE> 25
 9.272284e+00 1.386611e+01 1.871672e+01 1.780583e+01 2.129100e+01 1.976921e+01 2.147613e+01 2.054780e+01 2.008119e+01 2.408987e+01 2.151571e+01 1.594202e+01 9.569651e-01 1.640206e+00 1.770235e+00 1.927850e+00 2.242745e+00 2.249106e+00 2.252859e+00 2.232612e+00 2.278169e+00 2.513206e+00 2.209392e+00 1.804183e+00 1.029104e-03
<GCONST> 8.192442e+01
<MIXTURE> 15 2.475190e-03
<MEAN> 25
 -5.347545e+00 -4.918247e-01 -1.895115e-01 7.468733e+00 5.510565e+00 5.620108e+00 5.991739e+00 5.046753e+00 5.237121e+00 4.065974e+00 5.343059e+00 2.451380e+00 -1.223798e-01 -2.291304e-02 8.124977e-02 2.497561e-01 4.960445e-01 7.719657e-01 1.075917e+00 1.182965e+00 1.058069e+00 7.362440e-01 4.289531e-01 1.520728e-01 -1.747854e-05
<VARIANCE> 25
 7.032775e+00 6.363565e+00 8.940630e+00 1.290820e+01 1.541241e+01 1.422072e+01 1.477181e+01 1.473199e+01 1.396934e+01 1.415588e+01 1.572060e+01 1.258443e+01 1.218790e-01 2.048719e-01 3.187876e-01 4.932402e-01 6.848859e-01 7.826703e-01 7.527961e-01 7.776515e-01 8.921775e-01 1.017142e+00 1.053416e+00 1.017987e+00 2.751528e-05
<GCONST> 5.861655e+01
<MIXTURE> 16 2.475190e-03
<MEAN> 25
 -5.347545e+00 -4.918247e-01 -1.895115e-01 7.468733e+00 5.510565e+00 5.620108e+00 5.991739e+00 5.046753e+00 5.237121e+00 4.065974e+00 5.343059e+00 2.451380e+00 -1.223798e-01 -2.291304e-02 8.124977e-02 2.497561e-01 4.960445e-01 7.719657e-01 1.075917e+00 1.182965e+00 1.058069e+00 7.362440e-01 4.289531e-01 1.520728e-01 -1.747854e-05
<VARIANCE> 25
 7.032775e+00 6.363565e+00 8.940630e+00 1.290820e+01 1.541241e+01 1.422072e+01 1.477181e+01 1.473199e+01 1.396934e+01 1.415588e+01 1.572060e+01 1.258443e+01 1.218790e-01 2.048719e-01 3.187876e-01 4.932402e-01 6.848859e-01 7.826703e-01 7.527961e-01 7.776515e-01 8.921775e-01 1.017142e+00 1.053416e+00 1.017987e+00 2.751528e-05
<GCONST> 5.861655e+01
<MIXTURE> 17 9.518312e-03
<MEAN> 25
 3.431968e+00 -2.474658e-01 6.376191e+00 1.922620e+00 -5.537456e+00 -6.052409e+00 -3.376813e+00 -2.648999e-01 -2.841784e+00 -2.935328e+00 -1.378304e-01 2.675610e-01 -8.500848e-01 -1.246194e+00 1.466681e+00 -1.980660e+00 -2.158272e+00 -4.252997e-01 3.714736e-01 5.576774e-01 -5.150626e-01 -2.387039e-03 8.932871e-01 4.647820e-01 8.199584e-02
<VARIANCE> 25
 1.605966e+01 3.247922e+01 4.215891e+01 3.777106e+01 4.317772e+01 4.657672e+01 3.914516e+01 3.237936e+01 3.354037e+01 2.590407e+01 2.749695e+01 2.730841e+01 1.989745e+00 2.611666e+00 4.557258e+00 3.301545e+00 4.201939e+00 5.901876e+00 5.176062e+00 4.766327e+00 4.257750e+00 3.868118e+00 3.029562e+00 2.791755e+00 1.971209e-03
<GCONST> 9.719950e+01
<MIXTURE> 18 1.221018e-02
<MEAN> 25
 2.865440e+00 4.114907e+00 7.445420e+00 5.187107e+00 -3.608064e+00 -8.733369e+00 -2.093866e+00 -5.988794e-01 -4.458291e+00 -1.661610e+00 -1.839735e+00 1.175546e+00 -3.099456e-01 2.029011e+00 -1.173094e+00 1.665977e+00 2.782769e+00 1.657233e+00 3.292764e-01 -4.331801e-01 1.313547e+00 4.118800e-01 -5.185978e-01 -5.791515e-01 -1.178778e-01
<VARIANCE> 25
 1.737708e+01 2.066099e+01 3.032703e+01 2.468645e+01 4.196915e+01 3.576360e+01 3.296147e+01 3.083931e+01 3.821688e+01 3.127678e+01 2.964854e+01 3.901286e+01 2.299922e+00 2.432045e+00 5.417971e+00 3.981687e+00 4.308191e+00 4.569603e+00 4.537533e+00 3.725814e+00 4.657011e+00 3.289032e+00 3.648750e+00 3.784535e+00 3.385017e-03
<GCONST> 9.709261e+01
<MIXTURE> 19 9.912824e-03
<MEAN> 25
 -9.404432e+00 1.835734e+00 -2.166638e-01 1.421692e+00 3.441591e+00 1.691125e+00 3.315981e+00 1.399546e+00 2.213818e+00 5.147637e-01 8.089579e-01 1.962124e+00 1.960775e+00 1.671546e+00 2.197101e+00 6.837014e-01 -9.066217e-01 -9.680563e-01 -1.152035e+00 -1.348891e+00 -1.523459e+00 -1.161820e+00 -7.800075e-01 -7.862523e-01 2.872700e-03
<VARIANCE> 25
 5.628816e+01 2.796333e+01 4.733487e+01 5.187078e+01 3.423294e+01 3.104266e+01 2.902789e+01 3.035609e+01 2.825902e+01 2.938095e+01 2.885760e+01 2.059290e+01 2.402339e+00 2.113747e+00 2.427216e+00 2.608529e+00 2.857213e+00 2.230047e+00 2.454209e+00 2.236716e+00 2.174548e+00 1.915159e+00 2.316550e+00 1.676403e+00 2.630567e-03
<GCONST> 9.184111e+01
<MIXTURE> 20 6.308331e-03
<MEAN> 25
 -1.417963e+01 7.412701e+00 8.451681e-01 6.149805e+00 4.843860e+00 1.632273e+00 5.208916e+00 8.518194e-01 9.199560e-01 7.997750e-01 2.567417e+00 -2.996005e-01 -3.285729e+00 -8.664851e-01 -1.564622e+00 3.323344e-01 1.541705e+00 2.062691e+00 1.979409e+00 2.056342e+00 2.144184e+00 2.039399e+00 1.683655e+00 9.448949e-01 4.732610e-02
<VARIANCE> 25
 1.966823e+01 2.348707e+01 3.095778e+01 3.718311e+01 3.084096e+01 2.795321e+01 2.992603e+01 3.148478e+01 2.797214e+01 2.820841e+01 2.515586e+01 2.093544e+01 2.091701e+00 2.182120e+00 1.910520e+00 2.540731e+00 2.703717e+00 2.313123e+00 2.309468e+00 2.319400e+00 2.235481e+00 2.653688e+00 2.244361e+00 1.865838e+00 1.886194e-03
<GCONST> 8.922484e+01
<MIXTURE> 21 7.928653e-03
<MEAN> 25
 4.005860e+00 -4.530932e+00 5.775054e+00 -1.546950e+00 -1.058326e+01 -8.727730e+00 -2.615981e+00 4.175747e+00 -2.071735e+00 -3.410132e+00 2.440119e-01 3.408864e-01 -7.194110e-01 1.341698e+00 2.589550e+00 -4.469331e-02 -1.552044e+00 3.357862e-01 5.889519e-01 -1.498163e+00 -1.958308e+00 3.135934e-01 1.326562e+00 2.465645e-01 -1.278385e-02
<VARIANCE> 25
 8.900728e+00 1.873145e+01 2.966114e+01 2.840945e+01 2.856509e+01 3.320211e+01 4.295023e+01 3.936922e+01 4.293365e+01 3.159877e+01 3.383044e+01 2.323757e+01 3.763458e-01 9.497106e-01 1.854768e+00 1.290635e+00 2.212273e+00 2.187936e+00 3.641832e+00 2.501164e+00 2.161600e+00 2.595591e+00 2.017789e+00 2.285139e+00 4.286834e-04
<GCONST> 8.509612e+01
<MIXTURE> 22 8.827789e-03
<MEAN> 25
 -1.792091e+01 7.154785e+00 -4.131347e+00 7.392482e+00 4.602546e+00 2.761039e+00 8.399819e+00 1.748462e+00 5.379299e+00 3.301012e+00 5.716434e+00 1.185148e+00 -3.095726e-01 -2.075880e-01 -1.255633e-01 -1.492641e-01 -7.208806e-03 1.369678e-01 1.807591e-01 1.779423e-01 2.484757e-01 2.073076e-01 1.726615e-01 1.924446e-01 8.857626e-03
<VARIANCE> 25
 8.116920e+00 1.682541e+01 1.738343e+01 2.517213e+01 2.289636e+01 2.083704e+01 1.943101e+01 1.871084e+01 1.813996e+01 2.086667e+01 1.924184e+01 1.378720e+01 1.090756e+00 1.357369e+00 1.363971e+00 1.572030e+00 1.408815e+00 1.526971e+00 1.508942e+00 1.532825e+00 1.614233e+00 1.544764e+00 1.357418e+00 1.168007e+00 1.745583e-03
<GCONST> 7.830949e+01
<MIXTURE> 23 6.455497e-03
<MEAN> 25
 7.741903e+00 2.649086e+00 2.742978e+00 2.399390e+00 -4.813024e+00 -2.390689e+00 -3.984268e+00 -6.429860e+00 -3.270128e+00 -1.072017e+00 -3.620049e+00 -1.898292e+00 1.847803e-02 1.474220e-01 -4.062070e-02 -5.721663e-03 -2.173564e-02 5.305792e-02 7.505647e-02 -3.920111e-02 -3.639963e-02 1.025193e-01 5.933524e-02 4.308982e-02 -4.939891e-03
<VARIANCE> 25
 1.041046e+01 2.178885e+01 2.456186e+01 3.890567e+01 3.578443e+01 5.831475e+01 5.645578e+01 5.202742e+01 4.780774e+01 4.461946e+01 4.892434e+01 3.992928e+01 1.157717e-01 2.990028e-01 3.905953e-01 5.202026e-01 5.992603e-01 6.717387e-01 8.483356e-01 8.310453e-01 8.843807e-01 8.673095e-01 8.423358e-01 7.364181e-01 8.977213e-05
<GCONST> 7.282724e+01
<MIXTURE> 24 6.455497e-03
<MEAN> 25
 7.741903e+00 2.649086e+00 2.742978e+00 2.399390e+00 -4.813024e+00 -2.390689e+00 -3.984268e+00 -6.429860e+00 -3.270128e+00 -1.072017e+00 -3.620049e+00 -1.898292e+00 1.847803e-02 1.474220e-01 -4.062070e-02 -5.721663e-03 -2.173564e-02 5.305792e-02 7.505647e-02 -3.920111e-02 -3.639963e-02 1.025193e-01 5.933524e-02 4.308982e-02 -4.939891e-03
<VARIANCE> 25
 1.041046e+01 2.178885e+01 2.456186e+01 3.890567e+01 3.578443e+01 5.831475e+01 5.645578e+01 5.202742e+01 4.780774e+01 4.461946e+01 4.892434e+01 3.992928e+01 1.157717e-01 2.990028e-01 3.905953e-01 5.202026e-01 5.992603e-01 6.717387e-01 8.483356e-01 8.310453e-01 8.843807e-01 8.673095e-01 8.423358e-01 7.364181e-01 8.977213e-05
<GCONST> 7.282724e+01
<MIXTURE> 25 1.118642e-02
<MEAN> 25
 1.138925e-01 3.502329e+00 1.727700e+01 -1.335299e+00 -1.091740e+01 -1.552195e+00 -4.121904e+00 -3.028601e+00 -7.776578e+00 -4.811279e+00 3.763805e+00 -1.247565e+00 -1.172439e-01 2.464992e-01 1.493482e-01 2.995180e-01 1.851833e-02 -4.063403e-02 1.824842e-01 -9.622175e-02 -3.069614e-01 2.137491e-02 1.954828e-02 -7.247446e-02 -8.480634e-03
<VARIANCE> 25
 8.278339e+00 2.104687e+01 2.151307e+01 2.935960e+01 3.067264e+01 4.330004e+01 3.174858e+01 2.752832e+01 3.222838e+01 3.649551e+01 2.087158e+01 2.675743e+01 5.589607e-01 1.648068e+00 1.366192e+00 1.469785e+00 2.716203e+00 2.208107e+00 1.705261e+00 1.620812e+00 1.579917e+00 1.593783e+00 1.324573e+00 1.296325e+00 1.399524e-03
<GCONST> 8.323101e+01
<MIXTURE> 26 7.727677e-03
<MEAN> 25
 2.017093e+00 -5.320164e+00 -9.054157e+00 -1.575740e+00 7.344383e+00 4.585655e+00 3.149596e+00 -1.089855e+00 2.328383e+00 -3.645451e-01 -1.959449e+00 -1.286392e+00 -4.536954e-01 8.033543e-01 2.409365e-01 7.854051e-01 6.748426e-02 1.033072e-01 1.725998e-01 3.256838e-01 2.093600e-01 -1.959525e-02 1.319415e-01 5.474584e-01 -5.300600e-02
<VARIANCE> 25
 1.867825e+01 3.730602e+01 2.464208e+01 5.055560e+01 3.661077e+01 3.713818e+01 4.747045e+01 3.871516e+01 3.661473e+01 4.595737e+01 3.590886e+01 3.929642e+01 1.387193e+00 1.728074e+00 1.917481e+00 1.955436e+00 2.166572e+00 2.486168e+00 2.474503e+00 2.529934e+00 2.073491e+00 2.260865e+00 2.194898e+00 1.842491e+00 3.183047e-03
<GCONST> 9.193895e+01
<MIXTURE> 27 7.727677e-03
<MEAN> 25
 2.017093e+00 -5.320164e+00 -9.054157e+00 -1.575740e+00 7.344383e+00 4.585655e+00 3.149596e+00 -1.089855e+00 2.328383e+00 -3.645451e-01 -1.959449e+00 -1.286392e+00 -4.536954e-01 8.033543e-01 2.409365e-01 7.854051e-01 6.748426e-02 1.033072e-01 1.725998e-01 3.256838e-01 2.093600e-01 -1.959525e-02 1.319415e-01 5.474584e-01 -5.300600e-02
<VARIANCE> 25
 1.867825e+01 3.730602e+01 2.464208e+01 5.055560e+01 3.661077e+01 3.713818e+01 4.747045e+01 3.871516e+01 3.661473e+01 4.595737e+01 3.590886e+01 3.929642e+01 1.387193e+00 1.728074e+00 1.917481e+00 1.955436e+00 2.166572e+00 2.486168e+00 2.474503e+00 2.529934e+00 2.073491e+00 2.260865e+00 2.194898e+00 1.842491e+00 3.183047e-03
<GCONST> 9.193895e+01
<MIXTURE> 28 5.036674e-03
<MEAN> 25
 -5.310393e+00 2.601931e-01 -1.711613e+00 6.674191e+00 4.874303e+00 3.427022e+00 5.505391e+00 3.242863e+00 4.032197e+00 2.148958e+00 2.676287e+00 3.287662e+00 -1.249352e-01 2.002012e-01 5.271358e-01 7.625943e-01 8.291066e-01 6.831169e-01 4.956682e-01 4.281438e-01 5.060633e-01 5.019648e-01 3.200676e-01 1.528448e-01 5.085426e-05
<VARIANCE> 25
 1.036944e+01 9.311578e+00 1.229535e+01 1.440161e+01 1.664999e+01 1.720690e+01 1.783322e+01 1.856515e+01 1.672579e+01 1.737371e+01 2.007833e+01 1.481078e+01 2.481924e-01 3.474470e-01 3.954364e-01 4.562351e-01 6.206414e-01 8.176567e-01 1.046989e+00 1.130313e+00 1.142845e+00 1.012162e+00 1.076751e+00 1.074621e+00 1.113943e-06
<GCONST> 6.043140e+01
<MIXTURE> 29 5.036674e-03
<MEAN> 25
 -5.310393e+00 2.601931e-01 -1.711613e+00 6.674191e+00 4.874303e+00 3.427022e+00 5.505391e+00 3.242863e+00 4.032197e+00 2.148958e+00 2.676287e+00 3.287662e+00 -1.249352e-01 2.002012e-01 5.271358e-01 7.625943e-01 8.291066e-01 6.831169e-01 4.956682e-01 4.281438e-01 5.060633e-01 5.019648e-01 3.200676e-01 1.528448e-01 5.085426e-05
<VARIANCE> 25
 1.036944e+01 9.311578e+00 1.229535e+01 1.440161e+01 1.664999e+01 1.720690e+01 1.783322e+01 1.856515e+01 1.672579e+01 1.737371e+01 2.007833e+01 1.481078e+01 2.481924e-01 3.474470e-01 3.954364e-01 4.562351e-01 6.206414e-01 8.176567e-01 1.046989e+00 1.130313e+00 1.142845e+00 1.012162e+00 1.076751e+00 1.074621e+00 1.113943e-06
<GCONST> 6.043140e+01
<MIXTURE> 30 8.917812e-03
<MEAN> 25
 -4.413801e+00 -1.148927e-02 4.773763e-01 9.104558e+00 7.442529e+00 7.313814e+00 7.472342e+00 6.860735e+00 6.646018e+00 4.692778e+00 6.714304e+00 3.395797e+00 -2.227897e-02 1.726658e-02 4.458195e-02 8.997898e-02 1.147586e-01 6.468420e-02 -5.594969e-03 -2.658560e-02 4.491213e-02 7.637449e-02 6.048387e-02 4.145288e-02 -4.081975e-04
<VARIANCE> 25
 6.817902e+00 1.027042e+01 1.093785e+01 1.324387e+01 1.774887e+01 1.675944e+01 1.875788e+01 1.762142e+01 1.605995e+01 1.861003e+01 2.270245e+01 1.428226e+01 9.476107e-02 2.038943e-01 3.357446e-01 4.666411e-01 6.353161e-01 7.184156e-01 7.820107e-01 8.357487e-01 8.703735e-01 9.319938e-01 8.963106e-01 8.398666e-01 5.005870e-05
<GCONST> 6.074368e+01
<MIXTURE> 31 4.136493e-03
<MEAN> 25
 -3.288604e+00 -5.632391e+00 8.322852e-04 4.915207e+00 3.634749e+00 1.700950e+00 5.244428e+00 6.660280e+00 2.773313e+00 1.205957e+00 6.472603e+00 3.159264e+00 2.519031e-01 4.735475e-01 -2.131181e-01 3.062950e-01 1.206653e-01 4.254032e-01 1.965789e-01 1.769764e-02 3.709483e-01 3.838189e-01 1.141909e-01 1.145335e-01 -1.832091e-02
<VARIANCE> 25
 7.163547e+00 1.566778e+01 1.780624e+01 1.811949e+01 2.550332e+01 2.374561e+01 2.351446e+01 2.530033e+01 2.603321e+01 2.794941e+01 2.071954e+01 1.864288e+01 1.901089e-01 4.919851e-01 6.057121e-01 7.643956e-01 9.614915e-01 1.086032e+00 1.225946e+00 1.394052e+00 1.360122e+00 1.313385e+00 1.253505e+00 1.126473e+00 2.565640e-04
<GCONST> 7.188181e+01
<MIXTURE> 32 4.136493e-03
<MEAN> 25
 -3.288604e+00 -5.632391e+00 8.322852e-04 4.915207e+00 3.634749e+00 1.700950e+00 5.244428e+00 6.660280e+00 2.773313e+00 1.205957e+00 6.472603e+00 3.159264e+00 2.519031e-01 4.735475e-01 -2.131181e-01 3.062950e-01 1.206653e-01 4.254032e-01 1.965789e-01 1.769764e-02 3.709483e-01 3.838189e-01 1.141909e-01 1.145335e-01 -1.832091e-02
<VARIANCE> 25
 7.163547e+00 1.566778e+01 1.780624e+01 1.811949e+01 2.550332e+01 2.374561e+01 2.351446e+01 2.530033e+01 2.603321e+01 2.794941e+01 2.071954e+01 1.864288e+01 1.901089e-01 4.919851e-01 6.057121e-01 7.643956e-01 9.614915e-01 1.086032e+00 1.225946e+00 1.394052e+00 1.360122e+00 1.313385e+00 1.253505e+00 1.126473e+00 2.565640e-04
<GCONST> 7.188181e+01
<MIXTURE> 33 1.508826e-02
<MEAN> 25
 5.674532e+00 -4.172213e+00 -2.144312e+00 -3.469222e+00 -1.048649e+00 -5.241746e+00 -6.772339e+00 1.855211e+00 1.914080e+00 8.605224e-02 -4.334489e+00 -2.860865e+00 5.466241e-01 -1.260524e+00 -2.063777e+00 -1.938963e+00 1.283857e+00 1.421915e+00 -7.225490e-01 6.581202e-01 7.602908e-01 6.618227e-01 -5.979639e-02 -1.320987e+00 4.143954e-02
<VARIANCE> 25
 1.066943e+01 2.137671e+01 2.778503e+01 3.614051e+01 3.786871e+01 3.694048e+01 3.638988e+01 4.117415e+01 3.558310e+01 3.831162e+01 3.145386e+01 2.491041e+01 1.109484e+00 1.873664e+00 2.397062e+00 2.425072e+00 4.088371e+00 3.102659e+00 3.892131e+00 5.171019e+00 3.594931e+00 3.713515e+00 3.316085e+00 2.637236e+00 1.483483e-03
<GCONST> 9.300648e+01
<MIXTURE> 34 1.588179e-02
<MEAN> 25
 8.388307e+00 5.530230e-01 -5.372179e-02 1.633083e+00 -2.503870e+00 -1.058043e+00 -6.322896e+00 -4.880864e+00 -1.363729e+00 1.304734e-01 -2.198936e+00 -3.470021e+00 -6.456055e-03 1.466326e+00 1.090478e+00 1.994126e+00 -1.935883e-02 6.189352e-02 5.707891e-01 -1.629676e+00 -7.063965e-01 2.320654e-01 -4.172422e-01 4.234724e-01 -6.310249e-02
<VARIANCE> 25
 8.777531e+00 3.046263e+01 2.760306e+01 4.955893e+01 3.840017e+01 4.487487e+01 4.906575e+01 5.048015e+01 4.687535e+01 3.852471e+01 4.348594e+01 2.932695e+01 1.165383e+00 1.935422e+00 4.660468e+00 5.168477e+00 5.615144e+00 6.606227e+00 5.389640e+00 5.739238e+00 5.017778e+00 4.420220e+00 4.580193e+00 3.680491e+00 1.117762e-03
<GCONST> 9.884103e+01
<MIXTURE> 35 1.467755e-02
<MEAN> 25
 -1.533916e+00 -6.198730e+00 -9.764118e+00 -1.208662e-01 9.385695e+00 8.035147e-01 1.055255e-01 9.385356e-01 5.848918e-01 4.925178e+00 3.458403e-01 1.857207e+00 3.796449e-01 -1.156693e+00 -1.084164e+00 -1.203717e+00 8.106185e-01 -2.782115e-01 -4.215800e-01 -2.055240e-01 -3.755499e-01 3.587334e-01 -4.326376e-01 -3.807438e-01 1.014671e-01
<VARIANCE> 25
 1.972351e+01 3.387550e+01 3.942035e+01 5.251506e+01 3.933583e+01 5.642085e+01 5.822193e+01 4.980642e+01 4.820351e+01 3.454473e+01 3.422620e+01 2.666806e+01 3.159642e+00 3.279256e+00 6.299433e+00 5.474743e+00 5.812192e+00 6.606026e+00 4.801201e+00 4.553615e+00 5.224890e+00 4.080447e+00 4.357807e+00 3.505570e+00 4.720585e-03
<GCONST> 1.030399e+02
<MIXTURE> 36 1.093293e-02
<MEAN> 25
 4.449670e+00 -3.778976e+00 7.828417e+00 2.124506e+00 -1.016572e+01 -8.566392e+00 -6.425730e+00 3.257043e+00 -2.629898e+00 -3.450992e+00 2.657639e+00 -9.440423e-01 4.397452e-01 1.611137e-01 -1.016630e+00 7.916784e-03 9.835104e-01 2.252628e-02 -6.928796e-01 8.251283e-02 6.009027e-01 8.044758e-01 -4.930806e-01 -4.289464e-01 -1.916499e-02
<VARIANCE> 25
 1.096114e+01 1.544791e+01 2.367190e+01 2.712492e+01 2.812596e+01 2.962644e+01 4.140221e+01 3.132985e+01 3.829290e+01 3.785113e+01 2.490330e+01 2.747423e+01 4.569750e-01 7.744089e-01 1.500644e+00 1.185558e+00 1.545109e+00 1.463419e+00 2.374927e+00 1.627644e+00 2.109385e+00 1.906492e+00 1.280713e+00 1.405278e+00 8.445418e-04
<GCONST> 8.185182e+01
<MIXTURE> 37 1.246826e-02
<MEAN> 25
 6.183698e-01 7.283254e+00 1.165084e+01 -5.203959e+00 -7.465746e+00 -8.738573e-01 -5.233420e+00 -7.978645e+00 -3.441625e+00 -8.432446e-01 -3.169412e+00 -1.175664e+00 2.068790e-01 7.522679e-01 -1.404334e+00 3.499803e+00 1.766915e+00 -3.191760e-01 9.465671e-01 4.596238e-01 6.505011e-01 -3.503469e-01 5.126511e-01 -1.567063e-01 -9.480270e-02
<VARIANCE> 25
 1.476356e+01 2.659031e+01 3.285067e+01 5.157138e+01 4.070235e+01 3.175182e+01 4.492585e+01 3.446030e+01 4.078520e+01 3.341209e+01 3.812177e+01 2.860440e+01 2.759710e+00 3.475836e+00 3.002249e+00 4.034372e+00 4.968710e+00 3.890070e+00 4.158069e+00 3.539206e+00 3.438651e+00 3.365786e+00 3.642471e+00 2.724591e+00 3.705374e-03
<GCONST> 9.762669e+01
<MIXTURE> 38 1.154525e-02
<MEAN> 25
 -4.851475e+00 6.308804e+00 4.449794e+00 2.161145e+00 1.286280e+00 -7.037970e+00 -2.969553e-01 -3.209748e+00 -3.798965e+00 -1.558067e+00 -1.277808e+00 1.573087e+00 -4.298060e+00 7.357280e-01 2.895258e-02 1.046792e+00 2.605719e+00 6.311595e-01 2.385632e+00 1.154040e+00 3.479823e-01 5.939475e-01 4.575439e-01 5.189406e-01 5.899535e-02
<VARIANCE> 25
 2.575100e+01 4.359475e+01 3.638665e+01 2.989192e+01 3.910587e+01 3.940920e+01 3.228095e+01 3.555503e+01 3.012986e+01 3.142551e+01 1.913956e+01 3.602288e+01 2.122729e+00 3.924464e+00 3.446508e+00 4.415777e+00 3.513231e+00 6.158764e+00 4.163456e+00 4.024575e+00 4.466727e+00 4.139229e+00 4.210174e+00 2.928009e+00 2.142603e-03
<GCONST> 9.775592e+01
<MIXTURE> 39 9.501865e-03
<MEAN> 25
 1.361908e+00 2.561055e+00 1.014919e+01 -9.187030e+00 -1.112887e+01 -9.209494e-01 -3.020329e+00 -6.576765e+00 -4.500496e+00 8.691207e-01 -3.625049e+00 -2.276991e+00 -7.224285e-01 1.507756e+00 1.612865e+00 -1.376400e+00 7.202438e-02 1.224805e+00 -1.207844e+00 -1.248120e+00 4.404671e-01 4.393602e-01 -4.891547e-01 1.089119e-01 1.063272e-03
<VARIANCE> 25
 8.866254e+00 3.007242e+01 3.176421e+01 3.801429e+01 3.940722e+01 4.276543e+01 4.449502e+01 3.316934e+01 3.907244e+01 3.287735e+01 3.615025e+01 2.920535e+01 6.965688e-01 1.564055e+00 1.515768e+00 2.929034e+00 2.400083e+00 2.797164e+00 3.048806e+00 2.749877e+00 2.429978e+00 2.596153e+00 2.133669e+00 2.073702e+00 1.186390e-03
<GCONST> 8.967497e+01
<MIXTURE> 40 1.030800e-02
<MEAN> 25
 -8.023519e+00 2.530569e+00 -1.835117e+00 8.065926e+00 2.616626e+00 5.190056e+00 5.280112e+00 4.172310e+00 4.997261e+00 3.234822e+00 4.994837e+00 1.897010e+00 -1.352317e-01 -2.063823e-01 -4.133952e-04 -1.191297e-01 -6.272767e-02 -1.725235e-01 1.210918e-01 1.643074e-01 -2.275201e-02 -1.137093e-01 -3.038098e-02 1.416571e-02 1.716181e-03
<VARIANCE> 25
 4.428698e+01 1.859996e+01 2.868408e+01 2.543807e+01 2.929953e+01 1.808774e+01 1.704045e+01 1.697120e+01 1.672536e+01 2.037514e+01 1.959692e+01 1.353141e+01 6.693016e-01 7.008170e-01 8.843433e-01 1.061001e+00 1.050348e+00 1.172300e+00 1.431185e+00 1.285836e+00 1.169362e+00 1.271332e+00 1.133102e+00 9.945300e-01 7.851679e-04
<GCONST> 7.596857e+01
<MIXTURE> 41 6.713375e-03
<MEAN> 25
 8.563465e-01 2.786031e+00 1.218127e+01 -6.043434e+00 -9.095244e+00 -3.507020e+00 -2.854993e+00 -4.118439e+00 -5.287569e+00 1.806638e+00 -2.263508e+00 6.157213e-02 -1.402806e-02 -7.925276e-01 2.238718e+00 -3.128221e+00 -2.397393e+00 -4.676415e-01 -3.004908e-01 -6.160106e-01 -1.214404e+00 1.281870e+00 -8.544813e-01 1.415438e-01 8.669446e-02
<VARIANCE> 25
 1.053811e+01 2.901511e+01 4.149538e+01 3.691258e+01 4.062087e+01 3.416433e+01 3.240678e+01 2.945033e+01 2.959814e+01 2.733883e+01 2.796106e+01 2.704778e+01 2.741920e+00 2.998799e+00 5.424543e+00 4.316557e+00 4.247330e+00 5.375127e+00 4.568574e+00 4.104000e+00 3.888428e+00 3.690863e+00 3.401698e+00 2.733889e+00 2.513459e-03
<GCONST> 9.665213e+01
<MIXTURE> 42 1.106211e-02
<MEAN> 25
 -2.945208e+00 3.958478e+00 5.617624e+00 2.339629e+00 3.738214e-01 -6.274046e+00 -6.972952e-01 -5.495510e-01 -2.275311e+00 -1.937812e+00 -1.217238e+00 1.838298e+00 4.089394e+00 -4.332754e-01 1.877494e+00 1.540241e-01 -2.987083e+00 -6.989122e-01 -2.164544e+00 -1.010332e+00 -7.326723e-01 -2.380716e-01 5.853317e-01 -1.312589e+00 8.563068e-03
<VARIANCE> 25
 4.599732e+01 1.998419e+01 4.832235e+01 2.581288e+01 3.872268e+01 3.763668e+01 3.282171e+01 3.054687e+01 2.785305e+01 2.647214e+01 2.658826e+01 1.712756e+01 3.539439e+00 4.116467e+00 6.139947e+00 4.658750e+00 4.538614e+00 6.095891e+00 4.915995e+00 4.494465e+00 4.491087e+00 5.057830e+00 3.661951e+00 3.544196e+00 4.239579e-03
<GCONST> 9.948933e+01
<MIXTURE> 43 7.108249e-03
<MEAN> 25
 3.157097e+00 -6.301808e+00 -2.250537e+00 -5.188799e+00 -7.316621e+00 -3.396734e+00 4.103572e+00 1.301830e+00 -5.024896e+00 -7.032003e+00 -4.306224e+00 -1.252065e+00 2.372500e-01 2.158639e+00 1.897751e+00 -1.202808e-01 -1.419906e+00 -7.896693e-01 -9.695188e-01 -7.833751e-01 8.188078e-01 1.458101e+00 3.410180e-01 1.738348e-02 -4.531630e-02
<VARIANCE> 25
 9.556792e+00 1.977112e+01 2.721061e+01 3.513918e+01 3.917850e+01 3.651275e+01 3.343988e+01 3.965887e+01 3.970044e+01 3.903241e+01 2.652187e+01 2.949965e+01 6.876060e-01 1.249475e+00 1.601631e+00 2.503638e+00 2.389433e+00 2.377486e+00 2.643164e+00 3.022078e+00 2.595478e+00 2.587152e+00 2.324484e+00 1.923574e+00 9.485763e-04
<GCONST> 8.800871e+01
<MIXTURE> 44 7.328289e-03
<MEAN> 25
 -1.557860e+01 1.647174e+00 3.572931e+00 -3.479842e+00 3.502270e+00 1.202806e+00 -1.725799e-02 2.872817e+00 7.080176e-01 -1.269268e+00 1.882773e+00 2.347944e+00 -1.507491e-01 -7.074004e-02 2.885270e-01 3.734321e-01 -1.938527e-01 1.546576e-01 4.508317e-01 1.842029e-01 1.727174e-01 -8.330755e-02 2.789713e-01 6.540020e-02 5.757555e-03
<VARIANCE> 25
 4.205905e+01 2.601880e+01 3.246748e+01 2.837996e+01 2.752017e+01 3.725143e+01 2.336667e+01 3.261247e+01 3.326442e+01 2.800115e+01 2.686071e+01 2.007894e+01 1.162551e+00 1.496883e+00 1.540509e+00 1.335823e+00 2.072057e+00 1.566974e+00 1.405017e+00 1.583175e+00 1.535493e+00 1.975688e+00 1.876227e+00 1.150874e+00 1.264361e-03
<GCONST> 8.492563e+01
<MIXTURE> 45 1.364932e-02
<MEAN> 25
 -1.271755e+01 3.043757e+00 6.782315e-02 1.753530e+00 6.160867e+00 -1.664297e+00 4.001880e+00 3.232294e+00 1.609406e+00 2.516561e+00 1.778659e+00 3.805932e+00 -3.007488e+00 6.098347e-01 -6.859645e-01 -6.535096e-01 2.675647e-01 2.205082e-03 6.452278e-01 3.585982e-01 -9.851541e-02 -5.345289e-01 4.062609e-02 1.248863e-01 1.143755e-01
<VARIANCE> 25
 2.908957e+01 2.540856e+01 3.227775e+01 3.294735e+01 2.670300e+01 3.478055e+01 2.664833e+01 2.327565e+01 3.032526e+01 2.054977e+01 2.458736e+01 1.890562e+01 2.057458e+00 2.593181e+00 2.631531e+00 2.268396e+00 2.252544e+00 2.228199e+00 2.072475e+00 2.192703e+00 1.831873e+00 2.845508e+00 1.893512e+00 1.437794e+00 3.452005e-03
<GCONST> 8.893414e+01
<MIXTURE> 46 9.336259e-03
<MEAN> 25
 -9.365411e+00 2.311195e+00 1.169528e+00 7.473294e+00 5.912358e+00 3.309447e+00 7.023343e+00 4.450305e+00 5.704264e+00 4.657887e+00 5.001011e+00 2.878341e+00 1.051347e+00 -2.228815e-01 3.567103e-02 1.009158e+00 5.813918e-01 9.386727e-01 3.770693e-01 6.680674e-01 4.710044e-01 4.979063e-01 6.264924e-01 5.202250e-01 -1.055027e-01
<VARIANCE> 25
 3.489983e+01 4.343130e+01 3.832204e+01 5.045949e+01 5.061453e+01 4.058584e+01 3.752644e+01 3.534118e+01 3.301364e+01 3.090513e+01 2.819384e+01 2.036448e+01 3.888077e+00 4.136122e+00 3.856706e+00 4.111829e+00 4.187940e+00 3.683173e+00 3.367669e+00 3.094016e+00 2.957949e+00 2.864793e+00 2.324468e+00 1.771991e+00 7.880925e-03
<GCONST> 9.826659e+01
<MIXTURE> 47 7.116147e-03
<MEAN> 25
 6.579987e+00 -7.414661e+00 -6.759325e+00 -6.754630e+00 1.623643e+00 1.335935e+00 -2.299733e+00 1.069667e+00 2.250398e+00 9.398493e-01 -2.812211e+00 -6.441055e+00 -1.755130e-01 -1.201792e+00 -5.964359e-01 -5.285257e-01 4.625329e-01 8.195404e-01 9.703686e-01 2.469609e-01 1.440231e-01 -7.814820e-01 -2.374287e-01 -4.118471e-01 3.264456e-02
<VARIANCE> 25
 1.105401e+01 1.860735e+01 2.140412e+01 2.824896e+01 3.319864e+01 4.784225e+01 3.865895e+01 3.695381e+01 3.884509e+01 4.210966e+01 5.507246e+01 3.255920e+01 4.441469e-01 7.203571e-01 1.035055e+00 1.616413e+00 1.969790e+00 2.361185e+00 2.113098e+00 2.488781e+00 1.856330e+00 2.061645e+00 2.163026e+00 1.767377e+00 5.736497e-04
<GCONST> 8.499607e+01
<MIXTURE> 48 7.116147e-03
<MEAN> 25
 6.579987e+00 -7.414661e+00 -6.759325e+00 -6.754630e+00 1.623643e+00 1.335935e+00 -2.299733e+00 1.069667e+00 2.250398e+00 9.398493e-01 -2.812211e+00 -6.441055e+00 -1.755130e-01 -1.201792e+00 -5.964359e-01 -5.285257e-01 4.625329e-01 8.195404e-01 9.703686e-01 2.469609e-01 1.440231e-01 -7.814820e-01 -2.374287e-01 -4.118471e-01 3.264456e-02
<VARIANCE> 25
 1.105401e+01 1.860735e+01 2.140412e+01 2.824896e+01 3.319864e+01 4.784225e+01 3.865895e+01 3.695381e+01 3.884509e+01 4.210966e+01 5.507246e+01 3.255920e+01 4.441469e-01 7.203571e-01 1.035055e+00 1.616413e+00 1.969790e+00 2.361185e+00 2.113098e+00 2.488781e+00 1.856330e+00 2.061645e+00 2.163026e+00 1.767377e+00 5.736497e-04
<GCONST> 8.499607e+01
<MIXTURE> 49 5.548473e-03
<MEAN> 25
 -4.861773e+00 5.991426e-01 -3.533933e-01 8.519944e+00 5.335838e+00 5.442040e+00 6.162416e+00 4.466620e+00 5.100639e+00 3.455705e+00 4.609789e+00 2.713142e+00 3.207278e-01 6.708122e-01 7.820800e-01 3.110484e-01 -2.035478e-01 -5.790580e-01 -1.031181e+00 -1.095347e+00 -8.114731e-01 -6.422304e-01 -4.675943e-01 -3.000450e-01 -1.136545e-04
<VARIANCE> 25
 9.264885e+00 9.860290e+00 1.583522e+01 1.474737e+01 2.111534e+01 1.597076e+01 1.816985e+01 1.795939e+01 1.684743e+01 1.726063e+01 2.033242e+01 1.350410e+01 2.774746e-01 2.478731e-01 4.082771e-01 5.858400e-01 7.997432e-01 9.800895e-01 9.248120e-01 1.017392e+00 1.257964e+00 1.145315e+00 1.210274e+00 1.128934e+00 1.401384e-05
<GCONST> 6.390140e+01
<MIXTURE> 50 6.234641e-03
<MEAN> 25
 -4.511226e+00 2.885358e-01 -1.715556e+00 6.283317e+00 3.856504e+00 2.199983e+00 3.755960e+00 1.939986e+00 3.087606e+00 1.320522e+00 2.151959e+00 2.937703e+00 5.530059e-02 1.722323e-01 7.666016e-02 -1.439656e-01 -5.075530e-01 -5.730158e-01 -4.000472e-01 -2.506027e-02 4.506426e-01 7.345390e-01 7.263160e-01 4.956934e-01 -1.005168e-04
<VARIANCE> 25
 1.046141e+01 1.144588e+01 1.486453e+01 1.500148e+01 1.686741e+01 1.814723e+01 1.804761e+01 1.869545e+01 1.927246e+01 1.684356e+01 2.110618e+01 1.469697e+01 1.385847e-01 2.400614e-01 3.920891e-01 5.167563e-01 5.792971e-01 7.353075e-01 9.438125e-01 1.124056e+00 1.013225e+00 8.962088e-01 8.852429e-01 1.018221e+00 1.156545e-06
<GCONST> 5.954020e+01
<MIXTURE> 51 6.234641e-03
<MEAN> 25
 -4.511226e+00 2.885358e-01 -1.715556e+00 6.283317e+00 3.856504e+00 2.199983e+00 3.755960e+00 1.939986e+00 3.087606e+00 1.320522e+00 2.151959e+00 2.937703e+00 5.530059e-02 1.722323e-01 7.666016e-02 -1.439656e-01 -5.075530e-01 -5.730158e-01 -4.000472e-01 -2.506027e-02 4.506426e-01 7.345390e-01 7.263160e-01 4.956934e-01 -1.005168e-04
<VARIANCE> 25
 1.046141e+01 1.144588e+01 1.486453e+01 1.500148e+01 1.686741e+01 1.814723e+01 1.804761e+01 1.869545e+01 1.927246e+01 1.684356e+01 2.110618e+01 1.469697e+01 1.385847e-01 2.400614e-01 3.920891e-01 5.167563e-01 5.792971e-01 7.353075e-01 9.438125e-01 1.124056e+00 1.013225e+00 8.962088e-01 8.852429e-01 1.018221e+00 1.156545e-06
<GCONST> 5.954020e+01
<MIXTURE> 52 6.367945e-03
<MEAN> 25
 9.976674e+00 2.077269e+00 -6.135118e+00 -1.398929e+01 -4.202701e+00 8.562656e+00 -2.667604e+00 -3.098206e+00 -4.301649e+00 -2.047639e+00 3.421574e+00 6.933092e-01 -3.896124e-01 -4.692161e-01 -7.236535e-02 1.117561e+00 1.303953e+00 -4.700096e-01 -5.907441e-01 -6.297163e-01 7.103709e-02 1.223002e+00 3.644933e-01 -5.431850e-01 -1.405205e-02
<VARIANCE> 25
 9.904848e+00 2.022912e+01 2.516981e+01 4.104998e+01 4.477283e+01 3.020646e+01 4.580483e+01 4.787437e+01 4.278739e+01 4.541235e+01 3.932233e+01 2.954367e+01 4.459997e-01 1.483488e+00 1.310423e+00 2.825043e+00 2.330329e+00 2.200207e+00 2.930465e+00 2.783331e+00 2.978822e+00 2.638893e+00 2.496299e+00 2.316567e+00 1.524663e-03
<GCONST> 8.967983e+01
<MIXTURE> 53 6.367945e-03
<MEAN> 25
 9.976674e+00 2.077269e+00 -6.135118e+00 -1.398929e+01 -4.202701e+00 8.562656e+00 -2.667604e+00 -3.098206e+00 -4.301649e+00 -2.047639e+00 3.421574e+00 6.933092e-01 -3.896124e-01 -4.692161e-01 -7.236535e-02 1.117561e+00 1.303953e+00 -4.700096e-01 -5.907441e-01 -6.297163e-01 7.103709e-02 1.223002e+00 3.644933e-01 -5.431850e-01 -1.405205e-02
<VARIANCE> 25
 9.904848e+00 2.022912e+01 2.516981e+01 4.104998e+01 4.477283e+01 3.020646e+01 4.580483e+01 4.787437e+01 4.278739e+01 4.541235e+01 3.932233e+01 2.954367e+01 4.459997e-01 1.483488e+00 1.310423e+00 2.825043e+00 2.330329e+00 2.200207e+00 2.930465e+00 2.783331e+00 2.978822e+00 2.638893e+00 2.496299e+00 2.316567e+00 1.524663e-03
<GCONST> 8.967983e+01
<MIXTURE> 54 7.368620e-03
<MEAN> 25
 -3.618760e+00 9.400744e-02 -6.938141e-01 8.048981e+00 6.408215e+00 4.607541e+00 4.670543e+00 4.603946e+00 4.087155e+00 3.571801e+00 4.429744e+00 2.314368e+00 -2.504372e-03 2.699779e-02 3.398485e-02 5.092190e-02 5.419981e-02 4.719811e-02 4.512777e-02 3.509808e-02 3.710746e-02 2.335915e-02 2.130313e-02 8.038024e-03 -4.007750e-06
<VARIANCE> 25
 9.095644e+00 1.052316e+01 9.363466e+00 1.812574e+01 1.391072e+01 1.346597e+01 1.190182e+01 1.131060e+01 1.139265e+01 1.350044e+01 1.782545e+01 1.253733e+01 4.078946e-02 8.762804e-02 1.559253e-01 2.263379e-01 3.080321e-01 3.940102e-01 4.663845e-01 5.264651e-01 5.435832e-01 5.174502e-01 5.164327e-01 5.244133e-01 1.055082e-06
<GCONST> 4.739482e+01
<MIXTURE> 55 7.368620e-03
<MEAN> 25
 -3.618760e+00 9.400744e-02 -6.938141e-01 8.048981e+00 6.408215e+00 4.607541e+00 4.670543e+00 4.603946e+00 4.087155e+00 3.571801e+00 4.429744e+00 2.314368e+00 -2.504372e-03 2.699779e-02 3.398485e-02 5.092190e-02 5.419981e-02 4.719811e-02 4.512777e-02 3.509808e-02 3.710746e-02 2.335915e-02 2.130313e-02 8.038024e-03 -4.007750e-06
<VARIANCE> 25
 9.095644e+00 1.052316e+01 9.363466e+00 1.812574e+01 1.391072e+01 1.346597e+01 1.190182e+01 1.131060e+01 1.139265e+01 1.350044e+01 1.782545e+01 1.253733e+01 4.078946e-02 8.762804e-02 1.559253e-01 2.263379e-01 3.080321e-01 3.940102e-01 4.663845e-01 5.264651e-01 5.435832e-01 5.174502e-01 5.164327e-01 5.244133e-01 1.055082e-06
<GCONST> 4.739482e+01
<MIXTURE> 56 6.132464e-03
<MEAN> 25
 6.072846e+00 -6.067847e+00 -7.595598e+00 -8.442584e+00 2.884353e+00 5.317976e+00 -5.104185e-01 -2.171343e+00 2.644482e+00 -1.479496e-01 4.212908e-01 -7.123950e+00 -5.919587e-02 9.005576e-02 -1.902434e-01 4.765772e-02 2.885999e-01 7.785071e-02 2.551828e-01 -1.667669e-01 2.607659e-01 -2.082979e-01 -2.434182e-01 -2.124849e-02 -8.144553e-03
<VARIANCE> 25
 9.097262e+00 2.161320e+01 1.827866e+01 3.006727e+01 2.435769e+01 4.065881e+01 4.642624e+01 2.700212e+01 2.981236e+01 3.095001e+01 4.477546e+01 2.947887e+01 1.591600e-01 3.469767e-01 5.288092e-01 6.742166e-01 7.321475e-01 1.211822e+00 7.543817e-01 8.270625e-01 1.009337e+00 1.099464e+00 8.349010e-01 1.155242e+00 2.368305e-04
<GCONST> 7.278261e+01
<MIXTURE> 57 6.132464e-03
<MEAN> 25
 6.072846e+00 -6.067847e+00 -7.595598e+00 -8.442584e+00 2.884353e+00 5.317976e+00 -5.104185e-01 -2.171343e+00 2.644482e+00 -1.479496e-01 4.212908e-01 -7.123950e+00 -5.919587e-02 9.005576e-02 -1.902434e-01 4.765772e-02 2.885999e-01 7.785071e-02 2.551828e-01 -1.667669e-01 2.607659e-01 -2.082979e-01 -2.434182e-01 -2.124849e-02 -8.144553e-03
<VARIANCE> 25
 9.097262e+00 2.161320e+01 1.827866e+01 3.006727e+01 2.435769e+01 4.065881e+01 4.642624e+01 2.700212e+01 2.981236e+01 3.095001e+01 4.477546e+01 2.947887e+01 1.591600e-01 3.469767e-01 5.288092e-01 6.742166e-01 7.321475e-01 1.211822e+00 7.543817e-01 8.270625e-01 1.009337e+00 1.099464e+00 8.349010e-01 1.155242e+00 2.368305e-04
<GCONST> 7.278261e+01
<MIXTURE> 58 6.172147e-03
<MEAN> 25
 2.562706e+00 -2.823243e+00 7.164071e+00 -5.271233e+00 -1.304565e+01 -4.763090e+00 1.630269e+00 7.425641e-01 -2.400017e+00 1.852449e+00 9.084828e-01 -1.132322e+00 -4.392528e-02 -2.156584e-01 -1.347118e-01 -1.921658e-01 3.532635e-02 2.812552e-01 3.515469e-01 2.709617e-01 1.474213e-01 -1.216806e-03 -9.060418e-02 -1.786332e-01 -3.087166e-03
<VARIANCE> 25
 6.998870e+00 1.543609e+01 1.971885e+01 2.550265e+01 2.457710e+01 5.442087e+01 3.079420e+01 3.284418e+01 3.033690e+01 2.943241e+01 2.379031e+01 2.022451e+01 3.044119e-01 8.473108e-01 7.889679e-01 9.742866e-01 8.765020e-01 1.172015e+00 1.095788e+00 1.260397e+00 1.257370e+00 1.011037e+00 8.866137e-01 8.728915e-01 6.832459e-04
<GCONST> 7.536477e+01
<MIXTURE> 59 6.172147e-03
<MEAN> 25
 2.562706e+00 -2.823243e+00 7.164071e+00 -5.271233e+00 -1.304565e+01 -4.763090e+00 1.630269e+00 7.425641e-01 -2.400017e+00 1.852449e+00 9.084828e-01 -1.132322e+00 -4.392528e-02 -2.156584e-01 -1.347118e-01 -1.921658e-01 3.532635e-02 2.812552e-01 3.515469e-01 2.709617e-01 1.474213e-01 -1.216806e-03 -9.060418e-02 -1.786332e-01 -3.087166e-03
<VARIANCE> 25
 6.998870e+00 1.543609e+01 1.971885e+01 2.550265e+01 2.457710e+01 5.442087e+01 3.079420e+01 3.284418e+01 3.033690e+01 2.943241e+01 2.379031e+01 2.022451e+01 3.044119e-01 8.473108e-01 7.889679e-01 9.742866e-01 8.765020e-01 1.172015e+00 1.095788e+00 1.260397e+00 1.257370e+00 1.011037e+00 8.866137e-01 8.728915e-01 6.832459e-04
<GCONST> 7.536477e+01
<MIXTURE> 60 4.479129e-03
<MEAN> 25
 -4.080234e+00 -3.174399e-01 -1.390448e+00 4.118826e+00 1.459490e+00 2.049031e+00 1.829452e+00 1.716996e+00 2.574347e+00 1.021034e+00 2.085138e+00 1.914813e+00 -2.731670e-02 6.293986e-02 9.912412e-02 1.403085e-01 1.121796e-01 1.361486e-01 1.760584e-01 3.124388e-01 5.345922e-01 6.548082e-01 5.538550e-01 3.098233e-01 -3.608063e-04
<VARIANCE> 25
 6.775260e+00 5.747258e+00 1.103742e+01 1.250209e+01 1.355478e+01 1.615542e+01 1.383487e+01 1.199165e+01 1.414693e+01 1.305953e+01 1.654428e+01 1.182473e+01 8.237092e-02 1.732287e-01 2.930836e-01 4.148880e-01 6.408464e-01 7.247838e-01 8.181059e-01 9.255059e-01 8.875726e-01 8.157697e-01 8.521271e-01 8.452387e-01 2.251199e-05
<GCONST> 5.677752e+01
<MIXTURE> 61 4.479129e-03
<MEAN> 25
 -4.080234e+00 -3.174399e-01 -1.390448e+00 4.118826e+00 1.459490e+00 2.049031e+00 1.829452e+00 1.716996e+00 2.574347e+00 1.021034e+00 2.085138e+00 1.914813e+00 -2.731670e-02 6.293986e-02 9.912412e-02 1.403085e-01 1.121796e-01 1.361486e-01 1.760584e-01 3.124388e-01 5.345922e-01 6.548082e-01 5.538550e-01 3.098233e-01 -3.608063e-04
<VARIANCE> 25
 6.775260e+00 5.747258e+00 1.103742e+01 1.250209e+01 1.355478e+01 1.615542e+01 1.383487e+01 1.199165e+01 1.414693e+01 1.305953e+01 1.654428e+01 1.182473e+01 8.237092e-02 1.732287e-01 2.930836e-01 4.148880e-01 6.408464e-01 7.247838e-01 8.181059e-01 9.255059e-01 8.875726e-01 8.157697e-01 8.521271e-01 8.452387e-01 2.251199e-05
<GCONST> 5.677752e+01
<MIXTURE> 62 3.278034e-03
<MEAN> 25
 -5.000067e+00 1.395510e+00 9.120970e-01 8.871177e+00 5.845791e+00 5.090204e+00 5.532747e+00 4.047711e+00 5.205317e+00 3.778382e+00 4.786176e+00 2.901531e+00 -9.764327e-01 -1.144700e+00 -9.740759e-01 -2.790934e-01 4.281300e-01 9.804907e-01 1.381081e+00 1.523835e+00 1.441105e+00 1.198137e+00 1.030347e+00 7.480279e-01 -1.358998e-03
<VARIANCE> 25
 9.769077e+00 1.029457e+01 1.309578e+01 1.625807e+01 1.912812e+01 1.700908e+01 1.907987e+01 1.849584e+01 1.960336e+01 1.864009e+01 2.173353e+01 1.441041e+01 4.081531e-01 4.314351e-01 5.504107e-01 7.567884e-01 1.000711e+00 1.169362e+00 1.217006e+00 1.258568e+00 1.327107e+00 1.375824e+00 1.392083e+00 1.342161e+00 1.604059e-05
<GCONST> 6.737534e+01
<MIXTURE> 63 4.351215e-03
<MEAN> 25
 -3.358155e+00 -1.043928e+00 -5.227457e+00 3.860765e+00 1.772902e+00 5.178722e-01 3.283574e+00 2.084404e+00 3.384002e+00 -1.478975e+00 -1.560700e+00 2.379470e+00 -1.003301e-01 3.312711e-01 3.906994e-01 4.564862e-01 2.865176e-01 3.221748e-01 3.884513e-01 2.183038e-01 -2.382244e-03 2.503832e-01 2.326777e-01 6.167866e-02 -5.184219e-03
<VARIANCE> 25
 8.884723e+00 1.800286e+01 1.532686e+01 1.944164e+01 2.143324e+01 2.332242e+01 1.895727e+01 2.304682e+01 2.393914e+01 1.872443e+01 1.887746e+01 1.416419e+01 2.357688e-01 4.267916e-01 6.479266e-01 6.381403e-01 8.791347e-01 1.075758e+00 1.285589e+00 1.247995e+00 1.364392e+00 1.294653e+00 1.381735e+00 1.063685e+00 1.700264e-04
<GCONST> 7.021881e+01
<MIXTURE> 64 4.351215e-03
<MEAN> 25
 -3.358155e+00 -1.043928e+00 -5.227457e+00 3.860765e+00 1.772902e+00 5.178722e-01 3.283574e+00 2.084404e+00 3.384002e+00 -1.478975e+00 -1.560700e+00 2.379470e+00 -1.003301e-01 3.312711e-01 3.906994e-01 4.564862e-01 2.865176e-01 3.221748e-01 3.884513e-01 2.183038e-01 -2.382244e-03 2.503832e-01 2.326777e-01 6.167866e-02 -5.184219e-03
<VARIANCE> 25
 8.884723e+00 1.800286e+01 1.532686e+01 1.944164e+01 2.143324e+01 2.332242e+01 1.895727e+01 2.304682e+01 2.393914e+01 1.872443e+01 1.887746e+01 1.416419e+01 2.357688e-01 4.267916e-01 6.479266e-01 6.381403e-01 8.791347e-01 1.075758e+00 1.285589e+00 1.247995e+00 1.364392e+00 1.294653e+00 1.381735e+00 1.063685e+00 1.700264e-04
<GCONST> 7.021881e+01
<MIXTURE> 65 1.721197e-02
<MEAN> 25
 7.383537e+00 2.538684e+00 1.310332e+00 6.983670e-01 -4.897841e+00 -2.485999e+00 -5.022838e+00 -6.568207e+00 -3.680316e+00 -2.139195e+00 -3.946445e+00 -1.534173e+00 1.107526e-01 1.745854e-02 1.274431e-03 -2.267229e-02 -1.699042e-01 2.603813e-01 -6.777209e-02 -8.920687e-02 3.255394e-01 5.656306e-02 -1.030771e-02 -3.712181e-01 -5.123583e-03
<VARIANCE> 25
 1.021053e+01 1.887685e+01 2.529033e+01 3.253796e+01 3.570052e+01 6.233242e+01 5.290700e+01 4.945270e+01 4.966324e+01 4.962750e+01 6.079397e+01 4.534070e+01 5.268236e-01 9.704333e-01 1.536171e+00 2.102900e+00 1.763008e+00 2.136992e+00 2.212376e+00 2.722521e+00 2.361796e+00 2.307112e+00 2.258429e+00 2.307750e+00 4.258976e-04
<GCONST> 8.843861e+01
<MIXTURE> 66 1.191532e-02
<MEAN> 25
 5.684598e+00 -4.016952e+00 -5.285110e+00 -4.353478e+00 2.304395e+00 -4.474069e+00 -7.105772e+00 8.001568e-01 5.586296e-01 -4.310131e-01 -5.036664e+00 -2.937798e+00 5.585471e-02 1.689270e+00 1.437923e+00 2.116110e+00 -1.386063e+00 -1.101668e+00 -2.944404e-01 -7.260022e-01 -6.827162e-02 -5.129029e-01 -2.987950e-01 1.105979e+00 -7.048050e-02
<VARIANCE> 25
 8.780296e+00 2.314753e+01 2.252382e+01 2.607293e+01 3.470177e+01 4.334378e+01 4.761061e+01 3.770045e+01 4.169841e+01 5.619045e+01 3.307172e+01 3.484022e+01 1.128859e+00 2.202860e+00 3.459091e+00 2.543452e+00 3.374292e+00 3.935653e+00 4.051006e+00 3.934975e+00 3.863629e+00 4.225867e+00 3.074801e+00 2.802988e+00 1.488096e-03
<GCONST> 9.413126e+01
<MIXTURE> 67 1.559142e-02
<MEAN> 25
 8.593423e+00 2.090274e+00 -5.761053e+00 -7.880249e+00 9.525773e-01 3.135171e+00 -3.515473e+00 -2.319814e+00 -3.290993e+00 8.283020e-01 1.694822e-01 -1.597094e+00 -1.014200e+00 1.844155e+00 9.629667e-01 3.039478e+00 1.213739e+00 -5.669174e-01 1.219129e+00 1.490118e-01 2.153989e-01 2.101855e-01 -2.623164e-01 6.404229e-01 -1.276290e-01
<VARIANCE> 25
 1.289419e+01 3.693534e+01 3.066991e+01 5.554296e+01 4.677786e+01 5.132074e+01 5.997008e+01 5.004377e+01 6.417074e+01 5.382827e+01 5.327008e+01 4.489124e+01 2.110882e+00 3.295194e+00 3.267227e+00 4.295989e+00 4.712602e+00 4.405916e+00 4.608984e+00 4.846957e+00 5.242239e+00 4.519555e+00 4.856651e+00 3.553978e+00 2.992267e-03
<GCONST> 1.021931e+02
<MIXTURE> 68 1.485092e-02
<MEAN> 25
 -1.872837e+00 -1.609019e+00 -3.830117e+00 1.567857e+00 4.721015e+00 -9.626272e-01 2.343047e+00 1.942239e+00 1.909461e+00 9.008562e-01 -1.548910e-01 1.760154e+00 2.592185e+00 5.199003e-01 5.762529e-01 -2.707228e+00 -2.102589e+00 -1.378736e+00 -2.498157e+00 -1.632529e+00 -1.681860e+00 -1.307877e+00 -1.832532e+00 -1.065735e+00 1.049859e-01
<VARIANCE> 25
 2.338530e+01 3.283896e+01 5.178018e+01 4.845576e+01 4.258727e+01 5.973246e+01 4.066395e+01 3.732954e+01 3.555454e+01 4.583989e+01 3.484757e+01 2.262559e+01 1.898522e+00 3.649244e+00 8.670412e+00 5.335506e+00 4.742492e+00 5.216521e+00 5.164656e+00 4.863555e+00 5.691869e+00 4.758073e+00 4.568900e+00 3.045366e+00 5.511330e-03
<GCONST> 1.025839e+02
<MIXTURE> 69 1.204884e-02
<MEAN> 25
 4.255239e+00 -4.308288e+00 -3.004588e+00 -4.080130e+00 -3.338507e+00 -7.752831e+00 -1.216168e+00 2.052357e+00 -1.175189e-01 -3.901474e+00 -5.783998e+00 1.010930e+00 1.651107e+00 -2.164210e+00 -1.091151e+00 -2.298948e+00 -4.348992e-01 -1.910308e-01 -7.723202e-01 7.597541e-01 -5.462770e-01 -1.219395e+00 -2.106882e+00 -2.502520e-01 6.420781e-02
<VARIANCE> 25
 8.949155e+00 2.043778e+01 2.797221e+01 2.492606e+01 3.842660e+01 3.196815e+01 4.409989e+01 2.849709e+01 3.575947e+01 3.689008e+01 2.832074e+01 2.160003e+01 3.724818e+00 2.621074e+00 3.296611e+00 3.718801e+00 5.237045e+00 5.222261e+00 7.914368e+00 5.983932e+00 5.484528e+00 5.454266e+00 4.259440e+00 3.611499e+00 2.192665e-03
<GCONST> 9.751408e+01
<MIXTURE> 70 1.329190e-02
<MEAN> 25
 6.511705e+00 -2.064338e+00 -3.189600e+00 -4.262531e+00 4.522707e-01 -2.849869e-01 -7.186602e+00 -3.592853e+00 3.051045e-01 3.157611e+00 2.831778e-01 -4.780540e+00 1.664000e+00 -1.262848e+00 -5.278553e-01 -2.122083e+00 -1.363484e+00 1.539446e+00 -1.041162e+00 -2.081093e-01 3.277796e-01 -6.771008e-02 1.096944e+00 -1.154220e+00 5.740805e-02
<VARIANCE> 25
 9.654415e+00 1.897472e+01 2.695839e+01 3.850020e+01 3.084558e+01 3.469447e+01 3.910217e+01 3.454466e+01 3.733109e+01 2.677435e+01 3.846206e+01 3.045078e+01 3.067908e+00 2.711807e+00 4.026555e+00 4.239538e+00 4.911660e+00 5.339062e+00 7.557826e+00 6.726416e+00 5.096743e+00 4.311394e+00 4.926279e+00 3.718987e+00 2.137006e-03
<GCONST> 9.826028e+01
<MIXTURE> 71 1.406903e-02
<MEAN> 25
 6.022944e+00 5.231079e+00 3.558287e+00 2.836073e+00 -3.353144e+00 -3.078070e+00 -3.659266e+00 -6.549633e+00 -4.096361e+00 -2.079125e+00 -4.304625e+00 -2.637007e+00 -1.667945e+00 -7.970794e-01 -3.751573e-02 -1.630624e+00 1.031880e+00 -4.279834e-01 2.863621e-01 1.384842e+00 4.855937e-02 1.282079e-02 5.124226e-01 2.731053e-01 4.164932e-02
<VARIANCE> 25
 1.811150e+01 2.390795e+01 2.562490e+01 4.125188e+01 3.766701e+01 4.029298e+01 4.054689e+01 3.727231e+01 3.897470e+01 4.070794e+01 3.985601e+01 3.357459e+01 1.778439e+00 2.897040e+00 5.169252e+00 4.717909e+00 4.319789e+00 5.630424e+00 4.916511e+00 5.215369e+00 4.842738e+00 3.905061e+00 3.581419e+00 3.649288e+00 1.414934e-03
<GCONST> 9.841348e+01
<MIXTURE> 72 8.134747e-03
<MEAN> 25
 2.774422e+00 -3.449727e+00 7.865374e+00 -1.469911e+00 -1.021651e+01 -9.987719e+00 -2.187009e+00 2.061315e+00 -6.644319e+00 -1.938228e+00 -1.491642e+00 1.335845e+00 7.886307e-01 -6.051217e-01 -2.677042e+00 5.187906e-01 2.337960e+00 -8.877820e-01 -1.386697e+00 1.529712e+00 1.792646e+00 -4.900416e-01 -1.293894e+00 4.946967e-01 -7.709062e-03
<VARIANCE> 25
 1.374352e+01 1.693179e+01 5.266544e+01 3.837635e+01 2.938567e+01 3.035915e+01 3.775885e+01 3.080278e+01 5.024919e+01 3.593134e+01 3.282076e+01 3.197779e+01 5.793629e-01 1.133157e+00 1.980412e+00 1.641679e+00 2.197783e+00 2.371422e+00 2.674531e+00 2.445354e+00 2.493015e+00 2.770957e+00 1.943958e+00 2.306713e+00 6.789443e-04
<GCONST> 8.774059e+01
<MIXTURE> 73 1.213625e-02
<MEAN> 25
 -5.548512e+00 -7.559979e-01 -1.406524e+00 4.949573e+00 3.986387e+00 2.174426e+00 5.490986e+00 3.546080e+00 4.337900e+00 3.163276e+00 4.005475e+00 3.026366e+00 8.210449e-01 -9.739850e-01 -7.854061e-01 -2.664537e+00 -1.179386e+00 -1.674181e+00 -1.001474e+00 -4.860210e-01 -9.531751e-01 -7.120150e-01 -1.072796e+00 -3.086898e-01 1.527058e-01
<VARIANCE> 25
 1.261118e+01 1.316466e+01 1.499972e+01 2.254941e+01 2.417496e+01 2.771493e+01 1.982160e+01 1.990459e+01 1.759974e+01 2.085287e+01 2.351723e+01 1.500624e+01 3.916152e+00 3.155612e+00 6.504195e+00 4.548858e+00 6.115817e+00 4.524301e+00 4.375992e+00 4.130204e+00 4.037819e+00 4.100806e+00 3.448087e+00 2.604246e+00 4.265999e-03
<GCONST> 9.280056e+01
<MIXTURE> 74 1.756491e-02
<MEAN> 25
 3.642126e+00 -1.881995e+00 5.510923e+00 -7.563755e-03 -6.543083e+00 -7.637815e+00 -3.825444e+00 1.386477e+00 -3.414219e+00 -3.413415e-01 -1.245960e+00 -1.433599e+00 4.737584e-01 1.880283e+00 -1.061363e+00 1.582652e+00 1.571239e+00 3.965519e-01 -5.378073e-01 -1.350404e+00 7.110415e-01 2.507383e-01 -3.367838e-01 -3.781394e-01 -8.294709e-02
<VARIANCE> 25
 9.726529e+00 2.111431e+01 3.432552e+01 4.414271e+01 4.693371e+01 3.455538e+01 4.435559e+01 3.803605e+01 4.182429e+01 5.224065e+01 3.056319e+01 3.267172e+01 1.546359e+00 1.604230e+00 4.806430e+00 2.368151e+00 4.656301e+00 3.224663e+00 4.356129e+00 3.590451e+00 3.967517e+00 3.158909e+00 2.676588e+00 2.416093e+00 1.329352e-03
<GCONST> 9.458428e+01
<MIXTURE> 75 9.711651e-03
<MEAN> 25
 1.625440e+00 -1.265654e+00 1.286273e+01 1.682836e+00 -1.172861e+01 -7.565715e+00 -3.295289e+00 -3.945211e-01 -6.276437e+00 -3.513959e+00 3.142533e+00 1.904951e-01 1.835197e+00 -1.781799e+00 2.123046e-01 -1.675764e-01 -2.313659e+00 -5.593801e-01 -1.415341e+00 6.847253e-01 -3.361107e-01 1.670514e-01 8.250239e-01 -8.599034e-01 3.572483e-02
<VARIANCE> 25
 1.178619e+01 1.660620e+01 3.658220e+01 2.253730e+01 2.162225e+01 2.681060e+01 2.949426e+01 2.810292e+01 3.731495e+01 2.908387e+01 1.998488e+01 2.001289e+01 3.103577e+00 1.537322e+00 3.645251e+00 2.356903e+00 3.743176e+00 4.380821e+00 4.054545e+00 3.286686e+00 3.525007e+00 4.129496e+00 3.191025e+00 3.597502e+00 1.514062e-03
<GCONST> 9.172779e+01
<MIXTURE> 76 1.052359e-02
<MEAN> 25
 -5.889880e+00 -1.062254e+00 -3.262470e+00 4.190819e+00 3.550729e+00 1.862407e+00 3.987411e+00 2.225662e+00 3.116022e+00 1.632299e-01 1.172156e+00 2.718621e+00 -6.768366e-02 -5.065875e-01 -2.537841e-01 -6.931815e-01 -5.042312e-01 -7.544237e-01 -6.059907e-01 -2.549320e-01 -4.113967e-01 -5.269074e-01 -3.209424e-01 -2.213700e-01 1.877891e-02
<VARIANCE> 25
 3.664148e+01 2.743550e+01 2.725256e+01 2.919962e+01 3.101184e+01 2.862135e+01 2.491595e+01 2.691436e+01 2.574955e+01 2.293579e+01 2.661063e+01 1.928926e+01 9.675632e-01 1.070207e+00 1.361950e+00 1.322620e+00 1.434474e+00 1.637466e+00 1.543887e+00 1.583747e+00 1.516509e+00 1.588543e+00 1.449102e+00 1.288023e+00 1.190666e-03
<GCONST> 8.259940e+01
<MIXTURE> 77 1.244626e-02
<MEAN> 25
 -4.252824e-01 8.184155e+00 1.253900e+01 -1.136137e+01 -6.588227e+00 1.276389e+00 -8.760256e+00 -7.156161e+00 -3.787871e+00 -1.952343e-01 -4.259373e+00 -1.361640e+00 6.462269e-02 1.082782e-01 8.143602e-02 3.308297e-01 -1.424997e-01 9.419890e-02 -1.134575e-01 -5.753726e-02 1.277428e-01 -8.232278e-02 7.959801e-02 7.300083e-02 -1.004354e-02
<VARIANCE> 25
 1.007783e+01 2.241585e+01 2.981451e+01 4.029996e+01 3.559903e+01 3.330044e+01 4.240886e+01 3.020414e+01 3.830771e+01 3.119525e+01 3.762379e+01 3.305682e+01 2.919634e-01 8.071641e-01 6.096177e-01 1.135370e+00 1.469890e+00 9.551061e-01 1.234124e+00 1.030164e+00 1.068172e+00 1.030856e+00 9.647282e-01 9.025766e-01 5.479476e-04
<GCONST> 7.811800e+01
<MIXTURE> 78 9.702551e-03
<MEAN> 25
 -1.069970e+01 7.835494e-01 -1.330604e+00 1.031019e+00 5.037686e+00 -3.297493e+00 4.058153e+00 2.773072e+00 1.381927e+00 -2.982420e-02 -1.161011e+00 3.283687e+00 2.350978e+00 -3.242073e-02 3.897245e-01 4.472295e-01 -2.590977e-01 6.695845e-01 -6.329889e-01 1.119394e-01 4.014769e-01 -3.919899e-04 -1.153195e-01 -6.540934e-01 -5.472300e-02
<VARIANCE> 25
 4.459998e+01 2.618624e+01 2.884144e+01 2.889420e+01 3.508975e+01 3.480264e+01 2.952678e+01 2.923731e+01 3.265250e+01 3.103380e+01 2.519386e+01 2.264841e+01 4.197541e+00 2.338493e+00 2.878079e+00 3.409815e+00 3.336097e+00 4.626852e+00 3.331401e+00 2.560019e+00 2.019876e+00 2.014188e+00 2.701073e+00 1.928895e+00 3.940147e-03
<GCONST> 9.383657e+01
<MIXTURE> 79 1.156824e-02
<MEAN> 25
 1.875993e+00 1.721509e+00 1.143305e+01 -5.803728e+00 -1.237859e+01 -4.839481e-01 -7.273042e-01 -5.814603e+00 -8.197783e+00 -2.135356e-01 -2.178756e+00 -2.510915e+00 1.210825e+00 -7.378911e-01 -1.562489e+00 2.878664e+00 -9.549222e-02 -1.984841e+00 2.999922e-01 1.071119e+00 -6.804093e-02 -6.805964e-01 1.936330e-01 1.382439e-01 -3.027084e-02
<VARIANCE> 25
 1.276523e+01 2.068070e+01 5.088380e+01 4.534698e+01 2.990179e+01 5.084194e+01 4.073056e+01 3.194243e+01 4.271869e+01 3.398456e+01 4.287857e+01 2.826245e+01 8.666661e-01 2.081447e+00 1.922641e+00 3.311698e+00 3.545087e+00 3.668189e+00 2.990081e+00 3.099790e+00 2.954902e+00 2.348758e+00 2.116429e+00 1.905550e+00 1.269838e-03
<GCONST> 9.204076e+01
<MIXTURE> 80 7.550998e-03
<MEAN> 25
 -1.461153e+01 3.974595e+00 7.184476e-01 2.862898e+00 2.450672e+00 1.379329e+00 6.387661e+00 2.510813e+00 2.694404e+00 2.349802e+00 4.861997e+00 1.200034e+00 4.288305e+00 -1.925360e-02 1.641829e+00 -1.127953e+00 -2.894705e+00 -2.769584e+00 -2.317651e+00 -2.020648e+00 -1.970110e+00 -1.675191e+00 -1.644311e+00 -6.093180e-01 -4.421532e-02
<VARIANCE> 25
 2.090402e+01 1.982960e+01 3.471843e+01 3.463195e+01 3.010654e+01 2.952513e+01 2.825130e+01 2.856295e+01 2.693600e+01 2.897227e+01 2.683134e+01 1.813788e+01 2.353456e+00 2.663740e+00 2.672528e+00 4.133030e+00 3.396931e+00 2.724086e+00 3.030216e+00 3.197397e+00 2.751949e+00 2.735838e+00 2.793956e+00 2.159115e+00 1.508542e-03
<GCONST> 9.144963e+01
<MIXTURE> 81 8.025434e-03
<MEAN> 25
 -1.117255e+00 4.076443e+00 1.029258e+01 -1.468310e+01 -9.027267e+00 -1.414064e+00 -6.706439e+00 -8.339242e+00 -4.202330e+00 -4.186054e-01 -7.539804e+00 -2.181271e+00 1.315255e-01 -6.017755e-01 1.129883e-02 -5.396612e-01 -4.896348e-01 3.168333e-01 3.354969e-01 1.185943e-01 -1.588417e-01 1.197617e-01 -4.532499e-01 -1.281290e-01 1.188693e-02
<VARIANCE> 25
 1.005794e+01 3.257677e+01 2.760422e+01 3.029557e+01 3.368567e+01 3.040754e+01 4.542738e+01 2.872317e+01 3.796883e+01 3.157269e+01 2.528230e+01 3.114804e+01 7.654583e-01 2.278094e+00 1.550549e+00 2.871075e+00 2.700275e+00 2.147230e+00 3.299139e+00 2.310019e+00 2.383224e+00 2.542901e+00 2.297261e+00 2.056528e+00 1.193230e-03
<GCONST> 8.879256e+01
<MIXTURE> 82 8.213053e-03
<MEAN> 25
 -9.961827e+00 -4.301001e+00 1.479694e+00 -2.696754e+00 3.064496e+00 -5.125806e-01 2.887919e+00 7.287985e-01 2.224963e+00 2.185019e+00 1.719190e+00 3.321482e+00 -1.168104e+00 -3.695103e-01 2.074898e-01 -2.721748e+00 -9.743807e-01 -1.337710e+00 -9.570690e-01 -7.707575e-01 -1.878364e-01 -2.980701e-01 -3.376413e-01 -1.107114e-01 1.767769e-01
<VARIANCE> 25
 1.666548e+01 2.487844e+01 3.036545e+01 2.876011e+01 3.008404e+01 4.179341e+01 3.766281e+01 3.053896e+01 3.309959e+01 2.482257e+01 2.810096e+01 1.656949e+01 3.765851e+00 3.360380e+00 3.094773e+00 3.167845e+00 3.408748e+00 3.065135e+00 2.802112e+00 2.879513e+00 2.741981e+00 2.654423e+00 2.230661e+00 1.735475e+00 3.166508e-03
<GCONST> 9.262419e+01
<MIXTURE> 83 1.167529e-02
<MEAN> 25
 -2.001520e+01 5.389135e+00 -1.380925e+00 -9.822779e-01 7.627900e+00 -1.905324e+00 5.209871e+00 3.151688e+00 2.953689e-01 1.495307e+00 6.677186e-02 3.102767e+00 -1.356863e-01 -4.990873e-01 5.166372e-02 -3.250019e-01 -5.761122e-01 -7.946481e-02 -1.106498e-01 6.705082e-03 -1.540794e-01 -4.227365e-01 1.021385e-01 5.500965e-03 8.636581e-03
<VARIANCE> 25
 8.022194e+00 1.512804e+01 2.749789e+01 2.348768e+01 1.970779e+01 2.602471e+01 2.079392e+01 2.216193e+01 2.587443e+01 2.472060e+01 2.853738e+01 1.378866e+01 1.133967e+00 8.729813e-01 1.227891e+00 1.041002e+00 1.293414e+00 1.215997e+00 1.172695e+00 1.363554e+00 1.349459e+00 2.608428e+00 1.370217e+00 1.008581e+00 9.966211e-04
<GCONST> 7.785376e+01
<MIXTURE> 84 1.066614e-02
<MEAN> 25
 1.045652e+00 8.793932e+00 7.192001e+00 7.867437e+00 2.456217e+00 -1.151746e+00 -1.551290e+00 -4.053085e+00 -4.004082e+00 -2.745301e+00 -2.679806e+00 -1.597534e+00 -1.618608e+00 -1.052592e+00 -1.250635e+00 1.230263e+00 2.011173e+00 1.602494e+00 1.393058e+00 1.202789e+00 1.228409e+00 2.710211e-01 3.905534e-01 2.525966e-01 -7.238448e-02
<VARIANCE> 25
 2.220498e+01 1.751390e+01 2.063486e+01 2.262481e+01 2.864364e+01 2.716710e+01 2.673126e+01 2.776789e+01 2.392207e+01 2.434529e+01 2.287461e+01 2.326268e+01 2.284912e+00 2.610960e+00 3.614573e+00 3.131785e+00 3.862435e+00 3.335852e+00 3.170825e+00 3.298218e+00 3.422329e+00 3.252353e+00 3.358070e+00 3.206053e+00 3.423368e-03
<GCONST> 9.219193e+01
<MIXTURE> 85 7.591393e-03
<MEAN> 25
 -3.071043e+00 7.901245e+00 5.813789e+00 1.303062e+00 -3.421910e+00 -5.257041e+00 -3.029883e+00 -5.975546e+00 -3.553942e+00 -3.226795e+00 -5.461310e-01 -1.853272e+00 3.895936e+00 3.363586e-01 1.833772e+00 -2.107185e+00 -3.375863e+00 -2.568985e+00 -2.874725e+00 -2.335479e+00 -2.269668e+00 -1.228890e+00 -2.282381e+00 -6.009778e-01 1.066372e-02
<VARIANCE> 25
 4.205148e+01 2.317871e+01 3.730213e+01 3.779179e+01 3.966631e+01 4.108834e+01 3.221122e+01 2.907256e+01 2.643370e+01 2.593492e+01 2.627708e+01 2.045649e+01 2.843272e+00 4.282001e+00 4.463493e+00 5.140422e+00 4.468488e+00 3.851391e+00 3.815296e+00 3.936374e+00 3.839910e+00 4.084907e+00 3.919781e+00 3.471714e+00 5.538165e-03
<GCONST> 9.849033e+01
<MIXTURE> 86 1.273941e-02
<MEAN> 25
 -4.586502e+00 -5.506409e-01 -1.806584e+00 6.734398e+00 3.995383e+00 4.448853e+00 5.587509e+00 4.870097e+00 4.995839e+00 3.352806e+00 4.799383e+00 2.952748e+00 -2.141872e-02 -2.415693e-02 -7.706854e-03 -9.486510e-02 -9.821858e-02 -1.635422e-01 -3.307691e-01 -4.449172e-01 -3.142587e-01 -1.888755e-01 -2.249750e-01 -7.971357e-02 -5.936112e-04
<VARIANCE> 25
 7.368867e+00 6.957937e+00 1.379750e+01 1.133350e+01 1.842211e+01 1.263902e+01 1.216506e+01 1.184923e+01 1.269638e+01 1.399635e+01 1.562682e+01 1.246465e+01 8.834357e-02 2.150935e-01 3.871115e-01 4.353691e-01 6.219150e-01 7.612026e-01 6.770773e-01 8.766375e-01 7.786068e-01 8.958257e-01 8.845025e-01 8.740935e-01 4.970137e-05
<GCONST> 5.826922e+01
<MIXTURE> 87 1.100681e-02
<MEAN> 25
 -3.328466e+00 4.213992e+00 3.883918e+00 6.842975e+00 4.500826e+00 1.819838e-02 2.020436e+00 -4.650901e-01 -1.400379e+00 -9.614115e-01 -1.421818e+00 7.411612e-01 -2.179426e+00 -2.831849e+00 -1.902599e+00 -2.094361e+00 2.674207e-01 -6.153857e-01 1.089089e+00 9.752880e-01 9.528645e-01 1.299207e+00 1.025887e+00 1.100286e+00 1.096382e-01
<VARIANCE> 25
 3.277526e+01 2.745463e+01 2.473305e+01 2.973753e+01 3.059374e+01 3.059288e+01 2.921015e+01 2.323590e+01 2.612067e+01 2.480278e+01 2.227871e+01 2.147448e+01 3.317279e+00 2.344464e+00 3.555040e+00 3.110983e+00 4.228500e+00 4.270970e+00 4.195127e+00 3.954806e+00 3.694235e+00 3.188300e+00 2.939354e+00 2.447723e+00 4.175598e-03
<GCONST> 9.447379e+01
<MIXTURE> 88 1.256585e-02
<MEAN> 25
 -3.595460e+00 5.791538e-03 -2.093526e+00 5.175310e+00 3.530185e+00 2.951837e+00 4.863417e+00 3.056973e+00 4.402485e+00 1.799839e+00 2.298975e+00 2.158644e+00 2.875645e-02 2.603821e-01 1.856185e-01 4.928761e-01 8.712899e-02 2.311498e-01 -1.995218e-01 -1.947719e-01 -2.795208e-01 -4.435011e-01 -3.436968e-01 -3.273054e-02 -1.376661e-02
<VARIANCE> 25
 9.364199e+00 1.083299e+01 1.409516e+01 1.997026e+01 2.397833e+01 1.822278e+01 1.765393e+01 1.872931e+01 1.817715e+01 1.776382e+01 1.908123e+01 1.812007e+01 1.132544e+00 1.515485e+00 2.133721e+00 2.063576e+00 2.581515e+00 2.411818e+00 2.452881e+00 2.201341e+00 2.105493e+00 2.547300e+00 2.116786e+00 1.713288e+00 1.921537e-03
<GCONST> 8.196129e+01
<MIXTURE> 89 9.333527e-03
<MEAN> 25
 5.883980e+00 -6.442635e+00 -3.574218e+00 -3.354280e+00 -9.808056e-01 -4.887175e+00 -6.121685e+00 3.529874e+00 3.263251e+00 -2.208835e+00 -5.678340e+00 -3.024999e+00 -5.974491e-01 1.228617e-01 1.925645e+00 8.399097e-01 -1.850842e+00 -1.797535e+00 9.913518e-01 1.220001e+00 -6.926612e-01 -1.198458e+00 2.798522e-01 1.519822e+00 -4.842065e-03
<VARIANCE> 25
 8.639061e+00 2.914396e+01 2.857834e+01 2.884636e+01 3.801462e+01 4.296282e+01 5.633965e+01 4.142139e+01 3.610922e+01 4.251729e+01 3.523545e+01 3.019715e+01 3.764557e-01 8.744460e-01 1.424498e+00 1.471460e+00 1.796613e+00 2.279878e+00 2.587036e+00 2.531808e+00 2.669704e+00 2.092270e+00 2.304592e+00 1.471564e+00 3.677284e-04
<GCONST> 8.560155e+01
<MIXTURE> 90 7.114505e-03
<MEAN> 25
 2.461210e+00 -9.664535e+00 -4.738937e+00 -3.906291e+00 -3.296848e+00 -1.787101e+00 3.309768e+00 1.141399e+00 -7.468518e+00 -1.015327e+01 -3.428621e+00 -6.825659e-01 -1.632618e-01 9.037756e-01 1.158908e+00 -8.617297e-01 -1.606346e+00 -2.087040e-01 6.403791e-01 -2.092639e-01 -1.535011e-01 7.231376e-01 1.888427e-01 -5.609420e-01 -1.091181e-02
<VARIANCE> 25
 8.434282e+00 1.796971e+01 1.965262e+01 2.859892e+01 3.723245e+01 3.194219e+01 3.846249e+01 3.623933e+01 3.528819e+01 2.794253e+01 2.675989e+01 2.632641e+01 2.215772e-01 6.102178e-01 7.898921e-01 1.042475e+00 1.460988e+00 1.578939e+00 1.769221e+00 1.643878e+00 1.818422e+00 1.684070e+00 1.492500e+00 1.318952e+00 2.198479e-04
<GCONST> 7.815379e+01
<MIXTURE> 91 7.852945e-03
<MEAN> 25
 5.200374e+00 -6.711728e+00 -7.352814e+00 -5.146941e+00 3.976712e+00 5.336841e-01 -1.460303e+00 1.086530e-01 1.180189e+00 -2.058558e+00 -3.688052e+00 -4.765516e+00 1.748407e-01 1.073693e+00 5.989306e-02 7.021409e-01 1.033301e-01 -7.040141e-01 -4.377656e-01 -1.704047e-01 -7.108475e-02 2.649032e-01 -1.086460e-01 3.267917e-01 -3.789086e-02
<VARIANCE> 25
 1.024854e+01 2.474653e+01 1.952419e+01 3.681806e+01 2.962375e+01 5.188120e+01 4.709480e+01 3.442372e+01 4.678477e+01 5.242199e+01 3.581952e+01 4.090676e+01 4.133464e-01 7.722371e-01 1.011938e+00 1.433032e+00 1.978821e+00 2.414724e+00 2.045762e+00 2.258118e+00 1.963298e+00 2.138647e+00 1.773519e+00 2.073644e+00 6.666367e-04
<GCONST> 8.563144e+01
<MIXTURE> 92 7.852945e-03
<MEAN> 25
 5.200374e+00 -6.711728e+00 -7.352814e+00 -5.146941e+00 3.976712e+00 5.336841e-01 -1.460303e+00 1.086530e-01 1.180189e+00 -2.058558e+00 -3.688052e+00 -4.765516e+00 1.748407e-01 1.073693e+00 5.989306e-02 7.021409e-01 1.033301e-01 -7.040141e-01 -4.377656e-01 -1.704047e-01 -7.108475e-02 2.649032e-01 -1.086460e-01 3.267917e-01 -3.789086e-02
<VARIANCE> 25
 1.024854e+01 2.474653e+01 1.952419e+01 3.681806e+01 2.962375e+01 5.188120e+01 4.709480e+01 3.442372e+01 4.678477e+01 5.242199e+01 3.581952e+01 4.090676e+01 4.133464e-01 7.722371e-01 1.011938e+00 1.433032e+00 1.978821e+00 2.414724e+00 2.045762e+00 2.258118e+00 1.963298e+00 2.138647e+00 1.773519e+00 2.073644e+00 6.666367e-04
<GCONST> 8.563144e+01
<MIXTURE> 93 6.122769e-03
<MEAN> 25
 -6.687004e+00 -8.629223e-01 -2.562025e+00 5.922441e+00 5.825031e+00 3.932487e+00 6.051111e+00 3.613043e+00 4.286379e+00 2.359443e+00 1.698127e+00 3.674413e+00 -6.098335e-02 -1.765511e-01 -2.687677e-01 -3.311104e-01 -3.285987e-01 -3.028528e-01 -2.156533e-01 -1.759164e-01 -1.809912e-01 -1.798548e-01 -1.399047e-01 -5.035893e-02 1.130727e-05
<VARIANCE> 25
 9.447052e+00 6.255744e+00 8.850256e+00 1.161231e+01 1.170219e+01 1.556662e+01 1.529832e+01 1.613134e+01 1.528223e+01 1.486327e+01 1.703370e+01 1.319350e+01 8.045336e-02 1.658493e-01 2.672360e-01 3.719270e-01 4.864332e-01 6.389158e-01 7.617515e-01 8.650584e-01 8.990772e-01 8.846854e-01 9.114002e-01 9.329226e-01 1.016797e-06
<GCONST> 5.381141e+01
<MIXTURE> 94 6.122769e-03
<MEAN> 25
 -6.687004e+00 -8.629223e-01 -2.562025e+00 5.922441e+00 5.825031e+00 3.932487e+00 6.051111e+00 3.613043e+00 4.286379e+00 2.359443e+00 1.698127e+00 3.674413e+00 -6.098335e-02 -1.765511e-01 -2.687677e-01 -3.311104e-01 -3.285987e-01 -3.028528e-01 -2.156533e-01 -1.759164e-01 -1.809912e-01 -1.798548e-01 -1.399047e-01 -5.035893e-02 1.130727e-05
<VARIANCE> 25
 9.447052e+00 6.255744e+00 8.850256e+00 1.161231e+01 1.170219e+01 1.556662e+01 1.529832e+01 1.613134e+01 1.528223e+01 1.486327e+01 1.703370e+01 1.319350e+01 8.045336e-02 1.658493e-01 2.672360e-01 3.719270e-01 4.864332e-01 6.389158e-01 7.617515e-01 8.650584e-01 8.990772e-01 8.846854e-01 9.114002e-01 9.329226e-01 1.016797e-06
<GCONST> 5.381141e+01
<MIXTURE> 95 5.258835e-03
<MEAN> 25
 -5.497978e+00 -4.330066e-01 -2.312111e+00 5.253615e+00 3.737755e+00 2.745731e+00 4.231922e+00 1.864571e+00 2.617027e+00 6.107058e-01 6.992455e-01 2.494694e+00 1.298345e-01 1.036052e-01 9.461491e-02 -6.905069e-02 -3.912418e-01 -7.223641e-01 -1.055318e+00 -1.194809e+00 -1.175156e+00 -9.423811e-01 -6.691701e-01 -2.764139e-01 5.808946e-05
<VARIANCE> 25
 1.064837e+01 7.092697e+00 1.263164e+01 1.346172e+01 1.577043e+01 1.718962e+01 1.694480e+01 1.676359e+01 1.610057e+01 1.526486e+01 2.240577e+01 1.423956e+01 1.973667e-01 3.198875e-01 4.672942e-01 6.083502e-01 8.190066e-01 9.087887e-01 8.724847e-01 9.675590e-01 9.882494e-01 1.050500e+00 1.121868e+00 1.086944e+00 4.236960e-05
<GCONST> 6.361058e+01
<MIXTURE> 96 7.034694e-03
<MEAN> 25
 -5.027206e+00 -3.677835e-01 -2.344990e+00 5.267313e+00 3.795162e+00 1.820591e+00 3.552674e+00 1.840446e+00 2.599814e+00 8.743115e-01 1.102562e+00 2.836295e+00 -3.194456e-02 7.648046e-02 2.105221e-01 3.975241e-01 5.289988e-01 4.806515e-01 2.360214e-01 -1.183636e-01 -4.449879e-01 -6.476164e-01 -6.137627e-01 -3.712861e-01 -4.787462e-06
<VARIANCE> 25
 1.095445e+01 9.907166e+00 1.312491e+01 1.448113e+01 1.527290e+01 1.924591e+01 1.791386e+01 1.900938e+01 1.857959e+01 1.651118e+01 1.973591e+01 1.431733e+01 1.184615e-01 2.311793e-01 3.245471e-01 3.954301e-01 4.985926e-01 6.711609e-01 8.602133e-01 9.948151e-01 9.791341e-01 8.716839e-01 8.812945e-01 9.423516e-01 1.036435e-06
<GCONST> 5.773997e+01
<MIXTURE> 97 7.034694e-03
<MEAN> 25
 -5.027206e+00 -3.677835e-01 -2.344990e+00 5.267313e+00 3.795162e+00 1.820591e+00 3.552674e+00 1.840446e+00 2.599814e+00 8.743115e-01 1.102562e+00 2.836295e+00 -3.194456e-02 7.648046e-02 2.105221e-01 3.975241e-01 5.289988e-01 4.806515e-01 2.360214e-01 -1.183636e-01 -4.449879e-01 -6.476164e-01 -6.137627e-01 -3.712861e-01 -4.787462e-06
<VARIANCE> 25
 1.095445e+01 9.907166e+00 1.312491e+01 1.448113e+01 1.527290e+01 1.924591e+01 1.791386e+01 1.900938e+01 1.857959e+01 1.651118e+01 1.973591e+01 1.431733e+01 1.184615e-01 2.311793e-01 3.245471e-01 3.954301e-01 4.985926e-01 6.711609e-01 8.602133e-01 9.948151e-01 9.791341e-01 8.716839e-01 8.812945e-01 9.423516e-01 1.036435e-06
<GCONST> 5.773997e+01
<MIXTURE> 98 9.917808e-03
<MEAN> 25
 -1.363833e+00 1.106898e+00 -1.575262e-01 4.464676e+00 3.388027e+00 2.673763e+00 3.126920e+00 1.610036e+00 1.576461e+00 8.576038e-01 6.646841e-01 8.816848e-01 -1.748962e+00 -1.436846e+00 -1.005495e+00 1.586678e-01 6.035720e-01 8.245240e-01 1.234303e+00 1.428971e+00 1.676578e+00 1.048508e+00 1.253223e+00 8.880901e-01 -3.490352e-02
<VARIANCE> 25
 1.438642e+01 1.991543e+01 3.128209e+01 3.286058e+01 4.322570e+01 3.775993e+01 3.127792e+01 2.883057e+01 2.713130e+01 2.942438e+01 2.658132e+01 2.363624e+01 1.408219e+00 1.550263e+00 2.306415e+00 2.427002e+00 2.879633e+00 2.897673e+00 2.800331e+00 2.693965e+00 2.556132e+00 3.119851e+00 2.797944e+00 2.255219e+00 2.336640e-03
<GCONST> 9.037235e+01
<MIXTURE> 99 6.696178e-03
<MEAN> 25
 -6.273541e+00 9.781840e+00 7.307139e+00 3.339836e+00 6.704649e-01 -5.256539e+00 -1.661744e+00 -3.998207e+00 -3.722313e+00 -3.649625e+00 -1.858621e+00 4.781338e-01 5.227258e-01 -7.852197e-01 3.281851e-01 -3.199407e-01 -1.174217e+00 -5.581574e-01 -2.090476e-01 -2.692721e-01 -2.016077e-01 -3.710277e-02 2.781481e-01 1.649238e-01 1.213578e-02
<VARIANCE> 25
 3.639426e+01 2.506663e+01 5.366951e+01 3.154621e+01 3.685356e+01 3.420338e+01 2.670066e+01 2.941470e+01 2.759751e+01 2.756487e+01 2.109349e+01 2.828569e+01 2.138310e+00 1.892318e+00 1.428950e+00 1.777295e+00 2.648674e+00 2.179802e+00 1.826567e+00 1.650064e+00 1.730473e+00 1.682895e+00 1.298452e+00 1.245669e+00 1.617252e-03
<GCONST> 8.733736e+01
<MIXTURE> 100 4.498084e-03
<MEAN> 25
 -1.599109e+00 6.336047e+00 1.029630e+01 -7.450033e+00 -1.077709e+01 -5.074641e+00 -4.933877e+00 -9.949716e+00 -4.727819e+00 -8.536391e-01 -2.731642e+00 -2.700974e+00 2.914729e+00 -1.262115e+00 1.299077e+00 -2.181233e+00 -3.418118e+00 -7.844166e-01 -1.215617e+00 -8.207005e-01 -1.476015e+00 3.502865e-01 -1.652226e+00 -2.883633e-01 2.089722e-03
<VARIANCE> 25
 1.360164e+01 2.110799e+01 2.264044e+01 2.647163e+01 2.300910e+01 2.368590e+01 2.909117e+01 2.187470e+01 2.748645e+01 2.261823e+01 2.243952e+01 2.135693e+01 1.808251e+00 3.947927e+00 2.916366e+00 4.292508e+00 4.178117e+00 4.535033e+00 4.026700e+00 4.333779e+00 4.163482e+00 3.897583e+00 3.912926e+00 3.226532e+00 1.676594e-03
<GCONST> 9.258903e+01
<MIXTURE> 101 6.007792e-03
<MEAN> 25
 7.678962e+00 -3.392322e+00 -6.128249e+00 -6.534489e+00 9.649381e-01 -1.656939e+00 -1.069920e+01 -2.228842e+00 1.434434e+00 2.731210e+00 -2.670573e+00 -5.329713e+00 6.518421e-01 5.287470e-01 -1.528705e+00 -1.582259e+00 9.699854e-01 2.301147e+00 2.091543e-01 -1.482843e+00 -1.009851e+00 8.469644e-01 1.419315e+00 -2.924793e-01 -4.196169e-03
<VARIANCE> 25
 1.016701e+01 1.544471e+01 2.805276e+01 4.040960e+01 3.577194e+01 3.526564e+01 3.428407e+01 3.386530e+01 3.959422e+01 4.209652e+01 5.319717e+01 2.356672e+01 2.854031e-01 7.648436e-01 1.157547e+00 1.531161e+00 1.627490e+00 1.913374e+00 1.935864e+00 1.846991e+00 2.169044e+00 2.440164e+00 1.677511e+00 2.236101e+00 3.461891e-04
<GCONST> 8.326640e+01
<MIXTURE> 102 6.007792e-03
<MEAN> 25
 7.678962e+00 -3.392322e+00 -6.128249e+00 -6.534489e+00 9.649381e-01 -1.656939e+00 -1.069920e+01 -2.228842e+00 1.434434e+00 2.731210e+00 -2.670573e+00 -5.329713e+00 6.518421e-01 5.287470e-01 -1.528705e+00 -1.582259e+00 9.699854e-01 2.301147e+00 2.091543e-01 -1.482843e+00 -1.009851e+00 8.469644e-01 1.419315e+00 -2.924793e-01 -4.196169e-03
<VARIANCE> 25
 1.016701e+01 1.544471e+01 2.805276e+01 4.040960e+01 3.577194e+01 3.526564e+01 3.428407e+01 3.386530e+01 3.959422e+01 4.209652e+01 5.319717e+01 2.356672e+01 2.854031e-01 7.648436e-01 1.157547e+00 1.531161e+00 1.627490e+00 1.913374e+00 1.935864e+00 1.846991e+00 2.169044e+00 2.440164e+00 1.677511e+00 2.236101e+00 3.461891e-04
<GCONST> 8.326640e+01
<MIXTURE> 103 5.694618e-03
<MEAN> 25
 3.349140e+00 -9.468191e+00 -6.092253e+00 -3.166289e+00 -1.278613e+00 -2.001475e+00 2.328966e+00 2.536440e+00 -4.544858e+00 -9.064406e+00 -5.069272e+00 3.556503e-01 -1.570731e-01 -1.490580e+00 -9.772326e-01 3.758914e-01 1.225381e+00 1.023723e+00 1.575074e-01 -2.692092e-01 -7.861224e-01 -9.175457e-01 -1.764672e-02 1.123142e-01 2.706919e-02
<VARIANCE> 25
 1.022354e+01 2.044147e+01 2.309286e+01 3.190438e+01 4.777210e+01 3.486592e+01 4.671693e+01 3.687017e+01 4.209285e+01 3.164915e+01 3.002884e+01 2.611369e+01 6.385812e-01 1.249886e+00 1.526207e+00 1.939688e+00 2.940911e+00 2.428519e+00 2.865476e+00 2.570088e+00 2.555297e+00 2.554889e+00 2.116336e+00 2.018659e+00 8.206690e-04
<GCONST> 8.766556e+01
<MIXTURE> 104 5.694618e-03
<MEAN> 25
 3.349140e+00 -9.468191e+00 -6.092253e+00 -3.166289e+00 -1.278613e+00 -2.001475e+00 2.328966e+00 2.536440e+00 -4.544858e+00 -9.064406e+00 -5.069272e+00 3.556503e-01 -1.570731e-01 -1.490580e+00 -9.772326e-01 3.758914e-01 1.225381e+00 1.023723e+00 1.575074e-01 -2.692092e-01 -7.861224e-01 -9.175457e-01 -1.764672e-02 1.123142e-01 2.706919e-02
<VARIANCE> 25
 1.022354e+01 2.044147e+01 2.309286e+01 3.190438e+01 4.777210e+01 3.486592e+01 4.671693e+01 3.687017e+01 4.209285e+01 3.164915e+01 3.002884e+01 2.611369e+01 6.385812e-01 1.249886e+00 1.526207e+00 1.939688e+00 2.940911e+00 2.428519e+00 2.865476e+00 2.570088e+00 2.555297e+00 2.554889e+00 2.116336e+00 2.018659e+00 8.206690e-04
<GCONST> 8.766556e+01
<MIXTURE> 105 4.710235e-03
<MEAN> 25
 2.251286e+00 -1.455218e+00 9.039511e+00 -2.706086e+00 -1.146275e+01 -4.800471e+00 -4.104954e+00 -7.942305e-01 -3.686092e+00 -3.109871e+00 1.540313e+00 -1.184417e+00 5.502300e-03 3.412709e-02 4.025890e-02 -5.745663e-02 9.194686e-03 4.528147e-02 -1.371121e-02 4.421365e-02 -4.215148e-02 4.180970e-02 2.852053e-02 -1.886666e-02 -2.393486e-03
<VARIANCE> 25
 1.315907e+01 2.856371e+01 4.261444e+01 4.434784e+01 3.839172e+01 5.573443e+01 4.076466e+01 4.272509e+01 4.015479e+01 4.174645e+01 4.140847e+01 3.030657e+01 8.350040e-02 1.857454e-01 3.427666e-01 2.950324e-01 3.686339e-01 4.221238e-01 4.649577e-01 4.874034e-01 4.897978e-01 4.488718e-01 4.151890e-01 3.977862e-01 9.067408e-05
<GCONST> 6.668427e+01
<MIXTURE> 106 4.710235e-03
<MEAN> 25
 2.251286e+00 -1.455218e+00 9.039511e+00 -2.706086e+00 -1.146275e+01 -4.800471e+00 -4.104954e+00 -7.942305e-01 -3.686092e+00 -3.109871e+00 1.540313e+00 -1.184417e+00 5.502300e-03 3.412709e-02 4.025890e-02 -5.745663e-02 9.194686e-03 4.528147e-02 -1.371121e-02 4.421365e-02 -4.215148e-02 4.180970e-02 2.852053e-02 -1.886666e-02 -2.393486e-03
<VARIANCE> 25
 1.315907e+01 2.856371e+01 4.261444e+01 4.434784e+01 3.839172e+01 5.573443e+01 4.076466e+01 4.272509e+01 4.015479e+01 4.174645e+01 4.140847e+01 3.030657e+01 8.350040e-02 1.857454e-01 3.427666e-01 2.950324e-01 3.686339e-01 4.221238e-01 4.649577e-01 4.874034e-01 4.897978e-01 4.488718e-01 4.151890e-01 3.977862e-01 9.067408e-05
<GCONST> 6.668427e+01
<MIXTURE> 107 5.452374e-03
<MEAN> 25
 8.371562e+00 -2.228561e+00 -7.867097e+00 -9.271099e+00 1.980816e+00 3.134593e+00 -8.243987e+00 -4.479958e+00 -7.531145e-01 3.344863e+00 7.374814e-01 -4.902440e+00 -5.961500e-01 -7.014002e-01 8.386342e-01 1.713297e+00 1.942048e-01 -2.010015e+00 -8.272288e-01 8.620384e-01 1.754313e+00 2.021656e-02 -1.651599e+00 -7.745961e-01 -2.323350e-03
<VARIANCE> 25
 1.014907e+01 2.123276e+01 2.804983e+01 4.315781e+01 3.562927e+01 3.761503e+01 5.198834e+01 3.460206e+01 4.395778e+01 4.089983e+01 5.057515e+01 2.976986e+01 3.505077e-01 1.035865e+00 1.439093e+00 2.551487e+00 2.273640e+00 2.756922e+00 2.834917e+00 2.607591e+00 2.292608e+00 2.907410e+00 1.871244e+00 2.242365e+00 7.056072e-04
<GCONST> 8.812364e+01
<MIXTURE> 108 5.452374e-03
<MEAN> 25
 8.371562e+00 -2.228561e+00 -7.867097e+00 -9.271099e+00 1.980816e+00 3.134593e+00 -8.243987e+00 -4.479958e+00 -7.531145e-01 3.344863e+00 7.374814e-01 -4.902440e+00 -5.961500e-01 -7.014002e-01 8.386342e-01 1.713297e+00 1.942048e-01 -2.010015e+00 -8.272288e-01 8.620384e-01 1.754313e+00 2.021656e-02 -1.651599e+00 -7.745961e-01 -2.323350e-03
<VARIANCE> 25
 1.014907e+01 2.123276e+01 2.804983e+01 4.315781e+01 3.562927e+01 3.761503e+01 5.198834e+01 3.460206e+01 4.395778e+01 4.089983e+01 5.057515e+01 2.976986e+01 3.505077e-01 1.035865e+00 1.439093e+00 2.551487e+00 2.273640e+00 2.756922e+00 2.834917e+00 2.607591e+00 2.292608e+00 2.907410e+00 1.871244e+00 2.242365e+00 7.056072e-04
<GCONST> 8.812364e+01
<MIXTURE> 109 6.661064e-03
<MEAN> 25
 3.918083e+00 -1.024532e+01 -7.891147e+00 -1.710638e+00 2.788072e+00 -1.594094e-01 -2.109340e-01 1.582714e+00 -2.281706e+00 -7.592647e+00 -5.381115e+00 1.139354e-01 -4.562507e-02 -1.381905e-01 -7.772054e-02 2.604616e-01 2.333443e-01 8.483352e-02 -1.188124e-01 -6.997795e-02 -5.134927e-02 -1.013959e-01 2.619212e-01 -4.213267e-02 -3.619290e-03
<VARIANCE> 25
 8.753798e+00 2.059560e+01 2.141962e+01 3.356384e+01 3.855880e+01 3.652378e+01 4.399213e+01 3.455666e+01 4.396389e+01 4.126754e+01 2.870517e+01 2.681962e+01 1.836653e-01 4.313186e-01 5.504886e-01 7.131236e-01 1.312353e+00 9.976571e-01 1.171736e+00 1.110448e+00 1.096812e+00 9.506595e-01 8.686813e-01 9.694937e-01 1.835727e-04
<GCONST> 7.477495e+01
<MIXTURE> 110 6.661064e-03
<MEAN> 25
 3.918083e+00 -1.024532e+01 -7.891147e+00 -1.710638e+00 2.788072e+00 -1.594094e-01 -2.109340e-01 1.582714e+00 -2.281706e+00 -7.592647e+00 -5.381115e+00 1.139354e-01 -4.562507e-02 -1.381905e-01 -7.772054e-02 2.604616e-01 2.333443e-01 8.483352e-02 -1.188124e-01 -6.997795e-02 -5.134927e-02 -1.013959e-01 2.619212e-01 -4.213267e-02 -3.619290e-03
<VARIANCE> 25
 8.753798e+00 2.059560e+01 2.141962e+01 3.356384e+01 3.855880e+01 3.652378e+01 4.399213e+01 3.455666e+01 4.396389e+01 4.126754e+01 2.870517e+01 2.681962e+01 1.836653e-01 4.313186e-01 5.504886e-01 7.131236e-01 1.312353e+00 9.976571e-01 1.171736e+00 1.110448e+00 1.096812e+00 9.506595e-01 8.686813e-01 9.694937e-01 1.835727e-04
<GCONST> 7.477495e+01
<MIXTURE> 111 4.337247e-03
<MEAN> 25
 -4.394610e+00 -8.620281e-01 -1.822975e+00 1.840889e+00 9.451720e-01 9.914994e-01 3.755771e-01 2.535112e-01 2.319767e-01 -6.307306e-01 -7.456342e-01 1.928238e+00 -2.363663e-02 -3.531090e-02 -6.209201e-02 -8.216837e-02 -8.346575e-02 -2.917347e-02 -4.202662e-03 -5.671441e-02 -1.398142e-01 -1.946748e-01 -1.827643e-01 -9.659427e-02 -3.012457e-04
<VARIANCE> 25
 7.060201e+00 5.072746e+00 1.035491e+01 1.056772e+01 1.281651e+01 2.324689e+01 1.450300e+01 1.293468e+01 1.210924e+01 1.202494e+01 1.383650e+01 1.136923e+01 7.784719e-02 1.624391e-01 2.748339e-01 4.146967e-01 6.609197e-01 7.540842e-01 7.848526e-01 8.416345e-01 8.713210e-01 8.398922e-01 8.490489e-01 8.323365e-01 2.240143e-05
<GCONST> 5.617183e+01
<MIXTURE> 112 4.337247e-03
<MEAN> 25
 -4.394610e+00 -8.620281e-01 -1.822975e+00 1.840889e+00 9.451720e-01 9.914994e-01 3.755771e-01 2.535112e-01 2.319767e-01 -6.307306e-01 -7.456342e-01 1.928238e+00 -2.363663e-02 -3.531090e-02 -6.209201e-02 -8.216837e-02 -8.346575e-02 -2.917347e-02 -4.202662e-03 -5.671441e-02 -1.398142e-01 -1.946748e-01 -1.827643e-01 -9.659427e-02 -3.012457e-04
<VARIANCE> 25
 7.060201e+00 5.072746e+00 1.035491e+01 1.056772e+01 1.281651e+01 2.324689e+01 1.450300e+01 1.293468e+01 1.210924e+01 1.202494e+01 1.383650e+01 1.136923e+01 7.784719e-02 1.624391e-01 2.748339e-01 4.146967e-01 6.609197e-01 7.540842e-01 7.848526e-01 8.416345e-01 8.713210e-01 8.398922e-01 8.490489e-01 8.323365e-01 2.240143e-05
<GCONST> 5.617183e+01
<MIXTURE> 113 5.938666e-03
<MEAN> 25
 9.941829e+00 1.741688e+00 -8.760916e+00 -1.698413e+01 -1.035771e+00 5.663888e+00 -5.249160e+00 -1.469935e+00 -5.651282e+00 -4.883576e-01 3.107348e-01 -2.112039e-01 3.956209e-03 1.433255e-02 -6.122625e-02 -1.149663e-01 1.038409e-01 1.500360e-01 6.034407e-02 3.539990e-02 -5.617232e-02 -4.969133e-02 1.778197e-01 3.774508e-02 -1.469799e-03
<VARIANCE> 25
 9.080399e+00 1.649661e+01 2.966242e+01 3.487196e+01 5.251452e+01 3.374973e+01 3.971754e+01 3.898248e+01 3.759135e+01 4.621225e+01 3.624725e+01 2.838071e+01 1.215417e-01 3.197835e-01 3.175063e-01 6.319174e-01 6.121159e-01 6.518269e-01 7.743900e-01 8.445334e-01 9.588064e-01 9.054764e-01 7.228923e-01 7.128831e-01 1.258129e-04
<GCONST> 7.113648e+01
<MIXTURE> 114 5.938666e-03
<MEAN> 25
 9.941829e+00 1.741688e+00 -8.760916e+00 -1.698413e+01 -1.035771e+00 5.663888e+00 -5.249160e+00 -1.469935e+00 -5.651282e+00 -4.883576e-01 3.107348e-01 -2.112039e-01 3.956209e-03 1.433255e-02 -6.122625e-02 -1.149663e-01 1.038409e-01 1.500360e-01 6.034407e-02 3.539990e-02 -5.617232e-02 -4.969133e-02 1.778197e-01 3.774508e-02 -1.469799e-03
<VARIANCE> 25
 9.080399e+00 1.649661e+01 2.966242e+01 3.487196e+01 5.251452e+01 3.374973e+01 3.971754e+01 3.898248e+01 3.759135e+01 4.621225e+01 3.624725e+01 2.838071e+01 1.215417e-01 3.197835e-01 3.175063e-01 6.319174e-01 6.121159e-01 6.518269e-01 7.743900e-01 8.445334e-01 9.588064e-01 9.054764e-01 7.228923e-01 7.128831e-01 1.258129e-04
<GCONST> 7.113648e+01
<MIXTURE> 115 2.935202e-03
<MEAN> 25
 -3.883660e+00 -6.748118e-01 -3.500279e+00 4.039097e+00 2.494583e+00 -2.522983e-01 2.280761e+00 6.384735e-01 1.929934e+00 -2.962971e-01 -1.404354e-01 2.762433e+00 2.757544e-02 -1.366798e-01 -2.547499e-01 -4.609216e-01 -6.368494e-01 -6.577783e-01 -5.487379e-01 -4.636431e-01 -5.135605e-01 -4.923115e-01 -4.055647e-01 -2.311833e-01 4.377751e-05
<VARIANCE> 25
 8.968728e+00 9.564970e+00 1.485543e+01 1.391949e+01 1.305336e+01 1.703394e+01 1.625882e+01 2.029090e+01 2.076274e+01 1.729124e+01 1.863993e+01 1.395921e+01 1.908300e-01 3.862520e-01 4.736956e-01 5.467627e-01 6.076324e-01 7.600635e-01 9.759771e-01 1.097232e+00 1.023475e+00 9.536769e-01 1.017139e+00 1.100504e+00 1.007492e-06
<GCONST> 5.999615e+01
<MIXTURE> 116 2.935202e-03
<MEAN> 25
 -3.883660e+00 -6.748118e-01 -3.500279e+00 4.039097e+00 2.494583e+00 -2.522983e-01 2.280761e+00 6.384735e-01 1.929934e+00 -2.962971e-01 -1.404354e-01 2.762433e+00 2.757544e-02 -1.366798e-01 -2.547499e-01 -4.609216e-01 -6.368494e-01 -6.577783e-01 -5.487379e-01 -4.636431e-01 -5.135605e-01 -4.923115e-01 -4.055647e-01 -2.311833e-01 4.377751e-05
<VARIANCE> 25
 8.968728e+00 9.564970e+00 1.485543e+01 1.391949e+01 1.305336e+01 1.703394e+01 1.625882e+01 2.029090e+01 2.076274e+01 1.729124e+01 1.863993e+01 1.395921e+01 1.908300e-01 3.862520e-01 4.736956e-01 5.467627e-01 6.076324e-01 7.600635e-01 9.759771e-01 1.097232e+00 1.023475e+00 9.536769e-01 1.017139e+00 1.100504e+00 1.007492e-06
<GCONST> 5.999615e+01
<MIXTURE> 117 6.506003e-03
<MEAN> 25
 -4.583006e+00 1.286706e+00 8.607821e-01 9.696901e+00 5.920587e+00 6.130474e+00 6.594184e+00 5.157340e+00 6.395843e+00 4.645338e+00 6.244443e+00 2.693753e+00 -6.860647e-02 -2.499647e-01 -4.101535e-01 -4.177218e-01 -3.538728e-01 -3.116412e-01 -2.519043e-01 -3.231643e-01 -3.866906e-01 -3.834409e-01 -3.124895e-01 -7.803350e-02 -7.747286e-06
<VARIANCE> 25
 6.995142e+00 9.096324e+00 1.034025e+01 1.384795e+01 1.777647e+01 1.511937e+01 1.753763e+01 1.761726e+01 1.578682e+01 1.760709e+01 1.652262e+01 1.418885e+01 2.091119e-01 3.017509e-01 4.774178e-01 5.930880e-01 8.246202e-01 1.016505e+00 1.162986e+00 1.186524e+00 1.177757e+00 1.154107e+00 1.180286e+00 1.110721e+00 9.677960e-07
<GCONST> 6.032615e+01
<MIXTURE> 118 6.506003e-03
<MEAN> 25
 -4.583006e+00 1.286706e+00 8.607821e-01 9.696901e+00 5.920587e+00 6.130474e+00 6.594184e+00 5.157340e+00 6.395843e+00 4.645338e+00 6.244443e+00 2.693753e+00 -6.860647e-02 -2.499647e-01 -4.101535e-01 -4.177218e-01 -3.538728e-01 -3.116412e-01 -2.519043e-01 -3.231643e-01 -3.866906e-01 -3.834409e-01 -3.124895e-01 -7.803350e-02 -7.747286e-06
<VARIANCE> 25
 6.995142e+00 9.096324e+00 1.034025e+01 1.384795e+01 1.777647e+01 1.511937e+01 1.753763e+01 1.761726e+01 1.578682e+01 1.760709e+01 1.652262e+01 1.418885e+01 2.091119e-01 3.017509e-01 4.774178e-01 5.930880e-01 8.246202e-01 1.016505e+00 1.162986e+00 1.186524e+00 1.177757e+00 1.154107e+00 1.180286e+00 1.110721e+00 9.677960e-07
<GCONST> 6.032615e+01
<MIXTURE> 119 4.297961e-03
<MEAN> 25
 -4.964608e+00 -7.633732e+00 2.221608e+00 2.000133e+00 2.242210e+00 2.093497e-01 5.263227e+00 5.931616e+00 1.165238e+00 9.713268e-01 6.600245e+00 1.564570e+00 -5.025466e-02 -7.884739e-02 3.740484e-02 -5.824565e-02 -1.262741e-01 -1.797934e-01 -6.839294e-02 -1.388819e-02 -9.188496e-02 -1.115068e-01 -5.559154e-02 -5.725739e-02 1.121144e-03
<VARIANCE> 25
 8.557486e+00 9.809796e+00 1.659434e+01 2.033105e+01 2.284831e+01 2.317411e+01 2.504391e+01 2.648411e+01 2.500394e+01 2.804114e+01 2.048562e+01 2.040118e+01 1.603046e-01 2.826104e-01 4.593776e-01 6.351658e-01 8.028328e-01 1.004526e+00 1.098946e+00 1.278052e+00 1.284506e+00 1.244947e+00 1.191632e+00 1.111758e+00 2.316242e-04
<GCONST> 6.973425e+01
<MIXTURE> 120 4.297961e-03
<MEAN> 25
 -4.964608e+00 -7.633732e+00 2.221608e+00 2.000133e+00 2.242210e+00 2.093497e-01 5.263227e+00 5.931616e+00 1.165238e+00 9.713268e-01 6.600245e+00 1.564570e+00 -5.025466e-02 -7.884739e-02 3.740484e-02 -5.824565e-02 -1.262741e-01 -1.797934e-01 -6.839294e-02 -1.388819e-02 -9.188496e-02 -1.115068e-01 -5.559154e-02 -5.725739e-02 1.121144e-03
<VARIANCE> 25
 8.557486e+00 9.809796e+00 1.659434e+01 2.033105e+01 2.284831e+01 2.317411e+01 2.504391e+01 2.648411e+01 2.500394e+01 2.804114e+01 2.048562e+01 2.040118e+01 1.603046e-01 2.826104e-01 4.593776e-01 6.351658e-01 8.028328e-01 1.004526e+00 1.098946e+00 1.278052e+00 1.284506e+00 1.244947e+00 1.191632e+00 1.111758e+00 2.316242e-04
<GCONST> 6.973425e+01
<MIXTURE> 121 4.567511e-03
<MEAN> 25
 2.127309e-01 -2.528392e+00 5.133031e+00 -1.289256e+01 -1.260208e+01 -1.650394e+00 9.907339e-01 -5.087193e+00 -4.188725e+00 -4.782650e-01 -5.486474e+00 -4.305126e+00 2.415543e-02 1.337118e-01 -4.279697e-02 7.823540e-02 1.609090e-01 7.806254e-02 -7.915343e-02 -1.831942e-01 -2.653378e-01 -2.567463e-01 -1.133909e-01 2.515271e-03 -7.477371e-03
<VARIANCE> 25
 7.714415e+00 1.558804e+01 1.736492e+01 2.035899e+01 2.496446e+01 2.924674e+01 2.947000e+01 2.462770e+01 3.520456e+01 2.828475e+01 1.986527e+01 2.114372e+01 1.545944e-01 6.460660e-01 6.226960e-01 7.046363e-01 7.711117e-01 1.147538e+00 1.114825e+00 1.118421e+00 1.218984e+00 1.189034e+00 9.401646e-01 8.712261e-01 2.117856e-04
<GCONST> 7.141119e+01
<MIXTURE> 122 4.567511e-03
<MEAN> 25
 2.127309e-01 -2.528392e+00 5.133031e+00 -1.289256e+01 -1.260208e+01 -1.650394e+00 9.907339e-01 -5.087193e+00 -4.188725e+00 -4.782650e-01 -5.486474e+00 -4.305126e+00 2.415543e-02 1.337118e-01 -4.279697e-02 7.823540e-02 1.609090e-01 7.806254e-02 -7.915343e-02 -1.831942e-01 -2.653378e-01 -2.567463e-01 -1.133909e-01 2.515271e-03 -7.477371e-03
<VARIANCE> 25
 7.714415e+00 1.558804e+01 1.736492e+01 2.035899e+01 2.496446e+01 2.924674e+01 2.947000e+01 2.462770e+01 3.520456e+01 2.828475e+01 1.986527e+01 2.114372e+01 1.545944e-01 6.460660e-01 6.226960e-01 7.046363e-01 7.711117e-01 1.147538e+00 1.114825e+00 1.118421e+00 1.218984e+00 1.189034e+00 9.401646e-01 8.712261e-01 2.117856e-04
<GCONST> 7.141119e+01
<MIXTURE> 123 4.393044e-03
<MEAN> 25
 -3.276601e+00 2.125446e+00 -1.898059e-01 6.549509e+00 3.473342e+00 3.125751e+00 3.101380e+00 5.873706e-01 8.742053e-01 -1.432127e+00 -6.058916e-01 9.825085e-01 -4.764715e-01 -7.250978e-01 -7.938229e-01 -5.171533e-01 -8.265679e-02 4.904504e-02 5.645725e-01 6.520436e-01 6.407447e-01 6.239398e-01 6.320602e-01 5.417402e-01 -3.415086e-03
<VARIANCE> 25
 1.166985e+01 1.198698e+01 1.650472e+01 1.523135e+01 2.751428e+01 2.571494e+01 1.955555e+01 1.737830e+01 2.224705e+01 1.728707e+01 2.152476e+01 1.692179e+01 3.256547e-01 3.344224e-01 4.729544e-01 6.487458e-01 9.465027e-01 9.829422e-01 1.304540e+00 1.082108e+00 1.150050e+00 1.060463e+00 1.053453e+00 1.071610e+00 9.526409e-05
<GCONST> 6.858972e+01
<MIXTURE> 124 4.069876e-03
<MEAN> 25
 -6.155526e+00 -7.766760e-01 -3.197302e+00 5.461652e+00 4.513904e+00 3.545364e+00 5.393547e+00 2.806309e+00 3.656025e+00 1.106775e+00 9.673832e-01 3.124883e+00 -1.995481e-01 -3.427235e-01 -4.083299e-01 -1.783699e-01 1.666457e-01 4.870369e-01 7.672424e-01 8.385859e-01 6.112281e-01 3.166697e-01 9.980343e-02 2.591417e-02 -1.895676e-04
<VARIANCE> 25
 1.170176e+01 8.408314e+00 1.140786e+01 1.277325e+01 1.382922e+01 1.905380e+01 1.446323e+01 1.710840e+01 1.657821e+01 1.527385e+01 1.829947e+01 1.373890e+01 1.002280e-01 1.757557e-01 2.911835e-01 4.225482e-01 5.795974e-01 6.949829e-01 7.880653e-01 7.929841e-01 9.597872e-01 9.544221e-01 1.033669e+00 9.806152e-01 1.812445e-05
<GCONST> 5.915807e+01
<MIXTURE> 125 4.069876e-03
<MEAN> 25
 -6.155526e+00 -7.766760e-01 -3.197302e+00 5.461652e+00 4.513904e+00 3.545364e+00 5.393547e+00 2.806309e+00 3.656025e+00 1.106775e+00 9.673832e-01 3.124883e+00 -1.995481e-01 -3.427235e-01 -4.083299e-01 -1.783699e-01 1.666457e-01 4.870369e-01 7.672424e-01 8.385859e-01 6.112281e-01 3.166697e-01 9.980343e-02 2.591417e-02 -1.895676e-04
<VARIANCE> 25
 1.170176e+01 8.408314e+00 1.140786e+01 1.277325e+01 1.382922e+01 1.905380e+01 1.446323e+01 1.710840e+01 1.657821e+01 1.527385e+01 1.829947e+01 1.373890e+01 1.002280e-01 1.757557e-01 2.911835e-01 4.225482e-01 5.795974e-01 6.949829e-01 7.880653e-01 7.929841e-01 9.597872e-01 9.544221e-01 1.033669e+00 9.806152e-01 1.812445e-05
<GCONST> 5.915807e+01
<MIXTURE> 126 2.402244e-03
<MEAN> 25
 -3.572820e+00 -6.709463e+00 -5.340380e+00 2.490900e+00 4.097626e+00 -3.068069e+00 1.503613e-01 3.549958e+00 3.465811e+00 -2.751703e+00 -1.610188e+00 2.987073e+00 -1.234436e-02 1.391448e-02 -1.359964e-02 -1.612848e-01 -3.650022e-01 -3.882989e-01 -2.629668e-01 -1.322065e-01 -8.776291e-02 -1.275765e-01 -8.900813e-02 -4.567887e-02 -1.331775e-03
<VARIANCE> 25
 8.141942e+00 1.356914e+01 1.361244e+01 1.631043e+01 2.502203e+01 2.289997e+01 2.193617e+01 2.837198e+01 3.124127e+01 2.566400e+01 2.119297e+01 1.882724e+01 1.654849e-01 3.513160e-01 4.846416e-01 6.096547e-01 7.985752e-01 9.780830e-01 1.079704e+00 1.233031e+00 1.312366e+00 1.259016e+00 1.198241e+00 1.164888e+00 2.069276e-04
<GCONST> 6.984221e+01
<MIXTURE> 127 2.402244e-03
<MEAN> 25
 -3.572820e+00 -6.709463e+00 -5.340380e+00 2.490900e+00 4.097626e+00 -3.068069e+00 1.503613e-01 3.549958e+00 3.465811e+00 -2.751703e+00 -1.610188e+00 2.987073e+00 -1.234436e-02 1.391448e-02 -1.359964e-02 -1.612848e-01 -3.650022e-01 -3.882989e-01 -2.629668e-01 -1.322065e-01 -8.776291e-02 -1.275765e-01 -8.900813e-02 -4.567887e-02 -1.331775e-03
<VARIANCE> 25
 8.141942e+00 1.356914e+01 1.361244e+01 1.631043e+01 2.502203e+01 2.289997e+01 2.193617e+01 2.837198e+01 3.124127e+01 2.566400e+01 2.119297e+01 1.882724e+01 1.654849e-01 3.513160e-01 4.846416e-01 6.096547e-01 7.985752e-01 9.780830e-01 1.079704e+00 1.233031e+00 1.312366e+00 1.259016e+00 1.198241e+00 1.164888e+00 2.069276e-04
<GCONST> 6.984221e+01
<MIXTURE> 128 3.790457e-03
<MEAN> 25
 -3.916477e+00 1.580442e+00 -3.905959e-01 6.580230e+00 3.558016e+00 1.860386e+00 3.625290e+00 2.401907e+00 3.980639e+00 3.632140e+00 3.769035e+00 3.538405e+00 -3.948210e-01 -1.991464e-01 1.011783e-01 7.206462e-01 1.182131e+00 1.124693e+00 7.070833e-01 1.380108e-01 -4.203790e-01 -7.738757e-01 -7.083391e-01 -3.978461e-01 -2.381342e-05
<VARIANCE> 25
 1.014086e+01 1.174731e+01 1.511588e+01 1.914030e+01 2.027705e+01 2.098280e+01 2.435153e+01 2.457312e+01 2.620015e+01 2.413749e+01 2.663522e+01 1.810071e+01 8.845243e-01 1.139834e+00 1.364667e+00 1.492732e+00 1.571112e+00 1.858755e+00 2.242712e+00 2.312083e+00 2.172831e+00 1.869529e+00 1.732064e+00 1.739228e+00 1.016630e-06
<GCONST> 7.361250e+01
<TRANSP> 3
 0.000000e+00 1.000000e+00 0.000000e+00
 0.000000e+00 9.999990e-01 9.999998e-07
 0.000000e+00 0.000000e+00 0.000000e+00
<ENDHMM>
