~o
<STREAMINFO> 1 25
<VECSIZE> 25<NULLD><MFCC_E_D_N><DIAGC>
~h "jmodel"
<BEGINHMM>
<NUMSTATES> 3
<STATE> 2
<NUMMIXES> 128
<MIXTURE> 1 5.748963e-03
<MEAN> 25
 -2.585044e+00 3.201927e+00 2.242453e+00 8.699908e+00 4.336710e+00 3.429235e+00 4.090404e+00 3.925568e+00 5.821177e+00 5.237426e+00 5.844738e+00 3.077408e+00 -1.995317e+00 -1.629791e+00 -8.565556e-01 1.062885e+00 1.553697e+00 2.220184e+00 2.152457e+00 2.071186e+00 1.677514e+00 1.257754e+00 1.557725e+00 6.167212e-01 -4.625848e-02
<VARIANCE> 25
 9.997156e+00 1.172235e+01 1.533035e+01 1.887116e+01 2.326828e+01 2.229022e+01 2.203791e+01 2.186014e+01 2.098303e+01 2.253303e+01 2.095228e+01 1.695351e+01 1.782605e+00 2.110319e+00 3.042368e+00 3.200105e+00 3.719030e+00 3.352839e+00 3.312845e+00 3.379355e+00 3.537258e+00 3.716734e+00 3.507314e+00 2.815465e+00 3.158737e-03
<GCONST> 8.848637e+01
<MIXTURE> 2 4.549242e-03
<MEAN> 25
 -4.841014e+00 1.366770e+00 9.074165e-01 9.840379e+00 6.612044e+00 7.369137e+00 7.848307e+00 7.017381e+00 8.379034e+00 6.303060e+00 7.553322e+00 3.041437e+00 -6.348885e-02 4.089508e-02 1.442585e-01 2.217217e-01 2.624738e-01 2.833019e-01 2.860868e-01 3.203463e-01 3.503853e-01 3.134406e-01 1.971525e-01 8.852925e-02 -2.175040e-06
<VARIANCE> 25
 6.941483e+00 9.017341e+00 1.106120e+01 1.595661e+01 1.745698e+01 1.560843e+01 1.684508e+01 1.861306e+01 1.663561e+01 1.749952e+01 1.822888e+01 1.429815e+01 1.249469e-01 2.247972e-01 3.335789e-01 4.663009e-01 6.539038e-01 8.131299e-01 9.341886e-01 9.969485e-01 1.038622e+00 1.068082e+00 1.063153e+00 1.010479e+00 1.009913e-06
<GCONST> 5.808300e+01
<MIXTURE> 3 4.549242e-03
<MEAN> 25
 -4.841014e+00 1.366770e+00 9.074165e-01 9.840379e+00 6.612044e+00 7.369137e+00 7.848307e+00 7.017381e+00 8.379034e+00 6.303060e+00 7.553322e+00 3.041437e+00 -6.348885e-02 4.089508e-02 1.442585e-01 2.217217e-01 2.624738e-01 2.833019e-01 2.860868e-01 3.203463e-01 3.503853e-01 3.134406e-01 1.971525e-01 8.852925e-02 -2.175040e-06
<VARIANCE> 25
 6.941483e+00 9.017341e+00 1.106120e+01 1.595661e+01 1.745698e+01 1.560843e+01 1.684508e+01 1.861306e+01 1.663561e+01 1.749952e+01 1.822888e+01 1.429815e+01 1.249469e-01 2.247972e-01 3.335789e-01 4.663009e-01 6.539038e-01 8.131299e-01 9.341886e-01 9.969485e-01 1.038622e+00 1.068082e+00 1.063153e+00 1.010479e+00 1.009913e-06
<GCONST> 5.808300e+01
<MIXTURE> 4 1.671429e-02
<MEAN> 25
 2.323734e+00 2.010436e+00 -2.890989e+00 -2.642556e-01 4.656590e+00 -1.352308e+00 -1.495649e+00 -1.093993e+00 1.665330e+00 2.550495e+00 -1.073808e+00 -2.451067e-01 -2.795464e+00 1.008781e+00 1.333224e+00 2.357464e+00 9.259200e-01 -1.050193e+00 1.736227e+00 1.069112e+00 4.860367e-01 7.064136e-01 8.205386e-01 1.128998e+00 -6.807140e-02
<VARIANCE> 25
 2.095976e+01 2.473443e+01 2.748166e+01 3.230693e+01 4.135385e+01 6.695525e+01 5.717472e+01 4.098764e+01 4.860361e+01 4.955905e+01 3.623568e+01 2.800396e+01 1.899918e+00 4.663698e+00 3.382417e+00 4.796011e+00 4.414753e+00 9.314970e+00 5.678957e+00 3.994393e+00 5.425506e+00 4.804778e+00 4.904550e+00 3.667943e+00 6.638441e-03
<GCONST> 1.023232e+02
<MIXTURE> 5 3.206198e-03
<MEAN> 25
 -3.411019e+00 2.194206e+00 5.827157e-01 9.414431e+00 6.661645e+00 6.302145e+00 7.128232e+00 4.736370e+00 5.494594e+00 3.824517e+00 4.626506e+00 2.588057e+00 -3.233572e-01 7.481145e-01 1.217271e+00 1.029061e+00 3.071082e-01 -1.004592e-01 -8.546893e-02 3.535810e-02 4.590564e-01 6.825817e-01 4.059557e-01 9.201315e-02 -2.877193e-05
<VARIANCE> 25
 1.021126e+01 1.391490e+01 2.352510e+01 2.554355e+01 2.039774e+01 1.941428e+01 2.017056e+01 2.034025e+01 2.135610e+01 2.130076e+01 2.420742e+01 1.637246e+01 1.204451e+00 1.243052e+00 1.363410e+00 1.674085e+00 2.278095e+00 2.369429e+00 2.298154e+00 2.273836e+00 2.312406e+00 2.240771e+00 2.083052e+00 1.881605e+00 1.012967e-06
<GCONST> 7.517930e+01
<MIXTURE> 6 5.475854e-03
<MEAN> 25
 9.494201e+00 -8.187491e-01 -5.511206e+00 -9.863100e+00 -1.860621e+00 7.464227e+00 -6.183171e+00 -5.439510e+00 -5.143052e+00 2.102382e+00 5.152549e+00 -1.411239e+00 5.678100e-01 1.079189e+00 -5.351243e-01 -1.344902e+00 -5.748703e-01 1.329715e+00 1.515322e+00 2.331438e-01 -1.028961e+00 -1.440796e+00 3.033302e-01 1.207400e+00 -1.226268e-02
<VARIANCE> 25
 8.118509e+00 1.482462e+01 2.204545e+01 3.395312e+01 3.059694e+01 2.541455e+01 3.508394e+01 2.874545e+01 4.542412e+01 3.621246e+01 3.498941e+01 2.204215e+01 2.940029e-01 8.627560e-01 8.337547e-01 1.978649e+00 1.330523e+00 2.185446e+00 1.851156e+00 1.773587e+00 2.611052e+00 1.991224e+00 1.885910e+00 1.116203e+00 5.840664e-04
<GCONST> 8.131371e+01
<MIXTURE> 7 5.475854e-03
<MEAN> 25
 9.494201e+00 -8.187491e-01 -5.511206e+00 -9.863100e+00 -1.860621e+00 7.464227e+00 -6.183171e+00 -5.439510e+00 -5.143052e+00 2.102382e+00 5.152549e+00 -1.411239e+00 5.678100e-01 1.079189e+00 -5.351243e-01 -1.344902e+00 -5.748703e-01 1.329715e+00 1.515322e+00 2.331438e-01 -1.028961e+00 -1.440796e+00 3.033302e-01 1.207400e+00 -1.226268e-02
<VARIANCE> 25
 8.118509e+00 1.482462e+01 2.204545e+01 3.395312e+01 3.059694e+01 2.541455e+01 3.508394e+01 2.874545e+01 4.542412e+01 3.621246e+01 3.498941e+01 2.204215e+01 2.940029e-01 8.627560e-01 8.337547e-01 1.978649e+00 1.330523e+00 2.185446e+00 1.851156e+00 1.773587e+00 2.611052e+00 1.991224e+00 1.885910e+00 1.116203e+00 5.840664e-04
<GCONST> 8.131371e+01
<MIXTURE> 8 1.165917e-02
<MEAN> 25
 -4.482098e+00 1.651040e+00 7.830037e-01 9.242939e+00 6.090023e+00 6.088108e+00 6.413792e+00 5.623199e+00 6.743931e+00 5.694447e+00 5.977730e+00 3.080816e+00 -7.476996e-01 -1.574787e+00 -7.125709e-01 -1.729971e+00 -2.578250e-01 -9.680180e-01 -6.430522e-02 -3.564514e-01 -2.060809e-01 -1.108393e-01 -1.080379e-01 1.744482e-01 1.044602e-01
<VARIANCE> 25
 9.356636e+00 1.051711e+01 1.345670e+01 1.605735e+01 1.819901e+01 1.491166e+01 1.744106e+01 1.643617e+01 1.612284e+01 1.744091e+01 2.122014e+01 1.303930e+01 2.838269e+00 2.873073e+00 5.116988e+00 3.501122e+00 3.354456e+00 3.114671e+00 3.127687e+00 3.043957e+00 2.722265e+00 2.513678e+00 2.402122e+00 1.920497e+00 6.656999e-03
<GCONST> 8.645962e+01
<MIXTURE> 9 1.199672e-02
<MEAN> 25
 8.576033e+00 3.584015e+00 -4.066644e+00 -1.155348e+01 -2.884893e+00 6.270595e+00 -1.651346e+00 9.701084e-01 -3.703626e+00 -3.437485e+00 2.021341e-01 -8.418626e-01 1.331853e+00 -3.505698e-01 2.514872e-01 -2.746039e+00 -2.186870e+00 1.347521e+00 -9.679714e-01 -5.051354e-01 -4.405430e-01 -9.118330e-01 9.937772e-01 -3.626550e-01 7.882818e-02
<VARIANCE> 25
 7.035006e+00 1.547297e+01 2.097436e+01 3.620188e+01 4.231796e+01 2.341591e+01 2.571391e+01 3.871088e+01 3.091673e+01 3.240578e+01 2.317895e+01 1.586338e+01 1.233792e+00 2.180079e+00 3.257706e+00 4.851287e+00 3.513449e+00 2.660455e+00 2.658172e+00 4.282341e+00 3.367745e+00 2.590896e+00 2.529973e+00 1.831285e+00 1.374946e-03
<GCONST> 8.941508e+01
<MIXTURE> 10 6.596976e-03
<MEAN> 25
 8.177177e-01 7.625595e+00 5.363480e+00 7.141248e+00 1.584009e+00 -2.126140e+00 -5.157826e-01 -1.677184e+00 8.735058e-01 8.581282e-01 8.313704e-01 6.607575e-01 -1.921310e+00 -6.688069e-01 -4.613752e-01 3.021809e+00 2.457915e+00 2.705476e+00 2.368567e+00 2.273164e+00 1.858910e+00 1.542343e+00 2.330789e+00 5.244998e-01 -1.379665e-01
<VARIANCE> 25
 1.952507e+01 2.069838e+01 2.236728e+01 2.906403e+01 3.835979e+01 3.494074e+01 3.513228e+01 3.381170e+01 2.757375e+01 2.905859e+01 2.696054e+01 2.497241e+01 2.236701e+00 3.429210e+00 5.528369e+00 5.173792e+00 5.550719e+00 4.473215e+00 4.709829e+00 4.841839e+00 4.384767e+00 5.015513e+00 4.446306e+00 3.186195e+00 2.705738e-03
<GCONST> 9.746369e+01
<MIXTURE> 11 1.633820e-02
<MEAN> 25
 6.482865e+00 4.639944e+00 1.730908e+00 4.481353e+00 -4.186194e+00 -3.265641e+00 -3.028438e+00 -4.392316e+00 -2.387766e+00 -7.979390e-01 -1.775973e+00 -4.444015e-01 -4.616706e-01 6.109650e-01 -2.119047e-01 7.136714e-02 5.606125e-02 -2.537505e-01 1.717571e-01 -1.393517e-01 1.618064e-01 7.708243e-02 9.109410e-02 3.734063e-01 -2.575262e-02
<VARIANCE> 25
 9.957538e+00 2.834532e+01 1.732936e+01 2.314687e+01 3.618705e+01 3.195306e+01 3.015388e+01 2.763483e+01 3.292479e+01 2.274747e+01 1.891196e+01 1.760497e+01 7.845155e-01 1.154983e+00 1.602623e+00 1.436144e+00 1.804150e+00 2.315801e+00 2.365601e+00 1.671804e+00 1.877745e+00 1.503958e+00 1.414354e+00 1.217060e+00 7.843589e-04
<GCONST> 8.175941e+01
<MIXTURE> 12 5.904134e-03
<MEAN> 25
 1.045941e+01 3.629267e+00 -3.845750e+00 -1.532866e+01 -7.928519e+00 8.597273e+00 -1.939120e+00 -1.391778e+00 -2.578881e+00 -4.657997e+00 2.561449e+00 2.380243e-01 1.239850e-02 1.142381e-01 9.849405e-02 -4.563904e-01 -4.060376e-01 9.798361e-02 3.069689e-01 1.356632e-01 2.815690e-01 -3.037768e-01 -2.930811e-01 1.543303e-01 -1.069565e-03
<VARIANCE> 25
 7.104331e+00 1.652426e+01 2.020434e+01 3.236357e+01 3.633146e+01 2.401687e+01 3.495016e+01 4.388039e+01 3.949424e+01 3.664145e+01 3.175167e+01 2.467527e+01 2.749569e-01 1.037610e+00 6.483238e-01 1.069795e+00 1.071360e+00 1.082214e+00 1.012091e+00 1.464864e+00 1.173727e+00 1.192584e+00 1.216046e+00 8.363735e-01 6.908549e-04
<GCONST> 7.724055e+01
<MIXTURE> 13 5.904134e-03
<MEAN> 25
 1.045941e+01 3.629267e+00 -3.845750e+00 -1.532866e+01 -7.928519e+00 8.597273e+00 -1.939120e+00 -1.391778e+00 -2.578881e+00 -4.657997e+00 2.561449e+00 2.380243e-01 1.239850e-02 1.142381e-01 9.849405e-02 -4.563904e-01 -4.060376e-01 9.798361e-02 3.069689e-01 1.356632e-01 2.815690e-01 -3.037768e-01 -2.930811e-01 1.543303e-01 -1.069565e-03
<VARIANCE> 25
 7.104331e+00 1.652426e+01 2.020434e+01 3.236357e+01 3.633146e+01 2.401687e+01 3.495016e+01 4.388039e+01 3.949424e+01 3.664145e+01 3.175167e+01 2.467527e+01 2.749569e-01 1.037610e+00 6.483238e-01 1.069795e+00 1.071360e+00 1.082214e+00 1.012091e+00 1.464864e+00 1.173727e+00 1.192584e+00 1.216046e+00 8.363735e-01 6.908549e-04
<GCONST> 7.724055e+01
<MIXTURE> 14 6.488954e-03
<MEAN> 25
 -4.250509e+00 -1.727102e-01 -5.139599e-01 8.812980e+00 7.233831e+00 7.284101e+00 8.114633e+00 7.398362e+00 7.154881e+00 5.032449e+00 6.594835e+00 3.936188e+00 -2.609487e-01 1.805257e-01 3.479614e-01 2.626979e-01 -7.744455e-03 2.525736e-02 1.199590e-01 2.224932e-01 2.923006e-01 5.394287e-01 4.966895e-01 6.963307e-02 -8.635999e-03
<VARIANCE> 25
 8.966724e+00 1.417605e+01 1.861713e+01 1.741802e+01 2.197349e+01 1.951255e+01 2.438089e+01 2.007423e+01 2.024679e+01 2.363137e+01 2.199264e+01 1.591438e+01 9.390478e-01 1.591963e+00 1.722779e+00 1.908558e+00 2.211105e+00 2.294369e+00 2.196570e+00 2.317368e+00 2.229525e+00 2.406432e+00 2.141046e+00 1.791383e+00 1.002522e-03
<GCONST> 8.181883e+01
<MIXTURE> 15 2.475190e-03
<MEAN> 25
 -5.316562e+00 -5.101127e-01 -3.666766e-01 7.319604e+00 5.579011e+00 5.657037e+00 6.160076e+00 5.043595e+00 5.189724e+00 3.922136e+00 5.321179e+00 2.487057e+00 -1.236710e-01 -4.373126e-02 6.202804e-02 2.502106e-01 5.021267e-01 7.722673e-01 1.052615e+00 1.180966e+00 1.051650e+00 7.379019e-01 4.220657e-01 1.317343e-01 6.088845e-05
<VARIANCE> 25
 6.998509e+00 6.030469e+00 9.409007e+00 1.240621e+01 1.410863e+01 1.387754e+01 1.524004e+01 1.512491e+01 1.396995e+01 1.493416e+01 1.541790e+01 1.218638e+01 1.212969e-01 2.078962e-01 3.179086e-01 5.003791e-01 7.204388e-01 7.891600e-01 7.705178e-01 7.775095e-01 9.402128e-01 1.003596e+00 1.043008e+00 1.027272e+00 2.860736e-05
<GCONST> 5.869653e+01
<MIXTURE> 16 2.475190e-03
<MEAN> 25
 -5.316562e+00 -5.101127e-01 -3.666766e-01 7.319604e+00 5.579011e+00 5.657037e+00 6.160076e+00 5.043595e+00 5.189724e+00 3.922136e+00 5.321179e+00 2.487057e+00 -1.236710e-01 -4.373126e-02 6.202804e-02 2.502106e-01 5.021267e-01 7.722673e-01 1.052615e+00 1.180966e+00 1.051650e+00 7.379019e-01 4.220657e-01 1.317343e-01 6.088845e-05
<VARIANCE> 25
 6.998509e+00 6.030469e+00 9.409007e+00 1.240621e+01 1.410863e+01 1.387754e+01 1.524004e+01 1.512491e+01 1.396995e+01 1.493416e+01 1.541790e+01 1.218638e+01 1.212969e-01 2.078962e-01 3.179086e-01 5.003791e-01 7.204388e-01 7.891600e-01 7.705178e-01 7.775095e-01 9.402128e-01 1.003596e+00 1.043008e+00 1.027272e+00 2.860736e-05
<GCONST> 5.869653e+01
<MIXTURE> 17 9.518312e-03
<MEAN> 25
 3.322517e+00 -2.208003e+00 6.712955e+00 2.920937e+00 -5.316894e+00 -5.860476e+00 -3.457500e+00 -1.605810e+00 -2.687259e+00 -2.671005e+00 -3.611394e-01 3.303556e-02 -6.518764e-01 -1.295896e+00 1.737963e+00 -1.967973e+00 -2.165833e+00 -3.398783e-01 1.573153e-01 7.257175e-01 -6.096719e-01 -2.660351e-01 1.130016e+00 1.846796e-01 7.750695e-02
<VARIANCE> 25
 1.517919e+01 3.650280e+01 2.955285e+01 3.389875e+01 3.684970e+01 4.066847e+01 5.216228e+01 3.277395e+01 3.126505e+01 2.042805e+01 2.124092e+01 2.173966e+01 1.573245e+00 2.258482e+00 3.645448e+00 2.786459e+00 3.242696e+00 4.452943e+00 3.882045e+00 3.590293e+00 4.084772e+00 3.271763e+00 2.329140e+00 2.203256e+00 1.716232e-03
<GCONST> 9.327563e+01
<MIXTURE> 18 1.221018e-02
<MEAN> 25
 3.492460e+00 4.030407e+00 6.885227e+00 5.128777e+00 -4.628856e+00 -8.109236e+00 -1.385747e+00 -6.698392e-01 -3.125308e+00 -2.881022e+00 -6.733314e-01 8.870093e-01 -7.376480e-01 2.058351e+00 -7.050590e-01 1.550776e+00 2.849871e+00 1.190031e+00 8.050389e-01 -3.355249e-01 6.309918e-01 4.628246e-01 -5.340683e-01 1.358575e-01 -1.094851e-01
<VARIANCE> 25
 1.503423e+01 2.428139e+01 2.970545e+01 2.561052e+01 3.328899e+01 3.012886e+01 3.576195e+01 3.001356e+01 3.434396e+01 3.242955e+01 2.949207e+01 2.736570e+01 2.326908e+00 2.647210e+00 4.663497e+00 3.910090e+00 3.752834e+00 4.231920e+00 4.432942e+00 3.723465e+00 3.807631e+00 3.555701e+00 4.040437e+00 3.368437e+00 3.811410e-03
<GCONST> 9.601632e+01
<MIXTURE> 19 9.912824e-03
<MEAN> 25
 -7.990586e+00 1.373053e+00 -6.440403e-02 1.754265e-01 4.284568e+00 1.680350e-01 4.986659e+00 1.270706e+00 1.249839e-01 1.654318e+00 4.951410e-01 9.396220e-01 2.220339e+00 1.861872e+00 2.291036e+00 5.444545e-01 -1.347218e+00 -8.453939e-01 -7.786826e-01 -1.108383e+00 -1.309317e+00 -1.032826e+00 -6.614025e-01 -7.411693e-01 8.255590e-03
<VARIANCE> 25
 5.276799e+01 2.660868e+01 5.000975e+01 4.201606e+01 3.318879e+01 4.176247e+01 3.204268e+01 2.614119e+01 3.764408e+01 2.720074e+01 2.247208e+01 1.887424e+01 1.620854e+00 1.742387e+00 1.808802e+00 2.173321e+00 2.123723e+00 2.785029e+00 2.189573e+00 2.327493e+00 1.655641e+00 1.402961e+00 1.852304e+00 1.772859e+00 2.047658e-03
<GCONST> 8.944444e+01
<MIXTURE> 20 6.308331e-03
<MEAN> 25
 -1.407071e+01 7.388975e+00 7.784399e-01 6.105344e+00 4.809353e+00 1.493976e+00 5.283733e+00 8.234222e-01 8.924783e-01 8.102097e-01 2.551813e+00 -2.519918e-01 -3.255814e+00 -8.639762e-01 -1.554167e+00 3.330713e-01 1.532810e+00 2.043023e+00 1.979743e+00 2.049353e+00 2.139489e+00 2.007727e+00 1.653108e+00 9.334347e-01 4.704210e-02
<VARIANCE> 25
 2.042746e+01 2.335249e+01 3.087329e+01 3.691135e+01 3.071706e+01 2.912829e+01 3.032684e+01 3.149184e+01 2.793118e+01 2.813922e+01 2.495143e+01 2.083514e+01 2.121616e+00 2.188981e+00 1.913033e+00 2.517210e+00 2.695273e+00 2.319919e+00 2.310986e+00 2.303576e+00 2.214609e+00 2.689723e+00 2.292759e+00 1.859469e+00 1.870763e-03
<GCONST> 8.929749e+01
<MIXTURE> 21 7.928653e-03
<MEAN> 25
 3.332696e+00 -4.953290e+00 5.809271e+00 -1.448051e+00 -8.730374e+00 -8.389370e+00 -2.168741e+00 3.522213e+00 -1.657362e+00 -1.753805e+00 -2.844901e-02 -5.324349e-02 -6.909088e-01 1.160383e+00 2.781016e+00 1.413298e-01 -1.380941e+00 -7.326200e-02 1.130174e+00 -1.366288e+00 -1.987445e+00 6.091232e-02 1.432984e+00 2.726195e-01 -1.135784e-02
<VARIANCE> 25
 9.499428e+00 1.913988e+01 2.813739e+01 2.200927e+01 3.793808e+01 2.572196e+01 3.420325e+01 3.179132e+01 3.333236e+01 3.225057e+01 2.704616e+01 1.878070e+01 3.280922e-01 8.550614e-01 3.353360e+00 1.155531e+00 2.480392e+00 2.153310e+00 4.285118e+00 2.819468e+00 1.718990e+00 2.186440e+00 1.675532e+00 1.926960e+00 3.928133e-04
<GCONST> 8.356824e+01
<MIXTURE> 22 8.827789e-03
<MEAN> 25
 -1.747670e+01 6.839232e+00 -4.132473e+00 7.220560e+00 4.660344e+00 2.328881e+00 8.647452e+00 1.865983e+00 5.064860e+00 3.332192e+00 5.419771e+00 1.080296e+00 -3.168581e-01 -3.282478e-01 -1.235621e-01 -1.539837e-01 4.422673e-02 2.196769e-01 1.657504e-01 1.445217e-01 3.002110e-01 2.084750e-01 1.834582e-01 1.390926e-01 1.063824e-02
<VARIANCE> 25
 1.045225e+01 1.781338e+01 1.639986e+01 2.441678e+01 2.171553e+01 2.297249e+01 1.945572e+01 1.827279e+01 1.873501e+01 1.995680e+01 1.937065e+01 1.365326e+01 1.059453e+00 1.518874e+00 1.300177e+00 1.510352e+00 1.398307e+00 1.545773e+00 1.458241e+00 1.544878e+00 1.605081e+00 1.501962e+00 1.320311e+00 1.173120e+00 1.706590e-03
<GCONST> 7.843156e+01
<MIXTURE> 23 6.455497e-03
<MEAN> 25
 7.219008e+00 2.362029e+00 2.005997e+00 2.849366e+00 -4.888401e+00 -2.484162e+00 -3.637544e+00 -5.282405e+00 -2.817149e+00 -1.063605e+00 -3.431201e+00 -1.628748e+00 1.861164e-02 2.288478e-01 -6.265455e-02 -5.690389e-02 -2.337745e-02 2.086571e-02 5.970614e-02 4.727935e-02 -2.335329e-02 6.606780e-02 8.143331e-02 1.004757e-01 -5.067436e-03
<VARIANCE> 25
 1.340501e+01 2.788803e+01 2.459555e+01 3.299337e+01 3.185485e+01 4.596066e+01 5.188930e+01 5.004285e+01 4.978335e+01 4.136191e+01 4.113151e+01 3.485973e+01 1.186954e-01 3.062075e-01 3.637984e-01 5.677330e-01 5.805581e-01 7.384921e-01 7.408429e-01 8.486285e-01 7.669991e-01 8.013623e-01 9.729092e-01 7.766039e-01 8.275784e-05
<GCONST> 7.224919e+01
<MIXTURE> 24 6.455497e-03
<MEAN> 25
 7.219008e+00 2.362029e+00 2.005997e+00 2.849366e+00 -4.888401e+00 -2.484162e+00 -3.637544e+00 -5.282405e+00 -2.817149e+00 -1.063605e+00 -3.431201e+00 -1.628748e+00 1.861164e-02 2.288478e-01 -6.265455e-02 -5.690389e-02 -2.337745e-02 2.086571e-02 5.970614e-02 4.727935e-02 -2.335329e-02 6.606780e-02 8.143331e-02 1.004757e-01 -5.067436e-03
<VARIANCE> 25
 1.340501e+01 2.788803e+01 2.459555e+01 3.299337e+01 3.185485e+01 4.596066e+01 5.188930e+01 5.004285e+01 4.978335e+01 4.136191e+01 4.113151e+01 3.485973e+01 1.186954e-01 3.062075e-01 3.637984e-01 5.677330e-01 5.805581e-01 7.384921e-01 7.408429e-01 8.486285e-01 7.669991e-01 8.013623e-01 9.729092e-01 7.766039e-01 8.275784e-05
<GCONST> 7.224919e+01
<MIXTURE> 25 1.118642e-02
<MEAN> 25
 -2.864152e-01 2.328263e+00 1.648315e+01 -3.191271e-01 -9.441425e+00 -3.167451e+00 -2.313815e+00 -1.323984e+00 -7.313118e+00 -3.062840e+00 2.949468e+00 4.622903e-01 -3.045619e-01 3.298662e-01 -1.017710e-01 6.627506e-02 2.186747e-01 5.621172e-01 3.462999e-01 1.869932e-03 1.350913e-01 9.561448e-02 2.876225e-02 1.017673e-02 -1.724080e-02
<VARIANCE> 25
 9.335703e+00 2.079096e+01 1.568700e+01 2.942908e+01 2.421782e+01 4.414867e+01 3.094309e+01 2.123872e+01 2.673686e+01 4.165791e+01 1.624386e+01 2.425383e+01 6.502554e-01 1.418028e+00 1.457278e+00 1.016427e+00 2.204232e+00 2.608224e+00 1.334404e+00 1.620726e+00 1.344204e+00 1.286883e+00 1.084259e+00 1.708485e+00 9.789172e-04
<GCONST> 8.087216e+01
<MIXTURE> 26 7.727677e-03
<MEAN> 25
 1.466544e+00 -5.398961e+00 -8.281590e+00 -2.037328e+00 8.478270e+00 5.092279e+00 1.801879e+00 -1.167840e+00 3.085055e+00 2.334971e-01 -2.539157e+00 -8.109248e-01 -2.709618e-01 9.562542e-01 1.342230e-01 6.342133e-01 -3.498494e-03 1.953328e-01 3.370219e-01 2.558962e-01 1.616836e-01 1.601067e-01 1.079951e-01 3.759912e-01 -5.000776e-02
<VARIANCE> 25
 2.171781e+01 3.524169e+01 2.484491e+01 4.779422e+01 3.495557e+01 4.136663e+01 3.857467e+01 4.004494e+01 3.437886e+01 4.198598e+01 3.270605e+01 3.543955e+01 1.514643e+00 1.915288e+00 1.621740e+00 1.786696e+00 2.059050e+00 2.661165e+00 2.008126e+00 2.319532e+00 2.201352e+00 1.959736e+00 2.246250e+00 1.848476e+00 2.833583e-03
<GCONST> 9.100394e+01
<MIXTURE> 27 7.727677e-03
<MEAN> 25
 1.466544e+00 -5.398961e+00 -8.281590e+00 -2.037328e+00 8.478270e+00 5.092279e+00 1.801879e+00 -1.167840e+00 3.085055e+00 2.334971e-01 -2.539157e+00 -8.109248e-01 -2.709618e-01 9.562542e-01 1.342230e-01 6.342133e-01 -3.498494e-03 1.953328e-01 3.370219e-01 2.558962e-01 1.616836e-01 1.601067e-01 1.079951e-01 3.759912e-01 -5.000776e-02
<VARIANCE> 25
 2.171781e+01 3.524169e+01 2.484491e+01 4.779422e+01 3.495557e+01 4.136663e+01 3.857467e+01 4.004494e+01 3.437886e+01 4.198598e+01 3.270605e+01 3.543955e+01 1.514643e+00 1.915288e+00 1.621740e+00 1.786696e+00 2.059050e+00 2.661165e+00 2.008126e+00 2.319532e+00 2.201352e+00 1.959736e+00 2.246250e+00 1.848476e+00 2.833583e-03
<GCONST> 9.100394e+01
<MIXTURE> 28 5.036674e-03
<MEAN> 25
 -5.112257e+00 4.632426e-01 -1.858086e+00 6.537137e+00 4.842451e+00 3.597449e+00 5.513171e+00 3.351140e+00 3.955166e+00 2.044250e+00 2.335833e+00 2.987255e+00 -1.277935e-01 1.858113e-01 4.960089e-01 7.556419e-01 8.379889e-01 7.053513e-01 4.238942e-01 4.091459e-01 4.518623e-01 4.904372e-01 3.949986e-01 2.269342e-01 -5.880454e-05
<VARIANCE> 25
 1.046432e+01 9.941238e+00 1.184579e+01 1.362239e+01 1.501078e+01 1.707590e+01 1.668162e+01 1.991782e+01 1.586347e+01 1.670539e+01 2.006294e+01 1.461740e+01 2.394805e-01 3.263149e-01 3.859837e-01 4.416729e-01 5.905414e-01 8.156465e-01 1.119971e+00 1.057771e+00 1.045690e+00 1.037845e+00 9.883868e-01 1.030312e+00 1.030626e-06
<GCONST> 5.972379e+01
<MIXTURE> 29 5.036674e-03
<MEAN> 25
 -5.112257e+00 4.632426e-01 -1.858086e+00 6.537137e+00 4.842451e+00 3.597449e+00 5.513171e+00 3.351140e+00 3.955166e+00 2.044250e+00 2.335833e+00 2.987255e+00 -1.277935e-01 1.858113e-01 4.960089e-01 7.556419e-01 8.379889e-01 7.053513e-01 4.238942e-01 4.091459e-01 4.518623e-01 4.904372e-01 3.949986e-01 2.269342e-01 -5.880454e-05
<VARIANCE> 25
 1.046432e+01 9.941238e+00 1.184579e+01 1.362239e+01 1.501078e+01 1.707590e+01 1.668162e+01 1.991782e+01 1.586347e+01 1.670539e+01 2.006294e+01 1.461740e+01 2.394805e-01 3.263149e-01 3.859837e-01 4.416729e-01 5.905414e-01 8.156465e-01 1.119971e+00 1.057771e+00 1.045690e+00 1.037845e+00 9.883868e-01 1.030312e+00 1.030626e-06
<GCONST> 5.972379e+01
<MIXTURE> 30 8.917812e-03
<MEAN> 25
 -4.170803e+00 5.936950e-01 -1.686960e-01 8.720709e+00 6.725024e+00 7.238715e+00 8.150195e+00 6.982948e+00 6.562220e+00 4.363278e+00 6.135242e+00 3.083546e+00 -1.664460e-03 2.476888e-02 3.471224e-02 3.384580e-03 1.063052e-02 -5.661264e-02 -1.686336e-02 8.174185e-02 1.116520e-01 9.521882e-02 1.795261e-02 3.228436e-03 -7.951647e-04
<VARIANCE> 25
 6.528910e+00 1.186098e+01 1.233760e+01 1.294454e+01 1.925766e+01 1.507802e+01 2.172970e+01 1.667817e+01 1.593288e+01 1.855404e+01 2.309775e+01 1.385596e+01 9.504233e-02 1.772940e-01 3.128192e-01 5.016426e-01 6.313433e-01 7.953686e-01 8.272913e-01 1.021363e+00 1.009203e+00 9.050903e-01 9.152918e-01 8.669344e-01 5.021046e-05
<GCONST> 6.137736e+01
<MIXTURE> 31 4.136493e-03
<MEAN> 25
 -3.245477e+00 -4.810610e+00 2.771659e-01 4.349702e+00 3.339735e+00 1.556709e+00 4.078891e+00 6.558960e+00 2.666658e+00 8.577958e-01 5.918570e+00 3.096981e+00 2.504723e-01 4.566336e-01 -2.347691e-01 2.625977e-01 2.480521e-01 5.145388e-01 1.976770e-01 9.164819e-03 4.498125e-01 3.766636e-01 -6.551924e-02 8.622370e-02 -1.925055e-02
<VARIANCE> 25
 7.396112e+00 2.279805e+01 1.831703e+01 1.928457e+01 2.830171e+01 2.210331e+01 3.277786e+01 2.486235e+01 2.404470e+01 2.797809e+01 2.119616e+01 1.694230e+01 1.898469e-01 4.556716e-01 5.721398e-01 7.445713e-01 1.089070e+00 1.195620e+00 1.162378e+00 1.331305e+00 1.351791e+00 1.250715e+00 1.436190e+00 1.065916e+00 2.574330e-04
<GCONST> 7.256442e+01
<MIXTURE> 32 4.136493e-03
<MEAN> 25
 -3.245477e+00 -4.810610e+00 2.771659e-01 4.349702e+00 3.339735e+00 1.556709e+00 4.078891e+00 6.558960e+00 2.666658e+00 8.577958e-01 5.918570e+00 3.096981e+00 2.504723e-01 4.566336e-01 -2.347691e-01 2.625977e-01 2.480521e-01 5.145388e-01 1.976770e-01 9.164819e-03 4.498125e-01 3.766636e-01 -6.551924e-02 8.622370e-02 -1.925055e-02
<VARIANCE> 25
 7.396112e+00 2.279805e+01 1.831703e+01 1.928457e+01 2.830171e+01 2.210331e+01 3.277786e+01 2.486235e+01 2.404470e+01 2.797809e+01 2.119616e+01 1.694230e+01 1.898469e-01 4.556716e-01 5.721398e-01 7.445713e-01 1.089070e+00 1.195620e+00 1.162378e+00 1.331305e+00 1.351791e+00 1.250715e+00 1.436190e+00 1.065916e+00 2.574330e-04
<GCONST> 7.256442e+01
<MIXTURE> 33 1.508826e-02
<MEAN> 25
 6.120581e+00 -5.453314e+00 -1.324596e+00 -8.590633e-01 -2.538517e+00 -4.264104e+00 -7.236999e+00 6.615391e-01 2.102093e+00 -6.472156e-01 -4.344150e+00 -2.939950e+00 6.778904e-01 -1.129223e+00 -2.184520e+00 -2.073015e+00 1.002264e+00 1.805445e+00 -9.189183e-01 5.904450e-01 1.027259e+00 6.135631e-01 -1.397260e-01 -1.373863e+00 3.422820e-02
<VARIANCE> 25
 9.466213e+00 2.336710e+01 3.026856e+01 4.018224e+01 4.622418e+01 3.641863e+01 3.398154e+01 3.729250e+01 3.773853e+01 3.219753e+01 2.814131e+01 2.159523e+01 1.463975e+00 1.757287e+00 2.497805e+00 2.540653e+00 4.487575e+00 3.495490e+00 4.271362e+00 5.018797e+00 3.019546e+00 4.218435e+00 2.472961e+00 1.865636e+00 1.747408e-03
<GCONST> 9.286964e+01
<MIXTURE> 34 1.588179e-02
<MEAN> 25
 8.491246e+00 -1.926775e+00 -4.019862e-01 1.506388e+00 -3.109525e+00 6.856009e-01 -6.804978e+00 -5.924294e+00 -1.075017e+00 1.042300e+00 -1.848001e+00 -3.744548e+00 -2.395678e-01 1.246136e+00 1.019578e+00 2.507855e+00 2.155330e-01 -9.900830e-01 3.199571e-01 -1.188884e+00 -1.600105e-01 1.271863e-01 -9.538008e-01 4.538584e-01 -5.817428e-02
<VARIANCE> 25
 7.269950e+00 3.971887e+01 2.286049e+01 4.171165e+01 4.196230e+01 5.653825e+01 4.644373e+01 4.815913e+01 5.506128e+01 3.546406e+01 3.640783e+01 2.515022e+01 1.357584e+00 1.767319e+00 3.889979e+00 4.705625e+00 5.052066e+00 6.528515e+00 4.505289e+00 4.828445e+00 4.944903e+00 4.404056e+00 4.050975e+00 3.017062e+00 1.023543e-03
<GCONST> 9.741150e+01
<MIXTURE> 35 1.467755e-02
<MEAN> 25
 -2.426658e+00 -6.533810e+00 -6.963978e+00 2.532269e-01 1.037977e+01 2.582084e-01 -5.730821e-01 2.665169e+00 1.575206e+00 3.914483e+00 8.447103e-03 1.058001e+00 3.717491e-01 -1.525885e+00 -8.463781e-01 -9.646091e-01 7.407272e-01 -4.301619e-01 -5.831324e-01 -5.289139e-01 -7.134175e-01 5.001099e-01 -4.778795e-01 -2.263092e-01 8.436374e-02
<VARIANCE> 25
 1.424162e+01 3.183455e+01 3.846148e+01 3.456679e+01 3.987379e+01 4.083774e+01 4.155566e+01 3.446281e+01 3.507172e+01 2.685921e+01 3.278288e+01 2.648783e+01 3.205403e+00 4.125066e+00 5.749944e+00 3.948972e+00 4.876644e+00 4.580210e+00 3.474168e+00 5.493174e+00 4.201079e+00 3.911659e+00 3.593130e+00 2.817302e+00 4.730880e-03
<GCONST> 9.905314e+01
<MIXTURE> 36 1.093293e-02
<MEAN> 25
 4.005425e+00 -3.917614e+00 8.373515e+00 2.521050e+00 -7.380670e+00 -7.505321e+00 -5.463812e+00 2.921267e+00 -2.659754e+00 -3.029770e+00 2.383564e+00 3.214805e-01 2.317193e-01 5.381330e-01 -8.197370e-01 -2.265861e-01 7.963159e-01 2.816685e-01 -5.668712e-01 2.796634e-01 5.391003e-01 4.470012e-01 -1.875803e-01 -1.079835e-01 -2.480423e-02
<VARIANCE> 25
 8.613407e+00 2.025236e+01 1.784111e+01 2.832127e+01 2.804555e+01 2.201583e+01 3.715040e+01 2.761133e+01 2.607817e+01 2.777719e+01 1.890731e+01 1.558937e+01 4.294122e-01 5.545557e-01 1.434967e+00 1.272397e+00 1.997564e+00 1.178203e+00 2.178633e+00 1.380939e+00 1.508361e+00 1.458902e+00 1.440100e+00 1.200636e+00 5.657735e-04
<GCONST> 7.794734e+01
<MIXTURE> 37 1.246826e-02
<MEAN> 25
 -8.000730e-01 6.539035e+00 1.170986e+01 -4.329097e+00 -7.325674e+00 -7.131712e-01 -3.662223e+00 -7.379193e+00 -2.996791e+00 8.538520e-02 -3.082823e+00 -8.643358e-01 4.133006e-01 6.339391e-01 -1.746570e+00 3.028710e+00 1.512338e+00 -4.949763e-01 8.867497e-01 3.888950e-01 8.346905e-01 -7.658132e-01 3.277648e-01 -3.702364e-01 -8.908784e-02
<VARIANCE> 25
 1.804237e+01 2.545492e+01 2.643810e+01 4.223048e+01 2.764215e+01 2.857020e+01 6.093141e+01 3.330581e+01 3.609739e+01 3.515995e+01 3.178818e+01 2.763554e+01 2.514725e+00 3.303802e+00 3.195058e+00 4.074677e+00 4.029086e+00 3.140149e+00 4.052461e+00 3.283797e+00 3.342496e+00 3.614165e+00 3.172262e+00 2.600150e+00 3.774509e-03
<GCONST> 9.613789e+01
<MIXTURE> 38 1.154525e-02
<MEAN> 25
 -4.789373e+00 7.498222e+00 4.576216e+00 1.641147e+00 7.136352e-01 -7.865289e+00 -6.896295e-01 -2.549052e+00 -4.478922e+00 -1.942570e+00 -2.168020e-01 1.646829e+00 -4.117879e+00 9.836712e-01 -6.562420e-01 6.836337e-01 2.509697e+00 8.148820e-01 1.422184e+00 6.425871e-01 2.560340e-01 3.371351e-01 7.139919e-01 8.500385e-01 4.455930e-02
<VARIANCE> 25
 3.057522e+01 2.755125e+01 4.406548e+01 3.039733e+01 4.655365e+01 4.041143e+01 3.636767e+01 3.196463e+01 4.003121e+01 3.267554e+01 2.042604e+01 3.664571e+01 2.039124e+00 3.948850e+00 3.449543e+00 5.257508e+00 3.795093e+00 5.671509e+00 6.365496e+00 3.565304e+00 4.014108e+00 3.927253e+00 3.313905e+00 3.527390e+00 1.738207e-03
<GCONST> 9.831230e+01
<MIXTURE> 39 9.501865e-03
<MEAN> 25
 2.439927e-01 2.281166e+00 1.085867e+01 -7.623751e+00 -8.688764e+00 -1.788082e+00 -3.069698e+00 -7.003024e+00 -3.540177e+00 1.141219e+00 -3.241672e+00 -2.130185e+00 -8.437519e-01 1.689371e+00 1.713070e+00 -1.411373e+00 -1.088825e-01 1.237639e+00 -1.068356e+00 -1.401705e+00 4.295429e-01 3.722687e-01 -5.964238e-01 1.812538e-01 -6.562857e-03
<VARIANCE> 25
 1.013165e+01 2.381152e+01 3.093931e+01 3.622136e+01 4.616751e+01 3.416448e+01 6.057957e+01 2.788466e+01 4.404994e+01 2.956559e+01 3.038170e+01 3.830923e+01 9.415750e-01 1.628103e+00 1.849254e+00 2.439701e+00 2.239303e+00 2.628294e+00 2.463710e+00 2.560441e+00 2.166641e+00 2.417399e+00 1.768407e+00 2.012126e+00 1.172044e-03
<GCONST> 8.920574e+01
<MIXTURE> 40 1.030800e-02
<MEAN> 25
 -6.003150e+00 4.076530e+00 -3.078736e+00 6.765108e+00 2.235050e+00 4.152106e+00 6.296858e+00 4.138581e+00 4.647870e+00 3.123435e+00 3.914097e+00 1.591230e+00 -1.508627e-01 -3.849399e-01 -1.036790e-01 -1.479982e-01 2.097043e-02 -6.931150e-02 3.486928e-02 1.382598e-01 5.234486e-02 9.700541e-02 -1.787905e-01 -2.183286e-01 3.564031e-03
<VARIANCE> 25
 3.345413e+01 1.510938e+01 1.957791e+01 1.776946e+01 2.276467e+01 1.930980e+01 2.418278e+01 1.743103e+01 1.443593e+01 1.627402e+01 1.666354e+01 1.191170e+01 5.678992e-01 7.185056e-01 7.133811e-01 7.450340e-01 8.189965e-01 1.140534e+00 1.075654e+00 1.054828e+00 1.266415e+00 1.084001e+00 1.102311e+00 1.140872e+00 6.943334e-04
<GCONST> 7.270722e+01
<MIXTURE> 41 6.713375e-03
<MEAN> 25
 7.537094e-01 1.320302e+00 1.103577e+01 -6.750075e+00 -9.962745e+00 -3.373043e+00 -3.339520e-01 -4.859090e+00 -4.810353e+00 2.448586e+00 -1.605730e+00 -1.454454e+00 3.500034e-01 -8.063045e-01 1.618612e+00 -3.064354e+00 -2.329558e+00 -3.677457e-01 -3.522122e-01 -2.584451e-01 -1.261282e+00 9.594945e-01 -5.783733e-01 6.148512e-02 8.424663e-02
<VARIANCE> 25
 1.142424e+01 2.830758e+01 2.925833e+01 3.635361e+01 3.438031e+01 3.604428e+01 5.902549e+01 2.766896e+01 2.953693e+01 2.453769e+01 2.915490e+01 2.521956e+01 3.278174e+00 3.027063e+00 3.506620e+00 4.608927e+00 4.343251e+00 5.374761e+00 4.390224e+00 3.920192e+00 4.296150e+00 3.834925e+00 4.224154e+00 2.817580e+00 2.562310e-03
<GCONST> 9.678696e+01
<MIXTURE> 42 1.106211e-02
<MEAN> 25
 -2.526906e+00 2.956485e+00 5.557359e+00 3.227073e+00 8.829761e-01 -7.079391e+00 -9.845576e-02 -5.164934e-01 -2.136440e+00 -1.690434e+00 -3.173486e+00 1.664097e+00 3.510559e+00 -2.993599e-01 1.755872e+00 3.791634e-01 -2.868553e+00 -5.341001e-01 -1.895178e+00 -5.436847e-01 -7.549607e-01 -1.198915e+00 3.659855e-01 -1.027861e+00 1.582291e-02
<VARIANCE> 25
 3.750351e+01 2.021354e+01 3.817929e+01 3.031557e+01 3.178004e+01 3.659037e+01 4.539977e+01 2.639785e+01 3.214609e+01 2.115212e+01 1.701311e+01 1.327048e+01 2.990712e+00 5.229320e+00 5.473930e+00 3.640712e+00 4.557804e+00 4.853270e+00 5.014685e+00 4.375453e+00 4.295045e+00 3.955013e+00 3.796200e+00 2.895319e+00 3.293065e-03
<GCONST> 9.716109e+01
<MIXTURE> 43 7.108249e-03
<MEAN> 25
 3.565601e+00 -5.763684e+00 -2.241921e+00 -4.850090e+00 -7.364803e+00 -3.230393e+00 3.978488e+00 1.190264e+00 -5.223617e+00 -6.926275e+00 -4.179560e+00 -1.083884e+00 1.761533e-01 2.237933e+00 1.876496e+00 -1.430910e-01 -1.380795e+00 -8.969882e-01 -1.005739e+00 -8.044785e-01 8.889109e-01 1.406134e+00 3.592840e-01 -1.183673e-02 -4.484892e-02
<VARIANCE> 25
 1.232245e+01 2.319860e+01 2.722904e+01 3.601781e+01 3.686373e+01 3.517005e+01 3.170175e+01 3.824996e+01 3.825121e+01 3.709376e+01 2.540275e+01 2.838865e+01 7.746382e-01 1.288204e+00 1.528145e+00 2.345384e+00 2.283395e+00 2.496559e+00 2.541746e+00 2.886673e+00 2.581100e+00 2.483244e+00 2.202394e+00 1.818425e+00 9.080539e-04
<GCONST> 8.784618e+01
<MIXTURE> 44 7.328289e-03
<MEAN> 25
 -1.223583e+01 1.860432e+00 3.809497e+00 -3.476320e+00 2.970411e+00 -9.636498e-02 -2.602461e+00 1.902406e+00 -1.077086e+00 -1.249839e+00 2.816801e+00 2.633306e+00 -1.175495e-01 -1.600522e-01 2.256629e-02 1.969922e-01 2.794234e-02 6.030939e-01 3.272418e-01 2.261708e-01 3.890604e-01 1.776610e-02 -1.538530e-01 -2.127321e-01 -9.473809e-05
<VARIANCE> 25
 4.657694e+01 2.766710e+01 2.624005e+01 2.835734e+01 3.151967e+01 3.715409e+01 3.273480e+01 3.223901e+01 4.088076e+01 3.101787e+01 2.435813e+01 1.413137e+01 1.107631e+00 1.362643e+00 1.432479e+00 1.247802e+00 1.755712e+00 2.058709e+00 1.424561e+00 1.468401e+00 1.400004e+00 2.263042e+00 1.361006e+00 1.422756e+00 1.271141e-03
<GCONST> 8.489583e+01
<MIXTURE> 45 1.364932e-02
<MEAN> 25
 -1.059024e+01 3.054147e+00 -1.705344e+00 1.763287e+00 6.186997e+00 -3.567739e+00 6.294734e+00 1.939312e+00 2.317352e+00 3.473223e+00 1.533811e+00 2.708112e+00 -2.653225e+00 2.876058e-01 -4.019861e-01 -3.907775e-01 4.562296e-01 -3.932108e-01 1.137485e+00 2.718765e-01 -7.183520e-01 -1.143876e-01 1.285553e-01 2.184545e-01 1.008368e-01
<VARIANCE> 25
 2.916733e+01 2.699219e+01 2.190098e+01 2.250115e+01 2.726931e+01 3.858888e+01 3.096122e+01 1.981112e+01 2.467296e+01 1.974230e+01 1.828892e+01 1.106427e+01 1.814619e+00 2.979068e+00 2.476759e+00 2.314653e+00 2.024061e+00 2.819407e+00 2.952139e+00 1.934458e+00 3.510859e+00 2.464684e+00 1.794536e+00 1.118394e+00 3.583148e-03
<GCONST> 8.783257e+01
<MIXTURE> 46 9.336259e-03
<MEAN> 25
 -9.172378e+00 1.835950e+00 1.016790e+00 6.910556e+00 5.852529e+00 2.578865e+00 6.313014e+00 4.387009e+00 5.367793e+00 4.439849e+00 4.784591e+00 2.948746e+00 9.895223e-01 -1.808670e-01 -8.797453e-02 9.540041e-01 5.836359e-01 9.218698e-01 3.360728e-01 5.644089e-01 5.188689e-01 5.075810e-01 6.472276e-01 4.323987e-01 -9.908968e-02
<VARIANCE> 25
 3.318473e+01 4.441333e+01 3.917548e+01 4.845929e+01 5.022593e+01 4.354586e+01 4.387061e+01 3.313124e+01 3.306268e+01 3.229275e+01 2.777769e+01 1.982371e+01 3.748587e+00 4.182294e+00 4.010159e+00 3.850790e+00 3.902007e+00 3.478984e+00 3.375248e+00 3.261707e+00 2.808735e+00 2.775324e+00 2.430943e+00 1.813629e+00 7.989564e-03
<GCONST> 9.825156e+01
<MIXTURE> 47 7.116147e-03
<MEAN> 25
 6.621762e+00 -7.949337e+00 -6.451018e+00 -5.829675e+00 1.452875e+00 1.222737e+00 -3.281406e+00 2.471639e-01 4.075038e+00 -2.916227e-01 -3.545717e+00 -6.185524e+00 -3.121038e-01 -1.099018e+00 -5.303479e-01 -7.810922e-01 5.087516e-01 7.505392e-01 6.710498e-01 3.240137e-01 3.961682e-01 -8.043259e-01 -2.699988e-01 -6.638184e-01 3.306489e-02
<VARIANCE> 25
 1.005454e+01 2.056918e+01 1.838344e+01 3.619894e+01 4.043258e+01 4.077492e+01 3.925355e+01 3.812995e+01 4.026744e+01 3.696610e+01 3.897758e+01 2.792855e+01 4.606779e-01 7.723807e-01 9.436988e-01 1.983553e+00 2.143850e+00 2.226503e+00 2.030886e+00 2.209769e+00 2.222145e+00 1.706875e+00 1.794632e+00 1.867108e+00 6.247256e-04
<GCONST> 8.461828e+01
<MIXTURE> 48 7.116147e-03
<MEAN> 25
 6.621762e+00 -7.949337e+00 -6.451018e+00 -5.829675e+00 1.452875e+00 1.222737e+00 -3.281406e+00 2.471639e-01 4.075038e+00 -2.916227e-01 -3.545717e+00 -6.185524e+00 -3.121038e-01 -1.099018e+00 -5.303479e-01 -7.810922e-01 5.087516e-01 7.505392e-01 6.710498e-01 3.240137e-01 3.961682e-01 -8.043259e-01 -2.699988e-01 -6.638184e-01 3.306489e-02
<VARIANCE> 25
 1.005454e+01 2.056918e+01 1.838344e+01 3.619894e+01 4.043258e+01 4.077492e+01 3.925355e+01 3.812995e+01 4.026744e+01 3.696610e+01 3.897758e+01 2.792855e+01 4.606779e-01 7.723807e-01 9.436988e-01 1.983553e+00 2.143850e+00 2.226503e+00 2.030886e+00 2.209769e+00 2.222145e+00 1.706875e+00 1.794632e+00 1.867108e+00 6.247256e-04
<GCONST> 8.461828e+01
<MIXTURE> 49 5.548473e-03
<MEAN> 25
 -4.690088e+00 8.427429e-01 -5.987433e-01 7.899555e+00 5.559764e+00 5.411543e+00 6.479506e+00 4.683915e+00 4.788914e+00 3.292829e+00 4.670843e+00 2.916393e+00 3.785306e-01 6.852275e-01 6.773541e-01 2.132044e-01 -1.727632e-01 -6.336369e-01 -1.047403e+00 -1.247795e+00 -9.420447e-01 -6.561460e-01 -5.110037e-01 -2.803589e-01 -1.924879e-04
<VARIANCE> 25
 9.422080e+00 1.051966e+01 1.637753e+01 1.633172e+01 1.615187e+01 1.576253e+01 1.839158e+01 1.769220e+01 1.679076e+01 1.899666e+01 1.931702e+01 1.306442e+01 2.537696e-01 2.719190e-01 3.347519e-01 6.850522e-01 8.205923e-01 9.375672e-01 9.319090e-01 1.163613e+00 1.073800e+00 1.099429e+00 1.151675e+00 1.084173e+00 1.498025e-05
<GCONST> 6.370476e+01
<MIXTURE> 50 6.234641e-03
<MEAN> 25
 -4.161836e+00 9.137899e-01 -2.282109e+00 5.999190e+00 3.666015e+00 2.642420e+00 4.065940e+00 2.623897e+00 3.173942e+00 7.090884e-01 1.421468e+00 2.118667e+00 1.891263e-02 1.149883e-01 9.897163e-02 -1.165766e-01 -4.547565e-01 -5.524832e-01 -4.441795e-01 7.320588e-02 5.116012e-01 8.251879e-01 6.994706e-01 4.362373e-01 -5.210317e-05
<VARIANCE> 25
 9.455147e+00 1.238053e+01 1.368499e+01 1.296156e+01 1.489823e+01 1.670525e+01 1.769676e+01 1.990451e+01 1.824536e+01 1.674644e+01 2.076910e+01 1.493024e+01 1.330395e-01 2.387304e-01 3.361034e-01 5.772932e-01 5.999924e-01 7.521069e-01 9.731680e-01 1.019221e+00 1.026552e+00 9.091597e-01 8.661875e-01 9.725927e-01 1.251369e-06
<GCONST> 5.900324e+01
<MIXTURE> 51 6.234641e-03
<MEAN> 25
 -4.161836e+00 9.137899e-01 -2.282109e+00 5.999190e+00 3.666015e+00 2.642420e+00 4.065940e+00 2.623897e+00 3.173942e+00 7.090884e-01 1.421468e+00 2.118667e+00 1.891263e-02 1.149883e-01 9.897163e-02 -1.165766e-01 -4.547565e-01 -5.524832e-01 -4.441795e-01 7.320588e-02 5.116012e-01 8.251879e-01 6.994706e-01 4.362373e-01 -5.210317e-05
<VARIANCE> 25
 9.455147e+00 1.238053e+01 1.368499e+01 1.296156e+01 1.489823e+01 1.670525e+01 1.769676e+01 1.990451e+01 1.824536e+01 1.674644e+01 2.076910e+01 1.493024e+01 1.330395e-01 2.387304e-01 3.361034e-01 5.772932e-01 5.999924e-01 7.521069e-01 9.731680e-01 1.019221e+00 1.026552e+00 9.091597e-01 8.661875e-01 9.725927e-01 1.251369e-06
<GCONST> 5.900324e+01
<MIXTURE> 52 6.367945e-03
<MEAN> 25
 9.142420e+00 3.980886e-01 -4.174192e+00 -1.370284e+01 -4.751894e+00 9.969718e+00 -3.034147e+00 -3.596400e+00 -4.593534e+00 -2.842284e+00 4.659494e+00 5.165753e-01 -4.641713e-01 -1.061608e+00 -8.476066e-02 1.314834e+00 1.247389e+00 -2.128707e-01 -6.740305e-01 -1.087379e+00 1.411073e-01 1.481303e+00 4.825634e-01 -1.923351e-01 -3.959522e-03
<VARIANCE> 25
 8.308226e+00 2.048120e+01 2.033707e+01 2.828677e+01 3.387120e+01 2.504147e+01 2.986838e+01 3.608734e+01 3.569213e+01 3.975800e+01 2.643617e+01 1.854590e+01 3.989138e-01 1.448902e+00 8.340532e-01 2.975304e+00 2.074290e+00 2.375601e+00 2.506286e+00 2.331117e+00 2.636748e+00 2.799154e+00 1.722437e+00 1.911003e+00 1.064800e-03
<GCONST> 8.468304e+01
<MIXTURE> 53 6.367945e-03
<MEAN> 25
 9.142420e+00 3.980886e-01 -4.174192e+00 -1.370284e+01 -4.751894e+00 9.969718e+00 -3.034147e+00 -3.596400e+00 -4.593534e+00 -2.842284e+00 4.659494e+00 5.165753e-01 -4.641713e-01 -1.061608e+00 -8.476066e-02 1.314834e+00 1.247389e+00 -2.128707e-01 -6.740305e-01 -1.087379e+00 1.411073e-01 1.481303e+00 4.825634e-01 -1.923351e-01 -3.959522e-03
<VARIANCE> 25
 8.308226e+00 2.048120e+01 2.033707e+01 2.828677e+01 3.387120e+01 2.504147e+01 2.986838e+01 3.608734e+01 3.569213e+01 3.975800e+01 2.643617e+01 1.854590e+01 3.989138e-01 1.448902e+00 8.340532e-01 2.975304e+00 2.074290e+00 2.375601e+00 2.506286e+00 2.331117e+00 2.636748e+00 2.799154e+00 1.722437e+00 1.911003e+00 1.064800e-03
<GCONST> 8.468304e+01
<MIXTURE> 54 7.368620e-03
<MEAN> 25
 -3.433314e+00 5.974829e-01 -1.168414e+00 7.728253e+00 5.919514e+00 4.482728e+00 4.933075e+00 4.742896e+00 4.294694e+00 3.152633e+00 3.802360e+00 2.057038e+00 -1.550651e-02 1.850017e-02 1.795184e-02 3.219066e-03 4.598565e-02 8.334878e-02 7.638830e-02 8.143624e-02 3.132983e-02 1.332200e-02 -4.205335e-03 3.925919e-03 5.055201e-05
<VARIANCE> 25
 8.357105e+00 1.150136e+01 1.002042e+01 1.689133e+01 1.397724e+01 1.274558e+01 1.127457e+01 1.181936e+01 1.205983e+01 1.365102e+01 1.878381e+01 1.172911e+01 4.491173e-02 8.127299e-02 1.610205e-01 2.234802e-01 2.986100e-01 4.367834e-01 4.772223e-01 4.955115e-01 5.809479e-01 4.873260e-01 5.011993e-01 5.304384e-01 1.103935e-06
<GCONST> 4.749772e+01
<MIXTURE> 55 7.368620e-03
<MEAN> 25
 -3.433314e+00 5.974829e-01 -1.168414e+00 7.728253e+00 5.919514e+00 4.482728e+00 4.933075e+00 4.742896e+00 4.294694e+00 3.152633e+00 3.802360e+00 2.057038e+00 -1.550651e-02 1.850017e-02 1.795184e-02 3.219066e-03 4.598565e-02 8.334878e-02 7.638830e-02 8.143624e-02 3.132983e-02 1.332200e-02 -4.205335e-03 3.925919e-03 5.055201e-05
<VARIANCE> 25
 8.357105e+00 1.150136e+01 1.002042e+01 1.689133e+01 1.397724e+01 1.274558e+01 1.127457e+01 1.181936e+01 1.205983e+01 1.365102e+01 1.878381e+01 1.172911e+01 4.491173e-02 8.127299e-02 1.610205e-01 2.234802e-01 2.986100e-01 4.367834e-01 4.772223e-01 4.955115e-01 5.809479e-01 4.873260e-01 5.011993e-01 5.304384e-01 1.103935e-06
<GCONST> 4.749772e+01
<MIXTURE> 56 6.132464e-03
<MEAN> 25
 6.573106e+00 -6.493191e+00 -8.376100e+00 -6.956301e+00 2.792106e+00 3.676536e+00 -3.210881e+00 -1.834771e+00 3.999218e+00 3.824119e-01 -2.577235e+00 -7.056055e+00 -8.984966e-02 1.808217e-01 -4.025420e-02 -3.116646e-02 4.147479e-01 4.464265e-02 1.893391e-01 2.468535e-03 -4.987539e-02 1.676353e-02 -7.008818e-02 -9.783410e-03 -9.889987e-03
<VARIANCE> 25
 9.430397e+00 2.464578e+01 1.979121e+01 4.202212e+01 3.040896e+01 3.837544e+01 5.133359e+01 3.060760e+01 4.086195e+01 3.025521e+01 3.226695e+01 2.622100e+01 1.872336e-01 4.110854e-01 3.987963e-01 8.481296e-01 7.959731e-01 1.523488e+00 1.047837e+00 9.547318e-01 8.800148e-01 8.944311e-01 1.168331e+00 7.459945e-01 2.630033e-04
<GCONST> 7.432579e+01
<MIXTURE> 57 6.132464e-03
<MEAN> 25
 6.573106e+00 -6.493191e+00 -8.376100e+00 -6.956301e+00 2.792106e+00 3.676536e+00 -3.210881e+00 -1.834771e+00 3.999218e+00 3.824119e-01 -2.577235e+00 -7.056055e+00 -8.984966e-02 1.808217e-01 -4.025420e-02 -3.116646e-02 4.147479e-01 4.464265e-02 1.893391e-01 2.468535e-03 -4.987539e-02 1.676353e-02 -7.008818e-02 -9.783410e-03 -9.889987e-03
<VARIANCE> 25
 9.430397e+00 2.464578e+01 1.979121e+01 4.202212e+01 3.040896e+01 3.837544e+01 5.133359e+01 3.060760e+01 4.086195e+01 3.025521e+01 3.226695e+01 2.622100e+01 1.872336e-01 4.110854e-01 3.987963e-01 8.481296e-01 7.959731e-01 1.523488e+00 1.047837e+00 9.547318e-01 8.800148e-01 8.944311e-01 1.168331e+00 7.459945e-01 2.630033e-04
<GCONST> 7.432579e+01
<MIXTURE> 58 6.172147e-03
<MEAN> 25
 2.569274e+00 -3.682785e+00 8.143950e+00 -4.165113e+00 -1.168203e+01 -6.232390e+00 9.884344e-01 1.170744e+00 -3.312311e+00 1.653625e+00 9.979967e-01 -3.023054e-01 -8.294597e-02 3.636160e-02 -1.632387e-02 -2.547778e-01 6.231468e-02 1.522722e-01 1.876602e-01 2.789387e-01 4.109530e-02 5.983427e-02 -3.758017e-02 -1.080629e-01 -7.608074e-03
<VARIANCE> 25
 6.471228e+00 1.739361e+01 2.145604e+01 2.626393e+01 2.819703e+01 4.139429e+01 3.326138e+01 3.272493e+01 3.330993e+01 2.557782e+01 1.914538e+01 1.736985e+01 2.839321e-01 8.298305e-01 6.481039e-01 9.947751e-01 8.919178e-01 1.253018e+00 1.298394e+00 1.179222e+00 1.050347e+00 9.163787e-01 8.784371e-01 7.545184e-01 8.754956e-04
<GCONST> 7.477632e+01
<MIXTURE> 59 6.172147e-03
<MEAN> 25
 2.569274e+00 -3.682785e+00 8.143950e+00 -4.165113e+00 -1.168203e+01 -6.232390e+00 9.884344e-01 1.170744e+00 -3.312311e+00 1.653625e+00 9.979967e-01 -3.023054e-01 -8.294597e-02 3.636160e-02 -1.632387e-02 -2.547778e-01 6.231468e-02 1.522722e-01 1.876602e-01 2.789387e-01 4.109530e-02 5.983427e-02 -3.758017e-02 -1.080629e-01 -7.608074e-03
<VARIANCE> 25
 6.471228e+00 1.739361e+01 2.145604e+01 2.626393e+01 2.819703e+01 4.139429e+01 3.326138e+01 3.272493e+01 3.330993e+01 2.557782e+01 1.914538e+01 1.736985e+01 2.839321e-01 8.298305e-01 6.481039e-01 9.947751e-01 8.919178e-01 1.253018e+00 1.298394e+00 1.179222e+00 1.050347e+00 9.163787e-01 8.784371e-01 7.545184e-01 8.754956e-04
<GCONST> 7.477632e+01
<MIXTURE> 60 4.479129e-03
<MEAN> 25
 -3.703140e+00 3.735701e-01 -1.972709e+00 4.014471e+00 1.543300e+00 2.576658e+00 2.231569e+00 1.780765e+00 2.516428e+00 7.248418e-01 1.507271e+00 1.506785e+00 -4.491771e-02 7.979421e-02 1.233471e-01 1.443733e-01 1.596394e-01 9.701330e-02 1.336633e-01 3.672915e-01 5.630115e-01 5.680679e-01 4.642818e-01 3.057251e-01 -6.241661e-04
<VARIANCE> 25
 5.999258e+00 7.586766e+00 9.880714e+00 9.723420e+00 1.197086e+01 1.398928e+01 1.261905e+01 1.110827e+01 1.092031e+01 1.262810e+01 1.502773e+01 1.029169e+01 7.920197e-02 1.638297e-01 2.344604e-01 4.128906e-01 6.051974e-01 7.139912e-01 7.998930e-01 8.455694e-01 8.408719e-01 9.465722e-01 7.497855e-01 7.584699e-01 2.630754e-05
<GCONST> 5.511341e+01
<MIXTURE> 61 4.479129e-03
<MEAN> 25
 -3.703140e+00 3.735701e-01 -1.972709e+00 4.014471e+00 1.543300e+00 2.576658e+00 2.231569e+00 1.780765e+00 2.516428e+00 7.248418e-01 1.507271e+00 1.506785e+00 -4.491771e-02 7.979421e-02 1.233471e-01 1.443733e-01 1.596394e-01 9.701330e-02 1.336633e-01 3.672915e-01 5.630115e-01 5.680679e-01 4.642818e-01 3.057251e-01 -6.241661e-04
<VARIANCE> 25
 5.999258e+00 7.586766e+00 9.880714e+00 9.723420e+00 1.197086e+01 1.398928e+01 1.261905e+01 1.110827e+01 1.092031e+01 1.262810e+01 1.502773e+01 1.029169e+01 7.920197e-02 1.638297e-01 2.344604e-01 4.128906e-01 6.051974e-01 7.139912e-01 7.998930e-01 8.455694e-01 8.408719e-01 9.465722e-01 7.497855e-01 7.584699e-01 2.630754e-05
<GCONST> 5.511341e+01
<MIXTURE> 62 3.278034e-03
<MEAN> 25
 -4.853141e+00 1.606841e+00 6.581035e-01 8.652020e+00 5.772940e+00 4.931201e+00 5.472843e+00 3.991328e+00 5.108550e+00 3.808180e+00 4.630950e+00 2.762366e+00 -9.848792e-01 -1.144972e+00 -9.591983e-01 -3.104006e-01 4.177822e-01 1.032750e+00 1.468713e+00 1.514616e+00 1.363589e+00 1.188597e+00 1.013741e+00 7.183330e-01 -1.620963e-03
<VARIANCE> 25
 1.002994e+01 1.123948e+01 1.416438e+01 1.611460e+01 1.817329e+01 1.674261e+01 1.929502e+01 1.809129e+01 1.804565e+01 1.828474e+01 2.191333e+01 1.464781e+01 3.822242e-01 4.215487e-01 5.471297e-01 7.682691e-01 9.772380e-01 1.144713e+00 1.284799e+00 1.245964e+00 1.466657e+00 1.368612e+00 1.367065e+00 1.315058e+00 1.849890e-05
<GCONST> 6.752185e+01
<MIXTURE> 63 4.351215e-03
<MEAN> 25
 -2.623867e+00 8.449057e-01 -4.875812e+00 3.827677e+00 1.439500e+00 1.386255e+00 3.434157e+00 2.321958e+00 2.892044e+00 -1.773595e+00 -1.397116e+00 1.573895e+00 -8.750448e-02 2.621972e-01 2.516961e-01 3.794365e-01 4.844923e-01 5.285622e-01 3.600788e-01 5.426497e-02 5.076237e-02 9.172265e-02 1.556932e-01 8.027725e-02 -4.912586e-03
<VARIANCE> 25
 7.266186e+00 1.968876e+01 1.119836e+01 1.075011e+01 1.666708e+01 2.224838e+01 2.118333e+01 2.271817e+01 2.052467e+01 1.634764e+01 1.612560e+01 1.575206e+01 1.908023e-01 3.927815e-01 5.181870e-01 5.828871e-01 9.161924e-01 9.744121e-01 1.371078e+00 1.193692e+00 1.219025e+00 1.192709e+00 1.258810e+00 1.269110e+00 1.663519e-04
<GCONST> 6.787840e+01
<MIXTURE> 64 4.351215e-03
<MEAN> 25
 -2.623867e+00 8.449057e-01 -4.875812e+00 3.827677e+00 1.439500e+00 1.386255e+00 3.434157e+00 2.321958e+00 2.892044e+00 -1.773595e+00 -1.397116e+00 1.573895e+00 -8.750448e-02 2.621972e-01 2.516961e-01 3.794365e-01 4.844923e-01 5.285622e-01 3.600788e-01 5.426497e-02 5.076237e-02 9.172265e-02 1.556932e-01 8.027725e-02 -4.912586e-03
<VARIANCE> 25
 7.266186e+00 1.968876e+01 1.119836e+01 1.075011e+01 1.666708e+01 2.224838e+01 2.118333e+01 2.271817e+01 2.052467e+01 1.634764e+01 1.612560e+01 1.575206e+01 1.908023e-01 3.927815e-01 5.181870e-01 5.828871e-01 9.161924e-01 9.744121e-01 1.371078e+00 1.193692e+00 1.219025e+00 1.192709e+00 1.258810e+00 1.269110e+00 1.663519e-04
<GCONST> 6.787840e+01
<MIXTURE> 65 1.721197e-02
<MEAN> 25
 7.751020e+00 1.440543e+00 1.521464e+00 1.738194e+00 -5.297039e+00 -3.207078e+00 -5.109547e+00 -5.714919e+00 -3.535908e+00 -2.077579e+00 -4.377075e+00 -1.375116e+00 2.337033e-01 2.414923e-01 -1.115036e-01 3.443202e-02 -3.884048e-01 3.008945e-01 -1.663849e-01 -1.270010e-01 2.926371e-01 -1.504146e-01 1.318223e-01 -1.259888e-02 -7.000826e-03
<VARIANCE> 25
 9.865021e+00 2.607282e+01 2.393306e+01 3.359849e+01 3.201989e+01 5.072630e+01 4.930421e+01 4.769132e+01 5.312334e+01 4.542280e+01 4.456972e+01 3.957237e+01 6.647042e-01 8.480447e-01 1.423088e+00 1.538399e+00 1.974789e+00 2.266128e+00 2.078811e+00 2.468391e+00 2.234538e+00 2.310259e+00 2.086959e+00 1.745540e+00 4.373257e-04
<GCONST> 8.714948e+01
<MIXTURE> 66 1.191532e-02
<MEAN> 25
 6.035356e+00 -4.047556e+00 -5.030208e+00 -4.337212e+00 1.652173e+00 -4.112718e+00 -7.800113e+00 1.793167e-01 2.645990e+00 -9.273846e-01 -4.713891e+00 -4.717651e+00 -3.446464e-03 1.677737e+00 1.533376e+00 2.136442e+00 -1.120412e+00 -1.385944e+00 -1.425392e-01 -5.308970e-01 -1.525952e-01 -3.645167e-01 -5.111730e-01 9.655721e-01 -6.622779e-02
<VARIANCE> 25
 8.990731e+00 1.974333e+01 2.263783e+01 2.854089e+01 3.339723e+01 4.775247e+01 5.894114e+01 4.099879e+01 5.418664e+01 5.664740e+01 3.681617e+01 3.720545e+01 1.160811e+00 2.001132e+00 3.781178e+00 2.219908e+00 4.087332e+00 3.781851e+00 4.010044e+00 4.298989e+00 3.551054e+00 4.126493e+00 3.519148e+00 2.679275e+00 1.447112e-03
<GCONST> 9.495901e+01
<MIXTURE> 67 1.559142e-02
<MEAN> 25
 8.504900e+00 1.508992e+00 -5.480623e+00 -8.036288e+00 1.294395e+00 3.370283e+00 -3.501076e+00 -2.786432e+00 -3.123759e+00 1.173508e+00 1.708614e-01 -1.890654e+00 -1.040822e+00 1.805954e+00 9.188011e-01 3.033255e+00 1.411682e+00 -7.263402e-01 1.135834e+00 8.949807e-02 1.934004e-01 3.371644e-01 -4.173221e-01 5.842701e-01 -1.221974e-01
<VARIANCE> 25
 1.255312e+01 3.896680e+01 3.015078e+01 5.281713e+01 4.871002e+01 5.195858e+01 5.677645e+01 5.078456e+01 6.586439e+01 5.325639e+01 5.088602e+01 4.447606e+01 2.125448e+00 3.222079e+00 3.151870e+00 4.359862e+00 4.501094e+00 5.251682e+00 4.502535e+00 4.626284e+00 5.103729e+00 4.543788e+00 4.841752e+00 3.429335e+00 3.297793e-03
<GCONST> 1.021855e+02
<MIXTURE> 68 1.485092e-02
<MEAN> 25
 -1.975903e+00 -3.381724e+00 -4.131127e+00 1.409215e+00 6.058224e+00 6.953671e-01 2.087993e+00 1.779167e+00 1.817034e+00 2.498774e+00 -1.774240e-02 9.136146e-01 2.754129e+00 8.067061e-01 4.697483e-01 -2.189493e+00 -2.502133e+00 -8.370419e-01 -1.958468e+00 -1.486676e+00 -1.488599e+00 -1.336809e+00 -1.716176e+00 -1.150011e+00 9.378687e-02
<VARIANCE> 25
 2.271119e+01 3.307249e+01 5.162281e+01 4.150355e+01 4.234641e+01 5.821737e+01 4.236156e+01 3.597512e+01 3.300569e+01 3.588665e+01 3.731530e+01 2.557087e+01 1.521608e+00 3.412113e+00 5.405924e+00 5.126333e+00 3.814818e+00 6.787801e+00 5.302155e+00 4.629975e+00 4.039429e+00 4.284461e+00 4.300485e+00 2.862031e+00 5.143027e-03
<GCONST> 1.008302e+02
<MIXTURE> 69 1.204884e-02
<MEAN> 25
 3.859624e+00 -4.023776e+00 -4.188487e+00 -3.471750e+00 -3.471633e+00 -7.200753e+00 -8.671388e-01 2.110528e+00 8.701561e-02 -4.506116e+00 -5.496521e+00 1.106143e+00 1.587793e+00 -2.253602e+00 -1.437005e+00 -2.376147e+00 -4.380221e-01 -6.584497e-02 -2.798945e-01 9.796403e-01 -4.485878e-01 -1.346766e+00 -1.943375e+00 -3.969196e-01 5.935188e-02
<VARIANCE> 25
 1.232474e+01 1.997248e+01 3.449030e+01 2.551526e+01 4.075698e+01 3.439514e+01 4.538240e+01 3.043209e+01 3.730059e+01 3.371480e+01 2.777772e+01 2.204749e+01 3.468187e+00 2.712532e+00 3.147504e+00 4.270371e+00 5.289461e+00 4.923446e+00 6.443631e+00 6.677582e+00 5.483238e+00 5.396347e+00 4.206211e+00 3.640402e+00 2.361282e-03
<GCONST> 9.819230e+01
<MIXTURE> 70 1.329190e-02
<MEAN> 25
 7.215949e+00 -3.248138e+00 -2.970944e+00 -3.337178e+00 -6.410293e-01 1.325140e+00 -6.920712e+00 -4.385345e+00 1.111228e+00 2.712023e+00 -3.802235e-01 -4.293489e+00 1.899273e+00 -1.317895e+00 -6.738430e-01 -1.862192e+00 -1.917860e+00 1.170812e+00 -1.118372e+00 -7.375518e-01 5.748502e-01 9.125502e-02 5.858818e-01 -1.486894e+00 6.883631e-02
<VARIANCE> 25
 7.909100e+00 2.177003e+01 2.331576e+01 4.455709e+01 3.046258e+01 5.174712e+01 4.598725e+01 3.605165e+01 3.812609e+01 2.390320e+01 3.917559e+01 2.096308e+01 2.944785e+00 2.707757e+00 3.773854e+00 5.537392e+00 4.906973e+00 5.317623e+00 5.595213e+00 7.050226e+00 4.680258e+00 4.231676e+00 4.205531e+00 3.259959e+00 2.790192e-03
<GCONST> 9.811813e+01
<MIXTURE> 71 1.406903e-02
<MEAN> 25
 5.627174e+00 4.907437e+00 3.172876e+00 2.756690e+00 -3.825914e+00 -3.656940e+00 -4.222138e+00 -6.186779e+00 -3.710827e+00 -2.324087e+00 -4.362129e+00 -2.054381e+00 -1.683005e+00 -6.195161e-01 -2.790483e-01 -1.634400e+00 1.227855e+00 -1.622697e-01 1.930571e-01 1.161080e+00 1.499029e-01 -1.381577e-01 6.165497e-01 4.458616e-01 3.311020e-02
<VARIANCE> 25
 1.766219e+01 2.784363e+01 2.707170e+01 3.937318e+01 4.394659e+01 3.715268e+01 4.480145e+01 3.896379e+01 4.299428e+01 3.615739e+01 3.085471e+01 3.348586e+01 1.744925e+00 3.481807e+00 5.322296e+00 4.895568e+00 4.083203e+00 4.493003e+00 4.678807e+00 4.727331e+00 3.869174e+00 3.428336e+00 2.953522e+00 3.295563e+00 1.458494e-03
<GCONST> 9.766943e+01
<MIXTURE> 72 8.134747e-03
<MEAN> 25
 3.591496e+00 -3.976640e+00 6.067311e+00 -1.116397e+00 -1.035931e+01 -9.416904e+00 -2.170552e+00 1.763672e+00 -5.578330e+00 -2.532125e+00 -1.350458e+00 1.993428e-01 1.057579e+00 -8.132284e-01 -2.703988e+00 4.460229e-01 2.072962e+00 -4.224167e-01 -1.747209e+00 1.592346e+00 1.734278e+00 -5.446381e-01 -1.181153e+00 2.490319e-01 -7.953667e-03
<VARIANCE> 25
 9.989970e+00 1.977042e+01 3.278998e+01 4.699150e+01 3.052181e+01 3.076604e+01 3.944140e+01 3.223306e+01 4.393148e+01 3.993150e+01 3.691543e+01 2.628111e+01 5.250738e-01 1.083259e+00 1.983253e+00 1.530731e+00 2.083121e+00 2.754200e+00 4.130456e+00 2.899414e+00 2.425090e+00 2.991525e+00 1.905627e+00 2.123461e+00 5.494102e-04
<GCONST> 8.756169e+01
<MIXTURE> 73 1.213625e-02
<MEAN> 25
 -5.049647e+00 -3.373429e-01 -1.621023e+00 4.721968e+00 4.195504e+00 2.362348e+00 5.113525e+00 3.554523e+00 4.310697e+00 3.104363e+00 3.795141e+00 2.685009e+00 6.284772e-01 -1.462332e+00 -5.675424e-01 -2.486100e+00 -8.750481e-01 -1.541097e+00 -5.843743e-01 -6.417022e-01 -8.482568e-01 -3.682229e-01 -7.691033e-01 -2.983532e-01 1.527288e-01
<VARIANCE> 25
 1.405786e+01 1.588480e+01 1.565509e+01 2.081410e+01 2.223714e+01 2.268248e+01 2.283538e+01 1.879682e+01 1.624637e+01 1.875936e+01 2.095347e+01 1.405101e+01 4.314955e+00 3.655467e+00 6.402161e+00 4.155816e+00 6.378264e+00 4.304509e+00 5.113304e+00 4.867642e+00 3.848269e+00 4.211846e+00 3.710016e+00 2.448808e+00 3.908012e-03
<GCONST> 9.284573e+01
<MIXTURE> 74 1.756491e-02
<MEAN> 25
 4.037087e+00 -1.624523e+00 5.960919e+00 8.823199e-01 -6.683040e+00 -7.850250e+00 -1.699687e+00 7.963352e-01 -5.370989e+00 -1.374723e+00 -1.273936e+00 1.239189e-01 4.563347e-01 1.833571e+00 -8.082179e-01 1.464173e+00 9.876013e-01 2.140545e-01 -2.806516e-01 -1.030487e+00 6.952503e-01 -3.822068e-01 -4.507141e-01 1.758497e-01 -7.071121e-02
<VARIANCE> 25
 9.847887e+00 1.886581e+01 2.914470e+01 3.342397e+01 3.176925e+01 2.872490e+01 4.114890e+01 2.861342e+01 4.698664e+01 3.773425e+01 3.110138e+01 2.306294e+01 1.992248e+00 1.497399e+00 3.530672e+00 2.072114e+00 3.400521e+00 2.966899e+00 4.592849e+00 2.827534e+00 3.521680e+00 3.829082e+00 2.453938e+00 2.632051e+00 1.182950e-03
<GCONST> 9.168201e+01
<MIXTURE> 75 9.711651e-03
<MEAN> 25
 1.949016e+00 -2.382881e+00 1.198900e+01 2.415061e+00 -9.968215e+00 -7.773347e+00 -2.228674e+00 -1.336956e+00 -5.906831e+00 -3.867491e+00 2.431375e+00 -1.927594e-01 1.601763e+00 -1.661205e+00 6.362262e-01 7.993647e-02 -2.441866e+00 -4.527935e-01 -1.511495e+00 8.440847e-01 -6.858011e-01 -4.864460e-01 1.171958e+00 -5.084735e-01 4.413100e-02
<VARIANCE> 25
 8.448057e+00 1.441113e+01 2.346673e+01 2.999898e+01 2.445439e+01 2.251336e+01 3.986836e+01 2.960315e+01 3.032193e+01 2.074590e+01 1.825154e+01 1.618470e+01 1.679440e+00 2.951220e+00 4.350313e+00 2.646427e+00 3.343098e+00 3.631109e+00 3.180400e+00 3.777874e+00 3.761015e+00 2.696426e+00 2.220680e+00 1.686232e+00 1.394582e-03
<GCONST> 8.891104e+01
<MIXTURE> 76 1.052359e-02
<MEAN> 25
 -5.632350e+00 2.772995e-01 -3.493547e+00 2.915320e+00 4.164652e+00 5.891922e-01 4.954762e+00 2.322244e+00 1.895591e+00 2.150895e-01 2.934810e-01 1.096637e+00 -2.087407e-01 -6.596421e-01 -1.649560e-01 -5.764319e-01 -3.091512e-01 -5.713658e-01 -4.653740e-01 -2.477741e-01 -4.109683e-01 -4.008711e-01 -1.275080e-01 -3.704284e-01 1.988652e-02
<VARIANCE> 25
 3.261105e+01 3.045186e+01 2.109700e+01 2.049572e+01 2.951057e+01 3.450438e+01 3.963308e+01 2.582259e+01 2.220816e+01 2.041813e+01 2.033210e+01 1.857640e+01 8.066031e-01 1.503590e+00 1.125991e+00 1.056160e+00 1.089337e+00 1.503204e+00 1.473173e+00 1.457031e+00 1.480559e+00 1.282244e+00 1.338576e+00 1.063372e+00 1.034476e-03
<GCONST> 8.056824e+01
<MIXTURE> 77 1.244626e-02
<MEAN> 25
 -1.107776e+00 8.295048e+00 1.159642e+01 -9.794856e+00 -5.638138e+00 2.391972e-01 -7.847690e+00 -6.627786e+00 -2.974169e+00 -4.238357e-01 -4.242648e+00 -1.324009e+00 1.152374e-01 2.862869e-01 6.620706e-03 2.363962e-01 7.114683e-02 2.521908e-01 -6.594540e-02 -4.329736e-02 8.073427e-02 -2.393348e-01 3.364116e-02 1.796761e-01 -1.457099e-02
<VARIANCE> 25
 1.041906e+01 1.806483e+01 2.795199e+01 4.423743e+01 3.248437e+01 3.153027e+01 3.904459e+01 3.528183e+01 3.690099e+01 3.381258e+01 3.300779e+01 3.061890e+01 2.732721e-01 7.984434e-01 5.832901e-01 9.341212e-01 1.210333e+00 9.802583e-01 1.111650e+00 9.904290e-01 1.112092e+00 1.129586e+00 9.386851e-01 7.893725e-01 5.421358e-04
<GCONST> 7.705769e+01
<MIXTURE> 78 9.702551e-03
<MEAN> 25
 -1.092249e+01 1.084823e-01 4.481768e-01 1.411881e+00 4.181007e+00 -5.099990e+00 3.464183e+00 2.567602e+00 1.464160e+00 1.296630e-01 -9.273026e-01 3.933442e+00 1.862942e+00 -1.388818e-01 1.140410e-01 9.673442e-01 -2.296726e-01 2.741194e-01 -2.507903e-01 4.598182e-01 4.666694e-01 -2.319891e-01 -4.671958e-01 -4.174390e-01 -5.109712e-02
<VARIANCE> 25
 2.993878e+01 2.540191e+01 3.696315e+01 2.340621e+01 3.675819e+01 4.438453e+01 5.773890e+01 2.570865e+01 2.109251e+01 3.339859e+01 2.985024e+01 2.221431e+01 3.415247e+00 2.556436e+00 2.768197e+00 2.816056e+00 2.214502e+00 2.603214e+00 3.326217e+00 2.400026e+00 2.378533e+00 2.619283e+00 3.447121e+00 1.778678e+00 4.040276e-03
<GCONST> 9.327905e+01
<MIXTURE> 79 1.156824e-02
<MEAN> 25
 1.293542e+00 3.574586e-01 9.337816e+00 -5.083342e+00 -1.020718e+01 -1.534287e+00 5.990146e-01 -5.007009e+00 -7.837684e+00 1.900485e+00 -2.442309e+00 -2.762273e+00 1.235420e+00 -4.497282e-01 -1.677905e+00 2.304833e+00 6.060628e-01 -1.123674e+00 -3.680315e-02 8.733324e-01 -6.912524e-01 -4.313651e-01 -2.056981e-02 2.906964e-01 -3.628654e-02
<VARIANCE> 25
 1.488366e+01 2.405132e+01 3.081263e+01 4.393253e+01 2.927587e+01 3.314069e+01 5.850275e+01 3.376086e+01 6.139333e+01 4.058385e+01 3.389113e+01 2.646929e+01 8.584239e-01 2.110934e+00 1.689789e+00 1.742298e+00 2.370176e+00 2.522578e+00 4.232667e+00 2.650609e+00 3.290177e+00 3.473917e+00 2.270945e+00 1.770521e+00 1.479718e-03
<GCONST> 9.131561e+01
<MIXTURE> 80 7.550998e-03
<MEAN> 25
 -1.458518e+01 3.981916e+00 7.263021e-01 2.838134e+00 2.508518e+00 1.330035e+00 6.429140e+00 2.484114e+00 2.613186e+00 2.394612e+00 4.810647e+00 1.193234e+00 4.271552e+00 -9.858868e-04 1.646843e+00 -1.112257e+00 -2.880112e+00 -2.771579e+00 -2.319134e+00 -2.020958e+00 -1.966370e+00 -1.681316e+00 -1.640489e+00 -5.982977e-01 -4.400750e-02
<VARIANCE> 25
 2.087218e+01 1.973955e+01 3.434818e+01 3.457213e+01 3.038941e+01 2.983550e+01 2.825061e+01 2.850773e+01 2.801632e+01 2.871933e+01 2.690179e+01 1.801335e+01 2.364340e+00 2.674586e+00 2.661852e+00 4.152507e+00 3.381059e+00 2.701777e+00 3.009089e+00 3.183345e+00 2.735850e+00 2.682494e+00 2.775759e+00 2.136882e+00 1.507693e-03
<GCONST> 9.141730e+01
<MIXTURE> 81 8.025434e-03
<MEAN> 25
 -1.835676e+00 3.892266e+00 1.052041e+01 -1.317719e+01 -7.635559e+00 -1.449795e+00 -7.682082e+00 -8.897831e+00 -2.862562e+00 2.369173e-01 -6.825435e+00 -1.146570e+00 -1.378362e-01 -6.214962e-01 2.468971e-01 -2.383291e-01 -7.014794e-01 2.616978e-01 5.063564e-01 1.050473e-01 -2.906136e-01 2.635619e-02 -3.913387e-01 -1.925936e-01 1.369404e-02
<VARIANCE> 25
 1.087388e+01 2.781071e+01 2.188374e+01 3.218805e+01 3.365967e+01 2.515854e+01 5.374258e+01 2.500572e+01 3.725615e+01 2.981351e+01 2.328807e+01 3.474813e+01 1.120889e+00 2.179014e+00 1.671249e+00 2.929352e+00 2.493013e+00 1.849510e+00 3.131552e+00 2.074842e+00 2.411084e+00 2.985884e+00 2.042203e+00 1.712980e+00 1.190754e-03
<GCONST> 8.824393e+01
<MIXTURE> 82 8.213053e-03
<MEAN> 25
 -9.972019e+00 -4.108276e+00 2.468825e+00 -2.804664e+00 2.537653e+00 5.436549e-01 3.155224e+00 8.098013e-01 3.289155e+00 1.706366e+00 1.425546e+00 3.430329e+00 -1.548114e+00 -7.822080e-01 6.135056e-01 -2.388953e+00 -6.826329e-01 -1.452199e+00 -8.856044e-01 -1.143981e+00 -6.016584e-01 -4.415719e-01 1.343458e-01 1.755014e-01 1.773899e-01
<VARIANCE> 25
 1.643944e+01 2.179681e+01 2.900450e+01 2.544218e+01 2.987128e+01 2.828102e+01 3.243403e+01 3.613440e+01 2.853800e+01 2.121294e+01 2.785440e+01 1.568524e+01 3.330824e+00 4.124376e+00 3.225538e+00 2.842164e+00 3.856310e+00 3.011945e+00 2.810357e+00 3.151953e+00 2.639022e+00 2.328322e+00 2.664048e+00 1.970231e+00 3.215709e-03
<GCONST> 9.192659e+01
<MIXTURE> 83 1.167529e-02
<MEAN> 25
 -1.801240e+01 4.195995e+00 -2.483337e+00 -9.064154e-01 7.865972e+00 -5.564323e+00 8.309258e+00 2.345091e+00 -4.794148e-01 2.293515e+00 2.064244e-01 3.216455e+00 -1.362777e-01 -3.868238e-01 4.465636e-01 -2.949039e-01 -2.665155e-01 5.289162e-02 -9.965128e-02 1.990096e-01 -1.537192e-01 1.206533e-01 2.078527e-01 2.210668e-01 3.478785e-03
<VARIANCE> 25
 1.009342e+01 1.329195e+01 2.031743e+01 1.914157e+01 1.396348e+01 3.466137e+01 2.561707e+01 1.991295e+01 2.254941e+01 2.579251e+01 1.939521e+01 1.487875e+01 9.014944e-01 9.570670e-01 1.055242e+00 8.249116e-01 9.893393e-01 1.043954e+00 1.412422e+00 1.320280e+00 1.587239e+00 1.033038e+00 1.365521e+00 1.285109e+00 6.369476e-04
<GCONST> 7.532397e+01
<MIXTURE> 84 1.066614e-02
<MEAN> 25
 1.437251e+00 8.869522e+00 6.398500e+00 8.189622e+00 1.915251e+00 -1.309802e+00 -1.364532e+00 -3.971233e+00 -3.553474e+00 -3.550423e+00 -2.444876e+00 -9.999297e-01 -1.559240e+00 -9.316709e-01 -1.472660e+00 9.950776e-01 2.017091e+00 1.464807e+00 1.319629e+00 9.580491e-01 9.895465e-01 5.160427e-01 4.316407e-02 2.370159e-01 -6.897025e-02
<VARIANCE> 25
 2.031396e+01 1.631589e+01 2.243143e+01 2.237635e+01 2.850641e+01 2.521309e+01 2.517260e+01 2.422591e+01 2.425565e+01 2.375396e+01 1.988376e+01 2.289543e+01 1.980090e+00 2.504092e+00 3.787968e+00 3.141433e+00 2.983977e+00 2.916737e+00 3.048954e+00 3.384244e+00 3.188708e+00 2.965679e+00 3.832057e+00 2.553056e+00 3.128467e-03
<GCONST> 9.077218e+01
<MIXTURE> 85 7.591393e-03
<MEAN> 25
 -2.985509e+00 7.856246e+00 5.680357e+00 1.314656e+00 -3.338477e+00 -5.228076e+00 -2.891360e+00 -5.985018e+00 -3.520127e+00 -3.231759e+00 -4.992254e-01 -1.860619e+00 3.904457e+00 3.572298e-01 1.759154e+00 -2.055046e+00 -3.402606e+00 -2.578163e+00 -2.834711e+00 -2.310637e+00 -2.252651e+00 -1.263019e+00 -2.248355e+00 -5.817974e-01 1.002340e-02
<VARIANCE> 25
 4.279772e+01 2.316573e+01 3.624532e+01 3.760622e+01 4.007236e+01 4.138739e+01 3.204809e+01 2.808656e+01 2.645892e+01 2.592239e+01 2.575369e+01 2.024096e+01 2.708740e+00 4.294727e+00 3.981186e+00 5.142724e+00 4.333224e+00 3.832550e+00 3.888293e+00 3.944924e+00 3.809816e+00 3.958559e+00 3.985280e+00 3.480593e+00 5.368008e-03
<GCONST> 9.819598e+01
<MIXTURE> 86 1.273941e-02
<MEAN> 25
 -4.152792e+00 3.663366e-01 -2.211584e+00 6.001808e+00 3.648170e+00 4.539603e+00 5.672064e+00 4.882350e+00 5.252630e+00 2.975093e+00 3.641538e+00 2.133766e+00 -3.453970e-02 -5.711970e-03 -1.057142e-01 -2.106139e-01 -1.780417e-01 -2.469007e-01 -2.879500e-01 -4.141215e-01 -3.871891e-01 -2.282314e-01 -2.363706e-01 3.267165e-02 -2.352229e-03
<VARIANCE> 25
 6.302989e+00 9.254177e+00 9.600175e+00 9.938831e+00 1.449155e+01 1.033080e+01 1.356248e+01 1.241002e+01 1.222295e+01 1.410892e+01 1.551388e+01 1.039076e+01 9.393799e-02 1.609621e-01 3.344146e-01 4.625662e-01 5.669909e-01 6.725909e-01 7.457507e-01 6.868653e-01 8.926832e-01 9.270693e-01 7.548022e-01 8.402459e-01 6.163574e-05
<GCONST> 5.690860e+01
<MIXTURE> 87 1.100681e-02
<MEAN> 25
 -3.127890e+00 4.182571e+00 2.208222e+00 6.332508e+00 4.729355e+00 5.240648e-01 1.491153e+00 -7.545854e-01 -5.903022e-01 -8.968546e-01 -4.937354e-01 2.413553e-01 -1.963692e+00 -2.911636e+00 -1.809931e+00 -2.105454e+00 3.429136e-01 -1.237826e-01 6.262041e-01 1.309769e+00 1.159479e+00 9.721673e-01 8.504637e-01 8.386599e-01 1.020925e-01
<VARIANCE> 25
 3.342007e+01 2.849362e+01 3.355581e+01 3.274511e+01 2.890581e+01 3.144122e+01 2.696703e+01 3.413528e+01 2.784215e+01 2.364470e+01 2.237353e+01 2.310327e+01 3.616274e+00 2.715990e+00 4.566136e+00 3.455048e+00 4.997772e+00 4.239761e+00 4.295530e+00 3.960350e+00 4.062140e+00 3.259449e+00 3.161232e+00 2.725293e+00 4.616464e-03
<GCONST> 9.647158e+01
<MIXTURE> 88 1.256585e-02
<MEAN> 25
 -3.579501e+00 1.448968e-02 -2.557309e+00 4.663681e+00 4.019460e+00 2.872089e+00 4.408220e+00 3.798513e+00 3.880403e+00 1.841952e+00 1.992707e+00 2.139241e+00 1.053925e-03 -8.389371e-03 1.613613e-02 4.015796e-01 4.305683e-01 2.532280e-01 1.245669e-01 -3.275431e-01 -2.197492e-01 -4.170595e-01 -1.922900e-01 -7.779951e-02 8.517730e-04
<VARIANCE> 25
 1.001508e+01 1.521707e+01 1.460912e+01 1.240856e+01 2.214480e+01 2.011266e+01 2.403091e+01 1.919849e+01 1.446369e+01 1.840783e+01 1.611196e+01 1.281510e+01 1.221293e+00 2.339287e+00 1.886041e+00 1.824746e+00 2.166548e+00 2.218987e+00 2.891359e+00 2.203792e+00 2.324708e+00 2.027613e+00 2.063688e+00 1.848109e+00 1.440825e-03
<GCONST> 8.137553e+01
<MIXTURE> 89 9.333527e-03
<MEAN> 25
 5.369811e+00 -6.379261e+00 -2.384163e+00 -2.427961e+00 -2.193985e+00 -3.993088e+00 -6.667553e+00 2.139369e+00 3.362367e+00 -9.357705e-02 -4.697743e+00 -3.971037e+00 -7.031419e-01 2.301813e-01 1.879374e+00 5.670782e-01 -1.512703e+00 -1.939005e+00 1.060153e+00 1.266495e+00 -9.438564e-01 -7.989190e-01 2.429426e-01 1.296321e+00 -9.928031e-04
<VARIANCE> 25
 9.909905e+00 2.941746e+01 3.588304e+01 2.322658e+01 3.739848e+01 3.321166e+01 5.240132e+01 3.628786e+01 2.794415e+01 3.655838e+01 2.730517e+01 2.395159e+01 2.775140e-01 5.885486e-01 1.451746e+00 1.155995e+00 1.636215e+00 1.645391e+00 2.674412e+00 1.765248e+00 1.820189e+00 1.762539e+00 2.113017e+00 1.142269e+00 3.892477e-04
<GCONST> 8.187844e+01
<MIXTURE> 90 7.114505e-03
<MEAN> 25
 2.455377e+00 -9.622557e+00 -4.734314e+00 -3.992517e+00 -3.225088e+00 -1.693140e+00 3.324559e+00 1.279506e+00 -7.439718e+00 -1.008664e+01 -3.423386e+00 -7.088519e-01 -1.503233e-01 9.078036e-01 1.163441e+00 -8.454683e-01 -1.601267e+00 -1.961039e-01 6.313081e-01 -1.853672e-01 -1.670014e-01 7.351249e-01 1.804222e-01 -5.570304e-01 -1.108113e-02
<VARIANCE> 25
 8.399265e+00 1.830190e+01 2.027058e+01 2.792927e+01 3.823238e+01 3.322857e+01 3.807999e+01 3.654483e+01 3.553851e+01 2.824064e+01 2.672190e+01 2.598885e+01 2.380778e-01 6.075138e-01 7.801648e-01 1.034464e+00 1.478253e+00 1.586523e+00 1.771983e+00 1.664745e+00 1.793994e+00 1.658473e+00 1.481007e+00 1.302608e+00 2.140579e-04
<GCONST> 7.824520e+01
<MIXTURE> 91 7.852945e-03
<MEAN> 25
 4.972399e+00 -5.815866e+00 -6.775723e+00 -4.631198e+00 3.465567e+00 1.096691e+00 -4.303011e+00 -1.027340e+00 4.115870e+00 -8.171405e-01 -3.373472e+00 -5.322338e+00 1.399912e-01 1.102808e+00 -6.879976e-03 6.284848e-01 2.256454e-01 -5.241929e-01 -2.637041e-01 6.058384e-02 -1.713679e-01 3.050801e-01 -2.646858e-01 2.449105e-01 -4.157101e-02
<VARIANCE> 25
 7.659770e+00 2.225162e+01 2.089057e+01 3.677901e+01 2.957336e+01 4.065298e+01 4.514238e+01 3.306730e+01 4.688327e+01 4.201427e+01 2.945189e+01 3.660966e+01 3.525161e-01 7.719204e-01 8.735214e-01 1.245409e+00 2.112698e+00 2.753369e+00 2.539098e+00 1.984380e+00 1.653528e+00 1.932709e+00 1.847693e+00 1.532762e+00 6.709388e-04
<GCONST> 8.375523e+01
<MIXTURE> 92 7.852945e-03
<MEAN> 25
 4.972399e+00 -5.815866e+00 -6.775723e+00 -4.631198e+00 3.465567e+00 1.096691e+00 -4.303011e+00 -1.027340e+00 4.115870e+00 -8.171405e-01 -3.373472e+00 -5.322338e+00 1.399912e-01 1.102808e+00 -6.879976e-03 6.284848e-01 2.256454e-01 -5.241929e-01 -2.637041e-01 6.058384e-02 -1.713679e-01 3.050801e-01 -2.646858e-01 2.449105e-01 -4.157101e-02
<VARIANCE> 25
 7.659770e+00 2.225162e+01 2.089057e+01 3.677901e+01 2.957336e+01 4.065298e+01 4.514238e+01 3.306730e+01 4.688327e+01 4.201427e+01 2.945189e+01 3.660966e+01 3.525161e-01 7.719204e-01 8.735214e-01 1.245409e+00 2.112698e+00 2.753369e+00 2.539098e+00 1.984380e+00 1.653528e+00 1.932709e+00 1.847693e+00 1.532762e+00 6.709388e-04
<GCONST> 8.375523e+01
<MIXTURE> 93 6.122769e-03
<MEAN> 25
 -6.540757e+00 -7.620776e-01 -2.594747e+00 5.696514e+00 5.822822e+00 4.153712e+00 6.123394e+00 3.786283e+00 4.068025e+00 2.204137e+00 1.511240e+00 3.332082e+00 -7.324695e-02 -1.534920e-01 -2.549932e-01 -3.525775e-01 -3.299204e-01 -2.976969e-01 -1.934992e-01 -1.524615e-01 -2.048529e-01 -1.176109e-01 -1.022319e-01 -4.269927e-02 7.872104e-05
<VARIANCE> 25
 9.300842e+00 6.379282e+00 8.038040e+00 1.073804e+01 1.107344e+01 1.585486e+01 1.479299e+01 1.584752e+01 1.417854e+01 1.472894e+01 1.724750e+01 1.455893e+01 8.013341e-02 1.468680e-01 2.471361e-01 3.836809e-01 4.914939e-01 6.354954e-01 7.525712e-01 8.370782e-01 9.668536e-01 9.038550e-01 8.579730e-01 8.845618e-01 1.127167e-06
<GCONST> 5.345042e+01
<MIXTURE> 94 6.122769e-03
<MEAN> 25
 -6.540757e+00 -7.620776e-01 -2.594747e+00 5.696514e+00 5.822822e+00 4.153712e+00 6.123394e+00 3.786283e+00 4.068025e+00 2.204137e+00 1.511240e+00 3.332082e+00 -7.324695e-02 -1.534920e-01 -2.549932e-01 -3.525775e-01 -3.299204e-01 -2.976969e-01 -1.934992e-01 -1.524615e-01 -2.048529e-01 -1.176109e-01 -1.022319e-01 -4.269927e-02 7.872104e-05
<VARIANCE> 25
 9.300842e+00 6.379282e+00 8.038040e+00 1.073804e+01 1.107344e+01 1.585486e+01 1.479299e+01 1.584752e+01 1.417854e+01 1.472894e+01 1.724750e+01 1.455893e+01 8.013341e-02 1.468680e-01 2.471361e-01 3.836809e-01 4.914939e-01 6.354954e-01 7.525712e-01 8.370782e-01 9.668536e-01 9.038550e-01 8.579730e-01 8.845618e-01 1.127167e-06
<GCONST> 5.345042e+01
<MIXTURE> 95 5.258835e-03
<MEAN> 25
 -4.357926e+00 9.423040e-01 -3.617521e+00 4.737084e+00 2.935885e+00 3.294424e+00 4.921082e+00 2.560175e+00 3.227160e+00 -3.651565e-01 2.918149e-02 1.857957e+00 1.098634e-01 1.767548e-01 7.822552e-02 -2.041870e-01 -2.824447e-01 -5.504107e-01 -1.001153e+00 -1.383765e+00 -1.311725e+00 -8.431440e-01 -6.683408e-01 -2.913948e-01 -2.832223e-03
<VARIANCE> 25
 9.035315e+00 9.544931e+00 1.100692e+01 9.113012e+00 1.145738e+01 1.391507e+01 1.737365e+01 1.453018e+01 1.266482e+01 1.336173e+01 1.970549e+01 1.216775e+01 1.716898e-01 2.763126e-01 3.888842e-01 5.785528e-01 6.901475e-01 9.095221e-01 7.382630e-01 7.783271e-01 9.217426e-01 1.024805e+00 1.021972e+00 1.180248e+00 4.875475e-05
<GCONST> 6.086804e+01
<MIXTURE> 96 7.034694e-03
<MEAN> 25
 -4.253762e+00 9.210114e-01 -2.931117e+00 4.949430e+00 2.744462e+00 2.015422e+00 3.939734e+00 1.903654e+00 2.378710e+00 3.336561e-01 1.259639e-01 2.456865e+00 -8.131342e-02 4.498186e-02 2.079403e-01 3.676528e-01 5.364306e-01 5.848404e-01 2.124589e-01 1.244914e-02 -4.081263e-01 -7.114440e-01 -4.839613e-01 -3.391065e-01 -1.722105e-04
<VARIANCE> 25
 9.664610e+00 1.280352e+01 1.067445e+01 1.212954e+01 1.530043e+01 1.726634e+01 1.539505e+01 1.719066e+01 1.369890e+01 1.416342e+01 1.901086e+01 1.375779e+01 1.043714e-01 2.112245e-01 3.033849e-01 3.733705e-01 4.672124e-01 6.333432e-01 9.430458e-01 8.443484e-01 8.299736e-01 8.601009e-01 8.959553e-01 8.157907e-01 1.394261e-06
<GCONST> 5.604647e+01
<MIXTURE> 97 7.034694e-03
<MEAN> 25
 -4.253762e+00 9.210114e-01 -2.931117e+00 4.949430e+00 2.744462e+00 2.015422e+00 3.939734e+00 1.903654e+00 2.378710e+00 3.336561e-01 1.259639e-01 2.456865e+00 -8.131342e-02 4.498186e-02 2.079403e-01 3.676528e-01 5.364306e-01 5.848404e-01 2.124589e-01 1.244914e-02 -4.081263e-01 -7.114440e-01 -4.839613e-01 -3.391065e-01 -1.722105e-04
<VARIANCE> 25
 9.664610e+00 1.280352e+01 1.067445e+01 1.212954e+01 1.530043e+01 1.726634e+01 1.539505e+01 1.719066e+01 1.369890e+01 1.416342e+01 1.901086e+01 1.375779e+01 1.043714e-01 2.112245e-01 3.033849e-01 3.733705e-01 4.672124e-01 6.333432e-01 9.430458e-01 8.443484e-01 8.299736e-01 8.601009e-01 8.959553e-01 8.157907e-01 1.394261e-06
<GCONST> 5.604647e+01
<MIXTURE> 98 9.917808e-03
<MEAN> 25
 -1.828207e+00 2.180222e+00 -1.227161e+00 3.184733e+00 3.298861e+00 1.082020e+00 2.245989e+00 9.935265e-01 1.289348e+00 1.664461e+00 1.188663e+00 1.672071e+00 -1.520519e+00 -1.221842e+00 -6.803466e-01 1.684477e-01 5.766535e-01 3.632941e-01 1.456217e+00 1.155370e+00 1.429551e+00 1.012674e+00 1.004826e+00 9.198176e-01 -1.703016e-02
<VARIANCE> 25
 1.207926e+01 1.927059e+01 2.491757e+01 2.706786e+01 4.038983e+01 4.387431e+01 4.266102e+01 2.824943e+01 3.161242e+01 3.701046e+01 2.206378e+01 1.632162e+01 1.178566e+00 1.812688e+00 2.615137e+00 1.698804e+00 2.549623e+00 2.527168e+00 3.506570e+00 2.379770e+00 2.231272e+00 2.571926e+00 2.449985e+00 1.697240e+00 2.624463e-03
<GCONST> 8.890084e+01
<MIXTURE> 99 6.696178e-03
<MEAN> 25
 -6.517259e+00 8.776902e+00 8.495142e+00 1.224871e+00 2.213091e+00 -7.748557e+00 2.181884e+00 -3.519662e+00 -7.028038e+00 -9.798017e-02 -1.116249e+00 2.056830e+00 3.549345e-01 -3.788279e-01 4.202461e-01 -3.292660e-01 -9.336695e-01 -8.691346e-02 -1.941151e-01 -1.875646e-01 -1.555229e-01 -5.721754e-03 3.925775e-02 1.240723e-01 1.312587e-03
<VARIANCE> 25
 2.559487e+01 1.523735e+01 4.572955e+01 2.076742e+01 2.652650e+01 3.525729e+01 3.194362e+01 1.831523e+01 2.979775e+01 2.904884e+01 1.400833e+01 2.155073e+01 1.829944e+00 1.277633e+00 1.464887e+00 1.140982e+00 2.859716e+00 1.871429e+00 1.846698e+00 1.342396e+00 1.081617e+00 1.314191e+00 9.642268e-01 9.974379e-01 1.089806e-03
<GCONST> 8.189437e+01
<MIXTURE> 100 4.498084e-03
<MEAN> 25
 -1.662367e+00 6.310552e+00 1.061533e+01 -7.173203e+00 -1.053260e+01 -4.844234e+00 -4.477849e+00 -9.995384e+00 -4.688252e+00 -7.849025e-01 -2.765715e+00 -2.840578e+00 2.788190e+00 -1.354095e+00 1.347027e+00 -1.946481e+00 -3.394599e+00 -8.637664e-01 -1.010065e+00 -8.020059e-01 -1.602732e+00 3.486506e-01 -1.467806e+00 -2.265140e-01 6.000355e-03
<VARIANCE> 25
 1.297062e+01 2.014916e+01 2.325154e+01 2.651595e+01 2.293524e+01 2.349435e+01 3.140497e+01 2.088846e+01 2.625858e+01 2.184367e+01 2.128317e+01 2.076154e+01 1.995761e+00 3.932059e+00 2.816629e+00 5.059514e+00 3.976549e+00 4.447018e+00 4.593343e+00 4.138026e+00 4.268333e+00 3.699811e+00 4.295374e+00 3.115999e+00 1.887221e-03
<GCONST> 9.277083e+01
<MIXTURE> 101 6.007792e-03
<MEAN> 25
 7.904859e+00 -4.512425e+00 -4.491271e+00 -5.366105e+00 -2.849265e-01 -2.882816e-01 -1.142205e+01 -2.730523e+00 1.158014e+00 3.294658e+00 -1.432999e+00 -5.300179e+00 6.667222e-01 7.079560e-01 -1.533996e+00 -1.703513e+00 1.081583e+00 2.467050e+00 3.308638e-01 -1.399904e+00 -1.168102e+00 1.178658e+00 1.469960e+00 -3.741033e-01 -8.684812e-03
<VARIANCE> 25
 7.469696e+00 1.791044e+01 3.398711e+01 4.329049e+01 3.344919e+01 3.300881e+01 3.465830e+01 3.211779e+01 4.012113e+01 3.815815e+01 4.706230e+01 2.009790e+01 2.708262e-01 6.493412e-01 1.195808e+00 1.643375e+00 1.527612e+00 2.157962e+00 2.346172e+00 1.708830e+00 2.328622e+00 2.288408e+00 1.542229e+00 1.705725e+00 3.403197e-04
<GCONST> 8.251826e+01
<MIXTURE> 102 6.007792e-03
<MEAN> 25
 7.904859e+00 -4.512425e+00 -4.491271e+00 -5.366105e+00 -2.849265e-01 -2.882816e-01 -1.142205e+01 -2.730523e+00 1.158014e+00 3.294658e+00 -1.432999e+00 -5.300179e+00 6.667222e-01 7.079560e-01 -1.533996e+00 -1.703513e+00 1.081583e+00 2.467050e+00 3.308638e-01 -1.399904e+00 -1.168102e+00 1.178658e+00 1.469960e+00 -3.741033e-01 -8.684812e-03
<VARIANCE> 25
 7.469696e+00 1.791044e+01 3.398711e+01 4.329049e+01 3.344919e+01 3.300881e+01 3.465830e+01 3.211779e+01 4.012113e+01 3.815815e+01 4.706230e+01 2.009790e+01 2.708262e-01 6.493412e-01 1.195808e+00 1.643375e+00 1.527612e+00 2.157962e+00 2.346172e+00 1.708830e+00 2.328622e+00 2.288408e+00 1.542229e+00 1.705725e+00 3.403197e-04
<GCONST> 8.251826e+01
<MIXTURE> 103 5.694618e-03
<MEAN> 25
 3.160080e+00 -9.151430e+00 -5.769744e+00 -2.905558e+00 -9.571493e-01 -1.681152e+00 2.242021e+00 2.616560e+00 -4.289310e+00 -8.830358e+00 -4.831400e+00 3.959571e-01 -1.430131e-01 -1.549035e+00 -8.902625e-01 3.900820e-01 1.102413e+00 9.640357e-01 1.920733e-01 -2.358315e-01 -8.634779e-01 -9.082652e-01 -1.186538e-02 8.657292e-02 2.698394e-02
<VARIANCE> 25
 1.062297e+01 2.172819e+01 2.436151e+01 3.158322e+01 4.837122e+01 3.544650e+01 4.427850e+01 3.536552e+01 4.126111e+01 3.024637e+01 2.847806e+01 2.505976e+01 6.303158e-01 1.302381e+00 1.545715e+00 1.913846e+00 2.898576e+00 2.372070e+00 2.712036e+00 2.564339e+00 2.535460e+00 2.428993e+00 2.048434e+00 1.889567e+00 7.999490e-04
<GCONST> 8.733199e+01
<MIXTURE> 104 5.694618e-03
<MEAN> 25
 3.160080e+00 -9.151430e+00 -5.769744e+00 -2.905558e+00 -9.571493e-01 -1.681152e+00 2.242021e+00 2.616560e+00 -4.289310e+00 -8.830358e+00 -4.831400e+00 3.959571e-01 -1.430131e-01 -1.549035e+00 -8.902625e-01 3.900820e-01 1.102413e+00 9.640357e-01 1.920733e-01 -2.358315e-01 -8.634779e-01 -9.082652e-01 -1.186538e-02 8.657292e-02 2.698394e-02
<VARIANCE> 25
 1.062297e+01 2.172819e+01 2.436151e+01 3.158322e+01 4.837122e+01 3.544650e+01 4.427850e+01 3.536552e+01 4.126111e+01 3.024637e+01 2.847806e+01 2.505976e+01 6.303158e-01 1.302381e+00 1.545715e+00 1.913846e+00 2.898576e+00 2.372070e+00 2.712036e+00 2.564339e+00 2.535460e+00 2.428993e+00 2.048434e+00 1.889567e+00 7.999490e-04
<GCONST> 8.733199e+01
<MIXTURE> 105 4.710235e-03
<MEAN> 25
 2.125866e+00 -1.657714e+00 9.094933e+00 -1.888779e+00 -1.000954e+01 -4.722105e+00 -4.127652e+00 6.665426e-01 -3.921901e+00 -2.892480e+00 1.429523e+00 -6.873509e-01 -3.314031e-02 1.046637e-01 5.671376e-02 -8.426619e-02 6.504786e-02 3.678269e-02 1.997580e-02 6.441268e-02 5.891038e-02 5.206214e-02 6.082954e-03 -5.436121e-02 -4.253793e-03
<VARIANCE> 25
 1.142814e+01 3.013376e+01 4.039604e+01 4.347066e+01 3.964076e+01 4.837065e+01 3.398873e+01 4.212512e+01 3.619636e+01 3.792038e+01 3.366148e+01 2.589564e+01 1.126481e-01 1.699399e-01 3.064817e-01 2.693542e-01 3.884163e-01 4.503186e-01 4.895876e-01 4.286911e-01 6.255357e-01 4.164951e-01 5.275023e-01 3.670101e-01 9.868392e-05
<GCONST> 6.611440e+01
<MIXTURE> 106 4.710235e-03
<MEAN> 25
 2.125866e+00 -1.657714e+00 9.094933e+00 -1.888779e+00 -1.000954e+01 -4.722105e+00 -4.127652e+00 6.665426e-01 -3.921901e+00 -2.892480e+00 1.429523e+00 -6.873509e-01 -3.314031e-02 1.046637e-01 5.671376e-02 -8.426619e-02 6.504786e-02 3.678269e-02 1.997580e-02 6.441268e-02 5.891038e-02 5.206214e-02 6.082954e-03 -5.436121e-02 -4.253793e-03
<VARIANCE> 25
 1.142814e+01 3.013376e+01 4.039604e+01 4.347066e+01 3.964076e+01 4.837065e+01 3.398873e+01 4.212512e+01 3.619636e+01 3.792038e+01 3.366148e+01 2.589564e+01 1.126481e-01 1.699399e-01 3.064817e-01 2.693542e-01 3.884163e-01 4.503186e-01 4.895876e-01 4.286911e-01 6.255357e-01 4.164951e-01 5.275023e-01 3.670101e-01 9.868392e-05
<GCONST> 6.611440e+01
<MIXTURE> 107 5.452374e-03
<MEAN> 25
 8.164853e+00 -3.747917e+00 -6.295264e+00 -7.189216e+00 4.292759e-01 4.513403e+00 -8.558146e+00 -5.864528e+00 -4.672014e-01 3.200951e+00 1.927286e+00 -4.001162e+00 -6.938620e-01 -6.915202e-01 7.321909e-01 1.967582e+00 5.260364e-01 -2.331073e+00 -9.544741e-01 6.315605e-01 1.838748e+00 2.530861e-01 -1.664962e+00 -6.952807e-01 -5.139628e-03
<VARIANCE> 25
 8.648329e+00 1.991839e+01 2.497914e+01 5.465196e+01 3.469352e+01 3.261279e+01 3.935182e+01 3.208360e+01 4.083401e+01 3.020892e+01 4.001715e+01 2.608894e+01 3.717415e-01 1.000506e+00 1.544052e+00 2.622313e+00 2.394243e+00 2.678244e+00 2.494244e+00 2.641082e+00 2.343158e+00 2.847239e+00 1.748227e+00 1.892317e+00 6.343367e-04
<GCONST> 8.643973e+01
<MIXTURE> 108 5.452374e-03
<MEAN> 25
 8.164853e+00 -3.747917e+00 -6.295264e+00 -7.189216e+00 4.292759e-01 4.513403e+00 -8.558146e+00 -5.864528e+00 -4.672014e-01 3.200951e+00 1.927286e+00 -4.001162e+00 -6.938620e-01 -6.915202e-01 7.321909e-01 1.967582e+00 5.260364e-01 -2.331073e+00 -9.544741e-01 6.315605e-01 1.838748e+00 2.530861e-01 -1.664962e+00 -6.952807e-01 -5.139628e-03
<VARIANCE> 25
 8.648329e+00 1.991839e+01 2.497914e+01 5.465196e+01 3.469352e+01 3.261279e+01 3.935182e+01 3.208360e+01 4.083401e+01 3.020892e+01 4.001715e+01 2.608894e+01 3.717415e-01 1.000506e+00 1.544052e+00 2.622313e+00 2.394243e+00 2.678244e+00 2.494244e+00 2.641082e+00 2.343158e+00 2.847239e+00 1.748227e+00 1.892317e+00 6.343367e-04
<GCONST> 8.643973e+01
<MIXTURE> 109 6.661064e-03
<MEAN> 25
 3.843829e+00 -1.024012e+01 -7.902498e+00 -1.546864e+00 3.076839e+00 2.212016e-01 -4.373468e-01 1.257707e+00 -2.220901e+00 -7.819317e+00 -5.205660e+00 -2.381759e-01 -5.393082e-02 -1.100780e-01 7.614905e-03 2.168754e-01 1.913579e-01 1.080238e-01 -8.424362e-02 -3.851910e-02 -3.192604e-02 -1.300909e-01 2.337618e-01 -9.177063e-03 -3.721737e-03
<VARIANCE> 25
 9.905281e+00 2.001274e+01 2.197239e+01 3.095953e+01 4.377390e+01 3.532908e+01 4.561929e+01 3.393693e+01 4.787269e+01 3.665217e+01 2.819045e+01 2.848942e+01 1.932590e-01 4.442896e-01 5.417297e-01 6.429177e-01 1.201417e+00 1.043398e+00 1.294023e+00 1.154656e+00 1.125541e+00 9.485379e-01 8.963817e-01 8.771685e-01 1.884688e-04
<GCONST> 7.497215e+01
<MIXTURE> 110 6.661064e-03
<MEAN> 25
 3.843829e+00 -1.024012e+01 -7.902498e+00 -1.546864e+00 3.076839e+00 2.212016e-01 -4.373468e-01 1.257707e+00 -2.220901e+00 -7.819317e+00 -5.205660e+00 -2.381759e-01 -5.393082e-02 -1.100780e-01 7.614905e-03 2.168754e-01 1.913579e-01 1.080238e-01 -8.424362e-02 -3.851910e-02 -3.192604e-02 -1.300909e-01 2.337618e-01 -9.177063e-03 -3.721737e-03
<VARIANCE> 25
 9.905281e+00 2.001274e+01 2.197239e+01 3.095953e+01 4.377390e+01 3.532908e+01 4.561929e+01 3.393693e+01 4.787269e+01 3.665217e+01 2.819045e+01 2.848942e+01 1.932590e-01 4.442896e-01 5.417297e-01 6.429177e-01 1.201417e+00 1.043398e+00 1.294023e+00 1.154656e+00 1.125541e+00 9.485379e-01 8.963817e-01 8.771685e-01 1.884688e-04
<GCONST> 7.497215e+01
<MIXTURE> 111 4.337247e-03
<MEAN> 25
 -3.797173e+00 1.706115e-01 -2.766197e+00 2.054232e+00 5.224842e-01 1.733826e+00 1.394490e+00 7.932265e-01 8.856304e-01 -1.034279e+00 -1.104206e+00 1.566263e+00 -2.437265e-02 -3.228236e-02 -2.330184e-02 -6.006606e-02 -1.801212e-02 9.620486e-02 6.521679e-02 -2.241512e-02 -1.307860e-01 -2.582323e-01 -2.055734e-01 -1.359437e-01 -4.528109e-04
<VARIANCE> 25
 6.264935e+00 8.555272e+00 9.691270e+00 8.009320e+00 1.146031e+01 1.958940e+01 1.477157e+01 1.214676e+01 1.127519e+01 1.100831e+01 1.171805e+01 1.020449e+01 7.145916e-02 1.587137e-01 2.576808e-01 4.215879e-01 5.873950e-01 6.743157e-01 8.741522e-01 9.036554e-01 8.267306e-01 8.829712e-01 7.764829e-01 7.621750e-01 2.565334e-05
<GCONST> 5.521803e+01
<MIXTURE> 112 4.337247e-03
<MEAN> 25
 -3.797173e+00 1.706115e-01 -2.766197e+00 2.054232e+00 5.224842e-01 1.733826e+00 1.394490e+00 7.932265e-01 8.856304e-01 -1.034279e+00 -1.104206e+00 1.566263e+00 -2.437265e-02 -3.228236e-02 -2.330184e-02 -6.006606e-02 -1.801212e-02 9.620486e-02 6.521679e-02 -2.241512e-02 -1.307860e-01 -2.582323e-01 -2.055734e-01 -1.359437e-01 -4.528109e-04
<VARIANCE> 25
 6.264935e+00 8.555272e+00 9.691270e+00 8.009320e+00 1.146031e+01 1.958940e+01 1.477157e+01 1.214676e+01 1.127519e+01 1.100831e+01 1.171805e+01 1.020449e+01 7.145916e-02 1.587137e-01 2.576808e-01 4.215879e-01 5.873950e-01 6.743157e-01 8.741522e-01 9.036554e-01 8.267306e-01 8.829712e-01 7.764829e-01 7.621750e-01 2.565334e-05
<GCONST> 5.521803e+01
<MIXTURE> 113 5.938666e-03
<MEAN> 25
 1.002148e+01 1.652226e+00 -8.264117e+00 -1.642740e+01 -1.442266e+00 5.905721e+00 -5.166064e+00 -1.888734e+00 -6.014966e+00 -7.190630e-01 7.198347e-01 -2.488973e-01 -6.331480e-03 -2.579342e-02 -5.301501e-02 -1.552639e-01 8.296472e-02 6.772728e-02 9.025075e-02 -5.934069e-02 4.702332e-02 -6.752458e-02 2.181045e-01 7.194982e-02 -7.110290e-04
<VARIANCE> 25
 8.301231e+00 1.544437e+01 2.893927e+01 3.409737e+01 4.916526e+01 3.110063e+01 3.596445e+01 3.731411e+01 3.713142e+01 4.282540e+01 3.445557e+01 2.594946e+01 1.467561e-01 3.222207e-01 2.876990e-01 6.371343e-01 5.790392e-01 7.659431e-01 7.541988e-01 8.592503e-01 1.009622e+00 9.069778e-01 7.198793e-01 6.931689e-01 1.290436e-04
<GCONST> 7.066321e+01
<MIXTURE> 114 5.938666e-03
<MEAN> 25
 1.002148e+01 1.652226e+00 -8.264117e+00 -1.642740e+01 -1.442266e+00 5.905721e+00 -5.166064e+00 -1.888734e+00 -6.014966e+00 -7.190630e-01 7.198347e-01 -2.488973e-01 -6.331480e-03 -2.579342e-02 -5.301501e-02 -1.552639e-01 8.296472e-02 6.772728e-02 9.025075e-02 -5.934069e-02 4.702332e-02 -6.752458e-02 2.181045e-01 7.194982e-02 -7.110290e-04
<VARIANCE> 25
 8.301231e+00 1.544437e+01 2.893927e+01 3.409737e+01 4.916526e+01 3.110063e+01 3.596445e+01 3.731411e+01 3.713142e+01 4.282540e+01 3.445557e+01 2.594946e+01 1.467561e-01 3.222207e-01 2.876990e-01 6.371343e-01 5.790392e-01 7.659431e-01 7.541988e-01 8.592503e-01 1.009622e+00 9.069778e-01 7.198793e-01 6.931689e-01 1.290436e-04
<GCONST> 7.066321e+01
<MIXTURE> 115 2.935202e-03
<MEAN> 25
 -3.884830e+00 -4.499718e-01 -3.249198e+00 3.686422e+00 2.219352e+00 -3.780349e-01 2.246036e+00 4.867242e-01 1.484012e+00 -4.402922e-02 -6.715047e-02 2.571317e+00 2.885338e-02 -6.952004e-02 -2.219355e-01 -4.232002e-01 -6.184396e-01 -6.436127e-01 -5.507077e-01 -4.795178e-01 -4.752811e-01 -4.476683e-01 -3.195407e-01 -1.445846e-01 1.811287e-05
<VARIANCE> 25
 9.311133e+00 1.123703e+01 1.332207e+01 1.229807e+01 1.413694e+01 1.732545e+01 1.708707e+01 2.063595e+01 1.761059e+01 1.667948e+01 1.889034e+01 1.455930e+01 1.979572e-01 3.411082e-01 4.768293e-01 5.564041e-01 6.258458e-01 8.031692e-01 1.051074e+00 1.131705e+00 1.052457e+00 9.810985e-01 1.000842e+00 1.052851e+00 1.107089e-06
<GCONST> 6.019630e+01
<MIXTURE> 116 2.935202e-03
<MEAN> 25
 -3.884830e+00 -4.499718e-01 -3.249198e+00 3.686422e+00 2.219352e+00 -3.780349e-01 2.246036e+00 4.867242e-01 1.484012e+00 -4.402922e-02 -6.715047e-02 2.571317e+00 2.885338e-02 -6.952004e-02 -2.219355e-01 -4.232002e-01 -6.184396e-01 -6.436127e-01 -5.507077e-01 -4.795178e-01 -4.752811e-01 -4.476683e-01 -3.195407e-01 -1.445846e-01 1.811287e-05
<VARIANCE> 25
 9.311133e+00 1.123703e+01 1.332207e+01 1.229807e+01 1.413694e+01 1.732545e+01 1.708707e+01 2.063595e+01 1.761059e+01 1.667948e+01 1.889034e+01 1.455930e+01 1.979572e-01 3.411082e-01 4.768293e-01 5.564041e-01 6.258458e-01 8.031692e-01 1.051074e+00 1.131705e+00 1.052457e+00 9.810985e-01 1.000842e+00 1.052851e+00 1.107089e-06
<GCONST> 6.019630e+01
<MIXTURE> 117 6.506003e-03
<MEAN> 25
 -4.622365e+00 1.153833e+00 9.986593e-01 9.723627e+00 6.208527e+00 6.263243e+00 6.560739e+00 5.085492e+00 6.366499e+00 4.876876e+00 6.308627e+00 2.688745e+00 -7.345157e-02 -2.303894e-01 -3.546126e-01 -4.260896e-01 -3.741179e-01 -3.115349e-01 -2.759287e-01 -3.057854e-01 -3.822054e-01 -3.567488e-01 -2.583215e-01 -1.169583e-01 1.213329e-05
<VARIANCE> 25
 7.136053e+00 8.775217e+00 9.940307e+00 1.427196e+01 1.564918e+01 1.524926e+01 1.883152e+01 1.800173e+01 1.637528e+01 1.639121e+01 1.682202e+01 1.463791e+01 2.149517e-01 3.052901e-01 4.229513e-01 6.177408e-01 8.534428e-01 1.068795e+00 1.180536e+00 1.287053e+00 1.218717e+00 1.199290e+00 1.158463e+00 1.109266e+00 1.063648e-06
<GCONST> 6.057556e+01
<MIXTURE> 118 6.506003e-03
<MEAN> 25
 -4.622365e+00 1.153833e+00 9.986593e-01 9.723627e+00 6.208527e+00 6.263243e+00 6.560739e+00 5.085492e+00 6.366499e+00 4.876876e+00 6.308627e+00 2.688745e+00 -7.345157e-02 -2.303894e-01 -3.546126e-01 -4.260896e-01 -3.741179e-01 -3.115349e-01 -2.759287e-01 -3.057854e-01 -3.822054e-01 -3.567488e-01 -2.583215e-01 -1.169583e-01 1.213329e-05
<VARIANCE> 25
 7.136053e+00 8.775217e+00 9.940307e+00 1.427196e+01 1.564918e+01 1.524926e+01 1.883152e+01 1.800173e+01 1.637528e+01 1.639121e+01 1.682202e+01 1.463791e+01 2.149517e-01 3.052901e-01 4.229513e-01 6.177408e-01 8.534428e-01 1.068795e+00 1.180536e+00 1.287053e+00 1.218717e+00 1.199290e+00 1.158463e+00 1.109266e+00 1.063648e-06
<GCONST> 6.057556e+01
<MIXTURE> 119 4.297961e-03
<MEAN> 25
 -4.708124e+00 -7.863953e+00 2.428674e+00 1.752097e+00 2.492128e+00 -1.941584e-01 4.856144e+00 5.287122e+00 3.724717e-01 9.558123e-01 6.156938e+00 1.810660e+00 -8.152373e-02 -1.153153e-01 5.608200e-02 -1.183227e-01 -1.368475e-01 -9.597521e-02 -2.777086e-02 1.336734e-02 -3.754736e-02 -3.229622e-02 -3.937764e-02 -1.093622e-01 1.361227e-03
<VARIANCE> 25
 1.201202e+01 9.420740e+00 1.518164e+01 2.232036e+01 2.740285e+01 2.236008e+01 2.645159e+01 3.044008e+01 2.814231e+01 2.464392e+01 2.059699e+01 1.991545e+01 1.562079e-01 2.866701e-01 5.040325e-01 5.893078e-01 7.183589e-01 1.025150e+00 1.328730e+00 1.223295e+00 1.541260e+00 1.230309e+00 1.168555e+00 1.198494e+00 2.686561e-04
<GCONST> 7.078333e+01
<MIXTURE> 120 4.297961e-03
<MEAN> 25
 -4.708124e+00 -7.863953e+00 2.428674e+00 1.752097e+00 2.492128e+00 -1.941584e-01 4.856144e+00 5.287122e+00 3.724717e-01 9.558123e-01 6.156938e+00 1.810660e+00 -8.152373e-02 -1.153153e-01 5.608200e-02 -1.183227e-01 -1.368475e-01 -9.597521e-02 -2.777086e-02 1.336734e-02 -3.754736e-02 -3.229622e-02 -3.937764e-02 -1.093622e-01 1.361227e-03
<VARIANCE> 25
 1.201202e+01 9.420740e+00 1.518164e+01 2.232036e+01 2.740285e+01 2.236008e+01 2.645159e+01 3.044008e+01 2.814231e+01 2.464392e+01 2.059699e+01 1.991545e+01 1.562079e-01 2.866701e-01 5.040325e-01 5.893078e-01 7.183589e-01 1.025150e+00 1.328730e+00 1.223295e+00 1.541260e+00 1.230309e+00 1.168555e+00 1.198494e+00 2.686561e-04
<GCONST> 7.078333e+01
<MIXTURE> 121 4.567511e-03
<MEAN> 25
 2.172863e-01 -2.527353e+00 5.150548e+00 -1.288942e+01 -1.257081e+01 -1.661808e+00 1.008547e+00 -5.124587e+00 -4.211874e+00 -4.420350e-01 -5.456570e+00 -4.299862e+00 2.346800e-02 1.370144e-01 -4.425914e-02 8.103815e-02 1.628876e-01 7.353394e-02 -8.567704e-02 -1.801622e-01 -2.657240e-01 -2.512008e-01 -1.153984e-01 1.598707e-04 -7.643197e-03
<VARIANCE> 25
 7.703063e+00 1.553203e+01 1.728025e+01 2.032524e+01 2.532633e+01 2.906453e+01 2.966918e+01 2.470155e+01 3.526473e+01 2.853690e+01 2.000163e+01 2.107940e+01 1.566948e-01 6.467171e-01 6.234510e-01 7.035965e-01 7.687218e-01 1.152479e+00 1.118836e+00 1.115586e+00 1.259211e+00 1.203469e+00 9.357011e-01 8.661703e-01 2.184347e-04
<GCONST> 7.151316e+01
<MIXTURE> 122 4.567511e-03
<MEAN> 25
 2.172863e-01 -2.527353e+00 5.150548e+00 -1.288942e+01 -1.257081e+01 -1.661808e+00 1.008547e+00 -5.124587e+00 -4.211874e+00 -4.420350e-01 -5.456570e+00 -4.299862e+00 2.346800e-02 1.370144e-01 -4.425914e-02 8.103815e-02 1.628876e-01 7.353394e-02 -8.567704e-02 -1.801622e-01 -2.657240e-01 -2.512008e-01 -1.153984e-01 1.598707e-04 -7.643197e-03
<VARIANCE> 25
 7.703063e+00 1.553203e+01 1.728025e+01 2.032524e+01 2.532633e+01 2.906453e+01 2.966918e+01 2.470155e+01 3.526473e+01 2.853690e+01 2.000163e+01 2.107940e+01 1.566948e-01 6.467171e-01 6.234510e-01 7.035965e-01 7.687218e-01 1.152479e+00 1.118836e+00 1.115586e+00 1.259211e+00 1.203469e+00 9.357011e-01 8.661703e-01 2.184347e-04
<GCONST> 7.151316e+01
<MIXTURE> 123 4.393044e-03
<MEAN> 25
 -2.756190e+00 3.355308e+00 -1.660773e+00 5.921271e+00 2.747568e+00 3.108716e+00 3.492711e+00 9.360445e-01 1.114659e+00 -1.645337e+00 -1.658746e-01 8.239030e-01 -3.930667e-01 -5.402095e-01 -7.442105e-01 -5.395640e-01 -1.474223e-01 2.039656e-01 6.332913e-01 6.486008e-01 7.045693e-01 8.365494e-01 6.623260e-01 3.106866e-01 -4.737513e-03
<VARIANCE> 25
 9.182774e+00 1.512243e+01 1.405800e+01 1.243437e+01 2.315518e+01 2.269423e+01 2.015623e+01 1.563397e+01 1.659088e+01 1.614017e+01 1.969606e+01 1.522437e+01 2.710605e-01 3.446555e-01 4.054538e-01 6.249669e-01 8.497263e-01 8.942370e-01 1.317039e+00 9.134120e-01 1.007774e+00 1.446596e+00 1.326282e+00 1.136915e+00 9.087250e-05
<GCONST> 6.700323e+01
<MIXTURE> 124 4.069876e-03
<MEAN> 25
 -5.219082e+00 5.076112e-01 -3.659963e+00 5.350066e+00 3.832616e+00 3.840627e+00 6.117143e+00 3.169306e+00 3.351121e+00 1.606407e-01 4.655545e-01 2.057850e+00 -1.705581e-01 -2.754560e-01 -2.964435e-01 -1.804903e-01 7.746764e-02 4.721763e-01 8.421198e-01 9.181661e-01 6.967350e-01 2.562369e-01 6.690853e-02 -1.756525e-01 7.866783e-04
<VARIANCE> 25
 1.042725e+01 1.075570e+01 9.411538e+00 9.778654e+00 1.148647e+01 1.554905e+01 1.543129e+01 1.583859e+01 1.308642e+01 1.430131e+01 1.565571e+01 1.258745e+01 9.662268e-02 1.588146e-01 2.466591e-01 4.146697e-01 6.507295e-01 5.803181e-01 8.779696e-01 7.604664e-01 1.190624e+00 9.718506e-01 8.881822e-01 9.404041e-01 2.273148e-05
<GCONST> 5.782773e+01
<MIXTURE> 125 4.069876e-03
<MEAN> 25
 -5.219082e+00 5.076112e-01 -3.659963e+00 5.350066e+00 3.832616e+00 3.840627e+00 6.117143e+00 3.169306e+00 3.351121e+00 1.606407e-01 4.655545e-01 2.057850e+00 -1.705581e-01 -2.754560e-01 -2.964435e-01 -1.804903e-01 7.746764e-02 4.721763e-01 8.421198e-01 9.181661e-01 6.967350e-01 2.562369e-01 6.690853e-02 -1.756525e-01 7.866783e-04
<VARIANCE> 25
 1.042725e+01 1.075570e+01 9.411538e+00 9.778654e+00 1.148647e+01 1.554905e+01 1.543129e+01 1.583859e+01 1.308642e+01 1.430131e+01 1.565571e+01 1.258745e+01 9.662268e-02 1.588146e-01 2.466591e-01 4.146697e-01 6.507295e-01 5.803181e-01 8.779696e-01 7.604664e-01 1.190624e+00 9.718506e-01 8.881822e-01 9.404041e-01 2.273148e-05
<GCONST> 5.782773e+01
<MIXTURE> 126 2.402244e-03
<MEAN> 25
 -3.696062e+00 -6.662807e+00 -5.155790e+00 2.180340e+00 4.356409e+00 -2.914399e+00 1.604342e-01 3.576787e+00 3.283051e+00 -2.514553e+00 -1.440271e+00 2.678683e+00 -1.998343e-02 1.165549e-03 -4.669359e-02 -1.576632e-01 -3.077073e-01 -3.867690e-01 -2.588826e-01 -1.879553e-01 -9.191023e-02 -1.294264e-01 -9.578651e-02 1.021334e-02 -1.945971e-03
<VARIANCE> 25
 7.307915e+00 1.539961e+01 1.435371e+01 1.535995e+01 2.845462e+01 2.407615e+01 2.367916e+01 3.001773e+01 3.188132e+01 2.524612e+01 2.075851e+01 1.989059e+01 1.659169e-01 3.689781e-01 5.223933e-01 5.496889e-01 7.500440e-01 1.062451e+00 1.201526e+00 1.314021e+00 1.418504e+00 1.273793e+00 1.230967e+00 1.106890e+00 2.108803e-04
<GCONST> 7.050117e+01
<MIXTURE> 127 2.402244e-03
<MEAN> 25
 -3.696062e+00 -6.662807e+00 -5.155790e+00 2.180340e+00 4.356409e+00 -2.914399e+00 1.604342e-01 3.576787e+00 3.283051e+00 -2.514553e+00 -1.440271e+00 2.678683e+00 -1.998343e-02 1.165549e-03 -4.669359e-02 -1.576632e-01 -3.077073e-01 -3.867690e-01 -2.588826e-01 -1.879553e-01 -9.191023e-02 -1.294264e-01 -9.578651e-02 1.021334e-02 -1.945971e-03
<VARIANCE> 25
 7.307915e+00 1.539961e+01 1.435371e+01 1.535995e+01 2.845462e+01 2.407615e+01 2.367916e+01 3.001773e+01 3.188132e+01 2.524612e+01 2.075851e+01 1.989059e+01 1.659169e-01 3.689781e-01 5.223933e-01 5.496889e-01 7.500440e-01 1.062451e+00 1.201526e+00 1.314021e+00 1.418504e+00 1.273793e+00 1.230967e+00 1.106890e+00 2.108803e-04
<GCONST> 7.050117e+01
<MIXTURE> 128 3.790457e-03
<MEAN> 25
 -3.900747e+00 1.634632e+00 -4.535284e-01 6.546434e+00 3.436264e+00 1.822823e+00 3.721161e+00 2.530950e+00 4.039276e+00 3.577887e+00 3.603014e+00 3.450882e+00 -3.898396e-01 -2.018877e-01 6.833566e-02 7.342300e-01 1.177728e+00 1.127758e+00 6.816859e-01 1.088002e-01 -4.461795e-01 -8.108680e-01 -6.366335e-01 -3.203175e-01 -9.394740e-05
<VARIANCE> 25
 9.972772e+00 1.168381e+01 1.495212e+01 1.878799e+01 2.075785e+01 2.074017e+01 2.434007e+01 2.517369e+01 2.602026e+01 2.366543e+01 2.690594e+01 1.802590e+01 8.711110e-01 1.114029e+00 1.357718e+00 1.476714e+00 1.543584e+00 1.814229e+00 2.258348e+00 2.290216e+00 2.098919e+00 1.834819e+00 1.897292e+00 1.940088e+00 1.111678e-06
<GCONST> 7.371358e+01
<TRANSP> 3
 0.000000e+00 1.000000e+00 0.000000e+00
 0.000000e+00 9.999990e-01 9.999998e-07
 0.000000e+00 0.000000e+00 0.000000e+00
<ENDHMM>
