~o
<STREAMINFO> 1 25
<VECSIZE> 25<NULLD><MFCC_E_D_N><DIAGC>
~h "jmodel"
<BEGINHMM>
<NUMSTATES> 3
<STATE> 2
<NUMMIXES> 128
<MIXTURE> 1 5.748963e-03
<MEAN> 25
 -2.565209e+00 3.194397e+00 2.277332e+00 8.721951e+00 4.344994e+00 3.419414e+00 4.047153e+00 3.918817e+00 5.837299e+00 5.211076e+00 5.824524e+00 3.062306e+00 -1.993865e+00 -1.629347e+00 -8.582679e-01 1.077365e+00 1.564776e+00 2.222492e+00 2.150964e+00 2.077060e+00 1.684226e+00 1.261627e+00 1.556161e+00 6.110900e-01 -4.652758e-02
<VARIANCE> 25
 1.005920e+01 1.188929e+01 1.510113e+01 1.870478e+01 2.318773e+01 2.218213e+01 2.191066e+01 2.194621e+01 2.100879e+01 2.266688e+01 2.128526e+01 1.709527e+01 1.790159e+00 2.101366e+00 3.010588e+00 3.199031e+00 3.723504e+00 3.364517e+00 3.315828e+00 3.368721e+00 3.515250e+00 3.712961e+00 3.506190e+00 2.817501e+00 3.121443e-03
<GCONST> 8.847665e+01
<MIXTURE> 2 4.549242e-03
<MEAN> 25
 -4.871056e+00 1.314308e+00 9.832209e-01 9.886600e+00 6.683770e+00 7.422065e+00 7.846842e+00 6.947877e+00 8.375710e+00 6.369449e+00 7.610048e+00 3.070500e+00 -6.221939e-02 4.110722e-02 1.419519e-01 2.265742e-01 2.664230e-01 2.805816e-01 2.935151e-01 3.176229e-01 3.490978e-01 3.082064e-01 1.959326e-01 7.804757e-02 -3.021272e-06
<VARIANCE> 25
 6.948546e+00 8.894742e+00 1.069049e+01 1.597287e+01 1.723414e+01 1.553728e+01 1.687403e+01 1.850396e+01 1.656085e+01 1.736028e+01 1.817750e+01 1.432330e+01 1.250180e-01 2.265822e-01 3.359986e-01 4.680805e-01 6.516638e-01 8.140873e-01 9.306056e-01 1.003327e+00 1.050982e+00 1.078885e+00 1.075276e+00 1.014963e+00 1.007076e-06
<GCONST> 5.805677e+01
<MIXTURE> 3 4.549242e-03
<MEAN> 25
 -4.871056e+00 1.314308e+00 9.832209e-01 9.886600e+00 6.683770e+00 7.422065e+00 7.846842e+00 6.947877e+00 8.375710e+00 6.369449e+00 7.610048e+00 3.070500e+00 -6.221939e-02 4.110722e-02 1.419519e-01 2.265742e-01 2.664230e-01 2.805816e-01 2.935151e-01 3.176229e-01 3.490978e-01 3.082064e-01 1.959326e-01 7.804757e-02 -3.021272e-06
<VARIANCE> 25
 6.948546e+00 8.894742e+00 1.069049e+01 1.597287e+01 1.723414e+01 1.553728e+01 1.687403e+01 1.850396e+01 1.656085e+01 1.736028e+01 1.817750e+01 1.432330e+01 1.250180e-01 2.265822e-01 3.359986e-01 4.680805e-01 6.516638e-01 8.140873e-01 9.306056e-01 1.003327e+00 1.050982e+00 1.078885e+00 1.075276e+00 1.014963e+00 1.007076e-06
<GCONST> 5.805677e+01
<MIXTURE> 4 1.671429e-02
<MEAN> 25
 3.260277e+00 2.130098e+00 -2.986326e+00 7.076803e-01 4.687413e+00 -5.728612e-01 -1.106948e+00 6.127636e-01 1.135441e+00 1.845064e+00 -1.490120e+00 -1.774714e-01 -2.336482e+00 9.887329e-01 1.429251e+00 3.090922e+00 7.721906e-01 2.722176e-01 1.791146e+00 6.540235e-01 9.070392e-01 -3.633020e-02 9.327309e-01 7.537482e-01 -9.352011e-02
<VARIANCE> 25
 1.698878e+01 2.629659e+01 2.890536e+01 3.664822e+01 3.997858e+01 6.401377e+01 5.915799e+01 4.694027e+01 4.566436e+01 5.798864e+01 4.234818e+01 3.405925e+01 2.528316e+00 4.373833e+00 3.703943e+00 4.287660e+00 4.491767e+00 5.525347e+00 5.310097e+00 5.267563e+00 5.072084e+00 5.869201e+00 5.414330e+00 3.746920e+00 5.653432e-03
<GCONST> 1.028855e+02
<MIXTURE> 5 3.206198e-03
<MEAN> 25
 -3.409562e+00 2.177208e+00 5.997792e-01 9.417252e+00 6.694716e+00 6.309597e+00 7.099686e+00 4.714274e+00 5.498636e+00 3.851448e+00 4.641343e+00 2.594818e+00 -3.216588e-01 7.518204e-01 1.219965e+00 1.030800e+00 3.089829e-01 -9.833116e-02 -8.064184e-02 3.329019e-02 4.554139e-01 6.816347e-01 4.033066e-01 8.787034e-02 -3.136784e-05
<VARIANCE> 25
 1.026214e+01 1.393697e+01 2.350989e+01 2.562662e+01 2.018714e+01 1.939970e+01 2.017893e+01 2.033910e+01 2.147919e+01 2.124376e+01 2.416880e+01 1.640993e+01 1.215315e+00 1.251807e+00 1.363403e+00 1.673111e+00 2.287127e+00 2.376401e+00 2.305472e+00 2.274451e+00 2.317168e+00 2.235838e+00 2.081458e+00 1.874097e+00 1.007407e-06
<GCONST> 7.519677e+01
<MIXTURE> 6 5.475854e-03
<MEAN> 25
 9.094176e+00 7.551976e-02 -6.278439e+00 -1.033060e+01 -1.727799e+00 6.723340e+00 -5.943499e+00 -5.038221e+00 -3.326074e+00 1.983058e+00 4.324893e+00 -9.353494e-01 4.875769e-01 9.415229e-01 -3.085866e-01 -1.294414e+00 -4.781779e-01 1.323622e+00 1.341017e+00 7.828488e-02 -1.144807e+00 -1.199666e+00 3.575905e-01 1.250443e+00 -8.020912e-03
<VARIANCE> 25
 9.978808e+00 1.777283e+01 2.552270e+01 4.175003e+01 3.413564e+01 2.970978e+01 4.457766e+01 3.620299e+01 3.701143e+01 3.525829e+01 3.720910e+01 2.628140e+01 3.824822e-01 8.495122e-01 8.886480e-01 1.958766e+00 1.724387e+00 1.911792e+00 2.103917e+00 2.234007e+00 2.392183e+00 1.796548e+00 2.050615e+00 1.481542e+00 5.943968e-04
<GCONST> 8.377579e+01
<MIXTURE> 7 5.475854e-03
<MEAN> 25
 9.094176e+00 7.551976e-02 -6.278439e+00 -1.033060e+01 -1.727799e+00 6.723340e+00 -5.943499e+00 -5.038221e+00 -3.326074e+00 1.983058e+00 4.324893e+00 -9.353494e-01 4.875769e-01 9.415229e-01 -3.085866e-01 -1.294414e+00 -4.781779e-01 1.323622e+00 1.341017e+00 7.828488e-02 -1.144807e+00 -1.199666e+00 3.575905e-01 1.250443e+00 -8.020912e-03
<VARIANCE> 25
 9.978808e+00 1.777283e+01 2.552270e+01 4.175003e+01 3.413564e+01 2.970978e+01 4.457766e+01 3.620299e+01 3.701143e+01 3.525829e+01 3.720910e+01 2.628140e+01 3.824822e-01 8.495122e-01 8.886480e-01 1.958766e+00 1.724387e+00 1.911792e+00 2.103917e+00 2.234007e+00 2.392183e+00 1.796548e+00 2.050615e+00 1.481542e+00 5.943968e-04
<GCONST> 8.377579e+01
<MIXTURE> 8 1.165917e-02
<MEAN> 25
 -4.719701e+00 1.366509e+00 1.273076e+00 9.543345e+00 6.557280e+00 6.241237e+00 6.477212e+00 5.688781e+00 6.667942e+00 5.618341e+00 6.553649e+00 3.149817e+00 -6.273148e-01 -1.421849e+00 -1.065916e+00 -1.727033e+00 -2.331475e-01 -9.438836e-01 -1.782829e-01 -2.885433e-01 -2.530202e-01 -1.707916e-01 -2.100474e-01 8.164778e-02 9.858707e-02
<VARIANCE> 25
 9.340654e+00 9.843863e+00 1.169329e+01 1.610135e+01 1.669674e+01 1.574308e+01 1.809994e+01 1.747537e+01 1.712505e+01 1.740041e+01 1.893466e+01 1.399059e+01 2.750708e+00 2.812145e+00 3.902999e+00 3.757169e+00 3.451231e+00 3.312561e+00 3.124779e+00 3.081748e+00 2.867802e+00 2.653301e+00 2.431799e+00 1.898053e+00 6.682998e-03
<GCONST> 8.629397e+01
<MIXTURE> 9 1.199672e-02
<MEAN> 25
 7.768620e+00 2.259636e+00 -6.121660e+00 -1.180347e+01 -2.391611e+00 5.854218e+00 -2.578561e+00 1.556002e+00 -4.486364e+00 -1.616646e+00 1.007528e+00 -6.093194e-01 1.513546e+00 1.674742e-01 -1.271411e-01 -1.865930e+00 -1.316505e+00 9.152141e-01 -1.326786e+00 -3.060282e-01 -8.367999e-01 -7.767831e-01 7.177432e-01 -1.394696e-01 7.126194e-02
<VARIANCE> 25
 1.175011e+01 1.464948e+01 2.926319e+01 3.653467e+01 3.515860e+01 2.146053e+01 3.343991e+01 4.076520e+01 2.837923e+01 2.859131e+01 2.305620e+01 2.419257e+01 1.770164e+00 2.192917e+00 5.500260e+00 5.216633e+00 3.654136e+00 3.039338e+00 4.082706e+00 3.660810e+00 3.299940e+00 3.476660e+00 2.469988e+00 1.769094e+00 1.831428e-03
<GCONST> 9.237309e+01
<MIXTURE> 10 6.596976e-03
<MEAN> 25
 8.087193e-01 7.585221e+00 5.337943e+00 7.091592e+00 1.589005e+00 -2.198241e+00 -4.925855e-01 -1.651456e+00 8.670918e-01 8.574499e-01 8.217387e-01 6.814757e-01 -1.904031e+00 -6.483519e-01 -4.716209e-01 3.010780e+00 2.433535e+00 2.691505e+00 2.364231e+00 2.240863e+00 1.858970e+00 1.515630e+00 2.308088e+00 5.127780e-01 -1.375890e-01
<VARIANCE> 25
 1.944978e+01 2.069419e+01 2.238420e+01 2.909664e+01 3.810389e+01 3.563343e+01 3.507800e+01 3.368100e+01 2.738534e+01 2.876324e+01 2.686244e+01 2.506452e+01 2.245956e+00 3.455366e+00 5.508159e+00 5.148863e+00 5.582691e+00 4.466543e+00 4.674332e+00 4.909431e+00 4.383862e+00 5.041875e+00 4.461942e+00 3.179438e+00 2.703813e-03
<GCONST> 9.747147e+01
<MIXTURE> 11 1.633820e-02
<MEAN> 25
 5.315178e+00 3.783255e+00 1.850124e+00 5.567587e+00 -1.508994e+00 -3.841278e-01 -2.715149e+00 -5.546250e+00 -3.078587e+00 -1.059264e+00 -5.742975e-01 -5.929682e-01 -1.838501e-01 4.455855e-01 -4.426472e-02 9.221648e-02 2.364954e-01 -6.460571e-02 1.923581e-01 -3.895611e-01 3.694370e-02 -2.140596e-01 -2.468451e-01 2.239956e-01 -1.739303e-02
<VARIANCE> 25
 8.498087e+00 1.699017e+01 1.441587e+01 2.692708e+01 2.485213e+01 2.983690e+01 3.472500e+01 3.136658e+01 3.337508e+01 2.496557e+01 2.033524e+01 1.975498e+01 7.315908e-01 8.802427e-01 1.212845e+00 2.058844e+00 1.724809e+00 1.870590e+00 1.934427e+00 3.188277e+00 2.223557e+00 1.795756e+00 1.184683e+00 1.401877e+00 7.303444e-04
<GCONST> 8.133935e+01
<MIXTURE> 12 5.904134e-03
<MEAN> 25
 1.021238e+01 3.596036e+00 -4.441797e+00 -1.553962e+01 -7.923991e+00 8.979813e+00 -1.124120e+00 -1.837696e+00 -1.752367e+00 -4.690124e+00 1.819575e+00 8.179671e-01 5.324345e-02 2.601283e-01 6.741371e-02 -3.129984e-01 -2.474924e-01 -5.577622e-02 3.505123e-01 3.484733e-01 1.495718e-01 -4.422339e-01 -3.291635e-01 1.791752e-02 -5.557030e-03
<VARIANCE> 25
 1.092086e+01 2.094287e+01 2.185755e+01 3.402950e+01 4.414059e+01 3.015619e+01 4.113127e+01 4.542779e+01 4.032137e+01 3.599685e+01 3.534914e+01 2.684602e+01 2.450296e-01 6.711808e-01 6.711514e-01 1.215863e+00 1.164559e+00 1.156186e+00 1.173662e+00 1.390363e+00 1.173766e+00 1.242860e+00 1.206731e+00 9.484390e-01 5.671537e-04
<GCONST> 7.867003e+01
<MIXTURE> 13 5.904134e-03
<MEAN> 25
 1.021238e+01 3.596036e+00 -4.441797e+00 -1.553962e+01 -7.923991e+00 8.979813e+00 -1.124120e+00 -1.837696e+00 -1.752367e+00 -4.690124e+00 1.819575e+00 8.179671e-01 5.324345e-02 2.601283e-01 6.741371e-02 -3.129984e-01 -2.474924e-01 -5.577622e-02 3.505123e-01 3.484733e-01 1.495718e-01 -4.422339e-01 -3.291635e-01 1.791752e-02 -5.557030e-03
<VARIANCE> 25
 1.092086e+01 2.094287e+01 2.185755e+01 3.402950e+01 4.414059e+01 3.015619e+01 4.113127e+01 4.542779e+01 4.032137e+01 3.599685e+01 3.534914e+01 2.684602e+01 2.450296e-01 6.711808e-01 6.711514e-01 1.215863e+00 1.164559e+00 1.156186e+00 1.173662e+00 1.390363e+00 1.173766e+00 1.242860e+00 1.206731e+00 9.484390e-01 5.671537e-04
<GCONST> 7.867003e+01
<MIXTURE> 14 6.488954e-03
<MEAN> 25
 -3.942624e+00 6.410866e-02 -1.242253e+00 8.187626e+00 7.054847e+00 7.243843e+00 7.663482e+00 7.021858e+00 7.870995e+00 4.844026e+00 6.099530e+00 4.024285e+00 -2.379346e-01 1.910111e-01 4.066498e-01 2.127466e-01 -8.996520e-03 1.658670e-01 1.458513e-01 2.034909e-01 2.979521e-01 5.883972e-01 4.492995e-01 4.374671e-02 -6.591273e-03
<VARIANCE> 25
 8.662340e+00 1.337129e+01 2.026765e+01 1.960397e+01 2.015755e+01 1.871817e+01 2.013558e+01 2.050829e+01 2.172484e+01 2.366369e+01 2.161624e+01 1.460194e+01 8.555690e-01 1.648899e+00 1.542492e+00 1.829338e+00 2.125754e+00 2.151198e+00 2.028268e+00 2.021832e+00 2.128553e+00 2.335989e+00 1.954015e+00 1.638661e+00 9.433671e-04
<GCONST> 8.075154e+01
<MIXTURE> 15 2.475190e-03
<MEAN> 25
 -5.252199e+00 -6.006485e-01 -5.323903e-01 7.065076e+00 5.540387e+00 5.933703e+00 6.391984e+00 5.096306e+00 5.344700e+00 4.122515e+00 5.200089e+00 2.406711e+00 -1.391862e-01 -2.512657e-02 7.834765e-02 2.774705e-01 5.248201e-01 8.289601e-01 1.130281e+00 1.134588e+00 1.102780e+00 7.995557e-01 3.844959e-01 7.445835e-02 -4.846671e-04
<VARIANCE> 25
 7.005389e+00 5.514068e+00 9.999324e+00 1.324440e+01 1.376513e+01 1.430413e+01 1.571737e+01 1.429024e+01 1.383758e+01 1.380099e+01 1.550700e+01 1.208631e+01 1.225349e-01 1.983404e-01 3.020801e-01 4.993504e-01 6.878858e-01 7.918952e-01 8.164162e-01 7.909904e-01 8.883861e-01 9.935259e-01 1.060838e+00 1.068530e+00 3.730190e-05
<GCONST> 5.882018e+01
<MIXTURE> 16 2.475190e-03
<MEAN> 25
 -5.252199e+00 -6.006485e-01 -5.323903e-01 7.065076e+00 5.540387e+00 5.933703e+00 6.391984e+00 5.096306e+00 5.344700e+00 4.122515e+00 5.200089e+00 2.406711e+00 -1.391862e-01 -2.512657e-02 7.834765e-02 2.774705e-01 5.248201e-01 8.289601e-01 1.130281e+00 1.134588e+00 1.102780e+00 7.995557e-01 3.844959e-01 7.445835e-02 -4.846671e-04
<VARIANCE> 25
 7.005389e+00 5.514068e+00 9.999324e+00 1.324440e+01 1.376513e+01 1.430413e+01 1.571737e+01 1.429024e+01 1.383758e+01 1.380099e+01 1.550700e+01 1.208631e+01 1.225349e-01 1.983404e-01 3.020801e-01 4.993504e-01 6.878858e-01 7.918952e-01 8.164162e-01 7.909904e-01 8.883861e-01 9.935259e-01 1.060838e+00 1.068530e+00 3.730190e-05
<GCONST> 5.882018e+01
<MIXTURE> 17 9.518312e-03
<MEAN> 25
 2.710300e+00 -2.358355e+00 5.981163e+00 3.251204e+00 -4.817613e+00 -5.397785e+00 -2.557749e+00 7.394838e-01 -2.908511e+00 -1.477839e+00 8.841838e-01 2.337994e-01 -1.225502e+00 -1.387594e+00 1.955031e+00 -1.814644e+00 -1.929256e+00 -5.060692e-01 8.960986e-01 8.548991e-01 -7.755039e-01 -1.380403e-02 8.942079e-01 6.801339e-01 8.055975e-02
<VARIANCE> 25
 1.368144e+01 3.183249e+01 3.383601e+01 3.165805e+01 2.797977e+01 4.040009e+01 3.473506e+01 5.689841e+01 2.700886e+01 2.303518e+01 1.723394e+01 1.940649e+01 1.395192e+00 2.730533e+00 2.749600e+00 3.699379e+00 2.405057e+00 4.188202e+00 4.859649e+00 4.101767e+00 2.976701e+00 2.401871e+00 2.609907e+00 2.144774e+00 1.514085e-03
<GCONST> 9.202081e+01
<MIXTURE> 18 1.221018e-02
<MEAN> 25
 2.115207e+00 3.832793e+00 6.320314e+00 4.463808e+00 -3.955544e+00 -9.547005e+00 3.149272e-01 -6.796544e-01 -3.430645e+00 -1.454552e+00 2.881337e-01 1.279553e+00 -3.954450e-01 1.911448e+00 -1.054502e+00 1.520643e+00 2.214047e+00 1.634859e+00 5.315379e-01 -4.576029e-01 1.358815e+00 2.222608e-01 -4.339286e-01 -2.906966e-01 -1.156772e-01
<VARIANCE> 25
 1.511095e+01 1.844098e+01 3.022321e+01 2.225502e+01 3.140696e+01 4.282706e+01 3.219019e+01 2.340505e+01 3.537912e+01 2.561918e+01 2.406547e+01 3.045752e+01 1.861686e+00 2.318564e+00 4.488769e+00 2.955456e+00 3.556280e+00 3.914560e+00 3.870756e+00 3.140958e+00 4.889249e+00 2.876127e+00 3.725485e+00 2.712093e+00 2.670948e-03
<GCONST> 9.353363e+01
<MIXTURE> 19 9.912824e-03
<MEAN> 25
 -7.491199e+00 2.379640e+00 1.294898e+00 6.644456e-01 1.604624e+00 -8.991428e-01 4.681583e+00 -8.975235e-02 5.793386e-01 8.341258e-01 1.428850e+00 2.749343e+00 1.737620e+00 1.576237e+00 2.681744e+00 8.648279e-01 -1.018059e+00 -4.564764e-01 -5.742421e-01 -8.653486e-01 -1.834234e+00 -1.134485e+00 -5.627254e-01 -7.790410e-01 1.910679e-02
<VARIANCE> 25
 4.416495e+01 2.414659e+01 4.209753e+01 4.618505e+01 2.826172e+01 3.947801e+01 2.315360e+01 2.183649e+01 3.221683e+01 2.928358e+01 2.670368e+01 1.508070e+01 1.474236e+00 1.885323e+00 2.404326e+00 1.759054e+00 2.427530e+00 2.287802e+00 1.992123e+00 2.313153e+00 1.742431e+00 2.383836e+00 2.274994e+00 1.606691e+00 2.051555e-03
<GCONST> 8.881991e+01
<MIXTURE> 20 6.308331e-03
<MEAN> 25
 -1.415444e+01 7.427626e+00 8.438720e-01 6.143626e+00 4.778238e+00 1.534833e+00 5.192605e+00 8.515836e-01 9.083497e-01 7.626926e-01 2.546075e+00 -2.826112e-01 -3.265447e+00 -8.825076e-01 -1.569320e+00 3.100819e-01 1.524916e+00 2.061894e+00 1.974345e+00 2.033248e+00 2.113290e+00 2.021066e+00 1.681995e+00 9.471735e-01 4.737286e-02
<VARIANCE> 25
 1.958583e+01 2.326164e+01 3.066981e+01 3.682011e+01 3.095895e+01 2.866758e+01 2.967183e+01 3.119091e+01 2.772919e+01 2.806681e+01 2.497027e+01 2.075837e+01 2.113208e+00 2.187599e+00 1.894848e+00 2.569478e+00 2.704246e+00 2.294710e+00 2.290356e+00 2.350098e+00 2.310784e+00 2.661970e+00 2.220882e+00 1.848622e+00 1.868649e-03
<GCONST> 8.919322e+01
<MIXTURE> 21 7.928653e-03
<MEAN> 25
 3.759022e+00 -3.945967e+00 5.681388e+00 -9.440473e-01 -9.757283e+00 -9.063760e+00 -2.304202e+00 4.304359e+00 -1.903041e+00 -3.228477e+00 3.312135e-01 4.919365e-01 -7.540348e-01 1.207178e+00 2.502403e+00 8.909763e-02 -1.591518e+00 3.720698e-01 8.155452e-01 -1.366767e+00 -1.862432e+00 2.474848e-01 1.344649e+00 1.718339e-01 -1.459466e-02
<VARIANCE> 25
 9.141646e+00 2.044025e+01 2.882249e+01 2.950889e+01 3.153274e+01 3.956605e+01 4.019180e+01 3.927932e+01 4.029776e+01 2.915801e+01 3.034897e+01 2.204527e+01 4.712200e-01 1.029848e+00 1.783504e+00 1.424340e+00 2.041823e+00 2.117783e+00 3.858835e+00 2.567680e+00 2.460243e+00 2.492856e+00 1.874295e+00 2.246959e+00 4.657416e-04
<GCONST> 8.553784e+01
<MIXTURE> 22 8.827789e-03
<MEAN> 25
 -1.789061e+01 7.142075e+00 -4.128943e+00 7.377820e+00 4.575642e+00 2.720664e+00 8.394591e+00 1.714729e+00 5.350278e+00 3.279134e+00 5.689211e+00 1.194191e+00 -3.113611e-01 -2.212827e-01 -1.315378e-01 -1.542522e-01 -7.384323e-03 1.412193e-01 1.817032e-01 1.733779e-01 2.361677e-01 2.066536e-01 1.774705e-01 2.020773e-01 9.097200e-03
<VARIANCE> 25
 8.261108e+00 1.679032e+01 1.732263e+01 2.511126e+01 2.293267e+01 2.107124e+01 1.935186e+01 1.887162e+01 1.821870e+01 2.086070e+01 1.930542e+01 1.377059e+01 1.086239e+00 1.390096e+00 1.366194e+00 1.570576e+00 1.401975e+00 1.524632e+00 1.503581e+00 1.532337e+00 1.639882e+00 1.538399e+00 1.358058e+00 1.185474e+00 1.748629e-03
<GCONST> 7.838125e+01
<MIXTURE> 23 6.455497e-03
<MEAN> 25
 5.957828e+00 1.776460e+00 1.635952e+00 4.381083e+00 -3.128479e+00 1.974027e-01 -3.820105e+00 -7.301393e+00 -2.041000e+00 -2.298803e+00 -1.785291e+00 -5.071424e-01 9.581712e-02 1.930575e-01 -2.695532e-02 2.323506e-01 -7.556364e-02 -1.210747e-01 4.115300e-02 -1.594585e-01 -1.299450e-01 6.013596e-02 -1.100067e-01 -8.379798e-02 -6.146491e-03
<VARIANCE> 25
 1.119141e+01 1.800476e+01 2.121758e+01 3.376964e+01 2.874369e+01 5.482843e+01 4.253770e+01 3.962236e+01 4.320819e+01 3.272102e+01 3.444884e+01 3.242783e+01 1.467404e-01 2.299091e-01 2.795257e-01 5.397797e-01 6.140748e-01 6.187218e-01 6.139126e-01 8.170978e-01 9.023990e-01 8.811903e-01 6.733761e-01 9.629821e-01 1.184531e-04
<GCONST> 7.025065e+01
<MIXTURE> 24 6.455497e-03
<MEAN> 25
 5.957828e+00 1.776460e+00 1.635952e+00 4.381083e+00 -3.128479e+00 1.974027e-01 -3.820105e+00 -7.301393e+00 -2.041000e+00 -2.298803e+00 -1.785291e+00 -5.071424e-01 9.581712e-02 1.930575e-01 -2.695532e-02 2.323506e-01 -7.556364e-02 -1.210747e-01 4.115300e-02 -1.594585e-01 -1.299450e-01 6.013596e-02 -1.100067e-01 -8.379798e-02 -6.146491e-03
<VARIANCE> 25
 1.119141e+01 1.800476e+01 2.121758e+01 3.376964e+01 2.874369e+01 5.482843e+01 4.253770e+01 3.962236e+01 4.320819e+01 3.272102e+01 3.444884e+01 3.242783e+01 1.467404e-01 2.299091e-01 2.795257e-01 5.397797e-01 6.140748e-01 6.187218e-01 6.139126e-01 8.170978e-01 9.023990e-01 8.811903e-01 6.733761e-01 9.629821e-01 1.184531e-04
<GCONST> 7.025065e+01
<MIXTURE> 25 1.118642e-02
<MEAN> 25
 7.190717e-02 4.347530e+00 1.596614e+01 -7.597238e-01 -8.457461e+00 -1.649100e-01 -2.741812e+00 -4.394777e+00 -7.427275e+00 -5.097476e+00 4.703619e+00 -1.517750e+00 2.025118e-02 3.578269e-01 -2.554306e-03 2.882532e-01 1.219360e-01 5.698258e-02 1.770686e-01 -1.751078e-01 -2.912335e-01 7.319531e-02 1.717179e-02 -2.212482e-01 -1.386664e-02
<VARIANCE> 25
 6.461178e+00 2.227833e+01 1.532644e+01 3.237580e+01 2.778154e+01 4.469595e+01 3.466376e+01 2.683197e+01 2.557908e+01 2.930893e+01 2.114718e+01 1.905580e+01 6.522646e-01 1.515684e+00 1.332016e+00 1.934124e+00 3.042319e+00 1.617868e+00 2.492278e+00 2.094131e+00 1.352224e+00 1.574458e+00 1.445429e+00 1.048049e+00 9.515145e-04
<GCONST> 8.209594e+01
<MIXTURE> 26 7.727677e-03
<MEAN> 25
 1.275814e+00 -5.198897e+00 -8.676641e+00 -2.980442e+00 6.785387e+00 5.049506e+00 2.570510e+00 -8.187364e-03 2.888409e+00 -3.544885e-01 -2.124654e+00 -1.241401e+00 -1.822511e-01 5.702965e-01 2.380033e-01 1.037922e+00 6.214913e-02 2.910632e-01 2.038529e-01 -6.222737e-02 6.699345e-01 2.581139e-02 -2.532442e-03 3.933350e-01 -4.910934e-02
<VARIANCE> 25
 1.559216e+01 3.000829e+01 2.025640e+01 5.494214e+01 3.342313e+01 3.618274e+01 3.981635e+01 3.809116e+01 3.373626e+01 4.069015e+01 3.015688e+01 3.540400e+01 1.355220e+00 1.546205e+00 1.424737e+00 2.092716e+00 2.128471e+00 2.245938e+00 2.678322e+00 2.547494e+00 2.028554e+00 1.938781e+00 2.316060e+00 1.646711e+00 3.328845e-03
<GCONST> 9.004974e+01
<MIXTURE> 27 7.727677e-03
<MEAN> 25
 1.275814e+00 -5.198897e+00 -8.676641e+00 -2.980442e+00 6.785387e+00 5.049506e+00 2.570510e+00 -8.187364e-03 2.888409e+00 -3.544885e-01 -2.124654e+00 -1.241401e+00 -1.822511e-01 5.702965e-01 2.380033e-01 1.037922e+00 6.214913e-02 2.910632e-01 2.038529e-01 -6.222737e-02 6.699345e-01 2.581139e-02 -2.532442e-03 3.933350e-01 -4.910934e-02
<VARIANCE> 25
 1.559216e+01 3.000829e+01 2.025640e+01 5.494214e+01 3.342313e+01 3.618274e+01 3.981635e+01 3.809116e+01 3.373626e+01 4.069015e+01 3.015688e+01 3.540400e+01 1.355220e+00 1.546205e+00 1.424737e+00 2.092716e+00 2.128471e+00 2.245938e+00 2.678322e+00 2.547494e+00 2.028554e+00 1.938781e+00 2.316060e+00 1.646711e+00 3.328845e-03
<GCONST> 9.004974e+01
<MIXTURE> 28 5.036674e-03
<MEAN> 25
 -5.454262e+00 -6.733302e-02 -1.669113e+00 6.531806e+00 5.122275e+00 3.539221e+00 5.379345e+00 3.051572e+00 3.965670e+00 2.464138e+00 2.391769e+00 2.976066e+00 -1.093016e-01 1.966854e-01 5.144948e-01 7.948396e-01 8.604771e-01 6.794536e-01 4.853230e-01 3.512538e-01 4.744807e-01 5.085722e-01 3.583169e-01 1.490853e-01 -7.180244e-05
<VARIANCE> 25
 1.094577e+01 1.047190e+01 1.195029e+01 1.525161e+01 1.490858e+01 1.700349e+01 1.830078e+01 1.816484e+01 1.769930e+01 1.628853e+01 2.111366e+01 1.547230e+01 2.453195e-01 3.322910e-01 3.944741e-01 4.663906e-01 6.363335e-01 8.158865e-01 1.060028e+00 1.135564e+00 1.096539e+00 1.015477e+00 1.005781e+00 1.070202e+00 1.169473e-06
<GCONST> 6.054097e+01
<MIXTURE> 29 5.036674e-03
<MEAN> 25
 -5.454262e+00 -6.733302e-02 -1.669113e+00 6.531806e+00 5.122275e+00 3.539221e+00 5.379345e+00 3.051572e+00 3.965670e+00 2.464138e+00 2.391769e+00 2.976066e+00 -1.093016e-01 1.966854e-01 5.144948e-01 7.948396e-01 8.604771e-01 6.794536e-01 4.853230e-01 3.512538e-01 4.744807e-01 5.085722e-01 3.583169e-01 1.490853e-01 -7.180244e-05
<VARIANCE> 25
 1.094577e+01 1.047190e+01 1.195029e+01 1.525161e+01 1.490858e+01 1.700349e+01 1.830078e+01 1.816484e+01 1.769930e+01 1.628853e+01 2.111366e+01 1.547230e+01 2.453195e-01 3.322910e-01 3.944741e-01 4.663906e-01 6.363335e-01 8.158865e-01 1.060028e+00 1.135564e+00 1.096539e+00 1.015477e+00 1.005781e+00 1.070202e+00 1.169473e-06
<GCONST> 6.054097e+01
<MIXTURE> 30 8.917812e-03
<MEAN> 25
 -4.347025e+00 -8.149489e-02 -2.013620e-01 8.513319e+00 7.429737e+00 7.775485e+00 8.365754e+00 6.834229e+00 7.219801e+00 4.708713e+00 5.767139e+00 3.224727e+00 -6.578214e-02 1.942774e-02 8.446573e-02 1.906779e-01 1.365603e-01 1.287929e-01 -3.978757e-02 -6.948239e-02 -2.460866e-03 1.161851e-02 -2.358283e-02 1.813744e-02 -9.915184e-04
<VARIANCE> 25
 6.300402e+00 9.874039e+00 1.256265e+01 1.414514e+01 1.489851e+01 1.539385e+01 2.164931e+01 1.941401e+01 1.980284e+01 1.789374e+01 2.595383e+01 1.321209e+01 9.967617e-02 2.064667e-01 3.080608e-01 5.076975e-01 6.078535e-01 7.217854e-01 7.350802e-01 7.727503e-01 8.278101e-01 9.995418e-01 1.001396e+00 8.106802e-01 6.876286e-05
<GCONST> 6.133051e+01
<MIXTURE> 31 4.136493e-03
<MEAN> 25
 -3.302300e+00 -5.603862e+00 -8.050427e-02 4.840116e+00 3.693065e+00 1.666383e+00 5.115177e+00 6.476609e+00 2.776166e+00 1.296735e+00 6.369444e+00 3.097987e+00 2.512371e-01 4.674112e-01 -2.021911e-01 3.045167e-01 1.225663e-01 4.141011e-01 1.913808e-01 2.396561e-02 3.925290e-01 3.809860e-01 1.051587e-01 9.502130e-02 -1.808082e-02
<VARIANCE> 25
 7.481709e+00 1.630412e+01 1.792267e+01 1.798636e+01 2.518728e+01 2.455261e+01 2.508969e+01 2.692528e+01 2.651627e+01 2.842069e+01 2.107130e+01 1.879310e+01 1.919510e-01 4.926479e-01 6.006088e-01 7.740446e-01 9.637326e-01 1.096916e+00 1.211654e+00 1.411572e+00 1.346013e+00 1.307960e+00 1.261086e+00 1.130253e+00 2.627492e-04
<GCONST> 7.221899e+01
<MIXTURE> 32 4.136493e-03
<MEAN> 25
 -3.302300e+00 -5.603862e+00 -8.050427e-02 4.840116e+00 3.693065e+00 1.666383e+00 5.115177e+00 6.476609e+00 2.776166e+00 1.296735e+00 6.369444e+00 3.097987e+00 2.512371e-01 4.674112e-01 -2.021911e-01 3.045167e-01 1.225663e-01 4.141011e-01 1.913808e-01 2.396561e-02 3.925290e-01 3.809860e-01 1.051587e-01 9.502130e-02 -1.808082e-02
<VARIANCE> 25
 7.481709e+00 1.630412e+01 1.792267e+01 1.798636e+01 2.518728e+01 2.455261e+01 2.508969e+01 2.692528e+01 2.651627e+01 2.842069e+01 2.107130e+01 1.879310e+01 1.919510e-01 4.926479e-01 6.006088e-01 7.740446e-01 9.637326e-01 1.096916e+00 1.211654e+00 1.411572e+00 1.346013e+00 1.307960e+00 1.261086e+00 1.130253e+00 2.627492e-04
<GCONST> 7.221899e+01
<MIXTURE> 33 1.508826e-02
<MEAN> 25
 5.324138e+00 -3.712038e+00 -9.991023e-01 -3.190190e+00 -6.188341e-01 -4.776886e+00 -7.742111e+00 2.256210e+00 5.772634e-01 1.096984e+00 -3.511749e+00 -3.723959e+00 3.981619e-01 -1.009116e+00 -2.018757e+00 -2.101942e+00 1.411317e+00 1.271043e+00 -6.656498e-01 2.608669e-01 1.066917e+00 9.438725e-01 -3.948678e-02 -1.237603e+00 3.333876e-02
<VARIANCE> 25
 8.703930e+00 1.766258e+01 2.292342e+01 2.976015e+01 3.632699e+01 3.651401e+01 3.473658e+01 3.826972e+01 3.474815e+01 3.435275e+01 2.558809e+01 2.311847e+01 9.562051e-01 1.407685e+00 1.843989e+00 2.310044e+00 3.195035e+00 3.407874e+00 3.507325e+00 5.343844e+00 3.069132e+00 3.510145e+00 2.462540e+00 1.776770e+00 1.223040e-03
<GCONST> 8.956924e+01
<MIXTURE> 34 1.588179e-02
<MEAN> 25
 7.980042e+00 -8.668417e-01 2.480701e-01 1.419990e+00 -2.165588e+00 -9.313368e-01 -5.865494e+00 -3.755179e+00 -1.553660e+00 4.990534e-01 -2.128759e+00 -3.473761e+00 -8.334900e-02 1.241760e+00 1.416491e+00 2.453887e+00 -1.254177e-01 -2.903616e-01 8.089331e-01 -1.366693e+00 -8.487587e-01 3.795330e-02 -2.494005e-01 3.231617e-01 -5.795515e-02
<VARIANCE> 25
 9.173441e+00 3.428245e+01 2.526786e+01 4.695943e+01 4.000182e+01 4.326423e+01 5.812652e+01 4.976740e+01 4.384999e+01 4.336107e+01 4.127994e+01 3.002770e+01 1.255347e+00 1.810104e+00 4.166967e+00 3.564613e+00 4.777647e+00 5.341055e+00 5.062580e+00 5.774710e+00 4.918632e+00 4.356678e+00 5.902753e+00 3.282228e+00 1.300340e-03
<GCONST> 9.839310e+01
<MIXTURE> 35 1.467755e-02
<MEAN> 25
 -1.625832e+00 -5.650248e+00 -9.061766e+00 -8.287959e-01 8.089725e+00 1.563606e+00 -4.540083e-01 2.303192e+00 8.126146e-01 4.353344e+00 2.061334e-01 1.571019e+00 4.783424e-01 -1.188098e+00 -8.481016e-01 -1.564871e+00 5.111217e-01 -5.975761e-01 -1.140388e+00 4.224446e-01 -1.843370e-01 6.445577e-01 -3.865857e-01 -2.771313e-01 1.119042e-01
<VARIANCE> 25
 1.549921e+01 2.952531e+01 3.711403e+01 4.910111e+01 3.704259e+01 4.745091e+01 5.220195e+01 3.787406e+01 3.998431e+01 3.917286e+01 2.607750e+01 2.577591e+01 2.860666e+00 3.188591e+00 6.026886e+00 5.073258e+00 4.428792e+00 4.032983e+00 5.188548e+00 4.526088e+00 4.899864e+00 4.164243e+00 3.659602e+00 3.206650e+00 4.881534e-03
<GCONST> 1.003348e+02
<MIXTURE> 36 1.093293e-02
<MEAN> 25
 3.701836e+00 -3.624234e+00 7.016059e+00 2.351014e+00 -7.887303e+00 -8.013871e+00 -4.658953e+00 4.035791e+00 -3.751868e+00 -3.094821e+00 2.218298e+00 -7.308185e-01 2.910241e-01 2.363247e-01 -1.472326e+00 -3.791610e-02 1.306907e+00 -4.416697e-02 -6.831184e-01 -3.534365e-03 8.371581e-01 7.153403e-01 -7.114407e-01 -2.993847e-01 -2.430156e-02
<VARIANCE> 25
 6.439669e+00 2.101274e+01 2.104532e+01 3.000256e+01 3.059553e+01 2.964612e+01 3.639876e+01 3.353458e+01 2.766425e+01 2.731180e+01 2.199460e+01 2.183712e+01 3.189544e-01 7.887982e-01 1.352854e+00 1.061355e+00 1.788285e+00 1.774464e+00 2.309530e+00 1.252482e+00 1.656057e+00 1.496657e+00 1.269266e+00 1.083350e+00 8.118024e-04
<GCONST> 7.933032e+01
<MIXTURE> 37 1.246826e-02
<MEAN> 25
 -5.848832e-01 6.774482e+00 1.298559e+01 -3.948558e+00 -6.582417e+00 -6.319768e-01 -2.654498e+00 -7.962063e+00 -4.307597e+00 -5.483563e-01 -2.367770e+00 -1.345477e+00 2.425021e-01 6.728226e-01 -2.015573e+00 2.652906e+00 1.715639e+00 -1.236987e-01 1.058538e+00 1.806859e-01 8.528931e-01 -1.199399e-01 -8.625163e-02 3.272224e-01 -8.996376e-02
<VARIANCE> 25
 1.644480e+01 2.141565e+01 3.397268e+01 4.143155e+01 3.508366e+01 2.568345e+01 4.070006e+01 3.182260e+01 3.033152e+01 3.133061e+01 3.702880e+01 2.672824e+01 2.519782e+00 2.818963e+00 3.160223e+00 4.958079e+00 3.756026e+00 3.546590e+00 4.050133e+00 3.137937e+00 3.486878e+00 2.836668e+00 4.930478e+00 2.961088e+00 2.797858e-03
<GCONST> 9.572244e+01
<MIXTURE> 38 1.154525e-02
<MEAN> 25
 -4.752663e+00 7.829488e+00 4.630573e+00 3.196492e+00 5.821005e-01 -6.166569e+00 2.529235e-01 -3.142315e+00 -2.085103e+00 -2.768182e+00 -1.474588e+00 2.335838e-01 -4.352662e+00 1.025851e+00 -4.158171e-01 1.252509e+00 2.363393e+00 1.067579e+00 2.182634e+00 4.929974e-01 6.751259e-01 5.395436e-01 8.408825e-01 5.363234e-01 5.144564e-02
<VARIANCE> 25
 2.940924e+01 3.370433e+01 3.547816e+01 2.960557e+01 4.359232e+01 3.747962e+01 3.833380e+01 4.135731e+01 3.471591e+01 2.965952e+01 2.199842e+01 3.025283e+01 2.257456e+00 3.813484e+00 3.638186e+00 4.881538e+00 4.010518e+00 5.068716e+00 4.420928e+00 5.555704e+00 3.962766e+00 4.442358e+00 4.045548e+00 3.155692e+00 1.887867e-03
<GCONST> 9.839311e+01
<MIXTURE> 39 9.501865e-03
<MEAN> 25
 8.458059e-01 2.230716e+00 1.145271e+01 -7.573325e+00 -9.298173e+00 1.454740e+00 -2.608166e+00 -7.516376e+00 -5.530528e+00 2.750370e-01 -2.095001e+00 -2.282708e+00 -8.894907e-01 1.294315e+00 1.568432e+00 -1.613841e+00 2.793419e-01 1.487289e+00 -1.224486e+00 -8.559081e-01 4.106130e-01 3.655277e-01 -5.075221e-01 4.431493e-02 6.691658e-03
<VARIANCE> 25
 7.456552e+00 2.934478e+01 2.860407e+01 3.743200e+01 3.664568e+01 4.971725e+01 4.460440e+01 2.791030e+01 3.307762e+01 2.907226e+01 3.248565e+01 2.224111e+01 7.415891e-01 1.350328e+00 1.710755e+00 2.815523e+00 2.533660e+00 2.900473e+00 5.515646e+00 2.917682e+00 2.196186e+00 2.060964e+00 1.670383e+00 1.941929e+00 1.151164e-03
<GCONST> 8.866309e+01
<MIXTURE> 40 1.030800e-02
<MEAN> 25
 -5.650852e+00 3.116513e+00 -3.375305e+00 5.463583e+00 2.424482e+00 5.351881e+00 6.277274e+00 4.230364e+00 6.033634e+00 3.061682e+00 3.879954e+00 2.296518e+00 -8.224582e-02 -2.133417e-01 6.660627e-02 -2.016804e-01 -1.520627e-01 -1.414352e-01 8.322256e-02 1.635740e-01 -2.959525e-02 4.132301e-02 9.595796e-02 -1.547880e-02 5.020275e-03
<VARIANCE> 25
 3.332961e+01 1.562277e+01 2.159883e+01 2.848229e+01 2.083776e+01 1.474903e+01 1.710889e+01 2.058365e+01 1.814126e+01 1.537420e+01 1.733633e+01 1.281095e+01 5.196093e-01 6.744850e-01 6.812153e-01 9.297878e-01 1.380253e+00 1.233782e+00 1.227009e+00 1.142080e+00 1.246246e+00 1.370816e+00 1.233342e+00 8.788952e-01 5.956003e-04
<GCONST> 7.380490e+01
<MIXTURE> 41 6.713375e-03
<MEAN> 25
 1.127977e+00 1.790374e+00 1.047957e+01 -6.046696e+00 -9.485028e+00 -3.228964e+00 -1.967286e+00 -5.310939e+00 -4.760254e+00 2.432463e+00 -1.418880e+00 -1.098338e+00 -1.397335e-01 -7.370755e-01 1.911301e+00 -3.364953e+00 -2.234331e+00 -3.244602e-02 -4.996341e-01 -3.283547e-01 -8.417816e-01 1.035426e+00 -8.584957e-01 1.607764e-01 8.355754e-02
<VARIANCE> 25
 1.087518e+01 3.109738e+01 3.306416e+01 4.165742e+01 3.892479e+01 4.160308e+01 4.012980e+01 2.924863e+01 3.003920e+01 2.631714e+01 2.837022e+01 2.463680e+01 3.132322e+00 3.055657e+00 3.684221e+00 3.857640e+00 4.590171e+00 6.225884e+00 5.675044e+00 4.058290e+00 3.982502e+00 3.770562e+00 3.679033e+00 2.964023e+00 2.735453e-03
<GCONST> 9.727775e+01
<MIXTURE> 42 1.106211e-02
<MEAN> 25
 -2.572445e+00 4.067611e+00 6.369714e+00 3.708436e+00 1.694766e-01 -8.267217e+00 5.477276e-01 -2.653712e+00 -2.400438e+00 -6.930303e-01 -1.661100e+00 2.167274e+00 3.327341e+00 -1.305577e-01 1.886924e+00 1.306717e-01 -2.238617e+00 -6.941227e-01 -1.827005e+00 -4.269860e-01 -1.184873e+00 -4.749473e-01 5.245321e-01 -1.443965e+00 1.790989e-02
<VARIANCE> 25
 2.746365e+01 1.629911e+01 5.065531e+01 2.672807e+01 3.302812e+01 5.154019e+01 3.106803e+01 3.107244e+01 3.137592e+01 1.912977e+01 1.598689e+01 1.343432e+01 2.742246e+00 3.150424e+00 5.102334e+00 3.658395e+00 4.190838e+00 4.339568e+00 4.571942e+00 3.914571e+00 4.631934e+00 4.534325e+00 2.981807e+00 2.429739e+00 3.307438e-03
<GCONST> 9.552248e+01
<MIXTURE> 43 7.108249e-03
<MEAN> 25
 3.009189e+00 -5.886340e+00 -2.552188e+00 -4.889504e+00 -7.044552e+00 -2.797061e+00 4.208975e+00 1.575074e+00 -4.632278e+00 -6.962566e+00 -4.281873e+00 -1.078144e+00 2.201196e-01 2.076204e+00 1.848943e+00 2.125711e-02 -1.382795e+00 -8.827072e-01 -9.318339e-01 -7.827097e-01 8.198043e-01 1.322827e+00 3.280453e-01 -5.234640e-02 -4.540952e-02
<VARIANCE> 25
 9.782160e+00 2.355224e+01 2.782493e+01 3.636831e+01 3.713381e+01 3.795312e+01 3.134616e+01 3.914294e+01 3.903655e+01 3.673197e+01 2.475386e+01 2.800897e+01 6.452044e-01 1.256907e+00 1.529970e+00 2.606431e+00 2.242937e+00 2.405249e+00 2.495486e+00 2.909700e+00 2.806788e+00 2.675908e+00 2.676894e+00 1.916118e+00 8.902575e-04
<GCONST> 8.794814e+01
<MIXTURE> 44 7.328289e-03
<MEAN> 25
 -1.318053e+01 1.505082e+00 2.544933e+00 -3.804898e+00 3.394931e+00 1.472415e+00 1.527527e-01 2.241514e+00 1.524980e+00 -1.012661e+00 1.386461e+00 2.273538e+00 -1.833611e-01 2.905310e-02 2.541832e-01 3.102400e-01 -1.184377e-01 2.333022e-01 4.776513e-01 1.683205e-01 1.692490e-01 1.251273e-01 8.277755e-02 6.106608e-02 3.975276e-03
<VARIANCE> 25
 4.900829e+01 2.762821e+01 3.347923e+01 3.191684e+01 2.668357e+01 3.515981e+01 2.377147e+01 2.980543e+01 2.554044e+01 2.284989e+01 2.563280e+01 1.756877e+01 1.072387e+00 2.046956e+00 1.445922e+00 1.250894e+00 1.868300e+00 1.520101e+00 1.340993e+00 1.471715e+00 1.468088e+00 1.451483e+00 1.168151e+00 1.094626e+00 1.244121e-03
<GCONST> 8.343371e+01
<MIXTURE> 45 1.364932e-02
<MEAN> 25
 -1.039375e+01 2.278451e+00 -5.177023e-01 1.459523e+00 3.084653e+00 -3.550477e+00 4.928814e+00 4.208598e-01 1.747295e+00 1.229569e+00 1.811560e+00 3.804686e+00 -2.530234e+00 2.912529e-01 -1.977437e-01 -6.404383e-01 2.620087e-01 -2.635804e-01 9.649906e-01 -1.128751e-01 -3.806084e-01 1.051212e-01 3.431779e-01 8.151739e-01 9.807381e-02
<VARIANCE> 25
 2.617551e+01 2.436893e+01 2.376539e+01 2.800188e+01 2.887172e+01 3.242853e+01 2.166600e+01 2.308873e+01 1.806873e+01 1.846392e+01 2.388652e+01 1.408472e+01 1.784497e+00 2.898240e+00 3.905763e+00 2.185031e+00 1.735112e+00 2.510100e+00 1.990720e+00 2.413192e+00 1.636775e+00 1.748285e+00 1.492328e+00 1.729117e+00 2.835782e-03
<GCONST> 8.655299e+01
<MIXTURE> 46 9.336259e-03
<MEAN> 25
 -9.166254e+00 2.044882e+00 1.060415e+00 7.375391e+00 5.817518e+00 2.928856e+00 6.692391e+00 4.263548e+00 5.514772e+00 4.702374e+00 4.826727e+00 2.839934e+00 1.051160e+00 -1.392241e-01 1.982999e-02 9.814192e-01 5.463699e-01 9.200804e-01 4.054621e-01 6.215752e-01 4.997854e-01 4.490426e-01 5.931776e-01 4.740325e-01 -1.027832e-01
<VARIANCE> 25
 3.438638e+01 4.490262e+01 3.774607e+01 4.995753e+01 4.906323e+01 4.378305e+01 3.818687e+01 3.578859e+01 3.250718e+01 2.992180e+01 2.809074e+01 2.090177e+01 3.781749e+00 4.191641e+00 3.835467e+00 4.096939e+00 4.043012e+00 3.649645e+00 3.289536e+00 3.138517e+00 3.014677e+00 2.807282e+00 2.288910e+00 1.779601e+00 7.797016e-03
<GCONST> 9.820905e+01
<MIXTURE> 47 7.116147e-03
<MEAN> 25
 5.655440e+00 -6.608674e+00 -6.418102e+00 -7.644759e+00 2.018493e+00 1.607982e+00 -2.895508e+00 1.063436e+00 3.044280e+00 1.356373e+00 -3.150411e+00 -6.614448e+00 -2.478282e-01 -1.174773e+00 -6.765504e-01 -6.044784e-01 5.181417e-01 7.104571e-01 1.213935e+00 1.890866e-01 2.507741e-01 -6.485723e-01 -5.142501e-01 -3.533846e-01 3.207638e-02
<VARIANCE> 25
 1.192106e+01 2.264102e+01 1.735745e+01 3.159507e+01 2.797227e+01 4.224089e+01 4.178294e+01 3.083405e+01 3.226849e+01 3.883458e+01 3.767652e+01 2.599972e+01 4.854072e-01 6.763427e-01 9.197170e-01 2.023365e+00 1.987253e+00 2.005060e+00 2.439102e+00 2.204228e+00 1.847990e+00 1.682294e+00 1.965617e+00 1.690586e+00 8.463362e-04
<GCONST> 8.394048e+01
<MIXTURE> 48 7.116147e-03
<MEAN> 25
 5.655440e+00 -6.608674e+00 -6.418102e+00 -7.644759e+00 2.018493e+00 1.607982e+00 -2.895508e+00 1.063436e+00 3.044280e+00 1.356373e+00 -3.150411e+00 -6.614448e+00 -2.478282e-01 -1.174773e+00 -6.765504e-01 -6.044784e-01 5.181417e-01 7.104571e-01 1.213935e+00 1.890866e-01 2.507741e-01 -6.485723e-01 -5.142501e-01 -3.533846e-01 3.207638e-02
<VARIANCE> 25
 1.192106e+01 2.264102e+01 1.735745e+01 3.159507e+01 2.797227e+01 4.224089e+01 4.178294e+01 3.083405e+01 3.226849e+01 3.883458e+01 3.767652e+01 2.599972e+01 4.854072e-01 6.763427e-01 9.197170e-01 2.023365e+00 1.987253e+00 2.005060e+00 2.439102e+00 2.204228e+00 1.847990e+00 1.682294e+00 1.965617e+00 1.690586e+00 8.463362e-04
<GCONST> 8.394048e+01
<MIXTURE> 49 5.548473e-03
<MEAN> 25
 -4.677797e+00 6.757188e-01 -4.773711e-01 7.827932e+00 5.642295e+00 5.708451e+00 6.289274e+00 4.110417e+00 5.359275e+00 3.473202e+00 4.275925e+00 2.738281e+00 3.600236e-01 6.551362e-01 6.615412e-01 2.941928e-01 -2.464503e-01 -6.523722e-01 -9.376997e-01 -1.106451e+00 -9.927431e-01 -7.886265e-01 -5.889720e-01 -3.377366e-01 -2.047059e-04
<VARIANCE> 25
 1.037772e+01 1.235419e+01 1.584602e+01 1.723948e+01 1.623570e+01 1.558330e+01 1.848047e+01 1.931271e+01 1.764831e+01 1.737351e+01 2.173273e+01 1.312623e+01 2.563916e-01 2.431970e-01 3.557150e-01 5.936092e-01 1.015166e+00 9.465167e-01 1.030895e+00 1.018787e+00 1.080057e+00 1.311670e+00 1.296670e+00 1.179538e+00 1.580340e-05
<GCONST> 6.459760e+01
<MIXTURE> 50 6.234641e-03
<MEAN> 25
 -4.540010e+00 2.255879e-01 -1.580866e+00 6.077278e+00 4.065287e+00 2.271491e+00 3.715046e+00 1.891704e+00 2.975619e+00 1.406040e+00 1.867117e+00 2.809147e+00 5.465302e-02 1.674133e-01 8.893624e-02 -1.830720e-01 -4.526303e-01 -5.812805e-01 -4.175895e-01 -6.916765e-02 4.235895e-01 7.816750e-01 7.348467e-01 4.744485e-01 -4.975340e-05
<VARIANCE> 25
 1.037286e+01 1.159826e+01 1.408354e+01 1.529524e+01 1.539097e+01 1.866363e+01 1.853166e+01 1.932967e+01 1.856926e+01 1.669239e+01 2.225521e+01 1.459491e+01 1.410559e-01 2.338575e-01 3.608181e-01 5.199251e-01 6.332946e-01 7.345358e-01 9.531497e-01 1.093659e+00 1.031715e+00 9.160595e-01 9.600610e-01 9.615043e-01 1.110319e-06
<GCONST> 5.951452e+01
<MIXTURE> 51 6.234641e-03
<MEAN> 25
 -4.540010e+00 2.255879e-01 -1.580866e+00 6.077278e+00 4.065287e+00 2.271491e+00 3.715046e+00 1.891704e+00 2.975619e+00 1.406040e+00 1.867117e+00 2.809147e+00 5.465302e-02 1.674133e-01 8.893624e-02 -1.830720e-01 -4.526303e-01 -5.812805e-01 -4.175895e-01 -6.916765e-02 4.235895e-01 7.816750e-01 7.348467e-01 4.744485e-01 -4.975340e-05
<VARIANCE> 25
 1.037286e+01 1.159826e+01 1.408354e+01 1.529524e+01 1.539097e+01 1.866363e+01 1.853166e+01 1.932967e+01 1.856926e+01 1.669239e+01 2.225521e+01 1.459491e+01 1.410559e-01 2.338575e-01 3.608181e-01 5.199251e-01 6.332946e-01 7.345358e-01 9.531497e-01 1.093659e+00 1.031715e+00 9.160595e-01 9.600610e-01 9.615043e-01 1.110319e-06
<GCONST> 5.951452e+01
<MIXTURE> 52 6.367945e-03
<MEAN> 25
 9.134574e+00 1.608075e+00 -5.212512e+00 -1.317905e+01 -3.220583e+00 8.929072e+00 -3.353953e+00 -2.407384e+00 -4.738881e+00 -2.603199e+00 3.792859e+00 3.483957e-01 -4.126412e-01 -5.232613e-01 -3.885474e-02 1.206485e+00 1.112304e+00 -4.013541e-01 -6.900799e-01 -8.040540e-01 1.129085e-01 1.153363e+00 5.968562e-01 -3.603674e-01 -9.821397e-03
<VARIANCE> 25
 1.121702e+01 1.750750e+01 2.134352e+01 3.123873e+01 4.102259e+01 2.498760e+01 3.856126e+01 3.898090e+01 3.789554e+01 3.959843e+01 3.661589e+01 2.512591e+01 3.911604e-01 1.452210e+00 1.052144e+00 2.586729e+00 1.883049e+00 2.291269e+00 3.071115e+00 2.617362e+00 2.623054e+00 2.518301e+00 2.392891e+00 2.012969e+00 1.413335e-03
<GCONST> 8.699532e+01
<MIXTURE> 53 6.367945e-03
<MEAN> 25
 9.134574e+00 1.608075e+00 -5.212512e+00 -1.317905e+01 -3.220583e+00 8.929072e+00 -3.353953e+00 -2.407384e+00 -4.738881e+00 -2.603199e+00 3.792859e+00 3.483957e-01 -4.126412e-01 -5.232613e-01 -3.885474e-02 1.206485e+00 1.112304e+00 -4.013541e-01 -6.900799e-01 -8.040540e-01 1.129085e-01 1.153363e+00 5.968562e-01 -3.603674e-01 -9.821397e-03
<VARIANCE> 25
 1.121702e+01 1.750750e+01 2.134352e+01 3.123873e+01 4.102259e+01 2.498760e+01 3.856126e+01 3.898090e+01 3.789554e+01 3.959843e+01 3.661589e+01 2.512591e+01 3.911604e-01 1.452210e+00 1.052144e+00 2.586729e+00 1.883049e+00 2.291269e+00 3.071115e+00 2.617362e+00 2.623054e+00 2.518301e+00 2.392891e+00 2.012969e+00 1.413335e-03
<GCONST> 8.699532e+01
<MIXTURE> 54 7.368620e-03
<MEAN> 25
 -3.572075e+00 2.099933e-01 -7.757205e-01 7.918687e+00 6.238051e+00 4.657246e+00 4.711839e+00 4.520823e+00 4.256347e+00 3.562220e+00 4.191245e+00 2.299553e+00 -6.535476e-03 2.520640e-02 2.343607e-02 5.170801e-02 4.646464e-02 3.041272e-02 1.598137e-02 1.942293e-02 2.992049e-02 2.518929e-03 -1.820674e-03 -6.697982e-03 -6.991774e-05
<VARIANCE> 25
 8.852761e+00 1.059792e+01 9.137118e+00 1.802520e+01 1.432790e+01 1.300887e+01 1.155507e+01 1.104143e+01 1.210846e+01 1.314831e+01 1.870803e+01 1.206005e+01 4.116463e-02 8.846165e-02 1.520130e-01 2.241080e-01 3.109027e-01 3.933586e-01 4.636403e-01 5.102042e-01 5.393701e-01 5.335974e-01 5.285077e-01 5.695230e-01 1.054927e-06
<GCONST> 4.741225e+01
<MIXTURE> 55 7.368620e-03
<MEAN> 25
 -3.572075e+00 2.099933e-01 -7.757205e-01 7.918687e+00 6.238051e+00 4.657246e+00 4.711839e+00 4.520823e+00 4.256347e+00 3.562220e+00 4.191245e+00 2.299553e+00 -6.535476e-03 2.520640e-02 2.343607e-02 5.170801e-02 4.646464e-02 3.041272e-02 1.598137e-02 1.942293e-02 2.992049e-02 2.518929e-03 -1.820674e-03 -6.697982e-03 -6.991774e-05
<VARIANCE> 25
 8.852761e+00 1.059792e+01 9.137118e+00 1.802520e+01 1.432790e+01 1.300887e+01 1.155507e+01 1.104143e+01 1.210846e+01 1.314831e+01 1.870803e+01 1.206005e+01 4.116463e-02 8.846165e-02 1.520130e-01 2.241080e-01 3.109027e-01 3.933586e-01 4.636403e-01 5.102042e-01 5.393701e-01 5.335974e-01 5.285077e-01 5.695230e-01 1.054927e-06
<GCONST> 4.741225e+01
<MIXTURE> 56 6.132464e-03
<MEAN> 25
 5.200707e+00 -5.211306e+00 -7.993038e+00 -7.154769e+00 3.470460e+00 4.321601e+00 -3.144797e+00 -6.297326e-01 3.579586e+00 1.515064e+00 -1.965035e+00 -5.964281e+00 -2.825301e-02 3.020269e-02 -4.677523e-02 -9.019967e-03 1.518371e-01 1.998007e-02 1.305275e-01 -2.510715e-01 -1.328413e-01 -2.504553e-03 -5.253912e-02 1.721511e-02 -1.047617e-02
<VARIANCE> 25
 1.033637e+01 2.349764e+01 1.708373e+01 3.628007e+01 2.395647e+01 3.712618e+01 5.030702e+01 2.554278e+01 3.757381e+01 3.053151e+01 2.712470e+01 2.266142e+01 1.577609e-01 3.915146e-01 4.715530e-01 7.443107e-01 7.023695e-01 1.282289e+00 9.922323e-01 7.726874e-01 8.988699e-01 8.858702e-01 9.782382e-01 6.862910e-01 2.681315e-04
<GCONST> 7.223209e+01
<MIXTURE> 57 6.132464e-03
<MEAN> 25
 5.200707e+00 -5.211306e+00 -7.993038e+00 -7.154769e+00 3.470460e+00 4.321601e+00 -3.144797e+00 -6.297326e-01 3.579586e+00 1.515064e+00 -1.965035e+00 -5.964281e+00 -2.825301e-02 3.020269e-02 -4.677523e-02 -9.019967e-03 1.518371e-01 1.998007e-02 1.305275e-01 -2.510715e-01 -1.328413e-01 -2.504553e-03 -5.253912e-02 1.721511e-02 -1.047617e-02
<VARIANCE> 25
 1.033637e+01 2.349764e+01 1.708373e+01 3.628007e+01 2.395647e+01 3.712618e+01 5.030702e+01 2.554278e+01 3.757381e+01 3.053151e+01 2.712470e+01 2.266142e+01 1.577609e-01 3.915146e-01 4.715530e-01 7.443107e-01 7.023695e-01 1.282289e+00 9.922323e-01 7.726874e-01 8.988699e-01 8.858702e-01 9.782382e-01 6.862910e-01 2.681315e-04
<GCONST> 7.223209e+01
<MIXTURE> 58 6.172147e-03
<MEAN> 25
 1.890082e+00 -4.237919e+00 8.190782e+00 -4.068512e+00 -1.213966e+01 -6.921823e+00 1.599120e+00 3.610463e+00 -4.686686e+00 2.103388e+00 1.732794e+00 -2.162803e-01 -9.358682e-02 -1.241336e-01 -6.680620e-02 -2.731969e-01 -1.349274e-01 -2.094491e-02 5.252407e-01 2.782964e-01 -5.318194e-02 -2.465282e-03 -6.770564e-02 -1.051096e-01 4.600452e-04
<VARIANCE> 25
 5.723811e+00 1.590574e+01 2.276676e+01 2.272727e+01 2.368120e+01 3.713918e+01 3.185964e+01 4.181285e+01 3.549675e+01 2.517399e+01 2.001198e+01 1.684584e+01 2.897859e-01 6.677430e-01 6.175154e-01 1.053430e+00 9.016477e-01 9.530382e-01 1.683147e+00 1.540882e+00 9.534740e-01 9.930920e-01 7.936676e-01 9.503330e-01 8.297253e-04
<GCONST> 7.459462e+01
<MIXTURE> 59 6.172147e-03
<MEAN> 25
 1.890082e+00 -4.237919e+00 8.190782e+00 -4.068512e+00 -1.213966e+01 -6.921823e+00 1.599120e+00 3.610463e+00 -4.686686e+00 2.103388e+00 1.732794e+00 -2.162803e-01 -9.358682e-02 -1.241336e-01 -6.680620e-02 -2.731969e-01 -1.349274e-01 -2.094491e-02 5.252407e-01 2.782964e-01 -5.318194e-02 -2.465282e-03 -6.770564e-02 -1.051096e-01 4.600452e-04
<VARIANCE> 25
 5.723811e+00 1.590574e+01 2.276676e+01 2.272727e+01 2.368120e+01 3.713918e+01 3.185964e+01 4.181285e+01 3.549675e+01 2.517399e+01 2.001198e+01 1.684584e+01 2.897859e-01 6.677430e-01 6.175154e-01 1.053430e+00 9.016477e-01 9.530382e-01 1.683147e+00 1.540882e+00 9.534740e-01 9.930920e-01 7.936676e-01 9.503330e-01 8.297253e-04
<GCONST> 7.459462e+01
<MIXTURE> 60 4.479129e-03
<MEAN> 25
 -3.611494e+00 6.013289e-02 -1.915195e+00 3.235896e+00 1.189804e+00 2.318998e+00 1.971794e+00 1.422137e+00 2.932465e+00 1.185812e+00 1.744685e+00 1.598589e+00 -3.852153e-02 1.570326e-02 1.030260e-01 1.268363e-01 1.570057e-01 7.565705e-02 1.592695e-01 2.721398e-01 5.556114e-01 7.115328e-01 5.604016e-01 3.621790e-01 -6.334321e-04
<VARIANCE> 25
 7.541270e+00 6.778950e+00 1.191376e+01 1.187805e+01 1.365744e+01 1.588685e+01 1.586947e+01 1.217125e+01 1.333984e+01 1.167330e+01 1.598077e+01 1.250403e+01 8.352549e-02 1.617503e-01 2.479999e-01 4.349284e-01 5.948977e-01 7.073510e-01 7.953714e-01 9.277269e-01 8.173398e-01 8.068169e-01 7.733119e-01 8.159761e-01 2.761331e-05
<GCONST> 5.674750e+01
<MIXTURE> 61 4.479129e-03
<MEAN> 25
 -3.611494e+00 6.013289e-02 -1.915195e+00 3.235896e+00 1.189804e+00 2.318998e+00 1.971794e+00 1.422137e+00 2.932465e+00 1.185812e+00 1.744685e+00 1.598589e+00 -3.852153e-02 1.570326e-02 1.030260e-01 1.268363e-01 1.570057e-01 7.565705e-02 1.592695e-01 2.721398e-01 5.556114e-01 7.115328e-01 5.604016e-01 3.621790e-01 -6.334321e-04
<VARIANCE> 25
 7.541270e+00 6.778950e+00 1.191376e+01 1.187805e+01 1.365744e+01 1.588685e+01 1.586947e+01 1.217125e+01 1.333984e+01 1.167330e+01 1.598077e+01 1.250403e+01 8.352549e-02 1.617503e-01 2.479999e-01 4.349284e-01 5.948977e-01 7.073510e-01 7.953714e-01 9.277269e-01 8.173398e-01 8.068169e-01 7.733119e-01 8.159761e-01 2.761331e-05
<GCONST> 5.674750e+01
<MIXTURE> 62 3.278034e-03
<MEAN> 25
 -4.775330e+00 1.110269e+00 3.753336e-01 8.614467e+00 6.174384e+00 5.090787e+00 5.326019e+00 3.926023e+00 5.696924e+00 3.824512e+00 4.241167e+00 2.950616e+00 -9.555025e-01 -1.196506e+00 -9.984267e-01 -1.978539e-01 5.506665e-01 9.069607e-01 1.459988e+00 1.529299e+00 1.424370e+00 1.166229e+00 1.035811e+00 7.550171e-01 -1.197926e-03
<VARIANCE> 25
 1.013930e+01 9.527433e+00 1.627015e+01 1.667114e+01 1.675042e+01 1.619884e+01 1.889438e+01 1.799686e+01 2.300096e+01 1.747290e+01 2.529847e+01 1.364170e+01 3.904436e-01 4.177850e-01 5.607880e-01 8.076273e-01 1.212833e+00 1.268997e+00 1.220564e+00 1.262380e+00 1.280617e+00 1.356834e+00 1.298049e+00 1.312554e+00 1.527599e-05
<GCONST> 6.764729e+01
<MIXTURE> 63 4.351215e-03
<MEAN> 25
 -2.391691e+00 1.053122e+00 -5.926168e+00 2.016681e+00 1.289771e+00 1.045542e+00 3.447985e+00 1.063048e+00 4.241752e+00 -9.188167e-01 -1.932129e+00 1.213749e+00 -1.728259e-01 1.677499e-01 3.045969e-01 5.418738e-01 4.064766e-01 2.107341e-01 3.644201e-01 1.965220e-01 2.448542e-01 2.951734e-01 2.537918e-01 1.366841e-01 -4.551958e-03
<VARIANCE> 25
 8.404732e+00 1.874799e+01 1.149119e+01 1.683821e+01 1.717537e+01 3.727203e+01 2.539463e+01 2.415793e+01 2.049500e+01 1.750845e+01 1.381483e+01 1.501424e+01 1.951142e-01 3.710144e-01 4.522339e-01 7.710829e-01 9.729519e-01 1.179730e+00 1.163156e+00 1.311357e+00 1.160548e+00 1.246562e+00 1.057557e+00 1.028670e+00 1.970053e-04
<GCONST> 6.917262e+01
<MIXTURE> 64 4.351215e-03
<MEAN> 25
 -2.391691e+00 1.053122e+00 -5.926168e+00 2.016681e+00 1.289771e+00 1.045542e+00 3.447985e+00 1.063048e+00 4.241752e+00 -9.188167e-01 -1.932129e+00 1.213749e+00 -1.728259e-01 1.677499e-01 3.045969e-01 5.418738e-01 4.064766e-01 2.107341e-01 3.644201e-01 1.965220e-01 2.448542e-01 2.951734e-01 2.537918e-01 1.366841e-01 -4.551958e-03
<VARIANCE> 25
 8.404732e+00 1.874799e+01 1.149119e+01 1.683821e+01 1.717537e+01 3.727203e+01 2.539463e+01 2.415793e+01 2.049500e+01 1.750845e+01 1.381483e+01 1.501424e+01 1.951142e-01 3.710144e-01 4.522339e-01 7.710829e-01 9.729519e-01 1.179730e+00 1.163156e+00 1.311357e+00 1.160548e+00 1.246562e+00 1.057557e+00 1.028670e+00 1.970053e-04
<GCONST> 6.917262e+01
<MIXTURE> 65 1.721197e-02
<MEAN> 25
 5.898479e+00 2.397786e+00 7.481529e-01 1.823904e+00 -3.531246e+00 -1.934208e+00 -4.784162e+00 -7.038126e+00 -2.673091e+00 -2.143363e+00 -3.509883e+00 -5.159515e-01 1.718258e-01 2.218438e-01 -1.489781e-01 2.825790e-01 -2.291635e-01 1.945080e-01 -1.762781e-01 -1.856146e-01 3.499815e-01 4.340881e-03 -3.810127e-02 -1.426600e-01 -9.301571e-03
<VARIANCE> 25
 1.282904e+01 1.672918e+01 1.981969e+01 3.518788e+01 3.489192e+01 6.096893e+01 4.711008e+01 4.847541e+01 4.135537e+01 4.662759e+01 4.385582e+01 4.149607e+01 4.636779e-01 7.921361e-01 1.234256e+00 1.885218e+00 1.650457e+00 2.214257e+00 2.294278e+00 3.343802e+00 2.388605e+00 2.027178e+00 1.671783e+00 2.121130e+00 4.011975e-04
<GCONST> 8.652879e+01
<MIXTURE> 66 1.191532e-02
<MEAN> 25
 5.741083e+00 -4.458840e+00 -4.011913e+00 -4.347814e+00 1.700375e+00 -3.075118e+00 -7.321322e+00 1.970198e+00 2.814806e-01 7.221230e-01 -5.028333e+00 -3.519216e+00 -4.769744e-02 1.531619e+00 1.641817e+00 2.527922e+00 -9.857931e-01 -1.227414e+00 2.440437e-01 -3.124871e-01 -1.991853e-01 -3.898268e-01 -5.004413e-02 7.932907e-01 -6.535915e-02
<VARIANCE> 25
 8.435410e+00 2.669688e+01 2.579509e+01 2.702585e+01 3.354909e+01 4.748403e+01 5.367749e+01 3.397277e+01 4.721909e+01 6.810216e+01 3.015897e+01 3.083426e+01 9.697968e-01 1.870844e+00 2.398180e+00 2.040539e+00 3.456076e+00 3.579478e+00 3.889140e+00 4.030708e+00 3.642887e+00 3.794218e+00 3.932160e+00 2.479981e+00 1.301249e-03
<GCONST> 9.341413e+01
<MIXTURE> 67 1.559142e-02
<MEAN> 25
 7.609118e+00 1.880689e+00 -5.583948e+00 -7.908489e+00 1.949503e+00 3.209527e+00 -3.930120e+00 -1.468185e+00 -3.470329e+00 1.877966e+00 1.416275e-01 -9.772818e-01 -9.357112e-01 1.681397e+00 7.200165e-01 2.947420e+00 1.018715e+00 -5.594199e-01 1.523841e+00 -1.940045e-01 6.432475e-01 5.858602e-02 -3.195362e-01 4.699855e-01 -1.234791e-01
<VARIANCE> 25
 1.464337e+01 3.292731e+01 2.707979e+01 4.707729e+01 4.452538e+01 4.624156e+01 5.465388e+01 4.537269e+01 5.697837e+01 5.448776e+01 4.561182e+01 4.230290e+01 1.805256e+00 2.896286e+00 3.083117e+00 3.778989e+00 4.435205e+00 3.921662e+00 4.121113e+00 4.488148e+00 5.415954e+00 4.097515e+00 4.340022e+00 3.170833e+00 2.763290e-03
<GCONST> 1.000408e+02
<MIXTURE> 68 1.485092e-02
<MEAN> 25
 -1.536245e+00 -2.211124e+00 -3.786149e+00 3.684469e-01 5.416613e+00 1.334234e-01 1.672549e+00 2.170238e+00 1.112957e+00 1.408945e+00 3.206943e-01 2.268597e+00 2.720692e+00 9.553453e-01 -6.379259e-02 -2.424788e+00 -2.138065e+00 -1.029020e+00 -2.505451e+00 -1.268968e+00 -1.687648e+00 -1.123214e+00 -1.515026e+00 -9.135240e-01 9.065723e-02
<VARIANCE> 25
 2.295907e+01 2.846831e+01 5.034024e+01 5.445261e+01 4.076863e+01 5.287609e+01 4.088316e+01 3.380710e+01 3.730167e+01 3.667543e+01 3.106115e+01 2.390434e+01 1.608533e+00 3.769667e+00 5.949663e+00 5.164872e+00 4.055223e+00 5.569965e+00 5.581365e+00 4.806554e+00 4.066305e+00 5.380435e+00 4.718195e+00 2.949498e+00 5.575218e-03
<GCONST> 1.012475e+02
<MIXTURE> 69 1.204884e-02
<MEAN> 25
 4.569607e+00 -4.164734e+00 -3.586477e+00 -3.686322e+00 -3.320938e+00 -7.471691e+00 -1.026226e+00 2.208744e+00 -2.689947e-01 -4.538903e+00 -5.571600e+00 7.883007e-01 1.609035e+00 -2.192986e+00 -1.279441e+00 -2.213836e+00 -5.492863e-01 -3.676356e-01 -4.676054e-01 6.316228e-01 -6.498775e-01 -1.377512e+00 -2.111570e+00 -1.587861e-01 6.330857e-02
<VARIANCE> 25
 8.791096e+00 2.300648e+01 2.761992e+01 2.579413e+01 4.264938e+01 3.916599e+01 4.801572e+01 3.173196e+01 3.916555e+01 3.737720e+01 3.114806e+01 2.458416e+01 3.592791e+00 2.885003e+00 3.388498e+00 3.733950e+00 5.720339e+00 4.882489e+00 7.042638e+00 5.953914e+00 5.757517e+00 5.799005e+00 4.387515e+00 3.571903e+00 2.452216e-03
<GCONST> 9.869583e+01
<MIXTURE> 70 1.329190e-02
<MEAN> 25
 6.529229e+00 -2.102783e+00 -3.392972e+00 -4.124770e+00 3.810409e-01 -5.832310e-01 -8.462640e+00 -2.918553e+00 7.713989e-01 3.803608e+00 -2.584401e-01 -4.700078e+00 1.688874e+00 -9.238615e-01 -3.446815e-01 -2.200590e+00 -1.586762e+00 1.255573e+00 -1.228376e+00 2.258040e-02 2.072011e-01 1.308858e-01 4.963246e-01 -1.496107e+00 5.874330e-02
<VARIANCE> 25
 9.669613e+00 2.131756e+01 2.512164e+01 3.950146e+01 3.154090e+01 4.236795e+01 4.550787e+01 3.654771e+01 3.691098e+01 2.981566e+01 3.412858e+01 2.398002e+01 3.213017e+00 2.866704e+00 4.599531e+00 3.930309e+00 4.279704e+00 5.645106e+00 6.299057e+00 6.179977e+00 4.891755e+00 4.285023e+00 4.636470e+00 3.578347e+00 2.185461e-03
<GCONST> 9.818764e+01
<MIXTURE> 71 1.406903e-02
<MEAN> 25
 5.432445e+00 4.194069e+00 3.425662e+00 4.238000e+00 -2.229680e+00 -2.302391e+00 -3.886111e+00 -5.143980e+00 -3.483764e+00 -2.608214e+00 -3.601118e+00 -2.416044e+00 -1.405035e+00 -1.003753e+00 3.698248e-01 -2.282119e+00 1.100908e+00 -3.634796e-01 -3.703730e-01 1.473185e+00 1.433130e-01 4.375955e-01 2.569017e-01 1.110645e-01 4.140040e-02
<VARIANCE> 25
 1.385828e+01 2.094411e+01 2.053650e+01 4.080318e+01 3.175764e+01 3.361186e+01 4.107084e+01 3.663433e+01 3.375810e+01 3.080326e+01 2.508445e+01 2.338381e+01 1.375671e+00 2.619037e+00 4.588475e+00 5.417924e+00 4.253942e+00 5.486629e+00 4.292108e+00 5.279001e+00 3.601949e+00 3.658610e+00 2.690485e+00 3.210816e+00 1.200099e-03
<GCONST> 9.473421e+01
<MIXTURE> 72 8.134747e-03
<MEAN> 25
 3.085796e+00 -4.552442e+00 6.873527e+00 -1.455395e+00 -9.847028e+00 -9.260642e+00 -2.237324e+00 3.699413e+00 -5.923550e+00 -1.762150e+00 -4.752721e-01 3.126192e-01 7.945707e-01 -5.299152e-01 -2.503977e+00 1.872622e-01 1.924014e+00 -3.968019e-01 -1.530993e+00 1.295561e+00 1.703544e+00 -1.872975e-01 -1.589382e+00 2.948195e-01 -1.001120e-02
<VARIANCE> 25
 6.906961e+00 1.515236e+01 2.768913e+01 3.428513e+01 2.827035e+01 2.590474e+01 2.989378e+01 2.838329e+01 3.226490e+01 2.702795e+01 2.790099e+01 2.225631e+01 4.047010e-01 8.405059e-01 1.568007e+00 1.101652e+00 1.934834e+00 2.022435e+00 2.220961e+00 2.182149e+00 1.730452e+00 2.225049e+00 1.431230e+00 1.584656e+00 4.954546e-04
<GCONST> 8.096306e+01
<MIXTURE> 73 1.213625e-02
<MEAN> 25
 -5.304176e+00 -7.137392e-01 -1.719266e+00 4.045694e+00 3.465320e+00 2.266976e+00 5.516063e+00 3.474353e+00 4.291153e+00 3.116477e+00 3.972702e+00 2.716974e+00 8.255588e-01 -9.478194e-01 -8.707947e-01 -2.762890e+00 -1.268224e+00 -1.637814e+00 -9.957718e-01 -3.923108e-01 -1.127595e+00 -6.117242e-01 -8.696656e-01 -3.179322e-01 1.470636e-01
<VARIANCE> 25
 1.261661e+01 1.228603e+01 1.520143e+01 2.710462e+01 2.550046e+01 2.365095e+01 1.873195e+01 1.926135e+01 1.677373e+01 1.840784e+01 2.155543e+01 1.498032e+01 3.963726e+00 2.895852e+00 5.668474e+00 4.606511e+00 5.543221e+00 4.265659e+00 4.362131e+00 3.970987e+00 3.822171e+00 3.899975e+00 3.602548e+00 2.594996e+00 4.309723e-03
<GCONST> 9.202000e+01
<MIXTURE> 74 1.756491e-02
<MEAN> 25
 2.501696e+00 -1.323234e+00 6.117453e+00 -2.211245e-02 -7.888113e+00 -9.090089e+00 -2.893828e-01 3.313087e+00 -5.021661e+00 -2.053965e+00 -3.070872e-01 1.758042e+00 2.556576e-01 1.918517e+00 -1.223944e+00 1.157340e+00 9.074524e-01 6.063882e-01 4.030047e-01 -1.276628e+00 1.159147e+00 -7.330028e-01 -5.196192e-01 -2.381157e-02 -8.204038e-02
<VARIANCE> 25
 7.494827e+00 1.756804e+01 3.782936e+01 3.301365e+01 4.075610e+01 4.116590e+01 4.527077e+01 3.206788e+01 3.868184e+01 3.393197e+01 2.328460e+01 2.259072e+01 1.002453e+00 1.339067e+00 3.285055e+00 1.701165e+00 3.021885e+00 3.038905e+00 3.808920e+00 2.635869e+00 3.246068e+00 3.955877e+00 2.415296e+00 2.060434e+00 1.248061e-03
<GCONST> 9.011831e+01
<MIXTURE> 75 9.711651e-03
<MEAN> 25
 1.207776e+00 -1.376299e+00 1.285043e+01 1.819279e+00 -1.044342e+01 -7.982526e+00 -2.340091e+00 -2.190072e-01 -7.680063e+00 -2.997012e+00 4.328187e+00 1.671709e-01 1.533368e+00 -1.770838e+00 4.917426e-01 -4.722486e-01 -2.238332e+00 -4.407323e-01 -1.372185e+00 1.612569e+00 -6.614885e-01 -2.022085e-01 9.418215e-01 -5.213295e-01 3.982582e-02
<VARIANCE> 25
 8.596700e+00 1.436948e+01 2.037284e+01 2.221499e+01 2.552120e+01 2.377794e+01 2.405659e+01 2.616224e+01 2.729634e+01 2.302801e+01 1.520869e+01 1.721086e+01 2.068443e+00 1.418209e+00 3.537811e+00 1.961438e+00 2.253828e+00 2.656591e+00 3.706111e+00 2.983001e+00 3.680478e+00 3.176368e+00 2.145599e+00 2.012607e+00 1.081651e-03
<GCONST> 8.604058e+01
<MIXTURE> 76 1.052359e-02
<MEAN> 25
 -4.511423e+00 -6.101830e-01 -4.047127e+00 1.923011e+00 3.170188e+00 6.328203e-01 4.406791e+00 2.703997e+00 2.859288e+00 -2.318694e-01 3.861668e-01 2.132208e+00 -2.599772e-01 -7.080725e-01 -5.027077e-01 -6.671393e-01 -4.495807e-01 -4.997575e-01 -5.526218e-01 -7.078625e-02 -6.117682e-01 -3.047988e-01 4.937873e-02 -5.633147e-02 2.100625e-02
<VARIANCE> 25
 2.385342e+01 3.100646e+01 2.072122e+01 3.217067e+01 2.381890e+01 4.281761e+01 3.004004e+01 3.247013e+01 2.549499e+01 1.904711e+01 1.535542e+01 1.555517e+01 9.259477e-01 1.087824e+00 1.369876e+00 1.280136e+00 1.231114e+00 1.395113e+00 1.658790e+00 1.844176e+00 1.608480e+00 1.576185e+00 1.209641e+00 1.236256e+00 9.014711e-04
<GCONST> 8.107597e+01
<MIXTURE> 77 1.244626e-02
<MEAN> 25
 -6.810941e-01 6.842846e+00 1.193433e+01 -8.551514e+00 -3.535768e+00 4.793128e+00 -7.073139e+00 -6.538275e+00 -4.177579e+00 -1.490694e+00 -1.198680e+00 -2.819378e+00 3.070338e-02 1.823344e-01 5.576276e-02 3.260961e-01 3.923072e-02 -1.529026e-01 -2.502334e-01 4.066663e-02 1.140296e-01 1.240083e-01 1.744631e-01 -2.181755e-02 -1.024889e-02
<VARIANCE> 25
 5.721655e+00 2.817745e+01 2.210662e+01 3.665881e+01 2.794344e+01 3.607411e+01 2.984159e+01 2.559038e+01 2.406580e+01 2.287204e+01 2.955208e+01 2.348991e+01 2.508826e-01 5.635318e-01 6.272954e-01 1.032024e+00 1.728773e+00 8.092290e-01 1.641299e+00 1.536227e+00 8.098538e-01 9.756555e-01 7.865943e-01 7.910404e-01 3.972805e-04
<GCONST> 7.446313e+01
<MIXTURE> 78 9.702551e-03
<MEAN> 25
 -8.584040e+00 6.697719e-03 -1.389506e+00 3.121425e+00 3.678694e+00 -5.706358e+00 2.928777e+00 5.668464e-01 1.483621e+00 1.349527e+00 -1.146190e+00 2.941587e+00 1.913193e+00 5.043609e-01 1.921802e-01 5.339284e-01 -3.728719e-02 7.267111e-02 -3.823088e-01 -3.037200e-02 3.153301e-01 -2.581629e-03 -4.522825e-01 -7.728704e-01 -4.988363e-02
<VARIANCE> 25
 2.941503e+01 3.905465e+01 2.415556e+01 2.754424e+01 2.634788e+01 4.318848e+01 3.283405e+01 3.177032e+01 2.226419e+01 2.329669e+01 1.897754e+01 2.031839e+01 3.295800e+00 2.257742e+00 3.543306e+00 2.244567e+00 2.414577e+00 3.385992e+00 2.833716e+00 2.965681e+00 2.318265e+00 1.752916e+00 1.823270e+00 1.755450e+00 3.809154e-03
<GCONST> 9.099229e+01
<MIXTURE> 79 1.156824e-02
<MEAN> 25
 1.554263e+00 2.438046e+00 9.559609e+00 -4.550465e+00 -9.343976e+00 -4.122159e-01 -6.804152e-01 -7.056542e+00 -6.243982e+00 -2.816767e-01 -1.807135e+00 -2.686651e+00 1.148889e+00 -4.966871e-01 -1.357326e+00 2.080146e+00 1.871431e-01 -1.137330e+00 4.914856e-01 8.624659e-01 -2.021436e-01 -4.881271e-01 5.394418e-01 3.125302e-01 -4.175304e-02
<VARIANCE> 25
 1.119719e+01 1.953021e+01 4.289138e+01 4.043125e+01 3.749434e+01 3.955537e+01 3.498035e+01 3.382241e+01 3.131118e+01 3.019763e+01 4.205466e+01 2.397464e+01 7.489547e-01 1.593793e+00 1.564429e+00 1.951234e+00 2.400884e+00 3.118911e+00 3.587823e+00 2.957463e+00 2.194196e+00 2.208014e+00 2.175827e+00 2.112079e+00 1.083279e-03
<GCONST> 8.888177e+01
<MIXTURE> 80 7.550998e-03
<MEAN> 25
 -1.459802e+01 3.968740e+00 6.947676e-01 2.866189e+00 2.444375e+00 1.394208e+00 6.401529e+00 2.493819e+00 2.700921e+00 2.368373e+00 4.851312e+00 1.195857e+00 4.282153e+00 -1.554145e-02 1.641975e+00 -1.133384e+00 -2.887241e+00 -2.774770e+00 -2.321075e+00 -2.015442e+00 -1.974887e+00 -1.682607e+00 -1.647608e+00 -6.061990e-01 -4.407303e-02
<VARIANCE> 25
 2.099033e+01 1.994534e+01 3.444110e+01 3.465424e+01 3.015437e+01 2.940059e+01 2.826156e+01 2.850277e+01 2.689858e+01 2.879053e+01 2.686127e+01 1.811572e+01 2.360573e+00 2.661402e+00 2.688415e+00 4.116136e+00 3.392341e+00 2.703849e+00 3.022549e+00 3.216065e+00 2.746231e+00 2.700870e+00 2.781569e+00 2.150246e+00 1.522082e-03
<GCONST> 9.142390e+01
<MIXTURE> 81 8.025434e-03
<MEAN> 25
 -1.119243e+00 4.139593e+00 1.021539e+01 -1.462931e+01 -8.897440e+00 -1.266071e+00 -6.600046e+00 -8.380383e+00 -4.203955e+00 -4.754122e-01 -7.381803e+00 -2.267741e+00 1.250036e-01 -5.663121e-01 -3.324027e-03 -5.610816e-01 -4.165993e-01 3.380000e-01 2.792782e-01 1.637690e-01 -1.204481e-01 1.079257e-01 -4.664236e-01 -1.465438e-01 1.113573e-02
<VARIANCE> 25
 9.951079e+00 3.265322e+01 2.666460e+01 3.011198e+01 3.462438e+01 3.134286e+01 4.619224e+01 2.827240e+01 3.754060e+01 3.165001e+01 2.637448e+01 3.056909e+01 7.695736e-01 2.252381e+00 1.522000e+00 2.841331e+00 2.793291e+00 2.113096e+00 3.336106e+00 2.305638e+00 2.338270e+00 2.490428e+00 2.273119e+00 2.076800e+00 1.174569e-03
<GCONST> 8.875249e+01
<MIXTURE> 82 8.213053e-03
<MEAN> 25
 -9.022883e+00 -4.639743e+00 2.840036e+00 -4.399341e+00 2.770536e+00 -3.336885e-02 2.302555e+00 -2.169271e-01 2.001647e+00 2.260089e+00 8.238680e-01 2.967081e+00 -1.480077e+00 -3.926243e-01 6.949568e-01 -2.845713e+00 -4.988827e-01 -8.435704e-01 -5.796043e-01 -1.171237e-01 -5.865250e-01 -3.162233e-01 -2.631052e-01 4.030160e-01 1.598028e-01
<VARIANCE> 25
 1.579303e+01 2.747913e+01 3.429599e+01 3.004270e+01 3.100491e+01 2.971156e+01 2.454973e+01 2.798628e+01 2.397498e+01 2.049274e+01 2.519382e+01 1.535045e+01 3.395329e+00 2.726021e+00 3.306656e+00 3.367886e+00 3.713317e+00 3.103211e+00 3.379552e+00 3.421151e+00 2.423461e+00 2.199982e+00 1.907647e+00 1.808457e+00 3.135320e-03
<GCONST> 9.114502e+01
<MIXTURE> 83 1.167529e-02
<MEAN> 25
 -1.997492e+01 5.502617e+00 -1.824559e+00 -4.006886e-01 7.794043e+00 -1.270797e+00 5.477870e+00 3.002159e+00 1.178414e+00 2.162677e+00 7.332821e-01 2.914891e+00 -3.105021e-02 -4.571694e-01 -2.877811e-04 -3.626314e-01 -4.967222e-01 -1.229463e-01 -1.392389e-01 -9.148413e-02 -4.448869e-02 -4.640416e-02 -3.530631e-02 -3.446396e-02 4.606328e-03
<VARIANCE> 25
 9.395386e+00 1.635813e+01 2.854358e+01 2.237138e+01 2.133143e+01 2.415250e+01 2.195546e+01 2.348437e+01 2.033409e+01 2.218975e+01 2.306377e+01 1.457216e+01 1.057531e+00 9.421818e-01 1.240208e+00 1.061889e+00 1.350838e+00 1.286114e+00 1.281116e+00 1.390307e+00 1.343490e+00 1.312124e+00 1.219158e+00 1.067191e+00 8.933934e-04
<GCONST> 7.707126e+01
<MIXTURE> 84 1.066614e-02
<MEAN> 25
 1.452524e+00 8.168773e+00 7.024353e+00 7.758118e+00 2.130084e+00 -8.301790e-01 -1.273281e+00 -4.216762e+00 -3.514605e+00 -2.639858e+00 -1.821846e+00 -1.476805e+00 -1.314553e+00 -9.747697e-01 -1.670098e+00 9.634442e-01 2.159146e+00 1.305739e+00 9.047897e-01 8.021687e-01 1.290100e+00 4.168508e-01 3.623418e-02 6.025220e-01 -6.499679e-02
<VARIANCE> 25
 1.953127e+01 1.668057e+01 1.952358e+01 2.431116e+01 2.618975e+01 2.684960e+01 2.657999e+01 2.246688e+01 2.545864e+01 2.092707e+01 2.141762e+01 2.043047e+01 2.048064e+00 2.438247e+00 4.014291e+00 3.676367e+00 2.685115e+00 3.518389e+00 3.808760e+00 3.177865e+00 3.270640e+00 2.740603e+00 3.456106e+00 2.540106e+00 2.904644e-03
<GCONST> 9.076618e+01
<MIXTURE> 85 7.591393e-03
<MEAN> 25
 -3.148454e+00 7.842476e+00 5.991855e+00 1.356870e+00 -3.549122e+00 -5.304192e+00 -2.836298e+00 -6.181322e+00 -3.622871e+00 -3.068936e+00 -4.730619e-01 -1.784073e+00 3.910099e+00 3.146325e-01 1.793181e+00 -2.008555e+00 -3.399594e+00 -2.535025e+00 -2.827425e+00 -2.289573e+00 -2.268890e+00 -1.264379e+00 -2.224404e+00 -6.575307e-01 1.044819e-02
<VARIANCE> 25
 4.171307e+01 2.308589e+01 3.911271e+01 3.836250e+01 3.926108e+01 4.072543e+01 3.228753e+01 2.824112e+01 2.647816e+01 2.622764e+01 2.574941e+01 2.064006e+01 2.688676e+00 4.238424e+00 4.046235e+00 5.323553e+00 4.369219e+00 3.887496e+00 3.899419e+00 4.028873e+00 3.863130e+00 3.994513e+00 4.111192e+00 3.487867e+00 5.404075e-03
<GCONST> 9.841045e+01
<MIXTURE> 86 1.273941e-02
<MEAN> 25
 -4.360443e+00 -3.228492e-01 -1.977059e+00 6.022185e+00 4.362091e+00 4.977533e+00 6.004722e+00 4.146262e+00 5.858897e+00 3.624243e+00 3.577456e+00 1.821015e+00 -5.342163e-02 -1.964727e-02 -1.494900e-01 -5.822037e-02 -2.373454e-01 -2.814203e-01 -3.357262e-01 -2.726180e-01 -3.496027e-01 -3.759294e-01 -3.211474e-01 -2.288168e-01 -2.153102e-03
<VARIANCE> 25
 6.777995e+00 6.649765e+00 1.023050e+01 1.331461e+01 1.470504e+01 1.151086e+01 1.321616e+01 1.388937e+01 1.302022e+01 1.268454e+01 1.803774e+01 1.270657e+01 9.081772e-02 1.736569e-01 3.222309e-01 5.454373e-01 7.388005e-01 7.959483e-01 7.354978e-01 6.870924e-01 7.935022e-01 9.103138e-01 8.427835e-01 8.382050e-01 5.789485e-05
<GCONST> 5.802360e+01
<MIXTURE> 87 1.100681e-02
<MEAN> 25
 -2.425919e+00 4.310333e+00 1.507314e+00 5.532815e+00 3.450419e+00 -1.508193e-01 7.633909e-01 -2.553651e+00 -8.609789e-01 -8.912521e-01 -3.955145e-01 -2.087345e-02 -2.031877e+00 -2.882656e+00 -1.217023e+00 -2.097816e+00 3.273785e-01 -1.402974e-01 5.400076e-01 1.008896e+00 7.627360e-01 1.021576e+00 7.195197e-01 1.093750e+00 1.070490e-01
<VARIANCE> 25
 3.757273e+01 2.358889e+01 3.100095e+01 2.961623e+01 2.977170e+01 2.938758e+01 2.533498e+01 2.738107e+01 2.382712e+01 2.211130e+01 1.910411e+01 1.700434e+01 3.194650e+00 3.056949e+00 5.438107e+00 3.244118e+00 4.562840e+00 3.674300e+00 4.432892e+00 3.344806e+00 3.220857e+00 2.855695e+00 2.741473e+00 2.325199e+00 4.547409e-03
<GCONST> 9.426576e+01
<MIXTURE> 88 1.256585e-02
<MEAN> 25
 -3.052644e+00 -2.368102e-01 -2.232764e+00 4.853378e+00 3.796416e+00 2.492229e+00 4.040458e+00 3.095715e+00 3.964195e+00 1.790199e+00 1.621851e+00 1.812490e+00 1.077322e-02 2.081451e-01 1.610834e-01 2.903599e-01 3.305273e-02 1.156239e-01 7.566115e-02 -9.072471e-02 -2.106014e-01 -3.677261e-01 -8.996539e-03 -6.674381e-02 -3.768884e-03
<VARIANCE> 25
 8.293000e+00 1.281951e+01 1.676667e+01 1.751529e+01 1.508293e+01 2.644209e+01 2.273100e+01 1.845795e+01 1.629554e+01 1.745809e+01 1.621247e+01 1.605815e+01 1.293148e+00 1.843638e+00 1.657460e+00 2.104912e+00 2.457099e+00 2.249491e+00 2.768643e+00 2.625751e+00 3.011729e+00 2.392279e+00 1.725760e+00 1.638390e+00 1.477860e-03
<GCONST> 8.184499e+01
<MIXTURE> 89 9.333527e-03
<MEAN> 25
 5.601520e+00 -6.598803e+00 -2.285783e+00 -1.611847e+00 -1.316370e+00 -5.025722e+00 -6.710111e+00 4.666109e+00 2.161441e+00 -5.391437e-01 -5.314000e+00 -3.550525e+00 -5.498961e-01 2.715300e-01 1.841356e+00 1.097082e+00 -1.941951e+00 -1.880721e+00 9.013333e-01 1.282074e+00 -9.902129e-01 -1.257051e+00 6.033465e-01 1.444520e+00 -1.061888e-03
<VARIANCE> 25
 7.512364e+00 2.280341e+01 2.827702e+01 3.187507e+01 2.821495e+01 3.685470e+01 5.346302e+01 3.449473e+01 4.159493e+01 4.789030e+01 3.141564e+01 2.606011e+01 4.315527e-01 8.359207e-01 1.213930e+00 1.382376e+00 1.934182e+00 1.880603e+00 2.563875e+00 1.886499e+00 1.948074e+00 1.918814e+00 2.016373e+00 1.325875e+00 5.129474e-04
<GCONST> 8.375768e+01
<MIXTURE> 90 7.114505e-03
<MEAN> 25
 2.387130e+00 -9.527779e+00 -4.809654e+00 -3.947254e+00 -3.321132e+00 -1.646801e+00 3.387068e+00 1.212285e+00 -7.288590e+00 -1.009814e+01 -3.466713e+00 -7.849663e-01 -1.607827e-01 9.010215e-01 1.155318e+00 -8.397411e-01 -1.605386e+00 -2.176852e-01 6.272764e-01 -2.057000e-01 -1.646944e-01 7.462190e-01 1.917562e-01 -5.351065e-01 -1.113349e-02
<VARIANCE> 25
 8.553329e+00 1.988724e+01 1.971125e+01 2.803009e+01 3.659283e+01 3.315710e+01 3.841751e+01 3.600457e+01 3.756911e+01 2.805857e+01 2.683566e+01 2.589879e+01 2.206976e-01 6.058096e-01 7.803879e-01 1.043011e+00 1.462364e+00 1.601868e+00 1.770583e+00 1.634388e+00 1.792644e+00 1.670609e+00 1.494010e+00 1.321738e+00 2.129897e-04
<GCONST> 7.825430e+01
<MIXTURE> 91 7.852945e-03
<MEAN> 25
 4.591325e+00 -6.209934e+00 -6.875286e+00 -5.532315e+00 3.957081e+00 1.829402e+00 -3.502192e+00 7.217419e-01 1.464460e+00 3.176591e-01 -3.624928e+00 -5.240429e+00 1.842791e-01 1.003206e+00 1.520574e-01 6.752697e-01 -5.844767e-02 -4.093803e-01 -4.946139e-01 -1.776700e-01 -1.852650e-01 4.359840e-01 2.741034e-02 1.738619e-01 -4.059743e-02
<VARIANCE> 25
 8.996833e+00 2.330800e+01 1.931615e+01 3.117216e+01 2.335434e+01 4.230319e+01 4.601816e+01 2.860845e+01 4.446725e+01 5.099331e+01 2.696639e+01 3.038227e+01 3.414322e-01 7.395230e-01 8.316428e-01 1.209397e+00 1.710990e+00 2.531945e+00 2.171131e+00 2.052305e+00 2.120440e+00 1.813423e+00 1.774357e+00 1.436417e+00 6.457723e-04
<GCONST> 8.273339e+01
<MIXTURE> 92 7.852945e-03
<MEAN> 25
 4.591325e+00 -6.209934e+00 -6.875286e+00 -5.532315e+00 3.957081e+00 1.829402e+00 -3.502192e+00 7.217419e-01 1.464460e+00 3.176591e-01 -3.624928e+00 -5.240429e+00 1.842791e-01 1.003206e+00 1.520574e-01 6.752697e-01 -5.844767e-02 -4.093803e-01 -4.946139e-01 -1.776700e-01 -1.852650e-01 4.359840e-01 2.741034e-02 1.738619e-01 -4.059743e-02
<VARIANCE> 25
 8.996833e+00 2.330800e+01 1.931615e+01 3.117216e+01 2.335434e+01 4.230319e+01 4.601816e+01 2.860845e+01 4.446725e+01 5.099331e+01 2.696639e+01 3.038227e+01 3.414322e-01 7.395230e-01 8.316428e-01 1.209397e+00 1.710990e+00 2.531945e+00 2.171131e+00 2.052305e+00 2.120440e+00 1.813423e+00 1.774357e+00 1.436417e+00 6.457723e-04
<GCONST> 8.273339e+01
<MIXTURE> 93 6.122769e-03
<MEAN> 25
 -6.632247e+00 -9.193472e-01 -2.492844e+00 5.550065e+00 5.640502e+00 4.048909e+00 6.292907e+00 3.838504e+00 4.434842e+00 2.438308e+00 1.587951e+00 3.735672e+00 -6.451207e-02 -1.352237e-01 -2.666665e-01 -3.157187e-01 -2.915674e-01 -2.904520e-01 -2.739028e-01 -1.912114e-01 -1.852018e-01 -1.047092e-01 -1.657083e-01 -1.946401e-02 -1.151885e-04
<VARIANCE> 25
 9.000134e+00 6.014334e+00 7.727949e+00 1.165176e+01 1.160756e+01 1.538024e+01 1.550313e+01 1.656376e+01 1.505075e+01 1.426269e+01 1.681499e+01 1.277461e+01 8.110359e-02 1.546730e-01 2.479688e-01 3.731258e-01 5.099335e-01 6.412434e-01 8.307104e-01 8.427656e-01 9.221814e-01 1.082591e+00 8.971320e-01 9.009097e-01 1.132585e-06
<GCONST> 5.377174e+01
<MIXTURE> 94 6.122769e-03
<MEAN> 25
 -6.632247e+00 -9.193472e-01 -2.492844e+00 5.550065e+00 5.640502e+00 4.048909e+00 6.292907e+00 3.838504e+00 4.434842e+00 2.438308e+00 1.587951e+00 3.735672e+00 -6.451207e-02 -1.352237e-01 -2.666665e-01 -3.157187e-01 -2.915674e-01 -2.904520e-01 -2.739028e-01 -1.912114e-01 -1.852018e-01 -1.047092e-01 -1.657083e-01 -1.946401e-02 -1.151885e-04
<VARIANCE> 25
 9.000134e+00 6.014334e+00 7.727949e+00 1.165176e+01 1.160756e+01 1.538024e+01 1.550313e+01 1.656376e+01 1.505075e+01 1.426269e+01 1.681499e+01 1.277461e+01 8.110359e-02 1.546730e-01 2.479688e-01 3.731258e-01 5.099335e-01 6.412434e-01 8.307104e-01 8.427656e-01 9.221814e-01 1.082591e+00 8.971320e-01 9.009097e-01 1.132585e-06
<GCONST> 5.377174e+01
<MIXTURE> 95 5.258835e-03
<MEAN> 25
 -4.503471e+00 2.655791e-01 -3.194187e+00 4.703802e+00 3.179399e+00 3.877917e+00 5.024181e+00 1.618448e+00 4.331046e+00 2.309153e-01 -2.807013e-01 1.483282e+00 1.714978e-01 2.637076e-01 1.369720e-01 -1.911706e-01 -6.763693e-01 -5.840129e-01 -9.821675e-01 -1.115966e+00 -1.168600e+00 -1.199455e+00 -6.864806e-01 -1.560495e-01 -1.605877e-03
<VARIANCE> 25
 8.667420e+00 9.181708e+00 9.852785e+00 1.068189e+01 1.105334e+01 1.639500e+01 1.991865e+01 1.380469e+01 1.657555e+01 1.298113e+01 1.573931e+01 1.347139e+01 1.762640e-01 2.311532e-01 4.035085e-01 5.728630e-01 8.901018e-01 9.649479e-01 8.250549e-01 9.083824e-01 9.400460e-01 1.204163e+00 9.335296e-01 1.075230e+00 4.561616e-05
<GCONST> 6.155141e+01
<MIXTURE> 96 7.034694e-03
<MEAN> 25
 -4.184899e+00 8.170461e-01 -2.745842e+00 4.678991e+00 3.200581e+00 2.339174e+00 3.912138e+00 1.328039e+00 2.937952e+00 7.237049e-01 2.598283e-01 2.585831e+00 -1.057837e-02 8.177750e-02 1.610538e-01 3.773000e-01 5.062822e-01 5.491083e-01 2.106352e-01 -2.033561e-01 -5.183144e-01 -6.282161e-01 -6.465037e-01 -3.348867e-01 -1.071979e-04
<VARIANCE> 25
 1.203527e+01 1.481297e+01 1.153853e+01 1.256380e+01 1.612662e+01 1.765133e+01 1.648191e+01 1.758140e+01 1.701092e+01 1.583512e+01 1.925364e+01 1.249061e+01 1.068069e-01 2.043661e-01 2.744165e-01 4.570153e-01 5.548710e-01 7.633138e-01 1.039521e+00 9.706612e-01 1.005343e+00 8.279520e-01 7.987772e-01 9.479192e-01 1.576319e-06
<GCONST> 5.793304e+01
<MIXTURE> 97 7.034694e-03
<MEAN> 25
 -4.184899e+00 8.170461e-01 -2.745842e+00 4.678991e+00 3.200581e+00 2.339174e+00 3.912138e+00 1.328039e+00 2.937952e+00 7.237049e-01 2.598283e-01 2.585831e+00 -1.057837e-02 8.177750e-02 1.610538e-01 3.773000e-01 5.062822e-01 5.491083e-01 2.106352e-01 -2.033561e-01 -5.183144e-01 -6.282161e-01 -6.465037e-01 -3.348867e-01 -1.071979e-04
<VARIANCE> 25
 1.203527e+01 1.481297e+01 1.153853e+01 1.256380e+01 1.612662e+01 1.765133e+01 1.648191e+01 1.758140e+01 1.701092e+01 1.583512e+01 1.925364e+01 1.249061e+01 1.068069e-01 2.043661e-01 2.744165e-01 4.570153e-01 5.548710e-01 7.633138e-01 1.039521e+00 9.706612e-01 1.005343e+00 8.279520e-01 7.987772e-01 9.479192e-01 1.576319e-06
<GCONST> 5.793304e+01
<MIXTURE> 98 9.917808e-03
<MEAN> 25
 -6.051056e-01 1.585570e+00 -4.958194e-01 4.015999e+00 3.374662e+00 2.128111e+00 2.174751e+00 1.296197e+00 2.100322e+00 1.927826e-01 6.688484e-02 1.004630e+00 -1.391168e+00 -1.320153e+00 -8.131878e-01 4.723424e-01 7.100450e-01 3.475320e-01 1.086680e+00 1.250037e+00 1.410057e+00 7.029922e-01 8.836107e-01 6.785122e-01 -2.256201e-02
<VARIANCE> 25
 1.102958e+01 1.920292e+01 2.869239e+01 3.060677e+01 3.408540e+01 3.654426e+01 3.489085e+01 2.676902e+01 2.403111e+01 2.457083e+01 1.917392e+01 2.251565e+01 1.212903e+00 1.159407e+00 1.800729e+00 2.766990e+00 2.431733e+00 2.930496e+00 3.199609e+00 2.605189e+00 2.750003e+00 2.433615e+00 2.201519e+00 1.938323e+00 1.844311e-03
<GCONST> 8.758346e+01
<MIXTURE> 99 6.696178e-03
<MEAN> 25
 -4.782928e+00 8.233010e+00 4.317037e+00 4.715813e+00 1.103782e+00 -7.508054e+00 -2.241102e-01 -4.612442e+00 -1.802905e+00 -2.769842e+00 -1.899651e+00 1.684080e+00 2.555011e-01 -6.256158e-01 3.818895e-01 -3.381804e-01 -7.316070e-01 -5.468011e-01 -2.310988e-01 -4.232293e-02 -4.357401e-01 -2.377952e-01 2.083311e-01 -4.904459e-02 1.686692e-02
<VARIANCE> 25
 2.971756e+01 2.077345e+01 3.597952e+01 2.418216e+01 2.560652e+01 4.849401e+01 2.471082e+01 2.157908e+01 2.714256e+01 1.935540e+01 1.404672e+01 2.057262e+01 2.035033e+00 1.390889e+00 1.863816e+00 1.395012e+00 1.971501e+00 2.362257e+00 1.472680e+00 1.451662e+00 1.531617e+00 1.271602e+00 1.079639e+00 1.445287e+00 1.392254e-03
<GCONST> 8.330350e+01
<MIXTURE> 100 4.498084e-03
<MEAN> 25
 -1.652653e+00 6.557452e+00 1.068300e+01 -7.254902e+00 -1.046687e+01 -5.386740e+00 -4.599345e+00 -9.627608e+00 -4.857103e+00 -8.975877e-01 -2.761679e+00 -2.517305e+00 2.896763e+00 -1.191484e+00 1.421027e+00 -1.993985e+00 -3.484907e+00 -7.919033e-01 -1.152880e+00 -7.973278e-01 -1.409529e+00 3.400964e-01 -1.587536e+00 -3.547262e-01 2.014895e-03
<VARIANCE> 25
 1.296738e+01 2.079706e+01 2.413772e+01 2.613137e+01 2.346101e+01 2.455232e+01 2.947024e+01 2.281598e+01 2.631376e+01 2.155608e+01 2.132756e+01 2.077056e+01 1.713040e+00 3.818291e+00 3.022108e+00 4.649392e+00 4.044503e+00 4.298620e+00 3.872144e+00 4.115417e+00 4.080290e+00 3.716077e+00 3.792180e+00 3.132034e+00 1.614843e-03
<GCONST> 9.220229e+01
<MIXTURE> 101 6.007792e-03
<MEAN> 25
 7.467384e+00 -2.889114e+00 -4.920862e+00 -6.114296e+00 4.604351e-01 -1.452714e+00 -1.047059e+01 -1.567156e+00 9.904804e-01 3.056050e+00 -1.812937e+00 -4.995169e+00 6.902325e-01 6.145401e-01 -1.418478e+00 -1.481817e+00 8.678694e-01 2.457047e+00 -6.337483e-02 -1.475087e+00 -7.609721e-01 1.019639e+00 1.217851e+00 -2.863301e-01 -6.774624e-03
<VARIANCE> 25
 9.123633e+00 1.615004e+01 3.085562e+01 3.841686e+01 3.070224e+01 3.813538e+01 3.236253e+01 3.481060e+01 3.298917e+01 3.696607e+01 4.382782e+01 2.103349e+01 2.996728e-01 6.479344e-01 9.737306e-01 1.695598e+00 1.904615e+00 2.182831e+00 2.057379e+00 1.692613e+00 2.560646e+00 1.973323e+00 1.598429e+00 1.886959e+00 3.300143e-04
<GCONST> 8.228510e+01
<MIXTURE> 102 6.007792e-03
<MEAN> 25
 7.467384e+00 -2.889114e+00 -4.920862e+00 -6.114296e+00 4.604351e-01 -1.452714e+00 -1.047059e+01 -1.567156e+00 9.904804e-01 3.056050e+00 -1.812937e+00 -4.995169e+00 6.902325e-01 6.145401e-01 -1.418478e+00 -1.481817e+00 8.678694e-01 2.457047e+00 -6.337483e-02 -1.475087e+00 -7.609721e-01 1.019639e+00 1.217851e+00 -2.863301e-01 -6.774624e-03
<VARIANCE> 25
 9.123633e+00 1.615004e+01 3.085562e+01 3.841686e+01 3.070224e+01 3.813538e+01 3.236253e+01 3.481060e+01 3.298917e+01 3.696607e+01 4.382782e+01 2.103349e+01 2.996728e-01 6.479344e-01 9.737306e-01 1.695598e+00 1.904615e+00 2.182831e+00 2.057379e+00 1.692613e+00 2.560646e+00 1.973323e+00 1.598429e+00 1.886959e+00 3.300143e-04
<GCONST> 8.228510e+01
<MIXTURE> 103 5.694618e-03
<MEAN> 25
 2.498381e+00 -9.004960e+00 -6.193752e+00 -3.481172e+00 -7.671066e-01 -1.472471e+00 2.254829e+00 3.968679e+00 -3.773573e+00 -8.541605e+00 -4.444993e+00 2.845232e-01 -9.256204e-02 -1.385509e+00 -1.036596e+00 2.988047e-01 1.171537e+00 9.598339e-01 1.494815e-01 -4.196126e-01 -5.991817e-01 -7.419769e-01 -5.319457e-02 6.553832e-02 2.424442e-02
<VARIANCE> 25
 1.200014e+01 2.033583e+01 2.268962e+01 2.981975e+01 4.375922e+01 3.819279e+01 4.156696e+01 4.093073e+01 3.985282e+01 2.869571e+01 2.676323e+01 2.243100e+01 5.797191e-01 1.175079e+00 1.406039e+00 2.009232e+00 2.514456e+00 2.080847e+00 2.497056e+00 2.676537e+00 3.076133e+00 2.421353e+00 2.172755e+00 1.855737e+00 7.532015e-04
<GCONST> 8.668148e+01
<MIXTURE> 104 5.694618e-03
<MEAN> 25
 2.498381e+00 -9.004960e+00 -6.193752e+00 -3.481172e+00 -7.671066e-01 -1.472471e+00 2.254829e+00 3.968679e+00 -3.773573e+00 -8.541605e+00 -4.444993e+00 2.845232e-01 -9.256204e-02 -1.385509e+00 -1.036596e+00 2.988047e-01 1.171537e+00 9.598339e-01 1.494815e-01 -4.196126e-01 -5.991817e-01 -7.419769e-01 -5.319457e-02 6.553832e-02 2.424442e-02
<VARIANCE> 25
 1.200014e+01 2.033583e+01 2.268962e+01 2.981975e+01 4.375922e+01 3.819279e+01 4.156696e+01 4.093073e+01 3.985282e+01 2.869571e+01 2.676323e+01 2.243100e+01 5.797191e-01 1.175079e+00 1.406039e+00 2.009232e+00 2.514456e+00 2.080847e+00 2.497056e+00 2.676537e+00 3.076133e+00 2.421353e+00 2.172755e+00 1.855737e+00 7.532015e-04
<GCONST> 8.668148e+01
<MIXTURE> 105 4.710235e-03
<MEAN> 25
 1.745190e+00 -1.811659e+00 8.898591e+00 -2.542061e+00 -9.535476e+00 -3.383481e+00 -4.014460e+00 -7.491615e-01 -4.145539e+00 -2.636874e+00 1.624752e+00 -1.234597e+00 3.794104e-02 5.727233e-03 3.088603e-02 2.644446e-02 1.024977e-02 -4.667503e-02 -2.520314e-02 1.918805e-02 -5.375370e-02 -4.614894e-02 2.190067e-02 -6.039204e-02 -1.746657e-03
<VARIANCE> 25
 1.152962e+01 2.646257e+01 4.075880e+01 3.756191e+01 4.592532e+01 7.310498e+01 4.448607e+01 4.661328e+01 3.588102e+01 3.691558e+01 3.355824e+01 2.697089e+01 8.604914e-02 1.652511e-01 2.917681e-01 3.230892e-01 4.580052e-01 3.892858e-01 5.216051e-01 5.205165e-01 5.352796e-01 4.901187e-01 3.847217e-01 5.301968e-01 9.170465e-05
<GCONST> 6.688650e+01
<MIXTURE> 106 4.710235e-03
<MEAN> 25
 1.745190e+00 -1.811659e+00 8.898591e+00 -2.542061e+00 -9.535476e+00 -3.383481e+00 -4.014460e+00 -7.491615e-01 -4.145539e+00 -2.636874e+00 1.624752e+00 -1.234597e+00 3.794104e-02 5.727233e-03 3.088603e-02 2.644446e-02 1.024977e-02 -4.667503e-02 -2.520314e-02 1.918805e-02 -5.375370e-02 -4.614894e-02 2.190067e-02 -6.039204e-02 -1.746657e-03
<VARIANCE> 25
 1.152962e+01 2.646257e+01 4.075880e+01 3.756191e+01 4.592532e+01 7.310498e+01 4.448607e+01 4.661328e+01 3.588102e+01 3.691558e+01 3.355824e+01 2.697089e+01 8.604914e-02 1.652511e-01 2.917681e-01 3.230892e-01 4.580052e-01 3.892858e-01 5.216051e-01 5.205165e-01 5.352796e-01 4.901187e-01 3.847217e-01 5.301968e-01 9.170465e-05
<GCONST> 6.688650e+01
<MIXTURE> 107 5.452374e-03
<MEAN> 25
 8.004711e+00 -2.003476e+00 -6.931571e+00 -8.661842e+00 1.770409e+00 3.931739e+00 -8.688964e+00 -4.514456e+00 -1.241417e+00 3.121791e+00 1.676244e+00 -4.698508e+00 -7.108773e-01 -7.639561e-01 9.625524e-01 1.950931e+00 3.205742e-01 -2.140580e+00 -9.499929e-01 7.618850e-01 1.807032e+00 2.047330e-01 -1.582428e+00 -8.041852e-01 -2.934745e-03
<VARIANCE> 25
 1.007279e+01 1.991908e+01 2.847045e+01 4.175442e+01 3.138781e+01 3.749958e+01 5.077425e+01 3.102699e+01 4.157927e+01 3.762853e+01 5.551748e+01 2.907242e+01 4.134005e-01 8.844432e-01 1.638457e+00 2.335796e+00 2.028319e+00 2.663888e+00 2.694715e+00 2.300163e+00 2.054579e+00 2.966180e+00 2.079310e+00 2.180632e+00 6.998276e-04
<GCONST> 8.740551e+01
<MIXTURE> 108 5.452374e-03
<MEAN> 25
 8.004711e+00 -2.003476e+00 -6.931571e+00 -8.661842e+00 1.770409e+00 3.931739e+00 -8.688964e+00 -4.514456e+00 -1.241417e+00 3.121791e+00 1.676244e+00 -4.698508e+00 -7.108773e-01 -7.639561e-01 9.625524e-01 1.950931e+00 3.205742e-01 -2.140580e+00 -9.499929e-01 7.618850e-01 1.807032e+00 2.047330e-01 -1.582428e+00 -8.041852e-01 -2.934745e-03
<VARIANCE> 25
 1.007279e+01 1.991908e+01 2.847045e+01 4.175442e+01 3.138781e+01 3.749958e+01 5.077425e+01 3.102699e+01 4.157927e+01 3.762853e+01 5.551748e+01 2.907242e+01 4.134005e-01 8.844432e-01 1.638457e+00 2.335796e+00 2.028319e+00 2.663888e+00 2.694715e+00 2.300163e+00 2.054579e+00 2.966180e+00 2.079310e+00 2.180632e+00 6.998276e-04
<GCONST> 8.740551e+01
<MIXTURE> 109 6.661064e-03
<MEAN> 25
 2.981951e+00 -9.412635e+00 -7.748186e+00 -2.758602e+00 3.088171e+00 5.259109e-01 4.452803e-01 1.610750e+00 -5.758386e-01 -6.599552e+00 -4.918251e+00 -1.059706e+00 -3.218835e-02 -1.672321e-01 -8.327623e-02 9.023423e-02 2.983023e-01 3.437741e-01 -2.301283e-01 -2.692158e-01 5.747992e-03 -5.133843e-03 1.297128e-01 -1.805940e-01 -4.343344e-03
<VARIANCE> 25
 9.538447e+00 2.432190e+01 1.718806e+01 3.361558e+01 3.513438e+01 3.286736e+01 4.251953e+01 3.157486e+01 4.292785e+01 3.416768e+01 2.514128e+01 2.496682e+01 1.778396e-01 3.684592e-01 5.485265e-01 7.141672e-01 1.154934e+00 1.085884e+00 1.365789e+00 1.171854e+00 1.032828e+00 8.576375e-01 8.446119e-01 8.254538e-01 1.608360e-04
<GCONST> 7.355688e+01
<MIXTURE> 110 6.661064e-03
<MEAN> 25
 2.981951e+00 -9.412635e+00 -7.748186e+00 -2.758602e+00 3.088171e+00 5.259109e-01 4.452803e-01 1.610750e+00 -5.758386e-01 -6.599552e+00 -4.918251e+00 -1.059706e+00 -3.218835e-02 -1.672321e-01 -8.327623e-02 9.023423e-02 2.983023e-01 3.437741e-01 -2.301283e-01 -2.692158e-01 5.747992e-03 -5.133843e-03 1.297128e-01 -1.805940e-01 -4.343344e-03
<VARIANCE> 25
 9.538447e+00 2.432190e+01 1.718806e+01 3.361558e+01 3.513438e+01 3.286736e+01 4.251953e+01 3.157486e+01 4.292785e+01 3.416768e+01 2.514128e+01 2.496682e+01 1.778396e-01 3.684592e-01 5.485265e-01 7.141672e-01 1.154934e+00 1.085884e+00 1.365789e+00 1.171854e+00 1.032828e+00 8.576375e-01 8.446119e-01 8.254538e-01 1.608360e-04
<GCONST> 7.355688e+01
<MIXTURE> 111 4.337247e-03
<MEAN> 25
 -3.710559e+00 -1.762918e-01 -2.413838e+00 1.914852e+00 7.994096e-01 9.190843e-01 6.291074e-01 1.782190e-01 7.639327e-01 -5.858121e-01 -1.205286e+00 1.663520e+00 -3.126965e-02 -3.759347e-02 -3.156690e-02 -7.981931e-02 -3.174309e-02 1.702176e-02 4.612730e-02 -7.789788e-02 -2.270153e-01 -2.390413e-01 -2.136175e-01 1.131732e-02 -6.485582e-04
<VARIANCE> 25
 7.556344e+00 7.573630e+00 1.104559e+01 9.832133e+00 1.346862e+01 2.483710e+01 1.803644e+01 1.263971e+01 1.381993e+01 1.025145e+01 1.235188e+01 1.207166e+01 8.170718e-02 1.510235e-01 2.428530e-01 4.086026e-01 5.750844e-01 7.859396e-01 9.402354e-01 7.769077e-01 7.954912e-01 7.733003e-01 8.101693e-01 8.029873e-01 2.493258e-05
<GCONST> 5.655326e+01
<MIXTURE> 112 4.337247e-03
<MEAN> 25
 -3.710559e+00 -1.762918e-01 -2.413838e+00 1.914852e+00 7.994096e-01 9.190843e-01 6.291074e-01 1.782190e-01 7.639327e-01 -5.858121e-01 -1.205286e+00 1.663520e+00 -3.126965e-02 -3.759347e-02 -3.156690e-02 -7.981931e-02 -3.174309e-02 1.702176e-02 4.612730e-02 -7.789788e-02 -2.270153e-01 -2.390413e-01 -2.136175e-01 1.131732e-02 -6.485582e-04
<VARIANCE> 25
 7.556344e+00 7.573630e+00 1.104559e+01 9.832133e+00 1.346862e+01 2.483710e+01 1.803644e+01 1.263971e+01 1.381993e+01 1.025145e+01 1.235188e+01 1.207166e+01 8.170718e-02 1.510235e-01 2.428530e-01 4.086026e-01 5.750844e-01 7.859396e-01 9.402354e-01 7.769077e-01 7.954912e-01 7.733003e-01 8.101693e-01 8.029873e-01 2.493258e-05
<GCONST> 5.655326e+01
<MIXTURE> 113 5.938666e-03
<MEAN> 25
 9.354761e+00 1.932875e+00 -8.292661e+00 -1.643558e+01 -6.938461e-01 6.343753e+00 -4.984637e+00 -1.304882e+00 -5.286934e+00 -5.701360e-01 3.984552e-01 -1.508007e-01 -2.953002e-03 3.982155e-02 -6.828579e-02 -1.242606e-01 1.202636e-01 3.000600e-02 7.290904e-02 -4.976809e-02 -1.901069e-02 -1.439904e-01 1.424331e-01 -2.621909e-02 -1.080377e-03
<VARIANCE> 25
 1.091899e+01 1.723921e+01 2.848721e+01 3.374990e+01 4.946369e+01 3.546022e+01 3.832300e+01 3.540227e+01 3.474026e+01 4.338923e+01 3.313116e+01 2.596119e+01 1.167859e-01 3.258231e-01 3.082229e-01 6.538650e-01 5.816541e-01 7.702695e-01 7.886354e-01 8.437124e-01 9.017032e-01 1.003650e+00 7.135845e-01 6.909658e-01 1.241630e-04
<GCONST> 7.092894e+01
<MIXTURE> 114 5.938666e-03
<MEAN> 25
 9.354761e+00 1.932875e+00 -8.292661e+00 -1.643558e+01 -6.938461e-01 6.343753e+00 -4.984637e+00 -1.304882e+00 -5.286934e+00 -5.701360e-01 3.984552e-01 -1.508007e-01 -2.953002e-03 3.982155e-02 -6.828579e-02 -1.242606e-01 1.202636e-01 3.000600e-02 7.290904e-02 -4.976809e-02 -1.901069e-02 -1.439904e-01 1.424331e-01 -2.621909e-02 -1.080377e-03
<VARIANCE> 25
 1.091899e+01 1.723921e+01 2.848721e+01 3.374990e+01 4.946369e+01 3.546022e+01 3.832300e+01 3.540227e+01 3.474026e+01 4.338923e+01 3.313116e+01 2.596119e+01 1.167859e-01 3.258231e-01 3.082229e-01 6.538650e-01 5.816541e-01 7.702695e-01 7.886354e-01 8.437124e-01 9.017032e-01 1.003650e+00 7.135845e-01 6.909658e-01 1.241630e-04
<GCONST> 7.092894e+01
<MIXTURE> 115 2.935202e-03
<MEAN> 25
 -3.849226e+00 -5.692649e-01 -3.258757e+00 3.542937e+00 2.291166e+00 -2.827883e-01 2.237393e+00 3.676010e-01 1.677885e+00 -1.680556e-02 -7.195997e-02 2.568603e+00 3.701544e-02 -5.122524e-02 -2.207691e-01 -4.270552e-01 -5.906280e-01 -6.260126e-01 -5.903062e-01 -4.790522e-01 -4.838594e-01 -4.473796e-01 -3.565725e-01 -1.143828e-01 -2.996057e-05
<VARIANCE> 25
 9.457069e+00 1.045026e+01 1.368062e+01 1.253149e+01 1.332412e+01 1.768127e+01 1.673688e+01 2.054967e+01 1.858838e+01 1.656992e+01 1.900860e+01 1.430165e+01 1.979719e-01 3.456201e-01 4.619876e-01 5.676066e-01 6.504955e-01 8.672189e-01 1.010555e+00 1.099066e+00 1.045704e+00 9.664468e-01 9.854798e-01 1.081217e+00 1.122268e-06
<GCONST> 6.020823e+01
<MIXTURE> 116 2.935202e-03
<MEAN> 25
 -3.849226e+00 -5.692649e-01 -3.258757e+00 3.542937e+00 2.291166e+00 -2.827883e-01 2.237393e+00 3.676010e-01 1.677885e+00 -1.680556e-02 -7.195997e-02 2.568603e+00 3.701544e-02 -5.122524e-02 -2.207691e-01 -4.270552e-01 -5.906280e-01 -6.260126e-01 -5.903062e-01 -4.790522e-01 -4.838594e-01 -4.473796e-01 -3.565725e-01 -1.143828e-01 -2.996057e-05
<VARIANCE> 25
 9.457069e+00 1.045026e+01 1.368062e+01 1.253149e+01 1.332412e+01 1.768127e+01 1.673688e+01 2.054967e+01 1.858838e+01 1.656992e+01 1.900860e+01 1.430165e+01 1.979719e-01 3.456201e-01 4.619876e-01 5.676066e-01 6.504955e-01 8.672189e-01 1.010555e+00 1.099066e+00 1.045704e+00 9.664468e-01 9.854798e-01 1.081217e+00 1.122268e-06
<GCONST> 6.020823e+01
<MIXTURE> 117 6.506003e-03
<MEAN> 25
 -4.642307e+00 1.040126e+00 9.539916e-01 9.604702e+00 6.190764e+00 6.342381e+00 6.600502e+00 5.058700e+00 6.413897e+00 4.954068e+00 6.276914e+00 2.746389e+00 -7.953546e-02 -2.376857e-01 -3.547366e-01 -4.222059e-01 -3.724516e-01 -2.717792e-01 -2.634297e-01 -3.484714e-01 -4.275397e-01 -4.141120e-01 -2.668712e-01 -1.234894e-01 -5.751486e-05
<VARIANCE> 25
 7.059444e+00 8.975670e+00 9.934450e+00 1.490567e+01 1.541398e+01 1.536255e+01 1.830890e+01 1.755406e+01 1.613982e+01 1.600939e+01 1.674374e+01 1.449816e+01 2.118308e-01 3.035251e-01 4.159031e-01 6.053372e-01 8.352323e-01 1.082243e+00 1.179837e+00 1.222613e+00 1.280702e+00 1.258084e+00 1.140583e+00 1.096413e+00 1.065648e-06
<GCONST> 6.047042e+01
<MIXTURE> 118 6.506003e-03
<MEAN> 25
 -4.642307e+00 1.040126e+00 9.539916e-01 9.604702e+00 6.190764e+00 6.342381e+00 6.600502e+00 5.058700e+00 6.413897e+00 4.954068e+00 6.276914e+00 2.746389e+00 -7.953546e-02 -2.376857e-01 -3.547366e-01 -4.222059e-01 -3.724516e-01 -2.717792e-01 -2.634297e-01 -3.484714e-01 -4.275397e-01 -4.141120e-01 -2.668712e-01 -1.234894e-01 -5.751486e-05
<VARIANCE> 25
 7.059444e+00 8.975670e+00 9.934450e+00 1.490567e+01 1.541398e+01 1.536255e+01 1.830890e+01 1.755406e+01 1.613982e+01 1.600939e+01 1.674374e+01 1.449816e+01 2.118308e-01 3.035251e-01 4.159031e-01 6.053372e-01 8.352323e-01 1.082243e+00 1.179837e+00 1.222613e+00 1.280702e+00 1.258084e+00 1.140583e+00 1.096413e+00 1.065648e-06
<GCONST> 6.047042e+01
<MIXTURE> 119 4.297961e-03
<MEAN> 25
 -4.912383e+00 -7.635366e+00 2.062624e+00 1.843413e+00 2.279632e+00 -3.091785e-01 4.878257e+00 5.626609e+00 9.272801e-01 1.373862e+00 6.404600e+00 1.546492e+00 -4.083406e-02 -8.943375e-02 4.337952e-02 -4.686105e-02 -1.186182e-01 -1.584099e-01 -9.957408e-02 3.769264e-02 -5.635433e-02 -8.258991e-02 -1.959607e-02 -7.895828e-02 8.015007e-04
<VARIANCE> 25
 9.037084e+00 1.028865e+01 1.726066e+01 2.138365e+01 2.295925e+01 2.711011e+01 3.003946e+01 3.204777e+01 2.686904e+01 3.030877e+01 2.053105e+01 1.928346e+01 1.616942e-01 2.757742e-01 4.516350e-01 6.387216e-01 8.020042e-01 9.618171e-01 1.078875e+00 1.300546e+00 1.356380e+00 1.246780e+00 1.272382e+00 1.062287e+00 2.240933e-04
<GCONST> 7.052631e+01
<MIXTURE> 120 4.297961e-03
<MEAN> 25
 -4.912383e+00 -7.635366e+00 2.062624e+00 1.843413e+00 2.279632e+00 -3.091785e-01 4.878257e+00 5.626609e+00 9.272801e-01 1.373862e+00 6.404600e+00 1.546492e+00 -4.083406e-02 -8.943375e-02 4.337952e-02 -4.686105e-02 -1.186182e-01 -1.584099e-01 -9.957408e-02 3.769264e-02 -5.635433e-02 -8.258991e-02 -1.959607e-02 -7.895828e-02 8.015007e-04
<VARIANCE> 25
 9.037084e+00 1.028865e+01 1.726066e+01 2.138365e+01 2.295925e+01 2.711011e+01 3.003946e+01 3.204777e+01 2.686904e+01 3.030877e+01 2.053105e+01 1.928346e+01 1.616942e-01 2.757742e-01 4.516350e-01 6.387216e-01 8.020042e-01 9.618171e-01 1.078875e+00 1.300546e+00 1.356380e+00 1.246780e+00 1.272382e+00 1.062287e+00 2.240933e-04
<GCONST> 7.052631e+01
<MIXTURE> 121 4.567511e-03
<MEAN> 25
 2.081247e-01 -2.485446e+00 5.108989e+00 -1.282471e+01 -1.258415e+01 -1.623684e+00 9.668331e-01 -5.124294e+00 -4.161742e+00 -4.743017e-01 -5.454912e+00 -4.277976e+00 2.513745e-02 1.345424e-01 -4.439491e-02 8.221158e-02 1.570009e-01 7.405045e-02 -8.471130e-02 -1.782781e-01 -2.662734e-01 -2.580669e-01 -1.165193e-01 3.169116e-03 -7.513656e-03
<VARIANCE> 25
 7.680047e+00 1.575225e+01 1.756027e+01 2.107572e+01 2.485032e+01 2.963337e+01 2.952284e+01 2.466508e+01 3.523149e+01 2.821775e+01 1.994937e+01 2.134799e+01 1.557295e-01 6.392862e-01 6.206945e-01 7.018836e-01 7.718796e-01 1.158779e+00 1.120377e+00 1.143423e+00 1.228546e+00 1.192344e+00 9.382885e-01 8.735843e-01 2.103464e-04
<GCONST> 7.151901e+01
<MIXTURE> 122 4.567511e-03
<MEAN> 25
 2.081247e-01 -2.485446e+00 5.108989e+00 -1.282471e+01 -1.258415e+01 -1.623684e+00 9.668331e-01 -5.124294e+00 -4.161742e+00 -4.743017e-01 -5.454912e+00 -4.277976e+00 2.513745e-02 1.345424e-01 -4.439491e-02 8.221158e-02 1.570009e-01 7.405045e-02 -8.471130e-02 -1.782781e-01 -2.662734e-01 -2.580669e-01 -1.165193e-01 3.169116e-03 -7.513656e-03
<VARIANCE> 25
 7.680047e+00 1.575225e+01 1.756027e+01 2.107572e+01 2.485032e+01 2.963337e+01 2.952284e+01 2.466508e+01 3.523149e+01 2.821775e+01 1.994937e+01 2.134799e+01 1.557295e-01 6.392862e-01 6.206945e-01 7.018836e-01 7.718796e-01 1.158779e+00 1.120377e+00 1.143423e+00 1.228546e+00 1.192344e+00 9.382885e-01 8.735843e-01 2.103464e-04
<GCONST> 7.151901e+01
<MIXTURE> 123 4.393044e-03
<MEAN> 25
 -2.471190e+00 2.316414e+00 -1.194828e+00 5.356287e+00 3.546562e+00 2.593102e+00 2.596051e+00 -6.686683e-01 1.574875e+00 -1.106454e+00 -9.297180e-01 1.095862e+00 -5.167673e-01 -8.082163e-01 -7.496620e-01 -6.210461e-01 -2.514901e-01 -3.038981e-01 4.728762e-01 9.685130e-01 5.645926e-01 8.010864e-01 5.524159e-01 4.264815e-01 -2.329818e-03
<VARIANCE> 25
 7.730758e+00 1.500601e+01 1.859847e+01 1.666421e+01 2.115258e+01 3.779147e+01 4.592790e+01 1.565244e+01 1.415158e+01 1.521568e+01 1.616040e+01 1.363762e+01 4.415667e-01 2.860428e-01 4.558299e-01 5.356357e-01 9.317272e-01 1.188108e+00 1.539985e+00 1.395861e+00 9.347913e-01 1.072206e+00 1.072254e+00 9.971898e-01 1.193649e-04
<GCONST> 6.888988e+01
<MIXTURE> 124 4.069876e-03
<MEAN> 25
 -5.772724e+00 -8.015600e-01 -3.428356e+00 4.721729e+00 4.302988e+00 3.603679e+00 5.816088e+00 2.782963e+00 3.733739e+00 6.999742e-01 4.357983e-01 3.180651e+00 -1.722163e-01 -3.580403e-01 -3.565069e-01 -2.054850e-01 4.131072e-02 5.908180e-01 1.021606e+00 8.630933e-01 5.987498e-01 3.380066e-01 2.323203e-01 -6.045400e-02 4.188309e-04
<VARIANCE> 25
 1.117873e+01 8.815248e+00 1.022524e+01 1.191499e+01 1.303631e+01 1.777773e+01 1.848524e+01 1.534489e+01 1.606862e+01 1.538631e+01 1.818943e+01 1.388818e+01 1.110383e-01 1.721273e-01 2.432579e-01 3.713311e-01 6.136126e-01 7.417795e-01 9.753490e-01 9.030904e-01 9.069887e-01 1.053802e+00 1.147433e+00 8.948734e-01 1.814394e-05
<GCONST> 5.926410e+01
<MIXTURE> 125 4.069876e-03
<MEAN> 25
 -5.772724e+00 -8.015600e-01 -3.428356e+00 4.721729e+00 4.302988e+00 3.603679e+00 5.816088e+00 2.782963e+00 3.733739e+00 6.999742e-01 4.357983e-01 3.180651e+00 -1.722163e-01 -3.580403e-01 -3.565069e-01 -2.054850e-01 4.131072e-02 5.908180e-01 1.021606e+00 8.630933e-01 5.987498e-01 3.380066e-01 2.323203e-01 -6.045400e-02 4.188309e-04
<VARIANCE> 25
 1.117873e+01 8.815248e+00 1.022524e+01 1.191499e+01 1.303631e+01 1.777773e+01 1.848524e+01 1.534489e+01 1.606862e+01 1.538631e+01 1.818943e+01 1.388818e+01 1.110383e-01 1.721273e-01 2.432579e-01 3.713311e-01 6.136126e-01 7.417795e-01 9.753490e-01 9.030904e-01 9.069887e-01 1.053802e+00 1.147433e+00 8.948734e-01 1.814394e-05
<GCONST> 5.926410e+01
<MIXTURE> 126 2.402244e-03
<MEAN> 25
 -3.860678e+00 -7.135180e+00 -4.644258e+00 2.381886e+00 4.823116e+00 -3.963484e+00 -1.352475e+00 1.765690e+00 2.368602e+00 -1.260958e+00 -1.511124e+00 2.350698e+00 -7.034682e-02 -5.027030e-02 -6.821301e-02 -2.315387e-01 -3.222478e-01 -2.685453e-01 -3.093056e-01 -3.328578e-01 -1.187927e-01 -3.636695e-02 -3.666986e-02 -2.008077e-02 -2.452212e-03
<VARIANCE> 25
 6.918891e+00 1.459794e+01 1.386671e+01 2.349253e+01 2.280125e+01 2.749734e+01 2.795296e+01 3.434063e+01 3.697140e+01 2.825172e+01 2.145038e+01 1.801492e+01 1.765874e-01 3.272400e-01 5.157292e-01 5.447522e-01 8.291848e-01 9.506525e-01 1.080772e+00 1.294599e+00 1.165854e+00 1.508204e+00 1.577138e+00 1.091382e+00 1.869502e-04
<GCONST> 7.106436e+01
<MIXTURE> 127 2.402244e-03
<MEAN> 25
 -3.860678e+00 -7.135180e+00 -4.644258e+00 2.381886e+00 4.823116e+00 -3.963484e+00 -1.352475e+00 1.765690e+00 2.368602e+00 -1.260958e+00 -1.511124e+00 2.350698e+00 -7.034682e-02 -5.027030e-02 -6.821301e-02 -2.315387e-01 -3.222478e-01 -2.685453e-01 -3.093056e-01 -3.328578e-01 -1.187927e-01 -3.636695e-02 -3.666986e-02 -2.008077e-02 -2.452212e-03
<VARIANCE> 25
 6.918891e+00 1.459794e+01 1.386671e+01 2.349253e+01 2.280125e+01 2.749734e+01 2.795296e+01 3.434063e+01 3.697140e+01 2.825172e+01 2.145038e+01 1.801492e+01 1.765874e-01 3.272400e-01 5.157292e-01 5.447522e-01 8.291848e-01 9.506525e-01 1.080772e+00 1.294599e+00 1.165854e+00 1.508204e+00 1.577138e+00 1.091382e+00 1.869502e-04
<GCONST> 7.106436e+01
<MIXTURE> 128 3.790457e-03
<MEAN> 25
 -3.563839e+00 1.788973e+00 -6.249440e-01 6.385118e+00 3.377838e+00 2.183594e+00 3.586477e+00 2.053038e+00 4.074358e+00 3.286754e+00 3.129275e+00 3.307811e+00 -3.689072e-01 -2.175953e-01 4.043251e-02 6.468481e-01 1.125471e+00 1.152998e+00 8.369601e-01 1.740222e-01 -4.473550e-01 -8.091180e-01 -6.863850e-01 -4.157203e-01 -9.174849e-05
<VARIANCE> 25
 1.100936e+01 1.201431e+01 1.510277e+01 1.892906e+01 2.087652e+01 2.200553e+01 2.274847e+01 2.424857e+01 2.705484e+01 2.580275e+01 2.957357e+01 1.760170e+01 8.577951e-01 1.123789e+00 1.331701e+00 1.510373e+00 1.630941e+00 1.858087e+00 2.309167e+00 2.244130e+00 2.083044e+00 1.765040e+00 1.675824e+00 1.776857e+00 1.227510e-06
<GCONST> 7.393201e+01
<TRANSP> 3
 0.000000e+00 1.000000e+00 0.000000e+00
 0.000000e+00 9.999990e-01 9.999998e-07
 0.000000e+00 0.000000e+00 0.000000e+00
<ENDHMM>
