~o
<STREAMINFO> 1 25
<VECSIZE> 25<NULLD><MFCC_E_D_N><DIAGC>
~h "jmodel"
<BEGINHMM>
<NUMSTATES> 3
<STATE> 2
<NUMMIXES> 128
<MIXTURE> 1 5.748963e-03
<MEAN> 25
 -2.583290e+00 3.181679e+00 2.311576e+00 8.754803e+00 4.372483e+00 3.447326e+00 4.064116e+00 3.935786e+00 5.829029e+00 5.253251e+00 5.881984e+00 3.080326e+00 -2.003870e+00 -1.634535e+00 -8.635845e-01 1.075636e+00 1.560509e+00 2.232036e+00 2.154522e+00 2.084522e+00 1.692902e+00 1.269074e+00 1.567531e+00 6.139120e-01 -4.692701e-02
<VARIANCE> 25
 1.006358e+01 1.176056e+01 1.494436e+01 1.867616e+01 2.320474e+01 2.215936e+01 2.189257e+01 2.197092e+01 2.101832e+01 2.253378e+01 2.096863e+01 1.707748e+01 1.790717e+00 2.111356e+00 3.026785e+00 3.209506e+00 3.738598e+00 3.356390e+00 3.317870e+00 3.380183e+00 3.522189e+00 3.727388e+00 3.514470e+00 2.834209e+00 3.120850e-03
<GCONST> 8.846603e+01
<MIXTURE> 2 4.549242e-03
<MEAN> 25
 -4.872256e+00 1.316493e+00 9.932033e-01 9.892389e+00 6.693852e+00 7.416495e+00 7.847669e+00 6.961544e+00 8.369617e+00 6.368050e+00 7.617111e+00 3.072263e+00 -6.184931e-02 4.142176e-02 1.422357e-01 2.261456e-01 2.651710e-01 2.805436e-01 2.950142e-01 3.183820e-01 3.500621e-01 3.080044e-01 1.961080e-01 8.042654e-02 1.505141e-06
<VARIANCE> 25
 6.959458e+00 8.920182e+00 1.064404e+01 1.595962e+01 1.722602e+01 1.562599e+01 1.688625e+01 1.848511e+01 1.660151e+01 1.739865e+01 1.815905e+01 1.433628e+01 1.251758e-01 2.265003e-01 3.363001e-01 4.671223e-01 6.491052e-01 8.152600e-01 9.293650e-01 1.004665e+00 1.051841e+00 1.078078e+00 1.077902e+00 1.013949e+00 1.002398e-06
<GCONST> 5.805960e+01
<MIXTURE> 3 4.549242e-03
<MEAN> 25
 -4.872256e+00 1.316493e+00 9.932033e-01 9.892389e+00 6.693852e+00 7.416495e+00 7.847669e+00 6.961544e+00 8.369617e+00 6.368050e+00 7.617111e+00 3.072263e+00 -6.184931e-02 4.142176e-02 1.422357e-01 2.261456e-01 2.651710e-01 2.805436e-01 2.950142e-01 3.183820e-01 3.500621e-01 3.080044e-01 1.961080e-01 8.042654e-02 1.505141e-06
<VARIANCE> 25
 6.959458e+00 8.920182e+00 1.064404e+01 1.595962e+01 1.722602e+01 1.562599e+01 1.688625e+01 1.848511e+01 1.660151e+01 1.739865e+01 1.815905e+01 1.433628e+01 1.251758e-01 2.265003e-01 3.363001e-01 4.671223e-01 6.491052e-01 8.152600e-01 9.293650e-01 1.004665e+00 1.051841e+00 1.078078e+00 1.077902e+00 1.013949e+00 1.002398e-06
<GCONST> 5.805960e+01
<MIXTURE> 4 1.671429e-02
<MEAN> 25
 3.314665e+00 2.619237e+00 -4.460142e+00 4.763356e-01 4.493841e+00 2.483873e-01 6.432207e-01 8.286838e-02 1.769771e+00 2.010279e+00 -2.163858e+00 -4.182750e-01 -2.527797e+00 1.375182e+00 1.560860e+00 2.965177e+00 1.080564e+00 3.308002e-02 1.494669e+00 1.333244e+00 7.864602e-01 4.406151e-01 1.231766e+00 7.809949e-01 -1.033300e-01
<VARIANCE> 25
 1.984528e+01 2.680512e+01 2.894514e+01 3.697929e+01 4.125018e+01 6.417180e+01 6.056655e+01 4.793151e+01 5.299673e+01 6.128822e+01 4.573809e+01 3.611138e+01 2.486910e+00 4.799026e+00 3.729672e+00 4.525435e+00 4.765951e+00 7.014212e+00 5.499512e+00 5.732748e+00 5.941984e+00 5.950223e+00 5.489202e+00 4.154891e+00 5.518963e-03
<GCONST> 1.043081e+02
<MIXTURE> 5 3.206198e-03
<MEAN> 25
 -3.413261e+00 2.187469e+00 6.087465e-01 9.416786e+00 6.699791e+00 6.303598e+00 7.113231e+00 4.732710e+00 5.493593e+00 3.843950e+00 4.651133e+00 2.601786e+00 -3.239800e-01 7.514603e-01 1.222707e+00 1.032499e+00 3.077290e-01 -1.011542e-01 -8.366620e-02 3.151871e-02 4.591978e-01 6.812734e-01 4.005343e-01 8.933263e-02 -2.571939e-05
<VARIANCE> 25
 1.024590e+01 1.394835e+01 2.345427e+01 2.567556e+01 2.019733e+01 1.950151e+01 2.008526e+01 2.038768e+01 2.142412e+01 2.126384e+01 2.410878e+01 1.635493e+01 1.208580e+00 1.243926e+00 1.358112e+00 1.671216e+00 2.281837e+00 2.373833e+00 2.298204e+00 2.275020e+00 2.313997e+00 2.239319e+00 2.090956e+00 1.873051e+00 1.003956e-06
<GCONST> 7.516911e+01
<MIXTURE> 6 5.475854e-03
<MEAN> 25
 9.410843e+00 -1.052428e+00 -5.686071e+00 -1.014383e+01 -2.736818e+00 7.238423e+00 -5.783288e+00 -6.105078e+00 -3.457811e+00 2.515704e+00 4.749150e+00 -1.157752e+00 4.526570e-01 7.564371e-01 -2.973457e-01 -1.459983e+00 -7.661558e-01 1.715008e+00 1.511541e+00 1.782265e-01 -1.131355e+00 -1.072194e+00 3.221170e-01 1.175984e+00 -6.222545e-03
<VARIANCE> 25
 8.067116e+00 1.665219e+01 2.527578e+01 3.782539e+01 3.370608e+01 3.176485e+01 3.810088e+01 3.606068e+01 3.573846e+01 3.602023e+01 3.593949e+01 2.454967e+01 2.925347e-01 8.363931e-01 8.264544e-01 1.691875e+00 1.470213e+00 2.623920e+00 1.659253e+00 1.783592e+00 2.328466e+00 1.806388e+00 1.956861e+00 1.287862e+00 5.224087e-04
<GCONST> 8.202069e+01
<MIXTURE> 7 5.475854e-03
<MEAN> 25
 9.410843e+00 -1.052428e+00 -5.686071e+00 -1.014383e+01 -2.736818e+00 7.238423e+00 -5.783288e+00 -6.105078e+00 -3.457811e+00 2.515704e+00 4.749150e+00 -1.157752e+00 4.526570e-01 7.564371e-01 -2.973457e-01 -1.459983e+00 -7.661558e-01 1.715008e+00 1.511541e+00 1.782265e-01 -1.131355e+00 -1.072194e+00 3.221170e-01 1.175984e+00 -6.222545e-03
<VARIANCE> 25
 8.067116e+00 1.665219e+01 2.527578e+01 3.782539e+01 3.370608e+01 3.176485e+01 3.810088e+01 3.606068e+01 3.573846e+01 3.602023e+01 3.593949e+01 2.454967e+01 2.925347e-01 8.363931e-01 8.264544e-01 1.691875e+00 1.470213e+00 2.623920e+00 1.659253e+00 1.783592e+00 2.328466e+00 1.806388e+00 1.956861e+00 1.287862e+00 5.224087e-04
<GCONST> 8.202069e+01
<MIXTURE> 8 1.165917e-02
<MEAN> 25
 -4.727191e+00 1.370413e+00 1.293632e+00 9.553853e+00 6.579386e+00 6.248959e+00 6.486292e+00 5.686520e+00 6.649283e+00 5.629751e+00 6.561529e+00 3.154538e+00 -6.279444e-01 -1.425883e+00 -1.074893e+00 -1.733845e+00 -2.305624e-01 -9.422358e-01 -1.789161e-01 -2.910973e-01 -2.546946e-01 -1.723683e-01 -2.080760e-01 8.253568e-02 9.888127e-02
<VARIANCE> 25
 9.336237e+00 9.888596e+00 1.160326e+01 1.606331e+01 1.663627e+01 1.572585e+01 1.814244e+01 1.749698e+01 1.710284e+01 1.736186e+01 1.897099e+01 1.398966e+01 2.758149e+00 2.813067e+00 3.917349e+00 3.765495e+00 3.452405e+00 3.323224e+00 3.127626e+00 3.079373e+00 2.872076e+00 2.656490e+00 2.461795e+00 1.901955e+00 6.676097e-03
<GCONST> 8.631371e+01
<MIXTURE> 9 1.199672e-02
<MEAN> 25
 7.580142e+00 3.573800e+00 -5.318562e+00 -1.199476e+01 -3.201634e+00 6.913992e+00 -2.141681e+00 -2.368827e+00 -6.097529e+00 -1.636180e+00 1.868351e+00 6.368412e-01 1.450720e+00 -6.348039e-01 1.868623e-01 -2.138024e+00 -2.719987e+00 1.628383e+00 -1.790761e+00 -8.337749e-01 -1.343194e-01 -1.131205e+00 1.235464e+00 -1.173006e-02 8.640172e-02
<VARIANCE> 25
 1.590347e+01 1.765357e+01 3.172325e+01 3.786580e+01 5.607510e+01 3.713588e+01 3.681757e+01 3.679431e+01 2.659052e+01 3.617889e+01 3.170390e+01 1.772013e+01 1.834001e+00 2.812854e+00 4.061222e+00 4.019611e+00 5.905067e+00 4.327182e+00 3.684470e+00 4.331139e+00 3.427091e+00 4.080733e+00 4.401911e+00 2.105109e+00 1.620598e-03
<GCONST> 9.561176e+01
<MIXTURE> 10 6.596976e-03
<MEAN> 25
 8.264034e-01 7.589225e+00 5.393715e+00 7.156471e+00 1.557592e+00 -2.143958e+00 -5.398277e-01 -1.665640e+00 8.510571e-01 8.441146e-01 8.512602e-01 6.588610e-01 -1.909970e+00 -6.759667e-01 -4.644330e-01 3.033178e+00 2.460636e+00 2.698234e+00 2.371509e+00 2.275528e+00 1.854689e+00 1.551050e+00 2.330492e+00 5.223931e-01 -1.379894e-01
<VARIANCE> 25
 1.946928e+01 2.107543e+01 2.228956e+01 2.896664e+01 3.836926e+01 3.499252e+01 3.514084e+01 3.379258e+01 2.763226e+01 2.899298e+01 2.690967e+01 2.491029e+01 2.279121e+00 3.415414e+00 5.521021e+00 5.161952e+00 5.531973e+00 4.488485e+00 4.681635e+00 4.824468e+00 4.382782e+00 5.008816e+00 4.431845e+00 3.179292e+00 2.691580e-03
<GCONST> 9.745805e+01
<MIXTURE> 11 1.633820e-02
<MEAN> 25
 7.425737e+00 3.946626e+00 3.509602e+00 5.275500e+00 -3.466111e+00 -2.697957e+00 -2.027471e+00 -5.516720e+00 -3.325064e+00 7.525288e-02 -2.351385e+00 -1.830849e+00 -3.673905e-01 5.235551e-01 1.664290e-01 1.410482e-01 5.632607e-01 -1.766280e-01 2.515880e-01 -1.429632e-01 -5.951858e-02 -1.599525e-03 -1.181635e-01 1.464394e-01 -1.762292e-02
<VARIANCE> 25
 1.134091e+01 2.524440e+01 2.128479e+01 3.067074e+01 3.827825e+01 3.942692e+01 4.690340e+01 4.828131e+01 4.035976e+01 3.280828e+01 3.389211e+01 2.837304e+01 9.966867e-01 1.179131e+00 1.583460e+00 2.475301e+00 1.944583e+00 2.141642e+00 1.950350e+00 2.581443e+00 2.331781e+00 2.238665e+00 1.838843e+00 1.516887e+00 9.544072e-04
<GCONST> 8.748116e+01
<MIXTURE> 12 5.904134e-03
<MEAN> 25
 1.057618e+01 3.341435e+00 -4.160801e+00 -1.561062e+01 -8.692760e+00 9.254521e+00 -1.077038e+00 -2.362490e+00 -1.932334e+00 -4.258657e+00 2.039853e+00 9.119581e-01 4.733825e-02 2.821228e-01 2.721977e-02 -3.549480e-01 -2.737367e-01 8.273570e-02 3.764851e-01 3.822517e-01 1.863839e-01 -3.867483e-01 -4.053053e-01 8.785884e-02 -5.822490e-03
<VARIANCE> 25
 8.677217e+00 2.218382e+01 2.271457e+01 3.430034e+01 3.887937e+01 3.312664e+01 3.923322e+01 4.953633e+01 4.239479e+01 4.030994e+01 3.589622e+01 2.719258e+01 2.524135e-01 6.711950e-01 6.704661e-01 1.151131e+00 1.126166e+00 1.154967e+00 1.134699e+00 1.326348e+00 1.356017e+00 1.131657e+00 1.145687e+00 1.034101e+00 5.583966e-04
<GCONST> 7.867000e+01
<MIXTURE> 13 5.904134e-03
<MEAN> 25
 1.057618e+01 3.341435e+00 -4.160801e+00 -1.561062e+01 -8.692760e+00 9.254521e+00 -1.077038e+00 -2.362490e+00 -1.932334e+00 -4.258657e+00 2.039853e+00 9.119581e-01 4.733825e-02 2.821228e-01 2.721977e-02 -3.549480e-01 -2.737367e-01 8.273570e-02 3.764851e-01 3.822517e-01 1.863839e-01 -3.867483e-01 -4.053053e-01 8.785884e-02 -5.822490e-03
<VARIANCE> 25
 8.677217e+00 2.218382e+01 2.271457e+01 3.430034e+01 3.887937e+01 3.312664e+01 3.923322e+01 4.953633e+01 4.239479e+01 4.030994e+01 3.589622e+01 2.719258e+01 2.524135e-01 6.711950e-01 6.704661e-01 1.151131e+00 1.126166e+00 1.154967e+00 1.134699e+00 1.326348e+00 1.356017e+00 1.131657e+00 1.145687e+00 1.034101e+00 5.583966e-04
<GCONST> 7.867000e+01
<MIXTURE> 14 6.488954e-03
<MEAN> 25
 -4.299912e+00 -3.528583e-01 -3.310257e-01 8.872106e+00 7.535429e+00 7.331075e+00 7.838902e+00 7.313708e+00 7.211934e+00 5.219690e+00 6.800415e+00 4.089353e+00 -2.718427e-01 1.937378e-01 3.666008e-01 3.070268e-01 7.553526e-03 5.876608e-02 9.916109e-02 1.769191e-01 2.932704e-01 5.319635e-01 5.076307e-01 7.698112e-02 -9.402941e-03
<VARIANCE> 25
 9.281973e+00 1.387823e+01 1.859682e+01 1.797719e+01 2.081676e+01 1.980670e+01 2.142715e+01 2.058089e+01 2.030263e+01 2.382898e+01 2.193221e+01 1.592831e+01 9.599299e-01 1.631708e+00 1.766979e+00 1.926958e+00 2.231299e+00 2.249563e+00 2.247120e+00 2.234927e+00 2.283936e+00 2.506506e+00 2.206259e+00 1.821150e+00 1.025455e-03
<GCONST> 8.191998e+01
<MIXTURE> 15 2.475190e-03
<MEAN> 25
 -5.414515e+00 -6.289815e-01 -2.098222e-01 7.360343e+00 5.741875e+00 5.681558e+00 6.073938e+00 4.988379e+00 5.144821e+00 4.151222e+00 5.480513e+00 2.535264e+00 -1.214770e-01 -2.881976e-02 7.268972e-02 2.398275e-01 4.894848e-01 7.827317e-01 1.071836e+00 1.183192e+00 1.060431e+00 7.492502e-01 4.186507e-01 1.466599e-01 -1.219778e-04
<VARIANCE> 25
 6.988930e+00 5.661342e+00 9.024970e+00 1.278938e+01 1.417320e+01 1.436234e+01 1.492518e+01 1.487133e+01 1.417058e+01 1.414951e+01 1.519362e+01 1.247585e+01 1.243661e-01 2.055867e-01 3.205374e-01 5.059732e-01 6.972736e-01 7.954400e-01 7.607539e-01 7.899566e-01 9.072084e-01 1.035227e+00 1.069175e+00 1.053939e+00 2.839398e-05
<GCONST> 5.864072e+01
<MIXTURE> 16 2.475190e-03
<MEAN> 25
 -5.414515e+00 -6.289815e-01 -2.098222e-01 7.360343e+00 5.741875e+00 5.681558e+00 6.073938e+00 4.988379e+00 5.144821e+00 4.151222e+00 5.480513e+00 2.535264e+00 -1.214770e-01 -2.881976e-02 7.268972e-02 2.398275e-01 4.894848e-01 7.827317e-01 1.071836e+00 1.183192e+00 1.060431e+00 7.492502e-01 4.186507e-01 1.466599e-01 -1.219778e-04
<VARIANCE> 25
 6.988930e+00 5.661342e+00 9.024970e+00 1.278938e+01 1.417320e+01 1.436234e+01 1.492518e+01 1.487133e+01 1.417058e+01 1.414951e+01 1.519362e+01 1.247585e+01 1.243661e-01 2.055867e-01 3.205374e-01 5.059732e-01 6.972736e-01 7.954400e-01 7.607539e-01 7.899566e-01 9.072084e-01 1.035227e+00 1.069175e+00 1.053939e+00 2.839398e-05
<GCONST> 5.864072e+01
<MIXTURE> 17 9.518312e-03
<MEAN> 25
 3.272812e+00 -1.608239e+00 6.427299e+00 2.462323e+00 -6.672717e+00 -5.934366e+00 -4.080448e+00 3.733152e-02 -2.367994e+00 -3.627312e+00 5.045884e-01 -6.953275e-01 -7.049903e-01 -1.312241e+00 1.266285e+00 -2.121894e+00 -2.231229e+00 6.113362e-02 -2.322301e-03 5.870648e-01 -2.101516e-01 -1.034308e-01 9.936701e-01 1.806731e-01 8.218281e-02
<VARIANCE> 25
 1.708150e+01 3.723475e+01 2.859769e+01 3.755540e+01 4.652766e+01 4.625028e+01 4.827705e+01 3.208307e+01 3.685722e+01 2.647251e+01 2.801872e+01 2.977558e+01 1.809811e+00 2.852978e+00 3.692454e+00 2.833071e+00 3.989491e+00 5.487284e+00 5.310326e+00 4.768423e+00 3.769298e+00 3.724688e+00 2.828488e+00 3.072230e+00 2.003904e-03
<GCONST> 9.690878e+01
<MIXTURE> 18 1.221018e-02
<MEAN> 25
 3.366981e+00 3.174944e+00 7.195319e+00 5.147443e+00 -5.041356e+00 -8.386971e+00 -2.308834e+00 -7.866738e-01 -3.429245e+00 -2.570565e+00 -8.203787e-01 2.848302e-01 -3.269370e-01 1.812060e+00 -3.557180e-01 2.175497e+00 2.983795e+00 8.470469e-01 1.161402e+00 2.466838e-01 4.763219e-01 9.074570e-01 -3.485287e-01 5.146366e-02 -1.248016e-01
<VARIANCE> 25
 1.429150e+01 2.724874e+01 2.810937e+01 2.341139e+01 3.548609e+01 2.835115e+01 3.391606e+01 2.977903e+01 3.231705e+01 2.802784e+01 2.854953e+01 2.545247e+01 2.750357e+00 3.128164e+00 3.991113e+00 3.958362e+00 3.548660e+00 5.187187e+00 4.204212e+00 4.275003e+00 3.853424e+00 4.067164e+00 3.998082e+00 2.957788e+00 3.439757e-03
<GCONST> 9.589320e+01
<MIXTURE> 19 9.912824e-03
<MEAN> 25
 -9.251128e+00 1.860663e+00 -3.555796e-01 4.317002e-01 4.741771e+00 2.079098e+00 3.696582e+00 1.076910e+00 1.181521e+00 1.713526e+00 1.364141e+00 2.129812e+00 2.036616e+00 1.653281e+00 2.218444e+00 6.838356e-01 -1.123373e+00 -8.340445e-01 -1.088431e+00 -1.264858e+00 -1.421136e+00 -1.370344e+00 -8.492883e-01 -7.644632e-01 3.917870e-03
<VARIANCE> 25
 5.681351e+01 2.769857e+01 4.893729e+01 5.426920e+01 3.651679e+01 3.340810e+01 2.927017e+01 2.738652e+01 3.526795e+01 2.831141e+01 3.025168e+01 1.885860e+01 2.303062e+00 2.139193e+00 2.060974e+00 2.200624e+00 2.583040e+00 2.456301e+00 2.326532e+00 2.446727e+00 2.082160e+00 2.436506e+00 2.098558e+00 1.680758e+00 2.293853e-03
<GCONST> 9.173880e+01
<MIXTURE> 20 6.308331e-03
<MEAN> 25
 -1.418068e+01 7.416330e+00 8.455506e-01 6.151635e+00 4.843710e+00 1.636497e+00 5.209371e+00 8.536536e-01 9.223599e-01 7.992049e-01 2.567498e+00 -3.026034e-01 -3.285544e+00 -8.667919e-01 -1.565225e+00 3.324037e-01 1.540967e+00 2.063100e+00 1.978866e+00 2.055909e+00 2.144419e+00 2.040200e+00 1.684879e+00 9.453049e-01 4.732072e-02
<VARIANCE> 25
 1.966900e+01 2.345364e+01 3.095891e+01 3.717739e+01 3.084717e+01 2.789174e+01 2.993019e+01 3.147250e+01 2.796161e+01 2.821456e+01 2.517010e+01 2.091747e+01 2.093622e+00 2.182149e+00 1.909821e+00 2.541478e+00 2.702561e+00 2.312910e+00 2.311463e+00 2.320775e+00 2.235556e+00 2.652021e+00 2.241592e+00 1.865505e+00 1.886250e-03
<GCONST> 8.922045e+01
<MIXTURE> 21 7.928653e-03
<MEAN> 25
 2.669044e+00 -6.104104e+00 6.861044e+00 2.744753e-01 -1.196415e+01 -7.213599e+00 -6.293897e+00 3.321153e+00 -1.227549e+00 -5.853277e+00 2.681373e+00 -6.110913e-01 -8.507921e-01 1.436794e+00 2.617883e+00 4.833868e-02 -1.552008e+00 3.309171e-01 8.093785e-01 -1.501428e+00 -2.119297e+00 5.442859e-02 9.297048e-01 3.685470e-01 -6.640145e-03
<VARIANCE> 25
 1.052713e+01 2.144457e+01 2.625734e+01 2.831106e+01 2.578238e+01 2.913425e+01 5.780535e+01 3.660217e+01 3.754906e+01 3.715554e+01 3.927277e+01 1.974194e+01 4.673197e-01 7.565253e-01 1.717692e+00 1.233734e+00 1.648270e+00 1.788647e+00 3.171746e+00 2.194637e+00 1.776439e+00 2.512904e+00 2.076932e+00 1.878948e+00 5.458045e-04
<GCONST> 8.422753e+01
<MIXTURE> 22 8.827789e-03
<MEAN> 25
 -1.792079e+01 7.154878e+00 -4.131072e+00 7.391864e+00 4.602631e+00 2.760234e+00 8.399710e+00 1.748276e+00 5.378951e+00 3.300475e+00 5.715660e+00 1.185390e+00 -3.095301e-01 -2.075700e-01 -1.255981e-01 -1.492284e-01 -7.145295e-03 1.369608e-01 1.807302e-01 1.778979e-01 2.485291e-01 2.073984e-01 1.726497e-01 1.924059e-01 8.858159e-03
<VARIANCE> 25
 8.116925e+00 1.682458e+01 1.738416e+01 2.517696e+01 2.289511e+01 2.084634e+01 1.943016e+01 1.871059e+01 1.814087e+01 2.087156e+01 1.925042e+01 1.378875e+01 1.090837e+00 1.357301e+00 1.363925e+00 1.571993e+00 1.408802e+00 1.526918e+00 1.508865e+00 1.532833e+00 1.614209e+00 1.544852e+00 1.357407e+00 1.167964e+00 1.745540e-03
<GCONST> 7.831071e+01
<MIXTURE> 23 6.455497e-03
<MEAN> 25
 7.827413e+00 2.527728e+00 3.003720e+00 2.454494e+00 -4.691931e+00 -3.180282e+00 -4.106590e+00 -6.281416e+00 -3.379309e+00 -1.031474e+00 -4.136322e+00 -2.116915e+00 3.440278e-02 1.795267e-01 1.001064e-02 5.535605e-02 1.292358e-03 4.390549e-02 2.235401e-02 -4.051740e-02 1.072575e-02 3.963128e-02 -3.015804e-03 4.535435e-02 -4.337772e-03
<VARIANCE> 25
 1.125987e+01 2.261909e+01 2.436618e+01 4.029062e+01 3.974783e+01 5.370838e+01 6.009622e+01 5.756513e+01 4.773719e+01 4.641671e+01 4.781318e+01 3.980981e+01 1.173700e-01 2.924811e-01 3.758569e-01 4.895355e-01 5.905142e-01 7.185219e-01 7.697665e-01 8.793298e-01 8.786529e-01 8.934821e-01 8.169687e-01 7.594680e-01 8.908437e-05
<GCONST> 7.308862e+01
<MIXTURE> 24 6.455497e-03
<MEAN> 25
 7.827413e+00 2.527728e+00 3.003720e+00 2.454494e+00 -4.691931e+00 -3.180282e+00 -4.106590e+00 -6.281416e+00 -3.379309e+00 -1.031474e+00 -4.136322e+00 -2.116915e+00 3.440278e-02 1.795267e-01 1.001064e-02 5.535605e-02 1.292358e-03 4.390549e-02 2.235401e-02 -4.051740e-02 1.072575e-02 3.963128e-02 -3.015804e-03 4.535435e-02 -4.337772e-03
<VARIANCE> 25
 1.125987e+01 2.261909e+01 2.436618e+01 4.029062e+01 3.974783e+01 5.370838e+01 6.009622e+01 5.756513e+01 4.773719e+01 4.641671e+01 4.781318e+01 3.980981e+01 1.173700e-01 2.924811e-01 3.758569e-01 4.895355e-01 5.905142e-01 7.185219e-01 7.697665e-01 8.793298e-01 8.786529e-01 8.934821e-01 8.169687e-01 7.594680e-01 8.908437e-05
<GCONST> 7.308862e+01
<MIXTURE> 25 1.118642e-02
<MEAN> 25
 -9.381244e-01 5.046683e-01 1.584938e+01 4.962350e-01 -1.377251e+01 -1.079055e+00 -8.036495e+00 -3.691827e+00 -5.977482e+00 -7.110096e+00 5.077880e+00 -2.589955e+00 -2.219058e-01 5.534859e-01 2.244246e-01 -3.338364e-01 -2.071053e-02 3.100761e-01 2.963363e-01 -4.376980e-01 -3.508791e-02 2.055186e-01 -2.232273e-01 -8.048311e-02 -5.445606e-03
<VARIANCE> 25
 9.310718e+00 2.887839e+01 1.981727e+01 2.600546e+01 3.170869e+01 3.002170e+01 3.806275e+01 3.017548e+01 2.390637e+01 3.094402e+01 1.606414e+01 2.141726e+01 5.191728e-01 1.513404e+00 1.245584e+00 1.454034e+00 2.086663e+00 1.634394e+00 1.492558e+00 2.152796e+00 1.593943e+00 1.324843e+00 1.426607e+00 9.827858e-01 1.826232e-03
<GCONST> 8.166476e+01
<MIXTURE> 26 7.727677e-03
<MEAN> 25
 1.404464e+00 -5.304057e+00 -9.728430e+00 -9.415637e-01 7.620319e+00 5.783822e+00 4.502460e+00 -5.333651e-01 2.107546e+00 6.907280e-01 -3.934181e+00 -1.114282e+00 -6.624339e-01 7.076851e-01 2.502001e-01 7.923821e-01 2.642551e-01 -1.748780e-01 2.226290e-01 5.379863e-01 1.876027e-01 1.850386e-01 3.305070e-01 2.956417e-01 -4.826389e-02
<VARIANCE> 25
 2.560270e+01 3.757431e+01 2.296138e+01 5.555400e+01 3.711029e+01 4.762300e+01 3.913965e+01 4.384528e+01 3.529751e+01 5.632386e+01 3.957163e+01 4.029409e+01 1.620110e+00 1.933355e+00 1.897089e+00 1.800026e+00 2.027195e+00 2.984423e+00 2.210835e+00 2.820064e+00 2.712430e+00 2.651593e+00 2.184782e+00 2.168680e+00 3.036124e-03
<GCONST> 9.359291e+01
<MIXTURE> 27 7.727677e-03
<MEAN> 25
 1.404464e+00 -5.304057e+00 -9.728430e+00 -9.415637e-01 7.620319e+00 5.783822e+00 4.502460e+00 -5.333651e-01 2.107546e+00 6.907280e-01 -3.934181e+00 -1.114282e+00 -6.624339e-01 7.076851e-01 2.502001e-01 7.923821e-01 2.642551e-01 -1.748780e-01 2.226290e-01 5.379863e-01 1.876027e-01 1.850386e-01 3.305070e-01 2.956417e-01 -4.826389e-02
<VARIANCE> 25
 2.560270e+01 3.757431e+01 2.296138e+01 5.555400e+01 3.711029e+01 4.762300e+01 3.913965e+01 4.384528e+01 3.529751e+01 5.632386e+01 3.957163e+01 4.029409e+01 1.620110e+00 1.933355e+00 1.897089e+00 1.800026e+00 2.027195e+00 2.984423e+00 2.210835e+00 2.820064e+00 2.712430e+00 2.651593e+00 2.184782e+00 2.168680e+00 3.036124e-03
<GCONST> 9.359291e+01
<MIXTURE> 28 5.036674e-03
<MEAN> 25
 -5.405746e+00 9.071507e-02 -1.560378e+00 6.570254e+00 5.263447e+00 3.434823e+00 5.437584e+00 3.202834e+00 3.878662e+00 2.369930e+00 2.602566e+00 3.162959e+00 -1.137801e-01 2.217994e-01 5.219679e-01 7.842681e-01 8.190565e-01 6.950108e-01 5.171022e-01 3.832352e-01 4.427358e-01 4.785615e-01 3.566059e-01 1.852059e-01 -1.699038e-05
<VARIANCE> 25
 1.049427e+01 8.790053e+00 1.203881e+01 1.488562e+01 1.464716e+01 1.820215e+01 1.788589e+01 1.929047e+01 1.726208e+01 1.661078e+01 2.056893e+01 1.525005e+01 2.541827e-01 3.348846e-01 4.067118e-01 4.614322e-01 6.175078e-01 8.467339e-01 1.049903e+00 1.146479e+00 1.104588e+00 1.028940e+00 1.055900e+00 1.070454e+00 1.015278e-06
<GCONST> 6.034660e+01
<MIXTURE> 29 5.036674e-03
<MEAN> 25
 -5.405746e+00 9.071507e-02 -1.560378e+00 6.570254e+00 5.263447e+00 3.434823e+00 5.437584e+00 3.202834e+00 3.878662e+00 2.369930e+00 2.602566e+00 3.162959e+00 -1.137801e-01 2.217994e-01 5.219679e-01 7.842681e-01 8.190565e-01 6.950108e-01 5.171022e-01 3.832352e-01 4.427358e-01 4.785615e-01 3.566059e-01 1.852059e-01 -1.699038e-05
<VARIANCE> 25
 1.049427e+01 8.790053e+00 1.203881e+01 1.488562e+01 1.464716e+01 1.820215e+01 1.788589e+01 1.929047e+01 1.726208e+01 1.661078e+01 2.056893e+01 1.525005e+01 2.541827e-01 3.348846e-01 4.067118e-01 4.614322e-01 6.175078e-01 8.467339e-01 1.049903e+00 1.146479e+00 1.104588e+00 1.028940e+00 1.055900e+00 1.070454e+00 1.015278e-06
<GCONST> 6.034660e+01
<MIXTURE> 30 8.917812e-03
<MEAN> 25
 -4.111454e+00 6.990509e-01 4.845687e-01 8.490171e+00 8.046322e+00 6.455276e+00 7.731688e+00 7.338654e+00 6.110054e+00 4.457660e+00 5.825388e+00 3.205124e+00 -3.150447e-02 2.157922e-02 4.358440e-02 6.813549e-02 6.080973e-02 -2.714193e-02 -5.240027e-03 2.441284e-02 -1.664305e-02 2.255476e-02 6.418469e-02 -2.362725e-02 -1.128753e-03
<VARIANCE> 25
 7.022671e+00 1.376937e+01 9.521272e+00 1.461041e+01 1.454900e+01 2.193714e+01 1.728191e+01 1.794602e+01 1.659363e+01 1.755115e+01 2.802143e+01 1.459231e+01 8.803225e-02 1.855538e-01 2.978078e-01 4.663836e-01 6.751965e-01 7.592013e-01 7.155213e-01 8.255367e-01 8.648590e-01 8.611801e-01 8.785950e-01 8.627238e-01 5.164553e-05
<GCONST> 6.091805e+01
<MIXTURE> 31 4.136493e-03
<MEAN> 25
 -3.056528e+00 -5.242521e+00 -3.216439e-01 4.601190e+00 4.146300e+00 1.338156e+00 5.007069e+00 6.206480e+00 2.762871e+00 1.650562e+00 6.127014e+00 3.160049e+00 2.355932e-01 4.996278e-01 -1.835511e-01 3.271524e-01 1.596975e-01 4.423883e-01 2.467678e-01 8.353547e-02 4.070234e-01 3.138275e-01 1.265237e-01 9.221065e-02 -1.911895e-02
<VARIANCE> 25
 7.145226e+00 1.650659e+01 1.805636e+01 1.793952e+01 2.612139e+01 2.393129e+01 2.280750e+01 2.566440e+01 2.433088e+01 2.788519e+01 2.067180e+01 1.727293e+01 1.884846e-01 4.680689e-01 5.738217e-01 7.579181e-01 9.275481e-01 1.121199e+00 1.155818e+00 1.386123e+00 1.283065e+00 1.306185e+00 1.323303e+00 1.136475e+00 2.475972e-04
<GCONST> 7.157625e+01
<MIXTURE> 32 4.136493e-03
<MEAN> 25
 -3.056528e+00 -5.242521e+00 -3.216439e-01 4.601190e+00 4.146300e+00 1.338156e+00 5.007069e+00 6.206480e+00 2.762871e+00 1.650562e+00 6.127014e+00 3.160049e+00 2.355932e-01 4.996278e-01 -1.835511e-01 3.271524e-01 1.596975e-01 4.423883e-01 2.467678e-01 8.353547e-02 4.070234e-01 3.138275e-01 1.265237e-01 9.221065e-02 -1.911895e-02
<VARIANCE> 25
 7.145226e+00 1.650659e+01 1.805636e+01 1.793952e+01 2.612139e+01 2.393129e+01 2.280750e+01 2.566440e+01 2.433088e+01 2.788519e+01 2.067180e+01 1.727293e+01 1.884846e-01 4.680689e-01 5.738217e-01 7.579181e-01 9.275481e-01 1.121199e+00 1.155818e+00 1.386123e+00 1.283065e+00 1.306185e+00 1.323303e+00 1.136475e+00 2.475972e-04
<GCONST> 7.157625e+01
<MIXTURE> 33 1.508826e-02
<MEAN> 25
 6.378027e+00 -4.073977e+00 -2.099234e+00 -2.605445e+00 -2.101420e+00 -5.490088e+00 -7.281114e+00 1.759870e+00 2.304470e+00 -5.234468e-01 -4.427160e+00 -3.076366e+00 6.262790e-01 -1.224826e+00 -2.322280e+00 -1.893183e+00 1.386317e+00 1.469829e+00 -8.019838e-01 6.233975e-01 9.736125e-01 5.764963e-01 -3.115643e-01 -1.364911e+00 3.919548e-02
<VARIANCE> 25
 1.083560e+01 2.493722e+01 2.907985e+01 3.484558e+01 4.076512e+01 4.289693e+01 4.607797e+01 4.572075e+01 3.967643e+01 4.300310e+01 3.541122e+01 2.865450e+01 1.184779e+00 2.012999e+00 2.454225e+00 2.127498e+00 4.208966e+00 3.383503e+00 4.317331e+00 5.429789e+00 3.700176e+00 4.263427e+00 3.369958e+00 2.550244e+00 1.500270e-03
<GCONST> 9.469101e+01
<MIXTURE> 34 1.588179e-02
<MEAN> 25
 8.896405e+00 4.467908e-02 1.128531e-01 1.139919e+00 -2.962960e+00 -1.477458e+00 -6.119143e+00 -4.669151e+00 -1.824237e+00 1.159865e-01 -2.611027e+00 -3.639793e+00 -2.208177e-02 1.347271e+00 1.454706e+00 2.394298e+00 -3.082151e-02 -1.753794e-01 7.956972e-01 -1.613981e+00 -8.981872e-01 2.537790e-01 -5.533670e-01 2.451230e-01 -6.253054e-02
<VARIANCE> 25
 7.887321e+00 3.139839e+01 2.958966e+01 5.037238e+01 4.229022e+01 4.988525e+01 5.535020e+01 5.654361e+01 5.269637e+01 4.323632e+01 4.821173e+01 3.197786e+01 1.256667e+00 1.972691e+00 4.279877e+00 4.022434e+00 5.614890e+00 5.853407e+00 5.492489e+00 6.202029e+00 5.200771e+00 4.971280e+00 4.992148e+00 3.857827e+00 1.150009e-03
<GCONST> 9.975749e+01
<MIXTURE> 35 1.467755e-02
<MEAN> 25
 -1.901148e+00 -3.817627e+00 -9.545661e+00 -1.751343e+00 8.991979e+00 6.995020e-01 2.586303e+00 1.191863e+00 3.336852e-02 4.782493e+00 -5.628888e-01 1.635405e+00 4.326017e-01 -1.249306e+00 -1.260367e+00 -1.647279e+00 2.823741e-01 -1.730501e-01 -9.032373e-01 -6.016598e-01 -3.031023e-01 4.128316e-01 -5.162783e-02 -9.208342e-02 9.572712e-02
<VARIANCE> 25
 1.692802e+01 2.922256e+01 3.259681e+01 6.116121e+01 3.088779e+01 5.063842e+01 3.952776e+01 3.561921e+01 4.240443e+01 4.142725e+01 4.244794e+01 2.646956e+01 2.744036e+00 2.786443e+00 6.006655e+00 4.340320e+00 4.204503e+00 5.705026e+00 3.684368e+00 4.068439e+00 4.337604e+00 4.167936e+00 4.795219e+00 3.526867e+00 4.282891e-03
<GCONST> 1.002985e+02
<MIXTURE> 36 1.093293e-02
<MEAN> 25
 3.588540e+00 -3.921654e+00 6.979347e+00 4.891072e+00 -8.841883e+00 -8.184126e+00 -5.623387e+00 2.619384e+00 -1.223668e+00 -3.078238e+00 3.000964e+00 -1.888559e-01 1.697811e-01 2.060712e-01 -7.848191e-01 -3.612649e-02 7.555238e-01 -2.026009e-01 4.167097e-02 2.495219e-02 4.518967e-01 4.920817e-01 -3.225809e-01 -5.638102e-02 -2.413290e-02
<VARIANCE> 25
 9.173373e+00 1.339840e+01 1.388620e+01 2.710527e+01 3.777292e+01 2.675365e+01 3.593464e+01 2.488534e+01 2.451797e+01 2.831633e+01 1.902401e+01 2.062342e+01 6.008510e-01 7.463030e-01 1.055166e+00 1.279325e+00 1.393368e+00 1.599728e+00 1.788257e+00 1.218607e+00 1.500303e+00 2.866583e+00 1.221515e+00 1.144518e+00 7.626642e-04
<GCONST> 7.861189e+01
<MIXTURE> 37 1.246826e-02
<MEAN> 25
 -9.599853e-02 5.990801e+00 1.246358e+01 -4.919052e+00 -8.932817e+00 -1.367571e+00 -6.549263e+00 -7.131065e+00 -3.065579e+00 -2.613546e+00 -2.698733e+00 -1.071710e+00 4.197595e-01 6.751249e-01 -1.426974e+00 3.244125e+00 2.374722e+00 -8.425718e-01 1.485151e+00 8.515763e-01 3.765343e-01 2.281265e-01 1.738893e-01 1.144708e-01 -1.019698e-01
<VARIANCE> 25
 1.517204e+01 3.386040e+01 2.685417e+01 4.584591e+01 3.693904e+01 3.150488e+01 4.879951e+01 3.482870e+01 3.373088e+01 4.400826e+01 3.639240e+01 2.681051e+01 2.681126e+00 2.928667e+00 2.533581e+00 4.369836e+00 4.429940e+00 4.323617e+00 4.105464e+00 3.852192e+00 2.978431e+00 4.226385e+00 3.907884e+00 2.500068e+00 3.466587e-03
<GCONST> 9.731393e+01
<MIXTURE> 38 1.154525e-02
<MEAN> 25
 -5.321899e+00 8.216402e+00 4.512887e+00 2.906780e+00 5.020376e-01 -7.580356e+00 2.983027e-01 -2.776014e+00 -2.043267e+00 -3.163725e+00 -1.693490e+00 1.809715e-01 -4.227284e+00 1.424411e+00 -5.513360e-01 8.247851e-01 2.599474e+00 9.534026e-01 1.769107e+00 3.236316e-01 3.683393e-01 -1.347651e-01 3.558388e-01 6.761144e-01 5.527968e-02
<VARIANCE> 25
 3.026281e+01 2.598593e+01 3.093275e+01 2.856516e+01 3.873814e+01 4.050387e+01 3.202531e+01 3.312397e+01 3.340998e+01 3.145186e+01 2.204277e+01 2.584363e+01 1.982438e+00 3.525474e+00 3.075457e+00 4.767297e+00 3.207264e+00 4.713122e+00 3.794421e+00 4.617116e+00 4.004807e+00 5.235373e+00 4.314110e+00 2.843127e+00 1.696233e-03
<GCONST> 9.640483e+01
<MIXTURE> 39 9.501865e-03
<MEAN> 25
 1.202388e+00 2.275870e+00 1.033843e+01 -8.877683e+00 -1.146021e+01 -1.032475e+00 -3.314392e+00 -6.554597e+00 -4.413124e+00 5.453526e-01 -3.361774e+00 -2.266522e+00 -7.439749e-01 1.535637e+00 1.643653e+00 -1.388237e+00 5.141182e-02 1.223540e+00 -1.177346e+00 -1.282196e+00 3.715608e-01 4.514186e-01 -5.341209e-01 1.169091e-01 1.508769e-03
<VARIANCE> 25
 9.345803e+00 3.290703e+01 3.148271e+01 4.104436e+01 3.720737e+01 4.163203e+01 4.764638e+01 3.286443e+01 3.878676e+01 3.592856e+01 3.868929e+01 2.877078e+01 6.838127e-01 1.524680e+00 1.505349e+00 2.846546e+00 2.385840e+00 2.755321e+00 2.986013e+00 2.726929e+00 2.522569e+00 2.551869e+00 2.101341e+00 2.013025e+00 1.161395e-03
<GCONST> 8.981898e+01
<MIXTURE> 40 1.030800e-02
<MEAN> 25
 -8.791794e+00 2.423034e+00 -1.134303e+00 7.980127e+00 4.247026e+00 4.974599e+00 5.412785e+00 4.412174e+00 4.330043e+00 4.052413e+00 5.192071e+00 1.595769e+00 -1.026642e-01 -2.183086e-01 -2.035613e-03 -2.112852e-01 -9.679989e-02 -1.098455e-01 8.495845e-02 6.699502e-02 -8.233914e-03 -9.188721e-03 1.901420e-02 4.525451e-02 3.321372e-03
<VARIANCE> 25
 4.359978e+01 2.097431e+01 2.822217e+01 2.670588e+01 2.722883e+01 2.158813e+01 1.875525e+01 1.808330e+01 1.791750e+01 1.803465e+01 2.183359e+01 1.519439e+01 7.012742e-01 7.198383e-01 8.437464e-01 1.068703e+00 1.070170e+00 1.213603e+00 1.287245e+00 1.264062e+00 1.246550e+00 1.194176e+00 1.187032e+00 1.121693e+00 8.185348e-04
<GCONST> 7.671294e+01
<MIXTURE> 41 6.713375e-03
<MEAN> 25
 1.305518e+00 1.773873e+00 1.045890e+01 -6.946815e+00 -1.046676e+01 -3.852436e+00 -2.494667e+00 -5.029463e+00 -4.648132e+00 2.646849e+00 -1.734575e+00 -9.576101e-01 7.646981e-02 -7.625383e-01 1.693349e+00 -3.556436e+00 -2.456623e+00 -1.076026e-01 -5.088466e-01 -3.591709e-01 -8.248054e-01 1.086243e+00 -1.043708e+00 7.931462e-02 8.627622e-02
<VARIANCE> 25
 1.169566e+01 2.983460e+01 3.278253e+01 4.012463e+01 3.880278e+01 4.011087e+01 3.731047e+01 2.991578e+01 3.310920e+01 2.888480e+01 3.187674e+01 2.720389e+01 3.176228e+00 3.312972e+00 3.826076e+00 3.791509e+00 4.909473e+00 5.879323e+00 4.715518e+00 4.553899e+00 3.972002e+00 4.214201e+00 3.835396e+00 3.226859e+00 2.925341e-03
<GCONST> 9.793661e+01
<MIXTURE> 42 1.106211e-02
<MEAN> 25
 -2.496464e+00 4.453116e+00 3.486368e+00 2.701585e+00 9.259156e-01 -7.481485e+00 -8.066754e-01 -3.514716e+00 -3.472337e-01 -7.380363e-01 -2.341287e+00 1.692281e+00 4.204764e+00 -8.601896e-01 1.351380e+00 9.050588e-02 -2.950894e+00 -1.644789e-01 -2.755713e+00 -8.393428e-01 -6.007143e-01 1.152699e-01 8.796670e-01 -1.418143e+00 1.193738e-02
<VARIANCE> 25
 3.197079e+01 2.075236e+01 3.976302e+01 2.056596e+01 3.783957e+01 3.746264e+01 3.053132e+01 3.542025e+01 2.809882e+01 2.780907e+01 1.690518e+01 1.565049e+01 3.150280e+00 4.640507e+00 5.192496e+00 3.868375e+00 4.713408e+00 7.086423e+00 4.639130e+00 5.013101e+00 3.877084e+00 6.097064e+00 3.588140e+00 3.528057e+00 3.954020e-03
<GCONST> 9.813872e+01
<MIXTURE> 43 7.108249e-03
<MEAN> 25
 3.165795e+00 -6.303133e+00 -2.251120e+00 -5.184464e+00 -7.394404e+00 -3.406761e+00 4.138346e+00 1.310520e+00 -5.061277e+00 -7.088597e+00 -4.319959e+00 -1.246135e+00 2.369148e-01 2.163665e+00 1.912937e+00 -1.335041e-01 -1.428732e+00 -7.955220e-01 -9.694080e-01 -7.783532e-01 8.222622e-01 1.468723e+00 3.432877e-01 2.106225e-02 -4.509628e-02
<VARIANCE> 25
 9.602481e+00 1.974789e+01 2.736204e+01 3.523177e+01 3.845840e+01 3.661447e+01 3.331148e+01 3.978331e+01 3.964027e+01 3.867739e+01 2.656702e+01 2.955789e+01 6.917360e-01 1.251501e+00 1.570886e+00 2.492262e+00 2.376947e+00 2.381714e+00 2.651727e+00 3.026371e+00 2.607325e+00 2.577703e+00 2.331007e+00 1.918998e+00 9.430544e-04
<GCONST> 8.797737e+01
<MIXTURE> 44 7.328289e-03
<MEAN> 25
 -1.524667e+01 1.712958e+00 3.495956e+00 -3.220923e+00 3.457971e+00 1.850495e+00 1.295539e-01 2.421725e+00 1.461247e+00 -8.240983e-01 1.672605e+00 2.045792e+00 -1.659830e-01 -3.692009e-03 1.583256e-01 2.880998e-01 -9.607770e-02 1.965938e-01 4.628218e-01 1.001778e-01 2.584120e-01 1.605386e-01 4.199661e-02 9.207792e-02 4.790660e-03
<VARIANCE> 25
 4.319147e+01 2.842391e+01 3.463601e+01 3.005146e+01 2.918578e+01 3.189955e+01 2.561081e+01 3.162744e+01 2.744644e+01 2.724390e+01 2.799751e+01 1.964983e+01 1.224815e+00 1.519622e+00 1.384433e+00 1.331799e+00 2.136414e+00 1.634576e+00 1.507424e+00 1.635716e+00 1.570346e+00 1.524954e+00 1.385357e+00 1.227116e+00 1.284768e-03
<GCONST> 8.460094e+01
<MIXTURE> 45 1.364932e-02
<MEAN> 25
 -1.140901e+01 2.906153e+00 -8.445272e-01 2.782117e+00 5.124042e+00 -1.247703e+00 4.716141e+00 2.721409e+00 3.126365e+00 1.894718e+00 1.962569e+00 2.523197e+00 -2.895115e+00 6.618023e-01 -5.699872e-01 -7.301176e-01 3.742056e-01 -2.078421e-01 4.562024e-01 -1.655536e-01 8.998252e-02 -1.825722e-01 1.082802e-01 2.188300e-01 1.106474e-01
<VARIANCE> 25
 3.791602e+01 3.154397e+01 3.036816e+01 3.137194e+01 3.326460e+01 3.892619e+01 2.711228e+01 2.446532e+01 2.280134e+01 2.774843e+01 2.610876e+01 1.532863e+01 2.322055e+00 3.089261e+00 2.635425e+00 2.643565e+00 2.564901e+00 2.910757e+00 2.061819e+00 2.401424e+00 2.245636e+00 2.128298e+00 1.971725e+00 1.651678e+00 4.291766e-03
<GCONST> 9.081388e+01
<MIXTURE> 46 9.336259e-03
<MEAN> 25
 -9.421726e+00 2.331017e+00 1.179651e+00 7.533196e+00 5.948593e+00 3.300993e+00 7.065964e+00 4.482639e+00 5.668319e+00 4.714023e+00 4.953482e+00 2.892028e+00 1.057213e+00 -2.353944e-01 3.753217e-02 9.938689e-01 6.035902e-01 9.354778e-01 3.806676e-01 6.715503e-01 4.690132e-01 5.078425e-01 6.512533e-01 5.260900e-01 -1.050433e-01
<VARIANCE> 25
 3.432043e+01 4.367151e+01 3.857152e+01 4.986483e+01 5.058113e+01 4.081481e+01 3.685888e+01 3.518065e+01 3.320509e+01 3.089385e+01 2.919666e+01 2.035190e+01 3.894717e+00 4.127826e+00 3.878012e+00 4.137174e+00 4.147472e+00 3.710763e+00 3.379500e+00 3.111043e+00 2.970719e+00 2.859438e+00 2.331448e+00 1.786527e+00 7.969200e-03
<GCONST> 9.831506e+01
<MIXTURE> 47 7.116147e-03
<MEAN> 25
 7.128504e+00 -7.233013e+00 -7.393083e+00 -6.585792e+00 1.000022e+00 1.852348e+00 -2.278525e+00 5.043251e-01 2.948727e+00 4.915414e-01 -3.763595e+00 -6.385016e+00 -2.074096e-01 -1.226026e+00 -6.939901e-01 -4.087585e-01 6.540661e-01 8.613437e-01 8.433103e-01 2.642670e-01 2.025108e-01 -8.244995e-01 -5.615669e-01 -4.921958e-01 2.914635e-02
<VARIANCE> 25
 1.102796e+01 2.173677e+01 2.179530e+01 3.189534e+01 3.955983e+01 6.682874e+01 4.458529e+01 4.579152e+01 4.180819e+01 4.598903e+01 4.864967e+01 3.325092e+01 4.994340e-01 7.469373e-01 1.076150e+00 1.595834e+00 1.861461e+00 2.088556e+00 2.216446e+00 2.350146e+00 2.219347e+00 2.074575e+00 2.213724e+00 1.916458e+00 5.455902e-04
<GCONST> 8.644362e+01
<MIXTURE> 48 7.116147e-03
<MEAN> 25
 7.128504e+00 -7.233013e+00 -7.393083e+00 -6.585792e+00 1.000022e+00 1.852348e+00 -2.278525e+00 5.043251e-01 2.948727e+00 4.915414e-01 -3.763595e+00 -6.385016e+00 -2.074096e-01 -1.226026e+00 -6.939901e-01 -4.087585e-01 6.540661e-01 8.613437e-01 8.433103e-01 2.642670e-01 2.025108e-01 -8.244995e-01 -5.615669e-01 -4.921958e-01 2.914635e-02
<VARIANCE> 25
 1.102796e+01 2.173677e+01 2.179530e+01 3.189534e+01 3.955983e+01 6.682874e+01 4.458529e+01 4.579152e+01 4.180819e+01 4.598903e+01 4.864967e+01 3.325092e+01 4.994340e-01 7.469373e-01 1.076150e+00 1.595834e+00 1.861461e+00 2.088556e+00 2.216446e+00 2.350146e+00 2.219347e+00 2.074575e+00 2.213724e+00 1.916458e+00 5.455902e-04
<GCONST> 8.644362e+01
<MIXTURE> 49 5.548473e-03
<MEAN> 25
 -4.985089e+00 5.282155e-01 1.571079e-01 8.316423e+00 6.239257e+00 5.383010e+00 6.112713e+00 4.539038e+00 4.947088e+00 3.615326e+00 4.762080e+00 2.799812e+00 3.621683e-01 6.444283e-01 6.844503e-01 3.391592e-01 -1.928158e-01 -6.529115e-01 -9.742334e-01 -1.111748e+00 -9.160682e-01 -6.897282e-01 -5.186360e-01 -2.670502e-01 2.554682e-05
<VARIANCE> 25
 9.714421e+00 1.082840e+01 1.392045e+01 1.616093e+01 1.575839e+01 1.866853e+01 1.901319e+01 1.972271e+01 1.836814e+01 1.792120e+01 2.122807e+01 1.420176e+01 2.748193e-01 2.648305e-01 3.625709e-01 6.220093e-01 8.506021e-01 9.962556e-01 1.019351e+00 1.044413e+00 1.178453e+00 1.198380e+00 1.296537e+00 1.219879e+00 1.449562e-05
<GCONST> 6.458444e+01
<MIXTURE> 50 6.234641e-03
<MEAN> 25
 -4.422165e+00 6.206609e-01 -1.361505e+00 5.942848e+00 4.431750e+00 1.769997e+00 4.022385e+00 2.384815e+00 2.864235e+00 1.171425e+00 1.759850e+00 2.819216e+00 3.934032e-02 1.690343e-01 7.829046e-02 -1.283228e-01 -5.059661e-01 -5.924305e-01 -4.109041e-01 -8.799702e-02 3.364672e-01 7.394838e-01 7.406415e-01 4.662001e-01 -9.635763e-06
<VARIANCE> 25
 1.037615e+01 1.336551e+01 1.336919e+01 1.515437e+01 1.509617e+01 2.026252e+01 1.841969e+01 2.030689e+01 1.753869e+01 1.686870e+01 2.200005e+01 1.451116e+01 1.394116e-01 2.245584e-01 3.538427e-01 5.172689e-01 5.700377e-01 6.970058e-01 8.927518e-01 1.107069e+00 1.152587e+00 8.833515e-01 9.069809e-01 9.650477e-01 1.102228e-06
<GCONST> 5.936359e+01
<MIXTURE> 51 6.234641e-03
<MEAN> 25
 -4.422165e+00 6.206609e-01 -1.361505e+00 5.942848e+00 4.431750e+00 1.769997e+00 4.022385e+00 2.384815e+00 2.864235e+00 1.171425e+00 1.759850e+00 2.819216e+00 3.934032e-02 1.690343e-01 7.829046e-02 -1.283228e-01 -5.059661e-01 -5.924305e-01 -4.109041e-01 -8.799702e-02 3.364672e-01 7.394838e-01 7.406415e-01 4.662001e-01 -9.635763e-06
<VARIANCE> 25
 1.037615e+01 1.336551e+01 1.336919e+01 1.515437e+01 1.509617e+01 2.026252e+01 1.841969e+01 2.030689e+01 1.753869e+01 1.686870e+01 2.200005e+01 1.451116e+01 1.394116e-01 2.245584e-01 3.538427e-01 5.172689e-01 5.700377e-01 6.970058e-01 8.927518e-01 1.107069e+00 1.152587e+00 8.833515e-01 9.069809e-01 9.650477e-01 1.102228e-06
<GCONST> 5.936359e+01
<MIXTURE> 52 6.367945e-03
<MEAN> 25
 9.804522e+00 1.648093e+00 -5.958996e+00 -1.398167e+01 -4.776520e+00 9.044022e+00 -3.007966e+00 -3.660800e+00 -4.329484e+00 -2.090292e+00 3.861855e+00 8.710085e-01 -3.954849e-01 -5.752355e-01 -1.557850e-01 1.224013e+00 1.269607e+00 -5.119678e-01 -6.496052e-01 -6.287008e-01 2.378311e-01 1.235587e+00 4.369222e-01 -6.626267e-01 -1.201702e-02
<VARIANCE> 25
 9.593944e+00 2.245893e+01 2.437568e+01 3.688707e+01 4.786233e+01 3.656928e+01 4.736628e+01 4.985106e+01 4.055775e+01 4.408718e+01 4.208756e+01 2.838541e+01 4.176053e-01 1.761927e+00 1.287080e+00 2.832464e+00 2.226027e+00 2.264381e+00 3.351331e+00 2.666968e+00 3.260830e+00 2.590816e+00 2.645316e+00 2.391179e+00 1.699118e-03
<GCONST> 9.032561e+01
<MIXTURE> 53 6.367945e-03
<MEAN> 25
 9.804522e+00 1.648093e+00 -5.958996e+00 -1.398167e+01 -4.776520e+00 9.044022e+00 -3.007966e+00 -3.660800e+00 -4.329484e+00 -2.090292e+00 3.861855e+00 8.710085e-01 -3.954849e-01 -5.752355e-01 -1.557850e-01 1.224013e+00 1.269607e+00 -5.119678e-01 -6.496052e-01 -6.287008e-01 2.378311e-01 1.235587e+00 4.369222e-01 -6.626267e-01 -1.201702e-02
<VARIANCE> 25
 9.593944e+00 2.245893e+01 2.437568e+01 3.688707e+01 4.786233e+01 3.656928e+01 4.736628e+01 4.985106e+01 4.055775e+01 4.408718e+01 4.208756e+01 2.838541e+01 4.176053e-01 1.761927e+00 1.287080e+00 2.832464e+00 2.226027e+00 2.264381e+00 3.351331e+00 2.666968e+00 3.260830e+00 2.590816e+00 2.645316e+00 2.391179e+00 1.699118e-03
<GCONST> 9.032561e+01
<MIXTURE> 54 7.368620e-03
<MEAN> 25
 -3.394955e+00 7.765011e-01 -6.510724e-01 7.522379e+00 6.695950e+00 3.801170e+00 5.091736e+00 4.912271e+00 3.864246e+00 3.152575e+00 3.852854e+00 2.312112e+00 -1.486760e-03 2.445716e-02 1.050598e-02 6.908184e-02 4.314149e-02 3.356262e-02 2.650525e-02 -1.855884e-03 -4.447388e-03 4.592332e-02 5.258090e-02 6.235338e-03 -6.015336e-05
<VARIANCE> 25
 8.566879e+00 1.317354e+01 8.425735e+00 1.869189e+01 1.296925e+01 1.758699e+01 1.213404e+01 1.192265e+01 1.105514e+01 1.371539e+01 1.910330e+01 1.192467e+01 3.797113e-02 8.541378e-02 1.499299e-01 2.173380e-01 2.959063e-01 3.802297e-01 4.285990e-01 6.490762e-01 5.313006e-01 5.314128e-01 6.046915e-01 5.423615e-01 1.325051e-06
<GCONST> 4.805372e+01
<MIXTURE> 55 7.368620e-03
<MEAN> 25
 -3.394955e+00 7.765011e-01 -6.510724e-01 7.522379e+00 6.695950e+00 3.801170e+00 5.091736e+00 4.912271e+00 3.864246e+00 3.152575e+00 3.852854e+00 2.312112e+00 -1.486760e-03 2.445716e-02 1.050598e-02 6.908184e-02 4.314149e-02 3.356262e-02 2.650525e-02 -1.855884e-03 -4.447388e-03 4.592332e-02 5.258090e-02 6.235338e-03 -6.015336e-05
<VARIANCE> 25
 8.566879e+00 1.317354e+01 8.425735e+00 1.869189e+01 1.296925e+01 1.758699e+01 1.213404e+01 1.192265e+01 1.105514e+01 1.371539e+01 1.910330e+01 1.192467e+01 3.797113e-02 8.541378e-02 1.499299e-01 2.173380e-01 2.959063e-01 3.802297e-01 4.285990e-01 6.490762e-01 5.313006e-01 5.314128e-01 6.046915e-01 5.423615e-01 1.325051e-06
<GCONST> 4.805372e+01
<MIXTURE> 56 6.132464e-03
<MEAN> 25
 6.995583e+00 -6.467600e+00 -8.240107e+00 -8.634727e+00 2.460649e+00 7.400235e+00 -1.562633e+00 -3.400674e+00 2.617203e+00 2.169920e+00 -2.851571e+00 -5.830923e+00 -6.733371e-02 -2.138358e-02 -1.656870e-01 -1.122512e-02 2.896629e-01 5.002565e-02 1.654079e-01 -1.220901e-01 6.033349e-02 2.631723e-02 -3.390506e-01 7.229202e-02 -8.734175e-03
<VARIANCE> 25
 8.808878e+00 2.071270e+01 1.906737e+01 3.296167e+01 3.595145e+01 8.002754e+01 5.176597e+01 4.132067e+01 3.299761e+01 3.803238e+01 3.431684e+01 3.132492e+01 1.957469e-01 4.576549e-01 4.011209e-01 6.452952e-01 7.615807e-01 1.061199e+00 8.069480e-01 8.437023e-01 8.701203e-01 8.648654e-01 1.123142e+00 8.233612e-01 2.483513e-04
<GCONST> 7.431959e+01
<MIXTURE> 57 6.132464e-03
<MEAN> 25
 6.995583e+00 -6.467600e+00 -8.240107e+00 -8.634727e+00 2.460649e+00 7.400235e+00 -1.562633e+00 -3.400674e+00 2.617203e+00 2.169920e+00 -2.851571e+00 -5.830923e+00 -6.733371e-02 -2.138358e-02 -1.656870e-01 -1.122512e-02 2.896629e-01 5.002565e-02 1.654079e-01 -1.220901e-01 6.033349e-02 2.631723e-02 -3.390506e-01 7.229202e-02 -8.734175e-03
<VARIANCE> 25
 8.808878e+00 2.071270e+01 1.906737e+01 3.296167e+01 3.595145e+01 8.002754e+01 5.176597e+01 4.132067e+01 3.299761e+01 3.803238e+01 3.431684e+01 3.132492e+01 1.957469e-01 4.576549e-01 4.011209e-01 6.452952e-01 7.615807e-01 1.061199e+00 8.069480e-01 8.437023e-01 8.701203e-01 8.648654e-01 1.123142e+00 8.233612e-01 2.483513e-04
<GCONST> 7.431959e+01
<MIXTURE> 58 6.172147e-03
<MEAN> 25
 2.433765e+00 -3.497216e+00 7.307216e+00 -4.476183e+00 -1.293210e+01 -5.532469e+00 1.012487e+00 8.282804e-01 -2.017947e+00 1.843693e+00 6.647509e-01 -9.822373e-01 -3.034877e-02 -9.558270e-02 -7.988108e-02 -2.881290e-01 -6.833594e-03 1.900679e-01 3.568618e-01 1.558849e-01 3.131634e-02 -9.725914e-03 -1.281610e-01 -1.548499e-01 -4.238123e-03
<VARIANCE> 25
 7.257150e+00 1.730136e+01 1.878566e+01 3.358113e+01 2.535741e+01 4.404268e+01 3.701835e+01 3.226797e+01 3.193150e+01 3.043263e+01 2.146234e+01 2.089582e+01 2.902780e-01 8.439394e-01 7.133222e-01 1.129194e+00 8.212994e-01 1.175098e+00 1.136074e+00 1.254903e+00 1.046144e+00 1.132221e+00 8.819253e-01 8.258517e-01 7.599480e-04
<GCONST> 7.568169e+01
<MIXTURE> 59 6.172147e-03
<MEAN> 25
 2.433765e+00 -3.497216e+00 7.307216e+00 -4.476183e+00 -1.293210e+01 -5.532469e+00 1.012487e+00 8.282804e-01 -2.017947e+00 1.843693e+00 6.647509e-01 -9.822373e-01 -3.034877e-02 -9.558270e-02 -7.988108e-02 -2.881290e-01 -6.833594e-03 1.900679e-01 3.568618e-01 1.558849e-01 3.131634e-02 -9.725914e-03 -1.281610e-01 -1.548499e-01 -4.238123e-03
<VARIANCE> 25
 7.257150e+00 1.730136e+01 1.878566e+01 3.358113e+01 2.535741e+01 4.404268e+01 3.701835e+01 3.226797e+01 3.193150e+01 3.043263e+01 2.146234e+01 2.089582e+01 2.902780e-01 8.439394e-01 7.133222e-01 1.129194e+00 8.212994e-01 1.175098e+00 1.136074e+00 1.254903e+00 1.046144e+00 1.132221e+00 8.819253e-01 8.258517e-01 7.599480e-04
<GCONST> 7.568169e+01
<MIXTURE> 60 4.479129e-03
<MEAN> 25
 -4.239367e+00 -6.291165e-01 -1.096770e+00 3.691286e+00 1.788457e+00 2.084280e+00 1.672835e+00 1.563176e+00 2.115648e+00 1.279682e+00 2.379868e+00 1.931462e+00 -2.916300e-02 5.798286e-02 1.023981e-01 1.245006e-01 1.299355e-01 1.283290e-01 1.845420e-01 3.239834e-01 5.414019e-01 6.589578e-01 5.647033e-01 3.039117e-01 -4.603112e-04
<VARIANCE> 25
 6.960330e+00 4.686289e+00 1.023796e+01 1.123569e+01 1.389515e+01 1.702959e+01 1.406629e+01 1.191630e+01 1.294727e+01 1.315770e+01 1.585888e+01 1.224850e+01 8.639511e-02 1.678877e-01 2.786466e-01 4.371611e-01 5.829598e-01 7.234208e-01 8.292807e-01 8.952380e-01 9.009141e-01 8.378904e-01 8.475789e-01 8.579896e-01 2.370458e-05
<GCONST> 5.642281e+01
<MIXTURE> 61 4.479129e-03
<MEAN> 25
 -4.239367e+00 -6.291165e-01 -1.096770e+00 3.691286e+00 1.788457e+00 2.084280e+00 1.672835e+00 1.563176e+00 2.115648e+00 1.279682e+00 2.379868e+00 1.931462e+00 -2.916300e-02 5.798286e-02 1.023981e-01 1.245006e-01 1.299355e-01 1.283290e-01 1.845420e-01 3.239834e-01 5.414019e-01 6.589578e-01 5.647033e-01 3.039117e-01 -4.603112e-04
<VARIANCE> 25
 6.960330e+00 4.686289e+00 1.023796e+01 1.123569e+01 1.389515e+01 1.702959e+01 1.406629e+01 1.191630e+01 1.294727e+01 1.315770e+01 1.585888e+01 1.224850e+01 8.639511e-02 1.678877e-01 2.786466e-01 4.371611e-01 5.829598e-01 7.234208e-01 8.292807e-01 8.952380e-01 9.009141e-01 8.378904e-01 8.475789e-01 8.579896e-01 2.370458e-05
<GCONST> 5.642281e+01
<MIXTURE> 62 3.278034e-03
<MEAN> 25
 -5.082954e+00 1.253690e+00 1.024197e+00 8.809912e+00 6.140841e+00 5.035103e+00 5.507568e+00 4.045985e+00 4.973399e+00 3.906974e+00 4.951958e+00 2.953341e+00 -1.001775e+00 -1.165268e+00 -9.529507e-01 -2.770813e-01 4.274342e-01 1.002597e+00 1.381963e+00 1.552004e+00 1.477518e+00 1.240580e+00 1.065880e+00 7.272908e-01 -1.272378e-03
<VARIANCE> 25
 9.880956e+00 1.000747e+01 1.308959e+01 1.673226e+01 1.742004e+01 1.759881e+01 1.968684e+01 1.913858e+01 1.889173e+01 1.874149e+01 2.161318e+01 1.476676e+01 4.019368e-01 4.320831e-01 5.530131e-01 7.777008e-01 1.032767e+00 1.192866e+00 1.253019e+00 1.276603e+00 1.327490e+00 1.364758e+00 1.398032e+00 1.369828e+00 1.633992e-05
<GCONST> 6.752836e+01
<MIXTURE> 63 4.351215e-03
<MEAN> 25
 -3.060834e+00 -2.070470e-01 -3.852420e+00 2.750145e+00 5.610725e+00 -1.521751e+00 4.079569e+00 2.837983e+00 2.151450e+00 4.302402e-01 -1.686511e+00 2.239324e+00 -6.319158e-02 4.153061e-01 3.502266e-01 3.684762e-01 3.377884e-01 3.497501e-01 3.925376e-01 1.876641e-01 2.188301e-01 1.530815e-01 2.335672e-01 1.122834e-01 -6.836608e-03
<VARIANCE> 25
 7.044536e+00 2.123706e+01 1.396147e+01 1.235662e+01 1.687708e+01 2.306564e+01 2.107106e+01 2.540019e+01 1.968972e+01 2.197652e+01 2.000133e+01 1.476192e+01 2.099926e-01 3.698860e-01 4.599651e-01 6.868892e-01 6.913947e-01 1.200024e+00 1.056502e+00 1.289268e+00 1.246388e+00 1.516351e+00 1.646180e+00 1.335978e+00 2.144175e-04
<GCONST> 6.950230e+01
<MIXTURE> 64 4.351215e-03
<MEAN> 25
 -3.060834e+00 -2.070470e-01 -3.852420e+00 2.750145e+00 5.610725e+00 -1.521751e+00 4.079569e+00 2.837983e+00 2.151450e+00 4.302402e-01 -1.686511e+00 2.239324e+00 -6.319158e-02 4.153061e-01 3.502266e-01 3.684762e-01 3.377884e-01 3.497501e-01 3.925376e-01 1.876641e-01 2.188301e-01 1.530815e-01 2.335672e-01 1.122834e-01 -6.836608e-03
<VARIANCE> 25
 7.044536e+00 2.123706e+01 1.396147e+01 1.235662e+01 1.687708e+01 2.306564e+01 2.107106e+01 2.540019e+01 1.968972e+01 2.197652e+01 2.000133e+01 1.476192e+01 2.099926e-01 3.698860e-01 4.599651e-01 6.868892e-01 6.913947e-01 1.200024e+00 1.056502e+00 1.289268e+00 1.246388e+00 1.516351e+00 1.646180e+00 1.335978e+00 2.144175e-04
<GCONST> 6.950230e+01
<MIXTURE> 65 1.721197e-02
<MEAN> 25
 7.915263e+00 2.145694e+00 1.789038e+00 5.807539e-01 -5.254158e+00 -4.349468e+00 -5.541295e+00 -6.479674e+00 -3.773279e+00 -2.195142e+00 -5.175709e+00 -1.683002e+00 1.465072e-01 1.169643e-01 2.715620e-02 1.266193e-01 -1.559684e-01 2.443165e-01 -1.026667e-01 -1.449903e-01 2.169057e-01 3.000302e-02 -5.825779e-02 -1.645987e-01 -4.726469e-03
<VARIANCE> 25
 1.001742e+01 1.982271e+01 2.663326e+01 3.617229e+01 3.796688e+01 5.956910e+01 5.985703e+01 6.094625e+01 5.396004e+01 5.702739e+01 5.787651e+01 5.092270e+01 5.713345e-01 9.320698e-01 1.585181e+00 1.794278e+00 1.967820e+00 2.229454e+00 2.235532e+00 2.912610e+00 2.444650e+00 2.578654e+00 2.410126e+00 2.107560e+00 4.409356e-04
<GCONST> 8.956188e+01
<MIXTURE> 66 1.191532e-02
<MEAN> 25
 6.515271e+00 -4.181544e+00 -5.472340e+00 -4.770166e+00 1.068048e+00 -4.959309e+00 -6.992337e+00 1.230382e+00 8.050915e-01 -2.029758e+00 -5.927620e+00 -3.522763e+00 -5.545276e-02 1.679359e+00 2.195526e+00 2.333782e+00 -1.221103e+00 -1.251104e+00 4.836454e-02 -4.872184e-01 -2.163506e-01 -2.385010e-01 -1.780081e-01 1.045895e+00 -6.388915e-02
<VARIANCE> 25
 9.767318e+00 2.363589e+01 2.840092e+01 3.242028e+01 4.109304e+01 5.325385e+01 5.833287e+01 4.447108e+01 5.356815e+01 6.630993e+01 3.793497e+01 3.585200e+01 1.254043e+00 2.400700e+00 2.365532e+00 2.430525e+00 4.175076e+00 4.253455e+00 4.289801e+00 4.879514e+00 4.398431e+00 4.989385e+00 3.821468e+00 3.192417e+00 1.446410e-03
<GCONST> 9.697711e+01
<MIXTURE> 67 1.559142e-02
<MEAN> 25
 8.503102e+00 3.066039e+00 -5.944493e+00 -8.166792e+00 7.369109e-01 3.408731e+00 -9.803340e-01 -2.004294e+00 -4.709033e+00 -4.492645e-01 -3.392670e-02 -1.994367e-02 -1.023460e+00 1.719373e+00 2.606049e-01 2.817705e+00 1.608752e+00 -1.513071e+00 1.448215e+00 6.075217e-01 2.037307e-01 3.768117e-01 -1.889314e-01 3.677909e-01 -1.226764e-01
<VARIANCE> 25
 1.093917e+01 3.452590e+01 2.652469e+01 4.311992e+01 3.911733e+01 4.809453e+01 5.681852e+01 4.138055e+01 6.298343e+01 5.522688e+01 4.376240e+01 4.872169e+01 1.583735e+00 2.750346e+00 3.802301e+00 3.367023e+00 3.531618e+00 5.018990e+00 3.705137e+00 4.633538e+00 4.520421e+00 3.977557e+00 4.033673e+00 2.965286e+00 2.333724e-03
<GCONST> 9.909448e+01
<MIXTURE> 68 1.485092e-02
<MEAN> 25
 -2.238598e+00 -2.014278e+00 -4.253593e+00 9.381973e-01 5.954857e+00 -3.413821e-01 2.558366e+00 1.383000e+00 1.676937e+00 1.406879e+00 1.661016e-01 2.205706e+00 2.657538e+00 4.810036e-01 2.558192e-01 -2.291420e+00 -2.668473e+00 -1.122765e+00 -2.335046e+00 -1.477153e+00 -1.366561e+00 -1.705422e+00 -1.755546e+00 -1.070756e+00 9.969851e-02
<VARIANCE> 25
 2.515775e+01 2.983116e+01 5.230719e+01 4.867487e+01 4.497844e+01 6.678944e+01 4.076221e+01 3.830904e+01 4.093896e+01 4.320013e+01 3.544621e+01 2.460887e+01 1.795852e+00 3.434435e+00 5.855070e+00 5.647708e+00 4.675356e+00 6.199682e+00 5.033462e+00 4.991479e+00 4.829630e+00 5.430054e+00 4.783868e+00 3.069679e+00 5.634967e-03
<GCONST> 1.027035e+02
<MIXTURE> 69 1.204884e-02
<MEAN> 25
 4.614480e+00 -3.739171e+00 -3.630852e+00 -3.614862e+00 -3.278275e+00 -7.663576e+00 -8.086155e-01 2.260747e+00 -5.163839e-01 -4.603951e+00 -5.459075e+00 1.010240e+00 1.543620e+00 -2.184737e+00 -1.322484e+00 -2.274954e+00 -4.649661e-01 -2.458502e-01 -4.752494e-01 5.412575e-01 -6.519722e-01 -1.309670e+00 -2.217990e+00 -2.246212e-01 6.299429e-02
<VARIANCE> 25
 8.811995e+00 2.719936e+01 2.583411e+01 2.492219e+01 4.225219e+01 3.531913e+01 4.956921e+01 3.047530e+01 3.898785e+01 3.674360e+01 3.122898e+01 2.420596e+01 3.777493e+00 2.876959e+00 3.253376e+00 3.591490e+00 5.617515e+00 5.062727e+00 6.850083e+00 5.969641e+00 5.679939e+00 6.086892e+00 4.231373e+00 3.685186e+00 2.355512e-03
<GCONST> 9.855894e+01
<MIXTURE> 70 1.329190e-02
<MEAN> 25
 6.911652e+00 -2.220643e+00 -3.175329e+00 -3.001441e+00 -6.071082e-01 -9.003568e-01 -7.937792e+00 -5.144376e+00 8.093243e-01 3.818272e+00 1.172842e-01 -4.387043e+00 2.046429e+00 -1.455718e+00 -6.291664e-01 -2.067963e+00 -1.719266e+00 1.622289e+00 -1.410455e+00 2.901685e-02 1.996051e-01 4.654694e-02 9.562649e-01 -1.462233e+00 5.239522e-02
<VARIANCE> 25
 1.032944e+01 2.063162e+01 2.527844e+01 4.137868e+01 3.224192e+01 3.935135e+01 4.319857e+01 4.280424e+01 3.921761e+01 3.304590e+01 3.776593e+01 2.389826e+01 3.208033e+00 3.186263e+00 4.012853e+00 4.119018e+00 4.468095e+00 5.907224e+00 5.990578e+00 6.329065e+00 5.213044e+00 4.612704e+00 5.063378e+00 3.686680e+00 2.339313e-03
<GCONST> 9.898889e+01
<MIXTURE> 71 1.406903e-02
<MEAN> 25
 6.079924e+00 5.104509e+00 4.121407e+00 3.184764e+00 -3.375319e+00 -3.678951e+00 -2.968740e+00 -6.072361e+00 -4.500372e+00 -2.470487e+00 -4.972941e+00 -3.022727e+00 -1.616341e+00 -6.734464e-01 -3.027458e-01 -1.799801e+00 1.190354e+00 -1.389268e-01 6.826938e-02 1.364845e+00 3.279948e-01 -1.190915e-01 5.711678e-01 1.570748e-01 4.147230e-02
<VARIANCE> 25
 1.925087e+01 2.530256e+01 2.490702e+01 4.468829e+01 4.014587e+01 3.993579e+01 4.310639e+01 4.351367e+01 3.738365e+01 4.193527e+01 3.544519e+01 3.328719e+01 1.718792e+00 2.905475e+00 5.043011e+00 4.670246e+00 4.501057e+00 4.641734e+00 4.587004e+00 5.419245e+00 4.192827e+00 4.007404e+00 3.753847e+00 3.171337e+00 1.492204e-03
<GCONST> 9.830827e+01
<MIXTURE> 72 8.134747e-03
<MEAN> 25
 3.768250e+00 -3.689341e+00 5.470948e+00 -2.410982e+00 -1.040339e+01 -9.586868e+00 -2.478346e+00 1.899854e+00 -4.902549e+00 -2.195058e+00 -1.845057e+00 5.927518e-01 9.303223e-01 -7.754917e-01 -2.565029e+00 4.611795e-01 2.130842e+00 -6.629464e-01 -1.304138e+00 1.515980e+00 1.797182e+00 -6.027201e-01 -1.282499e+00 4.086557e-01 -6.348031e-03
<VARIANCE> 25
 1.082350e+01 1.937264e+01 3.262381e+01 3.850901e+01 3.265363e+01 3.344895e+01 4.086283e+01 3.604101e+01 4.354913e+01 4.117910e+01 3.876823e+01 2.842980e+01 4.306225e-01 1.032422e+00 2.023241e+00 1.459858e+00 2.180375e+00 2.344734e+00 3.063462e+00 2.721866e+00 2.621101e+00 2.979311e+00 2.023569e+00 2.115939e+00 5.452082e-04
<GCONST> 8.723641e+01
<MIXTURE> 73 1.213625e-02
<MEAN> 25
 -5.601170e+00 -7.646616e-01 -1.312495e+00 4.882421e+00 4.255753e+00 2.288206e+00 5.536703e+00 3.442060e+00 4.315154e+00 3.402863e+00 4.152970e+00 2.990350e+00 7.890211e-01 -1.032199e+00 -9.544384e-01 -2.649258e+00 -1.247079e+00 -1.728715e+00 -9.099225e-01 -5.320312e-01 -9.105775e-01 -6.849961e-01 -1.074836e+00 -2.638841e-01 1.537699e-01
<VARIANCE> 25
 1.284350e+01 1.359858e+01 1.542756e+01 2.251929e+01 2.337689e+01 2.514847e+01 2.031647e+01 1.983765e+01 1.783847e+01 1.912619e+01 2.369910e+01 1.578396e+01 4.052443e+00 3.097447e+00 5.958253e+00 4.637598e+00 6.143176e+00 4.599426e+00 4.271441e+00 4.260113e+00 3.883104e+00 4.232733e+00 3.651081e+00 2.687694e+00 4.353279e-03
<GCONST> 9.283041e+01
<MIXTURE> 74 1.756491e-02
<MEAN> 25
 2.851460e+00 -3.366779e+00 5.860695e+00 6.683199e-01 -9.971094e+00 -6.809823e+00 -6.036866e+00 1.057100e+00 -3.445178e+00 -4.281050e+00 -2.331898e-01 -9.964836e-01 4.155861e-01 1.929057e+00 7.058088e-02 1.979154e+00 1.140955e+00 -8.910888e-02 4.765964e-01 -4.457654e-01 -4.948436e-01 9.945628e-02 -3.725252e-01 2.064333e-01 -8.513079e-02
<VARIANCE> 25
 1.312280e+01 2.402000e+01 2.846292e+01 3.624908e+01 3.198240e+01 3.361326e+01 6.845617e+01 3.595546e+01 3.896917e+01 4.041095e+01 3.324329e+01 2.757463e+01 1.645156e+00 1.663623e+00 2.939111e+00 2.473694e+00 4.143083e+00 3.318256e+00 4.430873e+00 4.270319e+00 4.437070e+00 3.915719e+00 3.261231e+00 2.389881e+00 1.605881e-03
<GCONST> 9.463647e+01
<MIXTURE> 75 9.711651e-03
<MEAN> 25
 2.201058e+00 -1.974331e+00 1.023104e+01 1.999428e+00 -1.214248e+01 -7.248018e+00 -5.556773e+00 -1.059986e-01 -3.732709e+00 -4.785255e+00 3.474838e+00 -5.658938e-01 1.681446e+00 -1.893615e+00 4.220215e-01 -4.360087e-01 -2.475607e+00 -1.068804e-01 -1.721779e+00 8.783103e-01 -1.157006e-01 -2.127184e-01 1.151404e+00 -9.908799e-01 4.583656e-02
<VARIANCE> 25
 1.136538e+01 1.993497e+01 3.282406e+01 2.563443e+01 2.540473e+01 3.097853e+01 3.455779e+01 2.950816e+01 3.726871e+01 2.886502e+01 1.871756e+01 2.285424e+01 2.316004e+00 2.057888e+00 4.219387e+00 2.421488e+00 3.618648e+00 5.059117e+00 4.920957e+00 3.550638e+00 3.526834e+00 3.117713e+00 2.817642e+00 3.490196e+00 1.752293e-03
<GCONST> 9.273003e+01
<MIXTURE> 76 1.052359e-02
<MEAN> 25
 -4.980160e+00 7.276990e-01 -3.044374e+00 3.743686e+00 5.611164e+00 5.487489e-01 5.810417e+00 3.792274e+00 1.107363e+00 6.186719e-02 -5.153205e-01 1.043685e+00 -1.814701e-01 -7.160676e-01 -2.241048e-01 -7.267137e-01 -6.632856e-01 -6.282382e-01 -6.266125e-01 -6.213581e-01 -4.119549e-01 -3.845638e-01 -6.766120e-01 -2.042065e-01 2.439103e-02
<VARIANCE> 25
 2.921641e+01 2.720454e+01 2.396459e+01 2.163322e+01 2.438440e+01 2.596149e+01 2.572685e+01 2.719644e+01 2.201266e+01 1.862294e+01 2.846576e+01 2.155936e+01 7.701951e-01 1.121535e+00 1.257538e+00 1.050383e+00 1.249889e+00 1.597378e+00 2.088279e+00 1.672779e+00 1.519760e+00 1.858100e+00 1.585357e+00 1.592185e+00 1.139369e-03
<GCONST> 8.157344e+01
<MIXTURE> 77 1.244626e-02
<MEAN> 25
 -4.671471e-01 8.586946e+00 1.246499e+01 -1.162068e+01 -7.008975e+00 9.580694e-01 -9.282909e+00 -7.239518e+00 -3.377167e+00 -1.987255e-01 -4.656540e+00 -1.486787e+00 6.811230e-02 1.376010e-01 7.359089e-02 2.505419e-01 -2.216335e-02 7.821262e-02 -6.481656e-02 -6.185606e-02 8.264694e-02 -4.491071e-02 2.559632e-02 1.181533e-01 -9.918254e-03
<VARIANCE> 25
 1.044247e+01 2.008398e+01 2.750926e+01 4.159121e+01 3.320402e+01 3.380237e+01 3.671058e+01 3.177135e+01 3.524368e+01 3.323697e+01 3.758031e+01 3.494940e+01 2.988624e-01 7.784204e-01 6.455469e-01 1.086509e+00 1.237824e+00 9.856037e-01 1.223529e+00 1.074127e+00 1.043697e+00 1.066092e+00 9.715954e-01 9.223012e-01 5.401880e-04
<GCONST> 7.779893e+01
<MIXTURE> 78 9.702551e-03
<MEAN> 25
 -1.121698e+01 2.022954e+00 -1.758730e+00 2.183685e+00 4.712379e+00 -3.345776e+00 4.187369e+00 2.287755e+00 2.458879e+00 9.752978e-01 -1.647877e+00 2.676951e+00 2.331486e+00 -2.908837e-01 1.200509e-01 5.928692e-01 -3.717197e-03 -7.672895e-03 -4.328976e-01 -2.767211e-01 2.485110e-01 4.138261e-01 -2.113492e-01 -5.023388e-01 -5.470126e-02
<VARIANCE> 25
 4.071609e+01 3.363947e+01 3.129223e+01 2.880346e+01 3.516414e+01 4.391677e+01 3.283533e+01 3.283442e+01 2.603580e+01 2.872301e+01 3.187463e+01 2.124147e+01 5.010067e+00 2.442034e+00 2.613146e+00 2.882074e+00 2.578915e+00 3.372981e+00 3.206629e+00 3.270258e+00 2.113182e+00 2.798716e+00 2.393819e+00 2.084855e+00 4.518772e-03
<GCONST> 9.445539e+01
<MIXTURE> 79 1.156824e-02
<MEAN> 25
 2.293622e+00 1.252320e+00 9.178683e+00 -6.110493e+00 -1.215963e+01 -1.863890e+00 -2.205124e+00 -6.230955e+00 -6.359689e+00 7.448588e-02 -3.115976e+00 -3.225497e+00 1.226046e+00 -5.059417e-01 -1.433848e+00 2.348491e+00 4.736800e-01 -1.461550e+00 5.891789e-01 8.975614e-01 -4.283926e-01 -4.355088e-01 3.123590e-01 3.007963e-01 -3.847264e-02
<VARIANCE> 25
 1.420439e+01 2.541229e+01 3.652094e+01 5.342765e+01 3.437165e+01 4.296804e+01 4.336779e+01 3.699734e+01 3.858562e+01 3.978780e+01 4.534580e+01 2.970588e+01 9.110404e-01 2.236764e+00 1.828618e+00 2.168295e+00 2.588127e+00 2.749078e+00 3.132266e+00 3.417139e+00 2.434809e+00 2.917368e+00 2.372931e+00 1.973977e+00 1.296431e-03
<GCONST> 9.191099e+01
<MIXTURE> 80 7.550998e-03
<MEAN> 25
 -1.460852e+01 3.982965e+00 6.888214e-01 2.865921e+00 2.449500e+00 1.410398e+00 6.397012e+00 2.496743e+00 2.719563e+00 2.373508e+00 4.852835e+00 1.186969e+00 4.286316e+00 -1.601023e-02 1.637951e+00 -1.135541e+00 -2.889489e+00 -2.777537e+00 -2.323245e+00 -2.021435e+00 -1.975010e+00 -1.685228e+00 -1.650836e+00 -6.027484e-01 -4.423143e-02
<VARIANCE> 25
 2.095145e+01 1.984646e+01 3.444424e+01 3.470766e+01 3.018186e+01 2.920984e+01 2.828655e+01 2.855488e+01 2.674669e+01 2.881102e+01 2.685416e+01 1.810680e+01 2.357265e+00 2.666179e+00 2.673128e+00 4.119883e+00 3.394123e+00 2.705261e+00 3.025223e+00 3.204148e+00 2.749146e+00 2.701787e+00 2.782137e+00 2.145725e+00 1.512225e-03
<GCONST> 9.139691e+01
<MIXTURE> 81 8.025434e-03
<MEAN> 25
 -1.118760e+00 4.050530e+00 1.017579e+01 -1.479534e+01 -9.080667e+00 -1.423022e+00 -6.774596e+00 -8.418753e+00 -4.141495e+00 -4.189119e-01 -7.566646e+00 -2.254104e+00 1.338637e-01 -5.877382e-01 -2.202491e-03 -5.575549e-01 -4.635375e-01 3.352943e-01 3.187270e-01 1.364269e-01 -1.397982e-01 1.066941e-01 -4.690787e-01 -1.253571e-01 1.152580e-02
<VARIANCE> 25
 1.014412e+01 3.311304e+01 2.645335e+01 2.934128e+01 3.368800e+01 3.049740e+01 4.547427e+01 2.830016e+01 3.808054e+01 3.187581e+01 2.536534e+01 3.108258e+01 7.716151e-01 2.275887e+00 1.545203e+00 2.871570e+00 2.661338e+00 2.124425e+00 3.279596e+00 2.286351e+00 2.353964e+00 2.537141e+00 2.297351e+00 2.076884e+00 1.182662e-03
<GCONST> 8.869440e+01
<MIXTURE> 82 8.213053e-03
<MEAN> 25
 -9.919183e+00 -4.006314e+00 1.367150e+00 -2.613276e+00 3.304121e+00 -1.655497e-02 2.012545e+00 8.329556e-01 3.069950e+00 1.195403e+00 1.568994e+00 3.250303e+00 -1.299527e+00 -1.581549e-01 1.992615e-01 -2.559604e+00 -1.101645e+00 -1.202878e+00 -9.657666e-01 -8.605411e-01 -2.085115e-01 -5.066363e-01 -3.297701e-01 -4.732629e-02 1.754419e-01
<VARIANCE> 25
 1.758813e+01 2.433949e+01 3.285184e+01 3.195962e+01 3.281021e+01 4.006251e+01 3.033663e+01 3.175891e+01 2.967612e+01 3.101921e+01 3.023309e+01 1.777508e+01 3.664444e+00 2.995161e+00 3.355453e+00 3.160707e+00 3.660289e+00 3.313169e+00 2.910329e+00 2.922710e+00 2.908349e+00 2.407046e+00 2.354274e+00 1.918131e+00 3.500047e-03
<GCONST> 9.331801e+01
<MIXTURE> 83 1.167529e-02
<MEAN> 25
 -1.953811e+01 5.991516e+00 -1.355862e+00 -7.906144e-01 7.524369e+00 -2.560167e+00 5.607672e+00 2.326880e+00 9.936159e-01 9.605761e-01 -2.686827e-01 3.400137e+00 1.000890e-02 -3.863801e-01 -1.082956e-01 -2.813936e-01 -2.689779e-01 -6.808368e-02 -1.602032e-01 -1.761647e-01 1.397651e-01 2.155044e-01 -5.655494e-02 -1.041132e-01 7.519408e-03
<VARIANCE> 25
 8.888809e+00 1.547646e+01 2.548855e+01 2.005975e+01 1.872456e+01 2.981845e+01 1.940519e+01 2.288406e+01 1.790714e+01 2.761432e+01 2.496283e+01 1.517262e+01 1.216863e+00 8.318920e-01 1.145488e+00 1.020061e+00 1.454781e+00 1.131881e+00 1.107683e+00 1.337834e+00 1.355159e+00 1.544859e+00 1.213829e+00 9.435264e-01 8.918564e-04
<GCONST> 7.658160e+01
<MIXTURE> 84 1.066614e-02
<MEAN> 25
 1.163295e+00 8.943735e+00 7.233667e+00 8.003605e+00 2.785164e+00 -1.028340e+00 -1.499702e+00 -4.423675e+00 -4.101407e+00 -2.927140e+00 -2.399580e+00 -1.589897e+00 -1.786236e+00 -1.180439e+00 -1.206488e+00 1.272913e+00 2.254827e+00 1.479313e+00 1.453193e+00 1.268642e+00 1.164857e+00 4.010567e-01 4.042107e-01 4.278407e-01 -7.037961e-02
<VARIANCE> 25
 2.326363e+01 1.863457e+01 2.147984e+01 2.394217e+01 2.939037e+01 2.902828e+01 2.786639e+01 2.653173e+01 2.506311e+01 2.505388e+01 2.356377e+01 2.437120e+01 2.123418e+00 2.518952e+00 3.814251e+00 3.329788e+00 3.263289e+00 3.393445e+00 3.261767e+00 3.420468e+00 3.451257e+00 3.234342e+00 3.573915e+00 2.773306e+00 3.707528e-03
<GCONST> 9.255588e+01
<MIXTURE> 85 7.591393e-03
<MEAN> 25
 -3.110878e+00 7.892281e+00 5.724556e+00 1.286105e+00 -3.493171e+00 -5.325756e+00 -2.979955e+00 -6.121783e+00 -3.542200e+00 -3.184331e+00 -4.795370e-01 -1.899105e+00 3.943550e+00 3.246101e-01 1.755958e+00 -2.091367e+00 -3.414570e+00 -2.582935e+00 -2.886180e+00 -2.341548e+00 -2.249011e+00 -1.263905e+00 -2.302634e+00 -6.158924e-01 9.208553e-03
<VARIANCE> 25
 4.247372e+01 2.343016e+01 3.647721e+01 3.822150e+01 3.975333e+01 4.119454e+01 3.216707e+01 2.789620e+01 2.664528e+01 2.611924e+01 2.622693e+01 2.057023e+01 2.704173e+00 4.326550e+00 4.058704e+00 5.182910e+00 4.408580e+00 3.882643e+00 3.853447e+00 3.987190e+00 3.849678e+00 4.042026e+00 3.942569e+00 3.485146e+00 5.446012e-03
<GCONST> 9.835640e+01
<MIXTURE> 86 1.273941e-02
<MEAN> 25
 -4.690211e+00 -7.186430e-01 -1.005226e+00 6.048545e+00 5.471839e+00 4.223555e+00 5.523833e+00 4.862042e+00 4.597703e+00 3.725425e+00 4.847006e+00 2.790528e+00 -2.488826e-02 1.838195e-02 -2.597541e-02 -6.876706e-02 -9.663188e-02 -2.229218e-01 -2.577114e-01 -3.421561e-01 -3.543365e-01 -3.197441e-01 -2.073154e-01 -1.025872e-01 -1.550495e-03
<VARIANCE> 25
 8.056705e+00 7.763991e+00 9.952467e+00 1.254441e+01 1.671131e+01 1.562984e+01 1.305715e+01 1.343478e+01 1.336174e+01 1.380815e+01 1.576131e+01 1.237506e+01 9.948520e-02 1.962648e-01 3.054850e-01 4.822767e-01 6.254433e-01 7.451619e-01 7.355536e-01 7.956085e-01 8.806565e-01 8.502500e-01 9.288583e-01 9.247264e-01 6.369628e-05
<GCONST> 5.888027e+01
<MIXTURE> 87 1.100681e-02
<MEAN> 25
 -3.237036e+00 4.679264e+00 3.437095e+00 6.337698e+00 5.918151e+00 -8.471804e-01 2.279657e+00 -3.750098e-01 -5.134601e-01 6.298298e-02 -1.245010e+00 3.337753e-01 -1.798917e+00 -2.453768e+00 -2.407083e+00 -2.308124e+00 2.854784e-01 9.830993e-02 3.858656e-01 6.539615e-01 1.123805e+00 9.053271e-01 1.071195e+00 1.082773e+00 1.037630e-01
<VARIANCE> 25
 3.063412e+01 2.712704e+01 2.382152e+01 2.979222e+01 2.500461e+01 4.872796e+01 3.341745e+01 2.257733e+01 2.113352e+01 2.594893e+01 2.392349e+01 2.110393e+01 4.292292e+00 2.553001e+00 3.764394e+00 3.306907e+00 4.448868e+00 3.912126e+00 3.970577e+00 4.171831e+00 3.665493e+00 3.150625e+00 5.146974e+00 2.249290e+00 4.192528e-03
<GCONST> 9.549789e+01
<MIXTURE> 88 1.256585e-02
<MEAN> 25
 -3.533983e+00 1.469357e-01 -1.969638e+00 4.907162e+00 5.994755e+00 2.393761e+00 5.506017e+00 3.402631e+00 2.396489e+00 2.727543e+00 1.038283e+00 2.335536e+00 1.150866e-01 9.773121e-02 3.867747e-01 3.185608e-01 2.626811e-01 1.994576e-01 1.744322e-01 -1.027255e-01 -3.441227e-01 -4.910535e-01 1.113708e-01 2.331097e-01 -8.878472e-03
<VARIANCE> 25
 8.432337e+00 1.101818e+01 1.414077e+01 1.441839e+01 1.924526e+01 1.903463e+01 1.905265e+01 1.569264e+01 1.869468e+01 1.770910e+01 2.659140e+01 1.304417e+01 1.278653e+00 1.440458e+00 1.924706e+00 1.796171e+00 2.003790e+00 2.224824e+00 2.204645e+00 2.136548e+00 2.368946e+00 2.308483e+00 3.257125e+00 2.614731e+00 1.291729e-03
<GCONST> 8.113621e+01
<MIXTURE> 89 9.333527e-03
<MEAN> 25
 5.484827e+00 -7.754198e+00 -2.646334e+00 -2.532673e+00 -2.842972e+00 -5.214530e+00 -7.786926e+00 3.442262e+00 4.340302e+00 -3.541466e+00 -4.241657e+00 -3.585601e+00 -6.940864e-01 1.743539e-01 2.135498e+00 1.035897e+00 -1.753593e+00 -1.763096e+00 9.346456e-01 1.305050e+00 -8.759184e-01 -1.673546e+00 3.368194e-01 1.564320e+00 -1.992092e-03
<VARIANCE> 25
 1.008388e+01 2.982861e+01 3.270926e+01 2.970860e+01 4.198543e+01 3.761827e+01 7.312397e+01 3.989579e+01 3.954626e+01 4.304010e+01 5.135677e+01 2.918715e+01 4.464183e-01 8.431084e-01 1.630593e+00 1.323779e+00 1.779479e+00 2.161678e+00 2.426303e+00 1.871977e+00 2.193229e+00 2.780666e+00 2.072865e+00 1.296013e+00 4.980862e-04
<GCONST> 8.647220e+01
<MIXTURE> 90 7.114505e-03
<MEAN> 25
 2.445700e+00 -9.717731e+00 -4.751603e+00 -3.974844e+00 -3.379044e+00 -1.813537e+00 3.371558e+00 1.184540e+00 -7.530637e+00 -1.021223e+01 -3.431141e+00 -7.389055e-01 -1.639191e-01 9.086101e-01 1.168704e+00 -8.540356e-01 -1.612493e+00 -2.117237e-01 6.447909e-01 -2.102516e-01 -1.681895e-01 7.376630e-01 1.822329e-01 -5.506197e-01 -1.113703e-02
<VARIANCE> 25
 8.505637e+00 1.786595e+01 1.982601e+01 2.803264e+01 3.687714e+01 3.216445e+01 3.862442e+01 3.640649e+01 3.521241e+01 2.772069e+01 2.701106e+01 2.613153e+01 2.237667e-01 6.129053e-01 7.863146e-01 1.042853e+00 1.469855e+00 1.591092e+00 1.779610e+00 1.654110e+00 1.810321e+00 1.678845e+00 1.495872e+00 1.308689e+00 2.153421e-04
<GCONST> 7.814516e+01
<MIXTURE> 91 7.852945e-03
<MEAN> 25
 6.116107e+00 -7.536675e+00 -8.301133e+00 -5.538013e+00 3.268220e+00 1.701089e+00 -1.669670e+00 -4.046618e-01 1.323988e+00 -1.872640e+00 -5.060783e+00 -4.631183e+00 1.974985e-01 1.010329e+00 1.264459e-01 4.673077e-01 7.249734e-02 -7.115885e-01 -2.846017e-01 -7.165766e-03 -1.274996e-01 4.071648e-01 -1.226168e-01 1.379174e-01 -3.702277e-02
<VARIANCE> 25
 9.859353e+00 2.216890e+01 1.870172e+01 3.824187e+01 3.701211e+01 8.109454e+01 5.177139e+01 4.895493e+01 4.963607e+01 6.774040e+01 3.525737e+01 4.027737e+01 4.425266e-01 8.741048e-01 1.096598e+00 1.277381e+00 2.215706e+00 2.424861e+00 2.288400e+00 2.551836e+00 2.220798e+00 2.124005e+00 1.926565e+00 1.983115e+00 5.845933e-04
<GCONST> 8.741026e+01
<MIXTURE> 92 7.852945e-03
<MEAN> 25
 6.116107e+00 -7.536675e+00 -8.301133e+00 -5.538013e+00 3.268220e+00 1.701089e+00 -1.669670e+00 -4.046618e-01 1.323988e+00 -1.872640e+00 -5.060783e+00 -4.631183e+00 1.974985e-01 1.010329e+00 1.264459e-01 4.673077e-01 7.249734e-02 -7.115885e-01 -2.846017e-01 -7.165766e-03 -1.274996e-01 4.071648e-01 -1.226168e-01 1.379174e-01 -3.702277e-02
<VARIANCE> 25
 9.859353e+00 2.216890e+01 1.870172e+01 3.824187e+01 3.701211e+01 8.109454e+01 5.177139e+01 4.895493e+01 4.963607e+01 6.774040e+01 3.525737e+01 4.027737e+01 4.425266e-01 8.741048e-01 1.096598e+00 1.277381e+00 2.215706e+00 2.424861e+00 2.288400e+00 2.551836e+00 2.220798e+00 2.124005e+00 1.926565e+00 1.983115e+00 5.845933e-04
<GCONST> 8.741026e+01
<MIXTURE> 93 6.122769e-03
<MEAN> 25
 -6.751722e+00 -8.645238e-01 -2.375197e+00 5.761346e+00 5.953591e+00 3.849198e+00 6.155273e+00 3.681596e+00 4.129821e+00 2.474556e+00 1.763097e+00 3.676028e+00 -6.084931e-02 -1.540306e-01 -2.570011e-01 -3.226475e-01 -3.337447e-01 -2.901263e-01 -2.176847e-01 -1.834537e-01 -1.613749e-01 -1.548692e-01 -1.094008e-01 -2.820170e-02 1.680268e-06
<VARIANCE> 25
 9.398824e+00 6.672747e+00 8.145573e+00 1.139129e+01 1.157758e+01 1.623977e+01 1.518764e+01 1.681054e+01 1.468963e+01 1.447946e+01 1.685427e+01 1.340363e+01 8.190152e-02 1.516796e-01 2.605675e-01 3.854534e-01 4.946326e-01 6.412219e-01 7.712674e-01 8.977863e-01 9.194582e-01 8.718855e-01 9.060895e-01 9.212704e-01 1.054691e-06
<GCONST> 5.380862e+01
<MIXTURE> 94 6.122769e-03
<MEAN> 25
 -6.751722e+00 -8.645238e-01 -2.375197e+00 5.761346e+00 5.953591e+00 3.849198e+00 6.155273e+00 3.681596e+00 4.129821e+00 2.474556e+00 1.763097e+00 3.676028e+00 -6.084931e-02 -1.540306e-01 -2.570011e-01 -3.226475e-01 -3.337447e-01 -2.901263e-01 -2.176847e-01 -1.834537e-01 -1.613749e-01 -1.548692e-01 -1.094008e-01 -2.820170e-02 1.680268e-06
<VARIANCE> 25
 9.398824e+00 6.672747e+00 8.145573e+00 1.139129e+01 1.157758e+01 1.623977e+01 1.518764e+01 1.681054e+01 1.468963e+01 1.447946e+01 1.685427e+01 1.340363e+01 8.190152e-02 1.516796e-01 2.605675e-01 3.854534e-01 4.946326e-01 6.412219e-01 7.712674e-01 8.977863e-01 9.194582e-01 8.718855e-01 9.060895e-01 9.212704e-01 1.054691e-06
<GCONST> 5.380862e+01
<MIXTURE> 95 5.258835e-03
<MEAN> 25
 -5.018807e+00 3.025098e-01 -2.139802e+00 4.398818e+00 5.215581e+00 1.666935e+00 4.451835e+00 2.329574e+00 2.230463e+00 8.960364e-01 6.796361e-01 2.614925e+00 8.755710e-02 1.353038e-01 1.431158e-01 -3.480355e-02 -4.013732e-01 -9.301318e-01 -1.081693e+00 -1.305975e+00 -1.251668e+00 -8.073373e-01 -5.522090e-01 -2.927945e-01 -1.846671e-03
<VARIANCE> 25
 1.062740e+01 9.375873e+00 1.045666e+01 1.164230e+01 1.516913e+01 2.181268e+01 1.622602e+01 1.954512e+01 1.364853e+01 1.405363e+01 1.750674e+01 1.261538e+01 1.916444e-01 2.522965e-01 4.104600e-01 5.596077e-01 6.769556e-01 1.040562e+00 8.360490e-01 9.109656e-01 9.231249e-01 1.088272e+00 1.093203e+00 9.920771e-01 4.942294e-05
<GCONST> 6.261319e+01
<MIXTURE> 96 7.034694e-03
<MEAN> 25
 -4.420845e+00 8.628678e-01 -1.990723e+00 4.872311e+00 4.762317e+00 8.674386e-01 4.166457e+00 3.124650e+00 1.925712e+00 7.874343e-01 7.652734e-01 1.992193e+00 -1.971511e-02 1.143562e-01 1.828214e-01 4.425288e-01 5.344450e-01 4.481326e-01 2.054334e-01 -1.982638e-01 -3.573295e-01 -5.349481e-01 -6.924810e-01 -4.125975e-01 -6.958491e-06
<VARIANCE> 25
 1.075823e+01 1.453978e+01 1.100435e+01 1.276870e+01 1.590843e+01 2.008505e+01 1.653070e+01 2.291799e+01 1.788594e+01 1.408620e+01 1.800120e+01 1.713745e+01 1.070161e-01 2.188769e-01 2.814139e-01 3.890840e-01 4.327800e-01 6.413043e-01 7.700279e-01 9.121924e-01 1.023484e+00 9.019855e-01 8.622678e-01 1.052094e+00 1.225786e-06
<GCONST> 5.751945e+01
<MIXTURE> 97 7.034694e-03
<MEAN> 25
 -4.420845e+00 8.628678e-01 -1.990723e+00 4.872311e+00 4.762317e+00 8.674386e-01 4.166457e+00 3.124650e+00 1.925712e+00 7.874343e-01 7.652734e-01 1.992193e+00 -1.971511e-02 1.143562e-01 1.828214e-01 4.425288e-01 5.344450e-01 4.481326e-01 2.054334e-01 -1.982638e-01 -3.573295e-01 -5.349481e-01 -6.924810e-01 -4.125975e-01 -6.958491e-06
<VARIANCE> 25
 1.075823e+01 1.453978e+01 1.100435e+01 1.276870e+01 1.590843e+01 2.008505e+01 1.653070e+01 2.291799e+01 1.788594e+01 1.408620e+01 1.800120e+01 1.713745e+01 1.070161e-01 2.188769e-01 2.814139e-01 3.890840e-01 4.327800e-01 6.413043e-01 7.700279e-01 9.121924e-01 1.023484e+00 9.019855e-01 8.622678e-01 1.052094e+00 1.225786e-06
<GCONST> 5.751945e+01
<MIXTURE> 98 9.917808e-03
<MEAN> 25
 -1.241867e+00 7.189044e-01 -1.485138e-01 4.378687e+00 3.540460e+00 2.422470e+00 3.613371e+00 1.657453e+00 1.203018e+00 9.482784e-01 9.240527e-02 1.119120e+00 -1.746837e+00 -1.385349e+00 -9.579070e-01 7.304643e-02 6.249949e-01 7.648237e-01 1.181156e+00 1.340755e+00 1.710169e+00 1.232273e+00 1.075834e+00 8.719382e-01 -3.201097e-02
<VARIANCE> 25
 1.405591e+01 2.156973e+01 3.095718e+01 3.303550e+01 4.626925e+01 4.017159e+01 3.142898e+01 2.813873e+01 2.615317e+01 2.753250e+01 3.166409e+01 2.180016e+01 1.328539e+00 1.515376e+00 2.227107e+00 2.364581e+00 2.614861e+00 2.785323e+00 2.808269e+00 2.663444e+00 2.479789e+00 2.919404e+00 3.227265e+00 2.072478e+00 2.490635e-03
<GCONST> 9.026394e+01
<MIXTURE> 99 6.696178e-03
<MEAN> 25
 -6.310357e+00 9.913936e+00 6.520594e+00 3.506025e+00 1.345381e+00 -5.399945e+00 -1.284339e+00 -3.811681e+00 -3.437950e+00 -3.682173e+00 -1.869273e+00 4.581146e-01 5.304793e-01 -7.196058e-01 3.015939e-01 -3.745975e-01 -1.077088e+00 -4.738207e-01 -2.967341e-01 -2.812400e-01 -1.133576e-01 -1.714081e-02 2.016368e-01 1.701366e-01 1.076179e-02
<VARIANCE> 25
 3.603016e+01 2.430317e+01 4.655035e+01 3.096821e+01 3.792772e+01 3.402742e+01 2.951549e+01 3.073102e+01 2.583780e+01 2.761738e+01 2.142929e+01 2.857839e+01 2.155437e+00 1.818891e+00 1.424472e+00 1.736620e+00 2.655774e+00 2.080646e+00 1.712173e+00 1.606510e+00 1.541917e+00 1.595740e+00 1.418688e+00 1.271858e+00 1.517786e-03
<GCONST> 8.694939e+01
<MIXTURE> 100 4.498084e-03
<MEAN> 25
 -1.598816e+00 6.344720e+00 1.027681e+01 -7.462613e+00 -1.078179e+01 -5.075324e+00 -4.941689e+00 -9.968913e+00 -4.718102e+00 -8.549836e-01 -2.733277e+00 -2.708218e+00 2.917925e+00 -1.260505e+00 1.299637e+00 -2.185921e+00 -3.419470e+00 -7.840360e-01 -1.218822e+00 -8.197684e-01 -1.475450e+00 3.467230e-01 -1.655544e+00 -2.862761e-01 2.015599e-03
<VARIANCE> 25
 1.362665e+01 2.105944e+01 2.246319e+01 2.642775e+01 2.302201e+01 2.372146e+01 2.911105e+01 2.170673e+01 2.748283e+01 2.265374e+01 2.241105e+01 2.134087e+01 1.799155e+00 3.953825e+00 2.919936e+00 4.286258e+00 4.184377e+00 4.537487e+00 4.015525e+00 4.340317e+00 4.167857e+00 3.896040e+00 3.910621e+00 3.225027e+00 1.674810e-03
<GCONST> 9.256900e+01
<MIXTURE> 101 6.007792e-03
<MEAN> 25
 8.088497e+00 -3.507043e+00 -6.263229e+00 -6.836525e+00 8.146306e-01 -1.233425e+00 -1.056838e+01 -2.121346e+00 1.623192e+00 2.749828e+00 -2.321289e+00 -5.123170e+00 6.762260e-01 6.415100e-01 -1.445037e+00 -1.609019e+00 1.007702e+00 2.333468e+00 2.085214e-01 -1.449429e+00 -1.068788e+00 1.019458e+00 1.373261e+00 -4.092017e-01 -4.736000e-03
<VARIANCE> 25
 9.203258e+00 1.661390e+01 2.987578e+01 4.256432e+01 3.605015e+01 3.561975e+01 3.678409e+01 3.635963e+01 3.755526e+01 4.375791e+01 5.184913e+01 2.407484e+01 2.933054e-01 6.763644e-01 1.178837e+00 1.538522e+00 1.743839e+00 2.103371e+00 2.088078e+00 1.990491e+00 2.331314e+00 2.232215e+00 1.771742e+00 1.924811e+00 3.430388e-04
<GCONST> 8.361572e+01
<MIXTURE> 102 6.007792e-03
<MEAN> 25
 8.088497e+00 -3.507043e+00 -6.263229e+00 -6.836525e+00 8.146306e-01 -1.233425e+00 -1.056838e+01 -2.121346e+00 1.623192e+00 2.749828e+00 -2.321289e+00 -5.123170e+00 6.762260e-01 6.415100e-01 -1.445037e+00 -1.609019e+00 1.007702e+00 2.333468e+00 2.085214e-01 -1.449429e+00 -1.068788e+00 1.019458e+00 1.373261e+00 -4.092017e-01 -4.736000e-03
<VARIANCE> 25
 9.203258e+00 1.661390e+01 2.987578e+01 4.256432e+01 3.605015e+01 3.561975e+01 3.678409e+01 3.635963e+01 3.755526e+01 4.375791e+01 5.184913e+01 2.407484e+01 2.933054e-01 6.763644e-01 1.178837e+00 1.538522e+00 1.743839e+00 2.103371e+00 2.088078e+00 1.990491e+00 2.331314e+00 2.232215e+00 1.771742e+00 1.924811e+00 3.430388e-04
<GCONST> 8.361572e+01
<MIXTURE> 103 5.694618e-03
<MEAN> 25
 3.306642e+00 -9.179138e+00 -6.097064e+00 -3.025569e+00 -1.134501e+00 -1.868033e+00 2.535048e+00 2.414862e+00 -4.651949e+00 -9.038587e+00 -5.016428e+00 2.883170e-01 -1.733663e-01 -1.503988e+00 -9.421615e-01 3.674313e-01 1.203770e+00 1.025243e+00 1.524009e-01 -3.047213e-01 -7.969794e-01 -9.578758e-01 -8.289739e-02 1.435428e-01 2.746802e-02
<VARIANCE> 25
 1.028646e+01 2.414770e+01 2.254794e+01 3.115353e+01 4.891735e+01 3.473579e+01 4.613471e+01 3.631760e+01 4.152066e+01 3.067776e+01 2.966417e+01 2.614062e+01 6.425748e-01 1.239656e+00 1.573398e+00 1.913125e+00 2.870009e+00 2.377947e+00 2.839582e+00 2.590561e+00 2.566107e+00 2.530311e+00 2.163221e+00 2.000215e+00 8.056881e-04
<GCONST> 8.768382e+01
<MIXTURE> 104 5.694618e-03
<MEAN> 25
 3.306642e+00 -9.179138e+00 -6.097064e+00 -3.025569e+00 -1.134501e+00 -1.868033e+00 2.535048e+00 2.414862e+00 -4.651949e+00 -9.038587e+00 -5.016428e+00 2.883170e-01 -1.733663e-01 -1.503988e+00 -9.421615e-01 3.674313e-01 1.203770e+00 1.025243e+00 1.524009e-01 -3.047213e-01 -7.969794e-01 -9.578758e-01 -8.289739e-02 1.435428e-01 2.746802e-02
<VARIANCE> 25
 1.028646e+01 2.414770e+01 2.254794e+01 3.115353e+01 4.891735e+01 3.473579e+01 4.613471e+01 3.631760e+01 4.152066e+01 3.067776e+01 2.966417e+01 2.614062e+01 6.425748e-01 1.239656e+00 1.573398e+00 1.913125e+00 2.870009e+00 2.377947e+00 2.839582e+00 2.590561e+00 2.566107e+00 2.530311e+00 2.163221e+00 2.000215e+00 8.056881e-04
<GCONST> 8.768382e+01
<MIXTURE> 105 4.710235e-03
<MEAN> 25
 2.069798e+00 -2.144937e+00 9.033670e+00 -2.827662e+00 -1.154555e+01 -4.879060e+00 -4.775528e+00 -6.757091e-01 -3.260709e+00 -3.189837e+00 1.565472e+00 -1.574775e+00 5.909570e-03 6.171859e-02 5.521306e-02 -2.381894e-02 -3.251796e-02 2.514014e-02 -5.700872e-02 7.545210e-02 -6.823862e-02 -1.164959e-03 3.489862e-02 2.139674e-02 -2.518365e-03
<VARIANCE> 25
 1.307283e+01 3.566078e+01 3.961013e+01 4.317159e+01 3.692651e+01 5.127030e+01 4.666413e+01 4.150711e+01 4.326391e+01 3.988084e+01 4.003235e+01 3.228005e+01 8.079820e-02 2.210491e-01 3.316675e-01 3.229023e-01 3.866456e-01 4.213211e-01 4.944366e-01 4.831345e-01 5.107803e-01 4.429438e-01 4.054795e-01 4.300288e-01 9.595031e-05
<GCONST> 6.727803e+01
<MIXTURE> 106 4.710235e-03
<MEAN> 25
 2.069798e+00 -2.144937e+00 9.033670e+00 -2.827662e+00 -1.154555e+01 -4.879060e+00 -4.775528e+00 -6.757091e-01 -3.260709e+00 -3.189837e+00 1.565472e+00 -1.574775e+00 5.909570e-03 6.171859e-02 5.521306e-02 -2.381894e-02 -3.251796e-02 2.514014e-02 -5.700872e-02 7.545210e-02 -6.823862e-02 -1.164959e-03 3.489862e-02 2.139674e-02 -2.518365e-03
<VARIANCE> 25
 1.307283e+01 3.566078e+01 3.961013e+01 4.317159e+01 3.692651e+01 5.127030e+01 4.666413e+01 4.150711e+01 4.326391e+01 3.988084e+01 4.003235e+01 3.228005e+01 8.079820e-02 2.210491e-01 3.316675e-01 3.229023e-01 3.866456e-01 4.213211e-01 4.944366e-01 4.831345e-01 5.107803e-01 4.429438e-01 4.054795e-01 4.300288e-01 9.595031e-05
<GCONST> 6.727803e+01
<MIXTURE> 107 5.452374e-03
<MEAN> 25
 8.097349e+00 -3.440427e+00 -7.302580e+00 -8.758300e+00 -7.217957e-02 4.181081e+00 -9.904362e+00 -5.259707e+00 -6.920484e-02 3.060223e+00 2.465937e+00 -5.234793e+00 -6.520466e-01 -9.796348e-01 9.118127e-01 1.997761e+00 3.077174e-01 -2.381930e+00 -1.098739e+00 1.028953e+00 1.980345e+00 -1.096942e-01 -1.555791e+00 -9.268277e-01 1.272117e-03
<VARIANCE> 25
 9.353366e+00 2.615935e+01 2.732828e+01 4.147274e+01 5.295515e+01 4.621441e+01 6.327350e+01 3.501016e+01 4.501880e+01 3.646091e+01 6.367253e+01 2.801798e+01 3.277771e-01 1.177352e+00 1.535594e+00 2.562139e+00 2.007051e+00 3.388206e+00 2.723978e+00 2.483124e+00 2.404918e+00 3.569759e+00 1.834182e+00 2.242209e+00 7.394601e-04
<GCONST> 8.947626e+01
<MIXTURE> 108 5.452374e-03
<MEAN> 25
 8.097349e+00 -3.440427e+00 -7.302580e+00 -8.758300e+00 -7.217957e-02 4.181081e+00 -9.904362e+00 -5.259707e+00 -6.920484e-02 3.060223e+00 2.465937e+00 -5.234793e+00 -6.520466e-01 -9.796348e-01 9.118127e-01 1.997761e+00 3.077174e-01 -2.381930e+00 -1.098739e+00 1.028953e+00 1.980345e+00 -1.096942e-01 -1.555791e+00 -9.268277e-01 1.272117e-03
<VARIANCE> 25
 9.353366e+00 2.615935e+01 2.732828e+01 4.147274e+01 5.295515e+01 4.621441e+01 6.327350e+01 3.501016e+01 4.501880e+01 3.646091e+01 6.367253e+01 2.801798e+01 3.277771e-01 1.177352e+00 1.535594e+00 2.562139e+00 2.007051e+00 3.388206e+00 2.723978e+00 2.483124e+00 2.404918e+00 3.569759e+00 1.834182e+00 2.242209e+00 7.394601e-04
<GCONST> 8.947626e+01
<MIXTURE> 109 6.661064e-03
<MEAN> 25
 4.073103e+00 -1.055902e+01 -8.284369e+00 -1.363556e+00 2.735946e+00 -4.810555e-02 -9.489538e-02 1.455962e+00 -2.553862e+00 -8.365916e+00 -5.372487e+00 4.918530e-02 -3.321281e-02 -1.333140e-01 -3.189545e-02 2.480939e-01 1.967352e-01 1.186946e-01 -1.266321e-01 -1.056103e-01 -3.989500e-02 -1.311695e-01 2.187455e-01 1.187638e-02 -3.486870e-03
<VARIANCE> 25
 9.112589e+00 1.823342e+01 2.024323e+01 3.139992e+01 4.098057e+01 3.676336e+01 4.692766e+01 3.433099e+01 4.616003e+01 3.526041e+01 2.963178e+01 2.830235e+01 1.926844e-01 4.242418e-01 5.381417e-01 6.390861e-01 1.229342e+00 9.933744e-01 1.257067e+00 1.091339e+00 1.116194e+00 9.512419e-01 8.764300e-01 8.844847e-01 1.830530e-04
<GCONST> 7.448746e+01
<MIXTURE> 110 6.661064e-03
<MEAN> 25
 4.073103e+00 -1.055902e+01 -8.284369e+00 -1.363556e+00 2.735946e+00 -4.810555e-02 -9.489538e-02 1.455962e+00 -2.553862e+00 -8.365916e+00 -5.372487e+00 4.918530e-02 -3.321281e-02 -1.333140e-01 -3.189545e-02 2.480939e-01 1.967352e-01 1.186946e-01 -1.266321e-01 -1.056103e-01 -3.989500e-02 -1.311695e-01 2.187455e-01 1.187638e-02 -3.486870e-03
<VARIANCE> 25
 9.112589e+00 1.823342e+01 2.024323e+01 3.139992e+01 4.098057e+01 3.676336e+01 4.692766e+01 3.433099e+01 4.616003e+01 3.526041e+01 2.963178e+01 2.830235e+01 1.926844e-01 4.242418e-01 5.381417e-01 6.390861e-01 1.229342e+00 9.933744e-01 1.257067e+00 1.091339e+00 1.116194e+00 9.512419e-01 8.764300e-01 8.844847e-01 1.830530e-04
<GCONST> 7.448746e+01
<MIXTURE> 111 4.337247e-03
<MEAN> 25
 -4.456926e+00 -8.603820e-01 -1.710452e+00 1.703371e+00 1.013759e+00 9.338010e-01 3.550999e-01 2.335169e-01 8.431281e-02 -5.429741e-01 -6.323354e-01 1.960403e+00 -1.946207e-02 -2.991047e-02 -7.096315e-02 -7.586523e-02 -3.748721e-02 7.800135e-03 1.327775e-03 -6.108812e-02 -1.397244e-01 -2.065281e-01 -1.952852e-01 -1.107607e-01 -2.131827e-04
<VARIANCE> 25
 7.007913e+00 5.298582e+00 1.018127e+01 9.396879e+00 1.343363e+01 2.387269e+01 1.485529e+01 1.327655e+01 1.155803e+01 1.186351e+01 1.359104e+01 1.155945e+01 7.966258e-02 1.643684e-01 2.743138e-01 4.222657e-01 5.670831e-01 7.118118e-01 8.002656e-01 8.562710e-01 8.905796e-01 8.567433e-01 8.701367e-01 8.505096e-01 2.241257e-05
<GCONST> 5.610117e+01
<MIXTURE> 112 4.337247e-03
<MEAN> 25
 -4.456926e+00 -8.603820e-01 -1.710452e+00 1.703371e+00 1.013759e+00 9.338010e-01 3.550999e-01 2.335169e-01 8.431281e-02 -5.429741e-01 -6.323354e-01 1.960403e+00 -1.946207e-02 -2.991047e-02 -7.096315e-02 -7.586523e-02 -3.748721e-02 7.800135e-03 1.327775e-03 -6.108812e-02 -1.397244e-01 -2.065281e-01 -1.952852e-01 -1.107607e-01 -2.131827e-04
<VARIANCE> 25
 7.007913e+00 5.298582e+00 1.018127e+01 9.396879e+00 1.343363e+01 2.387269e+01 1.485529e+01 1.327655e+01 1.155803e+01 1.186351e+01 1.359104e+01 1.155945e+01 7.966258e-02 1.643684e-01 2.743138e-01 4.222657e-01 5.670831e-01 7.118118e-01 8.002656e-01 8.562710e-01 8.905796e-01 8.567433e-01 8.701367e-01 8.505096e-01 2.241257e-05
<GCONST> 5.610117e+01
<MIXTURE> 113 5.938666e-03
<MEAN> 25
 9.956161e+00 1.736411e+00 -8.675799e+00 -1.697757e+01 -1.113844e+00 5.798356e+00 -5.254596e+00 -1.515941e+00 -5.688534e+00 -4.642676e-01 3.341240e-01 -1.506724e-01 6.633213e-03 1.737455e-02 -6.338032e-02 -1.107128e-01 1.005805e-01 1.498600e-01 7.136448e-02 2.949354e-02 -5.820357e-02 -5.803110e-02 1.720315e-01 4.852284e-02 -1.518329e-03
<VARIANCE> 25
 8.863982e+00 1.637125e+01 3.013471e+01 3.419339e+01 5.267028e+01 3.485211e+01 3.934505e+01 3.907249e+01 3.719783e+01 4.624398e+01 3.618550e+01 2.825301e+01 1.217965e-01 3.255830e-01 3.133579e-01 6.348504e-01 6.095871e-01 6.692907e-01 7.805597e-01 8.398456e-01 9.665438e-01 8.985968e-01 7.199497e-01 7.348550e-01 1.263549e-04
<GCONST> 7.118004e+01
<MIXTURE> 114 5.938666e-03
<MEAN> 25
 9.956161e+00 1.736411e+00 -8.675799e+00 -1.697757e+01 -1.113844e+00 5.798356e+00 -5.254596e+00 -1.515941e+00 -5.688534e+00 -4.642676e-01 3.341240e-01 -1.506724e-01 6.633213e-03 1.737455e-02 -6.338032e-02 -1.107128e-01 1.005805e-01 1.498600e-01 7.136448e-02 2.949354e-02 -5.820357e-02 -5.803110e-02 1.720315e-01 4.852284e-02 -1.518329e-03
<VARIANCE> 25
 8.863982e+00 1.637125e+01 3.013471e+01 3.419339e+01 5.267028e+01 3.485211e+01 3.934505e+01 3.907249e+01 3.719783e+01 4.624398e+01 3.618550e+01 2.825301e+01 1.217965e-01 3.255830e-01 3.133579e-01 6.348504e-01 6.095871e-01 6.692907e-01 7.805597e-01 8.398456e-01 9.665438e-01 8.985968e-01 7.199497e-01 7.348550e-01 1.263549e-04
<GCONST> 7.118004e+01
<MIXTURE> 115 2.935202e-03
<MEAN> 25
 -3.996560e+00 -6.616156e-01 -3.073795e+00 3.642909e+00 2.478139e+00 -4.676543e-01 2.304405e+00 5.098622e-01 1.427618e+00 -3.029315e-02 1.009682e-02 2.673354e+00 3.048907e-02 -7.128192e-02 -2.298155e-01 -4.261654e-01 -6.282143e-01 -6.675569e-01 -5.874970e-01 -5.161099e-01 -4.835703e-01 -4.534779e-01 -3.412580e-01 -1.538803e-01 5.487108e-06
<VARIANCE> 25
 9.255186e+00 1.042601e+01 1.347188e+01 1.261115e+01 1.372708e+01 1.751061e+01 1.728652e+01 2.142293e+01 1.794387e+01 1.704421e+01 1.907802e+01 1.460254e+01 2.018722e-01 3.420858e-01 4.798301e-01 5.698689e-01 6.316298e-01 7.926970e-01 9.991226e-01 1.127204e+00 1.082569e+00 9.914688e-01 1.040208e+00 1.069919e+00 1.024168e-06
<GCONST> 6.024472e+01
<MIXTURE> 116 2.935202e-03
<MEAN> 25
 -3.996560e+00 -6.616156e-01 -3.073795e+00 3.642909e+00 2.478139e+00 -4.676543e-01 2.304405e+00 5.098622e-01 1.427618e+00 -3.029315e-02 1.009682e-02 2.673354e+00 3.048907e-02 -7.128192e-02 -2.298155e-01 -4.261654e-01 -6.282143e-01 -6.675569e-01 -5.874970e-01 -5.161099e-01 -4.835703e-01 -4.534779e-01 -3.412580e-01 -1.538803e-01 5.487108e-06
<VARIANCE> 25
 9.255186e+00 1.042601e+01 1.347188e+01 1.261115e+01 1.372708e+01 1.751061e+01 1.728652e+01 2.142293e+01 1.794387e+01 1.704421e+01 1.907802e+01 1.460254e+01 2.018722e-01 3.420858e-01 4.798301e-01 5.698689e-01 6.316298e-01 7.926970e-01 9.991226e-01 1.127204e+00 1.082569e+00 9.914688e-01 1.040208e+00 1.069919e+00 1.024168e-06
<GCONST> 6.024472e+01
<MIXTURE> 117 6.506003e-03
<MEAN> 25
 -4.619681e+00 1.156914e+00 1.045818e+00 9.703772e+00 6.278008e+00 6.204717e+00 6.481425e+00 5.087940e+00 6.381490e+00 4.899880e+00 6.311540e+00 2.693424e+00 -7.410450e-02 -2.338525e-01 -3.573944e-01 -4.148825e-01 -3.664541e-01 -3.061783e-01 -2.876764e-01 -3.350672e-01 -3.861186e-01 -3.709183e-01 -2.659581e-01 -1.130598e-01 -9.758094e-06
<VARIANCE> 25
 7.230294e+00 8.921607e+00 9.759267e+00 1.465428e+01 1.558615e+01 1.565974e+01 1.766935e+01 1.813167e+01 1.635283e+01 1.638865e+01 1.711184e+01 1.470938e+01 2.153431e-01 3.054966e-01 4.234307e-01 6.193538e-01 8.510926e-01 1.052771e+00 1.170552e+00 1.234750e+00 1.227943e+00 1.189114e+00 1.174772e+00 1.113353e+00 1.027582e-06
<GCONST> 6.052029e+01
<MIXTURE> 118 6.506003e-03
<MEAN> 25
 -4.619681e+00 1.156914e+00 1.045818e+00 9.703772e+00 6.278008e+00 6.204717e+00 6.481425e+00 5.087940e+00 6.381490e+00 4.899880e+00 6.311540e+00 2.693424e+00 -7.410450e-02 -2.338525e-01 -3.573944e-01 -4.148825e-01 -3.664541e-01 -3.061783e-01 -2.876764e-01 -3.350672e-01 -3.861186e-01 -3.709183e-01 -2.659581e-01 -1.130598e-01 -9.758094e-06
<VARIANCE> 25
 7.230294e+00 8.921607e+00 9.759267e+00 1.465428e+01 1.558615e+01 1.565974e+01 1.766935e+01 1.813167e+01 1.635283e+01 1.638865e+01 1.711184e+01 1.470938e+01 2.153431e-01 3.054966e-01 4.234307e-01 6.193538e-01 8.510926e-01 1.052771e+00 1.170552e+00 1.234750e+00 1.227943e+00 1.189114e+00 1.174772e+00 1.113353e+00 1.027582e-06
<GCONST> 6.052029e+01
<MIXTURE> 119 4.297961e-03
<MEAN> 25
 -4.970569e+00 -7.628281e+00 2.229820e+00 2.019871e+00 2.242064e+00 2.047250e-01 5.273408e+00 5.937866e+00 1.165312e+00 9.702228e-01 6.608183e+00 1.570483e+00 -5.010984e-02 -7.892464e-02 3.726382e-02 -5.776759e-02 -1.260485e-01 -1.798051e-01 -6.806534e-02 -1.396194e-02 -9.100232e-02 -1.117462e-01 -5.545601e-02 -5.853444e-02 1.089867e-03
<VARIANCE> 25
 8.523251e+00 9.867988e+00 1.657850e+01 2.019443e+01 2.289806e+01 2.320047e+01 2.501714e+01 2.647264e+01 2.503058e+01 2.806044e+01 2.043060e+01 2.039607e+01 1.603783e-01 2.826604e-01 4.596587e-01 6.335309e-01 8.028719e-01 1.003568e+00 1.100495e+00 1.277299e+00 1.285958e+00 1.247110e+00 1.193475e+00 1.112607e+00 2.322424e-04
<GCONST> 6.973551e+01
<MIXTURE> 120 4.297961e-03
<MEAN> 25
 -4.970569e+00 -7.628281e+00 2.229820e+00 2.019871e+00 2.242064e+00 2.047250e-01 5.273408e+00 5.937866e+00 1.165312e+00 9.702228e-01 6.608183e+00 1.570483e+00 -5.010984e-02 -7.892464e-02 3.726382e-02 -5.776759e-02 -1.260485e-01 -1.798051e-01 -6.806534e-02 -1.396194e-02 -9.100232e-02 -1.117462e-01 -5.545601e-02 -5.853444e-02 1.089867e-03
<VARIANCE> 25
 8.523251e+00 9.867988e+00 1.657850e+01 2.019443e+01 2.289806e+01 2.320047e+01 2.501714e+01 2.647264e+01 2.503058e+01 2.806044e+01 2.043060e+01 2.039607e+01 1.603783e-01 2.826604e-01 4.596587e-01 6.335309e-01 8.028719e-01 1.003568e+00 1.100495e+00 1.277299e+00 1.285958e+00 1.247110e+00 1.193475e+00 1.112607e+00 2.322424e-04
<GCONST> 6.973551e+01
<MIXTURE> 121 4.567511e-03
<MEAN> 25
 2.060277e-01 -2.544032e+00 5.153096e+00 -1.289124e+01 -1.264296e+01 -1.666261e+00 9.715944e-01 -5.098362e+00 -4.181017e+00 -4.939240e-01 -5.495403e+00 -4.321831e+00 2.398069e-02 1.325512e-01 -4.093410e-02 7.934554e-02 1.574362e-01 7.794911e-02 -8.086623e-02 -1.824469e-01 -2.688397e-01 -2.579844e-01 -1.141208e-01 1.932298e-03 -7.424460e-03
<VARIANCE> 25
 7.721998e+00 1.583763e+01 1.724869e+01 2.042146e+01 2.438482e+01 2.920640e+01 2.996953e+01 2.459480e+01 3.544696e+01 2.830566e+01 1.981591e+01 2.119416e+01 1.547780e-01 6.437437e-01 6.223981e-01 7.060980e-01 7.705576e-01 1.148638e+00 1.117671e+00 1.119864e+00 1.216359e+00 1.191203e+00 9.403094e-01 8.718404e-01 2.111648e-04
<GCONST> 7.142336e+01
<MIXTURE> 122 4.567511e-03
<MEAN> 25
 2.060277e-01 -2.544032e+00 5.153096e+00 -1.289124e+01 -1.264296e+01 -1.666261e+00 9.715944e-01 -5.098362e+00 -4.181017e+00 -4.939240e-01 -5.495403e+00 -4.321831e+00 2.398069e-02 1.325512e-01 -4.093410e-02 7.934554e-02 1.574362e-01 7.794911e-02 -8.086623e-02 -1.824469e-01 -2.688397e-01 -2.579844e-01 -1.141208e-01 1.932298e-03 -7.424460e-03
<VARIANCE> 25
 7.721998e+00 1.583763e+01 1.724869e+01 2.042146e+01 2.438482e+01 2.920640e+01 2.996953e+01 2.459480e+01 3.544696e+01 2.830566e+01 1.981591e+01 2.119416e+01 1.547780e-01 6.437437e-01 6.223981e-01 7.060980e-01 7.705576e-01 1.148638e+00 1.117671e+00 1.119864e+00 1.216359e+00 1.191203e+00 9.403094e-01 8.718404e-01 2.111648e-04
<GCONST> 7.142336e+01
<MIXTURE> 123 4.393044e-03
<MEAN> 25
 -3.801206e+00 2.018063e+00 1.570501e-01 6.070204e+00 6.234897e+00 2.282238e+00 4.295585e+00 1.699226e+00 -6.169684e-02 -4.590296e-01 -8.337484e-01 9.244137e-01 -4.485826e-01 -7.127110e-01 -7.113822e-01 -6.014506e-01 -2.095232e-01 7.095156e-02 4.657330e-01 6.146325e-01 7.434703e-01 6.131404e-01 5.384353e-01 5.888647e-01 -1.833731e-03
<VARIANCE> 25
 9.387461e+00 1.288189e+01 1.331125e+01 1.476961e+01 2.125426e+01 2.843378e+01 2.214014e+01 2.262690e+01 1.688576e+01 1.575847e+01 2.363064e+01 1.871231e+01 3.156359e-01 3.741066e-01 5.926645e-01 6.612385e-01 8.548986e-01 1.010159e+00 1.230823e+00 1.190701e+00 1.048750e+00 1.138319e+00 1.357470e+00 1.223936e+00 1.055935e-04
<GCONST> 6.901090e+01
<MIXTURE> 124 4.069876e-03
<MEAN> 25
 -6.157946e+00 -6.307077e-01 -2.801207e+00 5.004921e+00 5.368042e+00 3.158339e+00 5.724206e+00 2.918597e+00 2.992034e+00 1.118156e+00 7.880377e-01 2.958283e+00 -1.957246e-01 -3.036095e-01 -3.692223e-01 -2.285791e-01 1.497530e-01 5.088014e-01 7.974687e-01 9.379873e-01 6.862835e-01 2.907543e-01 4.455069e-02 -3.446699e-02 3.094985e-06
<VARIANCE> 25
 1.227561e+01 1.072335e+01 1.061221e+01 1.177847e+01 1.321330e+01 1.922110e+01 1.576167e+01 1.746455e+01 1.488309e+01 1.577538e+01 1.965698e+01 1.369615e+01 1.002098e-01 1.653807e-01 2.576539e-01 4.000597e-01 5.613052e-01 6.852732e-01 7.024816e-01 8.736385e-01 8.760117e-01 9.717716e-01 9.824384e-01 1.028607e+00 2.091859e-05
<GCONST> 5.912314e+01
<MIXTURE> 125 4.069876e-03
<MEAN> 25
 -6.157946e+00 -6.307077e-01 -2.801207e+00 5.004921e+00 5.368042e+00 3.158339e+00 5.724206e+00 2.918597e+00 2.992034e+00 1.118156e+00 7.880377e-01 2.958283e+00 -1.957246e-01 -3.036095e-01 -3.692223e-01 -2.285791e-01 1.497530e-01 5.088014e-01 7.974687e-01 9.379873e-01 6.862835e-01 2.907543e-01 4.455069e-02 -3.446699e-02 3.094985e-06
<VARIANCE> 25
 1.227561e+01 1.072335e+01 1.061221e+01 1.177847e+01 1.321330e+01 1.922110e+01 1.576167e+01 1.746455e+01 1.488309e+01 1.577538e+01 1.965698e+01 1.369615e+01 1.002098e-01 1.653807e-01 2.576539e-01 4.000597e-01 5.613052e-01 6.852732e-01 7.024816e-01 8.736385e-01 8.760117e-01 9.717716e-01 9.824384e-01 1.028607e+00 2.091859e-05
<GCONST> 5.912314e+01
<MIXTURE> 126 2.402244e-03
<MEAN> 25
 -3.737494e+00 -6.713403e+00 -5.237955e+00 2.315321e+00 4.370732e+00 -3.244825e+00 2.019661e-01 3.640356e+00 3.326560e+00 -2.648339e+00 -1.450008e+00 3.060799e+00 -2.934966e-03 -1.002892e-03 -3.108818e-02 -1.543194e-01 -3.190458e-01 -4.074132e-01 -2.749475e-01 -1.544376e-01 -1.139051e-01 -1.178288e-01 -9.678425e-02 -3.323533e-02 -1.672604e-03
<VARIANCE> 25
 7.416469e+00 1.499115e+01 1.372819e+01 1.489269e+01 2.466948e+01 2.345673e+01 2.325274e+01 2.863839e+01 3.088102e+01 2.615570e+01 2.150982e+01 1.901200e+01 1.689303e-01 3.504234e-01 4.778825e-01 5.620826e-01 7.461079e-01 1.011660e+00 1.111969e+00 1.253799e+00 1.323664e+00 1.310737e+00 1.225530e+00 1.150333e+00 2.095964e-04
<GCONST> 6.988184e+01
<MIXTURE> 127 2.402244e-03
<MEAN> 25
 -3.737494e+00 -6.713403e+00 -5.237955e+00 2.315321e+00 4.370732e+00 -3.244825e+00 2.019661e-01 3.640356e+00 3.326560e+00 -2.648339e+00 -1.450008e+00 3.060799e+00 -2.934966e-03 -1.002892e-03 -3.108818e-02 -1.543194e-01 -3.190458e-01 -4.074132e-01 -2.749475e-01 -1.544376e-01 -1.139051e-01 -1.178288e-01 -9.678425e-02 -3.323533e-02 -1.672604e-03
<VARIANCE> 25
 7.416469e+00 1.499115e+01 1.372819e+01 1.489269e+01 2.466948e+01 2.345673e+01 2.325274e+01 2.863839e+01 3.088102e+01 2.615570e+01 2.150982e+01 1.901200e+01 1.689303e-01 3.504234e-01 4.778825e-01 5.620826e-01 7.461079e-01 1.011660e+00 1.111969e+00 1.253799e+00 1.323664e+00 1.310737e+00 1.225530e+00 1.150333e+00 2.095964e-04
<GCONST> 6.988184e+01
<MIXTURE> 128 3.790457e-03
<MEAN> 25
 -3.906304e+00 1.593537e+00 -3.385759e-01 6.528118e+00 3.665617e+00 1.821422e+00 3.610943e+00 2.446537e+00 3.928113e+00 3.673684e+00 3.740710e+00 3.477775e+00 -3.908099e-01 -1.964907e-01 9.595598e-02 7.288486e-01 1.179584e+00 1.121363e+00 7.117434e-01 1.190492e-01 -4.245744e-01 -7.869276e-01 -7.125066e-01 -3.844665e-01 -2.769845e-05
<VARIANCE> 25
 1.018342e+01 1.185478e+01 1.485073e+01 1.936572e+01 2.005869e+01 2.113301e+01 2.418490e+01 2.502188e+01 2.647048e+01 2.372502e+01 2.671007e+01 1.830361e+01 8.867480e-01 1.136675e+00 1.353326e+00 1.490346e+00 1.569899e+00 1.870004e+00 2.232255e+00 2.319479e+00 2.157507e+00 1.844967e+00 1.742390e+00 1.751005e+00 1.013170e-06
<GCONST> 7.361687e+01
<TRANSP> 3
 0.000000e+00 1.000000e+00 0.000000e+00
 0.000000e+00 9.999990e-01 9.999998e-07
 0.000000e+00 0.000000e+00 0.000000e+00
<ENDHMM>
