~o
<STREAMINFO> 1 25
<VECSIZE> 25<NULLD><MFCC_E_D_N><DIAGC>
~h "jmodel"
<BEGINHMM>
<NUMSTATES> 3
<STATE> 2
<NUMMIXES> 128
<MIXTURE> 1 5.748963e-03
<MEAN> 25
 -2.579552e+00 3.189808e+00 2.301513e+00 8.742562e+00 4.378712e+00 3.436170e+00 4.072431e+00 3.941488e+00 5.823581e+00 5.247780e+00 5.878715e+00 3.078255e+00 -2.002380e+00 -1.631239e+00 -8.629260e-01 1.074951e+00 1.557282e+00 2.230092e+00 2.153987e+00 2.083388e+00 1.693193e+00 1.270860e+00 1.562397e+00 6.124902e-01 -4.682200e-02
<VARIANCE> 25
 1.007085e+01 1.177729e+01 1.498118e+01 1.878571e+01 2.324990e+01 2.223205e+01 2.192590e+01 2.200833e+01 2.101912e+01 2.252361e+01 2.094602e+01 1.706239e+01 1.789329e+00 2.118313e+00 3.024097e+00 3.205111e+00 3.740860e+00 3.355423e+00 3.318903e+00 3.378639e+00 3.518145e+00 3.721390e+00 3.523135e+00 2.829970e+00 3.123650e-03
<GCONST> 8.848210e+01
<MIXTURE> 2 4.549242e-03
<MEAN> 25
 -4.864189e+00 1.326450e+00 9.820275e-01 9.873167e+00 6.718573e+00 7.403487e+00 7.842200e+00 6.971502e+00 8.362076e+00 6.363627e+00 7.608114e+00 3.065200e+00 -6.170698e-02 4.185348e-02 1.438311e-01 2.275499e-01 2.642596e-01 2.781314e-01 2.946826e-01 3.186857e-01 3.487308e-01 3.118624e-01 1.996602e-01 7.988675e-02 -2.313773e-06
<VARIANCE> 25
 6.983814e+00 8.963515e+00 1.068417e+01 1.613604e+01 1.746358e+01 1.569678e+01 1.687046e+01 1.851306e+01 1.659386e+01 1.739220e+01 1.818224e+01 1.435131e+01 1.250735e-01 2.260549e-01 3.368563e-01 4.681921e-01 6.479896e-01 8.168436e-01 9.289045e-01 1.001087e+00 1.049596e+00 1.081617e+00 1.075208e+00 1.013025e+00 1.003041e-06
<GCONST> 5.809865e+01
<MIXTURE> 3 4.549242e-03
<MEAN> 25
 -4.864189e+00 1.326450e+00 9.820275e-01 9.873167e+00 6.718573e+00 7.403487e+00 7.842200e+00 6.971502e+00 8.362076e+00 6.363627e+00 7.608114e+00 3.065200e+00 -6.170698e-02 4.185348e-02 1.438311e-01 2.275499e-01 2.642596e-01 2.781314e-01 2.946826e-01 3.186857e-01 3.487308e-01 3.118624e-01 1.996602e-01 7.988675e-02 -2.313773e-06
<VARIANCE> 25
 6.983814e+00 8.963515e+00 1.068417e+01 1.613604e+01 1.746358e+01 1.569678e+01 1.687046e+01 1.851306e+01 1.659386e+01 1.739220e+01 1.818224e+01 1.435131e+01 1.250735e-01 2.260549e-01 3.368563e-01 4.681921e-01 6.479896e-01 8.168436e-01 9.289045e-01 1.001087e+00 1.049596e+00 1.081617e+00 1.075208e+00 1.013025e+00 1.003041e-06
<GCONST> 5.809865e+01
<MIXTURE> 4 1.671429e-02
<MEAN> 25
 3.185928e+00 2.624652e+00 -3.446673e+00 5.141554e-01 4.616937e+00 -9.804351e-01 -5.547007e-01 9.481592e-02 1.268533e+00 1.598982e+00 -1.632205e+00 -1.793744e-01 -2.917412e+00 1.216913e+00 1.611340e+00 2.558603e+00 9.166019e-01 1.072373e-02 1.865430e+00 6.688256e-01 1.137968e+00 5.815642e-01 5.080623e-01 1.362424e+00 -8.138197e-02
<VARIANCE> 25
 2.147731e+01 2.556407e+01 2.674953e+01 3.523882e+01 4.313189e+01 6.712182e+01 6.022561e+01 4.681172e+01 4.883684e+01 5.386985e+01 4.537352e+01 3.312964e+01 2.518430e+00 5.453444e+00 3.462895e+00 5.383863e+00 5.815264e+00 7.412272e+00 5.855565e+00 5.640680e+00 5.144699e+00 5.893852e+00 8.008669e+00 4.884204e+00 8.269393e-03
<GCONST> 1.052988e+02
<MIXTURE> 5 3.206198e-03
<MEAN> 25
 -3.365891e+00 2.278957e+00 5.305032e-01 9.248001e+00 6.861815e+00 6.163951e+00 7.100304e+00 4.835236e+00 5.464814e+00 3.839696e+00 4.566010e+00 2.539930e+00 -3.172513e-01 7.426242e-01 1.209992e+00 1.015842e+00 2.989254e-01 -1.127996e-01 -8.802330e-02 2.980268e-02 4.463822e-01 6.894745e-01 4.140632e-01 9.146427e-02 -4.679366e-05
<VARIANCE> 25
 1.029445e+01 1.419857e+01 2.338794e+01 2.681693e+01 2.143668e+01 2.024750e+01 1.980901e+01 2.081050e+01 2.113358e+01 2.106462e+01 2.434748e+01 1.644721e+01 1.192205e+00 1.228289e+00 1.347878e+00 1.677002e+00 2.258318e+00 2.354227e+00 2.283665e+00 2.236140e+00 2.281728e+00 2.234637e+00 2.068566e+00 1.855266e+00 1.017657e-06
<GCONST> 7.523290e+01
<MIXTURE> 6 5.475854e-03
<MEAN> 25
 9.798412e+00 -1.402717e+00 -6.702558e+00 -1.051282e+01 -2.629781e+00 7.287638e+00 -4.861015e+00 -5.371085e+00 -2.013853e+00 2.668537e+00 3.992503e+00 -6.844821e-01 5.085930e-01 9.606941e-01 -2.953899e-01 -1.364925e+00 -5.195788e-01 1.249813e+00 1.499332e+00 3.022651e-03 -1.196859e+00 -1.110714e+00 3.944283e-01 1.352655e+00 -1.192256e-02
<VARIANCE> 25
 7.887796e+00 1.920036e+01 2.015068e+01 3.417797e+01 3.243398e+01 2.756096e+01 4.335950e+01 3.281646e+01 4.642142e+01 3.643458e+01 3.749720e+01 2.685609e+01 3.080007e-01 7.586925e-01 8.337759e-01 1.728783e+00 1.489519e+00 1.727738e+00 1.657663e+00 2.028064e+00 2.139571e+00 1.735378e+00 1.915020e+00 1.458412e+00 5.930884e-04
<GCONST> 8.188440e+01
<MIXTURE> 7 5.475854e-03
<MEAN> 25
 9.798412e+00 -1.402717e+00 -6.702558e+00 -1.051282e+01 -2.629781e+00 7.287638e+00 -4.861015e+00 -5.371085e+00 -2.013853e+00 2.668537e+00 3.992503e+00 -6.844821e-01 5.085930e-01 9.606941e-01 -2.953899e-01 -1.364925e+00 -5.195788e-01 1.249813e+00 1.499332e+00 3.022651e-03 -1.196859e+00 -1.110714e+00 3.944283e-01 1.352655e+00 -1.192256e-02
<VARIANCE> 25
 7.887796e+00 1.920036e+01 2.015068e+01 3.417797e+01 3.243398e+01 2.756096e+01 4.335950e+01 3.281646e+01 4.642142e+01 3.643458e+01 3.749720e+01 2.685609e+01 3.080007e-01 7.586925e-01 8.337759e-01 1.728783e+00 1.489519e+00 1.727738e+00 1.657663e+00 2.028064e+00 2.139571e+00 1.735378e+00 1.915020e+00 1.458412e+00 5.930884e-04
<GCONST> 8.188440e+01
<MIXTURE> 8 1.165917e-02
<MEAN> 25
 -4.706691e+00 1.382235e+00 1.278849e+00 9.498961e+00 6.606756e+00 6.215229e+00 6.536795e+00 5.699198e+00 6.674447e+00 5.667323e+00 6.518364e+00 3.153958e+00 -6.498281e-01 -1.421564e+00 -1.050460e+00 -1.717767e+00 -2.282527e-01 -9.395536e-01 -1.727547e-01 -3.060054e-01 -2.481058e-01 -1.600834e-01 -2.246523e-01 8.573193e-02 9.904160e-02
<VARIANCE> 25
 9.389915e+00 9.845971e+00 1.158533e+01 1.653739e+01 1.668693e+01 1.586073e+01 1.856454e+01 1.743634e+01 1.697866e+01 1.747165e+01 1.924423e+01 1.391544e+01 2.806129e+00 2.800850e+00 3.952226e+00 3.767419e+00 3.436292e+00 3.301184e+00 3.116201e+00 3.107048e+00 2.861208e+00 2.670742e+00 2.439837e+00 1.894111e+00 6.645351e-03
<GCONST> 8.638181e+01
<MIXTURE> 9 1.199672e-02
<MEAN> 25
 9.297530e+00 3.381366e+00 -6.202207e+00 -1.066323e+01 -2.203586e+00 4.961281e+00 -2.221781e+00 -2.313509e+00 -5.384326e+00 -1.245848e+00 5.724135e-01 -2.656669e-02 1.432776e+00 -1.315274e-01 -4.886204e-01 -2.699855e+00 -1.643049e+00 8.565724e-01 -9.662741e-01 -2.313359e-01 -1.741521e-01 -5.773984e-01 6.158101e-01 -1.496592e-01 7.321638e-02
<VARIANCE> 25
 1.220333e+01 2.147224e+01 3.350625e+01 5.342960e+01 5.014330e+01 3.228460e+01 4.318290e+01 5.210383e+01 4.202409e+01 4.153473e+01 3.604368e+01 2.697018e+01 2.115367e+00 2.448453e+00 4.578073e+00 4.881094e+00 5.004037e+00 4.092466e+00 4.249852e+00 6.028031e+00 5.040418e+00 4.069054e+00 4.015276e+00 2.810173e+00 2.216615e-03
<GCONST> 9.880441e+01
<MIXTURE> 10 6.596976e-03
<MEAN> 25
 8.115019e-01 7.626561e+00 5.359499e+00 7.154352e+00 1.577977e+00 -2.134703e+00 -4.840372e-01 -1.694310e+00 8.694457e-01 8.472788e-01 8.340406e-01 6.547266e-01 -1.922830e+00 -6.654759e-01 -4.633408e-01 3.021683e+00 2.457928e+00 2.704900e+00 2.369201e+00 2.279010e+00 1.856284e+00 1.545334e+00 2.328601e+00 5.213847e-01 -1.378305e-01
<VARIANCE> 25
 1.952666e+01 2.064963e+01 2.233812e+01 2.899140e+01 3.823265e+01 3.497289e+01 3.547647e+01 3.382109e+01 2.756119e+01 2.903470e+01 2.689219e+01 2.494566e+01 2.230126e+00 3.437719e+00 5.529348e+00 5.171746e+00 5.546011e+00 4.467929e+00 4.695427e+00 4.830400e+00 4.387402e+00 5.006973e+00 4.447310e+00 3.187318e+00 2.722405e-03
<GCONST> 9.745782e+01
<MIXTURE> 11 1.633820e-02
<MEAN> 25
 7.189003e+00 3.390022e+00 3.584745e+00 6.279518e+00 -3.289998e+00 -2.737652e+00 -3.004100e+00 -4.363608e+00 -6.120782e+00 -1.129182e+00 -2.145388e+00 -2.305749e+00 -1.767552e-01 5.880619e-01 1.580259e-01 -1.846879e-01 6.431006e-01 -2.428402e-01 4.415531e-01 -9.306882e-02 3.377739e-01 2.341862e-01 -1.604093e-01 5.095928e-02 -2.839662e-02
<VARIANCE> 25
 8.638631e+00 2.429866e+01 1.710751e+01 3.127168e+01 3.121078e+01 2.974885e+01 3.964209e+01 4.114270e+01 4.978954e+01 3.657013e+01 3.245290e+01 2.083202e+01 7.238764e-01 9.142566e-01 1.590161e+00 3.320519e+00 1.639520e+00 1.777514e+00 1.738807e+00 2.358761e+00 3.376047e+00 1.767361e+00 1.519704e+00 1.225049e+00 1.137710e-03
<GCONST> 8.519072e+01
<MIXTURE> 12 5.904134e-03
<MEAN> 25
 1.076017e+01 3.285038e+00 -4.743389e+00 -1.556207e+01 -8.575454e+00 9.004307e+00 -5.476273e-01 -2.343122e+00 -1.218504e+00 -4.131756e+00 1.861241e+00 1.028622e+00 5.315543e-02 2.981986e-01 1.622190e-02 -3.788213e-01 -2.818243e-01 1.583885e-01 3.180312e-01 3.919787e-01 1.573969e-01 -3.507547e-01 -3.475409e-01 1.914327e-02 -5.936290e-03
<VARIANCE> 25
 8.321616e+00 2.238980e+01 2.266352e+01 3.512324e+01 3.981761e+01 3.145364e+01 4.104844e+01 4.808566e+01 4.446652e+01 4.231905e+01 3.562908e+01 2.852658e+01 2.382530e-01 6.739883e-01 7.058314e-01 1.094424e+00 1.157590e+00 1.236012e+00 1.118464e+00 1.349781e+00 1.175353e+00 1.163204e+00 1.182554e+00 9.719166e-01 5.520613e-04
<GCONST> 7.867164e+01
<MIXTURE> 13 5.904134e-03
<MEAN> 25
 1.076017e+01 3.285038e+00 -4.743389e+00 -1.556207e+01 -8.575454e+00 9.004307e+00 -5.476273e-01 -2.343122e+00 -1.218504e+00 -4.131756e+00 1.861241e+00 1.028622e+00 5.315543e-02 2.981986e-01 1.622190e-02 -3.788213e-01 -2.818243e-01 1.583885e-01 3.180312e-01 3.919787e-01 1.573969e-01 -3.507547e-01 -3.475409e-01 1.914327e-02 -5.936290e-03
<VARIANCE> 25
 8.321616e+00 2.238980e+01 2.266352e+01 3.512324e+01 3.981761e+01 3.145364e+01 4.104844e+01 4.808566e+01 4.446652e+01 4.231905e+01 3.562908e+01 2.852658e+01 2.382530e-01 6.739883e-01 7.058314e-01 1.094424e+00 1.157590e+00 1.236012e+00 1.118464e+00 1.349781e+00 1.175353e+00 1.163204e+00 1.182554e+00 9.719166e-01 5.520613e-04
<GCONST> 7.867164e+01
<MIXTURE> 14 6.488954e-03
<MEAN> 25
 -4.236828e+00 -2.739234e-01 -3.626446e-01 8.767334e+00 7.605615e+00 7.275146e+00 7.838953e+00 7.369381e+00 7.183858e+00 5.209461e+00 6.820097e+00 4.078819e+00 -2.696997e-01 1.858639e-01 3.651579e-01 3.125307e-01 -2.911664e-03 6.771131e-02 1.284595e-01 1.823745e-01 3.140351e-01 5.551537e-01 4.836387e-01 7.843900e-02 -8.912381e-03
<VARIANCE> 25
 9.627842e+00 1.442003e+01 1.854236e+01 1.905154e+01 2.130227e+01 2.009169e+01 2.131285e+01 2.047972e+01 2.018432e+01 2.369817e+01 2.140701e+01 1.585048e+01 9.537472e-01 1.624210e+00 1.750434e+00 1.910699e+00 2.227294e+00 2.237113e+00 2.315573e+00 2.219076e+00 2.292295e+00 2.495783e+00 2.213032e+00 1.789655e+00 1.031580e-03
<GCONST> 8.201409e+01
<MIXTURE> 15 2.475190e-03
<MEAN> 25
 -5.414069e+00 -6.344907e-01 -2.064063e-01 7.354724e+00 5.736816e+00 5.693966e+00 6.059439e+00 4.985961e+00 5.159054e+00 4.157139e+00 5.501783e+00 2.539890e+00 -1.204396e-01 -2.972022e-02 7.517450e-02 2.443129e-01 4.877503e-01 7.868717e-01 1.073734e+00 1.181946e+00 1.059432e+00 7.573289e-01 4.187990e-01 1.538210e-01 -6.032478e-05
<VARIANCE> 25
 7.035045e+00 5.658145e+00 9.036924e+00 1.290391e+01 1.423644e+01 1.431181e+01 1.490189e+01 1.490043e+01 1.410383e+01 1.417702e+01 1.509764e+01 1.249362e+01 1.249911e-01 2.060504e-01 3.193235e-01 5.026391e-01 7.007442e-01 7.927277e-01 7.631745e-01 7.910212e-01 9.081883e-01 1.023607e+00 1.070518e+00 1.039723e+00 2.830943e-05
<GCONST> 5.862800e+01
<MIXTURE> 16 2.475190e-03
<MEAN> 25
 -5.414069e+00 -6.344907e-01 -2.064063e-01 7.354724e+00 5.736816e+00 5.693966e+00 6.059439e+00 4.985961e+00 5.159054e+00 4.157139e+00 5.501783e+00 2.539890e+00 -1.204396e-01 -2.972022e-02 7.517450e-02 2.443129e-01 4.877503e-01 7.868717e-01 1.073734e+00 1.181946e+00 1.059432e+00 7.573289e-01 4.187990e-01 1.538210e-01 -6.032478e-05
<VARIANCE> 25
 7.035045e+00 5.658145e+00 9.036924e+00 1.290391e+01 1.423644e+01 1.431181e+01 1.490189e+01 1.490043e+01 1.410383e+01 1.417702e+01 1.509764e+01 1.249362e+01 1.249911e-01 2.060504e-01 3.193235e-01 5.026391e-01 7.007442e-01 7.927277e-01 7.631745e-01 7.910212e-01 9.081883e-01 1.023607e+00 1.070518e+00 1.039723e+00 2.830943e-05
<GCONST> 5.862800e+01
<MIXTURE> 17 9.518312e-03
<MEAN> 25
 3.807591e+00 -1.039557e+00 6.233834e+00 2.389234e+00 -6.267272e+00 -6.113511e+00 -3.135063e+00 -6.345934e-02 -2.643073e+00 -3.294860e+00 2.812286e-01 -3.012660e-02 -7.203776e-01 -1.276082e+00 1.301608e+00 -2.105526e+00 -2.325240e+00 -5.415972e-02 1.805259e-01 7.687905e-01 -2.183702e-01 -1.771651e-01 1.014037e+00 3.748269e-01 8.161332e-02
<VARIANCE> 25
 1.628540e+01 3.319180e+01 2.986066e+01 3.838788e+01 4.747169e+01 4.911352e+01 4.086765e+01 3.348681e+01 3.415009e+01 2.624972e+01 2.831431e+01 2.725996e+01 1.980719e+00 2.768810e+00 3.861274e+00 3.013852e+00 4.146706e+00 5.494444e+00 4.859036e+00 4.613313e+00 3.994694e+00 3.886722e+00 2.988683e+00 2.763027e+00 2.065803e-03
<GCONST> 9.677013e+01
<MIXTURE> 18 1.221018e-02
<MEAN> 25
 3.310841e+00 3.885511e+00 6.017203e+00 4.697946e+00 -4.575626e+00 -7.422639e+00 -2.056326e+00 -7.837285e-01 -3.631045e+00 -2.869539e+00 -2.105726e-01 -9.888252e-04 -8.443995e-01 2.297930e+00 -2.367135e-01 1.551051e+00 3.222936e+00 7.232334e-01 1.192210e+00 -3.254967e-02 6.673942e-01 9.694121e-01 -8.687867e-01 2.480173e-01 -1.152023e-01
<VARIANCE> 25
 1.656417e+01 2.592131e+01 3.058057e+01 2.386413e+01 3.588020e+01 3.509255e+01 4.229628e+01 3.197577e+01 3.596378e+01 3.242167e+01 3.258983e+01 2.830213e+01 2.335678e+00 2.958665e+00 4.142457e+00 4.715253e+00 4.090806e+00 7.395984e+00 4.995783e+00 4.014280e+00 4.153589e+00 4.880658e+00 6.503572e+00 4.011380e+00 3.865334e-03
<GCONST> 9.886641e+01
<MIXTURE> 19 9.912824e-03
<MEAN> 25
 -1.070325e+01 2.307492e+00 3.793098e-01 5.436254e-01 4.259671e+00 1.306925e+00 4.091437e+00 7.980980e-01 2.431774e+00 1.362391e+00 7.459276e-01 2.427225e+00 2.162520e+00 1.595171e+00 2.136191e+00 7.998484e-01 -1.177487e+00 -9.427568e-01 -1.123296e+00 -1.364783e+00 -1.471922e+00 -1.258754e+00 -7.169545e-01 -7.341712e-01 2.902074e-04
<VARIANCE> 25
 5.262865e+01 2.978878e+01 4.410562e+01 5.190081e+01 3.222316e+01 3.093836e+01 4.000376e+01 3.148628e+01 2.772975e+01 2.554562e+01 2.924228e+01 2.052887e+01 2.294167e+00 2.312856e+00 2.028141e+00 2.235521e+00 2.721822e+00 2.363401e+00 2.312904e+00 2.263478e+00 2.005738e+00 2.011386e+00 2.266209e+00 1.723618e+00 2.248824e-03
<GCONST> 9.140115e+01
<MIXTURE> 20 6.308331e-03
<MEAN> 25
 -1.415439e+01 7.418962e+00 8.394238e-01 6.143084e+00 4.834211e+00 1.604243e+00 5.214001e+00 8.438260e-01 9.123307e-01 7.916030e-01 2.552787e+00 -2.865674e-01 -3.281564e+00 -8.561382e-01 -1.563033e+00 3.284669e-01 1.539027e+00 2.060116e+00 1.968659e+00 2.051183e+00 2.137859e+00 2.038798e+00 1.677244e+00 9.422696e-01 4.715585e-02
<VARIANCE> 25
 1.984463e+01 2.338315e+01 3.087634e+01 3.727128e+01 3.084934e+01 2.811549e+01 2.997507e+01 3.148181e+01 2.788861e+01 2.816606e+01 2.512929e+01 2.095580e+01 2.093753e+00 2.203443e+00 1.906251e+00 2.539940e+00 2.694225e+00 2.307612e+00 2.331386e+00 2.340626e+00 2.241740e+00 2.642872e+00 2.249387e+00 1.864260e+00 1.893442e-03
<GCONST> 8.925684e+01
<MIXTURE> 21 7.928653e-03
<MEAN> 25
 4.008346e+00 -4.535164e+00 5.774505e+00 -1.533708e+00 -1.058324e+01 -8.724545e+00 -2.618676e+00 4.174048e+00 -2.081616e+00 -3.407141e+00 2.354997e-01 3.352667e-01 -7.186616e-01 1.341396e+00 2.587061e+00 -4.229218e-02 -1.550801e+00 3.350483e-01 5.874318e-01 -1.497968e+00 -1.957847e+00 3.143689e-01 1.323500e+00 2.464923e-01 -1.278343e-02
<VARIANCE> 25
 8.901000e+00 1.873254e+01 2.963066e+01 2.855409e+01 2.853115e+01 3.319051e+01 4.291782e+01 3.933138e+01 4.299262e+01 3.159344e+01 3.390064e+01 2.324200e+01 3.765127e-01 9.489079e-01 1.858824e+00 1.296108e+00 2.212246e+00 2.186304e+00 3.641102e+00 2.498945e+00 2.160104e+00 2.593507e+00 2.024702e+00 2.282817e+00 4.283954e-04
<GCONST> 8.510488e+01
<MIXTURE> 22 8.827789e-03
<MEAN> 25
 -1.792318e+01 7.148916e+00 -4.126345e+00 7.333611e+00 4.635119e+00 2.715049e+00 8.442315e+00 1.754732e+00 5.347253e+00 3.322860e+00 5.664752e+00 1.229911e+00 -3.143822e-01 -2.019885e-01 -1.293931e-01 -1.528324e-01 -8.563356e-03 1.365870e-01 1.810239e-01 1.743356e-01 2.497706e-01 2.029189e-01 1.736211e-01 1.928717e-01 9.120440e-03
<VARIANCE> 25
 8.231780e+00 1.679965e+01 1.728770e+01 2.556052e+01 2.296301e+01 2.103382e+01 1.975798e+01 1.862595e+01 1.818839e+01 2.081286e+01 1.948990e+01 1.403107e+01 1.096818e+00 1.354001e+00 1.366124e+00 1.565177e+00 1.404336e+00 1.523769e+00 1.504934e+00 1.528413e+00 1.608452e+00 1.540481e+00 1.352209e+00 1.163685e+00 1.754794e-03
<GCONST> 7.836746e+01
<MIXTURE> 23 6.455497e-03
<MEAN> 25
 7.707115e+00 2.074385e-01 3.684910e+00 4.182226e+00 -5.455977e+00 -3.352004e+00 -4.882137e+00 -5.683337e+00 -5.295967e+00 4.078482e-01 -5.242865e+00 -2.384163e+00 1.321735e-02 2.005942e-01 6.139808e-02 -2.207386e-02 4.301831e-02 1.774651e-01 -9.843950e-02 -3.131058e-01 6.057772e-02 1.685267e-01 -4.507816e-02 8.482897e-02 -3.075775e-03
<VARIANCE> 25
 8.853397e+00 3.416376e+01 2.175772e+01 4.160146e+01 3.626678e+01 4.304552e+01 5.018023e+01 4.694636e+01 4.923434e+01 4.456272e+01 4.249045e+01 3.209370e+01 1.034451e-01 2.485878e-01 3.616179e-01 5.423152e-01 4.976926e-01 6.564785e-01 6.822695e-01 9.589604e-01 7.507082e-01 8.165358e-01 6.970764e-01 6.292157e-01 8.624314e-05
<GCONST> 7.099169e+01
<MIXTURE> 24 6.455497e-03
<MEAN> 25
 7.707115e+00 2.074385e-01 3.684910e+00 4.182226e+00 -5.455977e+00 -3.352004e+00 -4.882137e+00 -5.683337e+00 -5.295967e+00 4.078482e-01 -5.242865e+00 -2.384163e+00 1.321735e-02 2.005942e-01 6.139808e-02 -2.207386e-02 4.301831e-02 1.774651e-01 -9.843950e-02 -3.131058e-01 6.057772e-02 1.685267e-01 -4.507816e-02 8.482897e-02 -3.075775e-03
<VARIANCE> 25
 8.853397e+00 3.416376e+01 2.175772e+01 4.160146e+01 3.626678e+01 4.304552e+01 5.018023e+01 4.694636e+01 4.923434e+01 4.456272e+01 4.249045e+01 3.209370e+01 1.034451e-01 2.485878e-01 3.616179e-01 5.423152e-01 4.976926e-01 6.564785e-01 6.822695e-01 9.589604e-01 7.507082e-01 8.165358e-01 6.970764e-01 6.292157e-01 8.624314e-05
<GCONST> 7.099169e+01
<MIXTURE> 25 1.118642e-02
<MEAN> 25
 1.076900e-01 1.405565e+00 1.518057e+01 -7.221767e-01 -1.161160e+01 6.624943e-01 -5.740444e+00 -2.854500e+00 -5.761510e+00 -6.457086e+00 4.066302e+00 -2.210355e+00 4.633834e-03 5.622110e-01 1.712016e-01 2.087913e-01 4.377486e-01 -8.148637e-02 -1.349062e-01 -1.149689e-01 -3.057053e-01 2.602334e-03 -2.163143e-01 1.006179e-01 -1.815400e-02
<VARIANCE> 25
 7.359702e+00 3.312344e+01 2.597967e+01 2.422162e+01 2.661367e+01 5.935111e+01 2.479889e+01 2.523413e+01 2.835538e+01 3.383328e+01 2.073691e+01 2.391190e+01 5.753496e-01 1.548386e+00 1.173759e+00 1.157477e+00 2.227970e+00 2.162785e+00 1.906379e+00 1.566801e+00 1.272395e+00 1.400512e+00 1.339590e+00 1.362631e+00 1.331991e-03
<GCONST> 8.218024e+01
<MIXTURE> 26 7.727677e-03
<MEAN> 25
 2.207194e+00 -5.797711e+00 -1.020135e+01 -8.247831e-01 8.144803e+00 5.066873e+00 3.774450e+00 -8.334139e-02 2.208436e+00 -6.973106e-01 -2.853233e+00 -1.079853e+00 -5.982959e-01 6.035575e-01 3.620261e-01 6.411257e-01 2.478888e-01 2.081469e-01 3.016836e-01 3.141061e-01 3.143923e-01 8.164935e-02 3.689289e-01 4.472391e-01 -5.174645e-02
<VARIANCE> 25
 2.398929e+01 3.951700e+01 2.505279e+01 5.941203e+01 3.935869e+01 4.457168e+01 4.845528e+01 4.489312e+01 3.813421e+01 5.332267e+01 3.863147e+01 4.454805e+01 1.705065e+00 1.931031e+00 1.857944e+00 2.019633e+00 2.359463e+00 2.487681e+00 2.444556e+00 2.670156e+00 2.345685e+00 2.242714e+00 2.112110e+00 1.921466e+00 3.343504e-03
<GCONST> 9.384973e+01
<MIXTURE> 27 7.727677e-03
<MEAN> 25
 2.207194e+00 -5.797711e+00 -1.020135e+01 -8.247831e-01 8.144803e+00 5.066873e+00 3.774450e+00 -8.334139e-02 2.208436e+00 -6.973106e-01 -2.853233e+00 -1.079853e+00 -5.982959e-01 6.035575e-01 3.620261e-01 6.411257e-01 2.478888e-01 2.081469e-01 3.016836e-01 3.141061e-01 3.143923e-01 8.164935e-02 3.689289e-01 4.472391e-01 -5.174645e-02
<VARIANCE> 25
 2.398929e+01 3.951700e+01 2.505279e+01 5.941203e+01 3.935869e+01 4.457168e+01 4.845528e+01 4.489312e+01 3.813421e+01 5.332267e+01 3.863147e+01 4.454805e+01 1.705065e+00 1.931031e+00 1.857944e+00 2.019633e+00 2.359463e+00 2.487681e+00 2.444556e+00 2.670156e+00 2.345685e+00 2.242714e+00 2.112110e+00 1.921466e+00 3.343504e-03
<GCONST> 9.384973e+01
<MIXTURE> 28 5.036674e-03
<MEAN> 25
 -5.247542e+00 2.223249e-01 -1.730643e+00 6.314211e+00 5.620598e+00 3.359591e+00 5.435816e+00 3.440243e+00 3.915894e+00 2.291457e+00 2.373596e+00 2.976413e+00 -1.249812e-01 2.051463e-01 5.271441e-01 7.939452e-01 8.348063e-01 6.975857e-01 5.102697e-01 4.053924e-01 4.406390e-01 4.989277e-01 3.708999e-01 1.503685e-01 -5.287434e-05
<VARIANCE> 25
 1.110591e+01 9.201196e+00 1.245449e+01 1.664689e+01 1.805905e+01 1.775410e+01 1.739969e+01 2.081429e+01 1.659494e+01 1.645777e+01 2.232702e+01 1.627362e+01 2.514847e-01 3.353861e-01 3.942334e-01 4.507353e-01 6.260276e-01 8.487720e-01 1.023093e+00 1.116966e+00 1.068337e+00 1.012776e+00 1.010239e+00 1.085591e+00 1.015488e-06
<GCONST> 6.074718e+01
<MIXTURE> 29 5.036674e-03
<MEAN> 25
 -5.247542e+00 2.223249e-01 -1.730643e+00 6.314211e+00 5.620598e+00 3.359591e+00 5.435816e+00 3.440243e+00 3.915894e+00 2.291457e+00 2.373596e+00 2.976413e+00 -1.249812e-01 2.051463e-01 5.271441e-01 7.939452e-01 8.348063e-01 6.975857e-01 5.102697e-01 4.053924e-01 4.406390e-01 4.989277e-01 3.708999e-01 1.503685e-01 -5.287434e-05
<VARIANCE> 25
 1.110591e+01 9.201196e+00 1.245449e+01 1.664689e+01 1.805905e+01 1.775410e+01 1.739969e+01 2.081429e+01 1.659494e+01 1.645777e+01 2.232702e+01 1.627362e+01 2.514847e-01 3.353861e-01 3.942334e-01 4.507353e-01 6.260276e-01 8.487720e-01 1.023093e+00 1.116966e+00 1.068337e+00 1.012776e+00 1.010239e+00 1.085591e+00 1.015488e-06
<GCONST> 6.074718e+01
<MIXTURE> 30 8.917812e-03
<MEAN> 25
 -4.347110e+00 -3.179726e-02 5.457266e-01 8.886360e+00 8.010261e+00 7.379082e+00 7.621962e+00 7.005126e+00 6.519492e+00 4.758333e+00 6.743773e+00 3.370543e+00 -7.580098e-03 2.376098e-02 5.249601e-02 9.457408e-02 9.074473e-02 6.860873e-02 5.076690e-02 -1.220613e-02 1.016463e-02 6.582470e-02 4.233389e-02 5.046942e-02 -6.411283e-04
<VARIANCE> 25
 7.513307e+00 1.053478e+01 1.053867e+01 1.483490e+01 1.724016e+01 1.669291e+01 1.877051e+01 1.826758e+01 1.593142e+01 1.865792e+01 2.345199e+01 1.463995e+01 1.062160e-01 1.964990e-01 3.215688e-01 4.754449e-01 6.099756e-01 7.488443e-01 8.159372e-01 7.982550e-01 8.612553e-01 9.305570e-01 9.291644e-01 8.534487e-01 5.039978e-05
<GCONST> 6.109469e+01
<MIXTURE> 31 4.136493e-03
<MEAN> 25
 -3.229153e+00 -5.468447e+00 1.485890e-03 4.795495e+00 3.868380e+00 1.609855e+00 5.273582e+00 6.691870e+00 2.740633e+00 1.250531e+00 6.422983e+00 3.108005e+00 2.535152e-01 4.632037e-01 -2.140950e-01 3.048438e-01 1.182536e-01 4.334927e-01 2.026802e-01 2.018648e-02 3.837288e-01 3.837872e-01 9.987400e-02 1.166039e-01 -1.807035e-02
<VARIANCE> 25
 7.312886e+00 1.751886e+01 1.752637e+01 1.817163e+01 2.709454e+01 2.414580e+01 2.338046e+01 2.574602e+01 2.569703e+01 2.776473e+01 2.089263e+01 1.860923e+01 1.894430e-01 4.939795e-01 5.989606e-01 7.680738e-01 9.573260e-01 1.091587e+00 1.231961e+00 1.379861e+00 1.333637e+00 1.303383e+00 1.231805e+00 1.127228e+00 2.595934e-04
<GCONST> 7.203422e+01
<MIXTURE> 32 4.136493e-03
<MEAN> 25
 -3.229153e+00 -5.468447e+00 1.485890e-03 4.795495e+00 3.868380e+00 1.609855e+00 5.273582e+00 6.691870e+00 2.740633e+00 1.250531e+00 6.422983e+00 3.108005e+00 2.535152e-01 4.632037e-01 -2.140950e-01 3.048438e-01 1.182536e-01 4.334927e-01 2.026802e-01 2.018648e-02 3.837288e-01 3.837872e-01 9.987400e-02 1.166039e-01 -1.807035e-02
<VARIANCE> 25
 7.312886e+00 1.751886e+01 1.752637e+01 1.817163e+01 2.709454e+01 2.414580e+01 2.338046e+01 2.574602e+01 2.569703e+01 2.776473e+01 2.089263e+01 1.860923e+01 1.894430e-01 4.939795e-01 5.989606e-01 7.680738e-01 9.573260e-01 1.091587e+00 1.231961e+00 1.379861e+00 1.333637e+00 1.303383e+00 1.231805e+00 1.127228e+00 2.595934e-04
<GCONST> 7.203422e+01
<MIXTURE> 33 1.508826e-02
<MEAN> 25
 6.346090e+00 -4.800499e+00 -1.816702e+00 -2.413013e+00 -2.736830e+00 -4.313612e+00 -7.211030e+00 4.929989e-01 2.028052e+00 2.428937e-01 -4.471077e+00 -3.321366e+00 6.315806e-01 -1.151973e+00 -2.440800e+00 -1.949446e+00 1.092508e+00 1.691891e+00 -6.814716e-01 5.404019e-01 1.207213e+00 4.376245e-01 1.734766e-01 -1.384122e+00 3.383564e-02
<VARIANCE> 25
 8.566795e+00 2.067049e+01 2.655903e+01 3.384505e+01 3.695908e+01 4.519509e+01 3.593087e+01 5.272869e+01 4.459668e+01 3.844822e+01 3.225101e+01 2.468726e+01 1.265948e+00 1.812634e+00 1.869624e+00 2.729604e+00 4.548278e+00 3.215861e+00 3.717077e+00 4.869758e+00 3.307793e+00 4.001333e+00 4.039103e+00 2.176940e+00 1.327318e-03
<GCONST> 9.319063e+01
<MIXTURE> 34 1.588179e-02
<MEAN> 25
 8.399174e+00 -1.522661e+00 5.872449e-01 1.675833e+00 -3.468421e+00 -1.746062e+00 -5.918532e+00 -3.365232e+00 -3.052814e+00 2.020697e-01 -2.684547e+00 -3.946243e+00 6.447710e-02 1.462562e+00 1.177377e+00 2.534474e+00 6.000291e-02 -5.175228e-01 5.173132e-01 -1.361755e+00 -1.247598e+00 3.915250e-01 -6.991652e-01 2.022950e-01 -6.102945e-02
<VARIANCE> 25
 7.873694e+00 4.099099e+01 2.763853e+01 4.589357e+01 3.794193e+01 4.563134e+01 4.673479e+01 5.398332e+01 5.135136e+01 4.036261e+01 4.211940e+01 2.637506e+01 1.085763e+00 1.758279e+00 3.850196e+00 4.088528e+00 4.946179e+00 5.496416e+00 5.242944e+00 5.368375e+00 5.317644e+00 4.153544e+00 4.330360e+00 3.178080e+00 1.046311e-03
<GCONST> 9.770618e+01
<MIXTURE> 35 1.467755e-02
<MEAN> 25
 -1.988760e+00 -4.889459e+00 -9.824266e+00 1.687370e-01 9.816273e+00 6.899387e-01 1.750638e+00 2.768973e+00 1.721567e+00 4.626151e+00 3.294181e-02 1.819261e+00 4.565523e-01 -1.100233e+00 -1.320798e+00 -1.325941e+00 3.647635e-01 -7.682827e-01 -5.945228e-01 -1.885867e-01 -6.766102e-02 2.142652e-01 -7.074458e-01 -4.538646e-01 1.064568e-01
<VARIANCE> 25
 1.977048e+01 3.184864e+01 4.262682e+01 6.025799e+01 4.108743e+01 5.578862e+01 5.070254e+01 4.426245e+01 5.055568e+01 3.733216e+01 3.537732e+01 3.016271e+01 3.632010e+00 3.463037e+00 6.850294e+00 5.463591e+00 5.120635e+00 5.424222e+00 4.989893e+00 4.688202e+00 5.117759e+00 4.440498e+00 4.035668e+00 3.760334e+00 5.219043e-03
<GCONST> 1.034309e+02
<MIXTURE> 36 1.093293e-02
<MEAN> 25
 3.873758e+00 -5.477008e+00 6.399047e+00 4.016107e+00 -1.138751e+01 -5.591408e+00 -8.145060e+00 1.809461e+00 -2.748073e+00 -7.871872e+00 5.686419e+00 -1.186110e+00 2.206227e-01 2.736702e-01 -8.131088e-01 -1.019832e-02 9.494771e-01 -1.070507e-01 -2.878489e-01 1.753286e-01 2.292787e-01 6.641496e-01 -5.754098e-01 -3.509314e-01 -1.817413e-02
<VARIANCE> 25
 9.341532e+00 2.423138e+01 1.558246e+01 2.586810e+01 2.458278e+01 3.053580e+01 4.442105e+01 2.544552e+01 3.432070e+01 4.028848e+01 3.925581e+01 1.748600e+01 4.222234e-01 6.858118e-01 1.024983e+00 1.147167e+00 1.435041e+00 1.599336e+00 2.135500e+00 1.528753e+00 1.637053e+00 1.544788e+00 1.299733e+00 9.782837e-01 6.379336e-04
<GCONST> 7.952995e+01
<MIXTURE> 37 1.246826e-02
<MEAN> 25
 5.523825e-01 7.671410e+00 1.201421e+01 -5.492183e+00 -8.018497e+00 -9.659265e-01 -5.136075e+00 -8.262603e+00 -3.689831e+00 -9.986058e-01 -3.639957e+00 -1.290506e+00 1.929543e-01 6.581745e-01 -1.348688e+00 3.567136e+00 1.988091e+00 -3.373637e-01 1.086354e+00 4.470775e-01 4.968614e-01 -3.241329e-01 5.315270e-01 -8.625026e-02 -9.475890e-02
<VARIANCE> 25
 1.580115e+01 2.680853e+01 3.081641e+01 5.095382e+01 3.369763e+01 3.273660e+01 4.405758e+01 3.515300e+01 3.831802e+01 3.654630e+01 3.748935e+01 3.062990e+01 2.940397e+00 3.396099e+00 2.996395e+00 4.093040e+00 4.577333e+00 3.864390e+00 4.182491e+00 3.790822e+00 3.539697e+00 3.590034e+00 3.841298e+00 2.784299e+00 3.894292e-03
<GCONST> 9.780440e+01
<MIXTURE> 38 1.154525e-02
<MEAN> 25
 -4.991287e+00 8.291165e+00 4.187652e+00 1.845472e+00 2.379536e+00 -6.580849e+00 8.810164e-04 -2.523002e+00 -1.849579e+00 -2.678271e+00 -2.667879e+00 1.604140e+00 -4.468102e+00 1.437239e+00 -3.696137e-01 5.296839e-01 2.340137e+00 9.705285e-01 1.701690e+00 -3.943696e-02 1.009497e+00 7.233344e-01 4.776014e-01 1.022663e+00 5.581706e-02
<VARIANCE> 25
 3.526339e+01 2.527652e+01 2.835709e+01 3.360463e+01 3.962667e+01 4.489760e+01 2.785438e+01 3.595655e+01 2.974447e+01 2.747048e+01 2.305598e+01 3.266500e+01 1.949523e+00 3.385949e+00 2.969909e+00 5.342866e+00 4.260021e+00 5.903042e+00 4.449268e+00 5.447571e+00 3.251567e+00 3.657869e+00 4.064761e+00 3.793733e+00 2.431892e-03
<GCONST> 9.757915e+01
<MIXTURE> 39 9.501865e-03
<MEAN> 25
 1.324989e+00 2.520457e+00 1.019821e+01 -9.150481e+00 -1.130334e+01 -8.758334e-01 -3.004761e+00 -6.534029e+00 -4.491345e+00 7.921700e-01 -3.637563e+00 -2.324826e+00 -7.207881e-01 1.523423e+00 1.617401e+00 -1.377888e+00 9.073321e-02 1.214077e+00 -1.206274e+00 -1.248716e+00 4.226382e-01 4.400070e-01 -5.121578e-01 1.308656e-01 9.590366e-04
<VARIANCE> 25
 8.879775e+00 3.079508e+01 3.143469e+01 3.859468e+01 3.693564e+01 4.406463e+01 4.427773e+01 3.345651e+01 3.929891e+01 3.378361e+01 3.619855e+01 2.930769e+01 6.952857e-01 1.535894e+00 1.511251e+00 2.925814e+00 2.418079e+00 2.815505e+00 3.035379e+00 2.730666e+00 2.424713e+00 2.602190e+00 2.111052e+00 2.063107e+00 1.193756e-03
<GCONST> 8.968069e+01
<MIXTURE> 40 1.030800e-02
<MEAN> 25
 -7.880813e+00 2.934555e+00 -1.528797e+00 6.878865e+00 5.396422e+00 4.324564e+00 5.360134e+00 5.076796e+00 4.281496e+00 4.237814e+00 5.161269e+00 1.595072e+00 -4.144211e-02 -2.304382e-01 -3.106216e-02 -2.065055e-01 -1.328734e-01 2.993498e-03 1.793012e-01 1.064527e-01 8.228526e-02 1.048570e-01 5.778112e-03 6.418422e-02 4.306736e-03
<VARIANCE> 25
 4.681226e+01 2.120290e+01 2.599395e+01 3.199365e+01 3.600418e+01 2.436347e+01 1.841942e+01 1.963597e+01 1.608504e+01 1.734851e+01 1.998097e+01 1.321000e+01 6.671677e-01 6.683540e-01 7.754200e-01 1.031945e+00 1.075175e+00 1.285923e+00 1.540366e+00 1.220947e+00 1.270365e+00 1.265773e+00 1.100022e+00 9.670150e-01 7.468606e-04
<GCONST> 7.670745e+01
<MIXTURE> 41 6.713375e-03
<MEAN> 25
 1.306856e+00 1.783199e+00 1.047461e+01 -6.961681e+00 -1.047236e+01 -3.856241e+00 -2.484477e+00 -5.044650e+00 -4.653046e+00 2.661370e+00 -1.744376e+00 -9.491839e-01 7.745740e-02 -7.609685e-01 1.697184e+00 -3.558353e+00 -2.461434e+00 -1.123068e-01 -5.057287e-01 -3.570476e-01 -8.266381e-01 1.086141e+00 -1.045397e+00 8.339302e-02 8.630373e-02
<VARIANCE> 25
 1.171912e+01 2.966746e+01 3.261937e+01 4.003667e+01 3.869398e+01 4.015662e+01 3.714637e+01 2.988223e+01 3.310328e+01 2.877701e+01 3.185885e+01 2.721887e+01 3.179323e+00 3.311251e+00 3.824042e+00 3.797944e+00 4.904417e+00 5.874640e+00 4.716634e+00 4.557749e+00 3.975539e+00 4.220672e+00 3.832946e+00 3.224348e+00 2.929268e-03
<GCONST> 9.791792e+01
<MIXTURE> 42 1.106211e-02
<MEAN> 25
 -3.617238e+00 4.810007e+00 3.681490e+00 1.648304e+00 5.773733e-01 -5.390933e+00 9.391543e-01 -3.419750e+00 -1.017891e+00 -8.387663e-01 -2.093559e+00 2.917501e+00 3.962000e+00 -1.682737e+00 1.358662e+00 7.742137e-01 -3.662881e+00 -1.238828e-01 -2.199996e+00 -6.231696e-01 -8.556268e-01 -1.535992e+00 1.150056e+00 -1.097966e+00 2.370118e-02
<VARIANCE> 25
 2.873534e+01 1.864984e+01 3.555018e+01 2.586544e+01 3.268916e+01 3.551097e+01 3.291113e+01 2.453492e+01 2.715101e+01 2.404506e+01 1.390992e+01 1.889021e+01 2.792235e+00 6.195457e+00 4.198707e+00 3.317485e+00 3.465984e+00 6.139198e+00 3.273075e+00 3.992654e+00 3.695236e+00 3.977931e+00 2.986440e+00 2.773847e+00 3.140741e-03
<GCONST> 9.500947e+01
<MIXTURE> 43 7.108249e-03
<MEAN> 25
 3.219595e+00 -6.495171e+00 -2.105923e+00 -5.124337e+00 -7.399176e+00 -3.380494e+00 4.055498e+00 1.334741e+00 -4.979715e+00 -6.962462e+00 -4.327971e+00 -1.304503e+00 2.434487e-01 2.156348e+00 1.871879e+00 -8.038065e-02 -1.357889e+00 -8.414201e-01 -9.663670e-01 -7.805578e-01 7.551141e-01 1.470416e+00 2.918727e-01 1.967098e-02 -4.548004e-02
<VARIANCE> 25
 9.542367e+00 2.113148e+01 2.763484e+01 3.479778e+01 3.765676e+01 3.620618e+01 3.298746e+01 3.898749e+01 3.928334e+01 3.861907e+01 2.604158e+01 2.902273e+01 6.768718e-01 1.231324e+00 1.611003e+00 2.600473e+00 2.550175e+00 2.432039e+00 2.602057e+00 2.963244e+00 2.778193e+00 2.525242e+00 2.388201e+00 1.878054e+00 9.299525e-04
<GCONST> 8.803788e+01
<MIXTURE> 44 7.328289e-03
<MEAN> 25
 -1.481859e+01 2.399399e+00 3.233619e+00 -3.455542e+00 4.220107e+00 1.717309e+00 1.295852e-01 1.868105e+00 1.756602e+00 -5.687982e-01 1.639376e+00 1.954390e+00 -1.094905e-01 3.052844e-02 1.822786e-01 3.181211e-01 -2.127807e-01 2.698477e-01 3.441618e-01 1.015397e-02 3.229328e-01 1.340644e-01 1.092036e-01 3.242826e-02 3.783823e-03
<VARIANCE> 25
 4.350468e+01 3.118866e+01 3.316005e+01 2.916342e+01 3.312576e+01 2.985658e+01 2.335067e+01 3.735813e+01 2.592609e+01 2.540175e+01 2.545115e+01 1.802674e+01 1.182952e+00 1.448525e+00 1.283671e+00 1.325654e+00 2.194949e+00 1.587652e+00 1.601899e+00 1.636649e+00 1.543352e+00 1.383862e+00 1.318172e+00 1.173125e+00 1.176939e-03
<GCONST> 8.405305e+01
<MIXTURE> 45 1.364932e-02
<MEAN> 25
 -1.134151e+01 4.601094e+00 -7.478365e-01 1.550886e+00 7.275545e+00 -1.161661e+00 7.135388e+00 3.010351e+00 3.787338e+00 3.989838e+00 1.534558e-01 3.961723e+00 -3.193162e+00 5.266325e-01 -2.972727e-01 -5.536410e-01 2.570071e-01 1.693443e-01 6.092991e-01 -2.907978e-01 -1.845063e-01 2.024668e-01 -8.448911e-02 3.699244e-01 1.083096e-01
<VARIANCE> 25
 3.776896e+01 2.306552e+01 2.201862e+01 2.899216e+01 2.842691e+01 3.184206e+01 4.512098e+01 2.752552e+01 2.344604e+01 2.930872e+01 2.221779e+01 1.464890e+01 2.309614e+00 2.164619e+00 2.567206e+00 1.806815e+00 1.846295e+00 2.046626e+00 2.226906e+00 2.352483e+00 2.308327e+00 1.880831e+00 1.715619e+00 1.460807e+00 3.891868e-03
<GCONST> 8.839341e+01
<MIXTURE> 46 9.336259e-03
<MEAN> 25
 -9.255589e+00 2.585530e+00 1.002545e+00 7.510581e+00 5.814502e+00 3.004117e+00 7.211874e+00 4.506196e+00 5.454403e+00 4.610152e+00 4.852746e+00 2.878809e+00 9.792430e-01 -1.830377e-01 3.870190e-02 9.392166e-01 6.098093e-01 9.474189e-01 3.555884e-01 7.099453e-01 4.684393e-01 5.521420e-01 5.657946e-01 5.374575e-01 -1.017066e-01
<VARIANCE> 25
 3.454596e+01 4.388696e+01 3.793057e+01 4.945123e+01 5.055450e+01 4.194887e+01 3.644813e+01 3.465094e+01 3.361631e+01 3.004042e+01 2.811265e+01 1.964542e+01 3.971011e+00 4.165144e+00 3.748710e+00 4.087451e+00 4.084085e+00 3.572693e+00 3.415813e+00 3.069977e+00 2.917969e+00 2.811471e+00 2.371735e+00 1.753787e+00 8.017274e-03
<GCONST> 9.810937e+01
<MIXTURE> 47 7.116147e-03
<MEAN> 25
 7.411041e+00 -7.231428e+00 -7.788468e+00 -6.689510e+00 9.703245e-01 2.052246e+00 -2.230769e+00 4.987604e-01 3.160556e+00 6.107764e-01 -3.760574e+00 -6.317128e+00 -1.640074e-01 -1.203302e+00 -7.531707e-01 -4.172225e-01 6.257343e-01 9.100662e-01 7.765806e-01 2.878527e-01 1.717923e-01 -8.116090e-01 -4.269232e-01 -5.221422e-01 2.859159e-02
<VARIANCE> 25
 1.056577e+01 2.069836e+01 2.006127e+01 3.185595e+01 3.768969e+01 6.685524e+01 4.639157e+01 4.436816e+01 4.190739e+01 4.602024e+01 4.732448e+01 3.438195e+01 4.962708e-01 7.527022e-01 1.091928e+00 1.555037e+00 1.890798e+00 2.159667e+00 2.282063e+00 2.353634e+00 2.072042e+00 2.039596e+00 2.235882e+00 1.948090e+00 5.331559e-04
<GCONST> 8.622406e+01
<MIXTURE> 48 7.116147e-03
<MEAN> 25
 7.411041e+00 -7.231428e+00 -7.788468e+00 -6.689510e+00 9.703245e-01 2.052246e+00 -2.230769e+00 4.987604e-01 3.160556e+00 6.107764e-01 -3.760574e+00 -6.317128e+00 -1.640074e-01 -1.203302e+00 -7.531707e-01 -4.172225e-01 6.257343e-01 9.100662e-01 7.765806e-01 2.878527e-01 1.717923e-01 -8.116090e-01 -4.269232e-01 -5.221422e-01 2.859159e-02
<VARIANCE> 25
 1.056577e+01 2.069836e+01 2.006127e+01 3.185595e+01 3.768969e+01 6.685524e+01 4.639157e+01 4.436816e+01 4.190739e+01 4.602024e+01 4.732448e+01 3.438195e+01 4.962708e-01 7.527022e-01 1.091928e+00 1.555037e+00 1.890798e+00 2.159667e+00 2.282063e+00 2.353634e+00 2.072042e+00 2.039596e+00 2.235882e+00 1.948090e+00 5.331559e-04
<GCONST> 8.622406e+01
<MIXTURE> 49 5.548473e-03
<MEAN> 25
 -4.633059e+00 7.602003e-01 -7.690417e-02 8.090624e+00 7.098807e+00 5.237603e+00 6.122517e+00 4.613824e+00 4.947740e+00 3.682497e+00 4.625562e+00 2.597915e+00 3.699049e-01 6.762696e-01 7.141967e-01 3.194039e-01 -2.913431e-01 -7.686667e-01 -1.025931e+00 -1.068478e+00 -8.611732e-01 -6.039109e-01 -4.873524e-01 -2.425075e-01 -2.073703e-04
<VARIANCE> 25
 1.147475e+01 1.136112e+01 1.402696e+01 1.653537e+01 2.620504e+01 1.783597e+01 1.816930e+01 1.843521e+01 1.705590e+01 1.687543e+01 2.049971e+01 1.418285e+01 2.613146e-01 2.531062e-01 3.443168e-01 5.866811e-01 9.308905e-01 1.043093e+00 9.313622e-01 1.014992e+00 1.177965e+00 1.223300e+00 1.201233e+00 1.143022e+00 1.381414e-05
<GCONST> 6.465116e+01
<MIXTURE> 50 6.234641e-03
<MEAN> 25
 -3.844067e+00 1.143800e+00 -1.920104e+00 5.193553e+00 6.053366e+00 1.413502e+00 3.954995e+00 3.167436e+00 2.923440e+00 1.814973e+00 1.857854e+00 2.224175e+00 6.928454e-02 1.705867e-01 7.752401e-02 -1.812927e-01 -4.948092e-01 -6.399525e-01 -3.734356e-01 -4.255775e-02 4.233831e-01 8.268386e-01 8.434454e-01 4.531027e-01 -8.403476e-05
<VARIANCE> 25
 1.202522e+01 1.433914e+01 1.313720e+01 1.767268e+01 2.849007e+01 2.059272e+01 1.667758e+01 2.361399e+01 1.596986e+01 1.631395e+01 1.989142e+01 1.616290e+01 1.402638e-01 2.062526e-01 3.554203e-01 5.105760e-01 5.667109e-01 6.614148e-01 1.023803e+00 9.564378e-01 1.195138e+00 1.036905e+00 9.527010e-01 9.442876e-01 1.045483e-06
<GCONST> 6.031636e+01
<MIXTURE> 51 6.234641e-03
<MEAN> 25
 -3.844067e+00 1.143800e+00 -1.920104e+00 5.193553e+00 6.053366e+00 1.413502e+00 3.954995e+00 3.167436e+00 2.923440e+00 1.814973e+00 1.857854e+00 2.224175e+00 6.928454e-02 1.705867e-01 7.752401e-02 -1.812927e-01 -4.948092e-01 -6.399525e-01 -3.734356e-01 -4.255775e-02 4.233831e-01 8.268386e-01 8.434454e-01 4.531027e-01 -8.403476e-05
<VARIANCE> 25
 1.202522e+01 1.433914e+01 1.313720e+01 1.767268e+01 2.849007e+01 2.059272e+01 1.667758e+01 2.361399e+01 1.596986e+01 1.631395e+01 1.989142e+01 1.616290e+01 1.402638e-01 2.062526e-01 3.554203e-01 5.105760e-01 5.667109e-01 6.614148e-01 1.023803e+00 9.564378e-01 1.195138e+00 1.036905e+00 9.527010e-01 9.442876e-01 1.045483e-06
<GCONST> 6.031636e+01
<MIXTURE> 52 6.367945e-03
<MEAN> 25
 1.010925e+01 1.943424e+00 -6.272769e+00 -1.416465e+01 -4.198837e+00 8.675206e+00 -2.632837e+00 -3.176929e+00 -4.160777e+00 -1.924899e+00 3.356223e+00 7.772166e-01 -3.712350e-01 -4.778403e-01 -8.899377e-02 1.101583e+00 1.337569e+00 -4.204232e-01 -5.877696e-01 -6.470895e-01 6.617679e-02 1.208625e+00 3.675118e-01 -5.659527e-01 -1.356901e-02
<VARIANCE> 25
 9.140267e+00 2.053149e+01 2.508477e+01 3.836139e+01 4.507132e+01 3.200507e+01 4.729964e+01 4.844634e+01 4.456112e+01 4.681993e+01 3.906592e+01 2.963114e+01 4.497190e-01 1.455848e+00 1.316393e+00 2.752899e+00 2.275299e+00 2.283651e+00 2.922702e+00 2.741063e+00 2.965980e+00 2.657643e+00 2.486639e+00 2.252074e+00 1.534052e-03
<GCONST> 8.965957e+01
<MIXTURE> 53 6.367945e-03
<MEAN> 25
 1.010925e+01 1.943424e+00 -6.272769e+00 -1.416465e+01 -4.198837e+00 8.675206e+00 -2.632837e+00 -3.176929e+00 -4.160777e+00 -1.924899e+00 3.356223e+00 7.772166e-01 -3.712350e-01 -4.778403e-01 -8.899377e-02 1.101583e+00 1.337569e+00 -4.204232e-01 -5.877696e-01 -6.470895e-01 6.617679e-02 1.208625e+00 3.675118e-01 -5.659527e-01 -1.356901e-02
<VARIANCE> 25
 9.140267e+00 2.053149e+01 2.508477e+01 3.836139e+01 4.507132e+01 3.200507e+01 4.729964e+01 4.844634e+01 4.456112e+01 4.681993e+01 3.906592e+01 2.963114e+01 4.497190e-01 1.455848e+00 1.316393e+00 2.752899e+00 2.275299e+00 2.283651e+00 2.922702e+00 2.741063e+00 2.965980e+00 2.657643e+00 2.486639e+00 2.252074e+00 1.534052e-03
<GCONST> 8.965957e+01
<MIXTURE> 54 7.368620e-03
<MEAN> 25
 -3.492419e+00 2.304248e-01 -8.858693e-01 7.682750e+00 7.021220e+00 4.487344e+00 4.699468e+00 4.726089e+00 3.953618e+00 3.463044e+00 4.466665e+00 2.375726e+00 2.016513e-03 2.507030e-02 4.036110e-02 7.428653e-02 4.823184e-02 1.997978e-02 3.496899e-02 4.126460e-02 4.826357e-02 6.669305e-02 6.867134e-02 3.181906e-02 -6.233584e-05
<VARIANCE> 25
 9.249026e+00 1.080362e+01 9.934491e+00 2.037641e+01 1.960349e+01 1.373224e+01 1.154281e+01 1.137492e+01 1.117399e+01 1.348204e+01 1.754711e+01 1.233986e+01 4.036461e-02 8.431326e-02 1.535265e-01 2.468624e-01 2.992723e-01 4.003267e-01 4.456676e-01 5.050802e-01 5.598828e-01 5.523258e-01 5.669135e-01 5.306205e-01 1.033021e-06
<GCONST> 4.800048e+01
<MIXTURE> 55 7.368620e-03
<MEAN> 25
 -3.492419e+00 2.304248e-01 -8.858693e-01 7.682750e+00 7.021220e+00 4.487344e+00 4.699468e+00 4.726089e+00 3.953618e+00 3.463044e+00 4.466665e+00 2.375726e+00 2.016513e-03 2.507030e-02 4.036110e-02 7.428653e-02 4.823184e-02 1.997978e-02 3.496899e-02 4.126460e-02 4.826357e-02 6.669305e-02 6.867134e-02 3.181906e-02 -6.233584e-05
<VARIANCE> 25
 9.249026e+00 1.080362e+01 9.934491e+00 2.037641e+01 1.960349e+01 1.373224e+01 1.154281e+01 1.137492e+01 1.117399e+01 1.348204e+01 1.754711e+01 1.233986e+01 4.036461e-02 8.431326e-02 1.535265e-01 2.468624e-01 2.992723e-01 4.003267e-01 4.456676e-01 5.050802e-01 5.598828e-01 5.523258e-01 5.669135e-01 5.306205e-01 1.033021e-06
<GCONST> 4.800048e+01
<MIXTURE> 56 6.132464e-03
<MEAN> 25
 7.875465e+00 -6.353478e+00 -9.760260e+00 -8.749557e+00 2.428468e+00 6.737406e+00 -1.081240e+00 -2.911162e+00 3.009806e+00 1.915655e+00 -1.596677e+00 -5.992442e+00 -3.861579e-02 -3.852126e-02 -3.344267e-01 7.487001e-02 2.908224e-01 7.313132e-02 2.179535e-01 -7.272176e-02 1.123142e-01 -7.071555e-02 -2.728931e-02 -1.061734e-01 -5.543944e-03
<VARIANCE> 25
 1.060022e+01 2.180777e+01 2.270305e+01 3.297113e+01 3.743084e+01 6.980763e+01 6.332164e+01 3.915847e+01 3.862242e+01 3.402243e+01 3.406826e+01 2.986252e+01 1.860082e-01 4.870999e-01 5.876761e-01 6.893982e-01 6.678553e-01 1.247174e+00 9.582343e-01 8.266059e-01 1.119147e+00 7.531027e-01 9.932274e-01 7.665100e-01 2.058923e-04
<GCONST> 7.514559e+01
<MIXTURE> 57 6.132464e-03
<MEAN> 25
 7.875465e+00 -6.353478e+00 -9.760260e+00 -8.749557e+00 2.428468e+00 6.737406e+00 -1.081240e+00 -2.911162e+00 3.009806e+00 1.915655e+00 -1.596677e+00 -5.992442e+00 -3.861579e-02 -3.852126e-02 -3.344267e-01 7.487001e-02 2.908224e-01 7.313132e-02 2.179535e-01 -7.272176e-02 1.123142e-01 -7.071555e-02 -2.728931e-02 -1.061734e-01 -5.543944e-03
<VARIANCE> 25
 1.060022e+01 2.180777e+01 2.270305e+01 3.297113e+01 3.743084e+01 6.980763e+01 6.332164e+01 3.915847e+01 3.862242e+01 3.402243e+01 3.406826e+01 2.986252e+01 1.860082e-01 4.870999e-01 5.876761e-01 6.893982e-01 6.678553e-01 1.247174e+00 9.582343e-01 8.266059e-01 1.119147e+00 7.531027e-01 9.932274e-01 7.665100e-01 2.058923e-04
<GCONST> 7.514559e+01
<MIXTURE> 58 6.172147e-03
<MEAN> 25
 2.733242e+00 -4.855952e+00 6.813673e+00 -4.433804e+00 -1.387250e+01 -3.532706e+00 9.400417e-01 1.330441e+00 -2.074375e+00 7.724084e-01 1.323957e+00 -1.284500e+00 2.230023e-02 -3.360543e-01 2.606710e-02 -3.107468e-01 1.268250e-01 3.221827e-01 3.577680e-01 3.177594e-01 3.662509e-02 4.647585e-02 -3.190999e-01 -3.448426e-01 5.521886e-04
<VARIANCE> 25
 8.018064e+00 2.559857e+01 1.821549e+01 2.518744e+01 2.033212e+01 5.597721e+01 2.966705e+01 3.221666e+01 2.726097e+01 3.230488e+01 2.206225e+01 1.831431e+01 2.699703e-01 9.460398e-01 6.824976e-01 1.014937e+00 8.903075e-01 1.182062e+00 1.016329e+00 1.210293e+00 8.979461e-01 8.952413e-01 1.004540e+00 9.386575e-01 7.343757e-04
<GCONST> 7.511414e+01
<MIXTURE> 59 6.172147e-03
<MEAN> 25
 2.733242e+00 -4.855952e+00 6.813673e+00 -4.433804e+00 -1.387250e+01 -3.532706e+00 9.400417e-01 1.330441e+00 -2.074375e+00 7.724084e-01 1.323957e+00 -1.284500e+00 2.230023e-02 -3.360543e-01 2.606710e-02 -3.107468e-01 1.268250e-01 3.221827e-01 3.577680e-01 3.177594e-01 3.662509e-02 4.647585e-02 -3.190999e-01 -3.448426e-01 5.521886e-04
<VARIANCE> 25
 8.018064e+00 2.559857e+01 1.821549e+01 2.518744e+01 2.033212e+01 5.597721e+01 2.966705e+01 3.221666e+01 2.726097e+01 3.230488e+01 2.206225e+01 1.831431e+01 2.699703e-01 9.460398e-01 6.824976e-01 1.014937e+00 8.903075e-01 1.182062e+00 1.016329e+00 1.210293e+00 8.979461e-01 8.952413e-01 1.004540e+00 9.386575e-01 7.343757e-04
<GCONST> 7.511414e+01
<MIXTURE> 60 4.479129e-03
<MEAN> 25
 -4.261515e+00 -6.612939e-01 -1.086235e+00 3.694533e+00 1.738896e+00 2.115715e+00 1.639188e+00 1.534684e+00 2.156883e+00 1.263278e+00 2.383785e+00 1.915065e+00 -2.844041e-02 5.646211e-02 1.009871e-01 1.301380e-01 1.292872e-01 1.296156e-01 1.787993e-01 3.226982e-01 5.449668e-01 6.644323e-01 5.561285e-01 3.033679e-01 -3.918987e-04
<VARIANCE> 25
 6.944757e+00 4.544886e+00 1.028035e+01 1.131525e+01 1.367217e+01 1.701241e+01 1.399624e+01 1.187914e+01 1.272324e+01 1.319322e+01 1.594902e+01 1.229080e+01 8.690917e-02 1.682662e-01 2.793392e-01 4.319173e-01 5.864817e-01 7.282061e-01 8.279678e-01 8.988872e-01 9.025317e-01 8.355182e-01 8.388528e-01 8.625087e-01 2.297879e-05
<GCONST> 5.634661e+01
<MIXTURE> 61 4.479129e-03
<MEAN> 25
 -4.261515e+00 -6.612939e-01 -1.086235e+00 3.694533e+00 1.738896e+00 2.115715e+00 1.639188e+00 1.534684e+00 2.156883e+00 1.263278e+00 2.383785e+00 1.915065e+00 -2.844041e-02 5.646211e-02 1.009871e-01 1.301380e-01 1.292872e-01 1.296156e-01 1.787993e-01 3.226982e-01 5.449668e-01 6.644323e-01 5.561285e-01 3.033679e-01 -3.918987e-04
<VARIANCE> 25
 6.944757e+00 4.544886e+00 1.028035e+01 1.131525e+01 1.367217e+01 1.701241e+01 1.399624e+01 1.187914e+01 1.272324e+01 1.319322e+01 1.594902e+01 1.229080e+01 8.690917e-02 1.682662e-01 2.793392e-01 4.319173e-01 5.864817e-01 7.282061e-01 8.279678e-01 8.988872e-01 9.025317e-01 8.355182e-01 8.388528e-01 8.625087e-01 2.297879e-05
<GCONST> 5.634661e+01
<MIXTURE> 62 3.278034e-03
<MEAN> 25
 -5.089695e+00 1.242803e+00 1.025052e+00 8.816731e+00 6.133276e+00 5.048170e+00 5.499124e+00 4.035234e+00 4.986286e+00 3.917177e+00 4.965394e+00 2.949795e+00 -1.003062e+00 -1.166529e+00 -9.530225e-01 -2.766972e-01 4.275711e-01 1.005553e+00 1.384588e+00 1.551874e+00 1.478438e+00 1.243211e+00 1.066744e+00 7.260675e-01 -1.266966e-03
<VARIANCE> 25
 9.877378e+00 9.966118e+00 1.311799e+01 1.674483e+01 1.743051e+01 1.755404e+01 1.970205e+01 1.911608e+01 1.885537e+01 1.872483e+01 2.156494e+01 1.479872e+01 4.019507e-01 4.320525e-01 5.541971e-01 7.792103e-01 1.034793e+00 1.192655e+00 1.252154e+00 1.279383e+00 1.329827e+00 1.363793e+00 1.400330e+00 1.371013e+00 1.633855e-05
<GCONST> 6.753234e+01
<MIXTURE> 63 4.351215e-03
<MEAN> 25
 -3.214456e+00 -6.636810e-01 -4.674104e+00 2.091062e+00 5.524028e+00 -9.695693e-01 3.203389e+00 2.739887e+00 2.306050e+00 -7.005450e-01 -1.138983e+00 1.800854e+00 -9.312759e-02 2.343638e-01 3.196908e-01 4.781341e-01 4.194402e-01 6.190197e-01 3.882385e-01 1.384106e-01 1.154579e-01 2.180995e-01 2.371995e-01 1.778048e-01 -3.951723e-03
<VARIANCE> 25
 1.012757e+01 2.170478e+01 1.536721e+01 1.635669e+01 3.184051e+01 2.622184e+01 2.083993e+01 2.831217e+01 2.176122e+01 1.810781e+01 1.861998e+01 1.582438e+01 2.388559e-01 4.170786e-01 5.858279e-01 7.037498e-01 8.747189e-01 1.191374e+00 1.229746e+00 1.220471e+00 1.204592e+00 1.195575e+00 1.138759e+00 1.146967e+00 1.585230e-04
<GCONST> 7.077344e+01
<MIXTURE> 64 4.351215e-03
<MEAN> 25
 -3.214456e+00 -6.636810e-01 -4.674104e+00 2.091062e+00 5.524028e+00 -9.695693e-01 3.203389e+00 2.739887e+00 2.306050e+00 -7.005450e-01 -1.138983e+00 1.800854e+00 -9.312759e-02 2.343638e-01 3.196908e-01 4.781341e-01 4.194402e-01 6.190197e-01 3.882385e-01 1.384106e-01 1.154579e-01 2.180995e-01 2.371995e-01 1.778048e-01 -3.951723e-03
<VARIANCE> 25
 1.012757e+01 2.170478e+01 1.536721e+01 1.635669e+01 3.184051e+01 2.622184e+01 2.083993e+01 2.831217e+01 2.176122e+01 1.810781e+01 1.861998e+01 1.582438e+01 2.388559e-01 4.170786e-01 5.858279e-01 7.037498e-01 8.747189e-01 1.191374e+00 1.229746e+00 1.220471e+00 1.204592e+00 1.195575e+00 1.138759e+00 1.146967e+00 1.585230e-04
<GCONST> 7.077344e+01
<MIXTURE> 65 1.721197e-02
<MEAN> 25
 7.842186e+00 1.434383e+00 2.272206e+00 1.513768e+00 -5.486216e+00 -4.213249e+00 -5.976044e+00 -6.412561e+00 -4.684114e+00 -2.055783e+00 -5.557344e+00 -2.009629e+00 1.522019e-01 1.734397e-01 -8.367664e-02 1.006944e-01 -1.234207e-01 2.516398e-01 -6.599291e-02 -2.728802e-01 1.664620e-01 2.144149e-02 1.347894e-02 -1.999561e-01 -5.470189e-03
<VARIANCE> 25
 9.498004e+00 2.290203e+01 2.509004e+01 4.060106e+01 3.580189e+01 5.380095e+01 5.419916e+01 5.723635e+01 5.777734e+01 5.879658e+01 5.521684e+01 4.675490e+01 5.355443e-01 8.976487e-01 1.623573e+00 2.247925e+00 1.908582e+00 2.041789e+00 2.158170e+00 2.818582e+00 2.556943e+00 2.344447e+00 2.353860e+00 1.974943e+00 4.195432e-04
<GCONST> 8.912449e+01
<MIXTURE> 66 1.191532e-02
<MEAN> 25
 6.600920e+00 -4.117283e+00 -5.486495e+00 -4.683943e+00 1.197122e+00 -4.928560e+00 -6.862549e+00 1.094631e+00 4.881180e-01 -1.809556e+00 -5.966571e+00 -3.527487e+00 -7.429096e-03 1.674285e+00 2.145804e+00 2.268255e+00 -1.120426e+00 -1.314141e+00 3.789679e-02 -5.120903e-01 -1.719756e-01 -1.587277e-01 -2.348673e-01 1.018095e+00 -6.441485e-02
<VARIANCE> 25
 8.862426e+00 2.525466e+01 2.780486e+01 3.233003e+01 3.889849e+01 5.311593e+01 5.445187e+01 4.405247e+01 5.285400e+01 6.564388e+01 3.655288e+01 3.499058e+01 1.288597e+00 2.373110e+00 2.444199e+00 2.671715e+00 4.424615e+00 4.244374e+00 4.223956e+00 4.688010e+00 4.330614e+00 4.828491e+00 3.799803e+00 3.153465e+00 1.439654e-03
<GCONST> 9.677380e+01
<MIXTURE> 67 1.559142e-02
<MEAN> 25
 8.002841e+00 1.719560e+00 -6.113350e+00 -7.046605e+00 5.733023e-01 3.436960e+00 -4.229257e+00 -2.693204e+00 -4.164145e+00 1.178931e+00 2.884727e-01 -2.541430e+00 -8.112286e-01 1.960803e+00 7.990692e-01 2.561430e+00 1.682101e+00 -1.059319e+00 1.219803e+00 2.438599e-01 2.317471e-01 3.623159e-01 -4.382414e-01 7.077972e-01 -1.260067e-01
<VARIANCE> 25
 1.400144e+01 3.485971e+01 2.637099e+01 5.383651e+01 4.489228e+01 5.128996e+01 5.705072e+01 4.588934e+01 5.656886e+01 5.036578e+01 4.857925e+01 4.330418e+01 2.255819e+00 3.157713e+00 3.153576e+00 5.089396e+00 4.306499e+00 5.385683e+00 4.050271e+00 4.336833e+00 4.815437e+00 4.181561e+00 4.666357e+00 3.212441e+00 2.690844e-03
<GCONST> 1.011547e+02
<MIXTURE> 68 1.485092e-02
<MEAN> 25
 -2.085089e+00 -2.265436e+00 -4.039042e+00 1.224015e+00 5.189820e+00 -6.387495e-01 2.183751e+00 1.734211e+00 2.041858e+00 1.730981e+00 4.683465e-01 1.951632e+00 2.762857e+00 5.370919e-01 2.990613e-02 -2.555880e+00 -2.432600e+00 -1.554286e+00 -2.354902e+00 -1.763148e+00 -1.653363e+00 -1.494107e+00 -1.944304e+00 -1.073392e+00 1.028047e-01
<VARIANCE> 25
 2.638260e+01 3.205296e+01 5.883204e+01 5.230235e+01 4.702320e+01 5.481271e+01 4.531224e+01 4.301226e+01 4.029847e+01 4.339257e+01 3.712127e+01 2.626207e+01 1.855549e+00 3.738733e+00 5.922690e+00 5.922451e+00 4.690940e+00 5.733883e+00 5.728864e+00 5.035102e+00 4.944980e+00 5.241411e+00 5.206665e+00 3.422220e+00 6.117908e-03
<GCONST> 1.036844e+02
<MIXTURE> 69 1.204884e-02
<MEAN> 25
 4.637413e+00 -4.306644e+00 -3.491190e+00 -3.643514e+00 -3.524822e+00 -7.732326e+00 -1.148587e+00 2.202508e+00 -1.975962e-01 -4.597169e+00 -5.627664e+00 9.395892e-01 1.729420e+00 -2.284119e+00 -1.342128e+00 -2.180416e+00 -5.955879e-01 -2.722133e-01 -5.189385e-01 6.208183e-01 -5.894246e-01 -1.442670e+00 -2.156410e+00 -2.123211e-01 6.223046e-02
<VARIANCE> 25
 8.790859e+00 2.178185e+01 2.663195e+01 2.553997e+01 4.214449e+01 3.621591e+01 4.822192e+01 3.105437e+01 4.040896e+01 3.837290e+01 3.079717e+01 2.420761e+01 3.666501e+00 3.014349e+00 3.285972e+00 3.868379e+00 5.914102e+00 5.250772e+00 7.132018e+00 5.976141e+00 5.961913e+00 5.787508e+00 4.404356e+00 3.734159e+00 2.410455e-03
<GCONST> 9.877320e+01
<MIXTURE> 70 1.329190e-02
<MEAN> 25
 6.911789e+00 -3.085334e+00 -3.228079e+00 -3.818307e+00 -1.089383e+00 -1.485111e-01 -7.316094e+00 -3.942601e+00 1.089842e+00 2.961173e+00 -3.627071e-01 -4.670714e+00 1.924090e+00 -1.432703e+00 -1.008685e+00 -1.920537e+00 -1.649808e+00 1.598492e+00 -1.376028e+00 2.436706e-02 6.822799e-01 -9.924730e-02 8.788408e-01 -1.480246e+00 5.357538e-02
<VARIANCE> 25
 1.007668e+01 2.426660e+01 2.550364e+01 3.948732e+01 3.245171e+01 3.895562e+01 4.211999e+01 4.311381e+01 4.677089e+01 2.683311e+01 3.799318e+01 2.483254e+01 4.264499e+00 3.742975e+00 4.310009e+00 5.436811e+00 5.131854e+00 6.104228e+00 6.157896e+00 6.298628e+00 5.493208e+00 4.538152e+00 5.401791e+00 3.847484e+00 2.221795e-03
<GCONST> 1.001596e+02
<MIXTURE> 71 1.406903e-02
<MEAN> 25
 6.405541e+00 4.475568e+00 4.139770e+00 2.898263e+00 -3.021610e+00 -3.592246e+00 -3.525272e+00 -5.848286e+00 -4.735900e+00 -2.291432e+00 -4.871677e+00 -3.350079e+00 -1.690924e+00 -5.969911e-01 -1.994681e-01 -1.881091e+00 1.143300e+00 4.478778e-02 2.658766e-01 1.087161e+00 5.590023e-01 -3.093746e-01 6.621389e-01 3.636245e-01 3.977310e-02
<VARIANCE> 25
 1.649948e+01 2.722949e+01 2.352753e+01 4.195066e+01 3.820246e+01 3.666371e+01 3.865362e+01 4.379871e+01 3.422357e+01 4.198433e+01 3.488656e+01 2.999017e+01 1.800620e+00 2.791340e+00 5.006639e+00 4.674311e+00 4.263901e+00 4.328251e+00 4.508579e+00 5.679738e+00 4.022593e+00 3.618573e+00 3.473310e+00 3.479965e+00 1.378604e-03
<GCONST> 9.736053e+01
<MIXTURE> 72 8.134747e-03
<MEAN> 25
 3.770134e+00 -3.763660e+00 5.500853e+00 -2.394974e+00 -1.045692e+01 -9.518536e+00 -2.513446e+00 1.888122e+00 -4.922935e+00 -2.320151e+00 -1.742825e+00 5.866930e-01 9.319910e-01 -7.843670e-01 -2.553691e+00 4.656522e-01 2.122523e+00 -6.704838e-01 -1.312339e+00 1.522360e+00 1.794644e+00 -5.973018e-01 -1.275231e+00 4.020430e-01 -6.125964e-03
<VARIANCE> 25
 1.076810e+01 1.996260e+01 3.271347e+01 3.856528e+01 3.217041e+01 3.403364e+01 4.114813e+01 3.615247e+01 4.325056e+01 4.247001e+01 4.047534e+01 2.830716e+01 4.291417e-01 1.017225e+00 2.046688e+00 1.456066e+00 2.191046e+00 2.352156e+00 3.033449e+00 2.725537e+00 2.610918e+00 2.931618e+00 2.034425e+00 2.106370e+00 5.383416e-04
<GCONST> 8.729901e+01
<MIXTURE> 73 1.213625e-02
<MEAN> 25
 -5.627712e+00 -7.768434e-01 -1.305306e+00 4.899426e+00 4.257761e+00 2.333017e+00 5.539047e+00 3.460628e+00 4.382118e+00 3.451374e+00 4.251316e+00 3.031416e+00 7.913250e-01 -1.029981e+00 -9.365863e-01 -2.639462e+00 -1.259966e+00 -1.745903e+00 -8.959503e-01 -5.138904e-01 -9.148408e-01 -6.950436e-01 -1.106921e+00 -2.792897e-01 1.547760e-01
<VARIANCE> 25
 1.291027e+01 1.344254e+01 1.518471e+01 2.267160e+01 2.344253e+01 2.474463e+01 2.053366e+01 2.011653e+01 1.778961e+01 1.912726e+01 2.284992e+01 1.557482e+01 4.089952e+00 3.083204e+00 5.977437e+00 4.691155e+00 6.143170e+00 4.562405e+00 4.310232e+00 4.252803e+00 3.903395e+00 4.240037e+00 3.537726e+00 2.677459e+00 4.292932e-03
<GCONST> 9.274979e+01
<MIXTURE> 74 1.756491e-02
<MEAN> 25
 4.339196e+00 -2.535170e+00 4.978928e+00 -7.480104e-02 -8.380097e+00 -6.741362e+00 -3.517616e+00 1.122687e+00 -4.585866e+00 -3.470200e+00 -1.230904e+00 -5.954837e-01 3.317558e-01 1.991620e+00 -7.501169e-02 1.738204e+00 1.350274e+00 -2.954637e-01 2.430187e-01 -9.736478e-01 -3.653463e-01 4.639975e-01 -5.156206e-01 2.213502e-03 -7.506240e-02
<VARIANCE> 25
 1.111661e+01 2.784647e+01 3.193922e+01 3.865914e+01 3.188626e+01 4.426549e+01 4.845938e+01 3.895589e+01 4.538037e+01 4.550396e+01 3.979663e+01 3.012941e+01 1.786630e+00 1.742613e+00 3.253035e+00 3.158890e+00 3.925853e+00 4.690457e+00 5.311939e+00 3.960910e+00 4.946454e+00 3.962783e+00 3.909594e+00 2.710659e+00 1.522658e-03
<GCONST> 9.659242e+01
<MIXTURE> 75 9.711651e-03
<MEAN> 25
 1.038388e+00 -2.873629e+00 9.556310e+00 1.904682e+00 -1.287905e+01 -2.366070e+00 -5.227203e+00 -2.649636e+00 -3.159982e+00 -7.448572e+00 5.283492e+00 2.874937e-01 1.667235e+00 -2.367068e+00 3.382167e-01 1.312679e-01 -2.742846e+00 3.810966e-02 -1.514433e+00 1.249069e+00 -2.801321e-01 -8.468201e-01 1.528852e+00 -1.242558e+00 4.900025e-02
<VARIANCE> 25
 1.124866e+01 1.677339e+01 2.634284e+01 1.750026e+01 2.186291e+01 4.516799e+01 2.369716e+01 3.006074e+01 2.098132e+01 3.495159e+01 1.849723e+01 1.589540e+01 1.563207e+00 1.902056e+00 2.804573e+00 2.224868e+00 3.573581e+00 4.545872e+00 2.996177e+00 2.146118e+00 2.776370e+00 3.419581e+00 2.262918e+00 2.595649e+00 1.222750e-03
<GCONST> 8.794930e+01
<MIXTURE> 76 1.052359e-02
<MEAN> 25
 -4.600332e+00 1.699291e+00 -3.334763e+00 2.310831e+00 6.870838e+00 -5.278594e-01 4.605404e+00 4.540558e+00 2.622789e+00 1.486729e+00 8.860606e-01 1.772663e+00 -4.131038e-02 -3.317151e-01 -3.144608e-01 -8.780076e-01 -5.990763e-01 -6.375548e-01 -5.294192e-01 -2.271955e-01 -3.209366e-01 -3.876433e-01 -3.245185e-01 -1.694808e-01 1.310688e-02
<VARIANCE> 25
 3.440974e+01 3.401047e+01 2.132158e+01 2.447853e+01 3.370922e+01 2.933975e+01 2.198744e+01 3.089281e+01 1.899866e+01 2.021971e+01 2.107651e+01 1.535210e+01 8.009760e-01 9.412650e-01 1.015992e+00 9.246349e-01 1.496839e+00 1.587685e+00 1.402344e+00 1.358487e+00 1.297141e+00 1.213349e+00 1.375106e+00 1.088894e+00 9.090701e-04
<GCONST> 7.943696e+01
<MIXTURE> 77 1.244626e-02
<MEAN> 25
 -4.669831e-01 8.580681e+00 1.246133e+01 -1.161472e+01 -7.009345e+00 9.620916e-01 -9.278724e+00 -7.236867e+00 -3.376140e+00 -2.017168e-01 -4.654271e+00 -1.487435e+00 6.818169e-02 1.381279e-01 7.348800e-02 2.510086e-01 -2.161870e-02 7.837584e-02 -6.546094e-02 -6.200290e-02 8.244923e-02 -4.501795e-02 2.521584e-02 1.181919e-01 -9.931044e-03
<VARIANCE> 25
 1.043619e+01 2.017419e+01 2.751620e+01 4.165289e+01 3.319302e+01 3.387206e+01 3.673135e+01 3.176925e+01 3.523150e+01 3.324384e+01 3.757167e+01 3.494541e+01 2.987404e-01 7.785905e-01 6.456872e-01 1.085794e+00 1.238184e+00 9.852964e-01 1.224466e+00 1.073938e+00 1.043371e+00 1.065451e+00 9.716641e-01 9.227382e-01 5.403161e-04
<GCONST> 7.780610e+01
<MIXTURE> 78 9.702551e-03
<MEAN> 25
 -1.135015e+01 2.626265e+00 -1.480311e+00 1.570688e+00 4.596541e+00 -3.297316e+00 4.255032e+00 2.541836e+00 2.314595e+00 1.377797e+00 -8.136104e-01 3.335042e+00 2.295865e+00 -5.234507e-01 1.422509e-01 4.196332e-01 -1.873145e-01 2.765203e-01 -3.144938e-01 1.904400e-02 2.650284e-01 2.080055e-01 -2.502550e-01 -4.750956e-01 -5.138124e-02
<VARIANCE> 25
 4.229807e+01 3.635581e+01 2.866488e+01 3.777866e+01 3.670239e+01 3.673706e+01 3.439027e+01 3.050832e+01 2.501605e+01 2.585636e+01 2.380672e+01 1.907725e+01 5.567788e+00 4.117250e+00 2.464058e+00 2.814111e+00 3.283055e+00 3.512850e+00 2.943871e+00 2.570450e+00 2.057525e+00 2.143985e+00 2.159918e+00 1.964536e+00 4.404866e-03
<GCONST> 9.406747e+01
<MIXTURE> 79 1.156824e-02
<MEAN> 25
 2.296149e+00 7.553565e-01 8.950461e+00 -5.022607e+00 -1.105120e+01 -2.799807e-01 -3.620032e+00 -5.427561e+00 -5.898709e+00 -1.865472e+00 -2.838516e+00 -2.814272e+00 1.239522e+00 -1.389351e-01 -1.343621e+00 2.347756e+00 6.165451e-01 -1.977177e+00 5.973374e-01 1.019980e+00 -9.583657e-01 -5.096899e-01 3.254780e-01 3.736325e-01 -4.243910e-02
<VARIANCE> 25
 1.212633e+01 2.241591e+01 3.144347e+01 5.044131e+01 3.232592e+01 4.938115e+01 4.583700e+01 3.572605e+01 3.634681e+01 4.935822e+01 3.858389e+01 2.625126e+01 7.752025e-01 2.434637e+00 1.634156e+00 1.897739e+00 2.337139e+00 3.340768e+00 2.876053e+00 3.030536e+00 3.362255e+00 2.247017e+00 1.955389e+00 1.807210e+00 1.216678e-03
<GCONST> 9.067044e+01
<MIXTURE> 80 7.550998e-03
<MEAN> 25
 -1.473905e+01 4.328192e+00 6.361842e-01 2.292256e+00 3.193853e+00 1.058397e+00 7.491145e+00 2.456179e+00 3.033931e+00 2.593090e+00 4.015243e+00 1.867554e+00 4.301988e+00 -8.262338e-03 1.680140e+00 -7.959273e-01 -2.808101e+00 -2.738960e+00 -2.389803e+00 -2.024405e+00 -2.073904e+00 -1.692263e+00 -1.508364e+00 -6.087933e-01 -4.282286e-02
<VARIANCE> 25
 1.992421e+01 1.906004e+01 3.111590e+01 3.432065e+01 3.181824e+01 2.827735e+01 3.761241e+01 2.643531e+01 2.699485e+01 2.670925e+01 2.985270e+01 2.014301e+01 2.141089e+00 2.427543e+00 2.433407e+00 4.653797e+00 3.143341e+00 2.461819e+00 2.764589e+00 2.893721e+00 2.565235e+00 2.441191e+00 2.702107e+00 1.937202e+00 1.385031e-03
<GCONST> 9.065243e+01
<MIXTURE> 81 8.025434e-03
<MEAN> 25
 -1.118718e+00 4.066374e+00 1.018012e+01 -1.480378e+01 -9.081668e+00 -1.421628e+00 -6.767744e+00 -8.426119e+00 -4.151323e+00 -4.170749e-01 -7.574174e+00 -2.247208e+00 1.339746e-01 -5.873354e-01 -2.698936e-03 -5.563892e-01 -4.640979e-01 3.352514e-01 3.197362e-01 1.370100e-01 -1.403566e-01 1.065749e-01 -4.694564e-01 -1.254369e-01 1.151306e-02
<VARIANCE> 25
 1.015153e+01 3.281575e+01 2.644728e+01 2.927692e+01 3.370630e+01 3.053496e+01 4.544568e+01 2.825485e+01 3.799252e+01 3.189647e+01 2.531199e+01 3.105083e+01 7.722085e-01 2.277551e+00 1.545909e+00 2.872581e+00 2.663327e+00 2.126231e+00 3.280925e+00 2.287958e+00 2.355425e+00 2.539067e+00 2.298579e+00 2.078990e+00 1.183573e-03
<GCONST> 8.868714e+01
<MIXTURE> 82 8.213053e-03
<MEAN> 25
 -9.897241e+00 -3.576351e+00 1.459517e+00 -3.315574e+00 2.510179e+00 4.118504e-01 2.412146e+00 -4.596671e-01 3.241198e+00 1.687873e+00 1.189321e+00 3.989765e+00 -1.426076e+00 -1.494882e-01 5.258750e-01 -2.316159e+00 -1.404130e+00 -9.710389e-01 -6.201336e-01 -9.345096e-01 -3.034599e-01 -5.398549e-01 -2.810742e-01 1.590598e-01 1.719445e-01
<VARIANCE> 25
 1.620126e+01 2.340057e+01 2.940312e+01 2.886110e+01 3.378000e+01 2.973423e+01 3.016729e+01 4.467501e+01 2.847386e+01 2.277671e+01 2.986244e+01 2.194623e+01 3.654993e+00 2.740263e+00 3.450641e+00 3.567915e+00 4.009989e+00 3.608229e+00 3.932385e+00 2.767906e+00 2.615907e+00 2.352554e+00 2.236028e+00 2.334865e+00 3.404524e-03
<GCONST> 9.336778e+01
<MIXTURE> 83 1.167529e-02
<MEAN> 25
 -1.926856e+01 7.118340e+00 -1.440898e+00 -1.396243e+00 8.855191e+00 -3.210747e+00 6.702767e+00 1.791327e+00 2.073986e+00 3.626494e+00 -1.442750e+00 4.193726e+00 -3.122499e-03 -2.894630e-01 9.968375e-02 -6.313633e-01 -4.551713e-01 4.950606e-02 -1.100157e-01 -2.340725e-01 2.994559e-01 -1.494575e-01 -4.244163e-02 -1.462050e-01 7.473040e-03
<VARIANCE> 25
 8.735465e+00 1.813422e+01 2.061949e+01 1.689140e+01 1.470590e+01 2.628310e+01 4.115191e+01 1.842648e+01 1.578211e+01 1.910615e+01 2.550041e+01 1.441175e+01 1.377909e+00 9.846897e-01 1.014592e+00 1.036401e+00 1.157669e+00 1.313421e+00 1.020591e+00 1.149477e+00 1.198078e+00 1.065819e+00 1.053520e+00 8.712695e-01 9.355553e-04
<GCONST> 7.518756e+01
<MIXTURE> 84 1.066614e-02
<MEAN> 25
 1.119638e+00 8.758629e+00 6.848340e+00 8.014235e+00 2.554621e+00 -1.314806e+00 -1.059933e+00 -4.367237e+00 -4.149325e+00 -2.961879e+00 -2.343833e+00 -1.577427e+00 -1.732249e+00 -1.016763e+00 -1.192829e+00 1.177121e+00 2.175152e+00 1.415894e+00 1.422971e+00 1.339049e+00 1.170627e+00 4.717017e-01 3.729732e-01 3.774087e-01 -7.016495e-02
<VARIANCE> 25
 2.310433e+01 1.820656e+01 2.285163e+01 2.303327e+01 2.854711e+01 2.920642e+01 3.288883e+01 2.634958e+01 2.601422e+01 2.420273e+01 2.233240e+01 2.331951e+01 2.046566e+00 2.827842e+00 3.788967e+00 3.525895e+00 3.182818e+00 3.369076e+00 3.139388e+00 3.293420e+00 3.458526e+00 3.148746e+00 3.401137e+00 2.708861e+00 3.401405e-03
<GCONST> 9.242684e+01
<MIXTURE> 85 7.591393e-03
<MEAN> 25
 -3.135258e+00 7.895010e+00 5.717956e+00 1.272285e+00 -3.456418e+00 -5.319390e+00 -2.957155e+00 -6.130671e+00 -3.526772e+00 -3.178418e+00 -4.830118e-01 -1.860283e+00 3.941708e+00 3.133866e-01 1.757596e+00 -2.068576e+00 -3.420275e+00 -2.569353e+00 -2.883200e+00 -2.336911e+00 -2.245982e+00 -1.273414e+00 -2.284048e+00 -6.151660e-01 9.264023e-03
<VARIANCE> 25
 4.244451e+01 2.333983e+01 3.636068e+01 3.817961e+01 3.987238e+01 4.114350e+01 3.227189e+01 2.784138e+01 2.663956e+01 2.606161e+01 2.612444e+01 2.081995e+01 2.695379e+00 4.336577e+00 4.042158e+00 5.260953e+00 4.399758e+00 3.921884e+00 3.837735e+00 3.975225e+00 3.837356e+00 4.044156e+00 3.993116e+00 3.469290e+00 5.424290e-03
<GCONST> 9.836868e+01
<MIXTURE> 86 1.273941e-02
<MEAN> 25
 -4.957509e+00 -1.188600e+00 -8.072280e-01 6.315925e+00 5.046726e+00 4.657172e+00 5.323925e+00 4.586713e+00 4.658138e+00 3.911884e+00 5.325805e+00 2.695120e+00 -5.818285e-03 -8.578783e-03 -3.849169e-02 -6.622717e-02 -1.179609e-01 -1.841234e-01 -2.665806e-01 -3.314544e-01 -3.539105e-01 -3.192742e-01 -2.291859e-01 -1.043521e-01 -5.497643e-04
<VARIANCE> 25
 7.970325e+00 5.761426e+00 9.999687e+00 1.242559e+01 1.614651e+01 1.443174e+01 1.354734e+01 1.310931e+01 1.318105e+01 1.425422e+01 1.440236e+01 1.276685e+01 1.002578e-01 1.927343e-01 3.181700e-01 4.837200e-01 6.360798e-01 7.363235e-01 7.456915e-01 7.635062e-01 8.311409e-01 8.843936e-01 9.120705e-01 9.038718e-01 5.333629e-05
<GCONST> 5.819738e+01
<MIXTURE> 87 1.100681e-02
<MEAN> 25
 -3.192042e+00 4.415944e+00 3.352865e+00 6.497893e+00 5.581873e+00 5.770013e-01 1.523353e+00 -1.104139e+00 -3.556250e-01 -7.919436e-01 -8.316841e-01 2.095972e-01 -2.330061e+00 -2.628792e+00 -1.918275e+00 -2.135288e+00 -1.085663e-01 -1.338390e-01 7.692813e-01 1.047548e+00 1.420137e+00 9.888440e-01 7.973054e-01 1.187521e+00 1.056530e-01
<VARIANCE> 25
 3.906806e+01 2.865587e+01 2.753465e+01 3.622639e+01 2.802067e+01 3.185283e+01 2.839549e+01 2.781789e+01 2.652637e+01 2.443404e+01 2.382881e+01 2.479114e+01 4.143133e+00 2.963681e+00 4.278379e+00 3.678502e+00 4.922124e+00 4.141754e+00 4.606266e+00 4.655416e+00 3.350603e+00 3.239084e+00 3.569649e+00 3.195148e+00 4.725800e-03
<GCONST> 9.700240e+01
<MIXTURE> 88 1.256585e-02
<MEAN> 25
 -4.228848e+00 -5.618603e-01 -1.533739e+00 5.410487e+00 4.773214e+00 3.196588e+00 4.845714e+00 3.427833e+00 3.402170e+00 2.309265e+00 2.854523e+00 2.620979e+00 -7.301623e-03 2.023910e-01 2.139835e-01 3.820381e-01 2.664094e-01 2.113634e-01 -3.027092e-02 -1.515114e-01 -2.586450e-01 -1.729385e-01 -1.181520e-01 -7.309753e-03 -6.297463e-03
<VARIANCE> 25
 9.641374e+00 1.222587e+01 1.506873e+01 1.650041e+01 2.221316e+01 2.244873e+01 1.970845e+01 1.935647e+01 1.773797e+01 1.816818e+01 2.120720e+01 1.464484e+01 1.329576e+00 1.696206e+00 2.109051e+00 2.221982e+00 2.576922e+00 2.607591e+00 2.669768e+00 2.601543e+00 2.418263e+00 2.593968e+00 2.249675e+00 1.977164e+00 1.460081e-03
<GCONST> 8.290280e+01
<MIXTURE> 89 9.333527e-03
<MEAN> 25
 6.080050e+00 -6.834669e+00 -3.560133e+00 -3.168719e+00 -1.612072e+00 -5.590668e+00 -6.120045e+00 4.102772e+00 3.474225e+00 -2.806464e+00 -6.032064e+00 -3.288256e+00 -5.713241e-01 1.567991e-01 1.990656e+00 9.017261e-01 -1.869313e+00 -1.649069e+00 8.838077e-01 1.264637e+00 -7.894502e-01 -1.316721e+00 4.042137e-01 1.536549e+00 -4.887789e-03
<VARIANCE> 25
 8.984489e+00 2.671650e+01 3.107921e+01 3.021320e+01 3.613131e+01 4.168853e+01 5.967593e+01 4.212870e+01 3.910385e+01 4.242118e+01 3.582922e+01 3.239861e+01 3.536984e-01 8.418662e-01 1.472687e+00 1.317379e+00 1.919015e+00 2.126737e+00 2.577045e+00 2.041788e+00 2.248739e+00 2.127956e+00 2.331420e+00 1.470893e+00 3.666597e-04
<GCONST> 8.529529e+01
<MIXTURE> 90 7.114505e-03
<MEAN> 25
 2.451343e+00 -9.730194e+00 -4.745524e+00 -3.975877e+00 -3.394722e+00 -1.806209e+00 3.361762e+00 1.187889e+00 -7.527063e+00 -1.020823e+01 -3.424864e+00 -7.443537e-01 -1.634244e-01 9.076746e-01 1.167868e+00 -8.536664e-01 -1.609007e+00 -2.134216e-01 6.446384e-01 -2.106324e-01 -1.683113e-01 7.362275e-01 1.804669e-01 -5.500429e-01 -1.115575e-02
<VARIANCE> 25
 8.493255e+00 1.782436e+01 1.987716e+01 2.800014e+01 3.694901e+01 3.220101e+01 3.850436e+01 3.640737e+01 3.521030e+01 2.773753e+01 2.699984e+01 2.613386e+01 2.235523e-01 6.140988e-01 7.867153e-01 1.042051e+00 1.484105e+00 1.592521e+00 1.778819e+00 1.653682e+00 1.808804e+00 1.677334e+00 1.499779e+00 1.307284e+00 2.148806e-04
<GCONST> 7.815120e+01
<MIXTURE> 91 7.852945e-03
<MEAN> 25
 6.274455e+00 -7.451365e+00 -8.151759e+00 -5.047399e+00 3.195195e+00 5.767863e-01 -2.831071e+00 3.545196e-01 7.743721e-01 -2.340135e+00 -4.083091e+00 -5.208499e+00 2.613023e-01 1.033833e+00 1.593073e-01 4.607500e-01 6.749080e-02 -5.650043e-01 -3.100168e-01 -9.598447e-02 -1.870088e-01 4.110439e-01 -1.193978e-01 2.425989e-01 -3.715856e-02
<VARIANCE> 25
 9.893723e+00 2.450819e+01 2.049461e+01 3.662061e+01 3.987483e+01 5.764124e+01 5.439764e+01 3.806347e+01 4.988844e+01 6.224499e+01 4.150637e+01 3.773198e+01 4.687040e-01 9.085984e-01 1.081424e+00 1.463977e+00 2.166040e+00 2.328272e+00 2.239572e+00 2.288194e+00 2.268805e+00 2.077356e+00 1.906138e+00 1.726078e+00 6.096055e-04
<GCONST> 8.702785e+01
<MIXTURE> 92 7.852945e-03
<MEAN> 25
 6.274455e+00 -7.451365e+00 -8.151759e+00 -5.047399e+00 3.195195e+00 5.767863e-01 -2.831071e+00 3.545196e-01 7.743721e-01 -2.340135e+00 -4.083091e+00 -5.208499e+00 2.613023e-01 1.033833e+00 1.593073e-01 4.607500e-01 6.749080e-02 -5.650043e-01 -3.100168e-01 -9.598447e-02 -1.870088e-01 4.110439e-01 -1.193978e-01 2.425989e-01 -3.715856e-02
<VARIANCE> 25
 9.893723e+00 2.450819e+01 2.049461e+01 3.662061e+01 3.987483e+01 5.764124e+01 5.439764e+01 3.806347e+01 4.988844e+01 6.224499e+01 4.150637e+01 3.773198e+01 4.687040e-01 9.085984e-01 1.081424e+00 1.463977e+00 2.166040e+00 2.328272e+00 2.239572e+00 2.288194e+00 2.268805e+00 2.077356e+00 1.906138e+00 1.726078e+00 6.096055e-04
<GCONST> 8.702785e+01
<MIXTURE> 93 6.122769e-03
<MEAN> 25
 -6.732960e+00 -8.785301e-01 -2.425179e+00 5.747807e+00 6.030373e+00 3.869797e+00 6.159411e+00 3.645841e+00 4.090119e+00 2.497945e+00 1.765379e+00 3.669399e+00 -6.001527e-02 -1.507744e-01 -2.570317e-01 -3.377502e-01 -3.407923e-01 -2.940727e-01 -2.205161e-01 -1.714937e-01 -1.942550e-01 -1.585139e-01 -9.957021e-02 -3.349369e-02 -1.830107e-06
<VARIANCE> 25
 9.706171e+00 6.527487e+00 8.134466e+00 1.147073e+01 1.263393e+01 1.605812e+01 1.521293e+01 1.640541e+01 1.468260e+01 1.446217e+01 1.692473e+01 1.340506e+01 8.232704e-02 1.526795e-01 2.607877e-01 3.793898e-01 4.973517e-01 6.434355e-01 7.730564e-01 8.786811e-01 9.764891e-01 8.722703e-01 8.846867e-01 9.103062e-01 9.899101e-07
<GCONST> 5.382816e+01
<MIXTURE> 94 6.122769e-03
<MEAN> 25
 -6.732960e+00 -8.785301e-01 -2.425179e+00 5.747807e+00 6.030373e+00 3.869797e+00 6.159411e+00 3.645841e+00 4.090119e+00 2.497945e+00 1.765379e+00 3.669399e+00 -6.001527e-02 -1.507744e-01 -2.570317e-01 -3.377502e-01 -3.407923e-01 -2.940727e-01 -2.205161e-01 -1.714937e-01 -1.942550e-01 -1.585139e-01 -9.957021e-02 -3.349369e-02 -1.830107e-06
<VARIANCE> 25
 9.706171e+00 6.527487e+00 8.134466e+00 1.147073e+01 1.263393e+01 1.605812e+01 1.521293e+01 1.640541e+01 1.468260e+01 1.446217e+01 1.692473e+01 1.340506e+01 8.232704e-02 1.526795e-01 2.607877e-01 3.793898e-01 4.973517e-01 6.434355e-01 7.730564e-01 8.786811e-01 9.764891e-01 8.722703e-01 8.846867e-01 9.103062e-01 9.899101e-07
<GCONST> 5.382816e+01
<MIXTURE> 95 5.258835e-03
<MEAN> 25
 -5.792500e+00 -7.017257e-01 -2.001924e+00 4.875693e+00 4.281200e+00 2.786496e+00 4.193927e+00 1.690192e+00 2.224938e+00 8.771741e-01 1.180715e+00 2.582312e+00 1.451911e-01 1.468369e-01 8.346185e-02 -8.725716e-02 -3.812225e-01 -7.187303e-01 -1.052603e+00 -1.274975e+00 -1.267577e+00 -9.910646e-01 -6.458894e-01 -3.056810e-01 -1.446930e-04
<VARIANCE> 25
 1.042578e+01 6.713220e+00 1.220019e+01 1.282705e+01 1.457657e+01 1.835750e+01 1.793386e+01 1.698550e+01 1.535585e+01 1.539263e+01 1.997413e+01 1.430847e+01 2.087162e-01 2.917711e-01 4.527860e-01 6.297495e-01 7.992397e-01 8.947322e-01 9.111508e-01 9.297172e-01 9.754598e-01 1.071714e+00 1.159301e+00 1.111928e+00 4.178030e-05
<GCONST> 6.333813e+01
<MIXTURE> 96 7.034694e-03
<MEAN> 25
 -4.798064e+00 -7.184660e-02 -2.516184e+00 4.666859e+00 4.396333e+00 1.631031e+00 3.772328e+00 2.198604e+00 2.395413e+00 8.548177e-01 9.931457e-01 2.676459e+00 -5.403763e-02 9.092131e-02 2.265290e-01 4.290209e-01 5.654927e-01 5.308669e-01 2.511177e-01 -9.310821e-02 -4.510071e-01 -6.462405e-01 -6.054505e-01 -4.210416e-01 2.798469e-05
<VARIANCE> 25
 1.194371e+01 1.171311e+01 1.349299e+01 1.779896e+01 1.902538e+01 1.893810e+01 1.806946e+01 2.098244e+01 1.717710e+01 1.591607e+01 1.942724e+01 1.440511e+01 1.248463e-01 2.118604e-01 3.050808e-01 3.911066e-01 4.892393e-01 6.502087e-01 8.242359e-01 9.712278e-01 9.203107e-01 8.348582e-01 8.502617e-01 9.557061e-01 1.020168e-06
<GCONST> 5.804625e+01
<MIXTURE> 97 7.034694e-03
<MEAN> 25
 -4.798064e+00 -7.184660e-02 -2.516184e+00 4.666859e+00 4.396333e+00 1.631031e+00 3.772328e+00 2.198604e+00 2.395413e+00 8.548177e-01 9.931457e-01 2.676459e+00 -5.403763e-02 9.092131e-02 2.265290e-01 4.290209e-01 5.654927e-01 5.308669e-01 2.511177e-01 -9.310821e-02 -4.510071e-01 -6.462405e-01 -6.054505e-01 -4.210416e-01 2.798469e-05
<VARIANCE> 25
 1.194371e+01 1.171311e+01 1.349299e+01 1.779896e+01 1.902538e+01 1.893810e+01 1.806946e+01 2.098244e+01 1.717710e+01 1.591607e+01 1.942724e+01 1.440511e+01 1.248463e-01 2.118604e-01 3.050808e-01 3.911066e-01 4.892393e-01 6.502087e-01 8.242359e-01 9.712278e-01 9.203107e-01 8.348582e-01 8.502617e-01 9.557061e-01 1.020168e-06
<GCONST> 5.804625e+01
<MIXTURE> 98 9.917808e-03
<MEAN> 25
 -1.319832e+00 1.722150e+00 -5.348457e-01 4.332771e+00 4.107933e+00 1.730379e+00 3.904236e+00 2.164446e+00 1.565000e+00 9.331567e-01 7.737003e-01 1.020815e+00 -1.692260e+00 -1.242154e+00 -9.476663e-01 1.934373e-01 5.437657e-01 8.289406e-01 1.288982e+00 1.403799e+00 1.615972e+00 1.205408e+00 1.044442e+00 8.567991e-01 -3.002341e-02
<VARIANCE> 25
 1.366806e+01 2.119249e+01 2.904366e+01 3.281371e+01 4.495781e+01 3.897822e+01 3.333717e+01 3.238179e+01 2.573103e+01 2.759702e+01 2.481004e+01 2.144897e+01 1.325060e+00 1.951099e+00 2.328707e+00 2.186937e+00 2.666111e+00 2.659322e+00 2.858507e+00 2.758695e+00 2.568667e+00 2.736413e+00 3.041642e+00 2.004685e+00 2.381493e-03
<GCONST> 9.008992e+01
<MIXTURE> 99 6.696178e-03
<MEAN> 25
 -6.847380e+00 1.006056e+01 5.551198e+00 3.210350e+00 1.413136e+00 -5.458430e+00 -5.177262e-01 -3.294602e+00 -2.931849e+00 -2.554182e+00 -2.050040e+00 1.079863e+00 6.896530e-01 -8.891007e-01 1.964766e-01 -2.869047e-01 -1.171170e+00 -4.088110e-01 -3.578646e-01 -3.404420e-01 -1.194779e-01 -1.958461e-01 3.620725e-01 -3.712317e-02 1.056446e-02
<VARIANCE> 25
 3.431790e+01 2.434727e+01 4.292097e+01 2.846611e+01 3.452075e+01 3.148169e+01 2.825604e+01 3.030372e+01 2.433585e+01 2.913679e+01 1.824910e+01 2.542599e+01 2.145511e+00 2.157496e+00 1.303232e+00 1.793988e+00 2.694786e+00 1.825335e+00 1.518505e+00 1.470471e+00 1.510528e+00 1.500240e+00 1.250389e+00 1.279410e+00 1.341125e-03
<GCONST> 8.568216e+01
<MIXTURE> 100 4.498084e-03
<MEAN> 25
 -1.599550e+00 6.344908e+00 1.027684e+01 -7.461750e+00 -1.078022e+01 -5.073719e+00 -4.941498e+00 -9.969050e+00 -4.717044e+00 -8.565865e-01 -2.732419e+00 -2.706553e+00 2.917866e+00 -1.260821e+00 1.299904e+00 -2.185040e+00 -3.419946e+00 -7.835515e-01 -1.219006e+00 -8.196123e-01 -1.475469e+00 3.457637e-01 -1.654853e+00 -2.863362e-01 2.027419e-03
<VARIANCE> 25
 1.362737e+01 2.105852e+01 2.245856e+01 2.642851e+01 2.303556e+01 2.373191e+01 2.910841e+01 2.170385e+01 2.748501e+01 2.266125e+01 2.241178e+01 2.135308e+01 1.798821e+00 3.953851e+00 2.919843e+00 4.289843e+00 4.184970e+00 4.538080e+00 4.015172e+00 4.339882e+00 4.167159e+00 3.900040e+00 3.912795e+00 3.224886e+00 1.675325e-03
<GCONST> 9.257305e+01
<MIXTURE> 101 6.007792e-03
<MEAN> 25
 7.912285e+00 -4.247486e+00 -6.252309e+00 -6.514639e+00 -9.181049e-02 -2.883458e-01 -9.853342e+00 -1.851353e+00 2.587225e+00 3.212423e+00 -2.248795e+00 -5.322788e+00 7.164156e-01 5.970414e-01 -1.455313e+00 -1.556177e+00 9.377951e-01 2.265582e+00 2.642280e-01 -1.459057e+00 -9.334763e-01 1.057040e+00 1.318853e+00 -3.613506e-01 -6.925489e-03
<VARIANCE> 25
 8.584665e+00 1.882721e+01 2.721309e+01 3.949489e+01 3.823931e+01 3.851883e+01 3.728415e+01 3.509538e+01 4.387291e+01 4.226284e+01 4.645327e+01 2.199256e+01 3.279784e-01 6.482438e-01 1.116075e+00 1.500934e+00 1.599136e+00 1.935911e+00 1.971271e+00 1.933590e+00 2.369892e+00 2.074630e+00 1.733981e+00 2.002283e+00 3.828414e-04
<GCONST> 8.334325e+01
<MIXTURE> 102 6.007792e-03
<MEAN> 25
 7.912285e+00 -4.247486e+00 -6.252309e+00 -6.514639e+00 -9.181049e-02 -2.883458e-01 -9.853342e+00 -1.851353e+00 2.587225e+00 3.212423e+00 -2.248795e+00 -5.322788e+00 7.164156e-01 5.970414e-01 -1.455313e+00 -1.556177e+00 9.377951e-01 2.265582e+00 2.642280e-01 -1.459057e+00 -9.334763e-01 1.057040e+00 1.318853e+00 -3.613506e-01 -6.925489e-03
<VARIANCE> 25
 8.584665e+00 1.882721e+01 2.721309e+01 3.949489e+01 3.823931e+01 3.851883e+01 3.728415e+01 3.509538e+01 4.387291e+01 4.226284e+01 4.645327e+01 2.199256e+01 3.279784e-01 6.482438e-01 1.116075e+00 1.500934e+00 1.599136e+00 1.935911e+00 1.971271e+00 1.933590e+00 2.369892e+00 2.074630e+00 1.733981e+00 2.002283e+00 3.828414e-04
<GCONST> 8.334325e+01
<MIXTURE> 103 5.694618e-03
<MEAN> 25
 3.371572e+00 -9.454002e+00 -6.085983e+00 -3.079814e+00 -1.346031e+00 -1.944661e+00 2.430222e+00 2.549755e+00 -4.576385e+00 -9.195762e+00 -5.019362e+00 3.450798e-01 -1.557847e-01 -1.487469e+00 -9.718559e-01 3.668376e-01 1.213148e+00 1.021082e+00 1.609996e-01 -2.667937e-01 -7.780452e-01 -9.386258e-01 -3.730912e-02 1.176353e-01 2.682619e-02
<VARIANCE> 25
 1.029391e+01 2.104350e+01 2.313473e+01 3.149531e+01 4.964968e+01 3.490260e+01 4.612497e+01 3.659156e+01 4.197771e+01 2.959090e+01 3.028507e+01 2.627049e+01 6.406140e-01 1.246409e+00 1.538590e+00 1.940852e+00 2.913385e+00 2.410148e+00 2.869701e+00 2.572851e+00 2.548743e+00 2.513487e+00 2.095345e+00 2.016105e+00 8.084594e-04
<GCONST> 8.760360e+01
<MIXTURE> 104 5.694618e-03
<MEAN> 25
 3.371572e+00 -9.454002e+00 -6.085983e+00 -3.079814e+00 -1.346031e+00 -1.944661e+00 2.430222e+00 2.549755e+00 -4.576385e+00 -9.195762e+00 -5.019362e+00 3.450798e-01 -1.557847e-01 -1.487469e+00 -9.718559e-01 3.668376e-01 1.213148e+00 1.021082e+00 1.609996e-01 -2.667937e-01 -7.780452e-01 -9.386258e-01 -3.730912e-02 1.176353e-01 2.682619e-02
<VARIANCE> 25
 1.029391e+01 2.104350e+01 2.313473e+01 3.149531e+01 4.964968e+01 3.490260e+01 4.612497e+01 3.659156e+01 4.197771e+01 2.959090e+01 3.028507e+01 2.627049e+01 6.406140e-01 1.246409e+00 1.538590e+00 1.940852e+00 2.913385e+00 2.410148e+00 2.869701e+00 2.572851e+00 2.548743e+00 2.513487e+00 2.095345e+00 2.016105e+00 8.084594e-04
<GCONST> 8.760360e+01
<MIXTURE> 105 4.710235e-03
<MEAN> 25
 2.180974e+00 -2.758477e+00 8.838763e+00 -1.620791e+00 -1.183862e+01 -3.680483e+00 -4.899564e+00 -8.986662e-01 -3.617209e+00 -3.897353e+00 1.894937e+00 -1.622302e+00 1.332201e-02 4.449946e-02 1.328500e-02 -4.960111e-02 9.999675e-02 1.868512e-01 -1.239127e-01 1.688603e-02 -1.930940e-03 9.016714e-02 -1.050224e-01 -6.752448e-02 -2.345744e-03
<VARIANCE> 25
 1.295592e+01 3.087461e+01 3.504128e+01 4.713980e+01 3.338668e+01 6.104226e+01 4.030209e+01 3.702159e+01 3.879527e+01 5.051409e+01 4.836585e+01 2.770388e+01 8.210029e-02 1.835454e-01 4.093591e-01 2.720430e-01 3.760280e-01 4.923640e-01 5.117722e-01 4.906878e-01 4.708554e-01 4.387376e-01 5.149467e-01 3.790708e-01 8.517603e-05
<GCONST> 6.701653e+01
<MIXTURE> 106 4.710235e-03
<MEAN> 25
 2.180974e+00 -2.758477e+00 8.838763e+00 -1.620791e+00 -1.183862e+01 -3.680483e+00 -4.899564e+00 -8.986662e-01 -3.617209e+00 -3.897353e+00 1.894937e+00 -1.622302e+00 1.332201e-02 4.449946e-02 1.328500e-02 -4.960111e-02 9.999675e-02 1.868512e-01 -1.239127e-01 1.688603e-02 -1.930940e-03 9.016714e-02 -1.050224e-01 -6.752448e-02 -2.345744e-03
<VARIANCE> 25
 1.295592e+01 3.087461e+01 3.504128e+01 4.713980e+01 3.338668e+01 6.104226e+01 4.030209e+01 3.702159e+01 3.879527e+01 5.051409e+01 4.836585e+01 2.770388e+01 8.210029e-02 1.835454e-01 4.093591e-01 2.720430e-01 3.760280e-01 4.923640e-01 5.117722e-01 4.906878e-01 4.708554e-01 4.387376e-01 5.149467e-01 3.790708e-01 8.517603e-05
<GCONST> 6.701653e+01
<MIXTURE> 107 5.452374e-03
<MEAN> 25
 8.641489e+00 -2.307626e+00 -8.037189e+00 -9.555099e+00 1.965933e+00 2.961663e+00 -8.640539e+00 -4.552317e+00 -8.798685e-01 3.385346e+00 8.647136e-01 -5.070335e+00 -6.081318e-01 -7.673979e-01 8.354006e-01 1.769229e+00 2.271813e-01 -2.008141e+00 -9.199701e-01 8.477079e-01 1.766098e+00 4.552795e-02 -1.653466e+00 -8.189299e-01 -1.863258e-03
<VARIANCE> 25
 9.236045e+00 2.047084e+01 2.833043e+01 4.276052e+01 3.575674e+01 3.855235e+01 5.117663e+01 3.622872e+01 4.574359e+01 4.168818e+01 5.134142e+01 3.033684e+01 3.587254e-01 9.684634e-01 1.462601e+00 2.418650e+00 2.284930e+00 2.831418e+00 2.613039e+00 2.538146e+00 2.296176e+00 3.026531e+00 1.953529e+00 2.205045e+00 7.068211e-04
<GCONST> 8.805617e+01
<MIXTURE> 108 5.452374e-03
<MEAN> 25
 8.641489e+00 -2.307626e+00 -8.037189e+00 -9.555099e+00 1.965933e+00 2.961663e+00 -8.640539e+00 -4.552317e+00 -8.798685e-01 3.385346e+00 8.647136e-01 -5.070335e+00 -6.081318e-01 -7.673979e-01 8.354006e-01 1.769229e+00 2.271813e-01 -2.008141e+00 -9.199701e-01 8.477079e-01 1.766098e+00 4.552795e-02 -1.653466e+00 -8.189299e-01 -1.863258e-03
<VARIANCE> 25
 9.236045e+00 2.047084e+01 2.833043e+01 4.276052e+01 3.575674e+01 3.855235e+01 5.117663e+01 3.622872e+01 4.574359e+01 4.168818e+01 5.134142e+01 3.033684e+01 3.587254e-01 9.684634e-01 1.462601e+00 2.418650e+00 2.284930e+00 2.831418e+00 2.613039e+00 2.538146e+00 2.296176e+00 3.026531e+00 1.953529e+00 2.205045e+00 7.068211e-04
<GCONST> 8.805617e+01
<MIXTURE> 109 6.661064e-03
<MEAN> 25
 4.056659e+00 -1.036092e+01 -8.228936e+00 -1.382207e+00 2.836812e+00 -7.102346e-02 -2.544074e-02 1.564659e+00 -2.515893e+00 -8.249684e+00 -5.321012e+00 1.953196e-02 -3.570260e-02 -1.352325e-01 -3.318207e-02 2.425396e-01 2.055812e-01 1.269433e-01 -1.275365e-01 -1.046953e-01 -4.484462e-02 -1.324278e-01 2.159035e-01 1.494692e-02 -3.498587e-03
<VARIANCE> 25
 9.019675e+00 2.144326e+01 2.027672e+01 3.099871e+01 4.294255e+01 3.666974e+01 4.629658e+01 3.477388e+01 4.559112e+01 3.561964e+01 2.950886e+01 2.792580e+01 1.915033e-01 4.202190e-01 5.325429e-01 6.345631e-01 1.243023e+00 1.013009e+00 1.255444e+00 1.099854e+00 1.107126e+00 9.396141e-01 8.884528e-01 8.817253e-01 1.804963e-04
<GCONST> 7.463170e+01
<MIXTURE> 110 6.661064e-03
<MEAN> 25
 4.056659e+00 -1.036092e+01 -8.228936e+00 -1.382207e+00 2.836812e+00 -7.102346e-02 -2.544074e-02 1.564659e+00 -2.515893e+00 -8.249684e+00 -5.321012e+00 1.953196e-02 -3.570260e-02 -1.352325e-01 -3.318207e-02 2.425396e-01 2.055812e-01 1.269433e-01 -1.275365e-01 -1.046953e-01 -4.484462e-02 -1.324278e-01 2.159035e-01 1.494692e-02 -3.498587e-03
<VARIANCE> 25
 9.019675e+00 2.144326e+01 2.027672e+01 3.099871e+01 4.294255e+01 3.666974e+01 4.629658e+01 3.477388e+01 4.559112e+01 3.561964e+01 2.950886e+01 2.792580e+01 1.915033e-01 4.202190e-01 5.325429e-01 6.345631e-01 1.243023e+00 1.013009e+00 1.255444e+00 1.099854e+00 1.107126e+00 9.396141e-01 8.884528e-01 8.817253e-01 1.804963e-04
<GCONST> 7.463170e+01
<MIXTURE> 111 4.337247e-03
<MEAN> 25
 -4.454491e+00 -8.866041e-01 -1.729200e+00 1.676751e+00 9.950351e-01 9.452780e-01 3.284244e-01 2.351392e-01 8.879326e-02 -5.404723e-01 -6.336505e-01 1.957296e+00 -2.150733e-02 -3.212737e-02 -7.339471e-02 -7.504842e-02 -3.990634e-02 7.050264e-03 -1.172130e-03 -5.518063e-02 -1.411865e-01 -2.037506e-01 -1.901502e-01 -1.078350e-01 -2.151086e-04
<VARIANCE> 25
 7.102818e+00 5.091427e+00 1.023624e+01 9.441050e+00 1.341616e+01 2.389062e+01 1.469368e+01 1.339425e+01 1.157927e+01 1.187965e+01 1.359407e+01 1.157700e+01 7.902748e-02 1.632718e-01 2.755171e-01 4.214048e-01 5.705385e-01 7.039739e-01 7.986256e-01 8.618528e-01 8.907046e-01 8.541209e-01 8.607752e-01 8.468709e-01 2.237964e-05
<GCONST> 5.605466e+01
<MIXTURE> 112 4.337247e-03
<MEAN> 25
 -4.454491e+00 -8.866041e-01 -1.729200e+00 1.676751e+00 9.950351e-01 9.452780e-01 3.284244e-01 2.351392e-01 8.879326e-02 -5.404723e-01 -6.336505e-01 1.957296e+00 -2.150733e-02 -3.212737e-02 -7.339471e-02 -7.504842e-02 -3.990634e-02 7.050264e-03 -1.172130e-03 -5.518063e-02 -1.411865e-01 -2.037506e-01 -1.901502e-01 -1.078350e-01 -2.151086e-04
<VARIANCE> 25
 7.102818e+00 5.091427e+00 1.023624e+01 9.441050e+00 1.341616e+01 2.389062e+01 1.469368e+01 1.339425e+01 1.157927e+01 1.187965e+01 1.359407e+01 1.157700e+01 7.902748e-02 1.632718e-01 2.755171e-01 4.214048e-01 5.705385e-01 7.039739e-01 7.986256e-01 8.618528e-01 8.907046e-01 8.541209e-01 8.607752e-01 8.468709e-01 2.237964e-05
<GCONST> 5.605466e+01
<MIXTURE> 113 5.938666e-03
<MEAN> 25
 9.987749e+00 1.565754e+00 -8.776355e+00 -1.671464e+01 -1.223224e+00 5.974507e+00 -4.864725e+00 -1.696574e+00 -5.229424e+00 -2.062438e-01 3.993551e-01 -1.177438e-03 -5.114077e-03 2.871671e-02 -9.294976e-02 -1.268303e-01 9.875079e-02 2.116272e-01 8.443106e-02 2.169153e-02 -3.946156e-02 -4.358439e-02 1.832107e-01 2.183796e-02 -1.346039e-03
<VARIANCE> 25
 8.757429e+00 1.678405e+01 2.886284e+01 3.526792e+01 5.273800e+01 3.574450e+01 4.185791e+01 3.947296e+01 4.056508e+01 4.639943e+01 3.509385e+01 2.853262e+01 1.203699e-01 3.301607e-01 3.334558e-01 6.121297e-01 6.030645e-01 7.617379e-01 7.743567e-01 8.261698e-01 9.418150e-01 8.724885e-01 7.020780e-01 7.150030e-01 1.212299e-04
<GCONST> 7.132134e+01
<MIXTURE> 114 5.938666e-03
<MEAN> 25
 9.987749e+00 1.565754e+00 -8.776355e+00 -1.671464e+01 -1.223224e+00 5.974507e+00 -4.864725e+00 -1.696574e+00 -5.229424e+00 -2.062438e-01 3.993551e-01 -1.177438e-03 -5.114077e-03 2.871671e-02 -9.294976e-02 -1.268303e-01 9.875079e-02 2.116272e-01 8.443106e-02 2.169153e-02 -3.946156e-02 -4.358439e-02 1.832107e-01 2.183796e-02 -1.346039e-03
<VARIANCE> 25
 8.757429e+00 1.678405e+01 2.886284e+01 3.526792e+01 5.273800e+01 3.574450e+01 4.185791e+01 3.947296e+01 4.056508e+01 4.639943e+01 3.509385e+01 2.853262e+01 1.203699e-01 3.301607e-01 3.334558e-01 6.121297e-01 6.030645e-01 7.617379e-01 7.743567e-01 8.261698e-01 9.418150e-01 8.724885e-01 7.020780e-01 7.150030e-01 1.212299e-04
<GCONST> 7.132134e+01
<MIXTURE> 115 2.935202e-03
<MEAN> 25
 -3.917542e+00 -5.929116e-01 -3.135732e+00 3.601438e+00 2.710035e+00 -4.552514e-01 2.385275e+00 5.624518e-01 1.401394e+00 3.509277e-02 -2.125338e-03 2.644683e+00 3.393909e-02 -6.718411e-02 -2.317027e-01 -4.485555e-01 -6.368527e-01 -6.768559e-01 -5.911679e-01 -4.978206e-01 -5.235725e-01 -4.637882e-01 -3.275127e-01 -1.550550e-01 -2.696412e-06
<VARIANCE> 25
 9.646898e+00 1.075926e+01 1.327263e+01 1.263350e+01 1.705894e+01 1.735574e+01 1.771808e+01 2.144507e+01 1.762042e+01 1.720693e+01 1.914737e+01 1.443219e+01 2.011576e-01 3.393663e-01 4.759102e-01 5.538262e-01 6.260991e-01 7.861703e-01 9.943017e-01 1.115565e+00 1.135543e+00 9.799758e-01 1.016853e+00 1.053761e+00 9.943615e-07
<GCONST> 6.040991e+01
<MIXTURE> 116 2.935202e-03
<MEAN> 25
 -3.917542e+00 -5.929116e-01 -3.135732e+00 3.601438e+00 2.710035e+00 -4.552514e-01 2.385275e+00 5.624518e-01 1.401394e+00 3.509277e-02 -2.125338e-03 2.644683e+00 3.393909e-02 -6.718411e-02 -2.317027e-01 -4.485555e-01 -6.368527e-01 -6.768559e-01 -5.911679e-01 -4.978206e-01 -5.235725e-01 -4.637882e-01 -3.275127e-01 -1.550550e-01 -2.696412e-06
<VARIANCE> 25
 9.646898e+00 1.075926e+01 1.327263e+01 1.263350e+01 1.705894e+01 1.735574e+01 1.771808e+01 2.144507e+01 1.762042e+01 1.720693e+01 1.914737e+01 1.443219e+01 2.011576e-01 3.393663e-01 4.759102e-01 5.538262e-01 6.260991e-01 7.861703e-01 9.943017e-01 1.115565e+00 1.135543e+00 9.799758e-01 1.016853e+00 1.053761e+00 9.943615e-07
<GCONST> 6.040991e+01
<MIXTURE> 117 6.506003e-03
<MEAN> 25
 -4.582725e+00 1.170436e+00 9.885654e-01 9.631829e+00 6.323788e+00 6.147504e+00 6.504446e+00 5.112666e+00 6.373906e+00 4.963161e+00 6.346346e+00 2.697029e+00 -6.887523e-02 -2.295082e-01 -3.592885e-01 -4.251564e-01 -3.651735e-01 -3.043149e-01 -3.005764e-01 -3.353547e-01 -3.969536e-01 -3.800252e-01 -2.502511e-01 -1.000823e-01 -6.371791e-06
<VARIANCE> 25
 7.457901e+00 8.910906e+00 1.010072e+01 1.564903e+01 1.587332e+01 1.629784e+01 1.769811e+01 1.825529e+01 1.627918e+01 1.643119e+01 1.675531e+01 1.461392e+01 2.182593e-01 3.061579e-01 4.219499e-01 6.132705e-01 8.468977e-01 1.045653e+00 1.184685e+00 1.222755e+00 1.221603e+00 1.195237e+00 1.170898e+00 1.129359e+00 9.906848e-07
<GCONST> 6.065440e+01
<MIXTURE> 118 6.506003e-03
<MEAN> 25
 -4.582725e+00 1.170436e+00 9.885654e-01 9.631829e+00 6.323788e+00 6.147504e+00 6.504446e+00 5.112666e+00 6.373906e+00 4.963161e+00 6.346346e+00 2.697029e+00 -6.887523e-02 -2.295082e-01 -3.592885e-01 -4.251564e-01 -3.651735e-01 -3.043149e-01 -3.005764e-01 -3.353547e-01 -3.969536e-01 -3.800252e-01 -2.502511e-01 -1.000823e-01 -6.371791e-06
<VARIANCE> 25
 7.457901e+00 8.910906e+00 1.010072e+01 1.564903e+01 1.587332e+01 1.629784e+01 1.769811e+01 1.825529e+01 1.627918e+01 1.643119e+01 1.675531e+01 1.461392e+01 2.182593e-01 3.061579e-01 4.219499e-01 6.132705e-01 8.468977e-01 1.045653e+00 1.184685e+00 1.222755e+00 1.221603e+00 1.195237e+00 1.170898e+00 1.129359e+00 9.906848e-07
<GCONST> 6.065440e+01
<MIXTURE> 119 4.297961e-03
<MEAN> 25
 -4.975062e+00 -7.633729e+00 2.231495e+00 2.016443e+00 2.239568e+00 2.074802e-01 5.275062e+00 5.939436e+00 1.166071e+00 9.675482e-01 6.613386e+00 1.569831e+00 -4.995405e-02 -7.931073e-02 3.723685e-02 -5.718324e-02 -1.261363e-01 -1.798254e-01 -6.901573e-02 -1.384339e-02 -9.182832e-02 -1.120858e-01 -5.517754e-02 -5.824899e-02 1.111578e-03
<VARIANCE> 25
 8.503910e+00 9.824586e+00 1.656607e+01 2.018242e+01 2.287842e+01 2.320951e+01 2.499747e+01 2.649004e+01 2.503588e+01 2.807512e+01 2.040511e+01 2.040989e+01 1.604175e-01 2.824946e-01 4.598006e-01 6.328473e-01 8.034375e-01 1.003819e+00 1.099941e+00 1.277783e+00 1.285793e+00 1.245754e+00 1.192332e+00 1.112462e+00 2.316102e-04
<GCONST> 6.972173e+01
<MIXTURE> 120 4.297961e-03
<MEAN> 25
 -4.975062e+00 -7.633729e+00 2.231495e+00 2.016443e+00 2.239568e+00 2.074802e-01 5.275062e+00 5.939436e+00 1.166071e+00 9.675482e-01 6.613386e+00 1.569831e+00 -4.995405e-02 -7.931073e-02 3.723685e-02 -5.718324e-02 -1.261363e-01 -1.798254e-01 -6.901573e-02 -1.384339e-02 -9.182832e-02 -1.120858e-01 -5.517754e-02 -5.824899e-02 1.111578e-03
<VARIANCE> 25
 8.503910e+00 9.824586e+00 1.656607e+01 2.018242e+01 2.287842e+01 2.320951e+01 2.499747e+01 2.649004e+01 2.503588e+01 2.807512e+01 2.040511e+01 2.040989e+01 1.604175e-01 2.824946e-01 4.598006e-01 6.328473e-01 8.034375e-01 1.003819e+00 1.099941e+00 1.277783e+00 1.285793e+00 1.245754e+00 1.192332e+00 1.112462e+00 2.316102e-04
<GCONST> 6.972173e+01
<MIXTURE> 121 4.567511e-03
<MEAN> 25
 2.017043e-01 -2.565688e+00 5.164230e+00 -1.283227e+01 -1.265630e+01 -1.581228e+00 9.595744e-01 -5.084950e+00 -4.171825e+00 -5.405341e-01 -5.457344e+00 -4.325431e+00 2.502462e-02 1.366147e-01 -3.890397e-02 8.147983e-02 1.643004e-01 8.375070e-02 -8.727011e-02 -1.849452e-01 -2.701842e-01 -2.578672e-01 -1.220968e-01 2.907234e-03 -7.545866e-03
<VARIANCE> 25
 7.699648e+00 1.581614e+01 1.720101e+01 2.109266e+01 2.428936e+01 3.028838e+01 2.963573e+01 2.453378e+01 3.521267e+01 2.861778e+01 2.006923e+01 2.108248e+01 1.542687e-01 6.444691e-01 6.206886e-01 7.016185e-01 7.720314e-01 1.149579e+00 1.124310e+00 1.116302e+00 1.211086e+00 1.185889e+00 9.462491e-01 8.686382e-01 2.125032e-04
<GCONST> 7.147349e+01
<MIXTURE> 122 4.567511e-03
<MEAN> 25
 2.017043e-01 -2.565688e+00 5.164230e+00 -1.283227e+01 -1.265630e+01 -1.581228e+00 9.595744e-01 -5.084950e+00 -4.171825e+00 -5.405341e-01 -5.457344e+00 -4.325431e+00 2.502462e-02 1.366147e-01 -3.890397e-02 8.147983e-02 1.643004e-01 8.375070e-02 -8.727011e-02 -1.849452e-01 -2.701842e-01 -2.578672e-01 -1.220968e-01 2.907234e-03 -7.545866e-03
<VARIANCE> 25
 7.699648e+00 1.581614e+01 1.720101e+01 2.109266e+01 2.428936e+01 3.028838e+01 2.963573e+01 2.453378e+01 3.521267e+01 2.861778e+01 2.006923e+01 2.108248e+01 1.542687e-01 6.444691e-01 6.206886e-01 7.016185e-01 7.720314e-01 1.149579e+00 1.124310e+00 1.116302e+00 1.211086e+00 1.185889e+00 9.462491e-01 8.686382e-01 2.125032e-04
<GCONST> 7.147349e+01
<MIXTURE> 123 4.393044e-03
<MEAN> 25
 -3.378771e+00 2.006149e+00 -4.256484e-01 5.301674e+00 6.731836e+00 1.859134e+00 3.583743e+00 1.578587e+00 2.671226e-01 -5.316455e-01 -3.030213e-01 4.492239e-01 -4.307400e-01 -6.520501e-01 -7.572107e-01 -5.574550e-01 -2.529480e-01 1.622106e-01 3.106868e-01 6.493648e-01 7.489669e-01 7.130473e-01 6.668534e-01 4.741814e-01 -3.139176e-03
<VARIANCE> 25
 1.213989e+01 1.333699e+01 1.474274e+01 1.811160e+01 2.889172e+01 3.543151e+01 1.983819e+01 2.286438e+01 1.867506e+01 1.587485e+01 2.061169e+01 1.758248e+01 3.534470e-01 3.949606e-01 5.004008e-01 6.653142e-01 8.592650e-01 1.353901e+00 1.114450e+00 1.155566e+00 1.089318e+00 1.026946e+00 1.073998e+00 1.094029e+00 9.305144e-05
<GCONST> 6.958076e+01
<MIXTURE> 124 4.069876e-03
<MEAN> 25
 -6.476332e+00 -1.137317e+00 -2.947922e+00 5.029293e+00 5.060373e+00 3.317114e+00 5.385750e+00 2.647097e+00 3.179453e+00 1.266881e+00 1.096030e+00 2.996960e+00 -2.032500e-01 -3.215780e-01 -3.611797e-01 -2.202501e-01 1.232484e-01 5.208923e-01 8.040701e-01 8.586226e-01 6.447959e-01 3.218158e-01 6.873867e-02 -2.656535e-02 3.841044e-05
<VARIANCE> 25
 1.161808e+01 7.416304e+00 1.109559e+01 1.288410e+01 1.271308e+01 2.019225e+01 1.545500e+01 1.754318e+01 1.541008e+01 1.594184e+01 1.913726e+01 1.449624e+01 1.050496e-01 1.678069e-01 2.681072e-01 4.174874e-01 5.974520e-01 7.066576e-01 7.498786e-01 8.168105e-01 9.117045e-01 9.756615e-01 1.002203e+00 9.851828e-01 1.805550e-05
<GCONST> 5.901324e+01
<MIXTURE> 125 4.069876e-03
<MEAN> 25
 -6.476332e+00 -1.137317e+00 -2.947922e+00 5.029293e+00 5.060373e+00 3.317114e+00 5.385750e+00 2.647097e+00 3.179453e+00 1.266881e+00 1.096030e+00 2.996960e+00 -2.032500e-01 -3.215780e-01 -3.611797e-01 -2.202501e-01 1.232484e-01 5.208923e-01 8.040701e-01 8.586226e-01 6.447959e-01 3.218158e-01 6.873867e-02 -2.656535e-02 3.841044e-05
<VARIANCE> 25
 1.161808e+01 7.416304e+00 1.109559e+01 1.288410e+01 1.271308e+01 2.019225e+01 1.545500e+01 1.754318e+01 1.541008e+01 1.594184e+01 1.913726e+01 1.449624e+01 1.050496e-01 1.678069e-01 2.681072e-01 4.174874e-01 5.974520e-01 7.066576e-01 7.498786e-01 8.168105e-01 9.117045e-01 9.756615e-01 1.002203e+00 9.851828e-01 1.805550e-05
<GCONST> 5.901324e+01
<MIXTURE> 126 2.402244e-03
<MEAN> 25
 -3.712980e+00 -6.757034e+00 -5.285413e+00 2.253678e+00 4.397933e+00 -3.260839e+00 1.376206e-01 3.652066e+00 3.317590e+00 -2.656019e+00 -1.425268e+00 3.004210e+00 -3.329061e-03 -6.430420e-03 -3.840502e-02 -1.667433e-01 -3.218934e-01 -3.804274e-01 -2.745477e-01 -1.449434e-01 -1.123168e-01 -1.168551e-01 -9.882986e-02 -3.336946e-02 -1.453604e-03
<VARIANCE> 25
 7.743724e+00 1.476258e+01 1.366404e+01 1.524692e+01 2.538487e+01 2.340989e+01 2.281828e+01 2.884395e+01 3.104467e+01 2.604551e+01 2.151125e+01 1.914035e+01 1.689570e-01 3.489241e-01 4.780655e-01 5.671628e-01 7.579669e-01 9.975624e-01 1.112880e+00 1.268517e+00 1.321233e+00 1.296071e+00 1.203932e+00 1.135733e+00 2.083570e-04
<GCONST> 6.992109e+01
<MIXTURE> 127 2.402244e-03
<MEAN> 25
 -3.712980e+00 -6.757034e+00 -5.285413e+00 2.253678e+00 4.397933e+00 -3.260839e+00 1.376206e-01 3.652066e+00 3.317590e+00 -2.656019e+00 -1.425268e+00 3.004210e+00 -3.329061e-03 -6.430420e-03 -3.840502e-02 -1.667433e-01 -3.218934e-01 -3.804274e-01 -2.745477e-01 -1.449434e-01 -1.123168e-01 -1.168551e-01 -9.882986e-02 -3.336946e-02 -1.453604e-03
<VARIANCE> 25
 7.743724e+00 1.476258e+01 1.366404e+01 1.524692e+01 2.538487e+01 2.340989e+01 2.281828e+01 2.884395e+01 3.104467e+01 2.604551e+01 2.151125e+01 1.914035e+01 1.689570e-01 3.489241e-01 4.780655e-01 5.671628e-01 7.579669e-01 9.975624e-01 1.112880e+00 1.268517e+00 1.321233e+00 1.296071e+00 1.203932e+00 1.135733e+00 2.083570e-04
<GCONST> 6.992109e+01
<MIXTURE> 128 3.790457e-03
<MEAN> 25
 -3.859477e+00 1.871199e+00 -4.670477e-01 6.245306e+00 4.005212e+00 1.635770e+00 3.699362e+00 2.561638e+00 3.805663e+00 3.548825e+00 3.325268e+00 3.440300e+00 -4.013373e-01 -1.956495e-01 9.840069e-02 6.583831e-01 1.196885e+00 1.143385e+00 6.497498e-01 9.197357e-02 -4.498479e-01 -7.546788e-01 -6.586682e-01 -3.467859e-01 -6.951683e-05
<VARIANCE> 25
 1.086626e+01 1.368717e+01 1.495245e+01 2.140396e+01 2.319941e+01 2.121163e+01 2.356425e+01 2.495871e+01 2.590964e+01 2.345890e+01 2.985552e+01 1.807867e+01 8.575460e-01 1.134444e+00 1.323131e+00 1.584512e+00 1.518612e+00 1.812393e+00 2.320911e+00 2.285745e+00 2.070633e+00 1.807557e+00 1.748131e+00 1.748932e+00 9.827355e-07
<GCONST> 7.399238e+01
<TRANSP> 3
 0.000000e+00 1.000000e+00 0.000000e+00
 0.000000e+00 9.999990e-01 9.999998e-07
 0.000000e+00 0.000000e+00 0.000000e+00
<ENDHMM>
