~o
<STREAMINFO> 1 25
<VECSIZE> 25<NULLD><MFCC_E_D_N><DIAGC>
~h "jmodel"
<BEGINHMM>
<NUMSTATES> 3
<STATE> 2
<NUMMIXES> 128
<MIXTURE> 1 5.748963e-03
<MEAN> 25
 -2.584305e+00 3.182941e+00 2.310625e+00 8.753499e+00 4.373176e+00 3.448282e+00 4.065032e+00 3.937576e+00 5.831980e+00 5.253875e+00 5.884651e+00 3.079483e+00 -2.004432e+00 -1.634670e+00 -8.642924e-01 1.075783e+00 1.560670e+00 2.232592e+00 2.154359e+00 2.085160e+00 1.693462e+00 1.269435e+00 1.567548e+00 6.131908e-01 -4.692264e-02
<VARIANCE> 25
 1.006165e+01 1.176564e+01 1.495391e+01 1.869749e+01 2.318965e+01 2.215401e+01 2.191093e+01 2.198812e+01 2.099552e+01 2.253284e+01 2.094497e+01 1.708304e+01 1.789082e+00 2.111628e+00 3.025652e+00 3.210016e+00 3.739110e+00 3.355912e+00 3.318739e+00 3.379580e+00 3.521102e+00 3.726849e+00 3.513354e+00 2.833925e+00 3.121108e-03
<GCONST> 8.846516e+01
<MIXTURE> 2 4.549242e-03
<MEAN> 25
 -4.845611e+00 1.437631e+00 9.463148e-01 9.819864e+00 6.772586e+00 7.306199e+00 7.887607e+00 7.015910e+00 8.327368e+00 6.347364e+00 7.564430e+00 3.020995e+00 -6.410778e-02 3.692890e-02 1.432075e-01 2.343940e-01 2.600080e-01 2.679873e-01 2.852058e-01 3.046146e-01 3.460970e-01 3.066670e-01 1.840625e-01 8.618528e-02 -1.147301e-05
<VARIANCE> 25
 6.923869e+00 9.881882e+00 1.075355e+01 1.626774e+01 1.743257e+01 1.638758e+01 1.694333e+01 1.857497e+01 1.650354e+01 1.717674e+01 1.809695e+01 1.433891e+01 1.246902e-01 2.263375e-01 3.327227e-01 4.749622e-01 6.428630e-01 8.178650e-01 9.341167e-01 1.005599e+00 1.039425e+00 1.063582e+00 1.073371e+00 1.004002e+00 1.023842e-06
<GCONST> 5.821452e+01
<MIXTURE> 3 4.549242e-03
<MEAN> 25
 -4.845611e+00 1.437631e+00 9.463148e-01 9.819864e+00 6.772586e+00 7.306199e+00 7.887607e+00 7.015910e+00 8.327368e+00 6.347364e+00 7.564430e+00 3.020995e+00 -6.410778e-02 3.692890e-02 1.432075e-01 2.343940e-01 2.600080e-01 2.679873e-01 2.852058e-01 3.046146e-01 3.460970e-01 3.066670e-01 1.840625e-01 8.618528e-02 -1.147301e-05
<VARIANCE> 25
 6.923869e+00 9.881882e+00 1.075355e+01 1.626774e+01 1.743257e+01 1.638758e+01 1.694333e+01 1.857497e+01 1.650354e+01 1.717674e+01 1.809695e+01 1.433891e+01 1.246902e-01 2.263375e-01 3.327227e-01 4.749622e-01 6.428630e-01 8.178650e-01 9.341167e-01 1.005599e+00 1.039425e+00 1.063582e+00 1.073371e+00 1.004002e+00 1.023842e-06
<GCONST> 5.821452e+01
<MIXTURE> 4 1.671429e-02
<MEAN> 25
 3.465328e+00 2.531086e+00 -4.000678e+00 1.208920e+00 4.546716e+00 -9.944941e-01 -3.032146e-01 -9.526818e-02 1.056050e+00 1.637180e+00 -1.673039e+00 9.700304e-02 -2.574516e+00 1.278310e+00 1.671416e+00 2.819339e+00 1.030663e+00 1.620857e-01 1.557169e+00 1.025437e+00 9.696297e-01 3.442703e-01 1.082870e+00 7.927212e-01 -1.026571e-01
<VARIANCE> 25
 1.996598e+01 2.773579e+01 2.702256e+01 4.154618e+01 4.260954e+01 7.409667e+01 6.209941e+01 5.068010e+01 5.294424e+01 5.827833e+01 4.718012e+01 3.324649e+01 2.545773e+00 4.661547e+00 3.493932e+00 5.173166e+00 4.974569e+00 6.791078e+00 5.588505e+00 5.107861e+00 5.556705e+00 6.082110e+00 5.830107e+00 4.361689e+00 5.782820e-03
<GCONST> 1.046344e+02
<MIXTURE> 5 3.206198e-03
<MEAN> 25
 -3.398803e+00 2.323416e+00 5.474880e-01 9.328296e+00 6.800572e+00 6.207160e+00 7.144225e+00 4.804843e+00 5.445502e+00 3.844831e+00 4.639219e+00 2.577314e+00 -3.165963e-01 7.355551e-01 1.208404e+00 1.029716e+00 3.066950e-01 -9.433682e-02 -9.394818e-02 1.934154e-02 4.392301e-01 6.655121e-01 3.979213e-01 9.750447e-02 -4.521680e-05
<VARIANCE> 25
 1.008653e+01 1.486378e+01 2.343146e+01 2.592175e+01 2.043433e+01 1.995178e+01 1.985941e+01 2.048806e+01 2.133031e+01 2.091768e+01 2.380949e+01 1.611391e+01 1.195818e+00 1.239835e+00 1.346744e+00 1.654973e+00 2.253849e+00 2.341914e+00 2.291024e+00 2.254293e+00 2.313024e+00 2.223582e+00 2.058155e+00 1.852214e+00 1.023395e-06
<GCONST> 7.511998e+01
<MIXTURE> 6 5.475854e-03
<MEAN> 25
 9.696927e+00 -4.154485e-01 -6.690508e+00 -1.103562e+01 -2.115427e+00 6.738939e+00 -5.898090e+00 -5.299577e+00 -3.659812e+00 1.824512e+00 4.645123e+00 -1.248408e+00 4.853262e-01 8.955039e-01 -3.521122e-01 -1.465587e+00 -6.372945e-01 1.311874e+00 1.536107e+00 2.481775e-01 -1.219865e+00 -1.217698e+00 3.193613e-01 1.229570e+00 -8.275491e-03
<VARIANCE> 25
 8.979149e+00 1.706327e+01 2.392830e+01 3.915779e+01 3.674526e+01 3.062238e+01 4.403232e+01 3.803740e+01 4.071229e+01 3.944780e+01 4.205784e+01 2.839746e+01 3.116703e-01 8.567407e-01 9.452975e-01 1.985176e+00 1.605329e+00 2.021811e+00 1.917432e+00 2.049692e+00 2.397327e+00 1.961726e+00 2.255817e+00 1.436860e+00 5.960377e-04
<GCONST> 8.389147e+01
<MIXTURE> 7 5.475854e-03
<MEAN> 25
 9.696927e+00 -4.154485e-01 -6.690508e+00 -1.103562e+01 -2.115427e+00 6.738939e+00 -5.898090e+00 -5.299577e+00 -3.659812e+00 1.824512e+00 4.645123e+00 -1.248408e+00 4.853262e-01 8.955039e-01 -3.521122e-01 -1.465587e+00 -6.372945e-01 1.311874e+00 1.536107e+00 2.481775e-01 -1.219865e+00 -1.217698e+00 3.193613e-01 1.229570e+00 -8.275491e-03
<VARIANCE> 25
 8.979149e+00 1.706327e+01 2.392830e+01 3.915779e+01 3.674526e+01 3.062238e+01 4.403232e+01 3.803740e+01 4.071229e+01 3.944780e+01 4.205784e+01 2.839746e+01 3.116703e-01 8.567407e-01 9.452975e-01 1.985176e+00 1.605329e+00 2.021811e+00 1.917432e+00 2.049692e+00 2.397327e+00 1.961726e+00 2.255817e+00 1.436860e+00 5.960377e-04
<GCONST> 8.389147e+01
<MIXTURE> 8 1.165917e-02
<MEAN> 25
 -4.727324e+00 1.368562e+00 1.288951e+00 9.551273e+00 6.578183e+00 6.248667e+00 6.485381e+00 5.692383e+00 6.655003e+00 5.632583e+00 6.570668e+00 3.147650e+00 -6.288183e-01 -1.424013e+00 -1.071022e+00 -1.731178e+00 -2.326459e-01 -9.440598e-01 -1.786874e-01 -2.891347e-01 -2.519329e-01 -1.752077e-01 -2.137739e-01 8.145659e-02 9.878918e-02
<VARIANCE> 25
 9.338010e+00 9.876572e+00 1.161559e+01 1.612929e+01 1.662596e+01 1.574802e+01 1.813928e+01 1.751505e+01 1.704469e+01 1.738695e+01 1.886589e+01 1.406251e+01 2.755417e+00 2.815440e+00 3.903245e+00 3.759198e+00 3.456871e+00 3.317112e+00 3.127072e+00 3.079264e+00 2.870377e+00 2.654552e+00 2.435467e+00 1.900635e+00 6.685199e-03
<GCONST> 8.629954e+01
<MIXTURE> 9 1.199672e-02
<MEAN> 25
 7.777866e+00 2.888958e+00 -6.142156e+00 -1.166425e+01 -2.847366e+00 7.376570e+00 -1.625120e+00 -1.483923e+00 -3.935484e+00 -2.991579e+00 7.667076e-01 1.081122e+00 1.203801e+00 -2.317989e-01 -5.410489e-01 -2.566063e+00 -2.233561e+00 1.587379e+00 -1.353053e+00 -1.113459e+00 -3.881890e-01 -8.246323e-01 8.963681e-01 -2.100305e-01 7.403342e-02
<VARIANCE> 25
 1.496601e+01 1.719018e+01 2.565245e+01 4.465358e+01 4.547474e+01 4.472792e+01 3.629633e+01 4.885292e+01 3.910187e+01 4.042437e+01 2.853762e+01 2.393751e+01 1.943412e+00 1.917536e+00 3.488338e+00 4.228114e+00 5.059818e+00 4.441022e+00 3.667083e+00 7.668861e+00 4.039242e+00 3.467671e+00 3.383807e+00 2.207474e+00 1.748735e-03
<GCONST> 9.628815e+01
<MIXTURE> 10 6.596976e-03
<MEAN> 25
 8.227478e-01 7.636827e+00 5.369406e+00 7.144713e+00 1.585858e+00 -2.127276e+00 -5.093244e-01 -1.691403e+00 8.781116e-01 8.601234e-01 8.307576e-01 6.573424e-01 -1.922703e+00 -6.702169e-01 -4.593342e-01 3.024372e+00 2.459761e+00 2.706946e+00 2.371845e+00 2.274712e+00 1.860402e+00 1.542489e+00 2.333147e+00 5.222715e-01 -1.380791e-01
<VARIANCE> 25
 1.951979e+01 2.067137e+01 2.231830e+01 2.904950e+01 3.827826e+01 3.501110e+01 3.521784e+01 3.386698e+01 2.759957e+01 2.902306e+01 2.701330e+01 2.498785e+01 2.235578e+00 3.429738e+00 5.530892e+00 5.173548e+00 5.553975e+00 4.474154e+00 4.697946e+00 4.846016e+00 4.384546e+00 5.020500e+00 4.443207e+00 3.192080e+00 2.697496e-03
<GCONST> 9.746392e+01
<MIXTURE> 11 1.633820e-02
<MEAN> 25
 6.391972e+00 3.984990e+00 2.885514e+00 4.964748e+00 -2.318418e+00 -3.978009e+00 -8.248156e-01 -5.719079e+00 -2.811591e+00 3.413660e-01 -2.251802e+00 -2.131956e+00 -3.582475e-01 5.345044e-01 2.183663e-01 6.948925e-02 5.965766e-01 -7.062116e-02 4.386926e-01 2.008675e-01 -2.754550e-01 8.307453e-02 -2.925764e-01 5.339260e-02 -1.930511e-02
<VARIANCE> 25
 1.099363e+01 2.802542e+01 2.136350e+01 2.718009e+01 3.190615e+01 4.727129e+01 5.213628e+01 3.916483e+01 3.439253e+01 2.753119e+01 2.920680e+01 2.508058e+01 9.657841e-01 9.524668e-01 1.475237e+00 1.826007e+00 1.797634e+00 2.178949e+00 2.451553e+00 2.670230e+00 2.351773e+00 1.764165e+00 1.984009e+00 1.664157e+00 1.169114e-03
<GCONST> 8.644893e+01
<MIXTURE> 12 5.904134e-03
<MEAN> 25
 1.076552e+01 3.743704e+00 -4.502618e+00 -1.599371e+01 -8.696300e+00 8.642802e+00 -8.969600e-01 -1.922148e+00 -1.723044e+00 -4.886553e+00 1.774749e+00 7.167178e-01 6.773948e-02 2.937797e-01 7.960640e-02 -3.682817e-01 -3.102900e-01 2.953088e-02 3.055336e-01 4.477932e-01 1.410285e-01 -3.846988e-01 -3.856126e-01 5.395058e-02 -6.303916e-03
<VARIANCE> 25
 8.883279e+00 2.100197e+01 2.335645e+01 3.503217e+01 4.206063e+01 3.095866e+01 4.179768e+01 4.898266e+01 4.406387e+01 3.738922e+01 3.799801e+01 2.892728e+01 2.468340e-01 6.883357e-01 6.860502e-01 1.169931e+00 1.186483e+00 1.053919e+00 1.171052e+00 1.386188e+00 1.240620e+00 1.222235e+00 1.221522e+00 9.565068e-01 5.787099e-04
<GCONST> 7.892107e+01
<MIXTURE> 13 5.904134e-03
<MEAN> 25
 1.076552e+01 3.743704e+00 -4.502618e+00 -1.599371e+01 -8.696300e+00 8.642802e+00 -8.969600e-01 -1.922148e+00 -1.723044e+00 -4.886553e+00 1.774749e+00 7.167178e-01 6.773948e-02 2.937797e-01 7.960640e-02 -3.682817e-01 -3.102900e-01 2.953088e-02 3.055336e-01 4.477932e-01 1.410285e-01 -3.846988e-01 -3.856126e-01 5.395058e-02 -6.303916e-03
<VARIANCE> 25
 8.883279e+00 2.100197e+01 2.335645e+01 3.503217e+01 4.206063e+01 3.095866e+01 4.179768e+01 4.898266e+01 4.406387e+01 3.738922e+01 3.799801e+01 2.892728e+01 2.468340e-01 6.883357e-01 6.860502e-01 1.169931e+00 1.186483e+00 1.053919e+00 1.171052e+00 1.386188e+00 1.240620e+00 1.222235e+00 1.221522e+00 9.565068e-01 5.787099e-04
<GCONST> 7.892107e+01
<MIXTURE> 14 6.488954e-03
<MEAN> 25
 -4.260643e+00 -8.434505e-02 -4.399787e-01 8.666516e+00 7.573278e+00 7.067511e+00 7.972669e+00 7.526874e+00 7.145153e+00 5.233472e+00 6.773814e+00 3.915840e+00 -2.640575e-01 1.979777e-01 3.444403e-01 2.956987e-01 1.339444e-02 5.417513e-02 8.376925e-02 1.972735e-01 2.993248e-01 5.137699e-01 4.924517e-01 7.685860e-02 -9.048735e-03
<VARIANCE> 25
 9.083083e+00 1.590885e+01 1.854070e+01 1.916529e+01 2.047143e+01 2.206683e+01 2.150768e+01 2.121315e+01 2.007714e+01 2.329257e+01 2.110538e+01 1.662035e+01 9.387049e-01 1.592855e+00 1.746690e+00 1.918870e+00 2.199884e+00 2.307036e+00 2.225075e+00 2.225001e+00 2.258316e+00 2.462148e+00 2.172743e+00 1.775709e+00 1.001474e-03
<GCONST> 8.203251e+01
<MIXTURE> 15 2.475190e-03
<MEAN> 25
 -5.410640e+00 -6.133215e-01 -2.148579e-01 7.353378e+00 5.736972e+00 5.662353e+00 6.077105e+00 4.989230e+00 5.150166e+00 4.159461e+00 5.499012e+00 2.530178e+00 -1.211364e-01 -2.696233e-02 7.240495e-02 2.406703e-01 4.862805e-01 7.863003e-01 1.069549e+00 1.182661e+00 1.057935e+00 7.520745e-01 4.214017e-01 1.515557e-01 -1.164647e-04
<VARIANCE> 25
 6.997470e+00 5.814794e+00 9.045716e+00 1.281888e+01 1.408942e+01 1.461017e+01 1.495457e+01 1.489451e+01 1.410354e+01 1.413640e+01 1.505566e+01 1.248608e+01 1.243083e-01 2.070186e-01 3.204334e-01 5.036197e-01 6.991309e-01 7.915273e-01 7.621465e-01 7.903065e-01 9.063196e-01 1.024323e+00 1.069367e+00 1.038405e+00 2.812340e-05
<GCONST> 5.863968e+01
<MIXTURE> 16 2.475190e-03
<MEAN> 25
 -5.410640e+00 -6.133215e-01 -2.148579e-01 7.353378e+00 5.736972e+00 5.662353e+00 6.077105e+00 4.989230e+00 5.150166e+00 4.159461e+00 5.499012e+00 2.530178e+00 -1.211364e-01 -2.696233e-02 7.240495e-02 2.406703e-01 4.862805e-01 7.863003e-01 1.069549e+00 1.182661e+00 1.057935e+00 7.520745e-01 4.214017e-01 1.515557e-01 -1.164647e-04
<VARIANCE> 25
 6.997470e+00 5.814794e+00 9.045716e+00 1.281888e+01 1.408942e+01 1.461017e+01 1.495457e+01 1.489451e+01 1.410354e+01 1.413640e+01 1.505566e+01 1.248608e+01 1.243083e-01 2.070186e-01 3.204334e-01 5.036197e-01 6.991309e-01 7.915273e-01 7.621465e-01 7.903065e-01 9.063196e-01 1.024323e+00 1.069367e+00 1.038405e+00 2.812340e-05
<GCONST> 5.863968e+01
<MIXTURE> 17 9.518312e-03
<MEAN> 25
 3.140720e+00 -7.701957e-01 6.877757e+00 2.823329e+00 -5.721443e+00 -6.533609e+00 -1.695505e+00 -1.340361e+00 -1.884991e+00 -2.460727e+00 8.210870e-02 -3.204424e-02 -6.926399e-01 -1.520164e+00 1.474977e+00 -1.462798e+00 -2.729914e+00 7.724020e-02 -2.431168e-01 6.147300e-01 -2.688482e-01 -5.404314e-01 1.599252e+00 1.034355e+00 8.652644e-02
<VARIANCE> 25
 1.506267e+01 2.949241e+01 2.608156e+01 2.870714e+01 4.408192e+01 4.444374e+01 3.651373e+01 2.816853e+01 3.173876e+01 2.868105e+01 2.423078e+01 2.209559e+01 1.457198e+00 2.669657e+00 3.147021e+00 3.569937e+00 4.749241e+00 4.450854e+00 4.323881e+00 3.641640e+00 3.450603e+00 4.409858e+00 2.790329e+00 2.926530e+00 1.964923e-03
<GCONST> 9.444979e+01
<MIXTURE> 18 1.221018e-02
<MEAN> 25
 3.634648e+00 4.336863e+00 6.312779e+00 4.275464e+00 -3.699543e+00 -8.734782e+00 -2.923527e-02 -2.080637e+00 -2.641788e+00 -1.559143e+00 -1.431161e+00 9.196123e-01 -6.946943e-01 2.385467e+00 -5.523829e-01 1.674993e+00 2.869246e+00 5.051733e-01 1.187886e+00 -3.760164e-01 5.424602e-01 4.906151e-01 -6.608233e-01 -9.688333e-02 -1.206533e-01
<VARIANCE> 25
 1.301986e+01 2.682749e+01 3.071588e+01 2.306375e+01 3.713119e+01 3.216806e+01 5.027635e+01 3.152469e+01 3.479972e+01 3.151051e+01 3.056423e+01 2.658444e+01 2.060652e+00 2.904571e+00 4.446554e+00 3.537178e+00 3.753666e+00 7.393918e+00 4.394659e+00 3.874061e+00 3.784343e+00 3.719295e+00 4.669734e+00 3.178697e+00 3.372238e-03
<GCONST> 9.687233e+01
<MIXTURE> 19 9.912824e-03
<MEAN> 25
 -9.012419e+00 2.842553e+00 5.639071e-02 1.321930e+00 4.702040e+00 1.238886e+00 4.369916e+00 1.482540e+00 1.577682e+00 1.391670e+00 7.243682e-01 1.316289e+00 2.039923e+00 1.587729e+00 2.120501e+00 5.486500e-01 -1.226234e+00 -1.035908e+00 -1.116768e+00 -1.479839e+00 -1.399356e+00 -1.109336e+00 -9.165822e-01 -8.467635e-01 9.762088e-03
<VARIANCE> 25
 5.502774e+01 3.241460e+01 4.337764e+01 4.717907e+01 3.338557e+01 2.976484e+01 3.289614e+01 2.721042e+01 2.677515e+01 2.414816e+01 2.809025e+01 2.033600e+01 2.131496e+00 2.092896e+00 1.938359e+00 2.319635e+00 2.480913e+00 1.982071e+00 2.203055e+00 2.215862e+00 1.920395e+00 1.815640e+00 2.022791e+00 1.587447e+00 2.566242e-03
<GCONST> 9.020230e+01
<MIXTURE> 20 6.308331e-03
<MEAN> 25
 -1.418759e+01 7.435561e+00 8.483927e-01 6.132174e+00 4.871969e+00 1.595345e+00 5.194285e+00 8.412209e-01 9.131619e-01 8.189809e-01 2.524483e+00 -2.689727e-01 -3.286471e+00 -8.650520e-01 -1.566839e+00 3.334731e-01 1.542336e+00 2.046529e+00 1.965321e+00 2.043984e+00 2.137650e+00 2.039742e+00 1.673930e+00 9.436629e-01 4.748756e-02
<VARIANCE> 25
 1.966999e+01 2.341771e+01 3.082689e+01 3.707048e+01 3.085368e+01 2.808892e+01 2.984863e+01 3.136641e+01 2.786649e+01 2.818068e+01 2.543421e+01 2.107073e+01 2.092162e+00 2.173011e+00 1.902079e+00 2.528069e+00 2.690212e+00 2.353454e+00 2.334165e+00 2.336443e+00 2.234985e+00 2.639731e+00 2.255265e+00 1.856614e+00 1.884577e-03
<GCONST> 8.923666e+01
<MIXTURE> 21 7.928653e-03
<MEAN> 25
 3.940857e+00 -4.690574e+00 5.676698e+00 -1.479323e+00 -1.061946e+01 -8.488568e+00 -2.582184e+00 4.135306e+00 -2.052288e+00 -3.460031e+00 1.733624e-01 2.892040e-01 -7.249065e-01 1.347525e+00 2.577724e+00 -5.285718e-02 -1.537453e+00 3.096187e-01 5.837399e-01 -1.503521e+00 -1.908795e+00 3.086407e-01 1.311317e+00 2.485484e-01 -1.230534e-02
<VARIANCE> 25
 9.018756e+00 1.990059e+01 2.995769e+01 2.814696e+01 2.837096e+01 3.585872e+01 4.262594e+01 3.890534e+01 4.223472e+01 3.116625e+01 3.363555e+01 2.296747e+01 3.757747e-01 9.460909e-01 1.836846e+00 1.278413e+00 2.188735e+00 2.213241e+00 3.617220e+00 2.474915e+00 2.244152e+00 2.554434e+00 1.994600e+00 2.247577e+00 4.335894e-04
<GCONST> 8.513721e+01
<MIXTURE> 22 8.827789e-03
<MEAN> 25
 -1.792261e+01 7.158460e+00 -4.126436e+00 7.388516e+00 4.612209e+00 2.747621e+00 8.390231e+00 1.744250e+00 5.374407e+00 3.306242e+00 5.703688e+00 1.193081e+00 -3.120136e-01 -2.088020e-01 -1.279252e-01 -1.484090e-01 -5.617809e-03 1.354689e-01 1.793568e-01 1.777922e-01 2.494087e-01 2.098616e-01 1.729554e-01 1.926466e-01 8.922375e-03
<VARIANCE> 25
 8.110278e+00 1.681528e+01 1.738132e+01 2.515362e+01 2.294248e+01 2.095474e+01 1.948117e+01 1.870236e+01 1.813713e+01 2.086263e+01 1.934752e+01 1.382064e+01 1.094532e+00 1.356879e+00 1.366764e+00 1.570712e+00 1.409091e+00 1.526970e+00 1.508631e+00 1.531006e+00 1.612943e+00 1.548143e+00 1.355810e+00 1.166586e+00 1.746886e-03
<GCONST> 7.832737e+01
<MIXTURE> 23 6.455497e-03
<MEAN> 25
 7.929859e+00 2.061287e+00 3.318430e+00 2.477735e+00 -5.074662e+00 -2.870022e+00 -4.216759e+00 -6.410626e+00 -3.342544e+00 -1.024523e+00 -4.205634e+00 -2.112502e+00 3.528520e-02 1.541543e-01 3.734067e-02 1.072220e-02 -5.379094e-03 7.910848e-02 1.411575e-02 -3.986831e-02 6.014540e-02 1.281855e-02 -1.354455e-02 3.370101e-02 -3.992483e-03
<VARIANCE> 25
 1.015675e+01 2.403153e+01 2.505398e+01 3.941416e+01 3.692130e+01 5.313991e+01 5.691902e+01 5.244972e+01 4.642953e+01 4.516477e+01 4.656646e+01 3.829031e+01 1.152078e-01 2.940245e-01 3.795454e-01 5.123467e-01 5.750197e-01 7.009090e-01 7.634039e-01 8.440093e-01 8.948662e-01 8.666014e-01 8.528056e-01 7.272075e-01 8.762428e-05
<GCONST> 7.261171e+01
<MIXTURE> 24 6.455497e-03
<MEAN> 25
 7.929859e+00 2.061287e+00 3.318430e+00 2.477735e+00 -5.074662e+00 -2.870022e+00 -4.216759e+00 -6.410626e+00 -3.342544e+00 -1.024523e+00 -4.205634e+00 -2.112502e+00 3.528520e-02 1.541543e-01 3.734067e-02 1.072220e-02 -5.379094e-03 7.910848e-02 1.411575e-02 -3.986831e-02 6.014540e-02 1.281855e-02 -1.354455e-02 3.370101e-02 -3.992483e-03
<VARIANCE> 25
 1.015675e+01 2.403153e+01 2.505398e+01 3.941416e+01 3.692130e+01 5.313991e+01 5.691902e+01 5.244972e+01 4.642953e+01 4.516477e+01 4.656646e+01 3.829031e+01 1.152078e-01 2.940245e-01 3.795454e-01 5.123467e-01 5.750197e-01 7.009090e-01 7.634039e-01 8.440093e-01 8.948662e-01 8.666014e-01 8.528056e-01 7.272075e-01 8.762428e-05
<GCONST> 7.261171e+01
<MIXTURE> 25 1.118642e-02
<MEAN> 25
 7.472149e-01 1.947804e+00 1.639319e+01 -9.098458e-01 -1.161780e+01 -5.573185e-01 -5.185941e+00 -3.152262e+00 -5.649404e+00 -5.758729e+00 4.659394e+00 -1.258755e+00 -7.680983e-02 4.461520e-01 5.558261e-02 1.534847e-01 2.698356e-01 1.425656e-01 2.611742e-01 -1.563497e-01 -2.314249e-01 3.031649e-01 -1.259377e-01 -1.236930e-01 -1.518778e-02
<VARIANCE> 25
 9.047572e+00 3.228502e+01 1.937099e+01 2.517286e+01 2.875056e+01 4.444314e+01 2.623769e+01 2.637434e+01 3.445010e+01 3.256371e+01 2.309633e+01 2.499695e+01 6.124301e-01 1.283476e+00 1.347342e+00 1.361289e+00 2.155637e+00 2.676097e+00 1.656581e+00 1.458157e+00 1.408100e+00 1.814448e+00 1.407011e+00 1.195825e+00 1.183638e-03
<GCONST> 8.260651e+01
<MIXTURE> 26 7.727677e-03
<MEAN> 25
 2.047924e+00 -5.868692e+00 -9.816058e+00 -9.862876e-01 8.196848e+00 5.272836e+00 4.010905e+00 -2.751479e-01 1.932104e+00 -9.252187e-01 -2.986877e+00 -1.036583e+00 -6.452246e-01 7.395691e-01 3.509918e-01 6.851254e-01 3.341576e-01 1.421172e-01 4.200871e-01 3.822041e-01 1.990440e-01 5.899451e-02 3.828710e-01 5.872774e-01 -5.411202e-02
<VARIANCE> 25
 2.336412e+01 3.557593e+01 2.677929e+01 5.847025e+01 3.765802e+01 4.027576e+01 4.374630e+01 4.214019e+01 3.753061e+01 5.049270e+01 3.768075e+01 4.315914e+01 1.540752e+00 1.997280e+00 1.779019e+00 1.889745e+00 2.702707e+00 2.411898e+00 2.556618e+00 2.632140e+00 2.290436e+00 2.195131e+00 2.097972e+00 2.200580e+00 3.168080e-03
<GCONST> 9.331845e+01
<MIXTURE> 27 7.727677e-03
<MEAN> 25
 2.047924e+00 -5.868692e+00 -9.816058e+00 -9.862876e-01 8.196848e+00 5.272836e+00 4.010905e+00 -2.751479e-01 1.932104e+00 -9.252187e-01 -2.986877e+00 -1.036583e+00 -6.452246e-01 7.395691e-01 3.509918e-01 6.851254e-01 3.341576e-01 1.421172e-01 4.200871e-01 3.822041e-01 1.990440e-01 5.899451e-02 3.828710e-01 5.872774e-01 -5.411202e-02
<VARIANCE> 25
 2.336412e+01 3.557593e+01 2.677929e+01 5.847025e+01 3.765802e+01 4.027576e+01 4.374630e+01 4.214019e+01 3.753061e+01 5.049270e+01 3.768075e+01 4.315914e+01 1.540752e+00 1.997280e+00 1.779019e+00 1.889745e+00 2.702707e+00 2.411898e+00 2.556618e+00 2.632140e+00 2.290436e+00 2.195131e+00 2.097972e+00 2.200580e+00 3.168080e-03
<GCONST> 9.331845e+01
<MIXTURE> 28 5.036674e-03
<MEAN> 25
 -5.431200e+00 8.161632e-02 -1.581620e+00 6.592413e+00 5.273144e+00 3.490329e+00 5.449898e+00 3.172999e+00 3.910464e+00 2.406693e+00 2.633257e+00 3.204075e+00 -1.132806e-01 2.208387e-01 5.276824e-01 7.829604e-01 8.189616e-01 7.009803e-01 5.159323e-01 3.875934e-01 4.388081e-01 4.783120e-01 3.682206e-01 1.886530e-01 -1.891295e-05
<VARIANCE> 25
 1.042471e+01 9.009369e+00 1.214660e+01 1.487402e+01 1.486610e+01 1.782459e+01 1.810850e+01 1.917455e+01 1.713884e+01 1.665017e+01 2.056395e+01 1.494487e+01 2.565942e-01 3.358255e-01 4.043095e-01 4.657536e-01 6.219177e-01 8.445033e-01 1.069027e+00 1.147217e+00 1.107877e+00 1.029461e+00 1.033669e+00 1.065491e+00 1.019877e-06
<GCONST> 6.036858e+01
<MIXTURE> 29 5.036674e-03
<MEAN> 25
 -5.431200e+00 8.161632e-02 -1.581620e+00 6.592413e+00 5.273144e+00 3.490329e+00 5.449898e+00 3.172999e+00 3.910464e+00 2.406693e+00 2.633257e+00 3.204075e+00 -1.132806e-01 2.208387e-01 5.276824e-01 7.829604e-01 8.189616e-01 7.009803e-01 5.159323e-01 3.875934e-01 4.388081e-01 4.783120e-01 3.682206e-01 1.886530e-01 -1.891295e-05
<VARIANCE> 25
 1.042471e+01 9.009369e+00 1.214660e+01 1.487402e+01 1.486610e+01 1.782459e+01 1.810850e+01 1.917455e+01 1.713884e+01 1.665017e+01 2.056395e+01 1.494487e+01 2.565942e-01 3.358255e-01 4.043095e-01 4.657536e-01 6.219177e-01 8.445033e-01 1.069027e+00 1.147217e+00 1.107877e+00 1.029461e+00 1.033669e+00 1.065491e+00 1.019877e-06
<GCONST> 6.036858e+01
<MIXTURE> 30 8.917812e-03
<MEAN> 25
 -3.986948e+00 1.770924e+00 -3.446699e-03 7.839767e+00 8.338880e+00 5.371938e+00 8.646922e+00 7.343637e+00 5.127707e+00 5.077991e+00 6.086518e+00 2.436289e+00 -2.844326e-02 1.493452e-02 8.150573e-03 5.748904e-02 4.936523e-02 7.745894e-03 -9.683211e-03 -6.483203e-02 -1.790407e-02 3.056419e-02 5.409727e-02 6.259599e-02 -1.256207e-03
<VARIANCE> 25
 5.987700e+00 1.776457e+01 9.786947e+00 1.532370e+01 1.333627e+01 2.480135e+01 2.007525e+01 1.624223e+01 1.897516e+01 1.528059e+01 2.135151e+01 1.468106e+01 8.629541e-02 1.983960e-01 2.902015e-01 5.076780e-01 5.562520e-01 6.573181e-01 7.966593e-01 7.580298e-01 8.017862e-01 8.269804e-01 1.089101e+00 7.938815e-01 5.525411e-05
<GCONST> 6.077721e+01
<MIXTURE> 31 4.136493e-03
<MEAN> 25
 -3.278105e+00 -5.263114e+00 -7.715226e-02 4.807711e+00 3.896178e+00 1.536441e+00 5.433746e+00 6.801383e+00 2.713319e+00 1.359661e+00 6.472697e+00 3.058061e+00 2.425432e-01 4.685045e-01 -2.232439e-01 2.857012e-01 1.234922e-01 4.265659e-01 1.861738e-01 2.987716e-02 3.673790e-01 3.569369e-01 1.045442e-01 1.139930e-01 -1.801588e-02
<VARIANCE> 25
 6.965160e+00 2.056423e+01 1.758766e+01 1.774273e+01 2.604676e+01 2.419769e+01 2.419013e+01 2.550371e+01 2.532433e+01 2.774839e+01 2.000233e+01 1.867424e+01 1.903733e-01 4.852419e-01 5.992920e-01 7.748954e-01 9.486607e-01 1.098807e+00 1.207732e+00 1.409826e+00 1.354570e+00 1.304576e+00 1.237055e+00 1.116351e+00 2.551164e-04
<GCONST> 7.204662e+01
<MIXTURE> 32 4.136493e-03
<MEAN> 25
 -3.278105e+00 -5.263114e+00 -7.715226e-02 4.807711e+00 3.896178e+00 1.536441e+00 5.433746e+00 6.801383e+00 2.713319e+00 1.359661e+00 6.472697e+00 3.058061e+00 2.425432e-01 4.685045e-01 -2.232439e-01 2.857012e-01 1.234922e-01 4.265659e-01 1.861738e-01 2.987716e-02 3.673790e-01 3.569369e-01 1.045442e-01 1.139930e-01 -1.801588e-02
<VARIANCE> 25
 6.965160e+00 2.056423e+01 1.758766e+01 1.774273e+01 2.604676e+01 2.419769e+01 2.419013e+01 2.550371e+01 2.532433e+01 2.774839e+01 2.000233e+01 1.867424e+01 1.903733e-01 4.852419e-01 5.992920e-01 7.748954e-01 9.486607e-01 1.098807e+00 1.207732e+00 1.409826e+00 1.354570e+00 1.304576e+00 1.237055e+00 1.116351e+00 2.551164e-04
<GCONST> 7.204662e+01
<MIXTURE> 33 1.508826e-02
<MEAN> 25
 6.334273e+00 -3.801398e+00 -2.358091e+00 -1.790045e+00 -1.991655e+00 -5.762915e+00 -6.990566e+00 2.060586e+00 1.987712e+00 2.459403e-01 -4.388715e+00 -2.567399e+00 5.958345e-01 -9.613800e-01 -2.402751e+00 -1.781545e+00 1.581882e+00 1.517372e+00 -8.219341e-01 4.122443e-01 9.077462e-01 7.157667e-01 -3.847781e-01 -1.458551e+00 3.192454e-02
<VARIANCE> 25
 9.581100e+00 2.297708e+01 2.640378e+01 3.866336e+01 3.846986e+01 4.306770e+01 4.049945e+01 4.287277e+01 3.753647e+01 4.590853e+01 3.228446e+01 3.143866e+01 1.218361e+00 2.146927e+00 2.053657e+00 2.094426e+00 3.946169e+00 3.185479e+00 4.492772e+00 5.541462e+00 3.524573e+00 4.159329e+00 3.223632e+00 2.733082e+00 1.675760e-03
<GCONST> 9.415247e+01
<MIXTURE> 34 1.588179e-02
<MEAN> 25
 8.248075e+00 -1.736265e-01 -1.223178e-01 1.530966e+00 -2.743811e+00 -1.187883e+00 -6.227883e+00 -4.415810e+00 -2.001949e+00 6.741704e-01 -1.728383e+00 -3.260942e+00 5.043407e-03 1.389576e+00 1.127488e+00 2.109019e+00 3.345512e-01 -5.276898e-01 9.003509e-01 -1.384588e+00 -8.625520e-01 3.196055e-01 -6.725943e-01 1.458924e-01 -6.680772e-02
<VARIANCE> 25
 8.787167e+00 2.892676e+01 3.434609e+01 4.634678e+01 4.185947e+01 5.598920e+01 4.715679e+01 5.166809e+01 4.623107e+01 4.495828e+01 4.660407e+01 2.837857e+01 1.127903e+00 1.766114e+00 4.275579e+00 3.840094e+00 5.658082e+00 6.083771e+00 5.071362e+00 5.630115e+00 4.657457e+00 4.560678e+00 4.817344e+00 3.663151e+00 1.161970e-03
<GCONST> 9.878898e+01
<MIXTURE> 35 1.467755e-02
<MEAN> 25
 -2.089025e+00 -3.298252e+00 -1.132136e+01 3.035786e-01 1.138889e+01 -1.534012e+00 1.134748e+00 6.522066e-01 8.336674e-01 7.162317e+00 -2.082294e+00 1.999413e+00 4.942003e-01 -1.810144e+00 -9.979509e-01 -1.424145e+00 -2.498325e-02 -8.141242e-06 -8.728907e-01 -6.697570e-01 8.473528e-02 2.950431e-02 -5.001827e-02 1.724974e-01 1.171215e-01
<VARIANCE> 25
 1.514989e+01 3.261373e+01 3.928419e+01 4.508371e+01 3.322417e+01 4.771366e+01 3.626221e+01 3.591996e+01 3.930405e+01 4.785058e+01 3.123156e+01 2.453932e+01 2.988721e+00 3.135125e+00 7.478078e+00 3.948632e+00 7.274012e+00 5.599703e+00 3.419195e+00 4.153494e+00 3.974889e+00 4.615279e+00 3.973158e+00 3.602890e+00 3.914494e-03
<GCONST> 1.003615e+02
<MIXTURE> 36 1.093293e-02
<MEAN> 25
 4.083113e+00 -5.133157e+00 6.947698e+00 2.231234e+00 -1.088521e+01 -5.988126e+00 -6.714993e+00 1.588277e+00 -9.924596e-01 -4.899505e+00 3.254185e+00 -9.694313e-02 4.095141e-01 1.732408e-01 -8.419242e-01 5.803661e-02 1.097973e+00 4.395333e-02 -3.675333e-02 3.439890e-02 2.480844e-01 6.025454e-01 -7.143748e-01 -4.978611e-01 -1.957470e-02
<VARIANCE> 25
 1.073075e+01 1.705759e+01 2.677860e+01 2.145633e+01 2.628706e+01 5.688529e+01 3.452110e+01 3.259872e+01 3.004492e+01 2.722541e+01 3.007505e+01 2.379345e+01 4.033476e-01 6.276526e-01 1.400873e+00 1.036053e+00 1.873044e+00 1.675777e+00 2.089470e+00 1.561533e+00 1.538243e+00 1.627598e+00 1.741656e+00 1.213473e+00 7.939644e-04
<GCONST> 8.097897e+01
<MIXTURE> 37 1.246826e-02
<MEAN> 25
 5.936469e-01 7.701493e+00 1.193235e+01 -5.412143e+00 -7.959056e+00 -1.096582e+00 -4.885522e+00 -8.275226e+00 -3.573768e+00 -8.913748e-01 -3.671419e+00 -1.257336e+00 1.770843e-01 6.811947e-01 -1.365275e+00 3.523221e+00 1.971105e+00 -3.307136e-01 1.104408e+00 4.181875e-01 5.131131e-01 -3.083588e-01 5.055253e-01 -1.052275e-01 -9.502961e-02
<VARIANCE> 25
 1.575034e+01 2.694365e+01 3.139937e+01 5.100864e+01 3.388721e+01 3.254358e+01 4.625212e+01 3.465477e+01 3.890277e+01 3.535807e+01 3.801743e+01 3.038308e+01 2.903964e+00 3.413460e+00 2.967395e+00 4.182368e+00 4.577569e+00 3.837572e+00 4.163147e+00 3.768110e+00 3.426687e+00 3.601731e+00 3.949522e+00 2.757404e+00 3.865330e-03
<GCONST> 9.781641e+01
<MIXTURE> 38 1.154525e-02
<MEAN> 25
 -4.309556e+00 8.855195e+00 3.550927e+00 1.693726e+00 1.769826e+00 -5.234061e+00 -5.627066e-01 -2.863374e+00 -3.531304e+00 -2.548870e+00 -1.271454e+00 2.746894e-01 -4.403167e+00 1.230432e+00 -1.835441e-01 1.077867e+00 2.628075e+00 6.943829e-01 1.866348e+00 9.829884e-01 9.243414e-01 7.422037e-01 6.474409e-01 4.289448e-01 5.204361e-02
<VARIANCE> 25
 3.189281e+01 2.653910e+01 4.164124e+01 4.857740e+01 4.759872e+01 3.123637e+01 3.312215e+01 3.738851e+01 3.265182e+01 2.995056e+01 2.230065e+01 2.875827e+01 2.123495e+00 3.416028e+00 3.519621e+00 5.032819e+00 3.622631e+00 7.958605e+00 5.085626e+00 4.070606e+00 4.338728e+00 4.230052e+00 4.239854e+00 2.943009e+00 1.819215e-03
<GCONST> 9.844707e+01
<MIXTURE> 39 9.501865e-03
<MEAN> 25
 1.195841e+00 -5.003784e-01 9.670878e+00 -7.488778e+00 -1.168086e+01 1.344509e+00 -4.362774e+00 -5.361712e+00 -2.925728e+00 -7.960765e-01 -4.178404e+00 -2.483709e+00 -5.454793e-01 1.456414e+00 1.650110e+00 -1.351677e+00 2.379532e-01 1.178745e+00 -1.837297e+00 -1.019307e+00 6.029796e-01 9.510384e-02 -5.395296e-01 3.114549e-01 -4.317785e-04
<VARIANCE> 25
 7.934697e+00 4.314191e+01 2.497880e+01 3.512855e+01 2.989147e+01 4.355313e+01 4.117334e+01 2.776310e+01 3.475922e+01 3.107885e+01 2.831352e+01 2.305990e+01 6.079613e-01 1.225178e+00 1.239806e+00 2.220604e+00 1.964220e+00 2.216277e+00 3.467119e+00 2.222842e+00 1.881446e+00 2.304377e+00 1.795410e+00 1.757543e+00 9.101843e-04
<GCONST> 8.608453e+01
<MIXTURE> 40 1.030800e-02
<MEAN> 25
 -6.429391e+00 5.131383e+00 -2.254969e+00 5.514742e+00 6.478942e+00 2.627936e+00 7.482458e+00 6.989311e+00 3.439956e+00 4.312623e+00 4.472291e+00 4.751655e-01 -7.411659e-02 -1.216413e-01 -7.310141e-02 -1.810960e-01 -6.976844e-02 -8.827625e-02 3.410719e-02 -3.244668e-02 1.437756e-02 -8.993472e-02 -1.078449e-01 1.200463e-02 2.022889e-03
<VARIANCE> 25
 3.196145e+01 2.021852e+01 2.006635e+01 2.498058e+01 2.330292e+01 2.186495e+01 2.017534e+01 1.952270e+01 1.481927e+01 1.336223e+01 1.583555e+01 1.452756e+01 4.759204e-01 5.335137e-01 7.226545e-01 1.061915e+00 8.274390e-01 1.372082e+00 1.074243e+00 1.200111e+00 1.321637e+00 9.237393e-01 1.128713e+00 9.007271e-01 5.387376e-04
<GCONST> 7.300657e+01
<MIXTURE> 41 6.713375e-03
<MEAN> 25
 1.330730e+00 1.784957e+00 1.051500e+01 -6.646562e+00 -1.050595e+01 -3.822576e+00 -2.300343e+00 -5.084053e+00 -4.538997e+00 2.758060e+00 -1.733327e+00 -9.266564e-01 6.579855e-02 -8.466797e-01 1.696754e+00 -3.424478e+00 -2.565669e+00 -1.216989e-01 -5.200972e-01 -3.356376e-01 -8.596351e-01 1.091664e+00 -9.323933e-01 1.663865e-01 8.812295e-02
<VARIANCE> 25
 1.144360e+01 2.899426e+01 3.198738e+01 4.275887e+01 3.790586e+01 3.921753e+01 3.751249e+01 2.918589e+01 3.279034e+01 2.843262e+01 3.109012e+01 2.657446e+01 3.103764e+00 3.509578e+00 3.729255e+00 4.379188e+00 5.202662e+00 5.737730e+00 4.602902e+00 4.460580e+00 3.921721e+00 4.121808e+00 4.218196e+00 3.406823e+00 2.989578e-03
<GCONST> 9.806423e+01
<MIXTURE> 42 1.106211e-02
<MEAN> 25
 -2.105020e+00 3.787572e+00 3.214879e+00 2.066762e+00 1.356593e+00 -7.124969e+00 -1.008006e+00 -3.059349e+00 -6.426883e-01 -6.500264e-01 -2.287313e+00 1.599242e+00 3.722995e+00 -1.066733e+00 1.805692e+00 8.220817e-01 -3.654883e+00 -7.195240e-01 -2.599284e+00 -6.423363e-01 -3.507741e-01 -1.117457e+00 8.113148e-01 -1.144663e+00 2.844520e-02
<VARIANCE> 25
 3.082679e+01 2.252050e+01 4.577577e+01 2.458921e+01 4.349160e+01 3.430037e+01 3.214981e+01 2.611875e+01 2.704639e+01 2.320410e+01 1.639218e+01 1.492488e+01 3.499926e+00 5.965665e+00 5.228316e+00 5.643254e+00 5.433865e+00 5.451333e+00 4.833707e+00 4.252538e+00 4.674837e+00 4.431277e+00 3.830517e+00 2.959712e+00 4.596464e-03
<GCONST> 9.840975e+01
<MIXTURE> 43 7.108249e-03
<MEAN> 25
 2.824432e+00 -6.879871e+00 -1.991122e+00 -4.663607e+00 -7.858864e+00 -2.805301e+00 3.913200e+00 1.261558e+00 -4.643886e+00 -7.006048e+00 -4.261486e+00 -1.419952e+00 1.632008e-01 2.139728e+00 1.967345e+00 -2.017789e-01 -1.354933e+00 -7.379960e-01 -9.642130e-01 -9.029368e-01 8.164767e-01 1.386794e+00 3.235909e-01 1.294150e-02 -4.097723e-02
<VARIANCE> 25
 9.996624e+00 2.140139e+01 2.628835e+01 3.494441e+01 3.753038e+01 3.784648e+01 3.208152e+01 3.713755e+01 3.812437e+01 3.533990e+01 2.429350e+01 2.738493e+01 7.123700e-01 1.150202e+00 1.506812e+00 2.360673e+00 2.294460e+00 2.362400e+00 2.714838e+00 2.928972e+00 2.387142e+00 2.438196e+00 2.163096e+00 1.775823e+00 1.041153e-03
<GCONST> 8.725620e+01
<MIXTURE> 44 7.328289e-03
<MEAN> 25
 -1.520402e+01 1.699116e+00 3.444673e+00 -3.251439e+00 3.526520e+00 2.034782e+00 1.200850e-01 2.577384e+00 1.513197e+00 -7.179079e-01 1.800606e+00 1.938614e+00 -1.620551e-01 1.048245e-03 1.666911e-01 2.997746e-01 -1.137455e-01 1.816711e-01 4.609561e-01 1.050366e-01 2.561679e-01 1.397382e-01 5.589624e-02 9.182418e-02 4.587063e-03
<VARIANCE> 25
 4.327626e+01 2.876844e+01 3.549818e+01 2.993355e+01 3.014772e+01 3.010371e+01 2.609949e+01 3.256786e+01 2.748087e+01 2.720446e+01 2.690779e+01 1.943940e+01 1.210096e+00 1.526877e+00 1.389640e+00 1.337881e+00 2.141230e+00 1.674548e+00 1.502759e+00 1.639266e+00 1.587283e+00 1.484139e+00 1.368855e+00 1.223220e+00 1.279434e-03
<GCONST> 8.459837e+01
<MIXTURE> 45 1.364932e-02
<MEAN> 25
 -1.222588e+01 5.362436e+00 -3.358985e-01 1.941084e+00 6.785492e+00 -1.505073e+00 4.374197e+00 1.900411e+00 2.059519e+00 2.357723e+00 6.336234e-01 3.399237e+00 -3.123341e+00 4.088425e-01 -5.725358e-01 -2.778332e-01 5.967612e-01 -2.586513e-01 1.908507e-01 -1.534424e-02 2.067941e-01 3.403839e-01 -4.450396e-02 2.479560e-01 1.110103e-01
<VARIANCE> 25
 2.995590e+01 3.103257e+01 2.967304e+01 3.390034e+01 2.782880e+01 2.929541e+01 2.363555e+01 2.296550e+01 2.244214e+01 1.821090e+01 3.145850e+01 1.608296e+01 2.611930e+00 2.444239e+00 2.770097e+00 2.300190e+00 2.427412e+00 2.436313e+00 2.057359e+00 1.769650e+00 2.370508e+00 1.997696e+00 1.729793e+00 1.336003e+00 3.227697e-03
<GCONST> 8.836701e+01
<MIXTURE> 46 9.336259e-03
<MEAN> 25
 -9.254467e+00 2.512032e+00 9.561437e-01 7.247005e+00 6.068391e+00 3.189908e+00 7.184204e+00 4.661592e+00 5.579293e+00 4.666406e+00 4.901476e+00 2.863299e+00 1.039750e+00 -2.352898e-01 2.763420e-02 9.530183e-01 5.757830e-01 9.461483e-01 3.539660e-01 6.879243e-01 4.681371e-01 4.763550e-01 6.604360e-01 5.171829e-01 -1.021288e-01
<VARIANCE> 25
 3.451145e+01 4.380621e+01 3.899910e+01 5.149374e+01 4.974784e+01 4.100684e+01 3.659488e+01 3.614909e+01 3.304079e+01 3.046322e+01 2.806936e+01 2.040064e+01 3.813440e+00 4.042087e+00 3.781254e+00 4.144361e+00 4.179200e+00 3.683168e+00 3.324021e+00 3.073127e+00 2.965440e+00 2.816262e+00 2.304146e+00 1.768797e+00 8.100686e-03
<GCONST> 9.820225e+01
<MIXTURE> 47 7.116147e-03
<MEAN> 25
 7.008075e+00 -8.533637e+00 -7.211453e+00 -6.305988e+00 5.010079e-01 2.587859e+00 -2.689379e+00 9.967314e-01 2.908026e+00 6.104196e-03 -3.697789e+00 -7.039921e+00 -1.757874e-01 -1.304543e+00 -7.041678e-01 -2.479184e-01 4.843948e-01 8.390166e-01 7.380918e-01 4.575687e-01 6.977560e-02 -1.064650e+00 -5.351297e-01 -4.726935e-01 3.090211e-02
<VARIANCE> 25
 9.934138e+00 2.611892e+01 1.974897e+01 2.915631e+01 3.720465e+01 6.347720e+01 3.979470e+01 3.607025e+01 3.773491e+01 4.171665e+01 4.424290e+01 2.981128e+01 4.583811e-01 7.156532e-01 9.968073e-01 1.651518e+00 1.870830e+00 2.137358e+00 2.128748e+00 2.344249e+00 1.927590e+00 2.081758e+00 1.974962e+00 1.881832e+00 5.055895e-04
<GCONST> 8.493356e+01
<MIXTURE> 48 7.116147e-03
<MEAN> 25
 7.008075e+00 -8.533637e+00 -7.211453e+00 -6.305988e+00 5.010079e-01 2.587859e+00 -2.689379e+00 9.967314e-01 2.908026e+00 6.104196e-03 -3.697789e+00 -7.039921e+00 -1.757874e-01 -1.304543e+00 -7.041678e-01 -2.479184e-01 4.843948e-01 8.390166e-01 7.380918e-01 4.575687e-01 6.977560e-02 -1.064650e+00 -5.351297e-01 -4.726935e-01 3.090211e-02
<VARIANCE> 25
 9.934138e+00 2.611892e+01 1.974897e+01 2.915631e+01 3.720465e+01 6.347720e+01 3.979470e+01 3.607025e+01 3.773491e+01 4.171665e+01 4.424290e+01 2.981128e+01 4.583811e-01 7.156532e-01 9.968073e-01 1.651518e+00 1.870830e+00 2.137358e+00 2.128748e+00 2.344249e+00 1.927590e+00 2.081758e+00 1.974962e+00 1.881832e+00 5.055895e-04
<GCONST> 8.493356e+01
<MIXTURE> 49 5.548473e-03
<MEAN> 25
 -4.679989e+00 1.695048e+00 -4.893314e-01 7.560751e+00 6.963836e+00 4.832298e+00 7.049290e+00 5.436397e+00 4.138184e+00 3.927237e+00 4.846303e+00 2.467674e+00 3.673566e-01 5.888370e-01 6.355207e-01 3.173045e-01 -1.404983e-01 -6.080871e-01 -1.111074e+00 -1.024127e+00 -8.182117e-01 -6.829482e-01 -5.374107e-01 -2.195066e-01 1.033367e-04
<VARIANCE> 25
 8.828078e+00 1.641818e+01 1.499206e+01 1.818799e+01 1.652776e+01 1.846836e+01 2.239516e+01 2.165948e+01 2.002490e+01 1.650499e+01 1.834936e+01 1.352299e+01 2.444404e-01 2.544791e-01 3.420549e-01 6.140863e-01 8.532794e-01 1.008854e+00 9.889031e-01 9.691913e-01 1.265092e+00 1.096767e+00 1.275558e+00 1.135062e+00 1.469775e-05
<GCONST> 6.479128e+01
<MIXTURE> 50 6.234641e-03
<MEAN> 25
 -4.571560e+00 4.674648e-01 -1.629678e+00 5.935756e+00 4.470648e+00 2.070493e+00 3.984922e+00 2.240705e+00 2.667952e+00 1.432150e+00 2.002329e+00 2.735283e+00 4.992783e-02 1.737479e-01 8.733669e-02 -1.991872e-01 -5.314057e-01 -5.644220e-01 -3.764017e-01 -4.608222e-02 4.500294e-01 7.359901e-01 6.991019e-01 4.462764e-01 -3.552163e-05
<VARIANCE> 25
 1.028846e+01 1.423008e+01 1.459083e+01 1.637063e+01 1.596852e+01 1.938666e+01 1.958802e+01 2.100572e+01 1.837154e+01 1.691319e+01 2.172616e+01 1.490392e+01 1.404168e-01 2.351292e-01 3.687933e-01 5.209683e-01 6.046399e-01 7.699902e-01 9.885303e-01 1.114672e+00 1.037154e+00 9.458601e-01 9.667563e-01 1.009689e+00 1.029689e-06
<GCONST> 6.012572e+01
<MIXTURE> 51 6.234641e-03
<MEAN> 25
 -4.571560e+00 4.674648e-01 -1.629678e+00 5.935756e+00 4.470648e+00 2.070493e+00 3.984922e+00 2.240705e+00 2.667952e+00 1.432150e+00 2.002329e+00 2.735283e+00 4.992783e-02 1.737479e-01 8.733669e-02 -1.991872e-01 -5.314057e-01 -5.644220e-01 -3.764017e-01 -4.608222e-02 4.500294e-01 7.359901e-01 6.991019e-01 4.462764e-01 -3.552163e-05
<VARIANCE> 25
 1.028846e+01 1.423008e+01 1.459083e+01 1.637063e+01 1.596852e+01 1.938666e+01 1.958802e+01 2.100572e+01 1.837154e+01 1.691319e+01 2.172616e+01 1.490392e+01 1.404168e-01 2.351292e-01 3.687933e-01 5.209683e-01 6.046399e-01 7.699902e-01 9.885303e-01 1.114672e+00 1.037154e+00 9.458601e-01 9.667563e-01 1.009689e+00 1.029689e-06
<GCONST> 6.012572e+01
<MIXTURE> 52 6.367945e-03
<MEAN> 25
 8.938841e+00 1.640400e+00 -6.261816e+00 -1.410004e+01 -4.832417e+00 1.035340e+01 -3.055909e+00 -4.665691e+00 -3.885063e+00 -2.799215e+00 4.217893e+00 1.180657e+00 -4.479880e-01 -5.244269e-01 6.965373e-03 1.228658e+00 1.297467e+00 -4.942705e-01 -8.055916e-01 -1.033511e+00 1.281706e-01 1.282678e+00 6.652986e-01 -6.156517e-01 -9.572508e-03
<VARIANCE> 25
 1.641592e+01 1.901198e+01 2.210555e+01 3.622004e+01 4.355410e+01 4.898598e+01 4.183181e+01 5.909424e+01 4.027400e+01 4.346304e+01 4.050537e+01 2.788291e+01 4.558887e-01 1.322844e+00 1.229763e+00 2.666198e+00 2.201835e+00 2.517252e+00 2.969722e+00 3.730128e+00 2.731845e+00 2.449009e+00 3.004112e+00 2.254544e+00 1.699297e-03
<GCONST> 9.058624e+01
<MIXTURE> 53 6.367945e-03
<MEAN> 25
 8.938841e+00 1.640400e+00 -6.261816e+00 -1.410004e+01 -4.832417e+00 1.035340e+01 -3.055909e+00 -4.665691e+00 -3.885063e+00 -2.799215e+00 4.217893e+00 1.180657e+00 -4.479880e-01 -5.244269e-01 6.965373e-03 1.228658e+00 1.297467e+00 -4.942705e-01 -8.055916e-01 -1.033511e+00 1.281706e-01 1.282678e+00 6.652986e-01 -6.156517e-01 -9.572508e-03
<VARIANCE> 25
 1.641592e+01 1.901198e+01 2.210555e+01 3.622004e+01 4.355410e+01 4.898598e+01 4.183181e+01 5.909424e+01 4.027400e+01 4.346304e+01 4.050537e+01 2.788291e+01 4.558887e-01 1.322844e+00 1.229763e+00 2.666198e+00 2.201835e+00 2.517252e+00 2.969722e+00 3.730128e+00 2.731845e+00 2.449009e+00 3.004112e+00 2.254544e+00 1.699297e-03
<GCONST> 9.058624e+01
<MIXTURE> 54 7.368620e-03
<MEAN> 25
 -3.605379e+00 5.179312e-01 -8.967538e-01 7.710358e+00 6.684570e+00 4.286827e+00 5.049490e+00 4.949254e+00 4.014035e+00 3.631088e+00 4.312165e+00 2.184484e+00 -8.898363e-03 2.460684e-02 3.036100e-02 3.823271e-02 2.540914e-02 3.472798e-02 3.452890e-02 1.454757e-02 4.248824e-02 1.755658e-02 -1.321449e-02 1.826974e-02 -3.973200e-05
<VARIANCE> 25
 8.716275e+00 1.379239e+01 9.935597e+00 1.937839e+01 1.340541e+01 1.554432e+01 1.410602e+01 1.323005e+01 1.107942e+01 1.298559e+01 1.759365e+01 1.234842e+01 4.095498e-02 8.818350e-02 1.518147e-01 2.482614e-01 3.133150e-01 4.088933e-01 4.813586e-01 5.224568e-01 5.233071e-01 5.143560e-01 5.187189e-01 5.230436e-01 1.085100e-06
<GCONST> 4.822702e+01
<MIXTURE> 55 7.368620e-03
<MEAN> 25
 -3.605379e+00 5.179312e-01 -8.967538e-01 7.710358e+00 6.684570e+00 4.286827e+00 5.049490e+00 4.949254e+00 4.014035e+00 3.631088e+00 4.312165e+00 2.184484e+00 -8.898363e-03 2.460684e-02 3.036100e-02 3.823271e-02 2.540914e-02 3.472798e-02 3.452890e-02 1.454757e-02 4.248824e-02 1.755658e-02 -1.321449e-02 1.826974e-02 -3.973200e-05
<VARIANCE> 25
 8.716275e+00 1.379239e+01 9.935597e+00 1.937839e+01 1.340541e+01 1.554432e+01 1.410602e+01 1.323005e+01 1.107942e+01 1.298559e+01 1.759365e+01 1.234842e+01 4.095498e-02 8.818350e-02 1.518147e-01 2.482614e-01 3.133150e-01 4.088933e-01 4.813586e-01 5.224568e-01 5.233071e-01 5.143560e-01 5.187189e-01 5.230436e-01 1.085100e-06
<GCONST> 4.822702e+01
<MIXTURE> 56 6.132464e-03
<MEAN> 25
 7.555863e+00 -6.793122e+00 -9.152737e+00 -8.657577e+00 3.947694e+00 3.945796e+00 -2.181541e+00 -1.473297e+00 1.957650e+00 6.502215e-01 -2.484237e+00 -7.150235e+00 -1.078007e-02 2.433183e-02 -8.595411e-02 2.341424e-02 2.570502e-01 6.541524e-02 1.147012e-01 -1.350171e-01 -4.700546e-02 -3.884538e-02 -8.456036e-02 1.914267e-02 -7.025058e-03
<VARIANCE> 25
 9.329000e+00 2.340237e+01 2.000056e+01 4.121981e+01 3.328624e+01 5.108351e+01 6.189740e+01 3.680430e+01 3.890014e+01 3.768270e+01 4.021556e+01 3.110786e+01 2.059793e-01 4.333865e-01 4.529601e-01 7.739531e-01 7.993209e-01 1.113028e+00 9.088421e-01 9.126385e-01 9.082016e-01 9.300283e-01 1.036458e+00 7.845355e-01 2.400916e-04
<GCONST> 7.516081e+01
<MIXTURE> 57 6.132464e-03
<MEAN> 25
 7.555863e+00 -6.793122e+00 -9.152737e+00 -8.657577e+00 3.947694e+00 3.945796e+00 -2.181541e+00 -1.473297e+00 1.957650e+00 6.502215e-01 -2.484237e+00 -7.150235e+00 -1.078007e-02 2.433183e-02 -8.595411e-02 2.341424e-02 2.570502e-01 6.541524e-02 1.147012e-01 -1.350171e-01 -4.700546e-02 -3.884538e-02 -8.456036e-02 1.914267e-02 -7.025058e-03
<VARIANCE> 25
 9.329000e+00 2.340237e+01 2.000056e+01 4.121981e+01 3.328624e+01 5.108351e+01 6.189740e+01 3.680430e+01 3.890014e+01 3.768270e+01 4.021556e+01 3.110786e+01 2.059793e-01 4.333865e-01 4.529601e-01 7.739531e-01 7.993209e-01 1.113028e+00 9.088421e-01 9.126385e-01 9.082016e-01 9.300283e-01 1.036458e+00 7.845355e-01 2.400916e-04
<GCONST> 7.516081e+01
<MIXTURE> 58 6.172147e-03
<MEAN> 25
 2.396531e+00 -4.287699e+00 7.654964e+00 -4.466893e+00 -1.330067e+01 -2.897130e+00 -9.059588e-01 2.240660e-01 -1.332109e+00 -2.081529e-01 1.563328e-01 -1.070258e+00 -6.341759e-02 -2.155359e-01 -2.201489e-01 -9.771483e-02 -1.285556e-01 8.926611e-02 5.182849e-01 4.071412e-01 -1.308711e-02 -3.708862e-02 1.309551e-01 -2.461500e-01 -1.140334e-03
<VARIANCE> 25
 7.637348e+00 1.627212e+01 1.866494e+01 2.313340e+01 2.079185e+01 5.941319e+01 4.534155e+01 2.995902e+01 2.864388e+01 3.525256e+01 2.079789e+01 1.662611e+01 2.660836e-01 7.211171e-01 9.151430e-01 9.800313e-01 9.285991e-01 1.248477e+00 1.154016e+00 1.414275e+00 1.081809e+00 9.274158e-01 9.367720e-01 8.071414e-01 6.200548e-04
<GCONST> 7.514977e+01
<MIXTURE> 59 6.172147e-03
<MEAN> 25
 2.396531e+00 -4.287699e+00 7.654964e+00 -4.466893e+00 -1.330067e+01 -2.897130e+00 -9.059588e-01 2.240660e-01 -1.332109e+00 -2.081529e-01 1.563328e-01 -1.070258e+00 -6.341759e-02 -2.155359e-01 -2.201489e-01 -9.771483e-02 -1.285556e-01 8.926611e-02 5.182849e-01 4.071412e-01 -1.308711e-02 -3.708862e-02 1.309551e-01 -2.461500e-01 -1.140334e-03
<VARIANCE> 25
 7.637348e+00 1.627212e+01 1.866494e+01 2.313340e+01 2.079185e+01 5.941319e+01 4.534155e+01 2.995902e+01 2.864388e+01 3.525256e+01 2.079789e+01 1.662611e+01 2.660836e-01 7.211171e-01 9.151430e-01 9.800313e-01 9.285991e-01 1.248477e+00 1.154016e+00 1.414275e+00 1.081809e+00 9.274158e-01 9.367720e-01 8.071414e-01 6.200548e-04
<GCONST> 7.514977e+01
<MIXTURE> 60 4.479129e-03
<MEAN> 25
 -4.257285e+00 -6.439434e-01 -1.092381e+00 3.698654e+00 1.757968e+00 2.099364e+00 1.657848e+00 1.543415e+00 2.156502e+00 1.274471e+00 2.390874e+00 1.913703e+00 -2.846527e-02 5.842765e-02 9.928847e-02 1.283309e-01 1.275699e-01 1.312346e-01 1.791647e-01 3.256432e-01 5.458027e-01 6.613316e-01 5.575764e-01 3.018955e-01 -4.108080e-04
<VARIANCE> 25
 6.927429e+00 4.654202e+00 1.026606e+01 1.128308e+01 1.375328e+01 1.708650e+01 1.408776e+01 1.187647e+01 1.268794e+01 1.319319e+01 1.591566e+01 1.225746e+01 8.665978e-02 1.690549e-01 2.795434e-01 4.319249e-01 5.866039e-01 7.270543e-01 8.257709e-01 8.994861e-01 9.002612e-01 8.365910e-01 8.373101e-01 8.623686e-01 2.302581e-05
<GCONST> 5.637061e+01
<MIXTURE> 61 4.479129e-03
<MEAN> 25
 -4.257285e+00 -6.439434e-01 -1.092381e+00 3.698654e+00 1.757968e+00 2.099364e+00 1.657848e+00 1.543415e+00 2.156502e+00 1.274471e+00 2.390874e+00 1.913703e+00 -2.846527e-02 5.842765e-02 9.928847e-02 1.283309e-01 1.275699e-01 1.312346e-01 1.791647e-01 3.256432e-01 5.458027e-01 6.613316e-01 5.575764e-01 3.018955e-01 -4.108080e-04
<VARIANCE> 25
 6.927429e+00 4.654202e+00 1.026606e+01 1.128308e+01 1.375328e+01 1.708650e+01 1.408776e+01 1.187647e+01 1.268794e+01 1.319319e+01 1.591566e+01 1.225746e+01 8.665978e-02 1.690549e-01 2.795434e-01 4.319249e-01 5.866039e-01 7.270543e-01 8.257709e-01 8.994861e-01 9.002612e-01 8.365910e-01 8.373101e-01 8.623686e-01 2.302581e-05
<GCONST> 5.637061e+01
<MIXTURE> 62 3.278034e-03
<MEAN> 25
 -5.062463e+00 1.376362e+00 9.264785e-01 8.640945e+00 6.155522e+00 4.921787e+00 5.634225e+00 4.152165e+00 4.981359e+00 3.973263e+00 4.904796e+00 2.896558e+00 -9.897399e-01 -1.156126e+00 -9.442906e-01 -2.808840e-01 4.296988e-01 1.022052e+00 1.365902e+00 1.558390e+00 1.466354e+00 1.223915e+00 1.079333e+00 7.131357e-01 -1.378334e-03
<VARIANCE> 25
 9.762160e+00 1.087972e+01 1.349130e+01 1.838718e+01 1.717587e+01 1.822400e+01 2.044864e+01 1.965567e+01 1.855985e+01 1.861798e+01 2.153071e+01 1.473869e+01 4.060693e-01 4.352346e-01 5.517876e-01 7.689151e-01 1.021018e+00 1.192092e+00 1.254191e+00 1.261562e+00 1.318952e+00 1.365399e+00 1.404280e+00 1.361034e+00 1.684031e-05
<GCONST> 6.778285e+01
<MIXTURE> 63 4.351215e-03
<MEAN> 25
 -3.848024e+00 -6.005387e-01 -4.770571e+00 2.435557e+00 4.549054e+00 -5.037622e-01 3.961675e+00 2.664063e+00 2.030704e+00 -2.573475e-01 -9.419011e-01 2.143942e+00 -8.109476e-02 3.215934e-01 4.000555e-01 4.565413e-01 3.359111e-01 3.499340e-01 3.695078e-01 1.371862e-01 1.381817e-01 2.119824e-01 1.752510e-01 1.459485e-01 -3.746375e-03
<VARIANCE> 25
 8.081362e+00 2.831094e+01 1.454420e+01 1.528379e+01 2.123265e+01 2.424765e+01 2.599337e+01 2.898469e+01 2.296094e+01 2.076789e+01 1.893337e+01 1.568305e+01 2.455570e-01 4.148208e-01 5.695540e-01 6.624931e-01 8.377290e-01 1.257233e+00 1.219628e+00 1.380955e+00 1.322901e+00 1.265718e+00 1.452950e+00 1.300039e+00 1.788694e-04
<GCONST> 7.134990e+01
<MIXTURE> 64 4.351215e-03
<MEAN> 25
 -3.848024e+00 -6.005387e-01 -4.770571e+00 2.435557e+00 4.549054e+00 -5.037622e-01 3.961675e+00 2.664063e+00 2.030704e+00 -2.573475e-01 -9.419011e-01 2.143942e+00 -8.109476e-02 3.215934e-01 4.000555e-01 4.565413e-01 3.359111e-01 3.499340e-01 3.695078e-01 1.371862e-01 1.381817e-01 2.119824e-01 1.752510e-01 1.459485e-01 -3.746375e-03
<VARIANCE> 25
 8.081362e+00 2.831094e+01 1.454420e+01 1.528379e+01 2.123265e+01 2.424765e+01 2.599337e+01 2.898469e+01 2.296094e+01 2.076789e+01 1.893337e+01 1.568305e+01 2.455570e-01 4.148208e-01 5.695540e-01 6.624931e-01 8.377290e-01 1.257233e+00 1.219628e+00 1.380955e+00 1.322901e+00 1.265718e+00 1.452950e+00 1.300039e+00 1.788694e-04
<GCONST> 7.134990e+01
<MIXTURE> 65 1.721197e-02
<MEAN> 25
 7.797618e+00 1.837246e+00 2.396887e+00 7.794197e-01 -5.294913e+00 -4.115687e+00 -5.456779e+00 -6.480693e+00 -3.630606e+00 -2.232884e+00 -5.381802e+00 -1.867015e+00 1.463187e-01 1.166907e-01 5.876840e-02 5.634377e-02 -1.683454e-01 2.785853e-01 -1.295453e-01 -1.379446e-01 1.995294e-01 -2.829649e-02 -5.450848e-02 -1.586528e-01 -3.848196e-03
<VARIANCE> 25
 1.015596e+01 2.224829e+01 2.823860e+01 3.447169e+01 3.677774e+01 5.891546e+01 5.904115e+01 5.612707e+01 5.214973e+01 5.452786e+01 5.333299e+01 4.790859e+01 5.960475e-01 8.846589e-01 1.549299e+00 1.804363e+00 1.935980e+00 2.147758e+00 2.316151e+00 2.876206e+00 2.500675e+00 2.400511e+00 2.475234e+00 2.034788e+00 4.667081e-04
<GCONST> 8.928220e+01
<MIXTURE> 66 1.191532e-02
<MEAN> 25
 6.603232e+00 -3.876389e+00 -5.635336e+00 -4.425411e+00 1.445091e+00 -5.229264e+00 -6.853334e+00 1.137401e+00 5.158555e-01 -1.752329e+00 -5.861110e+00 -3.345783e+00 -6.171476e-02 1.670509e+00 2.178167e+00 2.249771e+00 -1.135701e+00 -1.320303e+00 1.212727e-01 -5.007105e-01 -1.023884e-01 -2.227934e-01 -2.043493e-01 9.856370e-01 -6.547426e-02
<VARIANCE> 25
 8.835581e+00 2.316342e+01 2.608700e+01 3.666116e+01 3.819200e+01 5.467542e+01 5.434279e+01 4.399939e+01 5.294245e+01 6.697230e+01 3.777552e+01 3.567622e+01 1.246780e+00 2.368742e+00 2.368858e+00 2.496241e+00 4.463877e+00 4.286882e+00 4.324700e+00 4.747347e+00 4.186817e+00 4.871175e+00 3.789007e+00 3.284215e+00 1.492745e-03
<GCONST> 9.679759e+01
<MIXTURE> 67 1.559142e-02
<MEAN> 25
 6.725691e+00 6.319830e-01 -5.314928e+00 -7.163054e+00 4.915184e-01 4.821224e+00 -4.624267e+00 -4.897561e+00 -2.734371e+00 6.651650e-01 1.976397e+00 -2.151035e+00 -4.510581e-01 1.881145e+00 6.639478e-01 2.277804e+00 2.003593e+00 -1.444017e+00 1.402328e+00 5.108873e-01 -3.842396e-01 4.969732e-01 -6.858240e-01 6.174554e-01 -1.289715e-01
<VARIANCE> 25
 1.479329e+01 3.536215e+01 2.123786e+01 4.599110e+01 3.952167e+01 6.038221e+01 5.067845e+01 6.314421e+01 4.815516e+01 4.466465e+01 6.629823e+01 3.420606e+01 1.994952e+00 2.645207e+00 2.457582e+00 3.963858e+00 4.534437e+00 4.891794e+00 3.643267e+00 4.920622e+00 4.272301e+00 3.739906e+00 4.238911e+00 3.226608e+00 2.105243e-03
<GCONST> 9.948859e+01
<MIXTURE> 68 1.485092e-02
<MEAN> 25
 -1.924019e+00 -2.020282e+00 -4.602108e+00 9.815159e-01 5.931922e+00 -9.322633e-01 2.139426e+00 1.445575e+00 1.866841e+00 2.112109e+00 1.802073e-01 1.955247e+00 2.659024e+00 3.661156e-01 2.719917e-01 -2.463472e+00 -2.646359e+00 -1.347783e+00 -2.304288e+00 -1.664569e+00 -1.451798e+00 -1.599398e+00 -1.623077e+00 -1.004803e+00 1.021087e-01
<VARIANCE> 25
 2.379272e+01 3.138161e+01 5.778759e+01 5.010036e+01 4.807901e+01 5.394273e+01 4.373430e+01 4.274331e+01 3.775136e+01 4.950232e+01 3.507922e+01 2.466640e+01 1.851567e+00 3.869754e+00 6.376614e+00 5.599045e+00 4.908448e+00 6.016284e+00 5.284066e+00 4.794335e+00 5.021150e+00 4.991055e+00 5.903136e+00 3.248379e+00 5.688786e-03
<GCONST> 1.033912e+02
<MIXTURE> 69 1.204884e-02
<MEAN> 25
 4.669961e+00 -4.216814e+00 -3.567006e+00 -3.622633e+00 -3.492739e+00 -7.874609e+00 -1.103293e+00 2.214687e+00 -3.419694e-01 -4.715726e+00 -5.680918e+00 9.491482e-01 1.673072e+00 -2.234171e+00 -1.339464e+00 -2.245567e+00 -5.290061e-01 -3.411407e-01 -4.721145e-01 6.119071e-01 -6.423346e-01 -1.456129e+00 -2.202845e+00 -1.718730e-01 6.257465e-02
<VARIANCE> 25
 8.853956e+00 2.194829e+01 2.670794e+01 2.602634e+01 4.275267e+01 3.579201e+01 4.891576e+01 3.155590e+01 3.971364e+01 3.824103e+01 3.106075e+01 2.468861e+01 3.560788e+00 2.923635e+00 3.341313e+00 3.695514e+00 5.788286e+00 5.033642e+00 7.111074e+00 6.078299e+00 5.901999e+00 5.884803e+00 4.354300e+00 3.703381e+00 2.446917e-03
<GCONST> 9.871327e+01
<MIXTURE> 70 1.329190e-02
<MEAN> 25
 6.993739e+00 -3.322766e+00 -3.495277e+00 -3.952051e+00 -1.274191e+00 5.396212e-01 -6.971437e+00 -3.842957e+00 7.853767e-01 3.444822e+00 -1.976732e-01 -4.680662e+00 1.912187e+00 -1.454167e+00 -6.247544e-02 -2.024518e+00 -2.211652e+00 1.800372e+00 -1.214852e+00 6.715114e-02 3.525415e-01 -8.830620e-01 8.856382e-01 -1.676594e+00 5.873877e-02
<VARIANCE> 25
 9.646265e+00 2.773101e+01 2.470015e+01 3.995016e+01 3.427459e+01 4.497268e+01 4.397858e+01 3.691938e+01 3.936380e+01 3.013441e+01 3.759049e+01 2.396420e+01 3.006900e+00 3.117636e+00 6.757681e+00 4.292046e+00 6.718068e+00 6.972384e+00 5.723592e+00 6.406985e+00 5.192773e+00 7.620281e+00 5.171340e+00 3.844683e+00 2.136447e-03
<GCONST> 1.006187e+02
<MIXTURE> 71 1.406903e-02
<MEAN> 25
 5.941167e+00 5.287546e+00 3.207721e+00 2.740271e+00 -2.731019e+00 -3.623226e+00 -2.622790e+00 -6.240437e+00 -4.726647e+00 -2.161561e+00 -4.601646e+00 -2.638417e+00 -1.800132e+00 -4.361653e-01 -1.187115e-01 -1.746013e+00 1.409258e+00 -2.901606e-01 1.103827e-01 1.534559e+00 1.883904e-01 4.937751e-02 3.979411e-01 3.961248e-01 4.116051e-02
<VARIANCE> 25
 1.638944e+01 2.584332e+01 2.844313e+01 4.048857e+01 3.613120e+01 4.050803e+01 4.570758e+01 4.258947e+01 3.630180e+01 4.114471e+01 3.335893e+01 3.232882e+01 1.913526e+00 3.009394e+00 4.612680e+00 4.264712e+00 4.685030e+00 6.343565e+00 4.894073e+00 4.886622e+00 3.870312e+00 3.674354e+00 3.500762e+00 3.067694e+00 1.269389e-03
<GCONST> 9.785494e+01
<MIXTURE> 72 8.134747e-03
<MEAN> 25
 3.517379e+00 -3.791172e+00 4.794437e+00 -1.258830e-01 -1.061460e+01 -9.263360e+00 -1.683839e+00 2.453419e+00 -5.295907e+00 -7.137004e-01 -6.625788e-01 2.749117e+00 8.830302e-01 -7.348104e-01 -2.707651e+00 3.418396e-01 2.363155e+00 -7.530462e-01 -1.369976e+00 1.372272e+00 1.621538e+00 -2.809507e-01 -1.286670e+00 4.016914e-01 -2.755065e-03
<VARIANCE> 25
 9.064416e+00 1.585102e+01 2.784471e+01 4.603271e+01 2.930516e+01 2.914217e+01 3.467246e+01 2.932664e+01 3.570204e+01 3.969299e+01 3.582529e+01 3.673838e+01 3.563589e-01 9.065670e-01 1.649351e+00 1.250212e+00 2.031265e+00 2.284098e+00 2.640816e+00 2.529460e+00 2.418255e+00 2.657705e+00 1.814477e+00 2.698346e+00 6.112308e-04
<GCONST> 8.526018e+01
<MIXTURE> 73 1.213625e-02
<MEAN> 25
 -5.560546e+00 -7.431937e-01 -1.359899e+00 4.707262e+00 4.308502e+00 2.433123e+00 5.619632e+00 3.495490e+00 4.325666e+00 3.319085e+00 4.224954e+00 3.134617e+00 8.071005e-01 -9.993455e-01 -9.476792e-01 -2.658521e+00 -1.315105e+00 -1.670272e+00 -9.034473e-01 -4.720186e-01 -8.831765e-01 -7.155132e-01 -1.046718e+00 -2.553205e-01 1.524372e-01
<VARIANCE> 25
 1.291028e+01 1.332905e+01 1.507314e+01 2.445825e+01 2.312930e+01 2.478993e+01 2.050704e+01 1.971576e+01 1.753421e+01 1.940638e+01 2.248748e+01 1.598715e+01 3.970700e+00 3.083174e+00 5.862313e+00 4.594751e+00 6.181670e+00 4.821016e+00 4.221838e+00 4.249035e+00 3.897171e+00 4.161308e+00 3.654707e+00 2.665753e+00 4.522745e-03
<GCONST> 9.281684e+01
<MIXTURE> 74 1.756491e-02
<MEAN> 25
 4.019246e+00 -3.144356e+00 5.197283e+00 8.511361e-02 -7.911446e+00 -5.572883e+00 -3.723490e+00 -5.548559e-01 -2.519466e+00 -2.727817e+00 -5.397877e-01 -2.840872e-01 3.837740e-01 1.929979e+00 -3.656273e-01 1.377147e+00 1.851109e+00 -2.952598e-01 7.213274e-01 -1.081041e+00 -2.066516e-01 6.961524e-01 -1.007982e+00 -4.326565e-01 -7.755733e-02
<VARIANCE> 25
 9.182058e+00 2.539109e+01 4.149428e+01 3.030979e+01 3.092696e+01 5.742633e+01 4.330909e+01 3.543343e+01 3.670359e+01 3.978377e+01 3.388718e+01 2.753627e+01 1.518188e+00 1.625647e+00 3.187400e+00 2.256960e+00 3.256420e+00 4.873114e+00 4.767636e+00 3.479426e+00 3.290534e+00 3.217844e+00 4.061030e+00 2.991350e+00 1.294428e-03
<GCONST> 9.413557e+01
<MIXTURE> 75 9.711651e-03
<MEAN> 25
 2.183978e+00 -3.368029e+00 1.039679e+01 2.305007e+00 -1.154427e+01 -6.634049e+00 -5.679247e+00 -1.123978e+00 -3.105124e+00 -5.922546e+00 4.761385e+00 1.094110e+00 1.464072e+00 -1.728556e+00 6.636013e-01 -6.746002e-02 -2.944211e+00 4.489624e-01 -1.732840e+00 9.108577e-01 -2.895514e-01 -6.518076e-01 1.532929e+00 -1.473139e-01 4.560291e-02
<VARIANCE> 25
 8.232369e+00 1.927102e+01 3.177336e+01 1.908549e+01 2.848794e+01 2.874312e+01 3.217329e+01 2.344467e+01 3.099300e+01 3.003497e+01 1.823205e+01 1.675919e+01 1.819041e+00 1.630262e+00 3.645387e+00 1.872549e+00 3.583950e+00 5.875588e+00 3.277355e+00 2.578437e+00 2.889509e+00 3.237641e+00 2.382634e+00 2.652942e+00 1.481998e-03
<GCONST> 8.906782e+01
<MIXTURE> 76 1.052359e-02
<MEAN> 25
 -5.512347e+00 1.554757e+00 -3.204685e+00 3.417709e+00 6.218067e+00 6.963987e-01 5.745470e+00 4.270154e+00 1.865763e+00 1.662097e+00 1.770641e+00 1.505022e+00 -1.001361e-02 -3.482783e-01 -2.186524e-01 -6.756307e-01 -5.206690e-01 -6.848074e-01 -5.408478e-01 -4.204809e-01 -4.332488e-01 -4.480448e-01 -3.463556e-01 -1.173916e-01 1.692944e-02
<VARIANCE> 25
 2.885740e+01 3.705001e+01 2.281892e+01 2.195792e+01 2.947831e+01 2.874638e+01 2.594933e+01 3.205866e+01 2.069470e+01 2.199666e+01 2.212987e+01 1.990572e+01 8.605051e-01 9.424050e-01 1.263807e+00 1.118785e+00 1.347700e+00 1.582520e+00 1.386043e+00 1.395883e+00 1.464144e+00 1.255659e+00 1.337585e+00 1.121494e+00 1.031294e-03
<GCONST> 8.050461e+01
<MIXTURE> 77 1.244626e-02
<MEAN> 25
 -4.511179e-01 8.101614e+00 1.237842e+01 -1.139393e+01 -7.104407e+00 1.191641e+00 -9.474701e+00 -7.096475e+00 -3.140991e+00 -4.554799e-01 -4.702116e+00 -1.443312e+00 6.196715e-02 1.504774e-01 8.461679e-02 2.410239e-01 -6.354645e-03 7.585155e-02 -1.080637e-01 -6.259810e-02 9.201548e-02 -7.417343e-02 4.536865e-02 1.450295e-01 -9.578951e-03
<VARIANCE> 25
 1.015493e+01 2.649754e+01 2.690178e+01 4.179189e+01 3.254163e+01 3.460070e+01 3.703704e+01 3.144952e+01 3.575699e+01 3.413441e+01 3.654568e+01 3.391999e+01 2.909616e-01 7.757198e-01 6.420296e-01 1.059077e+00 1.249675e+00 9.579033e-01 1.333571e+00 1.050164e+00 1.018182e+00 1.082494e+00 9.551020e-01 9.773570e-01 5.305451e-04
<GCONST> 7.801242e+01
<MIXTURE> 78 9.702551e-03
<MEAN> 25
 -1.089314e+01 3.505152e+00 -4.429008e+00 1.721426e+00 7.182450e+00 -4.071793e+00 2.987982e+00 5.400608e-01 7.412932e-01 2.561337e+00 -1.748971e+00 3.058618e+00 2.444297e+00 -1.219389e-01 -2.760837e-01 5.218219e-01 -5.296778e-02 -1.289478e-02 -6.514695e-02 2.509043e-01 2.163697e-01 -9.354361e-03 -3.478022e-01 -8.520251e-01 -7.137728e-02
<VARIANCE> 25
 3.851732e+01 2.952025e+01 3.670276e+01 2.740035e+01 3.587284e+01 3.008586e+01 2.763169e+01 4.322202e+01 3.004601e+01 2.530764e+01 3.046332e+01 2.271829e+01 3.801899e+00 2.237220e+00 3.437200e+00 2.697949e+00 1.945621e+00 2.558885e+00 2.388592e+00 4.548574e+00 3.304168e+00 1.775373e+00 2.177629e+00 2.077227e+00 4.997180e-03
<GCONST> 9.347755e+01
<MIXTURE> 79 1.156824e-02
<MEAN> 25
 2.445513e+00 1.105926e+00 9.178779e+00 -6.268464e+00 -1.203597e+01 -1.324794e+00 -2.224781e+00 -6.272440e+00 -6.202274e+00 9.135875e-03 -3.224411e+00 -3.139683e+00 1.171287e+00 -4.801139e-01 -1.447964e+00 2.283841e+00 4.094211e-01 -1.497456e+00 6.032624e-01 8.898919e-01 -4.818387e-01 -4.610408e-01 2.453613e-01 2.432042e-01 -3.622689e-02
<VARIANCE> 25
 1.382255e+01 2.718533e+01 3.717459e+01 4.916273e+01 3.263448e+01 4.558509e+01 4.326533e+01 3.605803e+01 3.967549e+01 3.954675e+01 4.378521e+01 2.967262e+01 9.491081e-01 2.244751e+00 1.810528e+00 2.059719e+00 2.447823e+00 2.752912e+00 3.121347e+00 3.414245e+00 2.423747e+00 2.777402e+00 2.736368e+00 1.983368e+00 1.215042e-03
<GCONST> 9.180376e+01
<MIXTURE> 80 7.550998e-03
<MEAN> 25
 -1.460822e+01 3.983818e+00 6.881503e-01 2.866041e+00 2.451216e+00 1.409053e+00 6.396485e+00 2.496394e+00 2.719299e+00 2.374603e+00 4.851125e+00 1.187127e+00 4.285998e+00 -1.613721e-02 1.637306e+00 -1.135629e+00 -2.889107e+00 -2.777045e+00 -2.322999e+00 -2.021603e+00 -1.974890e+00 -1.685001e+00 -1.650550e+00 -6.027632e-01 -4.422219e-02
<VARIANCE> 25
 2.096359e+01 1.984644e+01 3.443977e+01 3.470052e+01 3.019068e+01 2.921294e+01 2.829094e+01 2.855230e+01 2.674208e+01 2.881562e+01 2.686389e+01 1.810779e+01 2.357415e+00 2.665822e+00 2.676160e+00 4.119105e+00 3.394507e+00 2.706083e+00 3.024979e+00 3.203527e+00 2.748660e+00 2.701315e+00 2.782244e+00 2.145375e+00 1.513143e-03
<GCONST> 9.139918e+01
<MIXTURE> 81 8.025434e-03
<MEAN> 25
 -1.104836e+00 3.906074e+00 1.016969e+01 -1.465453e+01 -9.120152e+00 -1.277344e+00 -6.876489e+00 -8.343925e+00 -4.040857e+00 -5.231166e-01 -7.541746e+00 -2.230306e+00 1.309683e-01 -5.772629e-01 -1.983621e-03 -5.462897e-01 -4.578330e-01 3.278461e-01 3.068230e-01 1.421214e-01 -1.368300e-01 9.602202e-02 -4.572473e-01 -1.197330e-01 1.137745e-02
<VARIANCE> 25
 1.004044e+01 3.414761e+01 2.609297e+01 3.040701e+01 3.343038e+01 3.158619e+01 4.572034e+01 2.833686e+01 3.830974e+01 3.223589e+01 2.508694e+01 3.065312e+01 7.622692e-01 2.267017e+00 1.536300e+00 2.844913e+00 2.653798e+00 2.102810e+00 3.317243e+00 2.267547e+00 2.330897e+00 2.523583e+00 2.279765e+00 2.086578e+00 1.168788e-03
<GCONST> 8.869210e+01
<MIXTURE> 82 8.213053e-03
<MEAN> 25
 -9.955717e+00 -3.884982e+00 1.627176e+00 -2.978735e+00 3.131034e+00 6.630024e-01 2.004703e+00 9.381006e-01 2.971417e+00 1.727405e+00 1.740133e+00 3.096186e+00 -1.312687e+00 -1.252894e-01 2.906243e-01 -2.600375e+00 -1.107007e+00 -1.262900e+00 -1.012435e+00 -8.672070e-01 -3.120490e-01 -4.785126e-01 -3.145944e-01 -9.357724e-02 1.782142e-01
<VARIANCE> 25
 1.805884e+01 2.508599e+01 3.244351e+01 3.090164e+01 3.312865e+01 3.241228e+01 3.180066e+01 3.294777e+01 3.081376e+01 2.509536e+01 3.073561e+01 1.753246e+01 3.756678e+00 3.045776e+00 3.317002e+00 3.279545e+00 3.568475e+00 3.295741e+00 2.940842e+00 3.017224e+00 2.805057e+00 2.491941e+00 2.452381e+00 1.864611e+00 3.450951e-03
<GCONST> 9.311401e+01
<MIXTURE> 83 1.167529e-02
<MEAN> 25
 -1.996493e+01 5.969667e+00 -1.818515e+00 1.544797e-02 8.610858e+00 -2.139917e+00 5.064116e+00 2.424743e+00 8.056735e-01 2.720606e+00 -3.102957e-02 3.723977e+00 -7.031967e-02 -6.384519e-01 -3.440508e-01 -3.479698e-01 -3.140894e-01 -1.332224e-01 -2.212527e-01 -1.671884e-01 6.034866e-02 1.549805e-01 4.897361e-02 5.308050e-02 7.622197e-03
<VARIANCE> 25
 7.665087e+00 1.554018e+01 2.490741e+01 2.061469e+01 2.192819e+01 2.536965e+01 2.027052e+01 2.233981e+01 1.933903e+01 2.106160e+01 2.323889e+01 1.670648e+01 1.226492e+00 1.042120e+00 1.774275e+00 9.726272e-01 1.375714e+00 1.175941e+00 1.154029e+00 1.273350e+00 1.248292e+00 1.408731e+00 1.092920e+00 9.780780e-01 9.222786e-04
<GCONST> 7.667577e+01
<MIXTURE> 84 1.066614e-02
<MEAN> 25
 1.203044e+00 9.049162e+00 7.163823e+00 7.917347e+00 2.797424e+00 -1.036185e+00 -1.393738e+00 -4.450642e+00 -4.080787e+00 -2.887870e+00 -2.442470e+00 -1.566476e+00 -1.786990e+00 -1.157317e+00 -1.179943e+00 1.264842e+00 2.243092e+00 1.499796e+00 1.411620e+00 1.292296e+00 1.140413e+00 4.003882e-01 4.067304e-01 4.294570e-01 -7.052263e-02
<VARIANCE> 25
 2.319310e+01 1.804910e+01 2.173735e+01 2.409138e+01 2.885851e+01 2.885184e+01 2.882687e+01 2.663292e+01 2.555418e+01 2.503689e+01 2.345109e+01 2.435007e+01 2.100187e+00 2.559023e+00 3.859459e+00 3.291193e+00 3.257748e+00 3.334636e+00 3.381623e+00 3.393582e+00 3.502652e+00 3.207796e+00 3.550634e+00 2.806874e+00 3.633831e-03
<GCONST> 9.257130e+01
<MIXTURE> 85 7.591393e-03
<MEAN> 25
 -3.103626e+00 7.894633e+00 5.722014e+00 1.288320e+00 -3.485961e+00 -5.325486e+00 -2.968771e+00 -6.113568e+00 -3.542385e+00 -3.178315e+00 -4.846998e-01 -1.901922e+00 3.940792e+00 3.250069e-01 1.755630e+00 -2.089440e+00 -3.412896e+00 -2.581372e+00 -2.885027e+00 -2.339466e+00 -2.246634e+00 -1.264426e+00 -2.302088e+00 -6.155590e-01 9.256133e-03
<VARIANCE> 25
 4.247276e+01 2.341180e+01 3.644823e+01 3.818559e+01 3.976996e+01 4.115031e+01 3.224995e+01 2.792449e+01 2.661679e+01 2.612333e+01 2.622460e+01 2.055483e+01 2.707395e+00 4.321914e+00 4.054623e+00 5.181155e+00 4.406692e+00 3.879733e+00 3.850085e+00 3.987291e+00 3.850862e+00 4.036385e+00 3.938354e+00 3.481404e+00 5.442074e-03
<GCONST> 9.834783e+01
<MIXTURE> 86 1.273941e-02
<MEAN> 25
 -4.855912e+00 -8.030593e-01 -8.996875e-01 6.203926e+00 5.253140e+00 4.356249e+00 5.596979e+00 4.726600e+00 4.489574e+00 3.993983e+00 5.188422e+00 2.513443e+00 -1.024621e-02 -1.921926e-02 -5.156936e-02 -6.131288e-02 -1.256844e-01 -1.818448e-01 -2.453556e-01 -3.306482e-01 -3.554112e-01 -3.115387e-01 -2.131393e-01 -7.425727e-02 -8.105480e-04
<VARIANCE> 25
 7.785470e+00 8.515640e+00 9.844247e+00 1.216950e+01 1.619208e+01 1.571663e+01 1.479220e+01 1.309780e+01 1.328904e+01 1.385431e+01 1.450757e+01 1.301685e+01 9.615316e-02 2.022605e-01 3.124095e-01 4.893098e-01 6.136249e-01 7.151478e-01 7.282724e-01 7.651984e-01 8.224193e-01 8.577195e-01 9.491361e-01 9.223486e-01 5.414096e-05
<GCONST> 5.865665e+01
<MIXTURE> 87 1.100681e-02
<MEAN> 25
 -2.978816e+00 5.000759e+00 2.658612e+00 6.712587e+00 5.811468e+00 -1.212437e-01 1.865802e+00 -5.536101e-01 -4.127262e-01 1.868715e-01 -1.281408e+00 -4.235308e-01 -2.021920e+00 -2.795125e+00 -2.159287e+00 -2.163482e+00 1.890117e-01 3.928610e-02 5.342060e-01 9.975111e-01 1.303895e+00 1.129990e+00 6.568320e-01 1.094421e+00 1.050336e-01
<VARIANCE> 25
 3.642777e+01 2.888395e+01 3.267462e+01 3.109857e+01 2.706708e+01 3.783477e+01 2.559046e+01 2.622300e+01 2.378319e+01 3.344469e+01 2.415409e+01 2.393210e+01 4.057030e+00 2.525765e+00 3.911387e+00 3.545874e+00 5.004151e+00 4.613434e+00 3.869893e+00 4.299405e+00 3.632931e+00 3.343450e+00 3.909348e+00 2.516388e+00 4.507341e-03
<GCONST> 9.659705e+01
<MIXTURE> 88 1.256585e-02
<MEAN> 25
 -4.201201e+00 -5.567920e-01 -1.606663e+00 5.016306e+00 4.939053e+00 3.443284e+00 5.012642e+00 3.553320e+00 3.397774e+00 2.247930e+00 2.869308e+00 2.735092e+00 4.779960e-02 1.904812e-01 1.985648e-01 2.885039e-01 1.388929e-01 2.304048e-01 -7.228235e-02 -1.484020e-01 -2.409224e-01 -2.716047e-01 -2.174749e-02 3.368239e-02 -5.373915e-03
<VARIANCE> 25
 9.092301e+00 1.201036e+01 1.490025e+01 1.902225e+01 2.013193e+01 2.097686e+01 2.024706e+01 1.975009e+01 1.716620e+01 1.850127e+01 2.075041e+01 1.577339e+01 1.279187e+00 1.592058e+00 2.075752e+00 2.490207e+00 2.975731e+00 2.741139e+00 2.552251e+00 2.525904e+00 2.411810e+00 2.463443e+00 2.327722e+00 2.030210e+00 1.438314e-03
<GCONST> 8.298274e+01
<MIXTURE> 89 9.333527e-03
<MEAN> 25
 5.551394e+00 -9.414804e+00 -3.514258e+00 -2.661651e+00 -3.344180e+00 -2.045797e+00 -5.605113e+00 4.343969e+00 2.649357e+00 -3.477676e+00 -5.726542e+00 -3.994431e+00 -6.901184e-01 2.704426e-01 1.738755e+00 1.020857e+00 -1.786998e+00 -1.800084e+00 9.903749e-01 1.125901e+00 -8.112313e-01 -1.211241e+00 1.675593e-01 1.549102e+00 6.410062e-05
<VARIANCE> 25
 8.068378e+00 4.047632e+01 2.470938e+01 2.495333e+01 3.777065e+01 6.947449e+01 4.798203e+01 3.373671e+01 3.281322e+01 3.450783e+01 2.841751e+01 2.745481e+01 3.654830e-01 9.636862e-01 1.344483e+00 1.113466e+00 1.573456e+00 1.816353e+00 2.192741e+00 1.977146e+00 1.796354e+00 1.767175e+00 2.055372e+00 1.185519e+00 3.566757e-04
<GCONST> 8.309724e+01
<MIXTURE> 90 7.114505e-03
<MEAN> 25
 2.141419e+00 -1.012049e+01 -4.337355e+00 -3.400309e+00 -4.364465e+00 -1.257989e+00 3.197942e+00 1.277378e+00 -6.860348e+00 -9.810175e+00 -3.475236e+00 -9.298570e-01 -2.401844e-01 1.016996e+00 1.299743e+00 -8.256342e-01 -1.534443e+00 -2.708766e-01 5.712469e-01 -4.306054e-01 -8.675338e-02 7.096707e-01 2.103777e-01 -4.886458e-01 -9.226296e-03
<VARIANCE> 25
 8.515594e+00 1.762835e+01 1.950152e+01 2.793203e+01 4.107345e+01 3.235983e+01 3.584057e+01 3.376645e+01 3.550600e+01 2.614460e+01 2.426420e+01 2.379546e+01 2.745686e-01 6.486970e-01 8.758360e-01 9.807850e-01 1.385720e+00 1.620841e+00 1.866614e+00 1.869000e+00 1.682475e+00 1.527000e+00 1.356542e+00 1.232127e+00 2.254323e-04
<GCONST> 7.798239e+01
<MIXTURE> 91 7.852945e-03
<MEAN> 25
 6.299049e+00 -7.614286e+00 -8.487186e+00 -4.991452e+00 3.781385e+00 -5.469605e-02 -2.313839e+00 7.438850e-01 7.048109e-01 -2.831332e+00 -4.848575e+00 -5.154114e+00 2.610359e-01 1.020491e+00 1.614656e-01 4.236022e-01 9.476020e-03 -5.413134e-01 -3.677882e-01 -1.412354e-01 -9.781314e-02 4.765407e-01 -1.237865e-01 1.843833e-01 -3.582022e-02
<VARIANCE> 25
 1.036846e+01 2.321353e+01 1.984278e+01 4.128291e+01 3.660918e+01 5.533234e+01 5.385556e+01 3.886752e+01 5.102204e+01 6.494682e+01 3.776899e+01 4.086919e+01 4.410442e-01 8.922094e-01 1.148086e+00 1.395559e+00 2.428602e+00 2.370913e+00 2.399081e+00 2.462201e+00 2.216252e+00 2.209846e+00 2.002637e+00 1.871217e+00 6.154902e-04
<GCONST> 8.742868e+01
<MIXTURE> 92 7.852945e-03
<MEAN> 25
 6.299049e+00 -7.614286e+00 -8.487186e+00 -4.991452e+00 3.781385e+00 -5.469605e-02 -2.313839e+00 7.438850e-01 7.048109e-01 -2.831332e+00 -4.848575e+00 -5.154114e+00 2.610359e-01 1.020491e+00 1.614656e-01 4.236022e-01 9.476020e-03 -5.413134e-01 -3.677882e-01 -1.412354e-01 -9.781314e-02 4.765407e-01 -1.237865e-01 1.843833e-01 -3.582022e-02
<VARIANCE> 25
 1.036846e+01 2.321353e+01 1.984278e+01 4.128291e+01 3.660918e+01 5.533234e+01 5.385556e+01 3.886752e+01 5.102204e+01 6.494682e+01 3.776899e+01 4.086919e+01 4.410442e-01 8.922094e-01 1.148086e+00 1.395559e+00 2.428602e+00 2.370913e+00 2.399081e+00 2.462201e+00 2.216252e+00 2.209846e+00 2.002637e+00 1.871217e+00 6.154902e-04
<GCONST> 8.742868e+01
<MIXTURE> 93 6.122769e-03
<MEAN> 25
 -6.749495e+00 -7.883415e-01 -2.452087e+00 5.715285e+00 6.015330e+00 3.854011e+00 6.262942e+00 3.769308e+00 4.082693e+00 2.547097e+00 1.820517e+00 3.609006e+00 -6.285314e-02 -1.563715e-01 -2.609808e-01 -3.315978e-01 -3.389900e-01 -2.876253e-01 -2.149079e-01 -1.823262e-01 -1.785988e-01 -1.488332e-01 -1.197098e-01 -3.122270e-02 1.990473e-05
<VARIANCE> 25
 9.197039e+00 7.297440e+00 8.158826e+00 1.149073e+01 1.180956e+01 1.604161e+01 1.592012e+01 1.752758e+01 1.470303e+01 1.433657e+01 1.649231e+01 1.363132e+01 8.121442e-02 1.545067e-01 2.609991e-01 3.755956e-01 4.901564e-01 6.373009e-01 7.890662e-01 8.728673e-01 9.343800e-01 8.600535e-01 8.875589e-01 9.125833e-01 1.037957e-06
<GCONST> 5.389084e+01
<MIXTURE> 94 6.122769e-03
<MEAN> 25
 -6.749495e+00 -7.883415e-01 -2.452087e+00 5.715285e+00 6.015330e+00 3.854011e+00 6.262942e+00 3.769308e+00 4.082693e+00 2.547097e+00 1.820517e+00 3.609006e+00 -6.285314e-02 -1.563715e-01 -2.609808e-01 -3.315978e-01 -3.389900e-01 -2.876253e-01 -2.149079e-01 -1.823262e-01 -1.785988e-01 -1.488332e-01 -1.197098e-01 -3.122270e-02 1.990473e-05
<VARIANCE> 25
 9.197039e+00 7.297440e+00 8.158826e+00 1.149073e+01 1.180956e+01 1.604161e+01 1.592012e+01 1.752758e+01 1.470303e+01 1.433657e+01 1.649231e+01 1.363132e+01 8.121442e-02 1.545067e-01 2.609991e-01 3.755956e-01 4.901564e-01 6.373009e-01 7.890662e-01 8.728673e-01 9.343800e-01 8.600535e-01 8.875589e-01 9.125833e-01 1.037957e-06
<GCONST> 5.389084e+01
<MIXTURE> 95 5.258835e-03
<MEAN> 25
 -5.779758e+00 -6.096599e-01 -2.018027e+00 4.869856e+00 4.308980e+00 2.753250e+00 4.263162e+00 1.753368e+00 2.193862e+00 9.169592e-01 1.180525e+00 2.551842e+00 1.446117e-01 1.421356e-01 8.495737e-02 -7.920507e-02 -3.771330e-01 -7.158964e-01 -1.041301e+00 -1.273792e+00 -1.255723e+00 -9.818500e-01 -6.514316e-01 -2.983965e-01 -1.165712e-04
<VARIANCE> 25
 1.025230e+01 7.530031e+00 1.218330e+01 1.275241e+01 1.429454e+01 1.832988e+01 1.826579e+01 1.731166e+01 1.540250e+01 1.541362e+01 1.980224e+01 1.435922e+01 2.074053e-01 2.954670e-01 4.527016e-01 6.314352e-01 7.918359e-01 8.962304e-01 9.239137e-01 9.173214e-01 9.730124e-01 1.070630e+00 1.152368e+00 1.116265e+00 4.234062e-05
<GCONST> 6.345387e+01
<MIXTURE> 96 7.034694e-03
<MEAN> 25
 -5.015924e+00 -9.487928e-02 -2.342436e+00 5.046639e+00 4.083612e+00 1.674446e+00 3.763940e+00 2.027183e+00 2.350557e+00 1.013875e+00 1.091458e+00 2.734895e+00 -2.480254e-02 8.005482e-02 2.127070e-01 3.920021e-01 5.150837e-01 4.981145e-01 2.440208e-01 -1.366761e-01 -4.555328e-01 -6.212034e-01 -6.099247e-01 -3.574412e-01 -4.052686e-05
<VARIANCE> 25
 1.082856e+01 1.306387e+01 1.285432e+01 1.425222e+01 1.586521e+01 1.965223e+01 1.890567e+01 2.024381e+01 1.799642e+01 1.628936e+01 1.967340e+01 1.438371e+01 1.204609e-01 2.163687e-01 3.097215e-01 4.067139e-01 5.146201e-01 6.463916e-01 9.037550e-01 9.799081e-01 9.661561e-01 8.958959e-01 8.836691e-01 9.327761e-01 1.072450e-06
<GCONST> 5.810097e+01
<MIXTURE> 97 7.034694e-03
<MEAN> 25
 -5.015924e+00 -9.487928e-02 -2.342436e+00 5.046639e+00 4.083612e+00 1.674446e+00 3.763940e+00 2.027183e+00 2.350557e+00 1.013875e+00 1.091458e+00 2.734895e+00 -2.480254e-02 8.005482e-02 2.127070e-01 3.920021e-01 5.150837e-01 4.981145e-01 2.440208e-01 -1.366761e-01 -4.555328e-01 -6.212034e-01 -6.099247e-01 -3.574412e-01 -4.052686e-05
<VARIANCE> 25
 1.082856e+01 1.306387e+01 1.285432e+01 1.425222e+01 1.586521e+01 1.965223e+01 1.890567e+01 2.024381e+01 1.799642e+01 1.628936e+01 1.967340e+01 1.438371e+01 1.204609e-01 2.163687e-01 3.097215e-01 4.067139e-01 5.146201e-01 6.463916e-01 9.037550e-01 9.799081e-01 9.661561e-01 8.958959e-01 8.836691e-01 9.327761e-01 1.072450e-06
<GCONST> 5.810097e+01
<MIXTURE> 98 9.917808e-03
<MEAN> 25
 -1.463282e+00 1.113066e+00 -2.992081e-01 4.355372e+00 3.906056e+00 2.524127e+00 3.360574e+00 1.811545e+00 1.580983e+00 9.828042e-01 5.984961e-01 9.509842e-01 -1.757293e+00 -1.427599e+00 -9.853823e-01 1.232244e-01 5.981603e-01 8.363670e-01 1.244429e+00 1.455086e+00 1.648718e+00 1.084421e+00 1.330600e+00 9.851832e-01 -3.409659e-02
<VARIANCE> 25
 1.398351e+01 2.060519e+01 3.108406e+01 3.325848e+01 4.253554e+01 3.701638e+01 3.299371e+01 2.963296e+01 2.693573e+01 2.993752e+01 2.673799e+01 2.335544e+01 1.391073e+00 1.584579e+00 2.317768e+00 2.412038e+00 2.880029e+00 2.856580e+00 2.810829e+00 2.716165e+00 2.599836e+00 3.010798e+00 2.743237e+00 2.165918e+00 2.334887e-03
<GCONST> 9.035918e+01
<MIXTURE> 99 6.696178e-03
<MEAN> 25
 -4.597514e+00 1.021371e+01 5.814026e+00 3.289581e+00 1.419612e+00 -5.475691e+00 -2.516762e-01 -3.386966e+00 -3.083809e+00 -3.157748e+00 -2.451036e+00 -3.604411e-01 5.725937e-01 -6.804363e-01 4.046605e-01 -2.524861e-01 -1.329481e+00 -3.428960e-01 -5.071200e-01 -3.916061e-01 -2.659906e-02 -6.785109e-02 1.939189e-01 1.521115e-01 1.492974e-02
<VARIANCE> 25
 3.977857e+01 2.085035e+01 4.169505e+01 2.568476e+01 3.419115e+01 3.145250e+01 2.886622e+01 3.388597e+01 2.494598e+01 2.528894e+01 1.950216e+01 2.801291e+01 1.891541e+00 1.757871e+00 1.359025e+00 1.483584e+00 2.447385e+00 1.946142e+00 1.482125e+00 1.644388e+00 1.347887e+00 1.483957e+00 1.351729e+00 1.162775e+00 1.755667e-03
<GCONST> 8.541528e+01
<MIXTURE> 100 4.498084e-03
<MEAN> 25
 -1.598693e+00 6.344888e+00 1.027683e+01 -7.462524e+00 -1.078179e+01 -5.075416e+00 -4.941412e+00 -9.968599e+00 -4.718260e+00 -8.550867e-01 -2.733482e+00 -2.708425e+00 2.917845e+00 -1.260424e+00 1.299632e+00 -2.185879e+00 -3.419450e+00 -7.841021e-01 -1.218800e+00 -8.198030e-01 -1.475451e+00 3.466794e-01 -1.655584e+00 -2.862387e-01 2.016798e-03
<VARIANCE> 25
 1.362742e+01 2.105863e+01 2.246207e+01 2.642818e+01 2.302025e+01 2.372152e+01 2.911282e+01 2.170828e+01 2.748151e+01 2.265186e+01 2.241187e+01 2.134136e+01 1.799160e+00 3.953683e+00 2.919904e+00 4.286326e+00 4.184362e+00 4.537099e+00 4.015381e+00 4.340263e+00 4.167792e+00 3.895960e+00 3.910310e+00 3.224920e+00 1.674846e-03
<GCONST> 9.256865e+01
<MIXTURE> 101 6.007792e-03
<MEAN> 25
 8.020529e+00 -3.555965e+00 -6.273620e+00 -6.743510e+00 7.475851e-01 -1.239018e+00 -1.054145e+01 -1.962223e+00 1.586099e+00 2.672868e+00 -2.373802e+00 -5.092256e+00 6.734608e-01 6.548532e-01 -1.460721e+00 -1.600916e+00 1.057811e+00 2.313083e+00 1.783938e-01 -1.470067e+00 -1.046507e+00 1.046257e+00 1.346123e+00 -4.404819e-01 -5.184038e-03
<VARIANCE> 25
 9.628804e+00 1.720154e+01 2.958086e+01 4.357114e+01 3.659079e+01 3.581541e+01 3.669830e+01 3.644675e+01 3.748337e+01 4.445199e+01 5.109775e+01 2.468755e+01 2.901178e-01 6.667055e-01 1.165755e+00 1.541219e+00 1.711658e+00 2.076400e+00 2.129424e+00 1.975009e+00 2.344615e+00 2.194666e+00 1.821268e+00 1.981262e+00 3.534618e-04
<GCONST> 8.377458e+01
<MIXTURE> 102 6.007792e-03
<MEAN> 25
 8.020529e+00 -3.555965e+00 -6.273620e+00 -6.743510e+00 7.475851e-01 -1.239018e+00 -1.054145e+01 -1.962223e+00 1.586099e+00 2.672868e+00 -2.373802e+00 -5.092256e+00 6.734608e-01 6.548532e-01 -1.460721e+00 -1.600916e+00 1.057811e+00 2.313083e+00 1.783938e-01 -1.470067e+00 -1.046507e+00 1.046257e+00 1.346123e+00 -4.404819e-01 -5.184038e-03
<VARIANCE> 25
 9.628804e+00 1.720154e+01 2.958086e+01 4.357114e+01 3.659079e+01 3.581541e+01 3.669830e+01 3.644675e+01 3.748337e+01 4.445199e+01 5.109775e+01 2.468755e+01 2.901178e-01 6.667055e-01 1.165755e+00 1.541219e+00 1.711658e+00 2.076400e+00 2.129424e+00 1.975009e+00 2.344615e+00 2.194666e+00 1.821268e+00 1.981262e+00 3.534618e-04
<GCONST> 8.377458e+01
<MIXTURE> 103 5.694618e-03
<MEAN> 25
 3.208353e+00 -9.670424e+00 -5.856755e+00 -3.017481e+00 -1.845414e+00 -1.575748e+00 1.938092e+00 2.721679e+00 -4.381671e+00 -9.219941e+00 -4.877773e+00 -8.532266e-03 -1.382994e-01 -1.424588e+00 -1.002199e+00 3.217270e-01 1.259857e+00 1.013617e+00 1.810086e-01 -2.975444e-01 -7.209675e-01 -8.598852e-01 -7.911737e-02 7.096628e-02 2.518024e-02
<VARIANCE> 25
 1.030666e+01 2.002550e+01 2.331999e+01 3.021828e+01 5.065520e+01 3.618456e+01 4.861913e+01 3.585957e+01 4.099329e+01 2.795912e+01 2.921343e+01 2.762808e+01 6.222295e-01 1.276130e+00 1.483066e+00 1.923545e+00 2.855108e+00 2.338782e+00 2.758598e+00 2.631781e+00 2.509939e+00 2.562242e+00 2.041473e+00 1.964332e+00 8.317276e-04
<GCONST> 8.740614e+01
<MIXTURE> 104 5.694618e-03
<MEAN> 25
 3.208353e+00 -9.670424e+00 -5.856755e+00 -3.017481e+00 -1.845414e+00 -1.575748e+00 1.938092e+00 2.721679e+00 -4.381671e+00 -9.219941e+00 -4.877773e+00 -8.532266e-03 -1.382994e-01 -1.424588e+00 -1.002199e+00 3.217270e-01 1.259857e+00 1.013617e+00 1.810086e-01 -2.975444e-01 -7.209675e-01 -8.598852e-01 -7.911737e-02 7.096628e-02 2.518024e-02
<VARIANCE> 25
 1.030666e+01 2.002550e+01 2.331999e+01 3.021828e+01 5.065520e+01 3.618456e+01 4.861913e+01 3.585957e+01 4.099329e+01 2.795912e+01 2.921343e+01 2.762808e+01 6.222295e-01 1.276130e+00 1.483066e+00 1.923545e+00 2.855108e+00 2.338782e+00 2.758598e+00 2.631781e+00 2.509939e+00 2.562242e+00 2.041473e+00 1.964332e+00 8.317276e-04
<GCONST> 8.740614e+01
<MIXTURE> 105 4.710235e-03
<MEAN> 25
 2.146823e+00 -2.693670e+00 9.541196e+00 -2.811284e+00 -1.134750e+01 -2.179322e+00 -6.059815e+00 -1.650645e+00 -1.877991e+00 -4.247404e+00 8.073017e-01 -6.500260e-01 -2.526590e-02 1.231928e-02 5.019096e-02 -5.860473e-02 -1.298974e-01 6.826081e-02 1.392418e-01 -5.659575e-02 2.138668e-02 4.185006e-02 2.537117e-01 -2.117417e-02 -2.878910e-04
<VARIANCE> 25
 1.191664e+01 2.477911e+01 3.349820e+01 3.491601e+01 2.908643e+01 6.828080e+01 4.895572e+01 3.489471e+01 3.858005e+01 3.533493e+01 3.648914e+01 2.430102e+01 7.300822e-02 1.710912e-01 3.079988e-01 2.899851e-01 4.423968e-01 4.744146e-01 6.858670e-01 4.709453e-01 4.362562e-01 3.787843e-01 6.307402e-01 4.369058e-01 8.640349e-05
<GCONST> 6.580626e+01
<MIXTURE> 106 4.710235e-03
<MEAN> 25
 2.146823e+00 -2.693670e+00 9.541196e+00 -2.811284e+00 -1.134750e+01 -2.179322e+00 -6.059815e+00 -1.650645e+00 -1.877991e+00 -4.247404e+00 8.073017e-01 -6.500260e-01 -2.526590e-02 1.231928e-02 5.019096e-02 -5.860473e-02 -1.298974e-01 6.826081e-02 1.392418e-01 -5.659575e-02 2.138668e-02 4.185006e-02 2.537117e-01 -2.117417e-02 -2.878910e-04
<VARIANCE> 25
 1.191664e+01 2.477911e+01 3.349820e+01 3.491601e+01 2.908643e+01 6.828080e+01 4.895572e+01 3.489471e+01 3.858005e+01 3.533493e+01 3.648914e+01 2.430102e+01 7.300822e-02 1.710912e-01 3.079988e-01 2.899851e-01 4.423968e-01 4.744146e-01 6.858670e-01 4.709453e-01 4.362562e-01 3.787843e-01 6.307402e-01 4.369058e-01 8.640349e-05
<GCONST> 6.580626e+01
<MIXTURE> 107 5.452374e-03
<MEAN> 25
 8.635551e+00 -2.308411e+00 -8.038327e+00 -9.556386e+00 1.962057e+00 2.967820e+00 -8.639560e+00 -4.563097e+00 -8.896833e-01 3.381680e+00 8.603024e-01 -5.064811e+00 -6.112458e-01 -7.674805e-01 8.347133e-01 1.770226e+00 2.271500e-01 -2.013625e+00 -9.211735e-01 8.471345e-01 1.764529e+00 4.713750e-02 -1.657220e+00 -8.179480e-01 -1.817637e-03
<VARIANCE> 25
 9.269071e+00 2.047449e+01 2.832399e+01 4.280056e+01 3.575951e+01 3.857291e+01 5.111987e+01 3.632689e+01 4.579282e+01 4.174118e+01 5.136642e+01 3.042986e+01 3.573153e-01 9.686726e-01 1.462443e+00 2.422510e+00 2.287060e+00 2.821586e+00 2.613918e+00 2.542028e+00 2.302869e+00 3.029048e+00 1.945954e+00 2.212800e+00 7.028384e-04
<GCONST> 8.806354e+01
<MIXTURE> 108 5.452374e-03
<MEAN> 25
 8.635551e+00 -2.308411e+00 -8.038327e+00 -9.556386e+00 1.962057e+00 2.967820e+00 -8.639560e+00 -4.563097e+00 -8.896833e-01 3.381680e+00 8.603024e-01 -5.064811e+00 -6.112458e-01 -7.674805e-01 8.347133e-01 1.770226e+00 2.271500e-01 -2.013625e+00 -9.211735e-01 8.471345e-01 1.764529e+00 4.713750e-02 -1.657220e+00 -8.179480e-01 -1.817637e-03
<VARIANCE> 25
 9.269071e+00 2.047449e+01 2.832399e+01 4.280056e+01 3.575951e+01 3.857291e+01 5.111987e+01 3.632689e+01 4.579282e+01 4.174118e+01 5.136642e+01 3.042986e+01 3.573153e-01 9.686726e-01 1.462443e+00 2.422510e+00 2.287060e+00 2.821586e+00 2.613918e+00 2.542028e+00 2.302869e+00 3.029048e+00 1.945954e+00 2.212800e+00 7.028384e-04
<GCONST> 8.806354e+01
<MIXTURE> 109 6.661064e-03
<MEAN> 25
 3.945208e+00 -1.064632e+01 -8.016776e+00 -1.353156e+00 2.225105e+00 1.594008e-01 -3.454583e-01 1.697163e+00 -2.491351e+00 -8.361066e+00 -5.239459e+00 -1.759624e-01 -3.092929e-02 -1.454196e-01 -8.980305e-02 2.294831e-01 2.575968e-01 1.353037e-01 -1.058234e-01 -1.086141e-01 -2.783199e-02 -1.094437e-01 1.793327e-01 -1.854158e-02 -3.326787e-03
<VARIANCE> 25
 9.276376e+00 1.783319e+01 2.150993e+01 3.031144e+01 4.669067e+01 3.666930e+01 4.689763e+01 3.477209e+01 4.458874e+01 3.404454e+01 2.909676e+01 2.867315e+01 1.875620e-01 4.156542e-01 6.133337e-01 6.362934e-01 1.307581e+00 9.878245e-01 1.224885e+00 1.111527e+00 1.085686e+00 9.465694e-01 8.922298e-01 8.853405e-01 1.795384e-04
<GCONST> 7.466791e+01
<MIXTURE> 110 6.661064e-03
<MEAN> 25
 3.945208e+00 -1.064632e+01 -8.016776e+00 -1.353156e+00 2.225105e+00 1.594008e-01 -3.454583e-01 1.697163e+00 -2.491351e+00 -8.361066e+00 -5.239459e+00 -1.759624e-01 -3.092929e-02 -1.454196e-01 -8.980305e-02 2.294831e-01 2.575968e-01 1.353037e-01 -1.058234e-01 -1.086141e-01 -2.783199e-02 -1.094437e-01 1.793327e-01 -1.854158e-02 -3.326787e-03
<VARIANCE> 25
 9.276376e+00 1.783319e+01 2.150993e+01 3.031144e+01 4.669067e+01 3.666930e+01 4.689763e+01 3.477209e+01 4.458874e+01 3.404454e+01 2.909676e+01 2.867315e+01 1.875620e-01 4.156542e-01 6.133337e-01 6.362934e-01 1.307581e+00 9.878245e-01 1.224885e+00 1.111527e+00 1.085686e+00 9.465694e-01 8.922298e-01 8.853405e-01 1.795384e-04
<GCONST> 7.466791e+01
<MIXTURE> 111 4.337247e-03
<MEAN> 25
 -4.473429e+00 -9.051979e-01 -1.721337e+00 1.688212e+00 9.664047e-01 9.639213e-01 3.155987e-01 2.118235e-01 8.920256e-02 -5.407304e-01 -6.296631e-01 1.964405e+00 -2.107994e-02 -3.238340e-02 -7.240813e-02 -7.363293e-02 -3.742805e-02 6.522978e-03 -1.036390e-03 -5.904466e-02 -1.403133e-01 -2.030172e-01 -1.899554e-01 -1.063593e-01 -2.154400e-04
<VARIANCE> 25
 7.001218e+00 4.984656e+00 1.021177e+01 9.407609e+00 1.312251e+01 2.384247e+01 1.467423e+01 1.316982e+01 1.159937e+01 1.191346e+01 1.363014e+01 1.158707e+01 7.916648e-02 1.636325e-01 2.752531e-01 4.205827e-01 5.696021e-01 7.054049e-01 8.004988e-01 8.584939e-01 8.929226e-01 8.558313e-01 8.622915e-01 8.480469e-01 2.231798e-05
<GCONST> 5.598359e+01
<MIXTURE> 112 4.337247e-03
<MEAN> 25
 -4.473429e+00 -9.051979e-01 -1.721337e+00 1.688212e+00 9.664047e-01 9.639213e-01 3.155987e-01 2.118235e-01 8.920256e-02 -5.407304e-01 -6.296631e-01 1.964405e+00 -2.107994e-02 -3.238340e-02 -7.240813e-02 -7.363293e-02 -3.742805e-02 6.522978e-03 -1.036390e-03 -5.904466e-02 -1.403133e-01 -2.030172e-01 -1.899554e-01 -1.063593e-01 -2.154400e-04
<VARIANCE> 25
 7.001218e+00 4.984656e+00 1.021177e+01 9.407609e+00 1.312251e+01 2.384247e+01 1.467423e+01 1.316982e+01 1.159937e+01 1.191346e+01 1.363014e+01 1.158707e+01 7.916648e-02 1.636325e-01 2.752531e-01 4.205827e-01 5.696021e-01 7.054049e-01 8.004988e-01 8.584939e-01 8.929226e-01 8.558313e-01 8.622915e-01 8.480469e-01 2.231798e-05
<GCONST> 5.598359e+01
<MIXTURE> 113 5.938666e-03
<MEAN> 25
 9.978357e+00 1.755182e+00 -8.781635e+00 -1.704810e+01 -1.034120e+00 5.659579e+00 -5.280975e+00 -1.466079e+00 -5.695920e+00 -4.937987e-01 2.990457e-01 -1.976306e-01 4.814770e-03 1.383338e-02 -5.952226e-02 -1.134082e-01 1.043176e-01 1.505967e-01 5.930182e-02 3.606787e-02 -5.699058e-02 -5.125005e-02 1.797093e-01 3.523592e-02 -1.410354e-03
<VARIANCE> 25
 8.871517e+00 1.639133e+01 2.967418e+01 3.419381e+01 5.273928e+01 3.386648e+01 3.970903e+01 3.914356e+01 3.737587e+01 4.640521e+01 3.629900e+01 2.844291e+01 1.217925e-01 3.205926e-01 3.161455e-01 6.314218e-01 6.128703e-01 6.536570e-01 7.765684e-01 8.452074e-01 9.594592e-01 9.052593e-01 7.245083e-01 7.135695e-01 1.247807e-04
<GCONST> 7.110380e+01
<MIXTURE> 114 5.938666e-03
<MEAN> 25
 9.978357e+00 1.755182e+00 -8.781635e+00 -1.704810e+01 -1.034120e+00 5.659579e+00 -5.280975e+00 -1.466079e+00 -5.695920e+00 -4.937987e-01 2.990457e-01 -1.976306e-01 4.814770e-03 1.383338e-02 -5.952226e-02 -1.134082e-01 1.043176e-01 1.505967e-01 5.930182e-02 3.606787e-02 -5.699058e-02 -5.125005e-02 1.797093e-01 3.523592e-02 -1.410354e-03
<VARIANCE> 25
 8.871517e+00 1.639133e+01 2.967418e+01 3.419381e+01 5.273928e+01 3.386648e+01 3.970903e+01 3.914356e+01 3.737587e+01 4.640521e+01 3.629900e+01 2.844291e+01 1.217925e-01 3.205926e-01 3.161455e-01 6.314218e-01 6.128703e-01 6.536570e-01 7.765684e-01 8.452074e-01 9.594592e-01 9.052593e-01 7.245083e-01 7.135695e-01 1.247807e-04
<GCONST> 7.110380e+01
<MIXTURE> 115 2.935202e-03
<MEAN> 25
 -4.016540e+00 -6.492406e-01 -3.137306e+00 3.632249e+00 2.496558e+00 -4.583646e-01 2.322497e+00 5.008472e-01 1.371013e+00 5.919973e-03 3.732373e-02 2.659124e+00 2.972521e-02 -7.295547e-02 -2.316026e-01 -4.404699e-01 -6.354002e-01 -6.600323e-01 -5.769936e-01 -5.094234e-01 -4.847436e-01 -4.526236e-01 -3.458104e-01 -1.637371e-01 -2.160840e-06
<VARIANCE> 25
 9.195494e+00 1.083098e+01 1.350244e+01 1.265778e+01 1.401983e+01 1.753826e+01 1.764950e+01 2.142092e+01 1.783679e+01 1.711529e+01 1.906692e+01 1.459959e+01 2.021569e-01 3.443606e-01 4.823739e-01 5.575708e-01 6.287268e-01 8.008662e-01 1.021620e+00 1.120746e+00 1.080379e+00 9.941730e-01 1.020673e+00 1.059794e+00 1.015951e-06
<GCONST> 6.030092e+01
<MIXTURE> 116 2.935202e-03
<MEAN> 25
 -4.016540e+00 -6.492406e-01 -3.137306e+00 3.632249e+00 2.496558e+00 -4.583646e-01 2.322497e+00 5.008472e-01 1.371013e+00 5.919973e-03 3.732373e-02 2.659124e+00 2.972521e-02 -7.295547e-02 -2.316026e-01 -4.404699e-01 -6.354002e-01 -6.600323e-01 -5.769936e-01 -5.094234e-01 -4.847436e-01 -4.526236e-01 -3.458104e-01 -1.637371e-01 -2.160840e-06
<VARIANCE> 25
 9.195494e+00 1.083098e+01 1.350244e+01 1.265778e+01 1.401983e+01 1.753826e+01 1.764950e+01 2.142092e+01 1.783679e+01 1.711529e+01 1.906692e+01 1.459959e+01 2.021569e-01 3.443606e-01 4.823739e-01 5.575708e-01 6.287268e-01 8.008662e-01 1.021620e+00 1.120746e+00 1.080379e+00 9.941730e-01 1.020673e+00 1.059794e+00 1.015951e-06
<GCONST> 6.030092e+01
<MIXTURE> 117 6.506003e-03
<MEAN> 25
 -4.573846e+00 1.356694e+00 9.065674e-01 9.553314e+00 6.458217e+00 6.044783e+00 6.676428e+00 5.231378e+00 6.211087e+00 4.935907e+00 6.246482e+00 2.586289e+00 -7.382706e-02 -2.362681e-01 -3.562482e-01 -4.112414e-01 -3.731585e-01 -3.013828e-01 -2.911365e-01 -3.432196e-01 -4.015068e-01 -3.654432e-01 -2.899405e-01 -1.185892e-01 -5.991474e-06
<VARIANCE> 25
 7.098513e+00 1.003646e+01 1.017890e+01 1.514343e+01 1.615505e+01 1.616219e+01 1.863923e+01 1.860254e+01 1.694972e+01 1.595801e+01 1.680637e+01 1.470236e+01 2.112504e-01 3.048342e-01 4.183589e-01 6.195462e-01 8.317693e-01 1.027737e+00 1.207730e+00 1.195173e+00 1.251210e+00 1.167840e+00 1.160385e+00 1.097283e+00 1.154275e-06
<GCONST> 6.084051e+01
<MIXTURE> 118 6.506003e-03
<MEAN> 25
 -4.573846e+00 1.356694e+00 9.065674e-01 9.553314e+00 6.458217e+00 6.044783e+00 6.676428e+00 5.231378e+00 6.211087e+00 4.935907e+00 6.246482e+00 2.586289e+00 -7.382706e-02 -2.362681e-01 -3.562482e-01 -4.112414e-01 -3.731585e-01 -3.013828e-01 -2.911365e-01 -3.432196e-01 -4.015068e-01 -3.654432e-01 -2.899405e-01 -1.185892e-01 -5.991474e-06
<VARIANCE> 25
 7.098513e+00 1.003646e+01 1.017890e+01 1.514343e+01 1.615505e+01 1.616219e+01 1.863923e+01 1.860254e+01 1.694972e+01 1.595801e+01 1.680637e+01 1.470236e+01 2.112504e-01 3.048342e-01 4.183589e-01 6.195462e-01 8.317693e-01 1.027737e+00 1.207730e+00 1.195173e+00 1.251210e+00 1.167840e+00 1.160385e+00 1.097283e+00 1.154275e-06
<GCONST> 6.084051e+01
<MIXTURE> 119 4.297961e-03
<MEAN> 25
 -4.975200e+00 -7.633461e+00 2.231167e+00 2.016650e+00 2.239784e+00 2.074020e-01 5.275597e+00 5.939732e+00 1.166054e+00 9.679970e-01 6.613477e+00 1.569583e+00 -4.999241e-02 -7.934504e-02 3.724028e-02 -5.721304e-02 -1.261076e-01 -1.799251e-01 -6.898554e-02 -1.398956e-02 -9.189825e-02 -1.120860e-01 -5.505721e-02 -5.805032e-02 1.111062e-03
<VARIANCE> 25
 8.502392e+00 9.829715e+00 1.656571e+01 2.018075e+01 2.287422e+01 2.320579e+01 2.500823e+01 2.648465e+01 2.503504e+01 2.807507e+01 2.040363e+01 2.040964e+01 1.604174e-01 2.824866e-01 4.597702e-01 6.327674e-01 8.034877e-01 1.003789e+00 1.099870e+00 1.277712e+00 1.285743e+00 1.245710e+00 1.192435e+00 1.112582e+00 2.316197e-04
<GCONST> 6.972158e+01
<MIXTURE> 120 4.297961e-03
<MEAN> 25
 -4.975200e+00 -7.633461e+00 2.231167e+00 2.016650e+00 2.239784e+00 2.074020e-01 5.275597e+00 5.939732e+00 1.166054e+00 9.679970e-01 6.613477e+00 1.569583e+00 -4.999241e-02 -7.934504e-02 3.724028e-02 -5.721304e-02 -1.261076e-01 -1.799251e-01 -6.898554e-02 -1.398956e-02 -9.189825e-02 -1.120860e-01 -5.505721e-02 -5.805032e-02 1.111062e-03
<VARIANCE> 25
 8.502392e+00 9.829715e+00 1.656571e+01 2.018075e+01 2.287422e+01 2.320579e+01 2.500823e+01 2.648465e+01 2.503504e+01 2.807507e+01 2.040363e+01 2.040964e+01 1.604174e-01 2.824866e-01 4.597702e-01 6.327674e-01 8.034877e-01 1.003789e+00 1.099870e+00 1.277712e+00 1.285743e+00 1.245710e+00 1.192435e+00 1.112582e+00 2.316197e-04
<GCONST> 6.972158e+01
<MIXTURE> 121 4.567511e-03
<MEAN> 25
 1.984879e-01 -2.646650e+00 5.253617e+00 -1.268784e+01 -1.261938e+01 -1.418345e+00 6.237852e-01 -5.032618e+00 -4.010302e+00 -6.748461e-01 -5.500738e+00 -4.236058e+00 2.154529e-02 1.348116e-01 -3.985679e-02 8.132672e-02 1.631584e-01 6.898820e-02 -9.762257e-02 -1.661717e-01 -2.605960e-01 -2.728080e-01 -9.797357e-02 1.641043e-02 -7.261083e-03
<VARIANCE> 25
 7.569893e+00 1.584828e+01 1.729930e+01 2.168668e+01 2.403089e+01 3.093530e+01 3.445005e+01 2.425998e+01 3.584862e+01 2.898467e+01 1.942572e+01 2.093553e+01 1.518256e-01 6.523098e-01 6.344185e-01 6.947641e-01 7.871550e-01 1.130791e+00 1.211117e+00 1.129871e+00 1.204753e+00 1.189727e+00 9.324455e-01 9.142509e-01 2.076107e-04
<GCONST> 7.174152e+01
<MIXTURE> 122 4.567511e-03
<MEAN> 25
 1.984879e-01 -2.646650e+00 5.253617e+00 -1.268784e+01 -1.261938e+01 -1.418345e+00 6.237852e-01 -5.032618e+00 -4.010302e+00 -6.748461e-01 -5.500738e+00 -4.236058e+00 2.154529e-02 1.348116e-01 -3.985679e-02 8.132672e-02 1.631584e-01 6.898820e-02 -9.762257e-02 -1.661717e-01 -2.605960e-01 -2.728080e-01 -9.797357e-02 1.641043e-02 -7.261083e-03
<VARIANCE> 25
 7.569893e+00 1.584828e+01 1.729930e+01 2.168668e+01 2.403089e+01 3.093530e+01 3.445005e+01 2.425998e+01 3.584862e+01 2.898467e+01 1.942572e+01 2.093553e+01 1.518256e-01 6.523098e-01 6.344185e-01 6.947641e-01 7.871550e-01 1.130791e+00 1.211117e+00 1.129871e+00 1.204753e+00 1.189727e+00 9.324455e-01 9.142509e-01 2.076107e-04
<GCONST> 7.174152e+01
<MIXTURE> 123 4.393044e-03
<MEAN> 25
 -3.949056e+00 1.518012e+00 -3.400518e-01 5.302020e+00 5.926812e+00 3.269366e+00 3.881191e+00 1.072673e+00 3.774025e-01 -2.560337e-01 -3.013170e-01 7.368591e-01 -4.366094e-01 -6.595359e-01 -8.151331e-01 -6.669119e-01 -3.739379e-01 1.353569e-01 3.740090e-01 6.634529e-01 7.739633e-01 5.963362e-01 7.524166e-01 6.339697e-01 -3.055618e-03
<VARIANCE> 25
 9.817703e+00 1.323823e+01 1.518974e+01 2.056964e+01 2.192877e+01 2.567744e+01 2.323337e+01 2.269131e+01 1.717526e+01 1.683349e+01 2.139600e+01 1.828521e+01 3.405565e-01 4.434157e-01 4.706388e-01 6.855497e-01 1.088205e+00 1.119864e+00 1.091983e+00 1.269644e+00 1.205327e+00 1.239568e+00 1.187431e+00 1.354152e+00 8.951449e-05
<GCONST> 6.985399e+01
<MIXTURE> 124 4.069876e-03
<MEAN> 25
 -6.405190e+00 -8.588641e-01 -2.944851e+00 5.021731e+00 5.136873e+00 3.140056e+00 5.589355e+00 2.735789e+00 3.152211e+00 1.421131e+00 1.106199e+00 2.964339e+00 -1.991283e-01 -3.069063e-01 -3.539981e-01 -2.289492e-01 1.120723e-01 5.352015e-01 8.040074e-01 8.740440e-01 6.502234e-01 3.186186e-01 8.789621e-02 -4.783249e-02 -1.365601e-04
<VARIANCE> 25
 1.126846e+01 1.010725e+01 1.078399e+01 1.233179e+01 1.240191e+01 2.083844e+01 1.623635e+01 1.737733e+01 1.498800e+01 1.607904e+01 1.910356e+01 1.412457e+01 1.021720e-01 1.791288e-01 2.716580e-01 4.093499e-01 5.848392e-01 6.961039e-01 7.280270e-01 8.093074e-01 8.964336e-01 9.580451e-01 9.989893e-01 9.971204e-01 1.850112e-05
<GCONST> 5.917347e+01
<MIXTURE> 125 4.069876e-03
<MEAN> 25
 -6.405190e+00 -8.588641e-01 -2.944851e+00 5.021731e+00 5.136873e+00 3.140056e+00 5.589355e+00 2.735789e+00 3.152211e+00 1.421131e+00 1.106199e+00 2.964339e+00 -1.991283e-01 -3.069063e-01 -3.539981e-01 -2.289492e-01 1.120723e-01 5.352015e-01 8.040074e-01 8.740440e-01 6.502234e-01 3.186186e-01 8.789621e-02 -4.783249e-02 -1.365601e-04
<VARIANCE> 25
 1.126846e+01 1.010725e+01 1.078399e+01 1.233179e+01 1.240191e+01 2.083844e+01 1.623635e+01 1.737733e+01 1.498800e+01 1.607904e+01 1.910356e+01 1.412457e+01 1.021720e-01 1.791288e-01 2.716580e-01 4.093499e-01 5.848392e-01 6.961039e-01 7.280270e-01 8.093074e-01 8.964336e-01 9.580451e-01 9.989893e-01 9.971204e-01 1.850112e-05
<GCONST> 5.917347e+01
<MIXTURE> 126 2.402244e-03
<MEAN> 25
 -3.788254e+00 -6.923135e+00 -5.282019e+00 2.319018e+00 4.283092e+00 -3.240601e+00 7.758397e-02 3.560173e+00 3.337682e+00 -2.691818e+00 -1.427247e+00 3.052373e+00 -2.284558e-03 -6.425081e-03 -3.605353e-02 -1.583858e-01 -3.185758e-01 -3.890618e-01 -2.733706e-01 -1.578380e-01 -1.135430e-01 -1.157804e-01 -9.794766e-02 -3.020351e-02 -1.474204e-03
<VARIANCE> 25
 7.423703e+00 1.285165e+01 1.382617e+01 1.511572e+01 2.469570e+01 2.368078e+01 2.280090e+01 2.843125e+01 3.126256e+01 2.624861e+01 2.175756e+01 1.918689e+01 1.705475e-01 3.518093e-01 4.830623e-01 5.668266e-01 7.533239e-01 9.954451e-01 1.121506e+00 1.262032e+00 1.328259e+00 1.309674e+00 1.213229e+00 1.147134e+00 2.106924e-04
<GCONST> 6.980711e+01
<MIXTURE> 127 2.402244e-03
<MEAN> 25
 -3.788254e+00 -6.923135e+00 -5.282019e+00 2.319018e+00 4.283092e+00 -3.240601e+00 7.758397e-02 3.560173e+00 3.337682e+00 -2.691818e+00 -1.427247e+00 3.052373e+00 -2.284558e-03 -6.425081e-03 -3.605353e-02 -1.583858e-01 -3.185758e-01 -3.890618e-01 -2.733706e-01 -1.578380e-01 -1.135430e-01 -1.157804e-01 -9.794766e-02 -3.020351e-02 -1.474204e-03
<VARIANCE> 25
 7.423703e+00 1.285165e+01 1.382617e+01 1.511572e+01 2.469570e+01 2.368078e+01 2.280090e+01 2.843125e+01 3.126256e+01 2.624861e+01 2.175756e+01 1.918689e+01 1.705475e-01 3.518093e-01 4.830623e-01 5.668266e-01 7.533239e-01 9.954451e-01 1.121506e+00 1.262032e+00 1.328259e+00 1.309674e+00 1.213229e+00 1.147134e+00 2.106924e-04
<GCONST> 6.980711e+01
<MIXTURE> 128 3.790457e-03
<MEAN> 25
 -3.919431e+00 1.610852e+00 -3.672421e-01 6.545249e+00 3.685248e+00 1.837031e+00 3.631068e+00 2.422151e+00 3.939469e+00 3.699494e+00 3.748722e+00 3.500701e+00 -3.920561e-01 -1.975694e-01 9.914660e-02 7.230368e-01 1.174420e+00 1.129131e+00 7.117494e-01 1.265245e-01 -4.399892e-01 -7.812707e-01 -6.989107e-01 -3.903551e-01 -4.131013e-05
<VARIANCE> 25
 1.014853e+01 1.219900e+01 1.500778e+01 1.932290e+01 2.038774e+01 2.115900e+01 2.446704e+01 2.482333e+01 2.634464e+01 2.369760e+01 2.675329e+01 1.813476e+01 8.882160e-01 1.138254e+00 1.356153e+00 1.498529e+00 1.585089e+00 1.855150e+00 2.249457e+00 2.315347e+00 2.142225e+00 1.853122e+00 1.736780e+00 1.742497e+00 1.022581e-06
<GCONST> 7.367455e+01
<TRANSP> 3
 0.000000e+00 1.000000e+00 0.000000e+00
 0.000000e+00 9.999990e-01 9.999998e-07
 0.000000e+00 0.000000e+00 0.000000e+00
<ENDHMM>
