~o
<STREAMINFO> 1 25
<VECSIZE> 25<NULLD><MFCC_E_D_N><DIAGC>
~h "jmodel"
<BEGINHMM>
<NUMSTATES> 3
<STATE> 2
<NUMMIXES> 128
<MIXTURE> 1 5.748963e-03
<MEAN> 25
 -2.581685e+00 3.188687e+00 2.300198e+00 8.746729e+00 4.381876e+00 3.431979e+00 4.068718e+00 3.949499e+00 5.828879e+00 5.247014e+00 5.868851e+00 3.074814e+00 -2.001894e+00 -1.632649e+00 -8.583680e-01 1.073081e+00 1.556341e+00 2.231227e+00 2.150500e+00 2.082355e+00 1.694298e+00 1.269177e+00 1.562852e+00 6.134907e-01 -4.677894e-02
<VARIANCE> 25
 1.005019e+01 1.177067e+01 1.500301e+01 1.870012e+01 2.318944e+01 2.224653e+01 2.186767e+01 2.202556e+01 2.099373e+01 2.252048e+01 2.102434e+01 1.706968e+01 1.790529e+00 2.115048e+00 3.040092e+00 3.208638e+00 3.744045e+00 3.353713e+00 3.322912e+00 3.377036e+00 3.517481e+00 3.722411e+00 3.520807e+00 2.830134e+00 3.126898e-03
<GCONST> 8.848243e+01
<MIXTURE> 2 4.549242e-03
<MEAN> 25
 -4.762837e+00 1.506852e+00 8.466024e-01 9.726405e+00 6.796114e+00 7.087686e+00 8.007067e+00 7.220429e+00 8.105420e+00 6.308965e+00 7.420773e+00 3.117614e+00 -6.567457e-02 4.450646e-02 1.405068e-01 2.027174e-01 2.554453e-01 2.733914e-01 2.910470e-01 3.243468e-01 3.731345e-01 3.022976e-01 1.985633e-01 1.041281e-01 8.467984e-07
<VARIANCE> 25
 7.038647e+00 9.593362e+00 1.089500e+01 1.624724e+01 1.700055e+01 1.808341e+01 1.737801e+01 1.976982e+01 1.800227e+01 1.704942e+01 1.861756e+01 1.397156e+01 1.222873e-01 2.217584e-01 3.271311e-01 4.917147e-01 6.342157e-01 7.997390e-01 9.166628e-01 1.000928e+00 1.083207e+00 1.065357e+00 1.062328e+00 1.010012e+00 9.658870e-07
<GCONST> 5.835471e+01
<MIXTURE> 3 4.549242e-03
<MEAN> 25
 -4.762837e+00 1.506852e+00 8.466024e-01 9.726405e+00 6.796114e+00 7.087686e+00 8.007067e+00 7.220429e+00 8.105420e+00 6.308965e+00 7.420773e+00 3.117614e+00 -6.567457e-02 4.450646e-02 1.405068e-01 2.027174e-01 2.554453e-01 2.733914e-01 2.910470e-01 3.243468e-01 3.731345e-01 3.022976e-01 1.985633e-01 1.041281e-01 8.467984e-07
<VARIANCE> 25
 7.038647e+00 9.593362e+00 1.089500e+01 1.624724e+01 1.700055e+01 1.808341e+01 1.737801e+01 1.976982e+01 1.800227e+01 1.704942e+01 1.861756e+01 1.397156e+01 1.222873e-01 2.217584e-01 3.271311e-01 4.917147e-01 6.342157e-01 7.997390e-01 9.166628e-01 1.000928e+00 1.083207e+00 1.065357e+00 1.062328e+00 1.010012e+00 9.658870e-07
<GCONST> 5.835471e+01
<MIXTURE> 4 1.671429e-02
<MEAN> 25
 1.922004e+00 3.117562e+00 -3.885733e+00 -8.805407e-01 5.592603e+00 -2.102782e+00 2.929808e-01 -2.236697e+00 2.384988e+00 2.549741e+00 -2.445777e+00 1.433309e-02 -2.524266e+00 1.942691e+00 7.632068e-01 2.321202e+00 1.502871e+00 -1.410282e+00 1.653979e+00 1.033584e+00 5.904431e-01 1.963842e-01 -2.038429e-01 1.217450e+00 -9.060153e-02
<VARIANCE> 25
 1.785373e+01 2.423141e+01 2.223537e+01 3.552323e+01 4.200920e+01 6.652679e+01 5.154951e+01 4.648693e+01 5.743170e+01 4.315997e+01 4.642087e+01 2.554634e+01 1.928916e+00 4.422871e+00 3.660413e+00 3.933218e+00 4.354206e+00 8.426291e+00 4.724979e+00 5.334428e+00 4.642898e+00 4.715125e+00 7.043950e+00 4.167373e+00 4.739855e-03
<GCONST> 1.020538e+02
<MIXTURE> 5 3.206198e-03
<MEAN> 25
 -3.161504e+00 2.529884e+00 2.115268e-01 8.896981e+00 6.890950e+00 5.607210e+00 7.053458e+00 5.224882e+00 5.069645e+00 3.700643e+00 4.296939e+00 2.364191e+00 -3.255977e-01 6.928710e-01 1.194166e+00 9.305323e-01 2.107629e-01 -1.139260e-01 -8.496954e-02 4.998830e-02 5.247301e-01 6.323257e-01 3.176813e-01 6.041341e-02 -1.252699e-05
<VARIANCE> 25
 1.020138e+01 1.442342e+01 2.399153e+01 2.703046e+01 1.917561e+01 2.324800e+01 1.908555e+01 2.169205e+01 2.304667e+01 2.029725e+01 2.413478e+01 1.689138e+01 1.150932e+00 1.203775e+00 1.297599e+00 1.826004e+00 2.335324e+00 2.243933e+00 2.187890e+00 2.241681e+00 2.505257e+00 2.160829e+00 2.074577e+00 1.767474e+00 1.006304e-06
<GCONST> 7.531134e+01
<MIXTURE> 6 5.475854e-03
<MEAN> 25
 9.689731e+00 -4.893757e-01 -6.613044e+00 -1.083966e+01 -2.137326e+00 6.666126e+00 -5.832517e+00 -5.355595e+00 -3.716928e+00 1.855886e+00 4.724030e+00 -1.204841e+00 4.791539e-01 8.756803e-01 -3.609448e-01 -1.476276e+00 -6.391717e-01 1.328674e+00 1.534516e+00 2.252773e-01 -1.170281e+00 -1.176516e+00 3.141524e-01 1.198111e+00 -7.620639e-03
<VARIANCE> 25
 8.899298e+00 1.714101e+01 2.409794e+01 4.087681e+01 3.631625e+01 3.053021e+01 4.367492e+01 3.777850e+01 4.131001e+01 3.888873e+01 4.218511e+01 2.814405e+01 3.089409e-01 8.731292e-01 9.398391e-01 1.952625e+00 1.584064e+00 2.011940e+00 1.890587e+00 2.052180e+00 2.503683e+00 2.041527e+00 2.221750e+00 1.473260e+00 6.027961e-04
<GCONST> 8.396278e+01
<MIXTURE> 7 5.475854e-03
<MEAN> 25
 9.689731e+00 -4.893757e-01 -6.613044e+00 -1.083966e+01 -2.137326e+00 6.666126e+00 -5.832517e+00 -5.355595e+00 -3.716928e+00 1.855886e+00 4.724030e+00 -1.204841e+00 4.791539e-01 8.756803e-01 -3.609448e-01 -1.476276e+00 -6.391717e-01 1.328674e+00 1.534516e+00 2.252773e-01 -1.170281e+00 -1.176516e+00 3.141524e-01 1.198111e+00 -7.620639e-03
<VARIANCE> 25
 8.899298e+00 1.714101e+01 2.409794e+01 4.087681e+01 3.631625e+01 3.053021e+01 4.367492e+01 3.777850e+01 4.131001e+01 3.888873e+01 4.218511e+01 2.814405e+01 3.089409e-01 8.731292e-01 9.398391e-01 1.952625e+00 1.584064e+00 2.011940e+00 1.890587e+00 2.052180e+00 2.503683e+00 2.041527e+00 2.221750e+00 1.473260e+00 6.027961e-04
<GCONST> 8.396278e+01
<MIXTURE> 8 1.165917e-02
<MEAN> 25
 -4.701653e+00 1.420109e+00 1.288155e+00 9.489242e+00 6.603937e+00 6.189773e+00 6.487251e+00 5.737977e+00 6.597042e+00 5.549854e+00 6.492069e+00 3.159814e+00 -6.300190e-01 -1.421084e+00 -1.021533e+00 -1.719847e+00 -2.601473e-01 -9.058721e-01 -1.817713e-01 -3.047132e-01 -2.560686e-01 -1.779211e-01 -2.059864e-01 8.352421e-02 9.864371e-02
<VARIANCE> 25
 9.337287e+00 1.010766e+01 1.158387e+01 1.628283e+01 1.659942e+01 1.589847e+01 1.792996e+01 1.773589e+01 1.725599e+01 1.784053e+01 1.935405e+01 1.403896e+01 2.744668e+00 2.796188e+00 4.078224e+00 3.776390e+00 3.526220e+00 3.449182e+00 3.122289e+00 3.084987e+00 2.853439e+00 2.663871e+00 2.437064e+00 1.889380e+00 6.612980e-03
<GCONST> 8.647842e+01
<MIXTURE> 9 1.199672e-02
<MEAN> 25
 8.533842e+00 3.287970e+00 -4.086163e+00 -1.293475e+01 -3.817010e+00 6.745129e+00 -2.516651e+00 -2.948416e+00 -4.935545e+00 -1.064469e+00 5.001810e-01 1.688398e+00 1.605300e+00 -3.401023e-01 -4.020988e-01 -2.868636e+00 -1.960636e+00 1.381170e+00 -1.370635e+00 -6.110575e-01 -4.504561e-01 -6.454981e-01 7.060988e-01 -3.331820e-01 8.022092e-02
<VARIANCE> 25
 1.262553e+01 1.885959e+01 4.539742e+01 7.509755e+01 6.760128e+01 4.487797e+01 3.669870e+01 4.650975e+01 3.516832e+01 3.415486e+01 3.547712e+01 3.216513e+01 2.082718e+00 2.146983e+00 3.790599e+00 4.912508e+00 4.641872e+00 4.576525e+00 4.083306e+00 5.509413e+00 4.624728e+00 3.402335e+00 3.397521e+00 2.525661e+00 2.535065e-03
<GCONST> 9.866407e+01
<MIXTURE> 10 6.596976e-03
<MEAN> 25
 8.177976e-01 7.635556e+00 5.367202e+00 7.129068e+00 1.598638e+00 -2.119997e+00 -5.216008e-01 -1.685080e+00 8.697459e-01 8.621051e-01 8.394405e-01 6.577744e-01 -1.924248e+00 -6.691898e-01 -4.604430e-01 3.023997e+00 2.461339e+00 2.703110e+00 2.371648e+00 2.279339e+00 1.858817e+00 1.543060e+00 2.331121e+00 5.266510e-01 -1.380867e-01
<VARIANCE> 25
 1.952276e+01 2.066362e+01 2.233735e+01 2.933001e+01 3.838016e+01 3.491423e+01 3.512305e+01 3.380656e+01 2.758977e+01 2.902748e+01 2.692473e+01 2.498509e+01 2.233571e+00 3.435947e+00 5.530711e+00 5.174313e+00 5.547310e+00 4.503228e+00 4.697667e+00 4.839374e+00 4.388785e+00 5.017348e+00 4.452080e+00 3.189139e+00 2.696456e-03
<GCONST> 9.747183e+01
<MIXTURE> 11 1.633820e-02
<MEAN> 25
 7.345185e+00 2.545708e+00 4.165050e+00 5.907549e+00 -4.057863e+00 -2.282747e+00 -1.763087e+00 -5.945611e+00 -5.602597e+00 5.215775e-01 -2.784815e+00 -1.807685e+00 -2.598728e-01 4.573597e-01 4.021444e-02 1.373511e-01 5.204619e-01 -3.511982e-02 3.428237e-01 -1.232394e-01 -1.466629e-01 -5.495341e-02 -5.910413e-02 2.247797e-01 -1.675628e-02
<VARIANCE> 25
 1.031979e+01 3.167223e+01 2.006290e+01 2.743801e+01 3.506865e+01 5.076470e+01 4.284208e+01 4.219630e+01 4.989621e+01 3.149929e+01 3.268451e+01 2.579702e+01 8.255455e-01 1.153945e+00 1.820450e+00 3.299878e+00 1.892854e+00 2.521465e+00 2.166734e+00 2.408501e+00 2.663919e+00 2.098919e+00 2.025165e+00 1.397351e+00 9.402951e-04
<GCONST> 8.788040e+01
<MIXTURE> 12 5.904134e-03
<MEAN> 25
 9.018425e+00 3.005157e+00 -2.357829e+00 -1.782425e+01 -1.110728e+01 1.180142e+01 -2.561748e+00 -2.205711e+00 -2.695924e+00 -5.974062e+00 2.134073e+00 1.303770e+00 -5.016812e-02 7.946315e-02 -7.915740e-02 9.927750e-02 -2.671950e-01 -1.426358e-02 3.060384e-01 4.288204e-01 -1.578485e-01 -5.865623e-01 -1.390532e-01 -2.173993e-01 -8.381410e-04
<VARIANCE> 25
 1.255853e+01 1.707473e+01 2.641744e+01 3.520139e+01 4.196622e+01 4.182185e+01 3.673591e+01 3.653804e+01 3.588252e+01 3.295882e+01 2.847105e+01 2.459772e+01 2.414681e-01 6.405047e-01 6.156462e-01 1.449835e+00 9.210622e-01 9.657045e-01 1.075230e+00 1.036355e+00 1.229135e+00 1.020547e+00 1.168999e+00 8.919411e-01 5.057130e-04
<GCONST> 7.713936e+01
<MIXTURE> 13 5.904134e-03
<MEAN> 25
 9.018425e+00 3.005157e+00 -2.357829e+00 -1.782425e+01 -1.110728e+01 1.180142e+01 -2.561748e+00 -2.205711e+00 -2.695924e+00 -5.974062e+00 2.134073e+00 1.303770e+00 -5.016812e-02 7.946315e-02 -7.915740e-02 9.927750e-02 -2.671950e-01 -1.426358e-02 3.060384e-01 4.288204e-01 -1.578485e-01 -5.865623e-01 -1.390532e-01 -2.173993e-01 -8.381410e-04
<VARIANCE> 25
 1.255853e+01 1.707473e+01 2.641744e+01 3.520139e+01 4.196622e+01 4.182185e+01 3.673591e+01 3.653804e+01 3.588252e+01 3.295882e+01 2.847105e+01 2.459772e+01 2.414681e-01 6.405047e-01 6.156462e-01 1.449835e+00 9.210622e-01 9.657045e-01 1.075230e+00 1.036355e+00 1.229135e+00 1.020547e+00 1.168999e+00 8.919411e-01 5.057130e-04
<GCONST> 7.713936e+01
<MIXTURE> 14 6.488954e-03
<MEAN> 25
 -4.247174e+00 -2.289020e-01 -3.540564e-01 8.861097e+00 7.557387e+00 7.165717e+00 7.808232e+00 7.383638e+00 7.165165e+00 5.171397e+00 6.721933e+00 4.041707e+00 -2.690753e-01 1.951289e-01 3.728001e-01 2.948634e-01 2.311185e-03 7.578923e-02 7.940908e-02 1.881255e-01 3.332965e-01 5.426167e-01 4.987323e-01 9.450602e-02 -9.159585e-03
<VARIANCE> 25
 9.406828e+00 1.477759e+01 1.852502e+01 1.776403e+01 2.064113e+01 2.160173e+01 2.119062e+01 2.041532e+01 2.025826e+01 2.373468e+01 2.201877e+01 1.599857e+01 9.486035e-01 1.635269e+00 1.756452e+00 1.917974e+00 2.238058e+00 2.268577e+00 2.249935e+00 2.213760e+00 2.351502e+00 2.481487e+00 2.177526e+00 1.807226e+00 1.018046e-03
<GCONST> 8.201556e+01
<MIXTURE> 15 2.475190e-03
<MEAN> 25
 -5.416987e+00 -6.309197e-01 -2.076672e-01 7.360533e+00 5.725112e+00 5.683629e+00 6.070573e+00 4.997156e+00 5.155871e+00 4.152777e+00 5.495074e+00 2.541813e+00 -1.213518e-01 -2.977198e-02 7.498433e-02 2.423176e-01 4.885904e-01 7.864489e-01 1.072378e+00 1.182863e+00 1.059764e+00 7.555548e-01 4.193967e-01 1.555042e-01 -8.356675e-05
<VARIANCE> 25
 6.996202e+00 5.688979e+00 9.042854e+00 1.282669e+01 1.407858e+01 1.444010e+01 1.496831e+01 1.503575e+01 1.412288e+01 1.416990e+01 1.510350e+01 1.249602e+01 1.246247e-01 2.068270e-01 3.192763e-01 5.039938e-01 6.993635e-01 7.933825e-01 7.626746e-01 7.908506e-01 9.088063e-01 1.022940e+00 1.069656e+00 1.044023e+00 2.791120e-05
<GCONST> 5.862579e+01
<MIXTURE> 16 2.475190e-03
<MEAN> 25
 -5.416987e+00 -6.309197e-01 -2.076672e-01 7.360533e+00 5.725112e+00 5.683629e+00 6.070573e+00 4.997156e+00 5.155871e+00 4.152777e+00 5.495074e+00 2.541813e+00 -1.213518e-01 -2.977198e-02 7.498433e-02 2.423176e-01 4.885904e-01 7.864489e-01 1.072378e+00 1.182863e+00 1.059764e+00 7.555548e-01 4.193967e-01 1.555042e-01 -8.356675e-05
<VARIANCE> 25
 6.996202e+00 5.688979e+00 9.042854e+00 1.282669e+01 1.407858e+01 1.444010e+01 1.496831e+01 1.503575e+01 1.412288e+01 1.416990e+01 1.510350e+01 1.249602e+01 1.246247e-01 2.068270e-01 3.192763e-01 5.039938e-01 6.993635e-01 7.933825e-01 7.626746e-01 7.908506e-01 9.088063e-01 1.022940e+00 1.069656e+00 1.044023e+00 2.791120e-05
<GCONST> 5.862579e+01
<MIXTURE> 17 9.518312e-03
<MEAN> 25
 3.269974e+00 -1.018256e+00 7.690970e+00 2.515149e+00 -5.143121e+00 -4.527528e+00 -4.686715e+00 -2.423558e-01 -2.427938e+00 -4.807487e+00 -5.629949e-01 1.616550e+00 -7.505606e-01 -1.157045e+00 1.594429e+00 -2.063860e+00 -2.153677e+00 1.362368e+00 -7.775048e-01 9.255762e-02 8.102757e-02 -4.137994e-01 1.120752e+00 2.300135e-01 7.696491e-02
<VARIANCE> 25
 1.512476e+01 3.431065e+01 4.162320e+01 3.530035e+01 5.110739e+01 5.926736e+01 5.344676e+01 4.039138e+01 3.492926e+01 4.010572e+01 2.528980e+01 3.145593e+01 1.744492e+00 2.110064e+00 3.067572e+00 3.566134e+00 4.454432e+00 7.049994e+00 5.630801e+00 5.194254e+00 4.227971e+00 3.469099e+00 2.647998e+00 2.359706e+00 2.023031e-03
<GCONST> 9.794146e+01
<MIXTURE> 18 1.221018e-02
<MEAN> 25
 3.298886e+00 3.089722e+00 6.165000e+00 5.063669e+00 -5.397341e+00 -8.526358e+00 -2.459139e+00 -6.479645e-01 -3.863510e+00 -2.893617e+00 -4.917905e-01 1.145932e+00 -4.456478e-01 2.096162e+00 -6.305113e-01 1.739858e+00 2.977539e+00 4.428309e-01 1.146853e+00 4.325310e-01 5.017288e-01 7.340142e-01 -1.079017e+00 4.785841e-02 -1.261832e-01
<VARIANCE> 25
 1.368186e+01 2.721184e+01 3.709741e+01 2.207632e+01 4.143101e+01 4.701682e+01 3.618589e+01 3.358759e+01 3.256515e+01 3.609314e+01 3.293979e+01 2.659875e+01 2.277909e+00 2.524746e+00 4.024441e+00 3.640795e+00 3.496969e+00 5.960334e+00 3.840208e+00 4.955754e+00 3.601862e+00 3.835025e+00 5.040563e+00 2.984437e+00 3.687143e-03
<GCONST> 9.724770e+01
<MIXTURE> 19 9.912824e-03
<MEAN> 25
 -1.027374e+01 2.691414e+00 5.102790e-02 6.122699e-01 4.249900e+00 4.029874e-01 3.312573e+00 1.142423e+00 2.834718e+00 1.259637e+00 3.945261e-01 1.998558e+00 2.038696e+00 1.501888e+00 2.117765e+00 8.283868e-01 -1.066540e+00 -8.170161e-01 -8.303842e-01 -1.436917e+00 -1.721774e+00 -1.047051e+00 -8.589114e-01 -7.750044e-01 -3.125568e-03
<VARIANCE> 25
 5.089999e+01 3.317161e+01 4.438261e+01 5.157013e+01 3.316781e+01 4.300352e+01 2.926348e+01 2.892167e+01 3.298586e+01 2.524636e+01 3.215395e+01 1.927109e+01 2.401614e+00 2.534631e+00 2.085903e+00 2.288568e+00 2.452541e+00 2.451746e+00 2.718748e+00 2.323157e+00 3.059201e+00 2.043606e+00 2.171171e+00 1.652393e+00 2.614689e-03
<GCONST> 9.244206e+01
<MIXTURE> 20 6.308331e-03
<MEAN> 25
 -1.419482e+01 7.433812e+00 8.315925e-01 6.054953e+00 4.884421e+00 1.557510e+00 5.138190e+00 8.379766e-01 8.674133e-01 7.786386e-01 2.478381e+00 -3.265594e-01 -3.276820e+00 -8.643678e-01 -1.535617e+00 3.294210e-01 1.528557e+00 2.042226e+00 1.975776e+00 2.050492e+00 2.139118e+00 2.019530e+00 1.694906e+00 9.543229e-01 4.754027e-02
<VARIANCE> 25
 1.980071e+01 2.331041e+01 3.072847e+01 3.795137e+01 3.079644e+01 2.840141e+01 3.037677e+01 3.133651e+01 2.845886e+01 2.820801e+01 2.595052e+01 2.090329e+01 2.088103e+00 2.169806e+00 1.995534e+00 2.537029e+00 2.704872e+00 2.350419e+00 2.302751e+00 2.315107e+00 2.220497e+00 2.680125e+00 2.255411e+00 1.862895e+00 1.878747e-03
<GCONST> 8.935742e+01
<MIXTURE> 21 7.928653e-03
<MEAN> 25
 3.529388e+00 -5.134744e+00 5.291058e+00 -1.343306e+00 -1.071544e+01 -7.844711e+00 -3.156163e+00 4.288467e+00 -1.917219e+00 -3.421555e+00 3.429240e-01 4.981216e-02 -7.314344e-01 1.353578e+00 2.438442e+00 6.159143e-02 -1.461704e+00 1.965063e-01 4.535094e-01 -1.472034e+00 -1.967957e+00 1.554079e-01 1.349587e+00 3.030523e-01 -1.376736e-02
<VARIANCE> 25
 1.131029e+01 2.231633e+01 3.081787e+01 2.709417e+01 2.691471e+01 4.119822e+01 4.388694e+01 3.697232e+01 4.052616e+01 2.955184e+01 3.171426e+01 2.282523e+01 3.536848e-01 8.938567e-01 2.024015e+00 1.354739e+00 2.169754e+00 2.303602e+00 3.640279e+00 2.345793e+00 2.026820e+00 2.749575e+00 1.894192e+00 2.173591e+00 4.172809e-04
<GCONST> 8.524319e+01
<MIXTURE> 22 8.827789e-03
<MEAN> 25
 -1.789244e+01 7.187633e+00 -4.139803e+00 7.346626e+00 4.643991e+00 2.672262e+00 8.410948e+00 1.760816e+00 5.381395e+00 3.337994e+00 5.640499e+00 1.161900e+00 -3.130812e-01 -1.856373e-01 -1.351444e-01 -1.489552e-01 2.731097e-04 1.303435e-01 1.817818e-01 1.720371e-01 2.462992e-01 2.094218e-01 1.795923e-01 1.876412e-01 8.703071e-03
<VARIANCE> 25
 8.161070e+00 1.688211e+01 1.726566e+01 2.537199e+01 2.295284e+01 2.168212e+01 1.969019e+01 1.868726e+01 1.861699e+01 2.118316e+01 1.981524e+01 1.379470e+01 1.085765e+00 1.423360e+00 1.374480e+00 1.563592e+00 1.446342e+00 1.523751e+00 1.498245e+00 1.533374e+00 1.604444e+00 1.544531e+00 1.358701e+00 1.166340e+00 1.738029e-03
<GCONST> 7.849606e+01
<MIXTURE> 23 6.455497e-03
<MEAN> 25
 7.941915e+00 1.344901e+00 3.853718e+00 4.273591e+00 -5.016714e+00 -4.714997e+00 -2.788905e+00 -4.771523e+00 -4.955308e+00 -1.260422e+00 -5.025758e+00 -5.251543e-01 6.833279e-02 1.343836e-01 -9.885541e-02 9.027237e-02 1.055437e-01 -2.246255e-01 -4.815538e-02 9.733551e-02 -2.247561e-02 -1.184410e-01 2.364255e-01 1.783026e-01 -4.637968e-03
<VARIANCE> 25
 8.869882e+00 2.034991e+01 2.048836e+01 3.910656e+01 3.148952e+01 5.229000e+01 4.986616e+01 4.999979e+01 4.358384e+01 3.692470e+01 3.889348e+01 3.890939e+01 1.011770e-01 2.765996e-01 3.536911e-01 4.887178e-01 5.172961e-01 8.362586e-01 7.590652e-01 7.996260e-01 7.151577e-01 7.923641e-01 1.013288e+00 7.353050e-01 7.425882e-05
<GCONST> 7.072343e+01
<MIXTURE> 24 6.455497e-03
<MEAN> 25
 7.941915e+00 1.344901e+00 3.853718e+00 4.273591e+00 -5.016714e+00 -4.714997e+00 -2.788905e+00 -4.771523e+00 -4.955308e+00 -1.260422e+00 -5.025758e+00 -5.251543e-01 6.833279e-02 1.343836e-01 -9.885541e-02 9.027237e-02 1.055437e-01 -2.246255e-01 -4.815538e-02 9.733551e-02 -2.247561e-02 -1.184410e-01 2.364255e-01 1.783026e-01 -4.637968e-03
<VARIANCE> 25
 8.869882e+00 2.034991e+01 2.048836e+01 3.910656e+01 3.148952e+01 5.229000e+01 4.986616e+01 4.999979e+01 4.358384e+01 3.692470e+01 3.889348e+01 3.890939e+01 1.011770e-01 2.765996e-01 3.536911e-01 4.887178e-01 5.172961e-01 8.362586e-01 7.590652e-01 7.996260e-01 7.151577e-01 7.923641e-01 1.013288e+00 7.353050e-01 7.425882e-05
<GCONST> 7.072343e+01
<MIXTURE> 25 1.118642e-02
<MEAN> 25
 -6.382545e-01 -1.078707e+00 1.751875e+01 8.001276e-01 -1.332640e+01 1.893040e+00 -7.803666e+00 -6.244452e+00 -3.012098e+00 -1.067589e+01 5.154051e+00 2.077470e+00 -5.736898e-02 4.293015e-01 -1.241742e-01 4.099701e-02 3.285804e-01 -6.485250e-02 6.104030e-02 -5.200266e-02 -1.031209e-01 1.847243e-01 -8.203806e-03 -1.241219e-01 -1.538885e-02
<VARIANCE> 25
 7.491432e+00 2.047741e+01 1.673592e+01 2.146170e+01 2.358983e+01 2.959486e+01 2.221641e+01 3.177849e+01 2.528264e+01 3.067398e+01 1.868310e+01 2.066915e+01 5.230335e-01 1.118201e+00 1.326552e+00 1.074955e+00 2.457142e+00 2.012152e+00 2.878641e+00 1.645226e+00 1.394017e+00 1.368674e+00 1.334986e+00 1.569234e+00 1.690575e-03
<GCONST> 8.055640e+01
<MIXTURE> 26 7.727677e-03
<MEAN> 25
 2.335389e+00 -4.429660e+00 -9.965817e+00 -1.679855e+00 7.356105e+00 5.569051e+00 3.967971e+00 -1.540544e+00 3.257119e+00 9.857138e-01 -3.222019e+00 -2.264804e+00 -4.517373e-01 8.421952e-01 1.099619e-01 7.723941e-01 4.698709e-01 -2.628886e-01 2.757718e-01 8.891420e-01 -7.265841e-02 1.080042e-01 2.129810e-01 2.552969e-01 -5.588610e-02
<VARIANCE> 25
 1.683669e+01 3.375018e+01 1.982007e+01 4.821387e+01 3.127299e+01 4.761263e+01 3.795195e+01 6.312002e+01 4.004355e+01 4.250669e+01 3.254467e+01 3.529633e+01 1.325654e+00 1.666488e+00 1.574152e+00 1.707531e+00 1.933772e+00 2.548329e+00 1.967347e+00 3.049759e+00 2.288730e+00 2.224182e+00 1.978260e+00 1.788843e+00 2.712464e-03
<GCONST> 9.087437e+01
<MIXTURE> 27 7.727677e-03
<MEAN> 25
 2.335389e+00 -4.429660e+00 -9.965817e+00 -1.679855e+00 7.356105e+00 5.569051e+00 3.967971e+00 -1.540544e+00 3.257119e+00 9.857138e-01 -3.222019e+00 -2.264804e+00 -4.517373e-01 8.421952e-01 1.099619e-01 7.723941e-01 4.698709e-01 -2.628886e-01 2.757718e-01 8.891420e-01 -7.265841e-02 1.080042e-01 2.129810e-01 2.552969e-01 -5.588610e-02
<VARIANCE> 25
 1.683669e+01 3.375018e+01 1.982007e+01 4.821387e+01 3.127299e+01 4.761263e+01 3.795195e+01 6.312002e+01 4.004355e+01 4.250669e+01 3.254467e+01 3.529633e+01 1.325654e+00 1.666488e+00 1.574152e+00 1.707531e+00 1.933772e+00 2.548329e+00 1.967347e+00 3.049759e+00 2.288730e+00 2.224182e+00 1.978260e+00 1.788843e+00 2.712464e-03
<GCONST> 9.087437e+01
<MIXTURE> 28 5.036674e-03
<MEAN> 25
 -4.530649e+00 1.642481e+00 -2.085730e+00 5.822521e+00 6.197532e+00 2.110536e+00 5.845944e+00 4.597389e+00 2.812687e+00 2.286920e+00 2.166791e+00 3.027822e+00 -6.927461e-02 1.850518e-01 5.203900e-01 7.230563e-01 7.369695e-01 7.086070e-01 5.550314e-01 4.844060e-01 5.131935e-01 3.268342e-01 3.732636e-01 2.131001e-01 5.947016e-05
<VARIANCE> 25
 1.084760e+01 1.446372e+01 1.071709e+01 1.423911e+01 1.554975e+01 2.170703e+01 1.759542e+01 2.210813e+01 2.061490e+01 1.515298e+01 1.822746e+01 1.370771e+01 2.904429e-01 3.275957e-01 3.834463e-01 4.349445e-01 5.801715e-01 7.955711e-01 9.937046e-01 1.141217e+00 1.104212e+00 1.007306e+00 9.233828e-01 1.006599e+00 9.763969e-07
<GCONST> 6.048382e+01
<MIXTURE> 29 5.036674e-03
<MEAN> 25
 -4.530649e+00 1.642481e+00 -2.085730e+00 5.822521e+00 6.197532e+00 2.110536e+00 5.845944e+00 4.597389e+00 2.812687e+00 2.286920e+00 2.166791e+00 3.027822e+00 -6.927461e-02 1.850518e-01 5.203900e-01 7.230563e-01 7.369695e-01 7.086070e-01 5.550314e-01 4.844060e-01 5.131935e-01 3.268342e-01 3.732636e-01 2.131001e-01 5.947016e-05
<VARIANCE> 25
 1.084760e+01 1.446372e+01 1.071709e+01 1.423911e+01 1.554975e+01 2.170703e+01 1.759542e+01 2.210813e+01 2.061490e+01 1.515298e+01 1.822746e+01 1.370771e+01 2.904429e-01 3.275957e-01 3.834463e-01 4.349445e-01 5.801715e-01 7.955711e-01 9.937046e-01 1.141217e+00 1.104212e+00 1.007306e+00 9.233828e-01 1.006599e+00 9.763969e-07
<GCONST> 6.048382e+01
<MIXTURE> 30 8.917812e-03
<MEAN> 25
 -4.375379e+00 2.559929e-01 5.640524e-01 8.676506e+00 7.858687e+00 6.991978e+00 7.582220e+00 7.188998e+00 6.271351e+00 4.627564e+00 6.728026e+00 3.732581e+00 -9.466785e-03 4.513628e-02 5.586323e-02 1.100323e-01 8.125733e-02 1.178339e-02 3.382507e-02 4.180565e-03 -1.897137e-02 6.577016e-02 7.820754e-02 4.524254e-02 -6.373490e-04
<VARIANCE> 25
 6.739808e+00 1.204691e+01 1.017174e+01 1.562475e+01 1.497906e+01 1.920432e+01 1.932829e+01 1.881435e+01 1.651571e+01 1.877145e+01 2.121189e+01 1.498899e+01 9.988835e-02 1.940234e-01 3.080282e-01 4.987739e-01 5.898981e-01 7.189396e-01 7.691221e-01 7.968277e-01 9.418098e-01 9.031721e-01 8.857055e-01 8.291966e-01 4.800308e-05
<GCONST> 6.088996e+01
<MIXTURE> 31 4.136493e-03
<MEAN> 25
 -3.220566e+00 -5.134179e+00 1.877148e-02 4.941624e+00 3.903118e+00 1.473302e+00 5.361724e+00 6.820107e+00 2.557698e+00 1.159354e+00 6.242273e+00 3.080113e+00 2.514143e-01 5.085682e-01 -1.947665e-01 2.958911e-01 1.511269e-01 3.912108e-01 1.901540e-01 5.699300e-02 4.496895e-01 4.341629e-01 1.461626e-01 1.720447e-01 -1.815652e-02
<VARIANCE> 25
 7.039094e+00 2.112644e+01 1.700409e+01 1.762826e+01 2.527123e+01 2.387915e+01 2.301804e+01 2.490270e+01 2.610785e+01 2.714843e+01 2.128203e+01 1.850201e+01 1.846098e-01 5.131240e-01 5.931956e-01 7.463720e-01 9.544286e-01 1.084780e+00 1.175720e+00 1.391253e+00 1.498160e+00 1.346771e+00 1.251991e+00 1.186676e+00 2.485783e-04
<GCONST> 7.209850e+01
<MIXTURE> 32 4.136493e-03
<MEAN> 25
 -3.220566e+00 -5.134179e+00 1.877148e-02 4.941624e+00 3.903118e+00 1.473302e+00 5.361724e+00 6.820107e+00 2.557698e+00 1.159354e+00 6.242273e+00 3.080113e+00 2.514143e-01 5.085682e-01 -1.947665e-01 2.958911e-01 1.511269e-01 3.912108e-01 1.901540e-01 5.699300e-02 4.496895e-01 4.341629e-01 1.461626e-01 1.720447e-01 -1.815652e-02
<VARIANCE> 25
 7.039094e+00 2.112644e+01 1.700409e+01 1.762826e+01 2.527123e+01 2.387915e+01 2.301804e+01 2.490270e+01 2.610785e+01 2.714843e+01 2.128203e+01 1.850201e+01 1.846098e-01 5.131240e-01 5.931956e-01 7.463720e-01 9.544286e-01 1.084780e+00 1.175720e+00 1.391253e+00 1.498160e+00 1.346771e+00 1.251991e+00 1.186676e+00 2.485783e-04
<GCONST> 7.209850e+01
<MIXTURE> 33 1.508826e-02
<MEAN> 25
 5.435980e+00 -7.002534e+00 -3.146459e-01 -1.731027e+00 -4.533654e+00 -1.532635e+00 -6.283644e+00 2.794445e-01 1.865861e+00 4.771434e-01 -1.595261e+00 -3.628430e+00 3.684429e-01 -1.305291e+00 -2.111030e+00 -2.015636e+00 1.117849e+00 1.874750e+00 -5.760174e-01 4.556291e-01 2.029972e+00 7.441911e-01 -3.757824e-01 -1.627172e+00 3.343111e-02
<VARIANCE> 25
 8.821252e+00 2.299502e+01 2.411586e+01 2.744632e+01 3.710853e+01 5.194600e+01 3.892944e+01 4.816999e+01 4.617080e+01 3.529624e+01 3.681071e+01 2.043562e+01 8.561549e-01 1.446685e+00 1.534103e+00 1.686192e+00 3.308916e+00 3.085075e+00 3.530889e+00 4.388231e+00 3.937701e+00 2.991123e+00 4.140141e+00 1.986985e+00 1.255891e-03
<GCONST> 9.099595e+01
<MIXTURE> 34 1.588179e-02
<MEAN> 25
 7.319522e+00 -2.501813e+00 7.836367e-01 1.545442e+00 -4.176207e+00 9.790276e-02 -6.751181e+00 -4.110416e+00 -2.685410e+00 5.372066e-01 -1.566205e+00 -4.915629e+00 1.200351e-01 1.511286e+00 8.896706e-01 2.192443e+00 5.152674e-01 -1.049405e+00 1.231591e+00 -1.314724e+00 -1.240078e+00 5.487685e-01 -1.104889e+00 5.445151e-01 -6.691543e-02
<VARIANCE> 25
 8.949072e+00 3.754481e+01 2.493118e+01 4.549732e+01 3.344741e+01 5.238618e+01 5.403957e+01 4.465675e+01 6.003059e+01 3.471218e+01 4.490344e+01 2.999159e+01 9.938828e-01 1.873290e+00 4.073896e+00 3.648748e+00 4.608025e+00 5.205895e+00 4.500728e+00 4.829435e+00 4.870557e+00 4.095922e+00 4.510382e+00 3.249361e+00 1.181038e-03
<GCONST> 9.741628e+01
<MIXTURE> 35 1.467755e-02
<MEAN> 25
 -3.322129e+00 -3.754839e+00 -9.620201e+00 -4.193378e-01 9.702405e+00 -4.742347e+00 7.067084e-01 -1.328409e+00 2.559816e+00 4.930215e+00 -1.810041e+00 2.657106e+00 4.294231e-02 -9.696583e-01 -8.904232e-01 -1.616368e+00 4.959496e-03 1.708019e-01 -5.863719e-01 -9.215964e-01 8.211551e-01 1.892666e-01 -8.912201e-02 -3.172748e-01 1.011442e-01
<VARIANCE> 25
 1.628259e+01 2.577476e+01 3.300855e+01 4.284121e+01 3.091003e+01 6.811480e+01 3.713070e+01 5.942633e+01 3.494894e+01 3.061024e+01 3.629377e+01 2.173635e+01 4.664365e+00 3.773272e+00 5.525212e+00 4.062589e+00 7.903017e+00 7.433587e+00 3.890278e+00 5.362549e+00 4.817848e+00 4.776423e+00 4.507399e+00 4.126766e+00 4.077960e-03
<GCONST> 1.018853e+02
<MIXTURE> 36 1.093293e-02
<MEAN> 25
 3.810683e+00 -4.538093e+00 8.697331e+00 4.160930e+00 -1.119618e+01 -7.478523e+00 -6.568862e+00 2.796530e+00 -5.101766e+00 -5.802976e+00 6.664311e+00 7.995407e-01 3.047277e-01 2.303430e-01 -1.286759e+00 4.091401e-02 1.016901e+00 -3.395717e-01 -7.026965e-01 -2.692056e-01 7.456898e-01 5.227774e-01 -6.396663e-01 -1.553728e-01 -2.219754e-02
<VARIANCE> 25
 7.936890e+00 1.443487e+01 2.172915e+01 2.029299e+01 2.557183e+01 2.841620e+01 2.950565e+01 2.542263e+01 3.763855e+01 2.492010e+01 4.241568e+01 1.973487e+01 3.723689e-01 8.990396e-01 1.615077e+00 1.039301e+00 1.496888e+00 1.659316e+00 1.535103e+00 1.473765e+00 2.372753e+00 1.528804e+00 2.181367e+00 1.213352e+00 9.246584e-04
<GCONST> 7.998495e+01
<MIXTURE> 37 1.246826e-02
<MEAN> 25
 6.217686e-01 5.518587e+00 1.305527e+01 -4.025358e+00 -9.413321e+00 3.582664e-01 -5.838949e+00 -8.170206e+00 -2.790737e+00 -3.559027e+00 -1.685870e+00 -2.919836e-01 4.537747e-01 6.556826e-01 -1.481669e+00 3.199157e+00 1.866788e+00 -7.514915e-01 1.391248e+00 1.002728e+00 5.902424e-02 1.609139e-01 -2.854676e-02 -2.195092e-01 -1.019742e-01
<VARIANCE> 25
 1.575908e+01 3.706581e+01 2.949148e+01 5.175266e+01 4.244098e+01 3.327221e+01 3.913198e+01 3.066105e+01 3.632351e+01 5.526376e+01 4.992545e+01 2.891111e+01 2.631746e+00 2.779469e+00 2.552357e+00 4.023276e+00 3.771008e+00 3.844355e+00 3.855874e+00 4.415782e+00 3.624734e+00 3.668411e+00 4.218907e+00 2.558673e+00 3.803320e-03
<GCONST> 9.809219e+01
<MIXTURE> 38 1.154525e-02
<MEAN> 25
 -5.844224e+00 8.353033e+00 2.759634e+00 9.701617e-01 2.170445e+00 -6.034184e+00 -1.768624e+00 -3.080928e+00 -2.407117e+00 -1.769068e+00 -3.239244e+00 6.142610e-01 -3.946927e+00 8.249127e-01 4.100655e-02 6.297102e-01 2.036919e+00 8.965987e-01 1.884109e+00 1.953363e-01 8.383899e-01 1.423778e-01 5.628812e-01 4.186223e-01 5.808469e-02
<VARIANCE> 25
 3.147127e+01 2.642318e+01 3.322781e+01 3.746169e+01 5.363703e+01 2.841404e+01 3.461708e+01 3.335103e+01 3.940607e+01 3.527409e+01 2.630361e+01 3.440852e+01 2.025464e+00 3.253774e+00 3.172985e+00 5.378074e+00 3.879234e+00 4.331968e+00 3.280544e+00 5.063483e+00 5.084898e+00 4.483566e+00 5.553772e+00 3.186659e+00 1.710954e-03
<GCONST> 9.820636e+01
<MIXTURE> 39 9.501865e-03
<MEAN> 25
 1.412449e+00 2.132900e+00 1.072813e+01 -8.693379e+00 -1.128985e+01 -6.134657e-01 -3.168901e+00 -6.679464e+00 -4.381317e+00 1.613121e-01 -3.343358e+00 -1.853825e+00 -7.041233e-01 1.400767e+00 1.585312e+00 -1.418858e+00 5.237084e-02 1.293581e+00 -1.291553e+00 -1.192786e+00 4.725199e-01 4.717512e-01 -4.676004e-01 1.234547e-01 4.088555e-03
<VARIANCE> 25
 8.539790e+00 3.207822e+01 3.622551e+01 4.062190e+01 3.731120e+01 4.285635e+01 4.460153e+01 3.326944e+01 4.059330e+01 4.118639e+01 3.786281e+01 3.138008e+01 6.693935e-01 1.696239e+00 1.516164e+00 3.049843e+00 2.413997e+00 3.075723e+00 3.154636e+00 2.675591e+00 2.380291e+00 2.569383e+00 2.098594e+00 1.996261e+00 1.286778e-03
<GCONST> 9.041931e+01
<MIXTURE> 40 1.030800e-02
<MEAN> 25
 -8.000617e+00 2.584953e+00 -1.866881e+00 7.384221e+00 4.704483e+00 4.665079e+00 5.420711e+00 4.812029e+00 4.248639e+00 4.198951e+00 4.771140e+00 1.361889e+00 -1.124054e-01 -2.247974e-01 2.309429e-02 -2.377605e-01 -1.041928e-01 -1.001581e-01 -1.751556e-02 1.505821e-01 6.338826e-02 -5.570951e-03 9.408123e-03 1.121744e-01 1.254344e-03
<VARIANCE> 25
 4.656577e+01 1.983457e+01 2.997938e+01 2.784912e+01 2.738209e+01 2.114494e+01 1.750838e+01 1.870160e+01 1.641503e+01 1.778842e+01 2.116335e+01 1.533167e+01 6.813841e-01 7.638109e-01 8.391685e-01 1.025966e+00 1.073240e+00 1.305834e+00 1.371671e+00 1.267770e+00 1.358521e+00 1.177472e+00 1.166888e+00 1.040377e+00 8.019695e-04
<GCONST> 7.673734e+01
<MIXTURE> 41 6.713375e-03
<MEAN> 25
 1.313349e+00 1.804581e+00 1.052000e+01 -6.952530e+00 -1.025502e+01 -2.827365e+00 -2.333547e+00 -4.741029e+00 -4.359733e+00 2.201805e+00 -1.607393e+00 -2.986361e-01 1.949212e-01 -8.608033e-01 1.735843e+00 -3.636584e+00 -2.742039e+00 1.648868e-01 -7.090260e-01 -5.917937e-01 -9.334866e-01 9.505436e-01 -8.351147e-01 9.631374e-02 9.364946e-02
<VARIANCE> 25
 1.110199e+01 2.866483e+01 3.355690e+01 4.814816e+01 3.830989e+01 5.021822e+01 3.599909e+01 3.094430e+01 3.509748e+01 3.141674e+01 3.145828e+01 3.249629e+01 3.142804e+00 3.162955e+00 3.675140e+00 4.882553e+00 5.754848e+00 6.432416e+00 4.852090e+00 4.962556e+00 4.119255e+00 4.091528e+00 4.144687e+00 3.144019e+00 3.448928e-03
<GCONST> 9.930911e+01
<MIXTURE> 42 1.106211e-02
<MEAN> 25
 -4.078738e+00 3.795382e+00 4.884345e+00 2.640426e+00 2.046466e+00 -7.052058e+00 1.954045e+00 -3.621366e+00 -1.116251e+00 -1.167647e+00 -2.983396e+00 2.109122e+00 3.480261e+00 -1.832711e+00 2.221195e+00 8.009010e-01 -3.748148e+00 3.221712e-01 -1.915858e+00 -1.186778e+00 -1.844144e+00 -9.844685e-01 1.528421e+00 -8.500440e-01 4.623280e-02
<VARIANCE> 25
 3.086767e+01 2.277463e+01 3.863611e+01 2.253530e+01 3.277672e+01 3.535982e+01 2.955712e+01 3.479660e+01 3.135731e+01 2.569827e+01 2.304964e+01 1.689358e+01 3.252676e+00 4.024973e+00 4.292902e+00 3.803615e+00 5.047314e+00 5.607241e+00 5.234009e+00 4.721180e+00 6.840545e+00 4.858529e+00 3.802459e+00 3.329320e+00 5.582269e-03
<GCONST> 9.868806e+01
<MIXTURE> 43 7.108249e-03
<MEAN> 25
 3.044243e+00 -6.414049e+00 -2.185802e+00 -5.051929e+00 -7.500922e+00 -3.244672e+00 3.840190e+00 1.357056e+00 -5.059706e+00 -7.003310e+00 -4.202826e+00 -1.260121e+00 2.309487e-01 2.148072e+00 1.883697e+00 -9.144215e-02 -1.389242e+00 -8.271790e-01 -9.898818e-01 -7.730986e-01 7.793984e-01 1.438072e+00 3.332134e-01 2.430109e-02 -4.552700e-02
<VARIANCE> 25
 1.021210e+01 1.996290e+01 2.720807e+01 3.546766e+01 3.821190e+01 3.720118e+01 3.721623e+01 3.930857e+01 3.953050e+01 3.831464e+01 2.720807e+01 2.898593e+01 6.801503e-01 1.255226e+00 1.589512e+00 2.538475e+00 2.408935e+00 2.393028e+00 2.643774e+00 2.973859e+00 2.645215e+00 2.644982e+00 2.324722e+00 1.882890e+00 9.553793e-04
<GCONST> 8.819650e+01
<MIXTURE> 44 7.328289e-03
<MEAN> 25
 -1.441109e+01 2.852767e+00 2.319319e+00 -3.322369e+00 4.251238e+00 1.078089e-01 -4.950576e-01 1.496553e+00 2.423052e+00 -6.726059e-01 9.064676e-01 2.232688e+00 -3.386816e-01 4.768444e-02 2.153607e-01 1.729285e-01 -2.248266e-01 7.089783e-02 3.911234e-01 1.815807e-01 3.262970e-01 2.611920e-01 6.981380e-02 1.444445e-01 3.938953e-03
<VARIANCE> 25
 4.398359e+01 2.940842e+01 3.364040e+01 2.662537e+01 2.863677e+01 3.708108e+01 2.458569e+01 3.275955e+01 3.944596e+01 2.385614e+01 2.696476e+01 1.854531e+01 1.432429e+00 1.480395e+00 1.445889e+00 1.406489e+00 2.185722e+00 1.640983e+00 1.571806e+00 1.531785e+00 1.517617e+00 1.465740e+00 1.482249e+00 1.231608e+00 1.375594e-03
<GCONST> 8.506043e+01
<MIXTURE> 45 1.364932e-02
<MEAN> 25
 -9.568336e+00 5.027961e+00 -2.698761e+00 1.682015e+00 7.212161e+00 -2.944568e+00 4.682750e+00 2.588097e+00 3.488957e+00 2.550032e+00 -1.963040e+00 9.274577e-01 -2.796807e+00 9.995229e-01 -9.481430e-03 -2.013981e-01 4.256705e-01 -6.043000e-01 7.751105e-01 -1.795690e-01 -1.911265e-01 -1.856058e-01 1.663916e-02 1.836746e-01 8.604362e-02
<VARIANCE> 25
 3.385250e+01 3.013819e+01 2.637557e+01 2.803124e+01 2.171197e+01 3.316157e+01 3.502726e+01 3.176235e+01 3.859902e+01 2.360514e+01 2.861481e+01 1.540738e+01 1.727094e+00 2.931360e+00 2.359828e+00 1.768357e+00 1.795915e+00 2.803782e+00 2.312655e+00 2.604478e+00 1.846276e+00 2.628421e+00 2.175595e+00 1.322456e+00 3.022427e-03
<GCONST> 8.927495e+01
<MIXTURE> 46 9.336259e-03
<MEAN> 25
 -9.182492e+00 3.668227e+00 -1.536222e-01 6.995811e+00 6.874915e+00 1.935726e+00 8.040690e+00 4.945943e+00 4.936676e+00 4.838185e+00 4.006333e+00 2.168464e+00 1.151806e+00 -1.704113e-01 -2.023936e-02 8.012207e-01 4.487864e-01 9.747640e-01 1.606115e-01 6.198564e-01 5.631263e-01 1.735906e-01 7.849122e-01 5.540003e-01 -9.864496e-02
<VARIANCE> 25
 3.324608e+01 4.534410e+01 4.194487e+01 4.485379e+01 4.797832e+01 4.313462e+01 4.055302e+01 3.304288e+01 3.188086e+01 3.003992e+01 3.108255e+01 2.222718e+01 3.563885e+00 4.453423e+00 3.806078e+00 3.715762e+00 3.807248e+00 3.799817e+00 3.241390e+00 2.958821e+00 2.782795e+00 3.304271e+00 2.312345e+00 1.626665e+00 7.272738e-03
<GCONST> 9.800911e+01
<MIXTURE> 47 7.116147e-03
<MEAN> 25
 6.474287e+00 -8.846255e+00 -6.329984e+00 -5.519022e+00 -1.336810e+00 3.867820e+00 -3.030165e+00 -8.774211e-01 4.845013e+00 1.731142e+00 -2.710912e+00 -6.804811e+00 -1.306015e-01 -1.195644e+00 -7.412061e-01 -5.433503e-01 5.175124e-01 1.160339e+00 8.654999e-01 1.782252e-01 4.869656e-01 -7.223339e-01 -6.156749e-01 -7.028292e-01 2.688007e-02
<VARIANCE> 25
 9.977770e+00 2.242435e+01 2.135051e+01 2.412920e+01 3.916142e+01 5.095377e+01 4.435653e+01 3.938455e+01 4.065602e+01 4.358659e+01 3.822469e+01 2.676735e+01 6.021531e-01 7.634404e-01 9.482467e-01 1.419703e+00 1.551076e+00 2.129467e+00 1.794494e+00 2.443562e+00 2.355452e+00 1.716689e+00 1.943962e+00 1.628930e+00 4.787010e-04
<GCONST> 8.417523e+01
<MIXTURE> 48 7.116147e-03
<MEAN> 25
 6.474287e+00 -8.846255e+00 -6.329984e+00 -5.519022e+00 -1.336810e+00 3.867820e+00 -3.030165e+00 -8.774211e-01 4.845013e+00 1.731142e+00 -2.710912e+00 -6.804811e+00 -1.306015e-01 -1.195644e+00 -7.412061e-01 -5.433503e-01 5.175124e-01 1.160339e+00 8.654999e-01 1.782252e-01 4.869656e-01 -7.223339e-01 -6.156749e-01 -7.028292e-01 2.688007e-02
<VARIANCE> 25
 9.977770e+00 2.242435e+01 2.135051e+01 2.412920e+01 3.916142e+01 5.095377e+01 4.435653e+01 3.938455e+01 4.065602e+01 4.358659e+01 3.822469e+01 2.676735e+01 6.021531e-01 7.634404e-01 9.482467e-01 1.419703e+00 1.551076e+00 2.129467e+00 1.794494e+00 2.443562e+00 2.355452e+00 1.716689e+00 1.943962e+00 1.628930e+00 4.787010e-04
<GCONST> 8.417523e+01
<MIXTURE> 49 5.548473e-03
<MEAN> 25
 -4.594685e+00 1.280043e+00 -3.291073e-01 7.896369e+00 6.652823e+00 4.639444e+00 6.429908e+00 5.645485e+00 4.399705e+00 3.318202e+00 4.395356e+00 3.042200e+00 3.581063e-01 6.651723e-01 6.509035e-01 4.214371e-01 -1.893371e-01 -6.399704e-01 -9.766016e-01 -1.169031e+00 -1.024770e+00 -5.499820e-01 -3.529329e-01 -2.740711e-01 -2.531387e-05
<VARIANCE> 25
 9.566463e+00 1.311388e+01 1.407570e+01 1.575939e+01 1.505919e+01 1.968643e+01 1.843808e+01 2.453193e+01 1.841856e+01 1.696218e+01 1.973359e+01 1.349175e+01 2.586581e-01 2.461455e-01 3.428320e-01 6.036299e-01 7.757686e-01 9.063120e-01 9.398996e-01 1.021194e+00 1.062555e+00 1.228060e+00 1.246872e+00 1.071821e+00 1.248560e-05
<GCONST> 6.385832e+01
<MIXTURE> 50 6.234641e-03
<MEAN> 25
 -3.085560e+00 3.735573e+00 -2.441282e+00 4.966906e+00 6.243510e+00 -1.382053e+00 5.248537e+00 5.804675e+00 3.167146e-01 1.547266e+00 1.190586e+00 2.439636e+00 7.485575e-03 1.602396e-01 7.758391e-02 -1.575551e-01 -4.232576e-01 -6.162978e-01 -3.683816e-01 9.353333e-02 3.340127e-01 6.025600e-01 4.881900e-01 1.874792e-01 -5.569883e-05
<VARIANCE> 25
 6.746790e+00 1.324578e+01 9.105318e+00 1.151073e+01 1.306154e+01 1.964500e+01 1.631007e+01 2.381851e+01 1.776113e+01 1.317085e+01 1.469029e+01 1.050368e+01 1.144875e-01 1.887828e-01 3.452313e-01 5.619687e-01 4.985773e-01 7.404633e-01 7.749891e-01 1.336243e+00 1.258171e+00 8.192546e-01 7.579367e-01 8.921877e-01 6.041382e-07
<GCONST> 5.597926e+01
<MIXTURE> 51 6.234641e-03
<MEAN> 25
 -3.085560e+00 3.735573e+00 -2.441282e+00 4.966906e+00 6.243510e+00 -1.382053e+00 5.248537e+00 5.804675e+00 3.167146e-01 1.547266e+00 1.190586e+00 2.439636e+00 7.485575e-03 1.602396e-01 7.758391e-02 -1.575551e-01 -4.232576e-01 -6.162978e-01 -3.683816e-01 9.353333e-02 3.340127e-01 6.025600e-01 4.881900e-01 1.874792e-01 -5.569883e-05
<VARIANCE> 25
 6.746790e+00 1.324578e+01 9.105318e+00 1.151073e+01 1.306154e+01 1.964500e+01 1.631007e+01 2.381851e+01 1.776113e+01 1.317085e+01 1.469029e+01 1.050368e+01 1.144875e-01 1.887828e-01 3.452313e-01 5.619687e-01 4.985773e-01 7.404633e-01 7.749891e-01 1.336243e+00 1.258171e+00 8.192546e-01 7.579367e-01 8.921877e-01 6.041382e-07
<GCONST> 5.597926e+01
<MIXTURE> 52 6.367945e-03
<MEAN> 25
 9.357039e+00 1.496534e+00 -5.214614e+00 -1.410008e+01 -5.331437e+00 9.419345e+00 -2.835805e+00 -2.949931e+00 -5.089351e+00 -2.961606e+00 3.364703e+00 6.682451e-01 -3.831266e-01 -5.191816e-01 8.818574e-02 1.313755e+00 1.244761e+00 -5.801566e-01 -4.653652e-01 -5.312989e-01 -1.179159e-01 1.313749e+00 1.664619e-02 -4.938971e-01 -1.188850e-02
<VARIANCE> 25
 1.210810e+01 2.021072e+01 2.875748e+01 3.654969e+01 5.509699e+01 3.333189e+01 4.202872e+01 4.636217e+01 4.652554e+01 5.117375e+01 3.805608e+01 2.698456e+01 4.321798e-01 1.396774e+00 1.396265e+00 2.864978e+00 2.232413e+00 2.322922e+00 2.963645e+00 2.614010e+00 3.123512e+00 2.736930e+00 3.518519e+00 2.085776e+00 1.408506e-03
<GCONST> 9.035317e+01
<MIXTURE> 53 6.367945e-03
<MEAN> 25
 9.357039e+00 1.496534e+00 -5.214614e+00 -1.410008e+01 -5.331437e+00 9.419345e+00 -2.835805e+00 -2.949931e+00 -5.089351e+00 -2.961606e+00 3.364703e+00 6.682451e-01 -3.831266e-01 -5.191816e-01 8.818574e-02 1.313755e+00 1.244761e+00 -5.801566e-01 -4.653652e-01 -5.312989e-01 -1.179159e-01 1.313749e+00 1.664619e-02 -4.938971e-01 -1.188850e-02
<VARIANCE> 25
 1.210810e+01 2.021072e+01 2.875748e+01 3.654969e+01 5.509699e+01 3.333189e+01 4.202872e+01 4.636217e+01 4.652554e+01 5.117375e+01 3.805608e+01 2.698456e+01 4.321798e-01 1.396774e+00 1.396265e+00 2.864978e+00 2.232413e+00 2.322922e+00 2.963645e+00 2.614010e+00 3.123512e+00 2.736930e+00 3.518519e+00 2.085776e+00 1.408506e-03
<GCONST> 9.035317e+01
<MIXTURE> 54 7.368620e-03
<MEAN> 25
 -2.968194e+00 2.470669e+00 -1.176941e+00 6.658984e+00 7.369186e+00 2.255369e+00 5.348038e+00 6.625968e+00 2.881170e+00 3.098201e+00 3.362261e+00 2.198235e+00 -7.593466e-03 1.904214e-02 8.244005e-03 2.103773e-02 9.892614e-02 4.899023e-02 -1.840369e-02 -2.896071e-02 1.458104e-02 3.028285e-03 4.688600e-03 6.891455e-02 2.606706e-05
<VARIANCE> 25
 7.312117e+00 1.651587e+01 9.210860e+00 1.720634e+01 1.101518e+01 2.130504e+01 1.129819e+01 1.588490e+01 1.241948e+01 1.252767e+01 1.646690e+01 1.052000e+01 4.275861e-02 8.877698e-02 1.522804e-01 2.481943e-01 2.729202e-01 4.523089e-01 4.233140e-01 5.940121e-01 6.177672e-01 5.014607e-01 5.734452e-01 5.220870e-01 8.159299e-07
<GCONST> 4.793782e+01
<MIXTURE> 55 7.368620e-03
<MEAN> 25
 -2.968194e+00 2.470669e+00 -1.176941e+00 6.658984e+00 7.369186e+00 2.255369e+00 5.348038e+00 6.625968e+00 2.881170e+00 3.098201e+00 3.362261e+00 2.198235e+00 -7.593466e-03 1.904214e-02 8.244005e-03 2.103773e-02 9.892614e-02 4.899023e-02 -1.840369e-02 -2.896071e-02 1.458104e-02 3.028285e-03 4.688600e-03 6.891455e-02 2.606706e-05
<VARIANCE> 25
 7.312117e+00 1.651587e+01 9.210860e+00 1.720634e+01 1.101518e+01 2.130504e+01 1.129819e+01 1.588490e+01 1.241948e+01 1.252767e+01 1.646690e+01 1.052000e+01 4.275861e-02 8.877698e-02 1.522804e-01 2.481943e-01 2.729202e-01 4.523089e-01 4.233140e-01 5.940121e-01 6.177672e-01 5.014607e-01 5.734452e-01 5.220870e-01 8.159299e-07
<GCONST> 4.793782e+01
<MIXTURE> 56 6.132464e-03
<MEAN> 25
 5.567660e+00 -8.425061e+00 -7.722419e+00 -7.211612e+00 5.967857e-01 8.653973e+00 -8.439895e-01 -5.193102e+00 6.887848e+00 1.814353e+00 -1.542954e+00 -6.656292e+00 -2.162158e-01 1.677330e-01 -1.192629e-01 -2.949097e-01 4.507155e-01 2.392139e-01 1.914341e-01 -2.883220e-01 3.808102e-02 -2.224615e-01 -2.991346e-02 1.964752e-01 -8.942847e-03
<VARIANCE> 25
 7.038921e+00 3.244765e+01 1.672696e+01 2.642937e+01 3.384643e+01 5.293565e+01 4.767754e+01 4.812783e+01 3.864045e+01 2.817918e+01 2.348205e+01 1.975259e+01 1.909175e-01 3.401301e-01 4.564274e-01 7.851084e-01 5.629429e-01 1.096414e+00 8.551663e-01 9.576707e-01 7.840757e-01 8.756618e-01 8.725419e-01 6.007201e-01 2.228102e-04
<GCONST> 7.195712e+01
<MIXTURE> 57 6.132464e-03
<MEAN> 25
 5.567660e+00 -8.425061e+00 -7.722419e+00 -7.211612e+00 5.967857e-01 8.653973e+00 -8.439895e-01 -5.193102e+00 6.887848e+00 1.814353e+00 -1.542954e+00 -6.656292e+00 -2.162158e-01 1.677330e-01 -1.192629e-01 -2.949097e-01 4.507155e-01 2.392139e-01 1.914341e-01 -2.883220e-01 3.808102e-02 -2.224615e-01 -2.991346e-02 1.964752e-01 -8.942847e-03
<VARIANCE> 25
 7.038921e+00 3.244765e+01 1.672696e+01 2.642937e+01 3.384643e+01 5.293565e+01 4.767754e+01 4.812783e+01 3.864045e+01 2.817918e+01 2.348205e+01 1.975259e+01 1.909175e-01 3.401301e-01 4.564274e-01 7.851084e-01 5.629429e-01 1.096414e+00 8.551663e-01 9.576707e-01 7.840757e-01 8.756618e-01 8.725419e-01 6.007201e-01 2.228102e-04
<GCONST> 7.195712e+01
<MIXTURE> 58 6.172147e-03
<MEAN> 25
 2.617140e+00 -3.269653e+00 7.457280e+00 -4.660141e+00 -1.338742e+01 -5.170701e+00 1.595145e+00 4.874797e-01 -3.198638e+00 1.908961e+00 1.983568e-01 -9.219829e-01 -1.206959e-02 -1.384025e-01 -8.100220e-02 -1.236868e-01 -3.861206e-02 2.333303e-01 3.482638e-01 2.417299e-01 -3.482841e-03 2.247684e-03 4.187364e-02 -1.455288e-01 -2.677520e-03
<VARIANCE> 25
 6.993829e+00 1.479354e+01 1.947141e+01 3.218666e+01 2.221661e+01 4.705537e+01 3.134163e+01 3.508873e+01 4.080073e+01 2.994688e+01 2.444802e+01 1.923052e+01 2.992775e-01 7.695363e-01 7.251403e-01 1.133929e+00 8.759814e-01 1.319916e+00 1.114995e+00 1.241727e+00 1.044763e+00 1.084450e+00 1.125349e+00 8.464366e-01 6.878959e-04
<GCONST> 7.584362e+01
<MIXTURE> 59 6.172147e-03
<MEAN> 25
 2.617140e+00 -3.269653e+00 7.457280e+00 -4.660141e+00 -1.338742e+01 -5.170701e+00 1.595145e+00 4.874797e-01 -3.198638e+00 1.908961e+00 1.983568e-01 -9.219829e-01 -1.206959e-02 -1.384025e-01 -8.100220e-02 -1.236868e-01 -3.861206e-02 2.333303e-01 3.482638e-01 2.417299e-01 -3.482841e-03 2.247684e-03 4.187364e-02 -1.455288e-01 -2.677520e-03
<VARIANCE> 25
 6.993829e+00 1.479354e+01 1.947141e+01 3.218666e+01 2.221661e+01 4.705537e+01 3.134163e+01 3.508873e+01 4.080073e+01 2.994688e+01 2.444802e+01 1.923052e+01 2.992775e-01 7.695363e-01 7.251403e-01 1.133929e+00 8.759814e-01 1.319916e+00 1.114995e+00 1.241727e+00 1.044763e+00 1.084450e+00 1.125349e+00 8.464366e-01 6.878959e-04
<GCONST> 7.584362e+01
<MIXTURE> 60 4.479129e-03
<MEAN> 25
 -4.241389e+00 -6.164698e-01 -1.157946e+00 3.671244e+00 1.818755e+00 2.052082e+00 1.673421e+00 1.626209e+00 2.106426e+00 1.295498e+00 2.379912e+00 1.931162e+00 -2.736870e-02 5.393572e-02 1.036939e-01 1.309346e-01 1.341765e-01 1.190428e-01 1.747987e-01 3.374237e-01 5.298967e-01 6.673491e-01 5.535306e-01 3.141947e-01 -4.132230e-04
<VARIANCE> 25
 6.895363e+00 4.684177e+00 1.067734e+01 1.123283e+01 1.405128e+01 1.718544e+01 1.394535e+01 1.246487e+01 1.284435e+01 1.315789e+01 1.577457e+01 1.221650e+01 8.622920e-02 1.672806e-01 2.771268e-01 4.279128e-01 5.824420e-01 7.292449e-01 8.215392e-01 9.100516e-01 9.147200e-01 8.277655e-01 8.304134e-01 8.657163e-01 2.273170e-05
<GCONST> 5.642689e+01
<MIXTURE> 61 4.479129e-03
<MEAN> 25
 -4.241389e+00 -6.164698e-01 -1.157946e+00 3.671244e+00 1.818755e+00 2.052082e+00 1.673421e+00 1.626209e+00 2.106426e+00 1.295498e+00 2.379912e+00 1.931162e+00 -2.736870e-02 5.393572e-02 1.036939e-01 1.309346e-01 1.341765e-01 1.190428e-01 1.747987e-01 3.374237e-01 5.298967e-01 6.673491e-01 5.535306e-01 3.141947e-01 -4.132230e-04
<VARIANCE> 25
 6.895363e+00 4.684177e+00 1.067734e+01 1.123283e+01 1.405128e+01 1.718544e+01 1.394535e+01 1.246487e+01 1.284435e+01 1.315789e+01 1.577457e+01 1.221650e+01 8.622920e-02 1.672806e-01 2.771268e-01 4.279128e-01 5.824420e-01 7.292449e-01 8.215392e-01 9.100516e-01 9.147200e-01 8.277655e-01 8.304134e-01 8.657163e-01 2.273170e-05
<GCONST> 5.642689e+01
<MIXTURE> 62 3.278034e-03
<MEAN> 25
 -4.922817e+00 1.493384e+00 7.464494e-01 8.475218e+00 6.204333e+00 4.540319e+00 5.770100e+00 4.578249e+00 4.776744e+00 3.920995e+00 4.847991e+00 2.938378e+00 -9.677960e-01 -1.161265e+00 -9.024180e-01 -2.801467e-01 4.097387e-01 1.025441e+00 1.395446e+00 1.575383e+00 1.483433e+00 1.195067e+00 1.033007e+00 8.044035e-01 -1.200150e-03
<VARIANCE> 25
 9.877199e+00 1.059727e+01 1.384780e+01 1.799841e+01 1.666686e+01 2.133968e+01 2.007413e+01 2.355831e+01 1.871920e+01 1.790439e+01 2.074270e+01 1.406206e+01 4.040579e-01 4.118009e-01 5.727442e-01 7.441529e-01 1.000313e+00 1.142624e+00 1.196961e+00 1.226943e+00 1.265018e+00 1.341887e+00 1.350657e+00 1.431020e+00 1.557585e-05
<GCONST> 6.762941e+01
<MIXTURE> 63 4.351215e-03
<MEAN> 25
 -2.639446e+00 -2.098228e-02 -5.194481e+00 2.540169e+00 4.966404e+00 -1.101121e+00 4.051193e+00 3.717257e+00 9.748716e-01 -2.491547e-01 -1.557631e+00 1.380476e+00 -9.500149e-02 3.691392e-01 5.409452e-01 4.448620e-01 3.287950e-01 2.231509e-01 3.014391e-01 3.421788e-01 2.949663e-01 1.817707e-01 3.153356e-01 1.838321e-01 -6.347470e-03
<VARIANCE> 25
 9.970974e+00 1.934083e+01 1.605520e+01 1.410260e+01 1.738147e+01 2.074610e+01 2.146831e+01 2.646464e+01 2.557146e+01 1.958883e+01 1.539893e+01 1.483941e+01 2.750975e-01 4.812881e-01 6.127309e-01 6.525401e-01 7.313064e-01 1.059525e+00 1.011304e+00 1.261396e+00 1.552817e+00 1.347595e+00 1.218440e+00 1.093832e+00 1.635052e-04
<GCONST> 6.986610e+01
<MIXTURE> 64 4.351215e-03
<MEAN> 25
 -2.639446e+00 -2.098228e-02 -5.194481e+00 2.540169e+00 4.966404e+00 -1.101121e+00 4.051193e+00 3.717257e+00 9.748716e-01 -2.491547e-01 -1.557631e+00 1.380476e+00 -9.500149e-02 3.691392e-01 5.409452e-01 4.448620e-01 3.287950e-01 2.231509e-01 3.014391e-01 3.421788e-01 2.949663e-01 1.817707e-01 3.153356e-01 1.838321e-01 -6.347470e-03
<VARIANCE> 25
 9.970974e+00 1.934083e+01 1.605520e+01 1.410260e+01 1.738147e+01 2.074610e+01 2.146831e+01 2.646464e+01 2.557146e+01 1.958883e+01 1.539893e+01 1.483941e+01 2.750975e-01 4.812881e-01 6.127309e-01 6.525401e-01 7.313064e-01 1.059525e+00 1.011304e+00 1.261396e+00 1.552817e+00 1.347595e+00 1.218440e+00 1.093832e+00 1.635052e-04
<GCONST> 6.986610e+01
<MIXTURE> 65 1.721197e-02
<MEAN> 25
 7.244314e+00 6.725001e-01 2.501739e+00 1.635346e+00 -5.694106e+00 -3.596447e+00 -5.015527e+00 -6.218279e+00 -5.926068e+00 -1.304743e+00 -4.014065e+00 -1.828386e+00 8.851768e-02 4.311641e-02 -7.889542e-02 -4.291366e-02 -8.195995e-02 4.480390e-01 -3.643547e-01 -1.308485e-01 3.595159e-01 -8.222553e-02 3.402409e-01 -2.997368e-01 -2.635114e-03
<VARIANCE> 25
 1.157499e+01 2.317455e+01 2.719919e+01 3.490093e+01 3.683761e+01 6.534063e+01 5.194957e+01 5.111882e+01 6.062595e+01 5.109938e+01 6.637561e+01 4.547649e+01 5.625959e-01 8.248532e-01 1.667161e+00 2.023179e+00 1.795108e+00 2.553509e+00 2.707797e+00 2.577168e+00 2.540669e+00 2.371876e+00 3.168476e+00 2.212115e+00 3.992244e-04
<GCONST> 8.994682e+01
<MIXTURE> 66 1.191532e-02
<MEAN> 25
 6.245404e+00 -4.289636e+00 -5.513486e+00 -4.638412e+00 9.389963e-01 -3.618611e+00 -6.338976e+00 7.887495e-01 1.452886e+00 -1.116729e+00 -5.779230e+00 -4.123992e+00 -7.793770e-03 1.743149e+00 1.947960e+00 2.299508e+00 -8.528705e-01 -1.507684e+00 2.649095e-01 -3.507183e-01 -3.126799e-01 -1.353441e-01 -2.729734e-01 9.795487e-01 -6.624501e-02
<VARIANCE> 25
 9.299760e+00 2.701382e+01 2.646054e+01 2.976582e+01 4.125412e+01 6.297082e+01 5.516505e+01 4.293568e+01 5.479522e+01 6.568323e+01 3.540557e+01 3.521754e+01 1.172832e+00 2.306309e+00 2.635207e+00 2.323097e+00 4.691890e+00 4.266994e+00 4.446323e+00 5.326849e+00 4.351151e+00 4.494966e+00 3.959034e+00 3.180294e+00 1.421878e-03
<GCONST> 9.701073e+01
<MIXTURE> 67 1.559142e-02
<MEAN> 25
 6.198208e+00 -9.347365e-01 -4.626329e+00 -7.021182e+00 1.489696e+00 5.511810e+00 -3.194141e+00 -4.167049e+00 -3.619597e-01 2.822100e+00 9.035784e-01 -2.860468e+00 -8.783808e-01 2.544008e+00 1.563755e-01 2.297118e+00 2.191896e+00 -2.318453e+00 1.483162e+00 7.187610e-01 -6.822897e-01 2.208865e-01 -1.104426e+00 9.126527e-01 -1.169543e-01
<VARIANCE> 25
 1.177614e+01 3.327779e+01 2.481829e+01 3.362540e+01 4.859417e+01 4.634189e+01 4.847945e+01 3.811213e+01 5.726773e+01 3.856128e+01 4.565326e+01 3.326414e+01 1.826030e+00 2.765980e+00 2.452255e+00 2.956442e+00 3.311616e+00 4.700280e+00 3.575294e+00 6.039723e+00 5.280744e+00 3.015118e+00 4.532092e+00 3.626295e+00 1.900220e-03
<GCONST> 9.763083e+01
<MIXTURE> 68 1.485092e-02
<MEAN> 25
 -2.167383e+00 -7.941517e-01 -2.909994e+00 -3.580236e-01 4.888767e+00 -4.508234e-03 2.267923e+00 1.554003e+00 2.723853e+00 1.757467e+00 1.433851e-01 2.980439e+00 2.573332e+00 1.377023e-02 3.883283e-01 -3.102667e+00 -3.021788e+00 -2.733948e-01 -2.262939e+00 -2.149670e+00 -1.421940e+00 -1.200704e+00 -1.315613e+00 -6.028401e-01 1.128958e-01
<VARIANCE> 25
 2.350213e+01 3.350566e+01 5.861004e+01 5.766856e+01 4.699867e+01 6.274545e+01 3.732455e+01 4.769827e+01 3.419843e+01 3.844126e+01 3.329632e+01 2.756976e+01 1.971497e+00 3.824634e+00 5.767066e+00 8.766351e+00 5.829922e+00 9.679491e+00 4.703575e+00 4.723328e+00 4.732447e+00 4.885439e+00 6.058732e+00 4.030256e+00 5.870200e-03
<GCONST> 1.044939e+02
<MIXTURE> 69 1.204884e-02
<MEAN> 25
 4.450232e+00 -4.366346e+00 -3.702947e+00 -3.187196e+00 -3.568394e+00 -8.012695e+00 -1.256845e+00 2.361008e+00 -4.827237e-01 -4.399917e+00 -5.870239e+00 9.785550e-01 1.415829e+00 -2.063377e+00 -1.365889e+00 -2.308214e+00 -2.207478e-01 -3.959812e-01 -3.560466e-01 3.248455e-01 -5.801158e-01 -1.248007e+00 -2.072504e+00 -1.160845e-01 5.986884e-02
<VARIANCE> 25
 9.014704e+00 2.116085e+01 2.548890e+01 2.718727e+01 4.057085e+01 3.475713e+01 4.673468e+01 3.100421e+01 3.827234e+01 3.715895e+01 3.008439e+01 2.336548e+01 4.324082e+00 3.307756e+00 3.168365e+00 3.672676e+00 7.102716e+00 4.975622e+00 6.983727e+00 7.237938e+00 5.627314e+00 6.133016e+00 4.326305e+00 3.648478e+00 2.478487e-03
<GCONST> 9.898697e+01
<MIXTURE> 70 1.329190e-02
<MEAN> 25
 4.607857e+00 -4.185637e+00 -2.903367e+00 -3.770114e+00 -2.952291e+00 1.672805e+00 -7.111776e+00 -5.529857e+00 2.296930e+00 3.339282e+00 2.059544e+00 -4.082829e+00 1.873658e+00 -1.899288e+00 -3.456810e-01 -1.229562e+00 -2.241496e+00 2.887223e+00 -1.905687e+00 6.633950e-01 1.020772e+00 2.453313e-03 9.090065e-01 -2.243857e+00 6.262314e-02
<VARIANCE> 25
 1.561092e+01 2.435970e+01 1.841378e+01 2.942190e+01 4.426617e+01 4.450224e+01 4.419946e+01 3.595218e+01 6.290700e+01 2.531528e+01 3.824956e+01 3.082068e+01 3.287835e+00 3.307911e+00 4.017580e+00 3.368594e+00 5.608971e+00 6.476623e+00 5.095532e+00 6.498783e+00 4.384463e+00 3.661112e+00 4.817002e+00 3.167526e+00 2.537820e-03
<GCONST> 9.919347e+01
<MIXTURE> 71 1.406903e-02
<MEAN> 25
 5.135463e+00 3.441458e+00 3.185694e+00 4.073188e+00 -2.468179e+00 -4.658311e+00 -3.100127e+00 -5.824116e+00 -5.575379e+00 -1.387484e+00 -4.070645e+00 -1.979693e+00 -1.726578e+00 -6.463549e-01 -2.172457e-01 -1.896987e+00 1.471486e+00 3.190115e-02 1.226059e-01 5.617173e-01 1.210449e+00 -2.665062e-01 4.903866e-01 5.715176e-01 3.626631e-02
<VARIANCE> 25
 1.902244e+01 2.651724e+01 3.141356e+01 3.620306e+01 3.983956e+01 4.684395e+01 3.439919e+01 3.834295e+01 3.799348e+01 4.550477e+01 3.487632e+01 3.740897e+01 1.628655e+00 2.277063e+00 5.374714e+00 4.346487e+00 4.560081e+00 5.207994e+00 4.689610e+00 5.322105e+00 5.037071e+00 3.201151e+00 3.045351e+00 3.738800e+00 1.333181e-03
<GCONST> 9.799094e+01
<MIXTURE> 72 8.134747e-03
<MEAN> 25
 3.651342e+00 -3.825131e+00 5.816373e+00 -1.478051e+00 -1.096640e+01 -9.309812e+00 -2.950794e+00 1.596578e+00 -5.665357e+00 -2.794103e+00 -3.696560e-01 7.651488e-01 8.709367e-01 -8.209893e-01 -2.611544e+00 4.701720e-01 1.959500e+00 -7.758930e-01 -1.301321e+00 1.390250e+00 1.839208e+00 -5.103281e-01 -1.264215e+00 4.394175e-01 -3.876938e-03
<VARIANCE> 25
 9.972742e+00 1.803601e+01 3.127482e+01 4.329405e+01 3.348756e+01 3.194787e+01 3.961607e+01 3.388445e+01 4.452439e+01 4.127769e+01 5.565298e+01 2.672827e+01 4.332503e-01 9.664798e-01 1.881862e+00 1.402105e+00 2.369892e+00 2.377867e+00 2.839937e+00 2.681893e+00 2.440625e+00 2.797703e+00 1.967083e+00 2.043626e+00 5.754062e-04
<GCONST> 8.705963e+01
<MIXTURE> 73 1.213625e-02
<MEAN> 25
 -5.391704e+00 -6.806359e-02 -1.083540e+00 4.395994e+00 4.509523e+00 2.209678e+00 5.526731e+00 3.724743e+00 4.234206e+00 2.910074e+00 3.532227e+00 3.000859e+00 6.935734e-01 -1.068134e+00 -5.549569e-01 -2.659149e+00 -1.490700e+00 -1.312298e+00 -8.902196e-01 -8.283381e-01 -9.193193e-01 -6.652174e-01 -8.940086e-01 -1.204729e-01 1.513781e-01
<VARIANCE> 25
 1.298691e+01 1.680622e+01 1.492423e+01 2.386353e+01 2.266459e+01 2.442371e+01 1.879032e+01 2.230603e+01 1.679081e+01 1.985690e+01 2.606141e+01 1.513799e+01 3.855107e+00 2.837001e+00 6.664324e+00 5.384980e+00 6.530176e+00 6.154661e+00 4.000456e+00 5.240147e+00 3.659782e+00 4.029382e+00 3.762279e+00 2.791074e+00 4.122559e-03
<GCONST> 9.360967e+01
<MIXTURE> 74 1.756491e-02
<MEAN> 25
 3.113031e+00 -3.488641e+00 3.827910e+00 2.196349e+00 -9.104634e+00 -6.111827e+00 -6.737295e+00 1.627132e+00 -4.483286e+00 -2.553205e+00 -1.665160e-01 -7.642260e-01 4.984183e-01 1.754936e+00 -6.365784e-01 1.338111e+00 1.631138e+00 -9.919276e-01 7.021427e-01 -4.636931e-01 7.146220e-02 7.637113e-01 -1.184799e+00 2.555461e-01 -9.000220e-02
<VARIANCE> 25
 1.252691e+01 2.165369e+01 3.477227e+01 3.412614e+01 2.632861e+01 5.250371e+01 5.066802e+01 4.361370e+01 4.482149e+01 3.403038e+01 3.610408e+01 3.243279e+01 1.520440e+00 1.536286e+00 3.355224e+00 2.432283e+00 2.923529e+00 3.771038e+00 4.716269e+00 4.292101e+00 2.868152e+00 3.451707e+00 3.827608e+00 2.215533e+00 1.789862e-03
<GCONST> 9.441689e+01
<MIXTURE> 75 9.711651e-03
<MEAN> 25
 1.668361e+00 -3.504485e+00 1.292223e+01 3.221110e+00 -1.231210e+01 -3.870951e+00 -4.627149e+00 -2.913123e+00 -6.791241e+00 -5.952568e+00 5.419406e+00 1.401507e+00 1.489836e+00 -1.858609e+00 5.499684e-01 -2.470189e-01 -2.849665e+00 6.797199e-01 -1.816311e+00 4.245502e-01 -3.678598e-01 -6.604368e-01 1.896733e+00 -4.795629e-01 5.873274e-02
<VARIANCE> 25
 7.355020e+00 1.217900e+01 2.923433e+01 1.773716e+01 2.497192e+01 3.822273e+01 3.095097e+01 3.120603e+01 4.256017e+01 4.007869e+01 2.953819e+01 1.712051e+01 1.892986e+00 1.354263e+00 4.919808e+00 2.584222e+00 4.530519e+00 6.308168e+00 4.016117e+00 3.814559e+00 4.733211e+00 2.868095e+00 4.035859e+00 2.000313e+00 2.528297e-03
<GCONST> 9.237743e+01
<MIXTURE> 76 1.052359e-02
<MEAN> 25
 -4.618410e+00 1.103683e+00 -3.905710e+00 2.899022e+00 5.893305e+00 1.894401e-02 4.479573e+00 4.066442e+00 1.692557e+00 1.256732e+00 3.246162e-01 1.662932e+00 -2.430759e-01 -3.965971e-01 -1.323490e-01 -6.661834e-01 -6.613474e-01 -7.832454e-01 -4.586814e-01 -1.974345e-01 -3.484930e-01 -4.123927e-01 -4.547393e-01 -9.404391e-02 1.270753e-02
<VARIANCE> 25
 3.040288e+01 2.866162e+01 2.597192e+01 2.342726e+01 2.448401e+01 2.714367e+01 2.379115e+01 2.865170e+01 2.314152e+01 2.022791e+01 2.301409e+01 2.050785e+01 9.953062e-01 1.287471e+00 1.244940e+00 1.174857e+00 1.333295e+00 1.877783e+00 1.467920e+00 1.487962e+00 2.288948e+00 1.683712e+00 1.225245e+00 1.115836e+00 1.082472e-03
<GCONST> 8.161777e+01
<MIXTURE> 77 1.244626e-02
<MEAN> 25
 -4.519688e-01 8.556477e+00 1.244381e+01 -1.163423e+01 -7.039998e+00 1.011473e+00 -9.274813e+00 -7.229221e+00 -3.380749e+00 -2.249936e-01 -4.632663e+00 -1.464769e+00 6.679390e-02 1.361330e-01 7.117092e-02 2.529209e-01 -2.298811e-02 7.675113e-02 -6.427016e-02 -6.162619e-02 8.096127e-02 -4.691747e-02 2.850717e-02 1.143815e-01 -9.848139e-03
<VARIANCE> 25
 1.049485e+01 2.027666e+01 2.766046e+01 4.210764e+01 3.342225e+01 3.466555e+01 3.662159e+01 3.171570e+01 3.520649e+01 3.339743e+01 3.765252e+01 3.496945e+01 2.991581e-01 7.774222e-01 6.459780e-01 1.086219e+00 1.237234e+00 9.891489e-01 1.225003e+00 1.071810e+00 1.042209e+00 1.068299e+00 9.731483e-01 9.244713e-01 5.417247e-04
<GCONST> 7.787485e+01
<MIXTURE> 78 9.702551e-03
<MEAN> 25
 -9.942858e+00 4.750609e+00 -2.401916e+00 1.093366e+00 5.634561e+00 -4.076286e+00 4.355324e+00 2.151427e+00 3.065687e+00 9.722839e-01 -1.510650e+00 2.105382e+00 1.935088e+00 -5.656892e-01 4.595836e-01 4.662732e-01 -6.434036e-01 3.449282e-01 -2.142310e-01 4.222190e-02 -1.543739e-02 9.871694e-03 -2.839597e-01 -2.917309e-01 -5.215344e-02
<VARIANCE> 25
 4.212464e+01 2.818060e+01 2.485187e+01 2.811648e+01 2.958261e+01 2.860710e+01 2.961505e+01 3.025250e+01 3.066738e+01 2.029741e+01 2.024326e+01 2.044564e+01 3.924187e+00 3.041453e+00 2.271222e+00 2.341972e+00 2.760095e+00 3.569879e+00 3.191561e+00 2.319724e+00 3.416301e+00 2.758144e+00 2.551538e+00 2.046076e+00 3.714612e-03
<GCONST> 9.231428e+01
<MIXTURE> 79 1.156824e-02
<MEAN> 25
 2.758592e+00 -9.941493e-01 1.082475e+01 -3.422439e+00 -1.174526e+01 1.940022e-01 -3.070814e+00 -5.463201e+00 -6.740047e+00 -1.222913e+00 -2.864025e+00 -1.222550e+00 1.058918e+00 -4.578646e-01 -1.416360e+00 2.539214e+00 3.606909e-01 -2.008242e+00 8.681349e-01 8.407576e-01 -7.776560e-01 4.799170e-01 1.595803e-01 -9.602140e-02 -3.510717e-02
<VARIANCE> 25
 1.170975e+01 2.507612e+01 3.436169e+01 4.746094e+01 2.682739e+01 3.908527e+01 3.436504e+01 2.929546e+01 4.628453e+01 4.154550e+01 4.978458e+01 2.770916e+01 7.548386e-01 1.791389e+00 2.788476e+00 1.692225e+00 2.149022e+00 2.580391e+00 3.123338e+00 3.221514e+00 2.302588e+00 3.163833e+00 3.094793e+00 1.626178e+00 1.437702e-03
<GCONST> 9.061888e+01
<MIXTURE> 80 7.550998e-03
<MEAN> 25
 -1.457644e+01 4.039542e+00 6.585397e-01 2.825152e+00 2.508188e+00 1.319260e+00 6.383879e+00 2.505201e+00 2.757551e+00 2.354000e+00 4.765697e+00 1.198926e+00 4.276069e+00 -3.244121e-02 1.636201e+00 -1.110667e+00 -2.877650e+00 -2.751032e+00 -2.298490e+00 -2.014950e+00 -1.991861e+00 -1.682671e+00 -1.640246e+00 -5.966922e-01 -4.442869e-02
<VARIANCE> 25
 2.118273e+01 2.003836e+01 3.436280e+01 3.478190e+01 3.030847e+01 3.018361e+01 2.809518e+01 2.834754e+01 2.702980e+01 2.860853e+01 2.758825e+01 1.809575e+01 2.352518e+00 2.683701e+00 2.656151e+00 4.172859e+00 3.385296e+00 2.763599e+00 3.103826e+00 3.208681e+00 2.838218e+00 2.699323e+00 2.786539e+00 2.138248e+00 1.514172e-03
<GCONST> 9.155714e+01
<MIXTURE> 81 8.025434e-03
<MEAN> 25
 -1.095157e+00 4.014888e+00 1.021659e+01 -1.466125e+01 -9.036384e+00 -1.348694e+00 -6.809072e+00 -8.385588e+00 -4.099700e+00 -4.679347e-01 -7.527701e+00 -2.182294e+00 1.281822e-01 -6.000939e-01 1.020111e-02 -5.408801e-01 -4.763374e-01 3.401510e-01 3.293072e-01 1.309436e-01 -1.433287e-01 1.193074e-01 -4.533473e-01 -1.307563e-01 1.171085e-02
<VARIANCE> 25
 1.024071e+01 3.297074e+01 2.699182e+01 3.083393e+01 3.364209e+01 3.088310e+01 4.584085e+01 2.822705e+01 3.808229e+01 3.211610e+01 2.551075e+01 3.122306e+01 7.689089e-01 2.269873e+00 1.560521e+00 2.881080e+00 2.689048e+00 2.149716e+00 3.301216e+00 2.273665e+00 2.338285e+00 2.555553e+00 2.324377e+00 2.060971e+00 1.177330e-03
<GCONST> 8.883401e+01
<MIXTURE> 82 8.213053e-03
<MEAN> 25
 -9.706002e+00 -3.048295e+00 1.149123e+00 -3.145341e+00 3.629848e+00 -3.084448e-02 2.498355e+00 4.851052e-01 2.993370e+00 1.657383e+00 1.119076e+00 3.063011e+00 -1.165166e+00 -2.935339e-01 3.806057e-01 -2.500442e+00 -1.185544e+00 -9.384632e-01 -9.675175e-01 -1.486565e+00 -2.881916e-01 -2.136922e-01 -2.215880e-02 8.816546e-02 1.739075e-01
<VARIANCE> 25
 1.792889e+01 2.719303e+01 3.081782e+01 2.835230e+01 3.134667e+01 3.216176e+01 3.004489e+01 3.423846e+01 2.702190e+01 2.387037e+01 3.162092e+01 1.747014e+01 3.690915e+00 2.922596e+00 3.092844e+00 3.021670e+00 3.281569e+00 3.813758e+00 2.688976e+00 5.378837e+00 2.714519e+00 3.031824e+00 2.783201e+00 1.993127e+00 3.169964e-03
<GCONST> 9.342349e+01
<MIXTURE> 83 1.167529e-02
<MEAN> 25
 -1.920292e+01 6.428135e+00 -2.211257e+00 -8.532720e-01 8.082549e+00 -2.944678e+00 5.333356e+00 2.514082e+00 2.748908e+00 1.838505e+00 4.545922e-03 2.500988e+00 -1.010971e-01 -3.232698e-01 7.304660e-02 -4.194387e-01 -4.257876e-01 -9.030652e-02 -8.565506e-02 -1.159533e-02 -3.878741e-02 6.067209e-02 3.371783e-02 -3.049351e-02 1.058302e-03
<VARIANCE> 25
 1.146257e+01 1.878493e+01 2.575250e+01 2.096967e+01 1.876348e+01 3.587550e+01 2.702136e+01 2.194116e+01 4.641002e+01 2.081777e+01 2.288414e+01 1.365428e+01 1.043102e+00 9.237986e-01 1.117776e+00 1.051075e+00 1.483330e+00 1.156293e+00 1.148801e+00 1.306879e+00 1.312013e+00 1.549242e+00 1.137392e+00 1.009017e+00 8.937872e-04
<GCONST> 7.802242e+01
<MIXTURE> 84 1.066614e-02
<MEAN> 25
 1.083667e+00 8.920912e+00 7.090632e+00 7.844759e+00 2.668552e+00 -1.063883e+00 -1.497152e+00 -4.535384e+00 -4.026359e+00 -2.838982e+00 -2.469159e+00 -1.458616e+00 -1.781592e+00 -1.179333e+00 -1.168548e+00 1.254580e+00 2.249444e+00 1.435539e+00 1.456669e+00 1.249402e+00 1.174535e+00 3.926116e-01 3.702582e-01 4.567197e-01 -6.893732e-02
<VARIANCE> 25
 2.363946e+01 1.832284e+01 2.246749e+01 2.457941e+01 3.036223e+01 2.830061e+01 2.770455e+01 2.655345e+01 2.543862e+01 2.553705e+01 2.382466e+01 2.614532e+01 2.067860e+00 2.523204e+00 3.955408e+00 3.261508e+00 3.221155e+00 3.511052e+00 3.206699e+00 3.419051e+00 3.538615e+00 3.236365e+00 3.559010e+00 2.822089e+00 3.706498e-03
<GCONST> 9.277666e+01
<MIXTURE> 85 7.591393e-03
<MEAN> 25
 -3.059895e+00 7.810654e+00 5.906349e+00 1.323264e+00 -3.546877e+00 -5.146748e+00 -2.991239e+00 -6.058490e+00 -3.578196e+00 -3.198076e+00 -3.799903e-01 -1.901983e+00 3.895654e+00 2.728822e-01 1.794151e+00 -2.052219e+00 -3.483902e+00 -2.544074e+00 -2.896607e+00 -2.355250e+00 -2.290584e+00 -1.261216e+00 -2.207051e+00 -6.365100e-01 1.216527e-02
<VARIANCE> 25
 4.204988e+01 2.354338e+01 3.819315e+01 3.771668e+01 3.955552e+01 4.284386e+01 3.181557e+01 2.775171e+01 2.637235e+01 2.576799e+01 2.669247e+01 2.026861e+01 2.815121e+00 4.421648e+00 4.089564e+00 5.206110e+00 4.671776e+00 3.917282e+00 3.823997e+00 3.937340e+00 3.900327e+00 3.984669e+00 4.450331e+00 3.458735e+00 5.948640e-03
<GCONST> 9.870213e+01
<MIXTURE> 86 1.273941e-02
<MEAN> 25
 -4.937521e+00 -1.087335e+00 -8.057228e-01 6.252141e+00 5.072246e+00 4.584884e+00 5.317845e+00 4.655942e+00 4.622013e+00 3.858493e+00 5.293784e+00 2.777955e+00 -2.017311e-03 -4.722231e-03 -3.590781e-02 -5.429745e-02 -1.131294e-01 -1.914251e-01 -2.571752e-01 -3.265474e-01 -3.669498e-01 -3.130561e-01 -2.212050e-01 -1.005713e-01 -5.878698e-04
<VARIANCE> 25
 7.854185e+00 6.439618e+00 1.002940e+01 1.254777e+01 1.580256e+01 1.462616e+01 1.340791e+01 1.334094e+01 1.318966e+01 1.433597e+01 1.428682e+01 1.314919e+01 1.005809e-01 1.919152e-01 3.155023e-01 4.893554e-01 6.289591e-01 7.274657e-01 7.460501e-01 7.662174e-01 8.324277e-01 8.827568e-01 9.047014e-01 8.959491e-01 5.278257e-05
<GCONST> 5.828872e+01
<MIXTURE> 87 1.100681e-02
<MEAN> 25
 -4.260577e+00 4.875791e+00 3.145501e+00 4.893162e+00 5.234564e+00 -1.254626e+00 1.922676e+00 -1.271337e+00 -4.762944e-01 -7.360514e-01 -1.133358e+00 1.072299e+00 -1.854781e+00 -2.590270e+00 -1.703687e+00 -2.302632e+00 -1.409025e-01 2.613620e-01 4.922158e-01 6.188175e-01 1.540285e+00 9.911370e-01 1.084422e+00 1.096328e+00 1.052701e-01
<VARIANCE> 25
 3.959924e+01 2.548846e+01 2.449618e+01 4.771896e+01 2.576839e+01 4.453603e+01 2.745382e+01 3.183898e+01 2.353865e+01 2.424522e+01 2.292072e+01 2.995146e+01 3.672755e+00 2.650729e+00 4.333696e+00 3.448023e+00 4.946321e+00 5.047796e+00 4.031623e+00 5.008176e+00 3.541111e+00 3.618085e+00 4.396240e+00 3.599712e+00 4.685139e-03
<GCONST> 9.777641e+01
<MIXTURE> 88 1.256585e-02
<MEAN> 25
 -3.943074e+00 4.905916e-02 -1.941434e+00 5.101696e+00 5.235677e+00 2.558497e+00 4.939705e+00 4.082884e+00 3.288839e+00 2.372722e+00 2.238341e+00 2.130487e+00 -2.266651e-02 -3.625376e-02 3.974473e-01 3.044940e-01 1.555796e-01 2.408662e-01 -7.726285e-02 -5.611339e-02 -2.234158e-01 -2.048981e-01 -1.712176e-01 7.338497e-02 -3.579300e-03
<VARIANCE> 25
 9.728301e+00 1.314222e+01 1.675546e+01 1.476841e+01 1.897595e+01 2.243500e+01 1.690968e+01 2.122655e+01 1.753465e+01 1.699136e+01 2.088375e+01 1.571250e+01 1.244396e+00 1.909831e+00 2.231811e+00 2.076413e+00 2.591005e+00 2.631543e+00 2.615968e+00 2.379405e+00 2.610601e+00 2.470739e+00 2.184397e+00 1.873742e+00 1.489638e-03
<GCONST> 8.264762e+01
<MIXTURE> 89 9.333527e-03
<MEAN> 25
 5.213097e+00 -7.223516e+00 -3.732872e+00 -2.920324e+00 -2.179001e+00 -4.489356e+00 -6.172780e+00 4.428762e+00 3.384718e+00 -2.377127e+00 -5.266482e+00 -3.444156e+00 -6.209159e-01 1.957596e-01 1.835140e+00 8.856710e-01 -1.640600e+00 -1.489218e+00 8.699465e-01 1.189214e+00 -8.506611e-01 -1.427982e+00 5.450625e-01 1.434405e+00 -3.970766e-03
<VARIANCE> 25
 1.263120e+01 3.209462e+01 3.222755e+01 2.663325e+01 4.579422e+01 4.452985e+01 5.504147e+01 3.737912e+01 3.405684e+01 3.802206e+01 3.448757e+01 2.822280e+01 3.293692e-01 7.728153e-01 1.415327e+00 1.231076e+00 1.991459e+00 2.012416e+00 2.420982e+00 2.025193e+00 2.070472e+00 2.045487e+00 2.249505e+00 1.345453e+00 3.768719e-04
<GCONST> 8.483545e+01
<MIXTURE> 90 7.114505e-03
<MEAN> 25
 2.441627e+00 -9.724381e+00 -4.753104e+00 -3.970842e+00 -3.390270e+00 -1.806042e+00 3.349846e+00 1.188885e+00 -7.519872e+00 -1.020476e+01 -3.423559e+00 -7.441315e-01 -1.644368e-01 9.095120e-01 1.167898e+00 -8.509684e-01 -1.610912e+00 -2.137355e-01 6.428641e-01 -2.101752e-01 -1.709648e-01 7.336228e-01 1.844494e-01 -5.481874e-01 -1.116863e-02
<VARIANCE> 25
 8.517898e+00 1.783349e+01 1.981443e+01 2.802109e+01 3.693241e+01 3.218459e+01 3.869751e+01 3.639444e+01 3.528523e+01 2.775594e+01 2.699409e+01 2.611198e+01 2.242494e-01 6.126876e-01 7.863292e-01 1.048331e+00 1.471234e+00 1.591984e+00 1.783757e+00 1.655006e+00 1.812688e+00 1.684824e+00 1.495852e+00 1.310030e+00 2.150254e-04
<GCONST> 7.816523e+01
<MIXTURE> 91 7.852945e-03
<MEAN> 25
 5.068453e+00 -7.327833e+00 -7.850360e+00 -4.630047e+00 2.325927e+00 2.854001e+00 -2.601774e+00 -1.337562e+00 3.416111e+00 -2.377548e-01 -4.081951e+00 -5.583859e+00 1.623799e-01 1.045506e+00 1.074228e-02 4.027688e-01 2.905508e-01 -7.539167e-01 -1.454810e-01 1.542780e-01 -3.628810e-01 4.827641e-01 -2.437324e-01 3.589800e-01 -4.064875e-02
<VARIANCE> 25
 9.471934e+00 2.748610e+01 2.101059e+01 3.072897e+01 3.685199e+01 6.021494e+01 4.311943e+01 3.687413e+01 4.488048e+01 4.845241e+01 3.515980e+01 3.086350e+01 3.789116e-01 7.738718e-01 9.432731e-01 1.340768e+00 1.803612e+00 2.044184e+00 2.107617e+00 2.017151e+00 1.892897e+00 1.915547e+00 2.203800e+00 1.567049e+00 5.353780e-04
<GCONST> 8.448457e+01
<MIXTURE> 92 7.852945e-03
<MEAN> 25
 5.068453e+00 -7.327833e+00 -7.850360e+00 -4.630047e+00 2.325927e+00 2.854001e+00 -2.601774e+00 -1.337562e+00 3.416111e+00 -2.377548e-01 -4.081951e+00 -5.583859e+00 1.623799e-01 1.045506e+00 1.074228e-02 4.027688e-01 2.905508e-01 -7.539167e-01 -1.454810e-01 1.542780e-01 -3.628810e-01 4.827641e-01 -2.437324e-01 3.589800e-01 -4.064875e-02
<VARIANCE> 25
 9.471934e+00 2.748610e+01 2.101059e+01 3.072897e+01 3.685199e+01 6.021494e+01 4.311943e+01 3.687413e+01 4.488048e+01 4.845241e+01 3.515980e+01 3.086350e+01 3.789116e-01 7.738718e-01 9.432731e-01 1.340768e+00 1.803612e+00 2.044184e+00 2.107617e+00 2.017151e+00 1.892897e+00 1.915547e+00 2.203800e+00 1.567049e+00 5.353780e-04
<GCONST> 8.448457e+01
<MIXTURE> 93 6.122769e-03
<MEAN> 25
 -6.417297e+00 -3.321983e-01 -2.496506e+00 5.603850e+00 6.158867e+00 3.331939e+00 6.287261e+00 4.220489e+00 3.769232e+00 2.493660e+00 1.816553e+00 3.699659e+00 -6.128870e-02 -1.416313e-01 -2.686692e-01 -3.577150e-01 -3.242977e-01 -2.896665e-01 -2.217629e-01 -1.763372e-01 -1.783371e-01 -1.446244e-01 -1.008517e-01 -3.449412e-02 -6.105994e-06
<VARIANCE> 25
 1.010201e+01 9.839028e+00 7.880703e+00 1.115820e+01 1.154679e+01 1.874926e+01 1.501072e+01 1.985592e+01 1.556508e+01 1.370391e+01 1.606902e+01 1.264911e+01 7.974540e-02 1.581005e-01 2.705956e-01 3.962330e-01 4.839062e-01 6.308311e-01 7.561796e-01 9.356214e-01 9.175341e-01 8.797072e-01 8.621345e-01 9.009923e-01 9.368287e-07
<GCONST> 5.428812e+01
<MIXTURE> 94 6.122769e-03
<MEAN> 25
 -6.417297e+00 -3.321983e-01 -2.496506e+00 5.603850e+00 6.158867e+00 3.331939e+00 6.287261e+00 4.220489e+00 3.769232e+00 2.493660e+00 1.816553e+00 3.699659e+00 -6.128870e-02 -1.416313e-01 -2.686692e-01 -3.577150e-01 -3.242977e-01 -2.896665e-01 -2.217629e-01 -1.763372e-01 -1.783371e-01 -1.446244e-01 -1.008517e-01 -3.449412e-02 -6.105994e-06
<VARIANCE> 25
 1.010201e+01 9.839028e+00 7.880703e+00 1.115820e+01 1.154679e+01 1.874926e+01 1.501072e+01 1.985592e+01 1.556508e+01 1.370391e+01 1.606902e+01 1.264911e+01 7.974540e-02 1.581005e-01 2.705956e-01 3.962330e-01 4.839062e-01 6.308311e-01 7.561796e-01 9.356214e-01 9.175341e-01 8.797072e-01 8.621345e-01 9.009923e-01 9.368287e-07
<GCONST> 5.428812e+01
<MIXTURE> 95 5.258835e-03
<MEAN> 25
 -5.607959e+00 -4.708300e-01 -2.115452e+00 4.792835e+00 4.405105e+00 2.635796e+00 4.344900e+00 1.890148e+00 1.991079e+00 9.804075e-01 1.099400e+00 2.599325e+00 1.411593e-01 1.515853e-01 9.722168e-02 -7.053398e-02 -3.694712e-01 -7.136393e-01 -1.028177e+00 -1.288537e+00 -1.284528e+00 -9.950131e-01 -6.007267e-01 -2.770848e-01 -2.068283e-04
<VARIANCE> 25
 1.065376e+01 7.807822e+00 1.227845e+01 1.254651e+01 1.397828e+01 1.817103e+01 1.765667e+01 1.770454e+01 1.597079e+01 1.526428e+01 1.949387e+01 1.409201e+01 2.012342e-01 2.874820e-01 4.475136e-01 6.117828e-01 7.736446e-01 8.629140e-01 9.078051e-01 9.263489e-01 9.527963e-01 1.050800e+00 1.157206e+00 1.125128e+00 4.103410e-05
<GCONST> 6.324088e+01
<MIXTURE> 96 7.034694e-03
<MEAN> 25
 -3.504579e+00 3.371412e+00 -2.961992e+00 4.342651e+00 6.251185e+00 -1.362230e+00 5.191556e+00 6.087191e+00 6.633496e-01 1.291293e+00 8.724300e-01 2.709337e+00 3.006782e-02 1.317194e-01 2.277960e-01 3.492612e-01 4.401261e-01 4.577903e-01 1.264662e-01 -1.831457e-01 -3.434478e-01 -6.438503e-01 -4.518583e-01 -1.062901e-01 3.077292e-05
<VARIANCE> 25
 7.519456e+00 1.401362e+01 8.353940e+00 1.031407e+01 1.278519e+01 2.001171e+01 1.463898e+01 2.281333e+01 1.494386e+01 1.202698e+01 1.419108e+01 1.154883e+01 1.019966e-01 1.698819e-01 2.870025e-01 4.162424e-01 3.606925e-01 5.649447e-01 7.642346e-01 1.089744e+00 1.027674e+00 7.324616e-01 7.482299e-01 7.518114e-01 5.924798e-07
<GCONST> 5.355474e+01
<MIXTURE> 97 7.034694e-03
<MEAN> 25
 -3.504579e+00 3.371412e+00 -2.961992e+00 4.342651e+00 6.251185e+00 -1.362230e+00 5.191556e+00 6.087191e+00 6.633496e-01 1.291293e+00 8.724300e-01 2.709337e+00 3.006782e-02 1.317194e-01 2.277960e-01 3.492612e-01 4.401261e-01 4.577903e-01 1.264662e-01 -1.831457e-01 -3.434478e-01 -6.438503e-01 -4.518583e-01 -1.062901e-01 3.077292e-05
<VARIANCE> 25
 7.519456e+00 1.401362e+01 8.353940e+00 1.031407e+01 1.278519e+01 2.001171e+01 1.463898e+01 2.281333e+01 1.494386e+01 1.202698e+01 1.419108e+01 1.154883e+01 1.019966e-01 1.698819e-01 2.870025e-01 4.162424e-01 3.606925e-01 5.649447e-01 7.642346e-01 1.089744e+00 1.027674e+00 7.324616e-01 7.482299e-01 7.518114e-01 5.924798e-07
<GCONST> 5.355474e+01
<MIXTURE> 98 9.917808e-03
<MEAN> 25
 -1.436591e+00 1.459713e+00 -5.566316e-01 4.373025e+00 4.128092e+00 1.918941e+00 3.350613e+00 2.157895e+00 1.469579e+00 9.293289e-01 5.218353e-01 8.746154e-01 -1.687184e+00 -1.370020e+00 -8.036420e-01 1.240141e-01 5.836700e-01 8.051473e-01 1.148113e+00 1.375412e+00 1.682088e+00 1.108407e+00 1.183661e+00 9.393197e-01 -3.114557e-02
<VARIANCE> 25
 1.341762e+01 2.059788e+01 3.134801e+01 3.130439e+01 4.213315e+01 3.739948e+01 3.072310e+01 3.174272e+01 2.750717e+01 2.823869e+01 2.480278e+01 2.394266e+01 1.453878e+00 1.701265e+00 2.694722e+00 2.321854e+00 2.786679e+00 2.911284e+00 2.868900e+00 2.658265e+00 2.548219e+00 2.827778e+00 2.909256e+00 2.058578e+00 2.423613e-03
<GCONST> 9.035114e+01
<MIXTURE> 99 6.696178e-03
<MEAN> 25
 -7.268898e+00 9.432100e+00 5.125250e+00 2.811299e+00 1.905629e+00 -6.004342e+00 -1.010565e+00 -4.068127e+00 -2.599659e+00 -3.212927e+00 -2.211771e+00 7.378638e-01 3.255800e-01 -7.262830e-01 5.618274e-01 -2.492845e-01 -9.769612e-01 -4.274189e-01 -6.374437e-02 -1.357483e-01 2.131924e-02 -1.989864e-01 2.894607e-01 1.134438e-01 1.488699e-02
<VARIANCE> 25
 3.790973e+01 2.525092e+01 4.990171e+01 3.134171e+01 3.608344e+01 3.349507e+01 3.395095e+01 2.856850e+01 3.062695e+01 2.547137e+01 1.980534e+01 2.715621e+01 2.305806e+00 1.800259e+00 1.602937e+00 1.715017e+00 2.509730e+00 2.031969e+00 1.907720e+00 1.548090e+00 1.519800e+00 1.705148e+00 1.446412e+00 1.409639e+00 1.769385e-03
<GCONST> 8.756171e+01
<MIXTURE> 100 4.498084e-03
<MEAN> 25
 -1.598258e+00 6.343189e+00 1.027594e+01 -7.459767e+00 -1.078006e+01 -5.075858e+00 -4.939534e+00 -9.969034e+00 -4.719999e+00 -8.534516e-01 -2.733892e+00 -2.708225e+00 2.917798e+00 -1.260981e+00 1.299729e+00 -2.185046e+00 -3.419661e+00 -7.833392e-01 -1.218705e+00 -8.196840e-01 -1.475919e+00 3.467956e-01 -1.654870e+00 -2.862298e-01 2.029347e-03
<VARIANCE> 25
 1.362609e+01 2.106826e+01 2.246248e+01 2.646386e+01 2.303571e+01 2.371969e+01 2.912712e+01 2.170280e+01 2.749164e+01 2.266248e+01 2.240917e+01 2.133731e+01 1.798924e+00 3.954324e+00 2.919379e+00 4.289253e+00 4.183700e+00 4.539175e+00 4.014694e+00 4.339721e+00 4.168146e+00 3.895451e+00 3.912191e+00 3.224374e+00 1.675391e-03
<GCONST> 9.257291e+01
<MIXTURE> 101 6.007792e-03
<MEAN> 25
 8.087305e+00 -3.633287e+00 -5.797682e+00 -5.958744e+00 4.996393e-01 -1.091732e+00 -1.019081e+01 -2.393739e+00 1.047829e+00 2.714324e+00 -1.480557e+00 -4.530714e+00 7.023304e-01 6.714243e-01 -1.565459e+00 -1.637286e+00 1.069310e+00 2.264492e+00 2.797076e-01 -1.563637e+00 -1.037042e+00 1.089450e+00 1.332930e+00 -4.267114e-01 -6.280303e-03
<VARIANCE> 25
 8.740072e+00 1.605003e+01 3.072585e+01 4.910559e+01 3.502511e+01 3.391365e+01 3.639272e+01 3.490772e+01 4.003635e+01 4.074601e+01 5.765429e+01 2.739579e+01 2.911538e-01 6.452019e-01 1.281691e+00 1.470110e+00 1.661266e+00 2.021886e+00 2.036638e+00 2.018919e+00 2.241947e+00 2.101016e+00 1.688216e+00 1.798965e+00 3.833770e-04
<GCONST> 8.357965e+01
<MIXTURE> 102 6.007792e-03
<MEAN> 25
 8.087305e+00 -3.633287e+00 -5.797682e+00 -5.958744e+00 4.996393e-01 -1.091732e+00 -1.019081e+01 -2.393739e+00 1.047829e+00 2.714324e+00 -1.480557e+00 -4.530714e+00 7.023304e-01 6.714243e-01 -1.565459e+00 -1.637286e+00 1.069310e+00 2.264492e+00 2.797076e-01 -1.563637e+00 -1.037042e+00 1.089450e+00 1.332930e+00 -4.267114e-01 -6.280303e-03
<VARIANCE> 25
 8.740072e+00 1.605003e+01 3.072585e+01 4.910559e+01 3.502511e+01 3.391365e+01 3.639272e+01 3.490772e+01 4.003635e+01 4.074601e+01 5.765429e+01 2.739579e+01 2.911538e-01 6.452019e-01 1.281691e+00 1.470110e+00 1.661266e+00 2.021886e+00 2.036638e+00 2.018919e+00 2.241947e+00 2.101016e+00 1.688216e+00 1.798965e+00 3.833770e-04
<GCONST> 8.357965e+01
<MIXTURE> 103 5.694618e-03
<MEAN> 25
 3.340459e+00 -9.517430e+00 -6.095337e+00 -3.082538e+00 -1.407171e+00 -1.916211e+00 2.345942e+00 2.532390e+00 -4.553075e+00 -9.172520e+00 -5.036407e+00 3.168579e-01 -1.593895e-01 -1.487419e+00 -9.690004e-01 3.786480e-01 1.198795e+00 1.023344e+00 1.549703e-01 -2.538395e-01 -7.855364e-01 -9.533914e-01 -2.452481e-02 1.164410e-01 2.703612e-02
<VARIANCE> 25
 1.038550e+01 2.042758e+01 2.294744e+01 3.150089e+01 4.851133e+01 3.523355e+01 4.737011e+01 3.658455e+01 4.243799e+01 3.013550e+01 2.997611e+01 2.651073e+01 6.435130e-01 1.257921e+00 1.548782e+00 1.935391e+00 2.952298e+00 2.417697e+00 2.885073e+00 2.611736e+00 2.556672e+00 2.520210e+00 2.106695e+00 2.014847e+00 8.110090e-04
<GCONST> 8.768341e+01
<MIXTURE> 104 5.694618e-03
<MEAN> 25
 3.340459e+00 -9.517430e+00 -6.095337e+00 -3.082538e+00 -1.407171e+00 -1.916211e+00 2.345942e+00 2.532390e+00 -4.553075e+00 -9.172520e+00 -5.036407e+00 3.168579e-01 -1.593895e-01 -1.487419e+00 -9.690004e-01 3.786480e-01 1.198795e+00 1.023344e+00 1.549703e-01 -2.538395e-01 -7.855364e-01 -9.533914e-01 -2.452481e-02 1.164410e-01 2.703612e-02
<VARIANCE> 25
 1.038550e+01 2.042758e+01 2.294744e+01 3.150089e+01 4.851133e+01 3.523355e+01 4.737011e+01 3.658455e+01 4.243799e+01 3.013550e+01 2.997611e+01 2.651073e+01 6.435130e-01 1.257921e+00 1.548782e+00 1.935391e+00 2.952298e+00 2.417697e+00 2.885073e+00 2.611736e+00 2.556672e+00 2.520210e+00 2.106695e+00 2.014847e+00 8.110090e-04
<GCONST> 8.768341e+01
<MIXTURE> 105 4.710235e-03
<MEAN> 25
 2.237187e+00 -2.009257e+00 9.572830e+00 -2.108468e+00 -1.154727e+01 -4.598830e+00 -3.784608e+00 -1.259728e+00 -3.922473e+00 -3.417149e+00 1.287745e+00 -1.218976e+00 8.400830e-03 2.885462e-02 6.274702e-02 -8.999658e-02 -2.878788e-03 9.407399e-02 -3.768331e-02 1.022109e-01 -7.294767e-02 6.802934e-02 3.306282e-02 -2.384752e-02 -1.776191e-03
<VARIANCE> 25
 1.298545e+01 2.941270e+01 4.364378e+01 4.668201e+01 3.508622e+01 5.248210e+01 4.000362e+01 4.325234e+01 3.849533e+01 4.607021e+01 4.498647e+01 2.867909e+01 8.080801e-02 1.738000e-01 3.320369e-01 3.169971e-01 3.550752e-01 4.505969e-01 4.434380e-01 5.100257e-01 4.708309e-01 4.694442e-01 4.270434e-01 3.905624e-01 1.024825e-04
<GCONST> 6.680683e+01
<MIXTURE> 106 4.710235e-03
<MEAN> 25
 2.237187e+00 -2.009257e+00 9.572830e+00 -2.108468e+00 -1.154727e+01 -4.598830e+00 -3.784608e+00 -1.259728e+00 -3.922473e+00 -3.417149e+00 1.287745e+00 -1.218976e+00 8.400830e-03 2.885462e-02 6.274702e-02 -8.999658e-02 -2.878788e-03 9.407399e-02 -3.768331e-02 1.022109e-01 -7.294767e-02 6.802934e-02 3.306282e-02 -2.384752e-02 -1.776191e-03
<VARIANCE> 25
 1.298545e+01 2.941270e+01 4.364378e+01 4.668201e+01 3.508622e+01 5.248210e+01 4.000362e+01 4.325234e+01 3.849533e+01 4.607021e+01 4.498647e+01 2.867909e+01 8.080801e-02 1.738000e-01 3.320369e-01 3.169971e-01 3.550752e-01 4.505969e-01 4.434380e-01 5.100257e-01 4.708309e-01 4.694442e-01 4.270434e-01 3.905624e-01 1.024825e-04
<GCONST> 6.680683e+01
<MIXTURE> 107 5.452374e-03
<MEAN> 25
 8.233026e+00 -2.679924e+00 -7.211239e+00 -8.988085e+00 1.366248e+00 3.424697e+00 -8.865035e+00 -4.917234e+00 -1.052455e+00 3.470447e+00 1.880938e+00 -5.103342e+00 -5.889313e-01 -6.466427e-01 7.736022e-01 1.676568e+00 2.844709e-01 -1.966898e+00 -1.034290e+00 7.823625e-01 1.777027e+00 5.682274e-02 -1.593133e+00 -8.947977e-01 -3.365454e-03
<VARIANCE> 25
 9.743251e+00 1.981672e+01 3.043930e+01 4.390259e+01 3.803831e+01 3.773225e+01 5.010029e+01 3.477200e+01 4.444043e+01 3.770546e+01 5.542071e+01 3.481447e+01 4.122838e-01 1.157960e+00 1.407827e+00 2.327735e+00 2.216210e+00 3.011586e+00 2.720368e+00 2.299810e+00 2.181821e+00 2.832922e+00 1.860922e+00 2.072191e+00 7.251255e-04
<GCONST> 8.825003e+01
<MIXTURE> 108 5.452374e-03
<MEAN> 25
 8.233026e+00 -2.679924e+00 -7.211239e+00 -8.988085e+00 1.366248e+00 3.424697e+00 -8.865035e+00 -4.917234e+00 -1.052455e+00 3.470447e+00 1.880938e+00 -5.103342e+00 -5.889313e-01 -6.466427e-01 7.736022e-01 1.676568e+00 2.844709e-01 -1.966898e+00 -1.034290e+00 7.823625e-01 1.777027e+00 5.682274e-02 -1.593133e+00 -8.947977e-01 -3.365454e-03
<VARIANCE> 25
 9.743251e+00 1.981672e+01 3.043930e+01 4.390259e+01 3.803831e+01 3.773225e+01 5.010029e+01 3.477200e+01 4.444043e+01 3.770546e+01 5.542071e+01 3.481447e+01 4.122838e-01 1.157960e+00 1.407827e+00 2.327735e+00 2.216210e+00 3.011586e+00 2.720368e+00 2.299810e+00 2.181821e+00 2.832922e+00 1.860922e+00 2.072191e+00 7.251255e-04
<GCONST> 8.825003e+01
<MIXTURE> 109 6.661064e-03
<MEAN> 25
 4.042316e+00 -1.048618e+01 -8.246654e+00 -1.393951e+00 2.658994e+00 1.131123e-01 -7.215334e-02 1.369378e+00 -2.373698e+00 -8.121619e+00 -5.349241e+00 -3.759679e-02 -2.875115e-02 -1.295000e-01 -2.050781e-02 2.486375e-01 2.081657e-01 1.136395e-01 -1.012184e-01 -9.051724e-02 -5.506007e-02 -1.332802e-01 2.189893e-01 7.391539e-03 -3.757038e-03
<VARIANCE> 25
 9.014210e+00 1.920033e+01 2.006132e+01 3.120666e+01 4.153268e+01 3.800965e+01 4.638285e+01 3.493473e+01 4.735012e+01 3.741393e+01 2.912694e+01 2.808589e+01 2.000607e-01 4.201753e-01 5.461636e-01 6.360165e-01 1.214918e+00 9.866282e-01 1.288075e+00 1.103830e+00 1.126082e+00 9.475092e-01 8.761563e-01 8.837527e-01 1.835842e-04
<GCONST> 7.468713e+01
<MIXTURE> 110 6.661064e-03
<MEAN> 25
 4.042316e+00 -1.048618e+01 -8.246654e+00 -1.393951e+00 2.658994e+00 1.131123e-01 -7.215334e-02 1.369378e+00 -2.373698e+00 -8.121619e+00 -5.349241e+00 -3.759679e-02 -2.875115e-02 -1.295000e-01 -2.050781e-02 2.486375e-01 2.081657e-01 1.136395e-01 -1.012184e-01 -9.051724e-02 -5.506007e-02 -1.332802e-01 2.189893e-01 7.391539e-03 -3.757038e-03
<VARIANCE> 25
 9.014210e+00 1.920033e+01 2.006132e+01 3.120666e+01 4.153268e+01 3.800965e+01 4.638285e+01 3.493473e+01 4.735012e+01 3.741393e+01 2.912694e+01 2.808589e+01 2.000607e-01 4.201753e-01 5.461636e-01 6.360165e-01 1.214918e+00 9.866282e-01 1.288075e+00 1.103830e+00 1.126082e+00 9.475092e-01 8.761563e-01 8.837527e-01 1.835842e-04
<GCONST> 7.468713e+01
<MIXTURE> 111 4.337247e-03
<MEAN> 25
 -4.465921e+00 -8.893921e-01 -1.733345e+00 1.689527e+00 9.862655e-01 9.503240e-01 3.271168e-01 2.348794e-01 8.199693e-02 -5.322221e-01 -6.274359e-01 1.965057e+00 -2.086630e-02 -3.233236e-02 -7.149377e-02 -7.328687e-02 -3.659262e-02 4.543098e-03 -1.811202e-03 -5.781683e-02 -1.418781e-01 -2.014937e-01 -1.892171e-01 -1.042542e-01 -2.192153e-04
<VARIANCE> 25
 7.003756e+00 5.071188e+00 1.025902e+01 9.391073e+00 1.323124e+01 2.386353e+01 1.469376e+01 1.333011e+01 1.159989e+01 1.192548e+01 1.360627e+01 1.157601e+01 7.905477e-02 1.634227e-01 2.753840e-01 4.204099e-01 5.686811e-01 7.053235e-01 7.988167e-01 8.619199e-01 8.931041e-01 8.572230e-01 8.607482e-01 8.491459e-01 2.228265e-05
<GCONST> 5.602219e+01
<MIXTURE> 112 4.337247e-03
<MEAN> 25
 -4.465921e+00 -8.893921e-01 -1.733345e+00 1.689527e+00 9.862655e-01 9.503240e-01 3.271168e-01 2.348794e-01 8.199693e-02 -5.322221e-01 -6.274359e-01 1.965057e+00 -2.086630e-02 -3.233236e-02 -7.149377e-02 -7.328687e-02 -3.659262e-02 4.543098e-03 -1.811202e-03 -5.781683e-02 -1.418781e-01 -2.014937e-01 -1.892171e-01 -1.042542e-01 -2.192153e-04
<VARIANCE> 25
 7.003756e+00 5.071188e+00 1.025902e+01 9.391073e+00 1.323124e+01 2.386353e+01 1.469376e+01 1.333011e+01 1.159989e+01 1.192548e+01 1.360627e+01 1.157601e+01 7.905477e-02 1.634227e-01 2.753840e-01 4.204099e-01 5.686811e-01 7.053235e-01 7.988167e-01 8.619199e-01 8.931041e-01 8.572230e-01 8.607482e-01 8.491459e-01 2.228265e-05
<GCONST> 5.602219e+01
<MIXTURE> 113 5.938666e-03
<MEAN> 25
 9.526147e+00 1.687158e+00 -8.042210e+00 -1.736164e+01 -2.145980e+00 6.577721e+00 -5.365875e+00 -1.504511e+00 -5.697174e+00 -1.143337e+00 5.290343e-01 -9.952422e-02 -1.360931e-02 -3.494032e-02 -8.552249e-02 -2.888423e-02 1.140233e-01 9.760118e-02 9.747288e-02 6.001522e-02 -1.183044e-01 -1.354496e-01 1.946130e-01 -4.978083e-02 -8.459975e-04
<VARIANCE> 25
 1.076751e+01 1.550355e+01 3.439484e+01 3.325984e+01 6.449501e+01 4.209024e+01 3.709629e+01 3.659573e+01 3.495944e+01 4.863445e+01 3.444464e+01 2.686473e+01 1.209587e-01 3.347518e-01 3.106145e-01 7.193691e-01 5.752305e-01 6.471699e-01 7.437852e-01 8.039184e-01 9.876826e-01 9.325465e-01 6.804083e-01 7.602464e-01 1.209299e-04
<GCONST> 7.152596e+01
<MIXTURE> 114 5.938666e-03
<MEAN> 25
 9.526147e+00 1.687158e+00 -8.042210e+00 -1.736164e+01 -2.145980e+00 6.577721e+00 -5.365875e+00 -1.504511e+00 -5.697174e+00 -1.143337e+00 5.290343e-01 -9.952422e-02 -1.360931e-02 -3.494032e-02 -8.552249e-02 -2.888423e-02 1.140233e-01 9.760118e-02 9.747288e-02 6.001522e-02 -1.183044e-01 -1.354496e-01 1.946130e-01 -4.978083e-02 -8.459975e-04
<VARIANCE> 25
 1.076751e+01 1.550355e+01 3.439484e+01 3.325984e+01 6.449501e+01 4.209024e+01 3.709629e+01 3.659573e+01 3.495944e+01 4.863445e+01 3.444464e+01 2.686473e+01 1.209587e-01 3.347518e-01 3.106145e-01 7.193691e-01 5.752305e-01 6.471699e-01 7.437852e-01 8.039184e-01 9.876826e-01 9.325465e-01 6.804083e-01 7.602464e-01 1.209299e-04
<GCONST> 7.152596e+01
<MIXTURE> 115 2.935202e-03
<MEAN> 25
 -3.174446e+00 2.195853e+00 -3.529901e+00 3.362266e+00 4.496611e+00 -2.134098e+00 3.456745e+00 3.159740e+00 -2.633938e-01 5.537101e-01 1.349317e-01 2.344324e+00 -4.497807e-03 -2.903965e-02 -2.243315e-01 -5.279028e-01 -5.651460e-01 -6.371597e-01 -6.084297e-01 -5.829844e-01 -5.445592e-01 -2.430206e-01 -3.825256e-01 -2.831807e-01 -3.383406e-05
<VARIANCE> 25
 7.113431e+00 1.758152e+01 1.024901e+01 1.024467e+01 1.592333e+01 1.784842e+01 1.536012e+01 2.539174e+01 1.915609e+01 1.472376e+01 1.484809e+01 1.256960e+01 1.643860e-01 2.744927e-01 4.436103e-01 5.619327e-01 6.021275e-01 6.446015e-01 8.152719e-01 1.090277e+00 1.294176e+00 8.684225e-01 8.715764e-01 9.655606e-01 7.039937e-07
<GCONST> 5.814288e+01
<MIXTURE> 116 2.935202e-03
<MEAN> 25
 -3.174446e+00 2.195853e+00 -3.529901e+00 3.362266e+00 4.496611e+00 -2.134098e+00 3.456745e+00 3.159740e+00 -2.633938e-01 5.537101e-01 1.349317e-01 2.344324e+00 -4.497807e-03 -2.903965e-02 -2.243315e-01 -5.279028e-01 -5.651460e-01 -6.371597e-01 -6.084297e-01 -5.829844e-01 -5.445592e-01 -2.430206e-01 -3.825256e-01 -2.831807e-01 -3.383406e-05
<VARIANCE> 25
 7.113431e+00 1.758152e+01 1.024901e+01 1.024467e+01 1.592333e+01 1.784842e+01 1.536012e+01 2.539174e+01 1.915609e+01 1.472376e+01 1.484809e+01 1.256960e+01 1.643860e-01 2.744927e-01 4.436103e-01 5.619327e-01 6.021275e-01 6.446015e-01 8.152719e-01 1.090277e+00 1.294176e+00 8.684225e-01 8.715764e-01 9.655606e-01 7.039937e-07
<GCONST> 5.814288e+01
<MIXTURE> 117 6.506003e-03
<MEAN> 25
 -4.416836e+00 1.666284e+00 7.635567e-01 9.384161e+00 6.554048e+00 5.478747e+00 6.648633e+00 5.658919e+00 5.850753e+00 4.663388e+00 6.011691e+00 2.781809e+00 -8.037370e-02 -2.235210e-01 -3.629983e-01 -4.491665e-01 -3.779652e-01 -3.208352e-01 -2.949789e-01 -3.202769e-01 -3.863679e-01 -3.350386e-01 -2.482907e-01 -1.429030e-01 -9.910546e-06
<VARIANCE> 25
 7.152596e+00 1.113931e+01 9.982012e+00 1.481225e+01 1.529749e+01 2.045069e+01 1.759434e+01 2.076091e+01 1.835458e+01 1.599553e+01 1.697623e+01 1.387294e+01 2.024753e-01 3.079323e-01 4.027801e-01 6.304790e-01 8.209625e-01 1.028011e+00 1.123327e+00 1.231499e+00 1.221418e+00 1.187977e+00 1.141743e+00 1.075267e+00 9.228624e-07
<GCONST> 6.080224e+01
<MIXTURE> 118 6.506003e-03
<MEAN> 25
 -4.416836e+00 1.666284e+00 7.635567e-01 9.384161e+00 6.554048e+00 5.478747e+00 6.648633e+00 5.658919e+00 5.850753e+00 4.663388e+00 6.011691e+00 2.781809e+00 -8.037370e-02 -2.235210e-01 -3.629983e-01 -4.491665e-01 -3.779652e-01 -3.208352e-01 -2.949789e-01 -3.202769e-01 -3.863679e-01 -3.350386e-01 -2.482907e-01 -1.429030e-01 -9.910546e-06
<VARIANCE> 25
 7.152596e+00 1.113931e+01 9.982012e+00 1.481225e+01 1.529749e+01 2.045069e+01 1.759434e+01 2.076091e+01 1.835458e+01 1.599553e+01 1.697623e+01 1.387294e+01 2.024753e-01 3.079323e-01 4.027801e-01 6.304790e-01 8.209625e-01 1.028011e+00 1.123327e+00 1.231499e+00 1.221418e+00 1.187977e+00 1.141743e+00 1.075267e+00 9.228624e-07
<GCONST> 6.080224e+01
<MIXTURE> 119 4.297961e-03
<MEAN> 25
 -4.974704e+00 -7.632177e+00 2.229698e+00 2.017827e+00 2.240357e+00 2.072827e-01 5.276671e+00 5.941553e+00 1.164541e+00 9.663583e-01 6.610045e+00 1.568866e+00 -4.987597e-02 -7.937709e-02 3.764821e-02 -5.699007e-02 -1.260950e-01 -1.797728e-01 -6.899731e-02 -1.372189e-02 -9.219696e-02 -1.122263e-01 -5.499160e-02 -5.828718e-02 1.112890e-03
<VARIANCE> 25
 8.501636e+00 9.834077e+00 1.657144e+01 2.018325e+01 2.286746e+01 2.320099e+01 2.500488e+01 2.648849e+01 2.504075e+01 2.808030e+01 2.044739e+01 2.041008e+01 1.604552e-01 2.824305e-01 4.600484e-01 6.327948e-01 8.033022e-01 1.003648e+00 1.099606e+00 1.277614e+00 1.286153e+00 1.245752e+00 1.192172e+00 1.112258e+00 2.315639e-04
<GCONST> 6.972411e+01
<MIXTURE> 120 4.297961e-03
<MEAN> 25
 -4.974704e+00 -7.632177e+00 2.229698e+00 2.017827e+00 2.240357e+00 2.072827e-01 5.276671e+00 5.941553e+00 1.164541e+00 9.663583e-01 6.610045e+00 1.568866e+00 -4.987597e-02 -7.937709e-02 3.764821e-02 -5.699007e-02 -1.260950e-01 -1.797728e-01 -6.899731e-02 -1.372189e-02 -9.219696e-02 -1.122263e-01 -5.499160e-02 -5.828718e-02 1.112890e-03
<VARIANCE> 25
 8.501636e+00 9.834077e+00 1.657144e+01 2.018325e+01 2.286746e+01 2.320099e+01 2.500488e+01 2.648849e+01 2.504075e+01 2.808030e+01 2.044739e+01 2.041008e+01 1.604552e-01 2.824305e-01 4.600484e-01 6.327948e-01 8.033022e-01 1.003648e+00 1.099606e+00 1.277614e+00 1.286153e+00 1.245752e+00 1.192172e+00 1.112258e+00 2.315639e-04
<GCONST> 6.972411e+01
<MIXTURE> 121 4.567511e-03
<MEAN> 25
 2.225852e-01 -2.535281e+00 5.153127e+00 -1.286292e+01 -1.265235e+01 -1.613637e+00 9.788565e-01 -5.094169e+00 -4.234713e+00 -4.975129e-01 -5.497637e+00 -4.301610e+00 2.511084e-02 1.303063e-01 -4.197714e-02 8.723598e-02 1.578082e-01 7.501791e-02 -7.708190e-02 -1.796495e-01 -2.723939e-01 -2.571803e-01 -1.075654e-01 -2.513021e-03 -7.391547e-03
<VARIANCE> 25
 7.733794e+00 1.563498e+01 1.729638e+01 2.123717e+01 2.432400e+01 2.990555e+01 2.950010e+01 2.450123e+01 3.566300e+01 2.848879e+01 1.984093e+01 2.110921e+01 1.550561e-01 6.412107e-01 6.214175e-01 7.142334e-01 7.686364e-01 1.150175e+00 1.117481e+00 1.118356e+00 1.216783e+00 1.192350e+00 9.570399e-01 8.703475e-01 2.104358e-04
<GCONST> 7.148409e+01
<MIXTURE> 122 4.567511e-03
<MEAN> 25
 2.225852e-01 -2.535281e+00 5.153127e+00 -1.286292e+01 -1.265235e+01 -1.613637e+00 9.788565e-01 -5.094169e+00 -4.234713e+00 -4.975129e-01 -5.497637e+00 -4.301610e+00 2.511084e-02 1.303063e-01 -4.197714e-02 8.723598e-02 1.578082e-01 7.501791e-02 -7.708190e-02 -1.796495e-01 -2.723939e-01 -2.571803e-01 -1.075654e-01 -2.513021e-03 -7.391547e-03
<VARIANCE> 25
 7.733794e+00 1.563498e+01 1.729638e+01 2.123717e+01 2.432400e+01 2.990555e+01 2.950010e+01 2.450123e+01 3.566300e+01 2.848879e+01 1.984093e+01 2.110921e+01 1.550561e-01 6.412107e-01 6.214175e-01 7.142334e-01 7.686364e-01 1.150175e+00 1.117481e+00 1.118356e+00 1.216783e+00 1.192350e+00 9.570399e-01 8.703475e-01 2.104358e-04
<GCONST> 7.148409e+01
<MIXTURE> 123 4.393044e-03
<MEAN> 25
 -4.048424e+00 1.417773e+00 -1.113203e-01 5.926296e+00 5.599043e+00 2.974154e+00 3.468802e+00 1.084181e+00 2.285000e-01 -4.425046e-01 -8.278819e-02 8.325722e-01 -4.612242e-01 -7.512959e-01 -7.719405e-01 -6.433035e-01 -2.591243e-01 1.191265e-01 3.204865e-01 6.358088e-01 8.359166e-01 7.307409e-01 6.662450e-01 5.062801e-01 -2.749753e-03
<VARIANCE> 25
 1.037136e+01 1.238660e+01 1.551049e+01 1.723369e+01 2.199006e+01 2.942602e+01 2.172888e+01 2.267546e+01 1.965098e+01 1.685341e+01 2.116640e+01 1.887934e+01 3.592721e-01 3.657749e-01 6.071846e-01 7.330283e-01 9.545368e-01 1.241147e+00 1.226892e+00 1.167670e+00 1.173680e+00 1.164220e+00 1.212611e+00 1.220487e+00 9.444349e-05
<GCONST> 6.998334e+01
<MIXTURE> 124 4.069876e-03
<MEAN> 25
 -6.290859e+00 -8.081373e-01 -3.026656e+00 4.939580e+00 5.141712e+00 2.980420e+00 5.548151e+00 3.100542e+00 3.019808e+00 1.408838e+00 1.035684e+00 2.936103e+00 -2.049749e-01 -3.232777e-01 -3.516560e-01 -2.292689e-01 1.330138e-01 5.151004e-01 8.213779e-01 8.880405e-01 6.591048e-01 3.534494e-01 8.503837e-02 1.766675e-02 3.045376e-05
<VARIANCE> 25
 1.160939e+01 9.272173e+00 1.083938e+01 1.242420e+01 1.246176e+01 2.160604e+01 1.574066e+01 2.091345e+01 1.584560e+01 1.600326e+01 1.893082e+01 1.406302e+01 1.010102e-01 1.707921e-01 2.713450e-01 4.074072e-01 5.700728e-01 7.043886e-01 7.385480e-01 8.015192e-01 8.946614e-01 9.968244e-01 1.002553e+00 1.031682e+00 1.701619e-05
<GCONST> 5.927990e+01
<MIXTURE> 125 4.069876e-03
<MEAN> 25
 -6.290859e+00 -8.081373e-01 -3.026656e+00 4.939580e+00 5.141712e+00 2.980420e+00 5.548151e+00 3.100542e+00 3.019808e+00 1.408838e+00 1.035684e+00 2.936103e+00 -2.049749e-01 -3.232777e-01 -3.516560e-01 -2.292689e-01 1.330138e-01 5.151004e-01 8.213779e-01 8.880405e-01 6.591048e-01 3.534494e-01 8.503837e-02 1.766675e-02 3.045376e-05
<VARIANCE> 25
 1.160939e+01 9.272173e+00 1.083938e+01 1.242420e+01 1.246176e+01 2.160604e+01 1.574066e+01 2.091345e+01 1.584560e+01 1.600326e+01 1.893082e+01 1.406302e+01 1.010102e-01 1.707921e-01 2.713450e-01 4.074072e-01 5.700728e-01 7.043886e-01 7.385480e-01 8.015192e-01 8.946614e-01 9.968244e-01 1.002553e+00 1.031682e+00 1.701619e-05
<GCONST> 5.927990e+01
<MIXTURE> 126 2.402244e-03
<MEAN> 25
 -3.740691e+00 -6.817358e+00 -5.317092e+00 2.311604e+00 4.324841e+00 -3.220745e+00 1.419957e-01 3.598120e+00 3.301984e+00 -2.634693e+00 -1.468597e+00 2.992169e+00 -5.367775e-03 -4.938991e-03 -3.355284e-02 -1.584275e-01 -3.172108e-01 -3.913752e-01 -2.734653e-01 -1.532072e-01 -1.239825e-01 -1.292760e-01 -9.953640e-02 -2.650432e-02 -1.626207e-03
<VARIANCE> 25
 7.574335e+00 1.368864e+01 1.386174e+01 1.504203e+01 2.459304e+01 2.350269e+01 2.302751e+01 2.837012e+01 3.122645e+01 2.649262e+01 2.179617e+01 1.941716e+01 1.716164e-01 3.499476e-01 4.848637e-01 5.669502e-01 7.487332e-01 9.905317e-01 1.115791e+00 1.261330e+00 1.334606e+00 1.330055e+00 1.210173e+00 1.145781e+00 2.122767e-04
<GCONST> 6.991796e+01
<MIXTURE> 127 2.402244e-03
<MEAN> 25
 -3.740691e+00 -6.817358e+00 -5.317092e+00 2.311604e+00 4.324841e+00 -3.220745e+00 1.419957e-01 3.598120e+00 3.301984e+00 -2.634693e+00 -1.468597e+00 2.992169e+00 -5.367775e-03 -4.938991e-03 -3.355284e-02 -1.584275e-01 -3.172108e-01 -3.913752e-01 -2.734653e-01 -1.532072e-01 -1.239825e-01 -1.292760e-01 -9.953640e-02 -2.650432e-02 -1.626207e-03
<VARIANCE> 25
 7.574335e+00 1.368864e+01 1.386174e+01 1.504203e+01 2.459304e+01 2.350269e+01 2.302751e+01 2.837012e+01 3.122645e+01 2.649262e+01 2.179617e+01 1.941716e+01 1.716164e-01 3.499476e-01 4.848637e-01 5.669502e-01 7.487332e-01 9.905317e-01 1.115791e+00 1.261330e+00 1.334606e+00 1.330055e+00 1.210173e+00 1.145781e+00 2.122767e-04
<GCONST> 6.991796e+01
<MIXTURE> 128 3.790457e-03
<MEAN> 25
 -3.245694e+00 2.898306e+00 -9.871994e-01 6.033420e+00 4.554577e+00 6.007531e-01 4.670774e+00 3.948090e+00 3.094288e+00 3.694259e+00 2.966324e+00 3.155192e+00 -3.380918e-01 -2.451973e-01 7.373965e-02 7.017657e-01 1.195876e+00 1.152175e+00 8.096581e-01 5.084743e-02 -3.561278e-01 -7.832810e-01 -5.491406e-01 -2.442613e-01 -1.155107e-05
<VARIANCE> 25
 9.426550e+00 1.454750e+01 1.410772e+01 1.669559e+01 1.905530e+01 2.192123e+01 2.343497e+01 2.740441e+01 2.536703e+01 2.257209e+01 2.503950e+01 1.615485e+01 7.579901e-01 9.382590e-01 1.165191e+00 1.263383e+00 1.506869e+00 1.936318e+00 2.095375e+00 2.154462e+00 2.402227e+00 1.550601e+00 1.508945e+00 1.516254e+00 8.448941e-07
<GCONST> 7.196491e+01
<TRANSP> 3
 0.000000e+00 1.000000e+00 0.000000e+00
 0.000000e+00 9.999990e-01 9.999998e-07
 0.000000e+00 0.000000e+00 0.000000e+00
<ENDHMM>
