~o
<STREAMINFO> 1 25
<VECSIZE> 25<NULLD><MFCC_E_D_N><DIAGC>
~h "jmodel"
<BEGINHMM>
<NUMSTATES> 3
<STATE> 2
<NUMMIXES> 128
<MIXTURE> 1 5.748963e-03
<MEAN> 25
 -2.583257e+00 3.180875e+00 2.313504e+00 8.749327e+00 4.370331e+00 3.441702e+00 4.066609e+00 3.936165e+00 5.830124e+00 5.254512e+00 5.879751e+00 3.083015e+00 -2.003157e+00 -1.634634e+00 -8.650074e-01 1.075334e+00 1.558696e+00 2.233085e+00 2.152494e+00 2.085469e+00 1.693796e+00 1.269739e+00 1.565819e+00 6.126286e-01 -4.688185e-02
<VARIANCE> 25
 1.005868e+01 1.175644e+01 1.495504e+01 1.872744e+01 2.319072e+01 2.223006e+01 2.190385e+01 2.197448e+01 2.099494e+01 2.252707e+01 2.097776e+01 1.710249e+01 1.791941e+00 2.110791e+00 3.025203e+00 3.209037e+00 3.745253e+00 3.355087e+00 3.324390e+00 3.379263e+00 3.520093e+00 3.724951e+00 3.516373e+00 2.833429e+00 3.123194e-03
<GCONST> 8.847501e+01
<MIXTURE> 2 4.549242e-03
<MEAN> 25
 -4.875671e+00 1.311720e+00 9.943511e-01 9.899809e+00 6.692275e+00 7.424650e+00 7.847087e+00 6.958091e+00 8.373269e+00 6.373019e+00 7.624402e+00 3.074697e+00 -6.200235e-02 4.161923e-02 1.425301e-01 2.258583e-01 2.652900e-01 2.813653e-01 2.954302e-01 3.195550e-01 3.497573e-01 3.089160e-01 1.971766e-01 8.006547e-02 1.228299e-06
<VARIANCE> 25
 6.952293e+00 8.901894e+00 1.065126e+01 1.591096e+01 1.723581e+01 1.556308e+01 1.689898e+01 1.848562e+01 1.658668e+01 1.738619e+01 1.811029e+01 1.434002e+01 1.252503e-01 2.266278e-01 3.364712e-01 4.671271e-01 6.492781e-01 8.148874e-01 9.298787e-01 1.003176e+00 1.051662e+00 1.077774e+00 1.075658e+00 1.013934e+00 1.000000e-06
<GCONST> 5.804302e+01
<MIXTURE> 3 4.549242e-03
<MEAN> 25
 -4.875671e+00 1.311720e+00 9.943511e-01 9.899809e+00 6.692275e+00 7.424650e+00 7.847087e+00 6.958091e+00 8.373269e+00 6.373019e+00 7.624402e+00 3.074697e+00 -6.200235e-02 4.161923e-02 1.425301e-01 2.258583e-01 2.652900e-01 2.813653e-01 2.954302e-01 3.195550e-01 3.497573e-01 3.089160e-01 1.971766e-01 8.006547e-02 1.228299e-06
<VARIANCE> 25
 6.952293e+00 8.901894e+00 1.065126e+01 1.591096e+01 1.723581e+01 1.556308e+01 1.689898e+01 1.848562e+01 1.658668e+01 1.738619e+01 1.811029e+01 1.434002e+01 1.252503e-01 2.266278e-01 3.364712e-01 4.671271e-01 6.492781e-01 8.148874e-01 9.298787e-01 1.003176e+00 1.051662e+00 1.077774e+00 1.075658e+00 1.013934e+00 1.000000e-06
<GCONST> 5.804302e+01
<MIXTURE> 4 1.671429e-02
<MEAN> 25
 2.723889e+00 2.709680e+00 -4.160686e+00 9.231783e-01 4.471060e+00 -9.203088e-01 3.982858e-01 3.999114e-01 1.383539e+00 2.006237e+00 -2.307517e+00 -6.690036e-03 -2.645164e+00 1.213422e+00 1.578642e+00 2.787003e+00 8.052986e-01 5.014715e-01 1.517971e+00 1.013290e+00 9.403998e-01 4.258963e-01 1.046759e+00 9.085199e-01 -9.189174e-02
<VARIANCE> 25
 2.438690e+01 2.876697e+01 2.928528e+01 3.770033e+01 4.225538e+01 7.113158e+01 6.018763e+01 6.011007e+01 5.577493e+01 6.224916e+01 4.707207e+01 3.614608e+01 2.293990e+00 4.686018e+00 3.900154e+00 5.180136e+00 5.203534e+00 5.844324e+00 5.534845e+00 5.182072e+00 6.015300e+00 6.203979e+00 5.936546e+00 4.089919e+00 6.746328e-03
<GCONST> 1.052628e+02
<MIXTURE> 5 3.206198e-03
<MEAN> 25
 -3.417124e+00 2.181292e+00 6.104762e-01 9.428815e+00 6.697091e+00 6.316087e+00 7.112480e+00 4.723432e+00 5.495997e+00 3.848135e+00 4.658652e+00 2.606614e+00 -3.246489e-01 7.528989e-01 1.224844e+00 1.032669e+00 3.076725e-01 -1.001753e-01 -8.378793e-02 3.354761e-02 4.580160e-01 6.837502e-01 4.038862e-01 8.803672e-02 -2.771655e-05
<VARIANCE> 25
 1.025059e+01 1.394296e+01 2.348663e+01 2.561708e+01 2.022128e+01 1.942519e+01 2.011361e+01 2.035939e+01 2.141926e+01 2.128350e+01 2.409771e+01 1.636018e+01 1.210090e+00 1.244381e+00 1.357131e+00 1.673520e+00 2.284818e+00 2.376345e+00 2.301544e+00 2.275354e+00 2.315568e+00 2.238201e+00 2.085590e+00 1.873948e+00 1.000000e-06
<GCONST> 7.516647e+01
<MIXTURE> 6 5.475854e-03
<MEAN> 25
 9.401350e+00 -9.767691e-01 -6.547846e+00 -1.128704e+01 -2.716786e+00 7.966349e+00 -5.635428e+00 -5.841294e+00 -3.111882e+00 2.221345e+00 4.945256e+00 -1.081768e+00 5.030441e-01 7.449921e-01 -4.116060e-01 -1.449280e+00 -6.945869e-01 1.398482e+00 1.645975e+00 2.829755e-01 -1.092146e+00 -1.133906e+00 2.261537e-01 1.187110e+00 -6.676580e-03
<VARIANCE> 25
 9.230938e+00 1.909906e+01 2.238477e+01 3.664585e+01 3.803484e+01 4.456522e+01 4.151723e+01 3.822247e+01 4.072357e+01 3.806812e+01 3.975058e+01 2.653648e+01 2.906206e-01 1.035761e+00 9.136575e-01 1.827859e+00 1.529919e+00 1.963081e+00 1.909029e+00 1.904331e+00 2.393120e+00 1.905061e+00 2.171253e+00 1.352301e+00 5.650532e-04
<GCONST> 8.375946e+01
<MIXTURE> 7 5.475854e-03
<MEAN> 25
 9.401350e+00 -9.767691e-01 -6.547846e+00 -1.128704e+01 -2.716786e+00 7.966349e+00 -5.635428e+00 -5.841294e+00 -3.111882e+00 2.221345e+00 4.945256e+00 -1.081768e+00 5.030441e-01 7.449921e-01 -4.116060e-01 -1.449280e+00 -6.945869e-01 1.398482e+00 1.645975e+00 2.829755e-01 -1.092146e+00 -1.133906e+00 2.261537e-01 1.187110e+00 -6.676580e-03
<VARIANCE> 25
 9.230938e+00 1.909906e+01 2.238477e+01 3.664585e+01 3.803484e+01 4.456522e+01 4.151723e+01 3.822247e+01 4.072357e+01 3.806812e+01 3.975058e+01 2.653648e+01 2.906206e-01 1.035761e+00 9.136575e-01 1.827859e+00 1.529919e+00 1.963081e+00 1.909029e+00 1.904331e+00 2.393120e+00 1.905061e+00 2.171253e+00 1.352301e+00 5.650532e-04
<GCONST> 8.375946e+01
<MIXTURE> 8 1.165917e-02
<MEAN> 25
 -4.726778e+00 1.365727e+00 1.288687e+00 9.556080e+00 6.576337e+00 6.253795e+00 6.487837e+00 5.692276e+00 6.650892e+00 5.630391e+00 6.561490e+00 3.149939e+00 -6.285078e-01 -1.424688e+00 -1.069180e+00 -1.730669e+00 -2.297272e-01 -9.448013e-01 -1.778920e-01 -2.921456e-01 -2.513981e-01 -1.768995e-01 -2.124130e-01 8.264162e-02 9.875943e-02
<VARIANCE> 25
 9.341464e+00 9.844601e+00 1.162058e+01 1.605441e+01 1.663189e+01 1.570758e+01 1.818740e+01 1.751148e+01 1.708799e+01 1.736434e+01 1.900791e+01 1.399352e+01 2.758017e+00 2.813579e+00 3.907905e+00 3.758951e+00 3.454845e+00 3.313251e+00 3.125716e+00 3.084645e+00 2.871487e+00 2.662030e+00 2.434643e+00 1.901790e+00 6.692871e-03
<GCONST> 8.630208e+01
<MIXTURE> 9 1.199672e-02
<MEAN> 25
 9.246843e+00 3.297100e+00 -6.187023e+00 -1.066453e+01 -2.246082e+00 5.067977e+00 -2.240499e+00 -2.383341e+00 -5.271104e+00 -1.165232e+00 6.533174e-01 -4.379698e-02 1.442895e+00 -1.544189e-01 -4.890993e-01 -2.682243e+00 -1.673803e+00 9.037683e-01 -9.666366e-01 -2.227609e-01 -1.716699e-01 -5.913178e-01 6.187489e-01 -1.547343e-01 7.306294e-02
<VARIANCE> 25
 1.236747e+01 2.206802e+01 3.332679e+01 5.321165e+01 5.016998e+01 3.307760e+01 4.309375e+01 5.255087e+01 4.299866e+01 4.203714e+01 3.659555e+01 2.679645e+01 2.069884e+00 2.481792e+00 4.552735e+00 4.871728e+00 5.024302e+00 4.261544e+00 4.210055e+00 5.987257e+00 4.991829e+00 4.064507e+00 3.982161e+00 2.794314e+00 2.197574e-03
<GCONST> 9.888992e+01
<MIXTURE> 10 6.596976e-03
<MEAN> 25
 7.829304e-01 7.648598e+00 5.378404e+00 7.102624e+00 1.593402e+00 -2.137614e+00 -4.668956e-01 -1.682248e+00 8.395341e-01 8.504472e-01 8.070391e-01 6.913373e-01 -1.920500e+00 -6.522250e-01 -4.707760e-01 3.019660e+00 2.474090e+00 2.681252e+00 2.373702e+00 2.277635e+00 1.860499e+00 1.545741e+00 2.316030e+00 5.331832e-01 -1.380665e-01
<VARIANCE> 25
 1.977510e+01 2.066744e+01 2.227964e+01 2.936254e+01 3.813878e+01 3.489970e+01 3.562603e+01 3.379967e+01 2.776278e+01 2.892031e+01 2.703665e+01 2.518489e+01 2.227685e+00 3.496654e+00 5.534835e+00 5.159376e+00 5.547002e+00 4.612356e+00 4.680017e+00 4.826019e+00 4.366971e+00 4.998514e+00 4.495358e+00 3.190215e+00 2.687124e-03
<GCONST> 9.753324e+01
<MIXTURE> 11 1.633820e-02
<MEAN> 25
 7.071840e+00 2.727972e+00 3.264706e+00 5.632373e+00 -2.929909e+00 -2.930249e+00 -1.305219e+00 -5.237670e+00 -4.430573e+00 1.296964e+00 -3.583815e+00 -3.459819e+00 -3.680466e-01 6.006523e-01 1.155868e-01 5.151163e-02 8.603926e-01 -5.309268e-01 4.263831e-01 -4.050102e-01 -1.824249e-01 3.295011e-02 -1.137551e-01 2.657592e-01 -1.678660e-02
<VARIANCE> 25
 1.051423e+01 2.532825e+01 1.575967e+01 2.708946e+01 3.318104e+01 3.494217e+01 4.794039e+01 5.092962e+01 4.455668e+01 4.081961e+01 2.941533e+01 3.079453e+01 8.217019e-01 1.279696e+00 1.442557e+00 1.938878e+00 1.959181e+00 2.747620e+00 2.064191e+00 2.596536e+00 2.161854e+00 2.043285e+00 1.960181e+00 1.482420e+00 8.289014e-04
<GCONST> 8.665680e+01
<MIXTURE> 12 5.904134e-03
<MEAN> 25
 1.067558e+01 3.454143e+00 -4.555552e+00 -1.597471e+01 -8.760674e+00 8.995294e+00 -8.464881e-01 -2.143435e+00 -1.568077e+00 -4.603523e+00 1.911451e+00 6.961486e-01 8.006667e-02 2.748778e-01 6.567006e-02 -3.680099e-01 -3.014620e-01 5.170929e-02 3.341333e-01 4.478143e-01 1.379522e-01 -3.667113e-01 -3.929935e-01 4.932586e-02 -6.202333e-03
<VARIANCE> 25
 9.021177e+00 2.394467e+01 2.294540e+01 3.424781e+01 4.129647e+01 3.532098e+01 4.103817e+01 4.985754e+01 4.413698e+01 3.985497e+01 3.788026e+01 2.827065e+01 2.496030e-01 6.941339e-01 6.807871e-01 1.160884e+00 1.188416e+00 1.062293e+00 1.204962e+00 1.359643e+00 1.214608e+00 1.210766e+00 1.198408e+00 9.395351e-01 5.680782e-04
<GCONST> 7.911619e+01
<MIXTURE> 13 5.904134e-03
<MEAN> 25
 1.067558e+01 3.454143e+00 -4.555552e+00 -1.597471e+01 -8.760674e+00 8.995294e+00 -8.464881e-01 -2.143435e+00 -1.568077e+00 -4.603523e+00 1.911451e+00 6.961486e-01 8.006667e-02 2.748778e-01 6.567006e-02 -3.680099e-01 -3.014620e-01 5.170929e-02 3.341333e-01 4.478143e-01 1.379522e-01 -3.667113e-01 -3.929935e-01 4.932586e-02 -6.202333e-03
<VARIANCE> 25
 9.021177e+00 2.394467e+01 2.294540e+01 3.424781e+01 4.129647e+01 3.532098e+01 4.103817e+01 4.985754e+01 4.413698e+01 3.985497e+01 3.788026e+01 2.827065e+01 2.496030e-01 6.941339e-01 6.807871e-01 1.160884e+00 1.188416e+00 1.062293e+00 1.204962e+00 1.359643e+00 1.214608e+00 1.210766e+00 1.198408e+00 9.395351e-01 5.680782e-04
<GCONST> 7.911619e+01
<MIXTURE> 14 6.488954e-03
<MEAN> 25
 -4.282623e+00 -2.845261e-01 -3.987380e-01 8.861093e+00 7.520763e+00 7.317767e+00 7.926243e+00 7.410182e+00 7.104729e+00 5.223083e+00 6.659256e+00 4.022509e+00 -2.553543e-01 1.802774e-01 3.772932e-01 2.925080e-01 2.546603e-02 5.993221e-02 9.430156e-02 1.370691e-01 3.165608e-01 4.842876e-01 5.137651e-01 9.625513e-02 -9.697950e-03
<VARIANCE> 25
 9.210676e+00 1.410569e+01 1.883051e+01 1.774221e+01 2.065347e+01 1.971448e+01 2.186086e+01 2.077625e+01 2.097012e+01 2.367981e+01 2.337716e+01 1.610855e+01 9.717295e-01 1.625191e+00 1.767739e+00 1.928393e+00 2.231546e+00 2.232338e+00 2.222681e+00 2.345925e+00 2.272212e+00 2.673749e+00 2.168781e+00 1.812221e+00 1.022455e-03
<GCONST> 8.211974e+01
<MIXTURE> 15 2.475190e-03
<MEAN> 25
 -5.422813e+00 -6.405177e-01 -2.044330e-01 7.364476e+00 5.722645e+00 5.698651e+00 6.061521e+00 4.984162e+00 5.163864e+00 4.153066e+00 5.499388e+00 2.538398e+00 -1.213404e-01 -2.905055e-02 7.449224e-02 2.427073e-01 4.899340e-01 7.859887e-01 1.072118e+00 1.182424e+00 1.059714e+00 7.561268e-01 4.200114e-01 1.532561e-01 -8.722668e-05
<VARIANCE> 25
 6.983820e+00 5.631898e+00 9.047931e+00 1.283119e+01 1.408741e+01 1.430599e+01 1.491532e+01 1.492896e+01 1.409657e+01 1.418043e+01 1.511141e+01 1.250697e+01 1.247157e-01 2.061072e-01 3.201481e-01 5.047095e-01 6.998128e-01 7.938229e-01 7.629629e-01 7.913870e-01 9.089772e-01 1.023448e+00 1.071036e+00 1.040777e+00 2.798095e-05
<GCONST> 5.860075e+01
<MIXTURE> 16 2.475190e-03
<MEAN> 25
 -5.422813e+00 -6.405177e-01 -2.044330e-01 7.364476e+00 5.722645e+00 5.698651e+00 6.061521e+00 4.984162e+00 5.163864e+00 4.153066e+00 5.499388e+00 2.538398e+00 -1.213404e-01 -2.905055e-02 7.449224e-02 2.427073e-01 4.899340e-01 7.859887e-01 1.072118e+00 1.182424e+00 1.059714e+00 7.561268e-01 4.200114e-01 1.532561e-01 -8.722668e-05
<VARIANCE> 25
 6.983820e+00 5.631898e+00 9.047931e+00 1.283119e+01 1.408741e+01 1.430599e+01 1.491532e+01 1.492896e+01 1.409657e+01 1.418043e+01 1.511141e+01 1.250697e+01 1.247157e-01 2.061072e-01 3.201481e-01 5.047095e-01 6.998128e-01 7.938229e-01 7.629629e-01 7.913870e-01 9.089772e-01 1.023448e+00 1.071036e+00 1.040777e+00 2.798095e-05
<GCONST> 5.860075e+01
<MIXTURE> 17 9.518312e-03
<MEAN> 25
 2.648145e+00 -6.479841e-02 6.815132e+00 8.084062e-01 -4.058211e+00 -4.419463e+00 -3.437452e+00 -1.782740e+00 -1.534651e+00 -4.059741e+00 -5.289059e-01 1.583622e+00 -6.492406e-01 -1.551909e+00 1.473114e+00 -1.648814e+00 -2.629541e+00 1.077632e+00 -5.683700e-01 5.086635e-01 -1.029485e-01 -8.106958e-01 1.854666e+00 3.310664e-01 7.792929e-02
<VARIANCE> 25
 1.351925e+01 3.516361e+01 2.657749e+01 3.347176e+01 4.956396e+01 5.401987e+01 3.412734e+01 3.203519e+01 3.817260e+01 2.873345e+01 2.451089e+01 3.207136e+01 1.562619e+00 2.162411e+00 3.279067e+00 3.180413e+00 3.781857e+00 6.310598e+00 4.283365e+00 3.585874e+00 3.807689e+00 4.156415e+00 3.451887e+00 2.512394e+00 1.570080e-03
<GCONST> 9.539019e+01
<MIXTURE> 18 1.221018e-02
<MEAN> 25
 2.816352e+00 3.871643e+00 4.891355e+00 4.597342e+00 -2.373638e+00 -8.678783e+00 -1.370623e+00 3.288130e-01 -2.912537e+00 -2.098800e+00 -6.894269e-01 1.746676e-01 -6.701633e-01 2.333519e+00 -8.098176e-01 1.031505e+00 3.382997e+00 3.444809e-02 1.032215e+00 -1.570054e-01 9.364726e-01 1.166831e+00 -1.387775e+00 5.329213e-01 -1.099454e-01
<VARIANCE> 25
 1.513498e+01 2.300972e+01 3.186274e+01 2.098622e+01 3.737316e+01 2.904920e+01 3.760699e+01 4.508838e+01 3.099709e+01 2.796406e+01 2.610288e+01 2.544059e+01 1.716121e+00 2.383920e+00 3.477150e+00 4.103260e+00 2.920992e+00 5.951355e+00 4.042489e+00 5.487240e+00 4.056660e+00 4.084382e+00 4.584660e+00 3.144941e+00 3.293445e-03
<GCONST> 9.577596e+01
<MIXTURE> 19 9.912824e-03
<MEAN> 25
 -1.077211e+01 3.006896e+00 5.890401e-01 -1.607897e+00 4.850565e+00 1.419966e+00 2.633529e+00 -1.420067e-01 2.513077e+00 1.324792e+00 2.218531e-01 3.510154e+00 2.046168e+00 1.616786e+00 2.198454e+00 8.237479e-01 -1.243469e+00 -7.560650e-01 -1.104620e+00 -1.237300e+00 -1.321663e+00 -1.355255e+00 -7.172357e-01 -7.423419e-01 2.193496e-03
<VARIANCE> 25
 4.736386e+01 3.136778e+01 4.104955e+01 7.834224e+01 3.137075e+01 2.824978e+01 2.960077e+01 3.310769e+01 2.505694e+01 2.276302e+01 2.913928e+01 2.654456e+01 2.154864e+00 2.099268e+00 1.952509e+00 2.005237e+00 2.648714e+00 2.211332e+00 2.078803e+00 2.178726e+00 1.962192e+00 2.057732e+00 2.048144e+00 1.712414e+00 2.060357e-03
<GCONST> 9.061619e+01
<MIXTURE> 20 6.308331e-03
<MEAN> 25
 -1.414770e+01 7.423299e+00 8.038633e-01 6.147286e+00 4.831087e+00 1.628122e+00 5.220459e+00 9.312096e-01 8.895051e-01 8.423246e-01 2.526167e+00 -3.179293e-01 -3.273430e+00 -8.665801e-01 -1.556175e+00 3.348410e-01 1.530633e+00 2.061882e+00 1.982906e+00 2.045795e+00 2.137006e+00 2.036845e+00 1.674339e+00 9.493249e-01 4.724317e-02
<VARIANCE> 25
 1.983809e+01 2.336110e+01 3.122419e+01 3.709088e+01 3.076786e+01 2.777802e+01 2.983051e+01 3.289434e+01 2.810809e+01 2.853846e+01 2.545378e+01 2.093719e+01 2.116703e+00 2.174109e+00 1.918737e+00 2.535270e+00 2.717462e+00 2.302762e+00 2.307806e+00 2.333692e+00 2.240025e+00 2.643183e+00 2.254581e+00 1.861618e+00 1.880331e-03
<GCONST> 8.930798e+01
<MIXTURE> 21 7.928653e-03
<MEAN> 25
 3.990303e+00 -4.532730e+00 5.717278e+00 -1.494266e+00 -1.052372e+01 -8.655559e+00 -2.605086e+00 4.215691e+00 -2.057001e+00 -3.420767e+00 3.151392e-01 3.120033e-01 -7.129271e-01 1.334978e+00 2.571198e+00 -3.853957e-02 -1.539865e+00 3.101104e-01 5.869837e-01 -1.470163e+00 -1.957660e+00 2.952732e-01 1.323617e+00 2.499962e-01 -1.287583e-02
<VARIANCE> 25
 8.837445e+00 1.861630e+01 2.968397e+01 2.835617e+01 2.867082e+01 3.350478e+01 4.273548e+01 3.970799e+01 4.259264e+01 3.138087e+01 3.412458e+01 2.308405e+01 3.798708e-01 9.524711e-01 1.888319e+00 1.295936e+00 2.215922e+00 2.307621e+00 3.607452e+00 2.554149e+00 2.193794e+00 2.617025e+00 2.008205e+00 2.296266e+00 4.305105e-04
<GCONST> 8.521315e+01
<MIXTURE> 22 8.827789e-03
<MEAN> 25
 -1.792088e+01 7.154756e+00 -4.131353e+00 7.392418e+00 4.602614e+00 2.760969e+00 8.399779e+00 1.748453e+00 5.379376e+00 3.301026e+00 5.716369e+00 1.185194e+00 -3.095675e-01 -2.075735e-01 -1.255636e-01 -1.492517e-01 -7.189995e-03 1.369763e-01 1.807572e-01 1.779501e-01 2.484778e-01 2.072912e-01 1.726730e-01 1.924406e-01 8.856994e-03
<VARIANCE> 25
 8.116983e+00 1.682543e+01 1.738332e+01 2.517258e+01 2.289690e+01 2.083764e+01 1.943112e+01 1.871073e+01 1.814075e+01 2.086656e+01 1.924235e+01 1.378743e+01 1.090753e+00 1.357392e+00 1.363962e+00 1.572043e+00 1.408860e+00 1.526972e+00 1.508933e+00 1.532824e+00 1.614223e+00 1.544795e+00 1.357429e+00 1.168002e+00 1.745632e-03
<GCONST> 7.830974e+01
<MIXTURE> 23 6.455497e-03
<MEAN> 25
 7.910092e+00 2.448805e+00 2.996066e+00 2.463386e+00 -4.781911e+00 -3.198053e+00 -4.205851e+00 -6.430029e+00 -3.472925e+00 -9.767188e-01 -4.116757e+00 -2.156218e+00 3.109445e-02 1.751353e-01 9.076749e-03 5.141331e-02 1.547221e-02 4.415493e-02 1.761427e-02 -5.038553e-02 1.164783e-02 4.881815e-02 1.094216e-02 3.853999e-02 -4.435692e-03
<VARIANCE> 25
 1.062431e+01 2.233463e+01 2.473332e+01 4.063846e+01 3.909361e+01 5.362444e+01 5.929012e+01 5.564379e+01 4.794377e+01 4.716237e+01 4.833214e+01 4.025250e+01 1.186989e-01 2.959513e-01 3.774001e-01 4.880780e-01 6.165757e-01 7.154994e-01 7.760091e-01 8.957843e-01 8.782381e-01 8.905802e-01 8.271261e-01 7.612565e-01 8.772771e-05
<GCONST> 7.310334e+01
<MIXTURE> 24 6.455497e-03
<MEAN> 25
 7.910092e+00 2.448805e+00 2.996066e+00 2.463386e+00 -4.781911e+00 -3.198053e+00 -4.205851e+00 -6.430029e+00 -3.472925e+00 -9.767188e-01 -4.116757e+00 -2.156218e+00 3.109445e-02 1.751353e-01 9.076749e-03 5.141331e-02 1.547221e-02 4.415493e-02 1.761427e-02 -5.038553e-02 1.164783e-02 4.881815e-02 1.094216e-02 3.853999e-02 -4.435692e-03
<VARIANCE> 25
 1.062431e+01 2.233463e+01 2.473332e+01 4.063846e+01 3.909361e+01 5.362444e+01 5.929012e+01 5.564379e+01 4.794377e+01 4.716237e+01 4.833214e+01 4.025250e+01 1.186989e-01 2.959513e-01 3.774001e-01 4.880780e-01 6.165757e-01 7.154994e-01 7.760091e-01 8.957843e-01 8.782381e-01 8.905802e-01 8.271261e-01 7.612565e-01 8.772771e-05
<GCONST> 7.310334e+01
<MIXTURE> 25 1.118642e-02
<MEAN> 25
 3.156795e-01 1.000698e+00 1.552326e+01 -8.187311e-01 -1.252892e+01 1.476690e+00 -6.226507e+00 -3.242635e+00 -6.305276e+00 -6.775236e+00 5.257981e+00 -1.292953e+00 -1.219566e-01 3.480018e-01 4.093225e-02 2.268804e-01 1.232451e-01 -2.668542e-01 6.871606e-01 -7.947559e-03 -4.174521e-01 2.948107e-01 -2.128871e-01 -1.252400e-01 -1.076038e-02
<VARIANCE> 25
 7.429097e+00 2.844543e+01 1.824432e+01 2.523723e+01 2.662093e+01 5.140520e+01 2.345964e+01 2.400561e+01 2.301831e+01 3.373030e+01 2.099990e+01 2.652950e+01 5.931833e-01 1.801575e+00 1.105714e+00 1.080212e+00 2.210219e+00 2.676196e+00 2.253997e+00 1.495156e+00 1.230597e+00 1.483674e+00 1.735234e+00 1.301590e+00 1.315808e-03
<GCONST> 8.198489e+01
<MIXTURE> 26 7.727677e-03
<MEAN> 25
 1.788252e+00 -4.862750e+00 -1.032527e+01 -9.837490e-01 7.890054e+00 4.510771e+00 3.882493e+00 3.679166e-01 2.325748e+00 4.760335e-01 -3.084326e+00 -1.280662e+00 -7.445496e-01 5.655406e-01 2.709184e-01 6.617793e-01 2.780358e-01 1.780569e-01 3.830354e-01 3.098984e-01 3.782567e-01 1.337100e-01 3.342037e-01 5.157971e-01 -4.206161e-02
<VARIANCE> 25
 2.487112e+01 4.198482e+01 2.363604e+01 5.778614e+01 4.065981e+01 5.416851e+01 4.069662e+01 5.020250e+01 3.774169e+01 5.932914e+01 3.612325e+01 4.360513e+01 1.617704e+00 1.967130e+00 1.906199e+00 1.748527e+00 2.641106e+00 2.540751e+00 2.573067e+00 2.572596e+00 2.387386e+00 2.386352e+00 2.196668e+00 1.968735e+00 3.905229e-03
<GCONST> 9.432700e+01
<MIXTURE> 27 7.727677e-03
<MEAN> 25
 1.788252e+00 -4.862750e+00 -1.032527e+01 -9.837490e-01 7.890054e+00 4.510771e+00 3.882493e+00 3.679166e-01 2.325748e+00 4.760335e-01 -3.084326e+00 -1.280662e+00 -7.445496e-01 5.655406e-01 2.709184e-01 6.617793e-01 2.780358e-01 1.780569e-01 3.830354e-01 3.098984e-01 3.782567e-01 1.337100e-01 3.342037e-01 5.157971e-01 -4.206161e-02
<VARIANCE> 25
 2.487112e+01 4.198482e+01 2.363604e+01 5.778614e+01 4.065981e+01 5.416851e+01 4.069662e+01 5.020250e+01 3.774169e+01 5.932914e+01 3.612325e+01 4.360513e+01 1.617704e+00 1.967130e+00 1.906199e+00 1.748527e+00 2.641106e+00 2.540751e+00 2.573067e+00 2.572596e+00 2.387386e+00 2.386352e+00 2.196668e+00 1.968735e+00 3.905229e-03
<GCONST> 9.432700e+01
<MIXTURE> 28 5.036674e-03
<MEAN> 25
 -5.451643e+00 1.172903e-02 -1.569330e+00 6.616287e+00 5.232500e+00 3.518181e+00 5.416431e+00 3.130172e+00 3.922906e+00 2.394200e+00 2.638351e+00 3.220446e+00 -1.152358e-01 2.232223e-01 5.287618e-01 7.848936e-01 8.221655e-01 7.029542e-01 5.231987e-01 3.920046e-01 4.448535e-01 4.824229e-01 3.710276e-01 1.896353e-01 -1.242595e-05
<VARIANCE> 25
 1.043377e+01 8.352378e+00 1.216023e+01 1.484366e+01 1.471105e+01 1.773206e+01 1.804039e+01 1.901551e+01 1.718463e+01 1.673153e+01 2.060886e+01 1.500367e+01 2.565389e-01 3.365524e-01 4.068339e-01 4.641571e-01 6.216307e-01 8.470523e-01 1.056479e+00 1.144800e+00 1.102591e+00 1.029909e+00 1.036744e+00 1.066795e+00 1.000000e-06
<GCONST> 6.025220e+01
<MIXTURE> 29 5.036674e-03
<MEAN> 25
 -5.451643e+00 1.172903e-02 -1.569330e+00 6.616287e+00 5.232500e+00 3.518181e+00 5.416431e+00 3.130172e+00 3.922906e+00 2.394200e+00 2.638351e+00 3.220446e+00 -1.152358e-01 2.232223e-01 5.287618e-01 7.848936e-01 8.221655e-01 7.029542e-01 5.231987e-01 3.920046e-01 4.448535e-01 4.824229e-01 3.710276e-01 1.896353e-01 -1.242595e-05
<VARIANCE> 25
 1.043377e+01 8.352378e+00 1.216023e+01 1.484366e+01 1.471105e+01 1.773206e+01 1.804039e+01 1.901551e+01 1.718463e+01 1.673153e+01 2.060886e+01 1.500367e+01 2.565389e-01 3.365524e-01 4.068339e-01 4.641571e-01 6.216307e-01 8.470523e-01 1.056479e+00 1.144800e+00 1.102591e+00 1.029909e+00 1.036744e+00 1.066795e+00 1.000000e-06
<GCONST> 6.025220e+01
<MIXTURE> 30 8.917812e-03
<MEAN> 25
 -4.466359e+00 -1.413673e-01 6.095589e-01 9.056170e+00 7.826021e+00 7.425216e+00 7.545946e+00 6.928514e+00 6.463455e+00 4.873996e+00 6.981039e+00 3.458079e+00 -2.603238e-02 3.055164e-02 5.694109e-02 8.856611e-02 8.346982e-02 4.736212e-02 1.408850e-02 1.806272e-03 1.773601e-02 5.154038e-02 5.639047e-02 2.533967e-02 -6.093161e-04
<VARIANCE> 25
 6.999968e+00 1.018432e+01 1.059846e+01 1.379926e+01 1.598213e+01 1.728318e+01 1.919374e+01 1.835899e+01 1.688965e+01 1.830519e+01 2.122878e+01 1.453986e+01 9.739848e-02 1.984527e-01 3.231095e-01 4.790088e-01 6.163436e-01 7.209657e-01 7.675327e-01 8.105641e-01 8.719113e-01 9.336732e-01 9.211997e-01 8.698633e-01 5.099827e-05
<GCONST> 6.074249e+01
<MIXTURE> 31 4.136493e-03
<MEAN> 25
 -2.733454e+00 -5.477551e+00 -3.421699e-02 4.777816e+00 3.419240e+00 1.133455e+00 5.203434e+00 6.690238e+00 2.112799e+00 9.357731e-01 6.281177e+00 2.855128e+00 2.112373e-01 5.030347e-01 -1.714618e-01 2.671939e-01 1.235593e-01 3.503944e-01 1.331253e-01 7.012381e-02 3.503115e-01 2.633524e-01 1.324861e-01 1.214266e-01 -2.030993e-02
<VARIANCE> 25
 9.077560e+00 1.656726e+01 1.633446e+01 1.635847e+01 2.555153e+01 2.408134e+01 2.150320e+01 2.323674e+01 2.640074e+01 2.628393e+01 1.909271e+01 1.768559e+01 1.982250e-01 4.698942e-01 5.591056e-01 7.158927e-01 9.071708e-01 1.048718e+00 1.173019e+00 1.470190e+00 1.239463e+00 1.330629e+00 1.150090e+00 1.230754e+00 2.751510e-04
<GCONST> 7.140414e+01
<MIXTURE> 32 4.136493e-03
<MEAN> 25
 -2.733454e+00 -5.477551e+00 -3.421699e-02 4.777816e+00 3.419240e+00 1.133455e+00 5.203434e+00 6.690238e+00 2.112799e+00 9.357731e-01 6.281177e+00 2.855128e+00 2.112373e-01 5.030347e-01 -1.714618e-01 2.671939e-01 1.235593e-01 3.503944e-01 1.331253e-01 7.012381e-02 3.503115e-01 2.633524e-01 1.324861e-01 1.214266e-01 -2.030993e-02
<VARIANCE> 25
 9.077560e+00 1.656726e+01 1.633446e+01 1.635847e+01 2.555153e+01 2.408134e+01 2.150320e+01 2.323674e+01 2.640074e+01 2.628393e+01 1.909271e+01 1.768559e+01 1.982250e-01 4.698942e-01 5.591056e-01 7.158927e-01 9.071708e-01 1.048718e+00 1.173019e+00 1.470190e+00 1.239463e+00 1.330629e+00 1.150090e+00 1.230754e+00 2.751510e-04
<GCONST> 7.140414e+01
<MIXTURE> 33 1.508826e-02
<MEAN> 25
 6.318278e+00 -4.372424e+00 -2.057513e+00 -2.031960e+00 -2.561643e+00 -4.894019e+00 -6.650065e+00 2.053027e+00 2.491032e+00 -1.320407e-01 -4.525473e+00 -2.571365e+00 6.084585e-01 -1.266323e+00 -2.426820e+00 -1.690463e+00 1.229623e+00 1.551895e+00 -7.067351e-01 5.958146e-01 1.011174e+00 5.054086e-01 -3.867127e-01 -1.335286e+00 3.957475e-02
<VARIANCE> 25
 9.927298e+00 2.498615e+01 2.777273e+01 3.619128e+01 5.149730e+01 5.566719e+01 4.407585e+01 4.490043e+01 3.786973e+01 4.080154e+01 3.221605e+01 2.932393e+01 1.181862e+00 2.051965e+00 2.053254e+00 2.419002e+00 5.308462e+00 3.820201e+00 4.474949e+00 5.513037e+00 3.496377e+00 4.327144e+00 3.284001e+00 2.875531e+00 1.523627e-03
<GCONST> 9.529758e+01
<MIXTURE> 34 1.588179e-02
<MEAN> 25
 8.022939e+00 -8.593189e-01 5.715979e-01 2.880872e+00 -3.902126e+00 -2.172679e-01 -4.344212e+00 -2.340369e+00 -2.678508e+00 1.554760e-01 -2.732995e+00 -4.960259e+00 7.247927e-02 1.656286e+00 1.206008e+00 2.012997e+00 3.793771e-01 -1.227043e+00 9.635735e-01 -1.075984e+00 -1.525281e+00 8.620558e-01 -7.884365e-01 8.966299e-02 -5.872744e-02
<VARIANCE> 25
 7.789089e+00 2.786147e+01 2.385394e+01 4.403571e+01 3.626671e+01 4.489716e+01 5.150166e+01 5.837035e+01 4.708196e+01 3.948963e+01 4.882906e+01 2.975497e+01 9.860883e-01 1.662356e+00 4.027913e+00 3.506216e+00 4.722737e+00 6.543562e+00 4.181409e+00 5.301154e+00 5.319594e+00 4.793425e+00 5.268976e+00 3.149978e+00 9.052249e-04
<GCONST> 9.720880e+01
<MIXTURE> 35 1.467755e-02
<MEAN> 25
 -2.441411e+00 -2.831419e+00 -1.004179e+01 -1.524785e-01 1.171286e+01 -2.482659e+00 1.595582e+00 1.807004e+00 2.641502e+00 6.259393e+00 -2.101046e+00 2.777996e+00 -1.399731e-01 -1.229288e+00 -7.907820e-01 -1.340954e+00 -7.731310e-02 2.004275e-02 6.895225e-02 -3.317485e-01 1.124900e-01 4.065056e-01 -3.380834e-01 -7.043646e-03 9.386078e-02
<VARIANCE> 25
 1.451695e+01 3.126135e+01 3.244767e+01 4.569881e+01 3.555525e+01 6.046732e+01 3.440497e+01 3.831219e+01 3.847609e+01 3.618237e+01 3.132516e+01 2.837253e+01 2.980934e+00 2.817950e+00 5.645618e+00 4.938128e+00 5.435798e+00 4.981204e+00 3.925405e+00 4.070215e+00 4.621953e+00 4.559669e+00 3.961960e+00 3.272053e+00 3.959791e-03
<GCONST> 9.985655e+01
<MIXTURE> 36 1.093293e-02
<MEAN> 25
 3.954290e+00 -4.756376e+00 7.350940e+00 3.255761e+00 -1.133617e+01 -6.189853e+00 -6.207162e+00 2.959243e+00 -3.614460e+00 -6.727268e+00 5.591327e+00 -1.123782e-01 3.554201e-01 1.045017e-01 -7.491499e-01 -2.354368e-02 9.052912e-01 -6.086981e-02 -1.515225e-01 2.078630e-01 3.620360e-01 4.426048e-01 -6.183797e-01 -2.459328e-01 -1.799840e-02
<VARIANCE> 25
 8.139274e+00 1.627281e+01 1.801804e+01 1.921452e+01 3.886466e+01 3.790575e+01 4.755478e+01 3.257220e+01 3.331836e+01 3.611726e+01 4.612800e+01 2.048879e+01 3.967067e-01 7.502699e-01 1.339848e+00 8.772355e-01 1.435754e+00 2.381334e+00 2.272435e+00 1.984874e+00 1.755616e+00 1.346794e+00 1.415590e+00 1.450896e+00 6.370357e-04
<GCONST> 8.117191e+01
<MIXTURE> 37 1.246826e-02
<MEAN> 25
 -3.600226e-01 7.142152e+00 1.195604e+01 -5.260980e+00 -7.484740e+00 -6.963555e-01 -3.794046e+00 -7.838726e+00 -4.356236e+00 -1.685819e+00 -3.374869e+00 -5.705847e-01 -1.351960e-01 1.234812e+00 -1.464847e+00 3.122576e+00 2.415961e+00 -1.023899e+00 1.787887e+00 6.817803e-01 4.929350e-01 1.346857e-01 1.967925e-02 4.710594e-01 -9.631307e-02
<VARIANCE> 25
 1.724360e+01 2.647945e+01 2.710299e+01 4.296096e+01 3.307667e+01 3.067492e+01 4.852341e+01 3.137468e+01 3.466255e+01 3.406802e+01 3.285883e+01 2.975834e+01 2.902974e+00 4.295456e+00 2.619106e+00 4.312682e+00 4.732893e+00 5.374526e+00 5.840796e+00 3.559892e+00 3.082812e+00 3.919173e+00 4.377847e+00 3.795982e+00 3.336116e-03
<GCONST> 9.815811e+01
<MIXTURE> 38 1.154525e-02
<MEAN> 25
 -4.395263e+00 8.801711e+00 4.051303e+00 2.752788e+00 1.003205e+00 -5.357150e+00 -5.383548e-01 -2.716587e+00 -2.665921e+00 -2.444302e+00 -1.588193e+00 -6.554500e-01 -4.407238e+00 1.168377e+00 -3.490576e-01 9.693236e-01 2.544879e+00 1.300992e+00 1.821465e+00 5.347768e-01 7.834105e-01 4.428372e-01 6.805153e-01 5.509748e-01 5.385922e-02
<VARIANCE> 25
 2.869725e+01 2.810864e+01 3.751134e+01 3.135177e+01 4.627351e+01 3.228489e+01 3.272133e+01 3.898668e+01 3.241654e+01 3.225983e+01 2.509522e+01 2.649823e+01 2.309906e+00 3.609774e+00 3.501586e+00 6.388136e+00 4.056068e+00 4.711174e+00 4.746256e+00 5.509488e+00 4.224828e+00 4.810710e+00 4.611289e+00 3.359788e+00 2.257487e-03
<GCONST> 9.872359e+01
<MIXTURE> 39 9.501865e-03
<MEAN> 25
 1.341018e+00 2.616045e+00 1.018760e+01 -9.169979e+00 -1.120888e+01 -1.007893e+00 -2.973725e+00 -6.574717e+00 -4.477570e+00 8.451968e-01 -3.700039e+00 -2.269301e+00 -7.309273e-01 1.515139e+00 1.623703e+00 -1.396718e+00 8.025853e-02 1.227632e+00 -1.194229e+00 -1.255037e+00 4.370522e-01 4.280665e-01 -5.001524e-01 1.338259e-01 1.511702e-03
<VARIANCE> 25
 8.877751e+00 3.029620e+01 3.164062e+01 3.846829e+01 3.836016e+01 4.275637e+01 4.427979e+01 3.331469e+01 3.995945e+01 3.316997e+01 3.618246e+01 2.946666e+01 6.931440e-01 1.559269e+00 1.508972e+00 2.930539e+00 2.414667e+00 2.825469e+00 3.051570e+00 2.735662e+00 2.433357e+00 2.669607e+00 2.132503e+00 2.104290e+00 1.186448e-03
<GCONST> 8.974845e+01
<MIXTURE> 40 1.030800e-02
<MEAN> 25
 -8.771583e+00 2.425430e+00 -1.448313e+00 7.916304e+00 4.272166e+00 4.869941e+00 5.219818e+00 4.734331e+00 4.337568e+00 4.195415e+00 5.413563e+00 1.355744e+00 -1.186450e-01 -1.936115e-01 -6.094209e-02 -2.552654e-01 -1.018932e-01 -8.964776e-02 4.463378e-02 1.351815e-01 1.345272e-02 5.155484e-02 3.997642e-02 -2.022364e-02 3.121597e-03
<VARIANCE> 25
 4.393752e+01 2.048411e+01 2.914179e+01 2.654892e+01 2.773747e+01 2.326682e+01 1.877601e+01 2.009497e+01 1.775921e+01 1.867815e+01 1.917686e+01 1.636610e+01 7.150497e-01 7.121783e-01 8.534011e-01 1.101948e+00 1.185226e+00 1.241312e+00 1.273009e+00 1.308558e+00 1.254434e+00 1.248203e+00 1.260349e+00 1.054230e+00 8.208506e-04
<GCONST> 7.714411e+01
<MIXTURE> 41 6.713375e-03
<MEAN> 25
 1.274613e+00 1.752836e+00 1.048193e+01 -6.878421e+00 -1.037919e+01 -3.687485e+00 -2.528810e+00 -5.072883e+00 -4.691136e+00 2.513696e+00 -1.762628e+00 -8.917374e-01 3.857143e-02 -7.808412e-01 1.707010e+00 -3.537184e+00 -2.434272e+00 -4.585946e-02 -5.366611e-01 -3.715234e-01 -7.733313e-01 1.039337e+00 -9.737642e-01 8.671869e-02 8.615440e-02
<VARIANCE> 25
 1.153914e+01 2.926318e+01 3.220982e+01 3.966671e+01 3.850945e+01 4.130489e+01 3.688936e+01 2.965213e+01 3.282703e+01 2.971043e+01 3.190179e+01 2.700517e+01 3.212742e+00 3.283504e+00 3.816065e+00 3.777096e+00 4.912519e+00 6.011931e+00 4.696867e+00 4.496245e+00 4.063290e+00 4.260875e+00 4.119783e+00 3.183048e+00 2.875590e-03
<GCONST> 9.796605e+01
<MIXTURE> 42 1.106211e-02
<MEAN> 25
 -2.360083e+00 4.210709e+00 4.834754e+00 8.164303e-01 9.526506e-01 -5.179456e+00 -1.107167e+00 -3.932132e+00 -9.070572e-01 -1.975657e+00 -2.765176e+00 2.486524e+00 3.757855e+00 -1.361893e+00 1.559065e+00 7.672066e-01 -3.425795e+00 -2.320537e-01 -2.315284e+00 -6.227170e-01 -5.623106e-01 -1.177723e+00 1.206229e+00 -1.391410e+00 2.358553e-02
<VARIANCE> 25
 2.875450e+01 2.599814e+01 4.243244e+01 2.784829e+01 3.537543e+01 3.609274e+01 2.882871e+01 2.595996e+01 2.127618e+01 3.368071e+01 2.129590e+01 1.572925e+01 3.145779e+00 4.926349e+00 4.363700e+00 5.040821e+00 4.908820e+00 5.359887e+00 3.915250e+00 3.927139e+00 4.619576e+00 5.567482e+00 4.023032e+00 3.321605e+00 3.385878e-03
<GCONST> 9.778292e+01
<MIXTURE> 43 7.108249e-03
<MEAN> 25
 3.201224e+00 -6.389491e+00 -2.280470e+00 -4.969631e+00 -7.412472e+00 -3.132250e+00 4.093360e+00 1.362391e+00 -4.845218e+00 -7.018602e+00 -4.332128e+00 -1.364895e+00 2.501833e-01 2.147496e+00 1.909155e+00 -8.866814e-02 -1.385020e+00 -7.924508e-01 -9.809220e-01 -7.432990e-01 7.506206e-01 1.451691e+00 3.545061e-01 -3.204267e-02 -4.547455e-02
<VARIANCE> 25
 9.455886e+00 1.971980e+01 2.688486e+01 3.651002e+01 3.783134e+01 3.942818e+01 3.274903e+01 3.915265e+01 4.113398e+01 3.824105e+01 2.626070e+01 2.954126e+01 6.833580e-01 1.239743e+00 1.547529e+00 2.528995e+00 2.411004e+00 2.378544e+00 2.639147e+00 3.024177e+00 2.782706e+00 2.552063e+00 2.295310e+00 2.011839e+00 9.293723e-04
<GCONST> 8.807443e+01
<MIXTURE> 44 7.328289e-03
<MEAN> 25
 -1.522594e+01 1.683910e+00 3.426309e+00 -3.349265e+00 3.501985e+00 1.954518e+00 -1.367223e-02 2.417073e+00 1.531703e+00 -6.634334e-01 1.633643e+00 2.025100e+00 -1.555996e-01 1.675084e-02 1.835307e-01 3.049136e-01 -1.337844e-01 2.123615e-01 4.504926e-01 1.022493e-01 2.513808e-01 1.221398e-01 4.251413e-02 1.072549e-01 4.697604e-03
<VARIANCE> 25
 4.235051e+01 2.836196e+01 3.535727e+01 3.247465e+01 2.966120e+01 3.038943e+01 2.509528e+01 3.465147e+01 2.799827e+01 2.772647e+01 2.781689e+01 2.042091e+01 1.229782e+00 1.584590e+00 1.414241e+00 1.328770e+00 2.159049e+00 1.641369e+00 1.577227e+00 1.643220e+00 1.561345e+00 1.542561e+00 1.382858e+00 1.230322e+00 1.281250e-03
<GCONST> 8.491865e+01
<MIXTURE> 45 1.364932e-02
<MEAN> 25
 -1.117175e+01 4.549682e+00 -1.047908e+00 1.494230e+00 6.300151e+00 -1.435529e+00 4.247169e+00 1.429441e+00 2.794278e+00 2.101276e+00 8.870831e-01 2.855789e+00 -2.839702e+00 5.918452e-01 -3.239807e-01 -8.052075e-01 3.815017e-01 1.517248e-01 2.556495e-01 -3.051170e-01 3.489520e-02 -1.904225e-01 -1.610218e-01 4.291548e-01 1.073687e-01
<VARIANCE> 25
 3.630097e+01 3.302934e+01 2.937353e+01 3.656203e+01 3.003411e+01 3.253395e+01 2.387144e+01 3.522941e+01 2.597269e+01 2.213816e+01 3.799597e+01 1.755796e+01 1.980858e+00 2.504371e+00 2.413490e+00 2.795119e+00 2.579572e+00 2.387499e+00 2.208946e+00 2.556756e+00 2.640401e+00 1.884969e+00 2.202155e+00 2.013263e+00 3.656180e-03
<GCONST> 9.103414e+01
<MIXTURE> 46 9.336259e-03
<MEAN> 25
 -9.189465e+00 2.985659e+00 6.660146e-02 6.717657e+00 6.631780e+00 1.729717e+00 6.997952e+00 4.962979e+00 5.694877e+00 4.663774e+00 3.727827e+00 3.127694e+00 1.014175e+00 -3.121767e-02 -2.468728e-02 1.025964e+00 7.683142e-01 9.234161e-01 3.304534e-01 6.431916e-01 5.092475e-01 2.751315e-01 6.502255e-01 4.502591e-01 -1.004535e-01
<VARIANCE> 25
 3.309090e+01 4.146059e+01 4.126883e+01 4.721589e+01 5.003539e+01 4.828222e+01 3.356173e+01 3.966780e+01 4.196987e+01 2.957827e+01 3.219806e+01 2.221405e+01 3.564975e+00 4.012298e+00 3.630266e+00 3.557349e+00 3.956668e+00 3.317591e+00 3.080057e+00 3.074404e+00 2.905660e+00 3.109953e+00 2.101557e+00 1.723129e+00 7.300416e-03
<GCONST> 9.803591e+01
<MIXTURE> 47 7.116147e-03
<MEAN> 25
 6.998768e+00 -7.636175e+00 -7.330509e+00 -5.615734e+00 4.473646e-01 2.045897e+00 -2.112585e+00 1.595521e+00 3.501606e+00 3.647338e-01 -3.925620e+00 -6.505570e+00 -2.002710e-01 -1.163720e+00 -7.027550e-01 -3.554626e-01 4.898916e-01 8.003598e-01 8.173961e-01 3.012141e-01 1.337289e-01 -8.940989e-01 -4.768392e-01 -5.331780e-01 2.921869e-02
<VARIANCE> 25
 1.001760e+01 2.231659e+01 2.021017e+01 3.681593e+01 4.861256e+01 6.080300e+01 4.075967e+01 3.813419e+01 4.210165e+01 4.176950e+01 4.446695e+01 3.070335e+01 5.002576e-01 8.147391e-01 1.231841e+00 1.588222e+00 2.582001e+00 2.242257e+00 2.662928e+00 2.467752e+00 2.009567e+00 1.916212e+00 2.216597e+00 2.286973e+00 5.337051e-04
<GCONST> 8.684861e+01
<MIXTURE> 48 7.116147e-03
<MEAN> 25
 6.998768e+00 -7.636175e+00 -7.330509e+00 -5.615734e+00 4.473646e-01 2.045897e+00 -2.112585e+00 1.595521e+00 3.501606e+00 3.647338e-01 -3.925620e+00 -6.505570e+00 -2.002710e-01 -1.163720e+00 -7.027550e-01 -3.554626e-01 4.898916e-01 8.003598e-01 8.173961e-01 3.012141e-01 1.337289e-01 -8.940989e-01 -4.768392e-01 -5.331780e-01 2.921869e-02
<VARIANCE> 25
 1.001760e+01 2.231659e+01 2.021017e+01 3.681593e+01 4.861256e+01 6.080300e+01 4.075967e+01 3.813419e+01 4.210165e+01 4.176950e+01 4.446695e+01 3.070335e+01 5.002576e-01 8.147391e-01 1.231841e+00 1.588222e+00 2.582001e+00 2.242257e+00 2.662928e+00 2.467752e+00 2.009567e+00 1.916212e+00 2.216597e+00 2.286973e+00 5.337051e-04
<GCONST> 8.684861e+01
<MIXTURE> 49 5.548473e-03
<MEAN> 25
 -5.086715e+00 3.557340e-01 1.697780e-01 8.453343e+00 6.149714e+00 5.619151e+00 6.068371e+00 4.489522e+00 5.025054e+00 3.723138e+00 4.934692e+00 2.862140e+00 3.659514e-01 6.559020e-01 7.025646e-01 3.533793e-01 -1.965209e-01 -6.693654e-01 -1.008941e+00 -1.121396e+00 -9.560528e-01 -6.805995e-01 -4.928674e-01 -2.716449e-01 -2.141369e-05
<VARIANCE> 25
 9.600654e+00 1.004152e+01 1.425935e+01 1.587313e+01 1.590173e+01 1.714855e+01 1.943492e+01 1.943620e+01 1.823832e+01 1.794724e+01 2.062990e+01 1.429085e+01 2.804180e-01 2.632405e-01 3.594582e-01 6.114771e-01 8.693730e-01 9.741997e-01 9.924994e-01 1.052940e+00 1.135250e+00 1.219621e+00 1.280684e+00 1.208579e+00 1.435317e-05
<GCONST> 6.432483e+01
<MIXTURE> 50 6.234641e-03
<MEAN> 25
 -4.667297e+00 9.274097e-02 -1.451486e+00 6.200746e+00 4.220960e+00 2.276392e+00 3.705180e+00 1.987271e+00 2.779905e+00 1.404947e+00 2.157530e+00 2.846884e+00 5.631480e-02 1.759396e-01 9.540368e-02 -1.772728e-01 -5.118390e-01 -6.152570e-01 -4.266462e-01 -5.125352e-02 4.410728e-01 7.741106e-01 7.390668e-01 4.451569e-01 -1.301583e-05
<VARIANCE> 25
 1.053794e+01 1.115888e+01 1.434672e+01 1.541858e+01 1.534401e+01 1.857921e+01 1.856904e+01 1.948717e+01 1.854696e+01 1.749004e+01 2.164972e+01 1.520352e+01 1.447876e-01 2.394428e-01 3.785429e-01 5.173824e-01 5.987353e-01 7.348699e-01 9.568260e-01 1.118142e+00 1.060243e+00 9.096958e-01 9.182222e-01 9.894410e-01 1.000000e-06
<GCONST> 5.954232e+01
<MIXTURE> 51 6.234641e-03
<MEAN> 25
 -4.667297e+00 9.274097e-02 -1.451486e+00 6.200746e+00 4.220960e+00 2.276392e+00 3.705180e+00 1.987271e+00 2.779905e+00 1.404947e+00 2.157530e+00 2.846884e+00 5.631480e-02 1.759396e-01 9.540368e-02 -1.772728e-01 -5.118390e-01 -6.152570e-01 -4.266462e-01 -5.125352e-02 4.410728e-01 7.741106e-01 7.390668e-01 4.451569e-01 -1.301583e-05
<VARIANCE> 25
 1.053794e+01 1.115888e+01 1.434672e+01 1.541858e+01 1.534401e+01 1.857921e+01 1.856904e+01 1.948717e+01 1.854696e+01 1.749004e+01 2.164972e+01 1.520352e+01 1.447876e-01 2.394428e-01 3.785429e-01 5.173824e-01 5.987353e-01 7.348699e-01 9.568260e-01 1.118142e+00 1.060243e+00 9.096958e-01 9.182222e-01 9.894410e-01 1.000000e-06
<GCONST> 5.954232e+01
<MIXTURE> 52 6.367945e-03
<MEAN> 25
 9.943321e+00 1.627311e+00 -6.172882e+00 -1.415436e+01 -4.263384e+00 9.212367e+00 -2.671606e+00 -3.406419e+00 -3.888353e+00 -1.661227e+00 3.458409e+00 5.961321e-01 -3.996247e-01 -3.716174e-01 -6.214951e-02 1.146893e+00 1.379819e+00 -5.360811e-01 -6.276266e-01 -5.635984e-01 5.626315e-02 1.179228e+00 3.335924e-01 -5.642793e-01 -1.598443e-02
<VARIANCE> 25
 9.566277e+00 2.311412e+01 2.414610e+01 3.712449e+01 4.373516e+01 3.775932e+01 4.489146e+01 4.916098e+01 4.594083e+01 4.776062e+01 3.854666e+01 2.906421e+01 4.400571e-01 1.627172e+00 1.269705e+00 2.634621e+00 2.242378e+00 2.197911e+00 2.877492e+00 2.925323e+00 2.957815e+00 2.725412e+00 2.459228e+00 2.172364e+00 1.594018e-03
<GCONST> 8.988781e+01
<MIXTURE> 53 6.367945e-03
<MEAN> 25
 9.943321e+00 1.627311e+00 -6.172882e+00 -1.415436e+01 -4.263384e+00 9.212367e+00 -2.671606e+00 -3.406419e+00 -3.888353e+00 -1.661227e+00 3.458409e+00 5.961321e-01 -3.996247e-01 -3.716174e-01 -6.214951e-02 1.146893e+00 1.379819e+00 -5.360811e-01 -6.276266e-01 -5.635984e-01 5.626315e-02 1.179228e+00 3.335924e-01 -5.642793e-01 -1.598443e-02
<VARIANCE> 25
 9.566277e+00 2.311412e+01 2.414610e+01 3.712449e+01 4.373516e+01 3.775932e+01 4.489146e+01 4.916098e+01 4.594083e+01 4.776062e+01 3.854666e+01 2.906421e+01 4.400571e-01 1.627172e+00 1.269705e+00 2.634621e+00 2.242378e+00 2.197911e+00 2.877492e+00 2.925323e+00 2.957815e+00 2.725412e+00 2.459228e+00 2.172364e+00 1.594018e-03
<GCONST> 8.988781e+01
<MIXTURE> 54 7.368620e-03
<MEAN> 25
 -3.633801e+00 4.931954e-02 -6.831419e-01 8.036570e+00 6.484003e+00 4.625407e+00 4.675332e+00 4.601055e+00 4.053099e+00 3.593801e+00 4.457477e+00 2.326298e+00 -2.133210e-03 2.653849e-02 3.415401e-02 4.748240e-02 5.136495e-02 4.707923e-02 3.888674e-02 2.892036e-02 3.080963e-02 2.506088e-02 1.452187e-02 1.778039e-03 -1.219590e-05
<VARIANCE> 25
 9.137465e+00 1.036359e+01 9.295803e+00 1.818508e+01 1.332127e+01 1.353345e+01 1.197145e+01 1.128198e+01 1.134292e+01 1.354989e+01 1.780268e+01 1.253449e+01 4.087522e-02 8.734614e-02 1.540843e-01 2.265825e-01 3.079380e-01 3.969485e-01 4.608482e-01 5.215847e-01 5.420835e-01 5.211474e-01 5.144392e-01 5.164422e-01 1.000000e-06
<GCONST> 4.724841e+01
<MIXTURE> 55 7.368620e-03
<MEAN> 25
 -3.633801e+00 4.931954e-02 -6.831419e-01 8.036570e+00 6.484003e+00 4.625407e+00 4.675332e+00 4.601055e+00 4.053099e+00 3.593801e+00 4.457477e+00 2.326298e+00 -2.133210e-03 2.653849e-02 3.415401e-02 4.748240e-02 5.136495e-02 4.707923e-02 3.888674e-02 2.892036e-02 3.080963e-02 2.506088e-02 1.452187e-02 1.778039e-03 -1.219590e-05
<VARIANCE> 25
 9.137465e+00 1.036359e+01 9.295803e+00 1.818508e+01 1.332127e+01 1.353345e+01 1.197145e+01 1.128198e+01 1.134292e+01 1.354989e+01 1.780268e+01 1.253449e+01 4.087522e-02 8.734614e-02 1.540843e-01 2.265825e-01 3.079380e-01 3.969485e-01 4.608482e-01 5.215847e-01 5.420835e-01 5.211474e-01 5.144392e-01 5.164422e-01 1.000000e-06
<GCONST> 4.724841e+01
<MIXTURE> 56 6.132464e-03
<MEAN> 25
 7.520373e+00 -7.026617e+00 -8.884789e+00 -9.206552e+00 2.555141e+00 5.768331e+00 -1.642971e+00 -2.270902e+00 2.208849e+00 1.440809e+00 -1.711542e+00 -6.466067e+00 2.960832e-02 2.835589e-02 -8.478998e-02 6.883565e-02 3.675928e-01 7.165716e-02 1.323483e-01 -1.439034e-01 -2.517373e-02 -2.401131e-02 -9.989569e-02 -3.151748e-02 -7.813606e-03
<VARIANCE> 25
 8.737474e+00 2.152932e+01 1.864524e+01 4.243451e+01 4.610598e+01 7.593499e+01 5.875842e+01 3.952411e+01 3.622184e+01 3.940270e+01 4.430655e+01 3.162588e+01 2.152290e-01 4.233406e-01 4.146886e-01 7.825996e-01 8.898461e-01 1.035489e+00 9.021128e-01 8.391079e-01 8.381539e-01 8.755127e-01 9.399120e-01 7.358870e-01 2.359366e-04
<GCONST> 7.536595e+01
<MIXTURE> 57 6.132464e-03
<MEAN> 25
 7.520373e+00 -7.026617e+00 -8.884789e+00 -9.206552e+00 2.555141e+00 5.768331e+00 -1.642971e+00 -2.270902e+00 2.208849e+00 1.440809e+00 -1.711542e+00 -6.466067e+00 2.960832e-02 2.835589e-02 -8.478998e-02 6.883565e-02 3.675928e-01 7.165716e-02 1.323483e-01 -1.439034e-01 -2.517373e-02 -2.401131e-02 -9.989569e-02 -3.151748e-02 -7.813606e-03
<VARIANCE> 25
 8.737474e+00 2.152932e+01 1.864524e+01 4.243451e+01 4.610598e+01 7.593499e+01 5.875842e+01 3.952411e+01 3.622184e+01 3.940270e+01 4.430655e+01 3.162588e+01 2.152290e-01 4.233406e-01 4.146886e-01 7.825996e-01 8.898461e-01 1.035489e+00 9.021128e-01 8.391079e-01 8.381539e-01 8.755127e-01 9.399120e-01 7.358870e-01 2.359366e-04
<GCONST> 7.536595e+01
<MIXTURE> 58 6.172147e-03
<MEAN> 25
 2.584116e+00 -3.081218e+00 7.221716e+00 -5.030105e+00 -1.323932e+01 -5.585349e+00 1.570520e+00 1.058758e+00 -2.383901e+00 1.675761e+00 6.498725e-01 -8.821319e-01 -3.897303e-02 -1.311616e-01 -7.859852e-02 -1.576006e-01 -2.651819e-02 1.810097e-01 3.924978e-01 2.279316e-01 -3.666567e-04 9.081283e-03 -7.379699e-02 -1.419811e-01 -3.139636e-03
<VARIANCE> 25
 7.149529e+00 1.509772e+01 2.088688e+01 2.790266e+01 2.503875e+01 4.680485e+01 3.281397e+01 3.765897e+01 3.124767e+01 3.114839e+01 2.273473e+01 2.022711e+01 3.105097e-01 8.341776e-01 7.394249e-01 9.954177e-01 8.759891e-01 1.292239e+00 1.149540e+00 1.293313e+00 1.070737e+00 1.062708e+00 9.096254e-01 9.135833e-01 7.339040e-04
<GCONST> 7.578397e+01
<MIXTURE> 59 6.172147e-03
<MEAN> 25
 2.584116e+00 -3.081218e+00 7.221716e+00 -5.030105e+00 -1.323932e+01 -5.585349e+00 1.570520e+00 1.058758e+00 -2.383901e+00 1.675761e+00 6.498725e-01 -8.821319e-01 -3.897303e-02 -1.311616e-01 -7.859852e-02 -1.576006e-01 -2.651819e-02 1.810097e-01 3.924978e-01 2.279316e-01 -3.666567e-04 9.081283e-03 -7.379699e-02 -1.419811e-01 -3.139636e-03
<VARIANCE> 25
 7.149529e+00 1.509772e+01 2.088688e+01 2.790266e+01 2.503875e+01 4.680485e+01 3.281397e+01 3.765897e+01 3.124767e+01 3.114839e+01 2.273473e+01 2.022711e+01 3.105097e-01 8.341776e-01 7.394249e-01 9.954177e-01 8.759891e-01 1.292239e+00 1.149540e+00 1.293313e+00 1.070737e+00 1.062708e+00 9.096254e-01 9.135833e-01 7.339040e-04
<GCONST> 7.578397e+01
<MIXTURE> 60 4.479129e-03
<MEAN> 25
 -4.261133e+00 -6.613971e-01 -1.087417e+00 3.697156e+00 1.736766e+00 2.114656e+00 1.637953e+00 1.533214e+00 2.155742e+00 1.264984e+00 2.385995e+00 1.915426e+00 -2.847025e-02 5.663372e-02 1.011087e-01 1.300469e-01 1.299478e-01 1.293999e-01 1.781510e-01 3.221592e-01 5.446580e-01 6.648713e-01 5.563818e-01 3.030746e-01 -3.978002e-04
<VARIANCE> 25
 6.948116e+00 4.547390e+00 1.028958e+01 1.130133e+01 1.362022e+01 1.702312e+01 1.399046e+01 1.187513e+01 1.273256e+01 1.319347e+01 1.594448e+01 1.228682e+01 8.691243e-02 1.683086e-01 2.792680e-01 4.317386e-01 5.865633e-01 7.276299e-01 8.285524e-01 8.996678e-01 9.026551e-01 8.355763e-01 8.387217e-01 8.623262e-01 2.302725e-05
<GCONST> 5.634602e+01
<MIXTURE> 61 4.479129e-03
<MEAN> 25
 -4.261133e+00 -6.613971e-01 -1.087417e+00 3.697156e+00 1.736766e+00 2.114656e+00 1.637953e+00 1.533214e+00 2.155742e+00 1.264984e+00 2.385995e+00 1.915426e+00 -2.847025e-02 5.663372e-02 1.011087e-01 1.300469e-01 1.299478e-01 1.293999e-01 1.781510e-01 3.221592e-01 5.446580e-01 6.648713e-01 5.563818e-01 3.030746e-01 -3.978002e-04
<VARIANCE> 25
 6.948116e+00 4.547390e+00 1.028958e+01 1.130133e+01 1.362022e+01 1.702312e+01 1.399046e+01 1.187513e+01 1.273256e+01 1.319347e+01 1.594448e+01 1.228682e+01 8.691243e-02 1.683086e-01 2.792680e-01 4.317386e-01 5.865633e-01 7.276299e-01 8.285524e-01 8.996678e-01 9.026551e-01 8.355763e-01 8.387217e-01 8.623262e-01 2.302725e-05
<GCONST> 5.634602e+01
<MIXTURE> 62 3.278034e-03
<MEAN> 25
 -5.081378e+00 1.268276e+00 9.895949e-01 8.777059e+00 6.155055e+00 5.028542e+00 5.512829e+00 4.080753e+00 4.979893e+00 3.905109e+00 4.939992e+00 2.935114e+00 -9.999425e-01 -1.159918e+00 -9.532940e-01 -2.838218e-01 4.332260e-01 9.989393e-01 1.380188e+00 1.553420e+00 1.480940e+00 1.241233e+00 1.067030e+00 7.222776e-01 -1.302179e-03
<VARIANCE> 25
 9.842798e+00 1.005599e+01 1.331971e+01 1.699764e+01 1.744448e+01 1.753684e+01 1.963929e+01 1.945761e+01 1.877474e+01 1.866764e+01 2.159543e+01 1.477465e+01 4.020256e-01 4.391106e-01 5.514086e-01 7.854781e-01 1.036353e+00 1.194111e+00 1.250200e+00 1.272990e+00 1.324112e+00 1.358124e+00 1.393210e+00 1.367492e+00 1.652290e-05
<GCONST> 6.758540e+01
<MIXTURE> 63 4.351215e-03
<MEAN> 25
 -3.439085e+00 -1.114044e+00 -4.822067e+00 2.906997e+00 4.557982e+00 -1.064611e+00 2.859316e+00 2.335441e+00 1.713999e+00 -3.212286e-01 -8.113731e-01 1.949894e+00 -1.299773e-01 3.120648e-01 3.677886e-01 4.223724e-01 4.409041e-01 3.497552e-01 2.811216e-01 2.384495e-01 1.220268e-01 3.752142e-01 2.359244e-01 -8.617378e-03 -5.617191e-03
<VARIANCE> 25
 1.019856e+01 2.166462e+01 1.466936e+01 1.404410e+01 2.311901e+01 2.617282e+01 1.966141e+01 3.058319e+01 2.453784e+01 2.087927e+01 2.095568e+01 1.634316e+01 2.433160e-01 3.952992e-01 5.618840e-01 6.600853e-01 8.288004e-01 1.015607e+00 1.166249e+00 1.364999e+00 1.234057e+00 1.388499e+00 1.244550e+00 1.289868e+00 1.618050e-04
<GCONST> 7.079453e+01
<MIXTURE> 64 4.351215e-03
<MEAN> 25
 -3.439085e+00 -1.114044e+00 -4.822067e+00 2.906997e+00 4.557982e+00 -1.064611e+00 2.859316e+00 2.335441e+00 1.713999e+00 -3.212286e-01 -8.113731e-01 1.949894e+00 -1.299773e-01 3.120648e-01 3.677886e-01 4.223724e-01 4.409041e-01 3.497552e-01 2.811216e-01 2.384495e-01 1.220268e-01 3.752142e-01 2.359244e-01 -8.617378e-03 -5.617191e-03
<VARIANCE> 25
 1.019856e+01 2.166462e+01 1.466936e+01 1.404410e+01 2.311901e+01 2.617282e+01 1.966141e+01 3.058319e+01 2.453784e+01 2.087927e+01 2.095568e+01 1.634316e+01 2.433160e-01 3.952992e-01 5.618840e-01 6.600853e-01 8.288004e-01 1.015607e+00 1.166249e+00 1.364999e+00 1.234057e+00 1.388499e+00 1.244550e+00 1.289868e+00 1.618050e-04
<GCONST> 7.079453e+01
<MIXTURE> 65 1.721197e-02
<MEAN> 25
 7.534549e+00 1.489943e+00 2.084771e+00 1.317866e+00 -4.762848e+00 -4.655159e+00 -5.073882e+00 -6.133901e+00 -4.248490e+00 -1.501887e+00 -5.381926e+00 -2.396918e+00 1.384192e-01 3.995801e-02 1.181238e-02 7.281826e-02 -7.531676e-02 2.337932e-01 -1.101499e-01 -2.079715e-01 2.721546e-01 -1.909928e-01 1.292876e-01 -1.032699e-01 -3.682784e-03
<VARIANCE> 25
 1.091312e+01 2.013003e+01 2.307036e+01 3.638089e+01 3.723236e+01 5.392930e+01 6.156921e+01 5.863896e+01 5.621219e+01 6.018554e+01 5.192368e+01 4.944287e+01 5.214804e-01 1.024299e+00 1.471567e+00 1.708535e+00 2.106972e+00 2.217942e+00 2.158013e+00 2.932123e+00 2.432476e+00 2.716104e+00 2.444768e+00 2.052837e+00 4.177297e-04
<GCONST> 8.924752e+01
<MIXTURE> 66 1.191532e-02
<MEAN> 25
 6.502450e+00 -4.245642e+00 -5.350559e+00 -4.238032e+00 8.741617e-01 -4.265304e+00 -6.491887e+00 1.454111e+00 7.938784e-01 -1.990104e+00 -5.735629e+00 -3.612433e+00 -1.390978e-02 1.690845e+00 2.215948e+00 2.298467e+00 -1.113812e+00 -1.419602e+00 7.979622e-02 -4.049937e-01 -4.025900e-01 -1.010026e-01 -1.553696e-01 9.171930e-01 -6.332202e-02
<VARIANCE> 25
 8.786027e+00 2.174731e+01 2.640598e+01 3.657042e+01 3.827661e+01 5.956249e+01 5.510434e+01 4.551078e+01 5.129474e+01 6.304250e+01 4.169945e+01 3.517506e+01 1.224614e+00 2.288736e+00 2.258781e+00 2.333115e+00 4.149170e+00 4.497346e+00 4.128843e+00 4.777749e+00 4.864502e+00 4.922950e+00 3.722631e+00 3.375397e+00 1.383682e-03
<GCONST> 9.672852e+01
<MIXTURE> 67 1.559142e-02
<MEAN> 25
 7.923006e+00 1.648510e+00 -6.056516e+00 -8.430514e+00 1.023960e+00 5.495901e+00 -3.413596e+00 -2.420546e+00 -1.976323e+00 2.908900e+00 9.011142e-01 -2.668063e+00 -8.570989e-01 1.839062e+00 4.503929e-01 2.479524e+00 1.677101e+00 -1.105219e+00 1.101781e+00 4.577383e-01 -1.052508e-02 4.920089e-01 -5.157497e-01 2.414278e-01 -1.231854e-01
<VARIANCE> 25
 1.211153e+01 3.227504e+01 2.700886e+01 4.424247e+01 4.163431e+01 6.157765e+01 5.033127e+01 4.333668e+01 6.077863e+01 6.087366e+01 4.775845e+01 4.001921e+01 1.889164e+00 2.725124e+00 3.980775e+00 4.501987e+00 3.848188e+00 4.598833e+00 4.073512e+00 4.446021e+00 4.575554e+00 4.297083e+00 4.468306e+00 3.383693e+00 2.566122e-03
<GCONST> 1.003335e+02
<MIXTURE> 68 1.485092e-02
<MEAN> 25
 -2.517138e+00 -1.655494e+00 -3.999764e+00 4.137180e-01 6.120600e+00 -9.747076e-01 2.706904e+00 1.497645e+00 1.989879e+00 2.167910e+00 -8.705564e-02 1.893073e+00 2.618855e+00 2.376175e-01 1.796882e-01 -2.568862e+00 -2.656880e+00 -9.679577e-01 -2.283387e+00 -2.006379e+00 -1.538596e+00 -1.241265e+00 -1.449636e+00 -1.260331e+00 1.077504e-01
<VARIANCE> 25
 2.756461e+01 3.325837e+01 5.381109e+01 5.359543e+01 4.941233e+01 5.299283e+01 4.391404e+01 3.917603e+01 3.824001e+01 4.134405e+01 3.672532e+01 2.379887e+01 1.888491e+00 4.096243e+00 5.579838e+00 5.548444e+00 4.713179e+00 7.962162e+00 5.246049e+00 5.711597e+00 4.675326e+00 5.781177e+00 6.863932e+00 3.433839e+00 5.921162e-03
<GCONST> 1.040255e+02
<MIXTURE> 69 1.204884e-02
<MEAN> 25
 4.594350e+00 -4.415854e+00 -3.258353e+00 -3.299417e+00 -3.796096e+00 -7.368284e+00 -1.029189e+00 2.319257e+00 -1.853579e-02 -4.274517e+00 -5.442825e+00 1.166555e+00 1.632008e+00 -2.278881e+00 -1.386180e+00 -2.085480e+00 -6.897681e-01 -8.248489e-02 -5.679350e-01 6.526490e-01 -5.187773e-01 -1.369796e+00 -2.103294e+00 -2.470569e-01 6.387977e-02
<VARIANCE> 25
 8.625191e+00 2.284612e+01 2.712153e+01 2.630641e+01 4.628292e+01 4.133509e+01 4.735596e+01 3.134994e+01 3.946525e+01 3.903733e+01 3.042881e+01 2.417873e+01 3.425551e+00 2.817585e+00 3.261853e+00 3.935795e+00 6.201952e+00 5.961140e+00 6.982487e+00 5.929446e+00 5.868333e+00 5.842910e+00 4.354771e+00 3.768772e+00 2.367225e-03
<GCONST> 9.904053e+01
<MIXTURE> 70 1.329190e-02
<MEAN> 25
 5.990436e+00 -2.884595e+00 -3.695764e+00 -4.554180e+00 -9.542622e-01 2.628558e+00 -5.967000e+00 -4.915126e+00 2.129828e+00 4.002770e+00 1.419307e+00 -3.953396e+00 2.095885e+00 -1.742323e+00 -5.084147e-01 -1.581517e+00 -2.716796e+00 2.533935e+00 -1.692773e+00 -2.407928e-01 5.011108e-01 -5.219449e-01 1.158625e+00 -1.536763e+00 6.344365e-02
<VARIANCE> 25
 1.083182e+01 2.147124e+01 2.308321e+01 4.228485e+01 4.197786e+01 5.821683e+01 4.499500e+01 5.198222e+01 3.844577e+01 3.108731e+01 4.129699e+01 2.407418e+01 2.711489e+00 2.672249e+00 4.312398e+00 4.113994e+00 5.738952e+00 7.232430e+00 5.334465e+00 6.418061e+00 4.169603e+00 4.840265e+00 5.521990e+00 3.592405e+00 2.028813e-03
<GCONST> 9.973392e+01
<MIXTURE> 71 1.406903e-02
<MEAN> 25
 5.510913e+00 5.094540e+00 4.072035e+00 2.839153e+00 -2.277975e+00 -4.010293e+00 -2.671209e+00 -5.858040e+00 -4.412997e+00 -2.336823e+00 -5.899179e+00 -2.550819e+00 -1.627287e+00 -5.143117e-01 1.257173e-01 -2.119872e+00 1.132570e+00 3.770702e-01 -7.424322e-02 6.989163e-01 7.613412e-01 -6.109215e-01 4.639774e-01 8.829204e-01 3.835500e-02
<VARIANCE> 25
 1.710671e+01 2.440174e+01 1.889958e+01 3.699738e+01 4.190993e+01 3.637918e+01 3.426886e+01 3.446716e+01 5.440762e+01 3.685194e+01 3.326227e+01 3.314867e+01 1.469114e+00 2.993126e+00 4.715839e+00 4.020937e+00 3.918579e+00 4.398604e+00 3.839982e+00 5.923862e+00 4.065152e+00 4.145826e+00 3.900679e+00 3.616589e+00 1.265299e-03
<GCONST> 9.673734e+01
<MIXTURE> 72 8.134747e-03
<MEAN> 25
 3.694719e+00 -3.767416e+00 5.606305e+00 -2.221941e+00 -1.044775e+01 -9.271182e+00 -2.343362e+00 1.799563e+00 -4.901792e+00 -2.281199e+00 -1.590991e+00 7.574150e-01 9.040710e-01 -7.828866e-01 -2.520834e+00 4.436561e-01 2.127611e+00 -6.905058e-01 -1.197297e+00 1.528733e+00 1.757109e+00 -5.368080e-01 -1.292899e+00 3.904087e-01 -6.726617e-03
<VARIANCE> 25
 1.062206e+01 1.912074e+01 3.202618e+01 3.827883e+01 3.395000e+01 3.544211e+01 4.172209e+01 3.529209e+01 4.272165e+01 4.145982e+01 4.139871e+01 2.827935e+01 4.379340e-01 1.002646e+00 2.012846e+00 1.427061e+00 2.242690e+00 2.486053e+00 3.436457e+00 2.650501e+00 2.669696e+00 2.939364e+00 1.997813e+00 2.073277e+00 5.592771e-04
<GCONST> 8.745654e+01
<MIXTURE> 73 1.213625e-02
<MEAN> 25
 -5.606401e+00 -7.091381e-01 -1.309917e+00 4.807109e+00 4.319138e+00 2.260884e+00 5.485501e+00 3.429591e+00 4.336864e+00 3.452621e+00 4.178917e+00 3.075262e+00 7.748035e-01 -1.026819e+00 -9.149551e-01 -2.660553e+00 -1.260388e+00 -1.696384e+00 -8.813943e-01 -5.459363e-01 -9.247877e-01 -6.749572e-01 -1.095052e+00 -2.858626e-01 1.544065e-01
<VARIANCE> 25
 1.289905e+01 1.375134e+01 1.527317e+01 2.340612e+01 2.416774e+01 2.503383e+01 2.025446e+01 1.997060e+01 1.780357e+01 1.888853e+01 2.337622e+01 1.596820e+01 4.072017e+00 3.057231e+00 5.985641e+00 4.653412e+00 6.125513e+00 4.719947e+00 4.286703e+00 4.375036e+00 3.883466e+00 4.265889e+00 3.534080e+00 2.660058e+00 4.282599e-03
<GCONST> 9.289175e+01
<MIXTURE> 74 1.756491e-02
<MEAN> 25
 3.839161e+00 -2.202279e+00 5.019201e+00 1.489704e+00 -7.662322e+00 -5.844003e+00 -2.640984e+00 1.342147e+00 -4.695493e+00 -4.435321e+00 9.873812e-01 -6.860784e-01 3.233462e-01 2.307765e+00 -2.588338e-01 1.236073e+00 1.639994e+00 -7.611014e-01 6.065773e-01 -8.035680e-01 -1.956784e-01 7.933093e-01 -1.333596e+00 -2.281228e-01 -7.775865e-02
<VARIANCE> 25
 9.236740e+00 1.869732e+01 2.908863e+01 3.083220e+01 4.191794e+01 5.170693e+01 4.435143e+01 5.661310e+01 3.645940e+01 3.857019e+01 4.231117e+01 2.767577e+01 1.496841e+00 1.552589e+00 3.445072e+00 1.932053e+00 3.070865e+00 4.503831e+00 4.011393e+00 4.462851e+00 3.502682e+00 3.270619e+00 4.771915e+00 2.193672e+00 1.262068e-03
<GCONST> 9.408383e+01
<MIXTURE> 75 9.711651e-03
<MEAN> 25
 1.520090e+00 -1.971303e+00 1.066891e+01 1.358129e+00 -1.204367e+01 -2.820896e+00 -5.703443e+00 -2.223092e+00 -3.351507e+00 -6.688254e+00 5.157684e+00 6.679064e-01 1.332059e+00 -2.089427e+00 1.723647e-01 5.978720e-01 -2.945686e+00 4.396418e-02 -1.404224e+00 1.122826e+00 -6.996432e-01 -3.237228e-01 1.745432e+00 -8.494970e-01 4.743501e-02
<VARIANCE> 25
 8.846981e+00 1.538695e+01 2.345330e+01 1.970271e+01 3.305691e+01 4.623735e+01 2.403876e+01 2.451646e+01 3.347506e+01 3.273396e+01 2.492611e+01 2.429733e+01 1.772617e+00 1.910979e+00 2.986794e+00 2.681458e+00 3.946641e+00 4.658365e+00 3.011656e+00 2.892483e+00 3.484540e+00 3.335264e+00 3.038268e+00 2.121558e+00 1.254342e-03
<GCONST> 9.012478e+01
<MIXTURE> 76 1.052359e-02
<MEAN> 25
 -5.518602e+00 2.531282e-01 -3.077346e+00 3.783584e+00 5.472994e+00 1.656214e-01 4.182621e+00 3.015725e+00 2.200066e+00 9.579251e-01 8.433045e-01 2.023699e+00 -1.461688e-01 -4.437298e-01 -2.039272e-01 -9.138409e-01 -5.228248e-01 -5.902088e-01 -6.032687e-01 -2.339837e-01 -3.406679e-01 -3.309143e-01 -3.224207e-01 -1.258685e-01 1.830169e-02
<VARIANCE> 25
 3.249478e+01 3.446830e+01 2.726754e+01 2.248405e+01 3.221941e+01 3.677528e+01 2.471947e+01 3.302553e+01 2.275443e+01 2.317189e+01 2.525436e+01 1.884828e+01 9.473950e-01 1.125316e+00 1.315659e+00 1.286533e+00 1.462735e+00 1.880367e+00 1.493008e+00 1.911063e+00 1.641802e+00 1.536024e+00 2.169891e+00 1.283041e+00 1.199839e-03
<GCONST> 8.347581e+01
<MIXTURE> 77 1.244626e-02
<MEAN> 25
 -4.668527e-01 8.552512e+00 1.246186e+01 -1.159986e+01 -7.011786e+00 9.802684e-01 -9.287035e+00 -7.239325e+00 -3.376471e+00 -2.197763e-01 -4.638068e+00 -1.490015e+00 6.687154e-02 1.365863e-01 7.428244e-02 2.499016e-01 -2.504851e-02 7.827634e-02 -6.365698e-02 -6.186059e-02 8.321438e-02 -4.673077e-02 2.978969e-02 1.153453e-01 -9.835702e-03
<VARIANCE> 25
 1.041655e+01 2.048504e+01 2.750573e+01 4.166189e+01 3.319069e+01 3.405455e+01 3.662230e+01 3.168635e+01 3.516141e+01 3.339117e+01 3.764473e+01 3.487907e+01 2.996132e-01 7.779797e-01 6.446011e-01 1.083700e+00 1.237945e+00 9.835096e-01 1.221735e+00 1.076429e+00 1.041600e+00 1.064597e+00 9.752129e-01 9.227220e-01 5.413893e-04
<GCONST> 7.782125e+01
<MIXTURE> 78 9.702551e-03
<MEAN> 25
 -9.440545e+00 4.235415e+00 -2.342928e+00 2.147759e+00 7.451307e+00 -4.943080e+00 4.470810e+00 2.903823e+00 3.744307e+00 1.272331e+00 -1.379838e+00 4.205033e+00 1.979639e+00 9.355207e-02 -1.839558e-01 7.230979e-01 2.736693e-01 1.539423e-01 -5.168669e-01 2.869638e-01 2.639314e-01 5.327846e-02 -1.294069e-01 -5.805216e-01 -6.783300e-02
<VARIANCE> 25
 3.460839e+01 3.519151e+01 3.115826e+01 2.254716e+01 3.874884e+01 3.126853e+01 2.685114e+01 2.959038e+01 4.393843e+01 2.298781e+01 2.073458e+01 1.929109e+01 4.119871e+00 2.706225e+00 2.236123e+00 2.071841e+00 2.746058e+00 2.582440e+00 2.354921e+00 2.501212e+00 2.649524e+00 2.106880e+00 1.892887e+00 1.776881e+00 4.110638e-03
<GCONST> 9.140830e+01
<MIXTURE> 79 1.156824e-02
<MEAN> 25
 2.407927e+00 1.211902e+00 9.193953e+00 -6.141786e+00 -1.222945e+01 -1.602468e+00 -2.037998e+00 -6.326123e+00 -6.363704e+00 7.556296e-02 -3.015327e+00 -2.969412e+00 1.176576e+00 -5.261050e-01 -1.406869e+00 2.270555e+00 4.781325e-01 -1.545659e+00 6.358063e-01 9.002323e-01 -4.661438e-01 -4.915184e-01 2.647473e-01 2.497766e-01 -3.620322e-02
<VARIANCE> 25
 1.363334e+01 2.554840e+01 3.648268e+01 5.163224e+01 3.342245e+01 4.284548e+01 4.144421e+01 3.559857e+01 3.833361e+01 3.987342e+01 4.702085e+01 3.200933e+01 9.406640e-01 2.254313e+00 1.820249e+00 2.129301e+00 2.676135e+00 2.814999e+00 3.359634e+00 3.431881e+00 2.417486e+00 2.681439e+00 2.453202e+00 1.965299e+00 1.223422e-03
<GCONST> 9.185986e+01
<MIXTURE> 80 7.550998e-03
<MEAN> 25
 -1.460837e+01 3.983481e+00 6.890284e-01 2.865013e+00 2.449880e+00 1.410193e+00 6.396648e+00 2.496334e+00 2.719653e+00 2.373465e+00 4.852289e+00 1.187534e+00 4.286173e+00 -1.602340e-02 1.637940e+00 -1.135387e+00 -2.889435e+00 -2.777331e+00 -2.323182e+00 -2.021363e+00 -1.974936e+00 -1.685196e+00 -1.650711e+00 -6.028379e-01 -4.422946e-02
<VARIANCE> 25
 2.095128e+01 1.984856e+01 3.444228e+01 3.472081e+01 3.018181e+01 2.920732e+01 2.828732e+01 2.855720e+01 2.674494e+01 2.880915e+01 2.685675e+01 1.811149e+01 2.357439e+00 2.665992e+00 2.673152e+00 4.119980e+00 3.394130e+00 2.705729e+00 3.025096e+00 3.204026e+00 2.749052e+00 2.701805e+00 2.782216e+00 2.145723e+00 1.512237e-03
<GCONST> 9.139771e+01
<MIXTURE> 81 8.025434e-03
<MEAN> 25
 -1.113505e+00 4.045063e+00 1.016585e+01 -1.476742e+01 -9.060158e+00 -1.425215e+00 -6.772934e+00 -8.425485e+00 -4.141301e+00 -4.169007e-01 -7.562719e+00 -2.238410e+00 1.347413e-01 -5.888365e-01 -1.745141e-04 -5.545047e-01 -4.656592e-01 3.362384e-01 3.182811e-01 1.317247e-01 -1.376115e-01 1.043818e-01 -4.657851e-01 -1.271853e-01 1.156948e-02
<VARIANCE> 25
 1.013825e+01 3.292937e+01 2.648288e+01 2.975570e+01 3.381453e+01 3.048316e+01 4.536153e+01 2.819441e+01 3.794683e+01 3.182365e+01 2.530807e+01 3.100941e+01 7.710530e-01 2.274953e+00 1.545780e+00 2.867566e+00 2.659544e+00 2.123645e+00 3.276369e+00 2.294677e+00 2.353248e+00 2.536215e+00 2.300838e+00 2.075295e+00 1.182677e-03
<GCONST> 8.869025e+01
<MIXTURE> 82 8.213053e-03
<MEAN> 25
 -1.005005e+01 -2.650768e+00 1.468784e+00 -4.273052e+00 4.062232e+00 5.573320e-01 2.485646e+00 1.002281e-02 2.650808e+00 1.841639e+00 1.232541e+00 3.735349e+00 -1.524947e+00 -7.356624e-02 3.358923e-01 -2.829552e+00 -7.485518e-01 -8.442842e-01 -9.074314e-01 -1.226281e+00 -1.845143e-01 -3.645828e-01 -4.586879e-01 1.904143e-01 1.720443e-01
<VARIANCE> 25
 1.767599e+01 2.965071e+01 2.844014e+01 3.919921e+01 3.495693e+01 2.846625e+01 2.916859e+01 3.524153e+01 2.729800e+01 2.273094e+01 2.893683e+01 1.839721e+01 3.781762e+00 2.726241e+00 3.096719e+00 3.098783e+00 4.600715e+00 3.755868e+00 2.664852e+00 3.505836e+00 3.119694e+00 2.569645e+00 2.512167e+00 2.814237e+00 3.206407e-03
<GCONST> 9.374439e+01
<MIXTURE> 83 1.167529e-02
<MEAN> 25
 -2.001588e+01 5.525949e+00 -1.775695e+00 -4.041364e-01 7.827530e+00 -1.284311e+00 5.442198e+00 3.023553e+00 1.157597e+00 2.163284e+00 6.870871e-01 2.878592e+00 -1.686664e-02 -4.604417e-01 1.823184e-03 -3.612196e-01 -4.964202e-01 -1.254480e-01 -1.325078e-01 -9.692091e-02 -3.807387e-02 -3.701450e-02 -2.336674e-02 -3.182942e-02 4.459824e-03
<VARIANCE> 25
 8.904828e+00 1.648352e+01 2.841593e+01 2.241682e+01 2.117761e+01 2.449394e+01 2.199126e+01 2.338421e+01 2.060835e+01 2.227229e+01 2.337798e+01 1.444197e+01 1.081377e+00 9.566935e-01 1.237569e+00 1.064871e+00 1.353194e+00 1.285251e+00 1.279296e+00 1.382895e+00 1.347502e+00 1.307902e+00 1.226330e+00 1.068460e+00 8.906455e-04
<GCONST> 7.708490e+01
<MIXTURE> 84 1.066614e-02
<MEAN> 25
 1.114099e+00 9.006141e+00 7.203749e+00 7.884724e+00 2.843826e+00 -1.002857e+00 -1.421583e+00 -4.487833e+00 -4.100972e+00 -2.881841e+00 -2.462515e+00 -1.517887e+00 -1.778805e+00 -1.136388e+00 -1.221073e+00 1.280822e+00 2.274569e+00 1.456055e+00 1.461830e+00 1.293146e+00 1.169809e+00 4.207478e-01 3.947468e-01 4.389263e-01 -7.194745e-02
<VARIANCE> 25
 2.378294e+01 1.837151e+01 2.170979e+01 2.480074e+01 2.890622e+01 2.864466e+01 2.888309e+01 2.699967e+01 2.540541e+01 2.504166e+01 2.358038e+01 2.508310e+01 2.085233e+00 2.721350e+00 3.825032e+00 3.289075e+00 3.283133e+00 3.537295e+00 3.268355e+00 3.399011e+00 3.450941e+00 3.256876e+00 3.591164e+00 2.802487e+00 3.520028e-03
<GCONST> 9.273878e+01
<MIXTURE> 85 7.591393e-03
<MEAN> 25
 -3.115870e+00 7.895242e+00 5.732264e+00 1.274457e+00 -3.487989e+00 -5.316391e+00 -2.976698e+00 -6.127268e+00 -3.537616e+00 -3.194021e+00 -4.799671e-01 -1.887941e+00 3.942509e+00 3.211071e-01 1.756969e+00 -2.083561e+00 -3.418292e+00 -2.578666e+00 -2.883820e+00 -2.338333e+00 -2.248907e+00 -1.267811e+00 -2.295900e+00 -6.195390e-01 9.250294e-03
<VARIANCE> 25
 4.244510e+01 2.342573e+01 3.647732e+01 3.828502e+01 3.974472e+01 4.121069e+01 3.214491e+01 2.789463e+01 2.662897e+01 2.616328e+01 2.620412e+01 2.065286e+01 2.702283e+00 4.332497e+00 4.055234e+00 5.226923e+00 4.415483e+00 3.892754e+00 3.853207e+00 3.990711e+00 3.845421e+00 4.047535e+00 3.976215e+00 3.492137e+00 5.440837e-03
<GCONST> 9.838391e+01
<MIXTURE> 86 1.273941e-02
<MEAN> 25
 -4.959950e+00 -1.188801e+00 -8.108565e-01 6.330731e+00 5.037899e+00 4.651241e+00 5.310052e+00 4.585639e+00 4.642322e+00 3.909820e+00 5.333846e+00 2.692338e+00 -7.024440e-03 -7.997575e-03 -3.757710e-02 -6.552427e-02 -1.158856e-01 -1.835435e-01 -2.679497e-01 -3.316590e-01 -3.531203e-01 -3.166987e-01 -2.292983e-01 -1.078944e-01 -5.759018e-04
<VARIANCE> 25
 7.954950e+00 5.775392e+00 1.004212e+01 1.228432e+01 1.599883e+01 1.449755e+01 1.353010e+01 1.311975e+01 1.331186e+01 1.422067e+01 1.430360e+01 1.278354e+01 9.986593e-02 1.928283e-01 3.178703e-01 4.824112e-01 6.362270e-01 7.337434e-01 7.425808e-01 7.646180e-01 8.288505e-01 8.863588e-01 9.113597e-01 9.026421e-01 5.354438e-05
<GCONST> 5.817564e+01
<MIXTURE> 87 1.100681e-02
<MEAN> 25
 -3.042339e+00 4.478652e+00 3.122185e+00 6.668377e+00 5.580531e+00 7.061589e-02 1.540482e+00 -8.840580e-01 -5.348102e-01 -5.218732e-01 -8.275253e-01 -9.236547e-03 -2.135501e+00 -2.672010e+00 -2.045409e+00 -2.222544e+00 1.134086e-01 -9.349206e-02 6.168731e-01 1.066924e+00 1.349463e+00 9.994020e-01 7.558321e-01 1.063065e+00 1.012818e-01
<VARIANCE> 25
 3.668051e+01 2.833251e+01 2.897288e+01 3.348950e+01 2.977759e+01 3.887920e+01 2.730256e+01 2.659146e+01 2.521560e+01 2.456279e+01 2.497076e+01 2.271026e+01 3.723151e+00 2.811255e+00 3.735484e+00 3.492104e+00 5.040072e+00 4.098756e+00 3.960617e+00 4.490388e+00 3.375628e+00 3.516570e+00 3.740097e+00 2.624317e+00 4.763383e-03
<GCONST> 9.641602e+01
<MIXTURE> 88 1.256585e-02
<MEAN> 25
 -3.862652e+00 4.429604e-02 -1.814418e+00 5.592081e+00 5.129472e+00 3.309034e+00 5.575144e+00 4.346017e+00 2.691977e+00 2.249808e+00 1.780381e+00 2.179908e+00 9.893958e-02 1.360054e-01 2.941169e-01 1.589753e-01 3.344131e-01 1.047271e-01 -1.335552e-01 -3.617491e-01 -3.690851e-02 -5.173021e-01 4.152220e-02 1.033142e-01 -1.006328e-02
<VARIANCE> 25
 9.106908e+00 1.266628e+01 1.463027e+01 1.402600e+01 1.911357e+01 2.141008e+01 2.397809e+01 2.168997e+01 1.824899e+01 1.859612e+01 2.490548e+01 1.464636e+01 1.224542e+00 1.488558e+00 1.964312e+00 2.246372e+00 2.475024e+00 2.430357e+00 2.334725e+00 2.861552e+00 2.434916e+00 2.979372e+00 2.208269e+00 1.889088e+00 1.390547e-03
<GCONST> 8.262375e+01
<MIXTURE> 89 9.333527e-03
<MEAN> 25
 5.227144e+00 -6.671281e+00 -3.714096e+00 -1.920707e+00 -2.372744e+00 -2.352666e+00 -5.086032e+00 4.712817e+00 4.139590e+00 -2.601398e+00 -3.767560e+00 -3.892430e+00 -5.606130e-01 3.782012e-01 1.734540e+00 1.140101e+00 -1.723498e+00 -1.966562e+00 5.645083e-01 1.466319e+00 -1.159901e+00 -1.300368e+00 8.681594e-01 1.527168e+00 -5.433324e-03
<VARIANCE> 25
 8.510407e+00 2.065224e+01 2.464950e+01 2.775700e+01 2.836833e+01 6.208529e+01 4.856615e+01 3.524498e+01 3.453209e+01 3.230533e+01 3.964487e+01 2.539956e+01 2.868850e-01 8.527347e-01 1.418760e+00 1.498738e+00 1.545470e+00 2.320805e+00 2.204637e+00 1.729364e+00 2.632073e+00 1.637587e+00 2.439710e+00 1.270979e+00 3.209631e-04
<GCONST> 8.300559e+01
<MIXTURE> 90 7.114505e-03
<MEAN> 25
 2.451195e+00 -9.718489e+00 -4.729496e+00 -3.954661e+00 -3.378678e+00 -1.815552e+00 3.359960e+00 1.202430e+00 -7.513198e+00 -1.019009e+01 -3.404599e+00 -7.385104e-01 -1.643499e-01 9.069449e-01 1.163908e+00 -8.522430e-01 -1.608337e+00 -2.133795e-01 6.422956e-01 -2.061816e-01 -1.680752e-01 7.308298e-01 1.836762e-01 -5.480441e-01 -1.119153e-02
<VARIANCE> 25
 8.462770e+00 1.775953e+01 1.991740e+01 2.805989e+01 3.672890e+01 3.208727e+01 3.845646e+01 3.651883e+01 3.520583e+01 2.778928e+01 2.711170e+01 2.605799e+01 2.238048e-01 6.130967e-01 7.901539e-01 1.040861e+00 1.473551e+00 1.587029e+00 1.779745e+00 1.659111e+00 1.805133e+00 1.683343e+00 1.492588e+00 1.317735e+00 2.160063e-04
<GCONST> 7.814923e+01
<MIXTURE> 91 7.852945e-03
<MEAN> 25
 6.052865e+00 -7.446752e+00 -8.230429e+00 -4.465631e+00 2.658653e+00 1.672284e+00 -1.475745e+00 7.082598e-01 1.770410e+00 -2.159313e+00 -4.966179e+00 -5.325462e+00 2.250580e-01 1.019290e+00 1.833067e-01 4.739757e-01 2.164421e-01 -7.432514e-01 -3.698775e-01 -5.634034e-02 -2.190083e-01 3.370616e-01 -2.517590e-01 2.786915e-02 -3.777881e-02
<VARIANCE> 25
 8.966106e+00 2.592655e+01 1.952942e+01 4.127732e+01 4.768768e+01 6.319867e+01 4.930802e+01 3.669679e+01 4.809515e+01 6.028212e+01 3.428878e+01 3.545938e+01 4.488229e-01 7.917292e-01 1.254195e+00 1.352953e+00 2.366752e+00 2.504303e+00 2.509821e+00 2.320809e+00 2.138670e+00 2.086974e+00 2.265881e+00 1.835661e+00 5.774943e-04
<GCONST> 8.717529e+01
<MIXTURE> 92 7.852945e-03
<MEAN> 25
 6.052865e+00 -7.446752e+00 -8.230429e+00 -4.465631e+00 2.658653e+00 1.672284e+00 -1.475745e+00 7.082598e-01 1.770410e+00 -2.159313e+00 -4.966179e+00 -5.325462e+00 2.250580e-01 1.019290e+00 1.833067e-01 4.739757e-01 2.164421e-01 -7.432514e-01 -3.698775e-01 -5.634034e-02 -2.190083e-01 3.370616e-01 -2.517590e-01 2.786915e-02 -3.777881e-02
<VARIANCE> 25
 8.966106e+00 2.592655e+01 1.952942e+01 4.127732e+01 4.768768e+01 6.319867e+01 4.930802e+01 3.669679e+01 4.809515e+01 6.028212e+01 3.428878e+01 3.545938e+01 4.488229e-01 7.917292e-01 1.254195e+00 1.352953e+00 2.366752e+00 2.504303e+00 2.509821e+00 2.320809e+00 2.138670e+00 2.086974e+00 2.265881e+00 1.835661e+00 5.774943e-04
<GCONST> 8.717529e+01
<MIXTURE> 93 6.122769e-03
<MEAN> 25
 -6.825819e+00 -9.612056e-01 -2.402231e+00 5.798120e+00 5.908294e+00 3.922797e+00 6.123493e+00 3.609040e+00 4.119614e+00 2.509350e+00 1.818382e+00 3.705910e+00 -6.164000e-02 -1.543872e-01 -2.573870e-01 -3.317066e-01 -3.337587e-01 -2.844732e-01 -2.177871e-01 -1.742780e-01 -1.667204e-01 -1.506447e-01 -1.044153e-01 -3.554936e-02 -3.837683e-06
<VARIANCE> 25
 9.093901e+00 6.027777e+00 8.185111e+00 1.136881e+01 1.149258e+01 1.598249e+01 1.527640e+01 1.644382e+01 1.475774e+01 1.454170e+01 1.678724e+01 1.344866e+01 8.272374e-02 1.533694e-01 2.637162e-01 3.805642e-01 4.977629e-01 6.423341e-01 7.793725e-01 8.873125e-01 9.166239e-01 8.761251e-01 8.923470e-01 9.178919e-01 1.000000e-06
<GCONST> 5.360219e+01
<MIXTURE> 94 6.122769e-03
<MEAN> 25
 -6.825819e+00 -9.612056e-01 -2.402231e+00 5.798120e+00 5.908294e+00 3.922797e+00 6.123493e+00 3.609040e+00 4.119614e+00 2.509350e+00 1.818382e+00 3.705910e+00 -6.164000e-02 -1.543872e-01 -2.573870e-01 -3.317066e-01 -3.337587e-01 -2.844732e-01 -2.177871e-01 -1.742780e-01 -1.667204e-01 -1.506447e-01 -1.044153e-01 -3.554936e-02 -3.837683e-06
<VARIANCE> 25
 9.093901e+00 6.027777e+00 8.185111e+00 1.136881e+01 1.149258e+01 1.598249e+01 1.527640e+01 1.644382e+01 1.475774e+01 1.454170e+01 1.678724e+01 1.344866e+01 8.272374e-02 1.533694e-01 2.637162e-01 3.805642e-01 4.977629e-01 6.423341e-01 7.793725e-01 8.873125e-01 9.166239e-01 8.761251e-01 8.923470e-01 9.178919e-01 1.000000e-06
<GCONST> 5.360219e+01
<MIXTURE> 95 5.258835e-03
<MEAN> 25
 -5.820450e+00 -7.313160e-01 -1.994989e+00 4.896615e+00 4.231166e+00 2.802861e+00 4.170905e+00 1.666825e+00 2.220774e+00 8.720518e-01 1.200303e+00 2.592341e+00 1.454767e-01 1.469966e-01 8.527938e-02 -8.346063e-02 -3.772248e-01 -7.164290e-01 -1.055882e+00 -1.281691e+00 -1.263091e+00 -9.900248e-01 -6.484445e-01 -3.075037e-01 -1.546314e-04
<VARIANCE> 25
 1.028183e+01 6.527810e+00 1.224851e+01 1.276870e+01 1.401647e+01 1.834140e+01 1.789401e+01 1.690313e+01 1.543511e+01 1.541339e+01 1.996752e+01 1.434019e+01 2.092567e-01 2.928244e-01 4.534995e-01 6.289618e-01 8.009128e-01 8.969323e-01 9.112446e-01 9.233498e-01 9.705489e-01 1.079459e+00 1.160554e+00 1.113710e+00 4.206251e-05
<GCONST> 6.327271e+01
<MIXTURE> 96 7.034694e-03
<MEAN> 25
 -5.096676e+00 -4.548352e-01 -2.243811e+00 5.163478e+00 3.866032e+00 1.791501e+00 3.541566e+00 1.804465e+00 2.453365e+00 9.499912e-01 1.147341e+00 2.837089e+00 -2.968468e-02 8.781838e-02 2.134370e-01 4.057707e-01 5.389143e-01 4.999281e-01 2.461946e-01 -1.265887e-01 -4.634765e-01 -6.517613e-01 -6.085039e-01 -3.674167e-01 -1.581863e-05
<VARIANCE> 25
 1.101202e+01 9.725837e+00 1.288803e+01 1.428365e+01 1.502163e+01 1.952112e+01 1.807648e+01 1.930171e+01 1.800599e+01 1.660915e+01 1.976787e+01 1.453510e+01 1.204457e-01 2.181627e-01 3.166818e-01 3.977631e-01 4.946318e-01 6.606247e-01 8.674675e-01 9.963827e-01 9.568194e-01 8.641353e-01 8.866712e-01 9.406826e-01 1.000000e-06
<GCONST> 5.757094e+01
<MIXTURE> 97 7.034694e-03
<MEAN> 25
 -5.096676e+00 -4.548352e-01 -2.243811e+00 5.163478e+00 3.866032e+00 1.791501e+00 3.541566e+00 1.804465e+00 2.453365e+00 9.499912e-01 1.147341e+00 2.837089e+00 -2.968468e-02 8.781838e-02 2.134370e-01 4.057707e-01 5.389143e-01 4.999281e-01 2.461946e-01 -1.265887e-01 -4.634765e-01 -6.517613e-01 -6.085039e-01 -3.674167e-01 -1.581863e-05
<VARIANCE> 25
 1.101202e+01 9.725837e+00 1.288803e+01 1.428365e+01 1.502163e+01 1.952112e+01 1.807648e+01 1.930171e+01 1.800599e+01 1.660915e+01 1.976787e+01 1.453510e+01 1.204457e-01 2.181627e-01 3.166818e-01 3.977631e-01 4.946318e-01 6.606247e-01 8.674675e-01 9.963827e-01 9.568194e-01 8.641353e-01 8.866712e-01 9.406826e-01 1.000000e-06
<GCONST> 5.757094e+01
<MIXTURE> 98 9.917808e-03
<MEAN> 25
 -1.254086e+00 1.214992e+00 -7.896765e-01 4.306140e+00 3.884207e+00 1.349903e+00 3.700608e+00 2.910034e+00 1.051773e+00 1.593536e+00 -3.496001e-02 4.995040e-01 -1.560160e+00 -1.361814e+00 -9.838134e-01 5.970943e-02 4.077950e-01 9.454637e-01 1.079692e+00 1.365027e+00 1.613846e+00 1.001020e+00 1.157842e+00 9.942694e-01 -2.546593e-02
<VARIANCE> 25
 1.475647e+01 2.258905e+01 3.396392e+01 2.951839e+01 4.032806e+01 3.859650e+01 2.909219e+01 3.964849e+01 2.721230e+01 3.216442e+01 2.546777e+01 2.659966e+01 1.448199e+00 1.492750e+00 2.101510e+00 2.259909e+00 3.133305e+00 2.657107e+00 3.048407e+00 2.728198e+00 2.490501e+00 3.116670e+00 2.903740e+00 1.970370e+00 2.506831e-03
<GCONST> 9.073120e+01
<MIXTURE> 99 6.696178e-03
<MEAN> 25
 -7.666857e+00 1.036009e+01 5.193828e+00 2.367220e+00 2.961606e+00 -6.394669e+00 -5.257133e-01 -4.274014e+00 -3.948726e+00 -3.212323e+00 -3.606483e+00 1.240456e+00 4.452394e-01 -1.033090e+00 1.283299e-01 -2.840536e-01 -9.149181e-01 -3.935475e-01 -3.237822e-01 -2.743374e-01 -9.683197e-02 -7.891244e-02 3.315501e-01 2.044737e-01 2.003272e-02
<VARIANCE> 25
 3.611733e+01 2.468321e+01 3.976991e+01 2.618400e+01 3.569934e+01 2.936073e+01 2.627747e+01 2.676054e+01 2.461411e+01 2.370993e+01 2.644975e+01 2.397530e+01 3.144549e+00 1.982301e+00 1.189662e+00 1.358596e+00 2.138956e+00 1.680270e+00 1.548275e+00 1.617425e+00 1.581000e+00 1.396792e+00 1.578372e+00 1.101096e+00 1.714561e-03
<GCONST> 8.550362e+01
<MIXTURE> 100 4.498084e-03
<MEAN> 25
 -1.601120e+00 6.343205e+00 1.027808e+01 -7.461928e+00 -1.077763e+01 -5.069164e+00 -4.941059e+00 -9.967425e+00 -4.714282e+00 -8.626291e-01 -2.729303e+00 -2.703287e+00 2.918086e+00 -1.262413e+00 1.299859e+00 -2.180989e+00 -3.422289e+00 -7.828338e-01 -1.219257e+00 -8.186861e-01 -1.476073e+00 3.434606e-01 -1.651450e+00 -2.891638e-01 2.059299e-03
<VARIANCE> 25
 1.362481e+01 2.105306e+01 2.244969e+01 2.641001e+01 2.303272e+01 2.375476e+01 2.909169e+01 2.169394e+01 2.748187e+01 2.271266e+01 2.241998e+01 2.135899e+01 1.797894e+00 3.956025e+00 2.917954e+00 4.315668e+00 4.192472e+00 4.535943e+00 4.012961e+00 4.338794e+00 4.165713e+00 3.907312e+00 3.930293e+00 3.234017e+00 1.676110e-03
<GCONST> 9.258928e+01
<MIXTURE> 101 6.007792e-03
<MEAN> 25
 8.095807e+00 -3.488458e+00 -6.312196e+00 -6.866849e+00 8.469831e-01 -1.258784e+00 -1.058904e+01 -2.059355e+00 1.622440e+00 2.714043e+00 -2.387558e+00 -5.142818e+00 6.734728e-01 6.510879e-01 -1.457035e+00 -1.610634e+00 1.032416e+00 2.318585e+00 1.970786e-01 -1.460634e+00 -1.064485e+00 1.036794e+00 1.373341e+00 -4.156300e-01 -4.809152e-03
<VARIANCE> 25
 9.272486e+00 1.671504e+01 2.984633e+01 4.279530e+01 3.622937e+01 3.581764e+01 3.703005e+01 3.622993e+01 3.786425e+01 4.398984e+01 5.177835e+01 2.422939e+01 2.937322e-01 6.693228e-01 1.172421e+00 1.551572e+00 1.687581e+00 2.096734e+00 2.086529e+00 1.992348e+00 2.349302e+00 2.216566e+00 1.785685e+00 1.935324e+00 3.449681e-04
<GCONST> 8.364356e+01
<MIXTURE> 102 6.007792e-03
<MEAN> 25
 8.095807e+00 -3.488458e+00 -6.312196e+00 -6.866849e+00 8.469831e-01 -1.258784e+00 -1.058904e+01 -2.059355e+00 1.622440e+00 2.714043e+00 -2.387558e+00 -5.142818e+00 6.734728e-01 6.510879e-01 -1.457035e+00 -1.610634e+00 1.032416e+00 2.318585e+00 1.970786e-01 -1.460634e+00 -1.064485e+00 1.036794e+00 1.373341e+00 -4.156300e-01 -4.809152e-03
<VARIANCE> 25
 9.272486e+00 1.671504e+01 2.984633e+01 4.279530e+01 3.622937e+01 3.581764e+01 3.703005e+01 3.622993e+01 3.786425e+01 4.398984e+01 5.177835e+01 2.422939e+01 2.937322e-01 6.693228e-01 1.172421e+00 1.551572e+00 1.687581e+00 2.096734e+00 2.086529e+00 1.992348e+00 2.349302e+00 2.216566e+00 1.785685e+00 1.935324e+00 3.449681e-04
<GCONST> 8.364356e+01
<MIXTURE> 103 5.694618e-03
<MEAN> 25
 3.393803e+00 -9.545000e+00 -6.005912e+00 -2.876587e+00 -1.666233e+00 -1.677448e+00 2.385926e+00 2.621204e+00 -4.341190e+00 -8.940519e+00 -5.005655e+00 2.551557e-01 -1.648186e-01 -1.449535e+00 -9.979284e-01 3.533622e-01 1.191437e+00 1.015161e+00 1.984051e-01 -2.764514e-01 -7.399332e-01 -9.496781e-01 -5.809143e-02 7.242217e-02 2.646986e-02
<VARIANCE> 25
 1.006658e+01 2.020513e+01 2.288676e+01 3.210632e+01 5.143375e+01 3.806948e+01 4.540816e+01 3.638797e+01 4.353830e+01 3.145958e+01 2.942591e+01 2.620178e+01 6.324915e-01 1.284127e+00 1.532277e+00 1.915376e+00 2.962571e+00 2.420742e+00 2.926837e+00 2.556600e+00 2.548515e+00 2.460440e+00 2.145225e+00 2.197350e+00 8.004832e-04
<GCONST> 8.782882e+01
<MIXTURE> 104 5.694618e-03
<MEAN> 25
 3.393803e+00 -9.545000e+00 -6.005912e+00 -2.876587e+00 -1.666233e+00 -1.677448e+00 2.385926e+00 2.621204e+00 -4.341190e+00 -8.940519e+00 -5.005655e+00 2.551557e-01 -1.648186e-01 -1.449535e+00 -9.979284e-01 3.533622e-01 1.191437e+00 1.015161e+00 1.984051e-01 -2.764514e-01 -7.399332e-01 -9.496781e-01 -5.809143e-02 7.242217e-02 2.646986e-02
<VARIANCE> 25
 1.006658e+01 2.020513e+01 2.288676e+01 3.210632e+01 5.143375e+01 3.806948e+01 4.540816e+01 3.638797e+01 4.353830e+01 3.145958e+01 2.942591e+01 2.620178e+01 6.324915e-01 1.284127e+00 1.532277e+00 1.915376e+00 2.962571e+00 2.420742e+00 2.926837e+00 2.556600e+00 2.548515e+00 2.460440e+00 2.145225e+00 2.197350e+00 8.004832e-04
<GCONST> 8.782882e+01
<MIXTURE> 105 4.710235e-03
<MEAN> 25
 2.237113e+00 -2.272126e+00 9.055070e+00 -1.929630e+00 -1.214657e+01 -4.385044e+00 -5.060842e+00 -3.345081e-01 -4.288696e+00 -4.424789e+00 2.977644e+00 -9.565443e-01 5.450595e-02 -1.678096e-02 4.529041e-02 -8.511282e-02 1.596070e-02 1.869296e-01 7.987564e-03 3.115100e-02 3.566629e-02 -3.354218e-03 -1.431080e-02 -9.644414e-02 -2.701126e-03
<VARIANCE> 25
 1.197238e+01 2.989291e+01 3.717754e+01 4.478852e+01 3.663946e+01 5.227029e+01 4.325731e+01 4.068119e+01 3.713493e+01 4.867658e+01 5.358986e+01 2.796317e+01 1.047362e-01 1.844661e-01 3.471954e-01 2.734750e-01 3.551495e-01 5.913280e-01 4.666980e-01 4.772198e-01 4.822807e-01 4.034320e-01 4.225714e-01 4.479776e-01 8.675367e-05
<GCONST> 6.707001e+01
<MIXTURE> 106 4.710235e-03
<MEAN> 25
 2.237113e+00 -2.272126e+00 9.055070e+00 -1.929630e+00 -1.214657e+01 -4.385044e+00 -5.060842e+00 -3.345081e-01 -4.288696e+00 -4.424789e+00 2.977644e+00 -9.565443e-01 5.450595e-02 -1.678096e-02 4.529041e-02 -8.511282e-02 1.596070e-02 1.869296e-01 7.987564e-03 3.115100e-02 3.566629e-02 -3.354218e-03 -1.431080e-02 -9.644414e-02 -2.701126e-03
<VARIANCE> 25
 1.197238e+01 2.989291e+01 3.717754e+01 4.478852e+01 3.663946e+01 5.227029e+01 4.325731e+01 4.068119e+01 3.713493e+01 4.867658e+01 5.358986e+01 2.796317e+01 1.047362e-01 1.844661e-01 3.471954e-01 2.734750e-01 3.551495e-01 5.913280e-01 4.666980e-01 4.772198e-01 4.822807e-01 4.034320e-01 4.225714e-01 4.479776e-01 8.675367e-05
<GCONST> 6.707001e+01
<MIXTURE> 107 5.452374e-03
<MEAN> 25
 8.470274e+00 -2.281741e+00 -8.149906e+00 -9.611465e+00 1.795419e+00 3.782640e+00 -8.066320e+00 -4.814373e+00 -3.335795e-01 3.700911e+00 9.994697e-01 -5.018008e+00 -6.551813e-01 -6.346456e-01 7.591028e-01 1.738947e+00 3.638423e-01 -2.021380e+00 -8.861941e-01 8.241440e-01 1.705858e+00 -5.819725e-02 -1.647796e+00 -7.206250e-01 -3.176912e-03
<VARIANCE> 25
 8.981602e+00 2.166242e+01 2.678504e+01 3.971959e+01 3.601444e+01 5.250396e+01 5.112829e+01 3.710483e+01 4.569557e+01 3.956823e+01 4.996211e+01 2.844032e+01 3.661329e-01 1.165549e+00 1.441756e+00 2.253870e+00 2.334657e+00 2.627322e+00 2.596919e+00 2.401569e+00 2.260825e+00 2.937268e+00 1.818670e+00 2.286335e+00 7.689681e-04
<GCONST> 8.815836e+01
<MIXTURE> 108 5.452374e-03
<MEAN> 25
 8.470274e+00 -2.281741e+00 -8.149906e+00 -9.611465e+00 1.795419e+00 3.782640e+00 -8.066320e+00 -4.814373e+00 -3.335795e-01 3.700911e+00 9.994697e-01 -5.018008e+00 -6.551813e-01 -6.346456e-01 7.591028e-01 1.738947e+00 3.638423e-01 -2.021380e+00 -8.861941e-01 8.241440e-01 1.705858e+00 -5.819725e-02 -1.647796e+00 -7.206250e-01 -3.176912e-03
<VARIANCE> 25
 8.981602e+00 2.166242e+01 2.678504e+01 3.971959e+01 3.601444e+01 5.250396e+01 5.112829e+01 3.710483e+01 4.569557e+01 3.956823e+01 4.996211e+01 2.844032e+01 3.661329e-01 1.165549e+00 1.441756e+00 2.253870e+00 2.334657e+00 2.627322e+00 2.596919e+00 2.401569e+00 2.260825e+00 2.937268e+00 1.818670e+00 2.286335e+00 7.689681e-04
<GCONST> 8.815836e+01
<MIXTURE> 109 6.661064e-03
<MEAN> 25
 3.987691e+00 -1.050357e+01 -8.128382e+00 -1.234558e+00 2.369970e+00 1.863864e-01 4.643315e-01 1.445138e+00 -2.185361e+00 -7.850273e+00 -5.640904e+00 -5.846318e-04 -2.523886e-02 -1.078011e-01 -1.477640e-02 2.307276e-01 2.756591e-01 7.978734e-02 -1.271746e-01 -1.337931e-01 -4.284336e-02 -1.777200e-01 2.094543e-01 2.170973e-02 -5.124008e-03
<VARIANCE> 25
 8.795149e+00 1.741791e+01 1.970814e+01 3.003156e+01 4.134747e+01 3.661962e+01 4.974528e+01 3.278194e+01 4.660183e+01 3.817091e+01 3.055099e+01 2.691091e+01 1.875303e-01 4.138747e-01 5.219628e-01 6.192599e-01 1.296254e+00 9.732473e-01 1.233518e+00 1.063946e+00 1.063835e+00 9.420906e-01 8.421155e-01 8.642439e-01 2.202240e-04
<GCONST> 7.435937e+01
<MIXTURE> 110 6.661064e-03
<MEAN> 25
 3.987691e+00 -1.050357e+01 -8.128382e+00 -1.234558e+00 2.369970e+00 1.863864e-01 4.643315e-01 1.445138e+00 -2.185361e+00 -7.850273e+00 -5.640904e+00 -5.846318e-04 -2.523886e-02 -1.078011e-01 -1.477640e-02 2.307276e-01 2.756591e-01 7.978734e-02 -1.271746e-01 -1.337931e-01 -4.284336e-02 -1.777200e-01 2.094543e-01 2.170973e-02 -5.124008e-03
<VARIANCE> 25
 8.795149e+00 1.741791e+01 1.970814e+01 3.003156e+01 4.134747e+01 3.661962e+01 4.974528e+01 3.278194e+01 4.660183e+01 3.817091e+01 3.055099e+01 2.691091e+01 1.875303e-01 4.138747e-01 5.219628e-01 6.192599e-01 1.296254e+00 9.732473e-01 1.233518e+00 1.063946e+00 1.063835e+00 9.420906e-01 8.421155e-01 8.642439e-01 2.202240e-04
<GCONST> 7.435937e+01
<MIXTURE> 111 4.337247e-03
<MEAN> 25
 -4.472139e+00 -9.058828e-01 -1.721338e+00 1.688424e+00 9.662026e-01 9.618199e-01 3.155245e-01 2.115295e-01 8.793212e-02 -5.406426e-01 -6.296888e-01 1.964422e+00 -2.108231e-02 -3.251171e-02 -7.229841e-02 -7.347240e-02 -3.693331e-02 6.517289e-03 -1.314352e-03 -5.915385e-02 -1.404204e-01 -2.028134e-01 -1.898381e-01 -1.062926e-01 -2.189895e-04
<VARIANCE> 25
 7.008900e+00 4.986948e+00 1.021304e+01 9.405507e+00 1.312314e+01 2.385685e+01 1.466801e+01 1.317497e+01 1.160152e+01 1.191459e+01 1.363683e+01 1.158578e+01 7.916321e-02 1.635569e-01 2.752254e-01 4.204412e-01 5.696814e-01 7.052344e-01 8.005058e-01 8.585626e-01 8.925206e-01 8.562816e-01 8.622029e-01 8.477873e-01 2.236885e-05
<GCONST> 5.598732e+01
<MIXTURE> 112 4.337247e-03
<MEAN> 25
 -4.472139e+00 -9.058828e-01 -1.721338e+00 1.688424e+00 9.662026e-01 9.618199e-01 3.155245e-01 2.115295e-01 8.793212e-02 -5.406426e-01 -6.296888e-01 1.964422e+00 -2.108231e-02 -3.251171e-02 -7.229841e-02 -7.347240e-02 -3.693331e-02 6.517289e-03 -1.314352e-03 -5.915385e-02 -1.404204e-01 -2.028134e-01 -1.898381e-01 -1.062926e-01 -2.189895e-04
<VARIANCE> 25
 7.008900e+00 4.986948e+00 1.021304e+01 9.405507e+00 1.312314e+01 2.385685e+01 1.466801e+01 1.317497e+01 1.160152e+01 1.191459e+01 1.363683e+01 1.158578e+01 7.916321e-02 1.635569e-01 2.752254e-01 4.204412e-01 5.696814e-01 7.052344e-01 8.005058e-01 8.585626e-01 8.925206e-01 8.562816e-01 8.622029e-01 8.477873e-01 2.236885e-05
<GCONST> 5.598732e+01
<MIXTURE> 113 5.938666e-03
<MEAN> 25
 9.945662e+00 1.587495e+00 -8.743872e+00 -1.704366e+01 -1.188504e+00 5.935474e+00 -5.179063e+00 -1.589930e+00 -5.564130e+00 -3.292794e-01 3.956312e-01 -2.039184e-01 1.357532e-02 1.172451e-02 -6.008265e-02 -1.055284e-01 1.231094e-01 1.534745e-01 6.475058e-02 3.180070e-02 -5.575912e-02 -4.317440e-02 1.756201e-01 2.853564e-02 -1.520126e-03
<VARIANCE> 25
 8.808329e+00 1.792344e+01 2.932128e+01 3.368485e+01 5.345325e+01 3.817632e+01 3.978570e+01 3.952893e+01 3.801105e+01 4.742782e+01 3.633745e+01 2.801016e+01 1.250114e-01 3.172807e-01 3.117181e-01 6.286703e-01 6.322746e-01 6.452107e-01 7.708303e-01 8.355234e-01 9.450362e-01 8.957215e-01 7.152595e-01 7.055372e-01 1.239006e-04
<GCONST> 7.126785e+01
<MIXTURE> 114 5.938666e-03
<MEAN> 25
 9.945662e+00 1.587495e+00 -8.743872e+00 -1.704366e+01 -1.188504e+00 5.935474e+00 -5.179063e+00 -1.589930e+00 -5.564130e+00 -3.292794e-01 3.956312e-01 -2.039184e-01 1.357532e-02 1.172451e-02 -6.008265e-02 -1.055284e-01 1.231094e-01 1.534745e-01 6.475058e-02 3.180070e-02 -5.575912e-02 -4.317440e-02 1.756201e-01 2.853564e-02 -1.520126e-03
<VARIANCE> 25
 8.808329e+00 1.792344e+01 2.932128e+01 3.368485e+01 5.345325e+01 3.817632e+01 3.978570e+01 3.952893e+01 3.801105e+01 4.742782e+01 3.633745e+01 2.801016e+01 1.250114e-01 3.172807e-01 3.117181e-01 6.286703e-01 6.322746e-01 6.452107e-01 7.708303e-01 8.355234e-01 9.450362e-01 8.957215e-01 7.152595e-01 7.055372e-01 1.239006e-04
<GCONST> 7.126785e+01
<MIXTURE> 115 2.935202e-03
<MEAN> 25
 -4.031508e+00 -7.523134e-01 -3.108292e+00 3.656949e+00 2.413549e+00 -4.277790e-01 2.235019e+00 4.127970e-01 1.388240e+00 -1.980280e-02 4.044602e-02 2.687725e+00 3.161651e-02 -7.211528e-02 -2.307798e-01 -4.386980e-01 -6.334474e-01 -6.703678e-01 -5.921516e-01 -5.095131e-01 -4.866898e-01 -4.566612e-01 -3.437370e-01 -1.649531e-01 -3.168033e-06
<VARIANCE> 25
 9.267219e+00 9.883682e+00 1.353192e+01 1.270435e+01 1.348816e+01 1.756121e+01 1.708409e+01 2.080719e+01 1.793073e+01 1.721353e+01 1.919555e+01 1.466582e+01 2.037629e-01 3.456421e-01 4.855044e-01 5.616056e-01 6.341601e-01 7.979911e-01 1.008026e+00 1.130844e+00 1.075163e+00 9.943575e-01 1.025555e+00 1.064796e+00 1.000000e-06
<GCONST> 6.016114e+01
<MIXTURE> 116 2.935202e-03
<MEAN> 25
 -4.031508e+00 -7.523134e-01 -3.108292e+00 3.656949e+00 2.413549e+00 -4.277790e-01 2.235019e+00 4.127970e-01 1.388240e+00 -1.980280e-02 4.044602e-02 2.687725e+00 3.161651e-02 -7.211528e-02 -2.307798e-01 -4.386980e-01 -6.334474e-01 -6.703678e-01 -5.921516e-01 -5.095131e-01 -4.866898e-01 -4.566612e-01 -3.437370e-01 -1.649531e-01 -3.168033e-06
<VARIANCE> 25
 9.267219e+00 9.883682e+00 1.353192e+01 1.270435e+01 1.348816e+01 1.756121e+01 1.708409e+01 2.080719e+01 1.793073e+01 1.721353e+01 1.919555e+01 1.466582e+01 2.037629e-01 3.456421e-01 4.855044e-01 5.616056e-01 6.341601e-01 7.979911e-01 1.008026e+00 1.130844e+00 1.075163e+00 9.943575e-01 1.025555e+00 1.064796e+00 1.000000e-06
<GCONST> 6.016114e+01
<MIXTURE> 117 6.506003e-03
<MEAN> 25
 -4.644592e+00 1.117793e+00 1.054499e+00 9.758447e+00 6.260121e+00 6.256477e+00 6.463082e+00 5.044496e+00 6.385674e+00 4.929173e+00 6.367208e+00 2.709929e+00 -7.503008e-02 -2.341336e-01 -3.583474e-01 -4.199596e-01 -3.675186e-01 -3.027199e-01 -2.873273e-01 -3.314594e-01 -3.917833e-01 -3.689738e-01 -2.631080e-01 -1.159785e-01 -9.052962e-06
<VARIANCE> 25
 7.187259e+00 8.753097e+00 9.809425e+00 1.430823e+01 1.561781e+01 1.534934e+01 1.772638e+01 1.796108e+01 1.640261e+01 1.637152e+01 1.674076e+01 1.475332e+01 2.166086e-01 3.075042e-01 4.261350e-01 6.171185e-01 8.536685e-01 1.055364e+00 1.177562e+00 1.232911e+00 1.223976e+00 1.194855e+00 1.167213e+00 1.113683e+00 1.000000e-06
<GCONST> 6.042865e+01
<MIXTURE> 118 6.506003e-03
<MEAN> 25
 -4.644592e+00 1.117793e+00 1.054499e+00 9.758447e+00 6.260121e+00 6.256477e+00 6.463082e+00 5.044496e+00 6.385674e+00 4.929173e+00 6.367208e+00 2.709929e+00 -7.503008e-02 -2.341336e-01 -3.583474e-01 -4.199596e-01 -3.675186e-01 -3.027199e-01 -2.873273e-01 -3.314594e-01 -3.917833e-01 -3.689738e-01 -2.631080e-01 -1.159785e-01 -9.052962e-06
<VARIANCE> 25
 7.187259e+00 8.753097e+00 9.809425e+00 1.430823e+01 1.561781e+01 1.534934e+01 1.772638e+01 1.796108e+01 1.640261e+01 1.637152e+01 1.674076e+01 1.475332e+01 2.166086e-01 3.075042e-01 4.261350e-01 6.171185e-01 8.536685e-01 1.055364e+00 1.177562e+00 1.232911e+00 1.223976e+00 1.194855e+00 1.167213e+00 1.113683e+00 1.000000e-06
<GCONST> 6.042865e+01
<MIXTURE> 119 4.297961e-03
<MEAN> 25
 -4.555365e+00 -7.683534e+00 2.179305e+00 2.040082e+00 2.036472e+00 -6.162010e-02 5.201887e+00 5.979126e+00 8.815084e-01 7.448143e-01 6.509142e+00 1.579569e+00 -5.563198e-02 -7.047627e-02 4.122592e-02 -5.536850e-02 -1.141322e-01 -1.759411e-01 -9.282297e-02 2.830701e-02 -9.518932e-02 -1.557220e-01 -2.999209e-02 -5.342932e-02 -3.267774e-04
<VARIANCE> 25
 1.088130e+01 9.618688e+00 1.576797e+01 1.908700e+01 2.229934e+01 2.337586e+01 2.399930e+01 2.543329e+01 2.494740e+01 2.749487e+01 1.956210e+01 1.945214e+01 1.563918e-01 2.796427e-01 4.370765e-01 6.096492e-01 7.953733e-01 9.638336e-01 1.054881e+00 1.271009e+00 1.221388e+00 1.210781e+00 1.148665e+00 1.165018e+00 2.606313e-04
<GCONST> 6.945284e+01
<MIXTURE> 120 4.297961e-03
<MEAN> 25
 -4.555365e+00 -7.683534e+00 2.179305e+00 2.040082e+00 2.036472e+00 -6.162010e-02 5.201887e+00 5.979126e+00 8.815084e-01 7.448143e-01 6.509142e+00 1.579569e+00 -5.563198e-02 -7.047627e-02 4.122592e-02 -5.536850e-02 -1.141322e-01 -1.759411e-01 -9.282297e-02 2.830701e-02 -9.518932e-02 -1.557220e-01 -2.999209e-02 -5.342932e-02 -3.267774e-04
<VARIANCE> 25
 1.088130e+01 9.618688e+00 1.576797e+01 1.908700e+01 2.229934e+01 2.337586e+01 2.399930e+01 2.543329e+01 2.494740e+01 2.749487e+01 1.956210e+01 1.945214e+01 1.563918e-01 2.796427e-01 4.370765e-01 6.096492e-01 7.953733e-01 9.638336e-01 1.054881e+00 1.271009e+00 1.221388e+00 1.210781e+00 1.148665e+00 1.165018e+00 2.606313e-04
<GCONST> 6.945284e+01
<MIXTURE> 121 4.567511e-03
<MEAN> 25
 2.076316e-01 -2.524324e+00 5.153365e+00 -1.290215e+01 -1.264603e+01 -1.664927e+00 9.980726e-01 -5.108119e+00 -4.199015e+00 -4.902435e-01 -5.507667e+00 -4.313048e+00 2.408295e-02 1.324243e-01 -4.149241e-02 7.962883e-02 1.585381e-01 7.838682e-02 -7.927034e-02 -1.833723e-01 -2.684259e-01 -2.576655e-01 -1.145066e-01 8.584444e-04 -7.433460e-03
<VARIANCE> 25
 7.732381e+00 1.560584e+01 1.727544e+01 2.037125e+01 2.441869e+01 2.925205e+01 2.954582e+01 2.457685e+01 3.528749e+01 2.833870e+01 1.974683e+01 2.117964e+01 1.550049e-01 6.431847e-01 6.230314e-01 7.047856e-01 7.706435e-01 1.149996e+00 1.118416e+00 1.121182e+00 1.217513e+00 1.192570e+00 9.416301e-01 8.718781e-01 2.108475e-04
<GCONST> 7.139442e+01
<MIXTURE> 122 4.567511e-03
<MEAN> 25
 2.076316e-01 -2.524324e+00 5.153365e+00 -1.290215e+01 -1.264603e+01 -1.664927e+00 9.980726e-01 -5.108119e+00 -4.199015e+00 -4.902435e-01 -5.507667e+00 -4.313048e+00 2.408295e-02 1.324243e-01 -4.149241e-02 7.962883e-02 1.585381e-01 7.838682e-02 -7.927034e-02 -1.833723e-01 -2.684259e-01 -2.576655e-01 -1.145066e-01 8.584444e-04 -7.433460e-03
<VARIANCE> 25
 7.732381e+00 1.560584e+01 1.727544e+01 2.037125e+01 2.441869e+01 2.925205e+01 2.954582e+01 2.457685e+01 3.528749e+01 2.833870e+01 1.974683e+01 2.117964e+01 1.550049e-01 6.431847e-01 6.230314e-01 7.047856e-01 7.706435e-01 1.149996e+00 1.118416e+00 1.121182e+00 1.217513e+00 1.192570e+00 9.416301e-01 8.718781e-01 2.108475e-04
<GCONST> 7.139442e+01
<MIXTURE> 123 4.393044e-03
<MEAN> 25
 -3.948981e+00 1.419918e+00 -3.826201e-01 5.624794e+00 5.699643e+00 2.663957e+00 3.522669e+00 1.026596e+00 3.236058e-01 -7.973322e-02 -3.372916e-01 6.521369e-01 -4.688965e-01 -6.885684e-01 -8.423911e-01 -6.517159e-01 -1.093147e-01 3.066655e-02 3.286503e-01 7.691301e-01 8.138594e-01 7.864128e-01 7.433072e-01 4.628716e-01 -3.603722e-03
<VARIANCE> 25
 1.044075e+01 1.184365e+01 1.630079e+01 1.787483e+01 2.222653e+01 3.169522e+01 2.077438e+01 2.883804e+01 1.810725e+01 1.841324e+01 2.317887e+01 1.829139e+01 3.375491e-01 3.903851e-01 4.783199e-01 7.447778e-01 1.112266e+00 1.064378e+00 1.127049e+00 1.193731e+00 1.141212e+00 1.149367e+00 1.159329e+00 1.202942e+00 9.569734e-05
<GCONST> 7.000723e+01
<MIXTURE> 124 4.069876e-03
<MEAN> 25
 -6.525445e+00 -1.133520e+00 -2.952556e+00 5.073582e+00 5.040987e+00 3.349007e+00 5.400690e+00 2.668878e+00 3.176461e+00 1.282215e+00 1.119466e+00 3.003405e+00 -2.060698e-01 -3.187037e-01 -3.650783e-01 -2.258978e-01 1.378934e-01 5.145552e-01 8.064169e-01 8.661000e-01 6.620855e-01 3.293330e-01 7.607870e-02 -2.901145e-02 -3.703678e-05
<VARIANCE> 25
 1.107453e+01 7.529852e+00 1.112910e+01 1.246403e+01 1.250750e+01 1.985993e+01 1.544779e+01 1.803993e+01 1.544829e+01 1.592685e+01 1.905424e+01 1.449136e+01 1.040080e-01 1.685748e-01 2.707637e-01 4.288479e-01 6.017891e-01 7.039865e-01 7.427535e-01 8.124517e-01 9.113938e-01 9.744270e-01 1.008562e+00 9.889540e-01 1.848889e-05
<GCONST> 5.899390e+01
<MIXTURE> 125 4.069876e-03
<MEAN> 25
 -6.525445e+00 -1.133520e+00 -2.952556e+00 5.073582e+00 5.040987e+00 3.349007e+00 5.400690e+00 2.668878e+00 3.176461e+00 1.282215e+00 1.119466e+00 3.003405e+00 -2.060698e-01 -3.187037e-01 -3.650783e-01 -2.258978e-01 1.378934e-01 5.145552e-01 8.064169e-01 8.661000e-01 6.620855e-01 3.293330e-01 7.607870e-02 -2.901145e-02 -3.703678e-05
<VARIANCE> 25
 1.107453e+01 7.529852e+00 1.112910e+01 1.246403e+01 1.250750e+01 1.985993e+01 1.544779e+01 1.803993e+01 1.544829e+01 1.592685e+01 1.905424e+01 1.449136e+01 1.040080e-01 1.685748e-01 2.707637e-01 4.288479e-01 6.017891e-01 7.039865e-01 7.427535e-01 8.124517e-01 9.113938e-01 9.744270e-01 1.008562e+00 9.889540e-01 1.848889e-05
<GCONST> 5.899390e+01
<MIXTURE> 126 2.402244e-03
<MEAN> 25
 -3.748507e+00 -6.890603e+00 -5.257048e+00 2.328367e+00 4.282267e+00 -3.255183e+00 9.809119e-02 3.585108e+00 3.286388e+00 -2.677959e+00 -1.391789e+00 3.031746e+00 -3.616721e-03 -6.239008e-03 -3.436974e-02 -1.567944e-01 -3.135056e-01 -3.843116e-01 -2.743125e-01 -1.530783e-01 -1.122935e-01 -1.178991e-01 -9.557111e-02 -3.186847e-02 -1.584082e-03
<VARIANCE> 25
 7.591627e+00 1.320870e+01 1.390411e+01 1.502464e+01 2.492786e+01 2.355804e+01 2.272992e+01 2.851233e+01 3.141949e+01 2.613952e+01 2.182281e+01 1.916739e+01 1.703328e-01 3.506852e-01 4.802739e-01 5.648679e-01 7.562277e-01 9.930012e-01 1.115106e+00 1.262040e+00 1.320051e+00 1.309190e+00 1.210786e+00 1.152097e+00 2.121259e-04
<GCONST> 6.984764e+01
<MIXTURE> 127 2.402244e-03
<MEAN> 25
 -3.748507e+00 -6.890603e+00 -5.257048e+00 2.328367e+00 4.282267e+00 -3.255183e+00 9.809119e-02 3.585108e+00 3.286388e+00 -2.677959e+00 -1.391789e+00 3.031746e+00 -3.616721e-03 -6.239008e-03 -3.436974e-02 -1.567944e-01 -3.135056e-01 -3.843116e-01 -2.743125e-01 -1.530783e-01 -1.122935e-01 -1.178991e-01 -9.557111e-02 -3.186847e-02 -1.584082e-03
<VARIANCE> 25
 7.591627e+00 1.320870e+01 1.390411e+01 1.502464e+01 2.492786e+01 2.355804e+01 2.272992e+01 2.851233e+01 3.141949e+01 2.613952e+01 2.182281e+01 1.916739e+01 1.703328e-01 3.506852e-01 4.802739e-01 5.648679e-01 7.562277e-01 9.930012e-01 1.115106e+00 1.262040e+00 1.320051e+00 1.309190e+00 1.210786e+00 1.152097e+00 2.121259e-04
<GCONST> 6.984764e+01
<MIXTURE> 128 3.790457e-03
<MEAN> 25
 -3.932049e+00 1.541920e+00 -3.397908e-01 6.574609e+00 3.620689e+00 1.858449e+00 3.577924e+00 2.371242e+00 3.963139e+00 3.700329e+00 3.771102e+00 3.525617e+00 -3.959665e-01 -1.971653e-01 9.853815e-02 7.267238e-01 1.184683e+00 1.135658e+00 7.178876e-01 1.311427e-01 -4.392068e-01 -7.881643e-01 -7.024191e-01 -3.938047e-01 -3.629101e-05
<VARIANCE> 25
 1.021203e+01 1.169890e+01 1.498916e+01 1.931598e+01 2.004494e+01 2.117847e+01 2.430780e+01 2.467238e+01 2.641312e+01 2.387452e+01 2.679876e+01 1.820322e+01 8.925343e-01 1.146510e+00 1.365917e+00 1.502690e+00 1.580646e+00 1.862779e+00 2.249039e+00 2.325431e+00 2.147803e+00 1.857554e+00 1.744332e+00 1.748462e+00 1.000095e-06
<GCONST> 7.364214e+01
<TRANSP> 3
 0.000000e+00 1.000000e+00 0.000000e+00
 0.000000e+00 9.999990e-01 9.999998e-07
 0.000000e+00 0.000000e+00 0.000000e+00
<ENDHMM>
