~o
<STREAMINFO> 1 25
<VECSIZE> 25<NULLD><MFCC_E_D_N><DIAGC>
~h "jmodel"
<BEGINHMM>
<NUMSTATES> 3
<STATE> 2
<NUMMIXES> 128
<MIXTURE> 1 5.748963e-03
<MEAN> 25
 -2.573848e+00 3.223817e+00 2.301811e+00 8.740017e+00 4.310687e+00 3.422912e+00 4.082839e+00 3.856823e+00 5.807504e+00 5.181039e+00 5.871731e+00 3.067582e+00 -1.996708e+00 -1.618863e+00 -8.516691e-01 1.058138e+00 1.546951e+00 2.215490e+00 2.140837e+00 2.072814e+00 1.690211e+00 1.283467e+00 1.559833e+00 6.178300e-01 -4.645502e-02
<VARIANCE> 25
 9.978599e+00 1.184144e+01 1.482525e+01 1.853370e+01 2.337427e+01 2.201027e+01 2.172401e+01 2.236556e+01 2.088261e+01 2.282424e+01 2.076616e+01 1.696151e+01 1.778161e+00 2.127327e+00 3.014492e+00 3.220400e+00 3.730940e+00 3.353650e+00 3.307477e+00 3.363209e+00 3.488506e+00 3.712319e+00 3.492532e+00 2.811162e+00 3.137761e-03
<GCONST> 8.841527e+01
<MIXTURE> 2 4.549242e-03
<MEAN> 25
 -4.831202e+00 1.943823e+00 4.752329e-01 9.331254e+00 6.787920e+00 7.477587e+00 7.796404e+00 5.982367e+00 8.417171e+00 5.799893e+00 7.527936e+00 3.137295e+00 -6.836459e-02 3.517655e-02 1.395681e-01 2.065136e-01 2.444744e-01 2.689096e-01 2.696468e-01 2.758932e-01 3.054251e-01 2.777667e-01 2.129948e-01 6.156725e-02 1.473018e-05
<VARIANCE> 25
 6.269781e+00 1.072863e+01 1.171644e+01 1.637220e+01 1.554232e+01 1.424235e+01 1.594822e+01 2.288044e+01 1.554617e+01 1.852597e+01 1.711855e+01 1.353714e+01 1.192130e-01 2.088590e-01 3.201233e-01 4.259802e-01 6.155324e-01 7.688075e-01 8.613774e-01 9.820604e-01 1.059549e+00 1.032896e+00 1.078120e+00 9.754024e-01 1.138649e-06
<GCONST> 5.767417e+01
<MIXTURE> 3 4.549242e-03
<MEAN> 25
 -4.831202e+00 1.943823e+00 4.752329e-01 9.331254e+00 6.787920e+00 7.477587e+00 7.796404e+00 5.982367e+00 8.417171e+00 5.799893e+00 7.527936e+00 3.137295e+00 -6.836459e-02 3.517655e-02 1.395681e-01 2.065136e-01 2.444744e-01 2.689096e-01 2.696468e-01 2.758932e-01 3.054251e-01 2.777667e-01 2.129948e-01 6.156725e-02 1.473018e-05
<VARIANCE> 25
 6.269781e+00 1.072863e+01 1.171644e+01 1.637220e+01 1.554232e+01 1.424235e+01 1.594822e+01 2.288044e+01 1.554617e+01 1.852597e+01 1.711855e+01 1.353714e+01 1.192130e-01 2.088590e-01 3.201233e-01 4.259802e-01 6.155324e-01 7.688075e-01 8.613774e-01 9.820604e-01 1.059549e+00 1.032896e+00 1.078120e+00 9.754024e-01 1.138649e-06
<GCONST> 5.767417e+01
<MIXTURE> 4 1.671429e-02
<MEAN> 25
 2.866221e+00 2.100573e+00 -5.131782e+00 1.377197e+00 4.610441e+00 -3.731835e-01 1.131181e+00 -2.768458e-01 2.938511e+00 1.567596e+00 -2.654425e+00 -8.388481e-01 -2.383216e+00 2.114886e+00 1.054512e+00 2.874982e+00 8.986444e-01 4.524885e-01 1.321368e+00 5.380993e-02 1.681316e+00 -3.002582e-01 1.915909e+00 9.114895e-01 -1.145086e-01
<VARIANCE> 25
 1.628128e+01 2.374042e+01 2.566873e+01 3.495890e+01 4.285875e+01 6.055561e+01 6.583658e+01 5.567677e+01 5.016286e+01 5.077091e+01 4.428598e+01 2.610313e+01 2.005775e+00 4.787785e+00 3.112287e+00 3.336725e+00 5.578678e+00 4.695679e+00 4.996768e+00 5.486987e+00 4.808426e+00 5.462966e+00 5.844240e+00 3.100297e+00 5.022882e-03
<GCONST> 1.017179e+02
<MIXTURE> 5 3.206198e-03
<MEAN> 25
 -3.411094e+00 2.199327e+00 5.437939e-01 9.387897e+00 6.714035e+00 6.314662e+00 7.107100e+00 4.678135e+00 5.548981e+00 3.827911e+00 4.653069e+00 2.610859e+00 -3.247400e-01 7.452627e-01 1.216621e+00 1.028028e+00 3.096522e-01 -9.910497e-02 -7.956402e-02 3.575128e-02 4.544579e-01 6.700268e-01 3.972341e-01 9.257171e-02 -2.943385e-05
<VARIANCE> 25
 1.017908e+01 1.390792e+01 2.383993e+01 2.559833e+01 2.010473e+01 1.928665e+01 1.997675e+01 2.048407e+01 2.161881e+01 2.128522e+01 2.393501e+01 1.630632e+01 1.199823e+00 1.242508e+00 1.353181e+00 1.665371e+00 2.266284e+00 2.361359e+00 2.286528e+00 2.270138e+00 2.301417e+00 2.251276e+00 2.078571e+00 1.866008e+00 1.009953e-06
<GCONST> 7.511761e+01
<MIXTURE> 6 5.475854e-03
<MEAN> 25
 9.811620e+00 -6.624586e-01 -6.694622e+00 -1.043143e+01 -2.371846e+00 6.588325e+00 -4.766323e+00 -5.295611e+00 -4.117530e+00 1.728370e+00 4.235713e+00 -1.399149e+00 4.757074e-01 8.564671e-01 -3.968561e-01 -1.561764e+00 -6.311954e-01 1.293786e+00 1.381367e+00 3.225757e-01 -1.113291e+00 -1.191481e+00 4.129208e-01 1.120620e+00 -5.039021e-03
<VARIANCE> 25
 8.710201e+00 1.634534e+01 2.281407e+01 4.222119e+01 3.457559e+01 2.846882e+01 5.281939e+01 3.497926e+01 4.129595e+01 3.703905e+01 4.141983e+01 2.645262e+01 2.934825e-01 8.047457e-01 9.029406e-01 1.951890e+00 1.703925e+00 1.988596e+00 2.162633e+00 2.114115e+00 2.400085e+00 1.801376e+00 2.381785e+00 1.434462e+00 6.640115e-04
<GCONST> 8.376045e+01
<MIXTURE> 7 5.475854e-03
<MEAN> 25
 9.811620e+00 -6.624586e-01 -6.694622e+00 -1.043143e+01 -2.371846e+00 6.588325e+00 -4.766323e+00 -5.295611e+00 -4.117530e+00 1.728370e+00 4.235713e+00 -1.399149e+00 4.757074e-01 8.564671e-01 -3.968561e-01 -1.561764e+00 -6.311954e-01 1.293786e+00 1.381367e+00 3.225757e-01 -1.113291e+00 -1.191481e+00 4.129208e-01 1.120620e+00 -5.039021e-03
<VARIANCE> 25
 8.710201e+00 1.634534e+01 2.281407e+01 4.222119e+01 3.457559e+01 2.846882e+01 5.281939e+01 3.497926e+01 4.129595e+01 3.703905e+01 4.141983e+01 2.645262e+01 2.934825e-01 8.047457e-01 9.029406e-01 1.951890e+00 1.703925e+00 1.988596e+00 2.162633e+00 2.114115e+00 2.400085e+00 1.801376e+00 2.381785e+00 1.434462e+00 6.640115e-04
<GCONST> 8.376045e+01
<MIXTURE> 8 1.165917e-02
<MEAN> 25
 -4.843365e+00 2.122990e+00 8.331895e-01 8.947319e+00 6.461556e+00 6.197811e+00 6.725865e+00 4.645996e+00 6.947679e+00 5.096982e+00 6.414438e+00 3.220218e+00 -6.327896e-01 -1.367796e+00 -8.236803e-01 -1.695520e+00 -2.561999e-01 -1.142366e+00 7.731020e-02 -1.748982e-01 -1.964525e-01 -7.406245e-02 -1.911980e-01 1.251677e-01 9.087956e-02
<VARIANCE> 25
 8.249062e+00 1.162345e+01 1.105082e+01 1.551091e+01 1.460751e+01 1.493861e+01 1.997867e+01 2.109881e+01 1.515639e+01 1.672931e+01 1.658616e+01 1.225257e+01 2.471008e+00 2.720165e+00 3.795563e+00 3.344205e+00 3.116667e+00 3.478695e+00 3.623010e+00 2.839144e+00 2.519235e+00 2.413709e+00 2.245282e+00 1.709034e+00 6.137894e-03
<GCONST> 8.515057e+01
<MIXTURE> 9 1.199672e-02
<MEAN> 25
 9.590646e+00 2.425985e+00 -6.115229e+00 -9.820541e+00 -2.714739e+00 4.667312e+00 -6.528328e-01 -3.027951e+00 -6.037109e+00 -6.456611e-01 1.866836e-01 -7.421979e-01 1.346837e+00 -4.317177e-02 -6.208133e-01 -2.807198e+00 -1.496401e+00 7.707347e-01 -9.731318e-01 -4.595869e-03 1.166286e-01 -6.699912e-01 8.221569e-01 -2.307128e-01 6.823207e-02
<VARIANCE> 25
 1.068963e+01 2.205512e+01 2.828443e+01 5.047550e+01 4.307860e+01 2.761457e+01 4.610015e+01 4.629270e+01 3.699430e+01 3.648070e+01 3.156550e+01 2.516773e+01 1.800269e+00 2.091600e+00 3.909652e+00 4.124768e+00 4.382064e+00 3.437557e+00 3.585692e+00 5.286875e+00 4.824568e+00 3.439796e+00 3.737590e+00 2.368142e+00 1.954048e-03
<GCONST> 9.581851e+01
<MIXTURE> 10 6.596976e-03
<MEAN> 25
 7.653058e-01 7.568694e+00 5.227881e+00 7.250770e+00 1.688482e+00 -2.223026e+00 -5.600749e-01 -1.826996e+00 7.551493e-01 6.205197e-01 7.614581e-01 6.098874e-01 -1.916057e+00 -5.609413e-01 -3.986961e-01 2.956778e+00 2.329337e+00 2.680195e+00 2.380995e+00 2.191379e+00 1.841787e+00 1.441695e+00 2.308405e+00 5.154957e-01 -1.373350e-01
<VARIANCE> 25
 1.901216e+01 2.029779e+01 2.236318e+01 2.855133e+01 3.831334e+01 3.432594e+01 3.436972e+01 3.360225e+01 2.729204e+01 3.013394e+01 2.703755e+01 2.453875e+01 2.204359e+00 3.661316e+00 5.472782e+00 5.155929e+00 5.868829e+00 4.427870e+00 4.554786e+00 4.924448e+00 4.290436e+00 5.237863e+00 4.346510e+00 3.115829e+00 2.643166e-03
<GCONST> 9.738339e+01
<MIXTURE> 11 1.633820e-02
<MEAN> 25
 7.451550e+00 3.344663e+00 3.132332e+00 5.413984e+00 -4.853526e+00 -2.247139e+00 -8.610146e-01 -7.144142e+00 -4.508720e+00 8.636189e-01 -3.203614e+00 -1.009410e+00 -2.335009e-01 4.655785e-01 1.242823e-01 2.185253e-01 6.409341e-01 -6.841559e-02 4.317470e-01 -4.394505e-01 -6.892734e-02 -1.437065e-02 -1.645478e-01 1.220094e-01 -1.726908e-02
<VARIANCE> 25
 8.503635e+00 2.620425e+01 1.981522e+01 2.853049e+01 3.667905e+01 3.865659e+01 5.701837e+01 5.457841e+01 3.983551e+01 2.906776e+01 2.625538e+01 2.337914e+01 7.919000e-01 1.173333e+00 1.482759e+00 2.235321e+00 2.034120e+00 2.391812e+00 2.051686e+00 3.554961e+00 2.333380e+00 1.812614e+00 1.470971e+00 1.329391e+00 9.866429e-04
<GCONST> 8.635028e+01
<MIXTURE> 12 5.904134e-03
<MEAN> 25
 1.077071e+01 3.680048e+00 -4.534542e+00 -1.592465e+01 -8.676023e+00 8.592435e+00 -8.473622e-01 -1.919128e+00 -1.779786e+00 -4.840004e+00 1.785643e+00 6.685199e-01 6.713085e-02 2.958860e-01 6.609807e-02 -3.854517e-01 -2.972251e-01 3.375126e-02 2.910873e-01 4.612561e-01 1.325844e-01 -3.850050e-01 -3.581056e-01 5.296826e-02 -5.926698e-03
<VARIANCE> 25
 8.832381e+00 2.117987e+01 2.334521e+01 3.526138e+01 4.175188e+01 3.090670e+01 4.181531e+01 4.860514e+01 4.408287e+01 3.721120e+01 3.775588e+01 2.888279e+01 2.456504e-01 6.818451e-01 6.958016e-01 1.192583e+00 1.196536e+00 1.044807e+00 1.192051e+00 1.395423e+00 1.240275e+00 1.214367e+00 1.295270e+00 9.475111e-01 5.870313e-04
<GCONST> 7.900105e+01
<MIXTURE> 13 5.904134e-03
<MEAN> 25
 1.077071e+01 3.680048e+00 -4.534542e+00 -1.592465e+01 -8.676023e+00 8.592435e+00 -8.473622e-01 -1.919128e+00 -1.779786e+00 -4.840004e+00 1.785643e+00 6.685199e-01 6.713085e-02 2.958860e-01 6.609807e-02 -3.854517e-01 -2.972251e-01 3.375126e-02 2.910873e-01 4.612561e-01 1.325844e-01 -3.850050e-01 -3.581056e-01 5.296826e-02 -5.926698e-03
<VARIANCE> 25
 8.832381e+00 2.117987e+01 2.334521e+01 3.526138e+01 4.175188e+01 3.090670e+01 4.181531e+01 4.860514e+01 4.408287e+01 3.721120e+01 3.775588e+01 2.888279e+01 2.456504e-01 6.818451e-01 6.958016e-01 1.192583e+00 1.196536e+00 1.044807e+00 1.192051e+00 1.395423e+00 1.240275e+00 1.214367e+00 1.295270e+00 9.475111e-01 5.870313e-04
<GCONST> 7.900105e+01
<MIXTURE> 14 6.488954e-03
<MEAN> 25
 -4.442526e+00 6.385518e-01 -1.092994e+00 8.377715e+00 7.135949e+00 6.948487e+00 8.400495e+00 6.035734e+00 7.419867e+00 3.960271e+00 6.507145e+00 4.090574e+00 -1.998507e-01 2.416707e-01 3.652945e-01 1.577860e-01 -8.471557e-02 3.218470e-04 -8.745909e-03 1.203797e-01 2.035460e-01 3.627195e-01 4.552709e-01 2.290178e-02 -7.867785e-03
<VARIANCE> 25
 7.874796e+00 1.408354e+01 1.837424e+01 1.457516e+01 1.752299e+01 1.740485e+01 1.857635e+01 2.370116e+01 1.594832e+01 2.462311e+01 1.789515e+01 1.294860e+01 8.457827e-01 1.883720e+00 1.653113e+00 1.873174e+00 2.125478e+00 2.010806e+00 2.032024e+00 2.238245e+00 1.971233e+00 2.127135e+00 1.928661e+00 1.463319e+00 8.811796e-04
<GCONST> 7.947212e+01
<MIXTURE> 15 2.475190e-03
<MEAN> 25
 -5.430801e+00 -5.026273e-01 -2.360331e-01 7.304263e+00 5.767774e+00 5.712572e+00 6.144506e+00 4.833187e+00 5.206110e+00 4.102017e+00 5.469156e+00 2.601994e+00 -1.215010e-01 -2.898198e-02 7.999981e-02 2.475674e-01 4.599475e-01 7.656577e-01 1.065781e+00 1.167058e+00 1.031108e+00 7.303135e-01 4.037025e-01 1.580835e-01 -2.598929e-05
<VARIANCE> 25
 6.872564e+00 6.583541e+00 9.166059e+00 1.298141e+01 1.404446e+01 1.442842e+01 1.487503e+01 1.573596e+01 1.410763e+01 1.407347e+01 1.484757e+01 1.239139e+01 1.221427e-01 2.095366e-01 3.298278e-01 5.018125e-01 7.243701e-01 7.928683e-01 7.537856e-01 7.982327e-01 9.170721e-01 1.028656e+00 1.063519e+00 1.022021e+00 2.796670e-05
<GCONST> 5.882482e+01
<MIXTURE> 16 2.475190e-03
<MEAN> 25
 -5.430801e+00 -5.026273e-01 -2.360331e-01 7.304263e+00 5.767774e+00 5.712572e+00 6.144506e+00 4.833187e+00 5.206110e+00 4.102017e+00 5.469156e+00 2.601994e+00 -1.215010e-01 -2.898198e-02 7.999981e-02 2.475674e-01 4.599475e-01 7.656577e-01 1.065781e+00 1.167058e+00 1.031108e+00 7.303135e-01 4.037025e-01 1.580835e-01 -2.598929e-05
<VARIANCE> 25
 6.872564e+00 6.583541e+00 9.166059e+00 1.298141e+01 1.404446e+01 1.442842e+01 1.487503e+01 1.573596e+01 1.410763e+01 1.407347e+01 1.484757e+01 1.239139e+01 1.221427e-01 2.095366e-01 3.298278e-01 5.018125e-01 7.243701e-01 7.928683e-01 7.537856e-01 7.982327e-01 9.170721e-01 1.028656e+00 1.063519e+00 1.022021e+00 2.796670e-05
<GCONST> 5.882482e+01
<MIXTURE> 17 9.518312e-03
<MEAN> 25
 3.922930e+00 -3.262667e+00 7.039420e+00 3.283764e+00 -7.563054e+00 -6.252162e+00 -5.612639e+00 -9.608891e-01 -4.758338e+00 -3.842515e+00 5.768195e-01 -6.073731e-01 -3.776582e-01 -1.291945e+00 1.771492e+00 -1.898766e+00 -1.866903e+00 8.644556e-02 -1.109366e+00 1.201103e+00 -1.291049e+00 -9.091531e-02 1.047230e+00 5.008961e-02 8.228020e-02
<VARIANCE> 25
 9.331954e+00 3.280079e+01 2.835065e+01 3.840409e+01 5.989410e+01 4.058237e+01 6.801303e+01 3.331817e+01 3.052810e+01 2.083747e+01 2.486442e+01 3.521495e+01 1.296343e+00 2.269659e+00 3.253443e+00 4.396097e+00 3.906861e+00 4.616836e+00 6.859026e+00 5.778666e+00 4.514104e+00 3.259673e+00 3.423051e+00 4.231923e+00 1.899448e-03
<GCONST> 9.682327e+01
<MIXTURE> 18 1.221018e-02
<MEAN> 25
 3.210633e+00 2.984170e+00 5.506798e+00 4.558651e+00 -2.322726e+00 -9.406301e+00 -2.784051e+00 6.272870e-02 -4.422639e+00 -1.491043e+00 -1.443427e+00 5.952868e-01 -7.689990e-01 1.972690e+00 -1.038380e+00 1.794745e+00 3.106771e+00 1.522663e+00 1.159238e+00 -6.324814e-01 1.216101e+00 5.523610e-01 -8.127493e-01 -8.878022e-02 -1.169456e-01
<VARIANCE> 25
 1.331793e+01 2.550640e+01 3.426535e+01 2.323682e+01 4.619580e+01 3.053151e+01 4.134214e+01 3.847686e+01 3.950485e+01 3.105466e+01 3.017097e+01 2.312206e+01 2.018081e+00 2.576063e+00 5.669400e+00 3.029222e+00 4.308739e+00 3.750096e+00 3.892704e+00 4.453282e+00 5.176866e+00 3.887947e+00 5.039611e+00 3.051712e+00 3.606090e-03
<GCONST> 9.697523e+01
<MIXTURE> 19 9.912824e-03
<MEAN> 25
 -1.104750e+01 2.090112e+00 7.086242e-01 -1.041573e-01 4.135120e+00 1.688425e+00 3.840521e+00 2.662255e-01 2.730437e+00 1.239238e+00 1.123594e+00 2.100249e+00 2.170343e+00 1.686869e+00 1.999793e+00 5.688409e-01 -1.037714e+00 -1.182957e+00 -1.237407e+00 -1.437671e+00 -1.627251e+00 -1.104353e+00 -7.950422e-01 -9.282544e-01 -2.354233e-03
<VARIANCE> 25
 5.860458e+01 2.852097e+01 4.221898e+01 6.091460e+01 3.001920e+01 3.052171e+01 3.054811e+01 3.503586e+01 2.703641e+01 2.385520e+01 2.644853e+01 2.010146e+01 2.125797e+00 1.946299e+00 2.067962e+00 2.377528e+00 2.242180e+00 2.156968e+00 2.428517e+00 2.185306e+00 1.922282e+00 1.960607e+00 2.159209e+00 1.684293e+00 2.433205e-03
<GCONST> 9.061907e+01
<MIXTURE> 20 6.308331e-03
<MEAN> 25
 -1.479761e+01 7.404890e+00 1.752622e+00 4.628563e+00 4.359932e+00 8.621479e-01 4.909401e+00 4.292034e-01 1.178412e+00 2.252667e-02 1.725076e+00 -3.390206e-01 -3.415200e+00 -1.009310e+00 -1.616719e+00 2.415624e-01 1.523503e+00 1.893169e+00 1.899057e+00 1.767429e+00 2.198281e+00 1.921240e+00 1.562741e+00 9.800690e-01 4.928257e-02
<VARIANCE> 25
 2.071065e+01 2.149199e+01 3.131032e+01 4.500215e+01 2.801880e+01 2.751716e+01 2.651896e+01 2.895894e+01 2.458256e+01 3.009707e+01 2.592377e+01 1.867306e+01 2.036028e+00 2.060903e+00 1.678677e+00 2.303124e+00 2.340198e+00 2.153282e+00 2.200003e+00 2.465127e+00 1.978137e+00 2.373434e+00 2.079028e+00 1.649122e+00 1.653836e-03
<GCONST> 8.784437e+01
<MIXTURE> 21 7.928653e-03
<MEAN> 25
 4.375019e+00 -4.764739e+00 5.673792e+00 -8.652623e-01 -1.080337e+01 -8.209795e+00 -4.546274e+00 4.062636e+00 -3.327866e+00 -2.784985e+00 5.487290e-01 3.964821e-02 -7.647657e-01 1.291696e+00 2.829434e+00 1.862451e-02 -1.737380e+00 3.595200e-01 8.681716e-01 -1.526828e+00 -1.763407e+00 3.365842e-02 1.007265e+00 3.997878e-01 -1.518488e-02
<VARIANCE> 25
 7.360429e+00 1.543141e+01 3.089297e+01 3.764336e+01 2.819586e+01 3.394806e+01 4.121409e+01 3.384971e+01 5.804949e+01 2.643701e+01 3.086295e+01 1.920242e+01 5.180869e-01 8.216066e-01 2.197328e+00 1.513889e+00 2.588070e+00 2.123192e+00 4.625018e+00 2.618224e+00 1.814952e+00 2.469076e+00 1.830845e+00 2.100839e+00 3.979184e-04
<GCONST> 8.512688e+01
<MIXTURE> 22 8.827789e-03
<MEAN> 25
 -1.786373e+01 7.129674e+00 -4.088918e+00 7.356874e+00 4.616356e+00 2.725624e+00 8.450515e+00 1.749319e+00 5.396584e+00 3.257188e+00 5.706625e+00 1.223184e+00 -3.094377e-01 -2.169256e-01 -1.174637e-01 -1.489492e-01 -1.095336e-02 1.220500e-01 1.794497e-01 1.903415e-01 2.432012e-01 2.028597e-01 1.773347e-01 1.975703e-01 8.952042e-03
<VARIANCE> 25
 8.535825e+00 1.678112e+01 1.750283e+01 2.527901e+01 2.284044e+01 2.098312e+01 1.968395e+01 1.863146e+01 1.813001e+01 2.098665e+01 1.912403e+01 1.389523e+01 1.083714e+00 1.361085e+00 1.363951e+00 1.560666e+00 1.403544e+00 1.550620e+00 1.507658e+00 1.546347e+00 1.607047e+00 1.537475e+00 1.351461e+00 1.175344e+00 1.734595e-03
<GCONST> 7.838322e+01
<MIXTURE> 23 6.455497e-03
<MEAN> 25
 7.819376e+00 2.127362e+00 2.996727e+00 2.271545e+00 -5.086362e+00 -3.215236e+00 -4.509149e+00 -6.092210e+00 -3.377944e+00 -8.701653e-01 -4.117083e+00 -1.840496e+00 2.944264e-02 2.020207e-01 1.948187e-02 3.436097e-02 1.361523e-02 4.926629e-02 1.503919e-03 -7.033446e-02 3.247716e-02 3.555883e-02 3.612187e-03 5.306405e-02 -4.924039e-03
<VARIANCE> 25
 1.022699e+01 2.257121e+01 2.332280e+01 4.043615e+01 3.801959e+01 5.129378e+01 5.712064e+01 5.578178e+01 4.858810e+01 4.439573e+01 4.568988e+01 3.911073e+01 1.168936e-01 2.907101e-01 3.862429e-01 4.809189e-01 6.032040e-01 6.747041e-01 7.610880e-01 8.956522e-01 1.019069e+00 8.415617e-01 8.033657e-01 7.144845e-01 9.238661e-05
<GCONST> 7.269914e+01
<MIXTURE> 24 6.455497e-03
<MEAN> 25
 7.819376e+00 2.127362e+00 2.996727e+00 2.271545e+00 -5.086362e+00 -3.215236e+00 -4.509149e+00 -6.092210e+00 -3.377944e+00 -8.701653e-01 -4.117083e+00 -1.840496e+00 2.944264e-02 2.020207e-01 1.948187e-02 3.436097e-02 1.361523e-02 4.926629e-02 1.503919e-03 -7.033446e-02 3.247716e-02 3.555883e-02 3.612187e-03 5.306405e-02 -4.924039e-03
<VARIANCE> 25
 1.022699e+01 2.257121e+01 2.332280e+01 4.043615e+01 3.801959e+01 5.129378e+01 5.712064e+01 5.578178e+01 4.858810e+01 4.439573e+01 4.568988e+01 3.911073e+01 1.168936e-01 2.907101e-01 3.862429e-01 4.809189e-01 6.032040e-01 6.747041e-01 7.610880e-01 8.956522e-01 1.019069e+00 8.415617e-01 8.033657e-01 7.144845e-01 9.238661e-05
<GCONST> 7.269914e+01
<MIXTURE> 25 1.118642e-02
<MEAN> 25
 5.860364e-02 -7.024025e-01 1.770179e+01 -4.180162e+00 -1.085431e+01 -2.162371e+00 -9.313806e+00 -1.882007e+00 -9.822836e+00 -7.277734e+00 4.766326e+00 -3.708977e+00 -7.851047e-02 3.771399e-01 -1.453159e-01 -2.595347e-01 7.945263e-02 -2.007785e-01 5.652313e-01 1.359686e-01 2.925735e-01 2.185780e-01 -1.283797e-01 1.180509e-01 -7.660887e-03
<VARIANCE> 25
 4.303843e+00 2.395696e+01 2.034055e+01 2.084646e+01 2.117642e+01 2.108620e+01 2.077232e+01 2.057627e+01 1.760291e+01 4.261840e+01 1.228392e+01 2.123360e+01 4.556542e-01 1.473769e+00 1.402182e+00 1.494890e+00 2.391405e+00 2.473254e+00 1.684841e+00 9.696736e-01 1.123245e+00 2.876701e+00 9.287552e-01 1.610209e+00 9.602351e-04
<GCONST> 7.821315e+01
<MIXTURE> 26 7.727677e-03
<MEAN> 25
 2.269495e+00 -6.111355e+00 -1.050569e+01 -1.128446e+00 7.878351e+00 5.606215e+00 3.936038e+00 -2.948892e-01 2.191771e+00 -2.274899e-01 -2.970743e+00 -1.292834e+00 -6.638257e-01 6.915510e-01 3.758093e-01 8.074990e-01 1.563908e-01 1.619601e-01 3.590093e-01 2.739049e-01 3.902896e-01 1.098485e-01 4.713462e-01 4.598606e-01 -5.616555e-02
<VARIANCE> 25
 2.347665e+01 3.534567e+01 2.416117e+01 6.284579e+01 3.674441e+01 4.067153e+01 4.323964e+01 4.089965e+01 4.185136e+01 5.681030e+01 4.272765e+01 4.463747e+01 1.521730e+00 1.880496e+00 1.785139e+00 2.022482e+00 2.259901e+00 2.286978e+00 2.661237e+00 2.609383e+00 2.390620e+00 2.212408e+00 2.982326e+00 1.876202e+00 3.278739e-03
<GCONST> 9.369115e+01
<MIXTURE> 27 7.727677e-03
<MEAN> 25
 2.269495e+00 -6.111355e+00 -1.050569e+01 -1.128446e+00 7.878351e+00 5.606215e+00 3.936038e+00 -2.948892e-01 2.191771e+00 -2.274899e-01 -2.970743e+00 -1.292834e+00 -6.638257e-01 6.915510e-01 3.758093e-01 8.074990e-01 1.563908e-01 1.619601e-01 3.590093e-01 2.739049e-01 3.902896e-01 1.098485e-01 4.713462e-01 4.598606e-01 -5.616555e-02
<VARIANCE> 25
 2.347665e+01 3.534567e+01 2.416117e+01 6.284579e+01 3.674441e+01 4.067153e+01 4.323964e+01 4.089965e+01 4.185136e+01 5.681030e+01 4.272765e+01 4.463747e+01 1.521730e+00 1.880496e+00 1.785139e+00 2.022482e+00 2.259901e+00 2.286978e+00 2.661237e+00 2.609383e+00 2.390620e+00 2.212408e+00 2.982326e+00 1.876202e+00 3.278739e-03
<GCONST> 9.369115e+01
<MIXTURE> 28 5.036674e-03
<MEAN> 25
 -5.176633e+00 6.875302e-01 -2.103197e+00 6.428677e+00 5.573779e+00 3.929425e+00 5.624822e+00 2.695013e+00 4.653283e+00 2.161064e+00 2.850261e+00 3.368233e+00 -1.622949e-01 1.857902e-01 5.231869e-01 7.391489e-01 8.014244e-01 6.800244e-01 5.185428e-01 3.110352e-01 3.667157e-01 3.838849e-01 3.259342e-01 1.886338e-01 -1.532440e-06
<VARIANCE> 25
 9.762660e+00 1.056045e+01 1.334515e+01 1.357660e+01 1.382558e+01 1.676161e+01 1.679429e+01 1.900235e+01 1.909581e+01 1.648905e+01 1.905702e+01 1.427218e+01 2.411156e-01 3.514386e-01 3.673311e-01 4.875201e-01 5.650728e-01 7.893137e-01 9.726053e-01 1.235197e+00 1.079636e+00 1.076049e+00 9.882073e-01 9.762354e-01 1.264230e-06
<GCONST> 6.007214e+01
<MIXTURE> 29 5.036674e-03
<MEAN> 25
 -5.176633e+00 6.875302e-01 -2.103197e+00 6.428677e+00 5.573779e+00 3.929425e+00 5.624822e+00 2.695013e+00 4.653283e+00 2.161064e+00 2.850261e+00 3.368233e+00 -1.622949e-01 1.857902e-01 5.231869e-01 7.391489e-01 8.014244e-01 6.800244e-01 5.185428e-01 3.110352e-01 3.667157e-01 3.838849e-01 3.259342e-01 1.886338e-01 -1.532440e-06
<VARIANCE> 25
 9.762660e+00 1.056045e+01 1.334515e+01 1.357660e+01 1.382558e+01 1.676161e+01 1.679429e+01 1.900235e+01 1.909581e+01 1.648905e+01 1.905702e+01 1.427218e+01 2.411156e-01 3.514386e-01 3.673311e-01 4.875201e-01 5.650728e-01 7.893137e-01 9.726053e-01 1.235197e+00 1.079636e+00 1.076049e+00 9.882073e-01 9.762354e-01 1.264230e-06
<GCONST> 6.007214e+01
<MIXTURE> 30 8.917812e-03
<MEAN> 25
 -4.595232e+00 3.459607e+00 -1.451101e+00 7.284107e+00 7.695188e+00 7.679182e+00 7.887182e+00 2.448603e+00 7.532722e+00 1.707715e+00 5.533806e+00 3.986476e+00 -2.946485e-02 8.464042e-02 4.316187e-02 1.420820e-01 -6.288721e-02 4.342666e-02 -1.601301e-02 6.670874e-02 3.943920e-02 7.189417e-02 4.291664e-02 5.278728e-02 -7.678401e-04
<VARIANCE> 25
 3.296448e+00 1.151701e+01 8.641924e+00 9.292497e+00 9.969306e+00 1.007589e+01 1.079218e+01 1.714281e+01 1.049831e+01 1.836981e+01 1.508352e+01 9.026935e+00 8.518898e-02 1.970026e-01 2.734927e-01 3.953821e-01 5.948241e-01 5.227420e-01 8.033673e-01 7.635838e-01 7.166019e-01 6.820697e-01 7.986145e-01 5.762775e-01 3.509232e-05
<GCONST> 5.425716e+01
<MIXTURE> 31 4.136493e-03
<MEAN> 25
 -3.346970e+00 -5.360838e+00 -5.101441e-02 4.901343e+00 3.725189e+00 1.767143e+00 5.449530e+00 6.522217e+00 2.958230e+00 1.140470e+00 6.433725e+00 3.213807e+00 2.461936e-01 4.882844e-01 -2.087205e-01 2.977552e-01 1.157675e-01 4.385585e-01 1.966188e-01 -1.456108e-02 3.692684e-01 3.537419e-01 8.883949e-02 1.219698e-01 -1.809978e-02
<VARIANCE> 25
 7.017681e+00 1.765998e+01 1.754062e+01 1.749504e+01 2.470223e+01 2.366977e+01 2.447567e+01 2.558758e+01 2.658243e+01 2.760329e+01 2.011580e+01 1.831712e+01 1.893711e-01 4.997347e-01 6.014254e-01 7.875033e-01 9.579181e-01 1.109339e+00 1.243995e+00 1.407006e+00 1.332396e+00 1.336503e+00 1.249204e+00 1.109583e+00 2.506263e-04
<GCONST> 7.193896e+01
<MIXTURE> 32 4.136493e-03
<MEAN> 25
 -3.346970e+00 -5.360838e+00 -5.101441e-02 4.901343e+00 3.725189e+00 1.767143e+00 5.449530e+00 6.522217e+00 2.958230e+00 1.140470e+00 6.433725e+00 3.213807e+00 2.461936e-01 4.882844e-01 -2.087205e-01 2.977552e-01 1.157675e-01 4.385585e-01 1.966188e-01 -1.456108e-02 3.692684e-01 3.537419e-01 8.883949e-02 1.219698e-01 -1.809978e-02
<VARIANCE> 25
 7.017681e+00 1.765998e+01 1.754062e+01 1.749504e+01 2.470223e+01 2.366977e+01 2.447567e+01 2.558758e+01 2.658243e+01 2.760329e+01 2.011580e+01 1.831712e+01 1.893711e-01 4.997347e-01 6.014254e-01 7.875033e-01 9.579181e-01 1.109339e+00 1.243995e+00 1.407006e+00 1.332396e+00 1.336503e+00 1.249204e+00 1.109583e+00 2.506263e-04
<GCONST> 7.193896e+01
<MIXTURE> 33 1.508826e-02
<MEAN> 25
 6.070442e+00 -3.562186e+00 -3.334331e+00 -2.419806e+00 -1.388714e+00 -5.953782e+00 -6.439306e+00 3.548432e+00 4.947525e-01 2.779593e+00 -5.712312e+00 -3.440260e+00 5.880013e-01 -1.419239e+00 -2.309356e+00 -2.263988e+00 1.018561e+00 1.097666e+00 -8.569133e-01 1.343936e+00 1.065043e+00 8.675519e-01 -9.688741e-01 -1.565026e+00 4.944298e-02
<VARIANCE> 25
 8.677718e+00 1.995624e+01 2.175567e+01 2.654864e+01 3.804583e+01 3.074088e+01 4.725014e+01 4.428419e+01 3.276501e+01 3.500269e+01 2.542951e+01 2.219306e+01 8.928844e-01 1.738762e+00 1.448875e+00 1.794389e+00 3.296239e+00 2.773437e+00 3.324749e+00 5.566928e+00 3.053724e+00 2.672718e+00 2.546604e+00 1.965077e+00 1.202132e-03
<GCONST> 8.906355e+01
<MIXTURE> 34 1.588179e-02
<MEAN> 25
 8.419876e+00 -1.712419e+00 1.445633e-01 3.587569e+00 -4.731408e+00 -2.831093e+00 -5.222509e+00 -5.359605e+00 -2.614766e+00 -6.036291e-01 -1.996428e+00 -2.095068e+00 2.442861e-02 1.092067e+00 8.828679e-01 2.179657e+00 -2.217939e-01 7.069600e-01 2.143021e+00 -2.446532e+00 -6.465389e-01 2.873599e-01 -7.583802e-01 6.037465e-01 -5.961970e-02
<VARIANCE> 25
 5.652405e+00 2.873465e+01 2.826542e+01 5.750328e+01 7.159869e+01 4.476416e+01 4.936676e+01 4.543742e+01 4.966139e+01 5.231089e+01 3.397267e+01 3.089139e+01 1.054072e+00 1.809707e+00 3.577702e+00 3.356384e+00 5.216752e+00 5.947748e+00 6.384263e+00 5.388968e+00 4.966006e+00 3.480451e+00 3.953490e+00 3.348083e+00 1.019645e-03
<GCONST> 9.768612e+01
<MIXTURE> 35 1.467755e-02
<MEAN> 25
 -1.813172e+00 -5.693570e+00 -9.594642e+00 -3.209687e-01 1.015615e+01 -6.129974e-01 1.854096e+00 2.464566e+00 1.873483e-01 5.108410e+00 -1.540058e+00 1.044244e+00 7.596983e-01 -1.457966e+00 -1.463550e+00 -1.111797e+00 6.079347e-01 -1.041956e+00 -1.132719e+00 -4.302301e-03 -6.984715e-01 1.474942e-01 -6.989962e-01 -8.645356e-01 1.107027e-01
<VARIANCE> 25
 1.548715e+01 2.776957e+01 4.362613e+01 4.924027e+01 3.565359e+01 4.703258e+01 4.489813e+01 3.493429e+01 4.459915e+01 3.084072e+01 3.289490e+01 3.322865e+01 2.711495e+00 3.413340e+00 5.829397e+00 5.074423e+00 6.057695e+00 5.848840e+00 4.419896e+00 4.592785e+00 4.476634e+00 3.848613e+00 3.585476e+00 3.216963e+00 5.743790e-03
<GCONST> 1.010118e+02
<MIXTURE> 36 1.093293e-02
<MEAN> 25
 4.579188e+00 -3.331764e+00 7.057481e+00 2.532974e+00 -9.308246e+00 -8.844505e+00 -7.279325e+00 2.923088e+00 -4.422593e+00 -3.363082e+00 2.467601e+00 3.383019e-02 2.604608e-01 1.957440e-01 -1.070602e+00 1.399499e-01 1.019692e+00 -2.685276e-02 -4.552957e-01 1.832990e-01 6.116799e-01 4.356229e-01 -4.195636e-01 -1.381584e-01 -1.710756e-02
<VARIANCE> 25
 7.857073e+00 1.448338e+01 2.567473e+01 2.939927e+01 3.004798e+01 2.831469e+01 3.678380e+01 2.969661e+01 5.180935e+01 2.974477e+01 2.752746e+01 2.206699e+01 4.303564e-01 7.491525e-01 1.765979e+00 1.727252e+00 1.858191e+00 1.424532e+00 2.273525e+00 1.735632e+00 2.256011e+00 1.624144e+00 1.315083e+00 1.389970e+00 7.572814e-04
<GCONST> 8.184500e+01
<MIXTURE> 37 1.246826e-02
<MEAN> 25
 5.922675e-01 7.467069e+00 1.207094e+01 -5.522795e+00 -8.093131e+00 -1.193909e+00 -5.216968e+00 -8.016031e+00 -3.811895e+00 -9.854175e-01 -3.421835e+00 -1.179882e+00 1.743788e-01 6.425866e-01 -1.396830e+00 3.519135e+00 1.940268e+00 -2.636069e-01 1.134328e+00 3.919246e-01 6.060870e-01 -2.712242e-01 4.814188e-01 -6.817869e-02 -9.351910e-02
<VARIANCE> 25
 1.551626e+01 2.746326e+01 3.040695e+01 4.932095e+01 3.314297e+01 3.147898e+01 4.307156e+01 3.645761e+01 3.803518e+01 3.507175e+01 3.794025e+01 3.068083e+01 2.914516e+00 3.497284e+00 2.979759e+00 4.075981e+00 4.605922e+00 3.697306e+00 4.166191e+00 3.872705e+00 3.524751e+00 3.629375e+00 3.859030e+00 2.726566e+00 3.850960e-03
<GCONST> 9.765685e+01
<MIXTURE> 38 1.154525e-02
<MEAN> 25
 -4.949919e+00 9.367964e+00 4.014445e+00 1.831066e+00 1.042655e+00 -5.331714e+00 -1.154245e+00 -3.471824e+00 -2.057313e+00 -3.762445e+00 -2.019480e+00 -6.032310e-01 -4.479374e+00 1.839072e+00 -6.960830e-01 1.279649e+00 2.494216e+00 1.196454e+00 2.008492e+00 1.436470e-02 1.355943e+00 4.180925e-02 6.529511e-01 5.901629e-01 3.947866e-02
<VARIANCE> 25
 2.580064e+01 2.624758e+01 5.955839e+01 3.532548e+01 4.030450e+01 3.121034e+01 2.974614e+01 3.530222e+01 3.445933e+01 3.246156e+01 1.912697e+01 2.261086e+01 1.920445e+00 4.098300e+00 4.178426e+00 3.928956e+00 3.192559e+00 3.743290e+00 4.835046e+00 5.492822e+00 4.027193e+00 5.267985e+00 4.136173e+00 2.504004e+00 1.766435e-03
<GCONST> 9.697483e+01
<MIXTURE> 39 9.501865e-03
<MEAN> 25
 1.392534e+00 1.257116e+00 1.160368e+01 -7.572880e+00 -1.184674e+01 -1.475855e+00 -4.567305e+00 -5.002355e+00 -6.810925e+00 1.016463e-01 -1.707222e+00 -2.636646e+00 -7.759169e-01 1.593708e+00 1.739334e+00 -1.682028e+00 4.108826e-01 1.206962e+00 -8.040332e-01 -1.334262e+00 3.390606e-01 3.124257e-01 -6.141668e-01 1.083837e-01 -2.136458e-03
<VARIANCE> 25
 6.698386e+00 3.256112e+01 3.185211e+01 3.782951e+01 3.160133e+01 3.361868e+01 4.388651e+01 3.196205e+01 4.190067e+01 2.662096e+01 3.586648e+01 2.849511e+01 5.266808e-01 1.191370e+00 1.482676e+00 2.424067e+00 2.401798e+00 3.987893e+00 3.050152e+00 2.690110e+00 2.117696e+00 2.612319e+00 1.691272e+00 1.966936e+00 9.772183e-04
<GCONST> 8.774629e+01
<MIXTURE> 40 1.030800e-02
<MEAN> 25
 -6.957891e+00 3.924410e+00 -2.038576e+00 6.966005e+00 5.177753e+00 5.944764e+00 6.821185e+00 1.715790e+00 6.126278e+00 3.183015e+00 5.179844e+00 2.357600e+00 -1.961928e-01 -1.932457e-01 1.472474e-01 -4.765381e-02 -1.677558e-02 -7.809906e-02 9.668546e-02 3.894574e-02 -3.616545e-02 -6.427680e-03 1.922945e-02 -6.364369e-03 3.245319e-03
<VARIANCE> 25
 2.586984e+01 1.414946e+01 2.240287e+01 1.752236e+01 1.628668e+01 1.253020e+01 1.583722e+01 1.890405e+01 1.227393e+01 2.315238e+01 1.291992e+01 1.117864e+01 5.605798e-01 1.098350e+00 7.686568e-01 9.929944e-01 9.691961e-01 1.262786e+00 1.271427e+00 1.519347e+00 8.275239e-01 1.079014e+00 1.093515e+00 7.582447e-01 5.711463e-04
<GCONST> 7.180179e+01
<MIXTURE> 41 6.713375e-03
<MEAN> 25
 1.414543e+00 1.160394e+00 1.064071e+01 -6.173672e+00 -1.031324e+01 -4.095191e+00 -2.472505e+00 -4.958230e+00 -5.063169e+00 2.121295e+00 -1.778695e+00 -4.617065e-01 4.413514e-02 -8.562891e-01 1.759244e+00 -3.509244e+00 -2.292487e+00 -7.709270e-02 -7.097314e-01 -2.575922e-01 -1.000542e+00 1.113123e+00 -8.567201e-01 3.873609e-02 8.654112e-02
<VARIANCE> 25
 1.099026e+01 3.335682e+01 3.186697e+01 4.336842e+01 3.710123e+01 3.877124e+01 4.147998e+01 3.070968e+01 3.332245e+01 2.922215e+01 3.043858e+01 3.034805e+01 2.937148e+00 3.364772e+00 3.828061e+00 3.985432e+00 5.125098e+00 5.870279e+00 5.142267e+00 4.563812e+00 4.033686e+00 3.916839e+00 3.898468e+00 3.026907e+00 2.851177e-03
<GCONST> 9.815681e+01
<MIXTURE> 42 1.106211e-02
<MEAN> 25
 -1.160372e+00 4.638239e+00 2.067787e+00 3.234613e+00 7.840328e-01 -7.203218e+00 -2.134246e+00 -2.637461e+00 -7.623643e-01 -1.384260e+00 -2.154714e+00 5.472522e-01 3.504805e+00 -6.563273e-01 1.526698e+00 4.910781e-01 -2.989319e+00 -1.276757e+00 -2.540540e+00 -2.193145e-01 -1.381360e+00 -6.559702e-01 4.832209e-01 -1.258563e+00 1.833648e-02
<VARIANCE> 25
 2.796647e+01 2.330998e+01 5.336419e+01 2.360020e+01 3.768566e+01 3.445224e+01 3.467017e+01 2.880143e+01 2.875026e+01 3.031399e+01 1.873268e+01 1.394778e+01 3.014574e+00 4.339857e+00 5.313059e+00 4.312148e+00 6.819952e+00 4.383790e+00 6.267018e+00 5.347517e+00 3.942627e+00 6.811792e+00 3.703861e+00 3.299584e+00 4.038769e-03
<GCONST> 9.887068e+01
<MIXTURE> 43 7.108249e-03
<MEAN> 25
 3.529394e+00 -6.783639e+00 -2.216145e+00 -5.024207e+00 -7.909333e+00 -3.037605e+00 3.017654e+00 1.987324e+00 -3.748294e+00 -6.158900e+00 -4.750417e+00 -9.609463e-01 2.676934e-01 2.007241e+00 1.821113e+00 -1.082896e-02 -1.461285e+00 -6.479044e-01 -9.654835e-01 -9.308715e-01 9.318619e-01 1.224114e+00 5.506510e-01 8.899821e-03 -4.451670e-02
<VARIANCE> 25
 9.246648e+00 2.035366e+01 2.392494e+01 3.188980e+01 3.566375e+01 3.294816e+01 3.749067e+01 3.741367e+01 4.657090e+01 3.846946e+01 2.441682e+01 2.609650e+01 6.210904e-01 1.314097e+00 1.522562e+00 2.243802e+00 2.187679e+00 2.197886e+00 2.550911e+00 3.146614e+00 2.521579e+00 2.568079e+00 2.299400e+00 1.779246e+00 9.826982e-04
<GCONST> 8.711500e+01
<MIXTURE> 44 7.328289e-03
<MEAN> 25
 -1.770185e+01 1.709311e+00 3.631111e+00 -5.036888e+00 3.807178e+00 2.455771e+00 1.425387e+00 4.079020e-01 2.824833e+00 -2.217890e+00 1.000479e+00 1.882146e+00 -1.091931e-01 -3.566058e-02 1.414208e-01 1.042397e-01 -4.422521e-02 3.659820e-01 4.180556e-01 -9.128425e-02 3.630818e-01 4.320232e-01 1.650518e-01 -1.571119e-02 -1.911829e-04
<VARIANCE> 25
 3.944054e+01 2.037160e+01 2.560174e+01 2.809297e+01 2.222883e+01 2.310690e+01 2.374349e+01 2.968786e+01 2.456454e+01 2.703239e+01 2.240755e+01 1.400042e+01 9.613516e-01 1.177597e+00 1.076233e+00 1.132563e+00 1.634059e+00 1.346024e+00 1.228152e+00 1.315793e+00 1.422227e+00 1.902891e+00 1.232980e+00 1.032163e+00 1.012775e-03
<GCONST> 8.019223e+01
<MIXTURE> 45 1.364932e-02
<MEAN> 25
 -1.223427e+01 3.763702e+00 -1.016473e+00 2.709760e+00 5.655318e+00 2.436081e-02 5.412811e+00 2.523832e+00 3.701374e+00 1.926101e+00 2.358339e+00 2.777986e+00 -2.801277e+00 3.390503e-01 -4.228264e-01 -6.545825e-01 1.549934e-01 -2.024003e-01 5.642959e-01 1.670473e-01 -1.547524e-02 -4.166742e-02 2.853460e-01 1.736013e-01 1.146019e-01
<VARIANCE> 25
 3.505090e+01 2.885202e+01 2.972525e+01 3.353310e+01 2.997276e+01 2.711784e+01 3.575457e+01 2.639325e+01 2.498586e+01 2.198227e+01 2.634917e+01 1.487708e+01 2.469880e+00 3.395919e+00 2.748660e+00 2.675657e+00 2.496761e+00 3.103015e+00 2.384569e+00 2.269637e+00 2.058767e+00 2.005199e+00 1.876579e+00 1.585677e+00 4.055636e-03
<GCONST> 9.045922e+01
<MIXTURE> 46 9.336259e-03
<MEAN> 25
 -9.081753e+00 2.156502e+00 8.569464e-01 7.219306e+00 5.940236e+00 3.151546e+00 7.333994e+00 4.535892e+00 6.113407e+00 4.350221e+00 4.903553e+00 2.969051e+00 9.291680e-01 -2.996472e-03 2.322641e-02 1.048364e+00 7.930071e-01 8.527575e-01 3.371705e-01 5.707675e-01 4.504340e-01 4.991430e-01 7.445064e-01 5.921293e-01 -1.056718e-01
<VARIANCE> 25
 3.429176e+01 4.185078e+01 3.814159e+01 4.854734e+01 4.781715e+01 3.908183e+01 3.620451e+01 3.366780e+01 3.372215e+01 3.067449e+01 2.683960e+01 1.921640e+01 3.938518e+00 4.986269e+00 3.652879e+00 4.010478e+00 4.793955e+00 3.622733e+00 3.280541e+00 3.150923e+00 2.821492e+00 2.706487e+00 2.393997e+00 1.769539e+00 7.728144e-03
<GCONST> 9.803171e+01
<MIXTURE> 47 7.116147e-03
<MEAN> 25
 7.027069e+00 -7.615481e+00 -8.048203e+00 -7.553791e+00 1.674698e+00 1.454197e+00 -2.596825e+00 2.365611e+00 2.668783e+00 9.042233e-01 -7.015013e+00 -6.143576e+00 -2.129335e-01 -1.178649e+00 -6.533241e-01 -6.127384e-01 8.142388e-01 8.445187e-01 4.965197e-01 4.415944e-01 -6.192026e-02 -7.749052e-01 -3.564821e-01 -4.933183e-01 2.825561e-02
<VARIANCE> 25
 7.776458e+00 1.708843e+01 1.548082e+01 2.690268e+01 3.056291e+01 4.169657e+01 3.665868e+01 4.732439e+01 3.546308e+01 3.977439e+01 4.989783e+01 2.721094e+01 4.494196e-01 8.060459e-01 8.866498e-01 1.861254e+00 1.737094e+00 2.717561e+00 2.179132e+00 2.825449e+00 2.381192e+00 1.599650e+00 2.044546e+00 1.562253e+00 4.951686e-04
<GCONST> 8.368561e+01
<MIXTURE> 48 7.116147e-03
<MEAN> 25
 7.027069e+00 -7.615481e+00 -8.048203e+00 -7.553791e+00 1.674698e+00 1.454197e+00 -2.596825e+00 2.365611e+00 2.668783e+00 9.042233e-01 -7.015013e+00 -6.143576e+00 -2.129335e-01 -1.178649e+00 -6.533241e-01 -6.127384e-01 8.142388e-01 8.445187e-01 4.965197e-01 4.415944e-01 -6.192026e-02 -7.749052e-01 -3.564821e-01 -4.933183e-01 2.825561e-02
<VARIANCE> 25
 7.776458e+00 1.708843e+01 1.548082e+01 2.690268e+01 3.056291e+01 4.169657e+01 3.665868e+01 4.732439e+01 3.546308e+01 3.977439e+01 4.989783e+01 2.721094e+01 4.494196e-01 8.060459e-01 8.866498e-01 1.861254e+00 1.737094e+00 2.717561e+00 2.179132e+00 2.825449e+00 2.381192e+00 1.599650e+00 2.044546e+00 1.562253e+00 4.951686e-04
<GCONST> 8.368561e+01
<MIXTURE> 49 5.548473e-03
<MEAN> 25
 -4.773495e+00 2.054266e+00 -7.698832e-01 7.446377e+00 6.371672e+00 5.725403e+00 7.205737e+00 3.365538e+00 5.549322e+00 1.961463e+00 4.676739e+00 3.385136e+00 2.529258e-01 6.697674e-01 6.449032e-01 2.751903e-01 -8.875874e-02 -4.676718e-01 -8.790579e-01 -1.049587e+00 -7.360110e-01 -5.249858e-01 -4.105548e-01 -1.373305e-01 -9.287350e-04
<VARIANCE> 25
 7.147103e+00 1.273351e+01 1.219985e+01 1.448395e+01 1.171149e+01 1.375932e+01 1.688113e+01 2.262307e+01 1.434770e+01 2.215294e+01 1.674876e+01 1.114331e+01 2.427855e-01 2.639611e-01 3.010046e-01 6.047330e-01 7.684006e-01 8.177979e-01 8.343055e-01 1.095065e+00 1.049363e+00 1.244981e+00 1.035799e+00 9.552677e-01 1.656518e-05
<GCONST> 6.189297e+01
<MIXTURE> 50 6.234641e-03
<MEAN> 25
 -4.529483e+00 1.599833e+00 -1.475332e+00 6.156880e+00 4.366549e+00 2.921924e+00 4.239065e+00 1.292167e+00 3.401026e+00 7.918242e-01 2.542019e+00 3.006196e+00 7.467751e-02 1.324375e-01 2.036854e-02 -2.642159e-01 -4.753809e-01 -4.700918e-01 -4.626750e-01 -1.156615e-01 5.628944e-01 7.659538e-01 7.506691e-01 3.157734e-01 -1.264819e-04
<VARIANCE> 25
 8.558448e+00 1.641274e+01 1.193644e+01 1.276483e+01 1.399111e+01 1.759083e+01 1.723725e+01 1.858988e+01 1.816449e+01 1.621765e+01 1.872415e+01 1.320794e+01 1.229735e-01 2.031794e-01 3.486880e-01 4.923127e-01 5.234179e-01 7.047853e-01 9.006805e-01 1.059677e+00 1.002013e+00 7.951428e-01 8.130499e-01 1.025190e+00 1.331767e-06
<GCONST> 5.795602e+01
<MIXTURE> 51 6.234641e-03
<MEAN> 25
 -4.529483e+00 1.599833e+00 -1.475332e+00 6.156880e+00 4.366549e+00 2.921924e+00 4.239065e+00 1.292167e+00 3.401026e+00 7.918242e-01 2.542019e+00 3.006196e+00 7.467751e-02 1.324375e-01 2.036854e-02 -2.642159e-01 -4.753809e-01 -4.700918e-01 -4.626750e-01 -1.156615e-01 5.628944e-01 7.659538e-01 7.506691e-01 3.157734e-01 -1.264819e-04
<VARIANCE> 25
 8.558448e+00 1.641274e+01 1.193644e+01 1.276483e+01 1.399111e+01 1.759083e+01 1.723725e+01 1.858988e+01 1.816449e+01 1.621765e+01 1.872415e+01 1.320794e+01 1.229735e-01 2.031794e-01 3.486880e-01 4.923127e-01 5.234179e-01 7.047853e-01 9.006805e-01 1.059677e+00 1.002013e+00 7.951428e-01 8.130499e-01 1.025190e+00 1.331767e-06
<GCONST> 5.795602e+01
<MIXTURE> 52 6.367945e-03
<MEAN> 25
 1.029600e+01 1.730793e+00 -6.651844e+00 -1.423675e+01 -3.957593e+00 8.158356e+00 -2.209580e+00 -2.739256e+00 -5.236311e+00 -1.814588e+00 3.975164e+00 1.041872e-01 -3.795393e-01 -4.767610e-01 -7.789808e-02 9.556684e-01 1.397277e+00 -4.133292e-01 -8.558323e-01 -5.648661e-01 -2.831437e-02 1.303099e+00 5.430799e-01 -5.674418e-01 -1.126668e-02
<VARIANCE> 25
 8.391212e+00 1.887319e+01 2.372558e+01 3.416608e+01 4.126649e+01 2.822871e+01 4.357697e+01 4.413071e+01 4.254650e+01 4.161137e+01 3.839037e+01 2.927202e+01 3.988017e-01 1.361545e+00 1.214701e+00 2.800062e+00 2.081478e+00 1.995598e+00 3.133120e+00 2.622331e+00 2.820592e+00 2.509471e+00 2.444312e+00 2.034440e+00 1.421907e-03
<GCONST> 8.798395e+01
<MIXTURE> 53 6.367945e-03
<MEAN> 25
 1.029600e+01 1.730793e+00 -6.651844e+00 -1.423675e+01 -3.957593e+00 8.158356e+00 -2.209580e+00 -2.739256e+00 -5.236311e+00 -1.814588e+00 3.975164e+00 1.041872e-01 -3.795393e-01 -4.767610e-01 -7.789808e-02 9.556684e-01 1.397277e+00 -4.133292e-01 -8.558323e-01 -5.648661e-01 -2.831437e-02 1.303099e+00 5.430799e-01 -5.674418e-01 -1.126668e-02
<VARIANCE> 25
 8.391212e+00 1.887319e+01 2.372558e+01 3.416608e+01 4.126649e+01 2.822871e+01 4.357697e+01 4.413071e+01 4.254650e+01 4.161137e+01 3.839037e+01 2.927202e+01 3.988017e-01 1.361545e+00 1.214701e+00 2.800062e+00 2.081478e+00 1.995598e+00 3.133120e+00 2.622331e+00 2.820592e+00 2.509471e+00 2.444312e+00 2.034440e+00 1.421907e-03
<GCONST> 8.798395e+01
<MIXTURE> 54 7.368620e-03
<MEAN> 25
 -4.039838e+00 3.098388e+00 -1.620456e+00 7.171565e+00 6.615139e+00 6.010856e+00 5.930932e+00 2.295779e+00 5.739176e+00 2.423193e+00 5.134541e+00 2.960298e+00 -2.074249e-02 4.394909e-02 3.563761e-02 4.342542e-03 2.625124e-02 6.708893e-02 2.739520e-02 -5.084953e-02 3.096390e-02 1.194154e-01 2.716561e-02 -5.625923e-02 4.113966e-05
<VARIANCE> 25
 5.442831e+00 1.295677e+01 6.820547e+00 1.198058e+01 8.678303e+00 1.050928e+01 9.711934e+00 1.153124e+01 1.135707e+01 1.256480e+01 1.413826e+01 9.019232e+00 3.569099e-02 7.686722e-02 1.639365e-01 1.726659e-01 2.683161e-01 3.151873e-01 4.433020e-01 4.751675e-01 7.318810e-01 4.627070e-01 6.526530e-01 5.554884e-01 2.107996e-06
<GCONST> 4.498841e+01
<MIXTURE> 55 7.368620e-03
<MEAN> 25
 -4.039838e+00 3.098388e+00 -1.620456e+00 7.171565e+00 6.615139e+00 6.010856e+00 5.930932e+00 2.295779e+00 5.739176e+00 2.423193e+00 5.134541e+00 2.960298e+00 -2.074249e-02 4.394909e-02 3.563761e-02 4.342542e-03 2.625124e-02 6.708893e-02 2.739520e-02 -5.084953e-02 3.096390e-02 1.194154e-01 2.716561e-02 -5.625923e-02 4.113966e-05
<VARIANCE> 25
 5.442831e+00 1.295677e+01 6.820547e+00 1.198058e+01 8.678303e+00 1.050928e+01 9.711934e+00 1.153124e+01 1.135707e+01 1.256480e+01 1.413826e+01 9.019232e+00 3.569099e-02 7.686722e-02 1.639365e-01 1.726659e-01 2.683161e-01 3.151873e-01 4.433020e-01 4.751675e-01 7.318810e-01 4.627070e-01 6.526530e-01 5.554884e-01 2.107996e-06
<GCONST> 4.498841e+01
<MIXTURE> 56 6.132464e-03
<MEAN> 25
 6.966439e+00 -6.517796e+00 -1.011786e+01 -1.105063e+01 3.926486e+00 6.241555e+00 -2.563575e+00 -1.209017e+00 5.962014e-01 3.048084e+00 -4.393364e+00 -7.624348e+00 -1.402466e-03 2.619008e-02 -1.178563e-01 -8.194450e-02 3.307943e-01 1.038419e-01 1.711758e-01 -7.595204e-02 -1.945077e-01 -4.239143e-02 -1.149513e-01 1.500923e-01 -7.125109e-03
<VARIANCE> 25
 6.960552e+00 1.642083e+01 1.626263e+01 3.964601e+01 2.541700e+01 5.439239e+01 4.393058e+01 3.912545e+01 3.140325e+01 3.586721e+01 3.524684e+01 2.349147e+01 1.655313e-01 3.630120e-01 3.387304e-01 8.864267e-01 7.874510e-01 1.439160e+00 1.076504e+00 1.421164e+00 9.036826e-01 7.032828e-01 8.659655e-01 5.999593e-01 2.263746e-04
<GCONST> 7.261525e+01
<MIXTURE> 57 6.132464e-03
<MEAN> 25
 6.966439e+00 -6.517796e+00 -1.011786e+01 -1.105063e+01 3.926486e+00 6.241555e+00 -2.563575e+00 -1.209017e+00 5.962014e-01 3.048084e+00 -4.393364e+00 -7.624348e+00 -1.402466e-03 2.619008e-02 -1.178563e-01 -8.194450e-02 3.307943e-01 1.038419e-01 1.711758e-01 -7.595204e-02 -1.945077e-01 -4.239143e-02 -1.149513e-01 1.500923e-01 -7.125109e-03
<VARIANCE> 25
 6.960552e+00 1.642083e+01 1.626263e+01 3.964601e+01 2.541700e+01 5.439239e+01 4.393058e+01 3.912545e+01 3.140325e+01 3.586721e+01 3.524684e+01 2.349147e+01 1.655313e-01 3.630120e-01 3.387304e-01 8.864267e-01 7.874510e-01 1.439160e+00 1.076504e+00 1.421164e+00 9.036826e-01 7.032828e-01 8.659655e-01 5.999593e-01 2.263746e-04
<GCONST> 7.261525e+01
<MIXTURE> 58 6.172147e-03
<MEAN> 25
 3.107649e+00 -3.391124e+00 6.575519e+00 -5.330974e+00 -1.347168e+01 -5.073084e+00 -3.538074e-02 1.855176e+00 -2.344707e+00 1.711515e+00 -4.854451e-01 -3.474979e-01 -4.956378e-02 -2.217137e-02 -1.378265e-01 -2.035962e-01 1.083734e-01 1.040621e-01 4.215635e-01 4.072164e-01 -3.259322e-02 9.842013e-02 -2.084292e-01 -3.256876e-02 -2.037764e-03
<VARIANCE> 25
 7.492197e+00 1.226456e+01 2.301880e+01 2.164244e+01 1.927988e+01 3.947947e+01 3.669158e+01 3.099226e+01 3.320806e+01 2.522882e+01 2.271230e+01 1.744649e+01 3.104923e-01 7.457137e-01 6.732622e-01 9.875483e-01 8.092452e-01 1.034310e+00 1.623523e+00 1.626575e+00 9.205383e-01 9.958690e-01 9.160819e-01 8.184102e-01 6.912465e-04
<GCONST> 7.433244e+01
<MIXTURE> 59 6.172147e-03
<MEAN> 25
 3.107649e+00 -3.391124e+00 6.575519e+00 -5.330974e+00 -1.347168e+01 -5.073084e+00 -3.538074e-02 1.855176e+00 -2.344707e+00 1.711515e+00 -4.854451e-01 -3.474979e-01 -4.956378e-02 -2.217137e-02 -1.378265e-01 -2.035962e-01 1.083734e-01 1.040621e-01 4.215635e-01 4.072164e-01 -3.259322e-02 9.842013e-02 -2.084292e-01 -3.256876e-02 -2.037764e-03
<VARIANCE> 25
 7.492197e+00 1.226456e+01 2.301880e+01 2.164244e+01 1.927988e+01 3.947947e+01 3.669158e+01 3.099226e+01 3.320806e+01 2.522882e+01 2.271230e+01 1.744649e+01 3.104923e-01 7.457137e-01 6.732622e-01 9.875483e-01 8.092452e-01 1.034310e+00 1.623523e+00 1.626575e+00 9.205383e-01 9.958690e-01 9.160819e-01 8.184102e-01 6.912465e-04
<GCONST> 7.433244e+01
<MIXTURE> 60 4.479129e-03
<MEAN> 25
 -4.238320e+00 -5.736411e-01 -1.151997e+00 3.732976e+00 1.856097e+00 2.061023e+00 1.766739e+00 1.618920e+00 2.248330e+00 1.180215e+00 2.452048e+00 1.952012e+00 -3.435632e-02 6.803957e-02 1.029848e-01 1.386171e-01 1.125635e-01 1.232046e-01 1.883514e-01 3.178853e-01 5.187699e-01 6.529803e-01 5.464655e-01 3.114528e-01 -4.660377e-04
<VARIANCE> 25
 6.802935e+00 4.830392e+00 1.026505e+01 1.111712e+01 1.387234e+01 1.731568e+01 1.441352e+01 1.225914e+01 1.290908e+01 1.328554e+01 1.579755e+01 1.217574e+01 8.713648e-02 1.746098e-01 2.749962e-01 4.338102e-01 5.910487e-01 7.197056e-01 8.243866e-01 8.881325e-01 9.222324e-01 8.314703e-01 8.252993e-01 8.511864e-01 2.298281e-05
<GCONST> 5.645873e+01
<MIXTURE> 61 4.479129e-03
<MEAN> 25
 -4.238320e+00 -5.736411e-01 -1.151997e+00 3.732976e+00 1.856097e+00 2.061023e+00 1.766739e+00 1.618920e+00 2.248330e+00 1.180215e+00 2.452048e+00 1.952012e+00 -3.435632e-02 6.803957e-02 1.029848e-01 1.386171e-01 1.125635e-01 1.232046e-01 1.883514e-01 3.178853e-01 5.187699e-01 6.529803e-01 5.464655e-01 3.114528e-01 -4.660377e-04
<VARIANCE> 25
 6.802935e+00 4.830392e+00 1.026505e+01 1.111712e+01 1.387234e+01 1.731568e+01 1.441352e+01 1.225914e+01 1.290908e+01 1.328554e+01 1.579755e+01 1.217574e+01 8.713648e-02 1.746098e-01 2.749962e-01 4.338102e-01 5.910487e-01 7.197056e-01 8.243866e-01 8.881325e-01 9.222324e-01 8.314703e-01 8.252993e-01 8.511864e-01 2.298281e-05
<GCONST> 5.645873e+01
<MIXTURE> 62 3.278034e-03
<MEAN> 25
 -5.089446e+00 1.264384e+00 1.015008e+00 8.810328e+00 6.130455e+00 5.053201e+00 5.511331e+00 4.014155e+00 4.988302e+00 3.905858e+00 4.966676e+00 2.960038e+00 -9.996697e-01 -1.164369e+00 -9.510568e-01 -2.738828e-01 4.251244e-01 1.002361e+00 1.381063e+00 1.546640e+00 1.474442e+00 1.240550e+00 1.064033e+00 7.235695e-01 -1.255437e-03
<VARIANCE> 25
 9.843543e+00 1.007149e+01 1.311136e+01 1.672023e+01 1.737005e+01 1.749419e+01 1.969840e+01 1.916831e+01 1.883294e+01 1.871950e+01 2.150419e+01 1.478258e+01 4.039814e-01 4.339617e-01 5.543810e-01 7.806836e-01 1.033867e+00 1.192059e+00 1.255546e+00 1.289392e+00 1.330571e+00 1.362035e+00 1.400655e+00 1.369687e+00 1.639884e-05
<GCONST> 6.755070e+01
<MIXTURE> 63 4.351215e-03
<MEAN> 25
 -3.942307e+00 -1.005064e+00 -4.862229e+00 3.194934e+00 4.047469e+00 6.719308e-01 3.944373e+00 1.456873e+00 3.848860e+00 -9.193512e-01 -3.778920e-01 2.948599e+00 -1.465131e-01 3.415857e-01 3.691377e-01 4.911744e-01 3.232506e-01 4.887890e-01 4.209666e-01 1.413770e-01 5.269328e-02 6.350379e-02 1.444666e-01 1.900316e-01 -4.922556e-03
<VARIANCE> 25
 7.446385e+00 1.861892e+01 1.455530e+01 1.442148e+01 1.666600e+01 2.594081e+01 2.626691e+01 2.330308e+01 2.812666e+01 2.055534e+01 1.832785e+01 1.494839e+01 2.348875e-01 4.627371e-01 5.254322e-01 7.760592e-01 8.281955e-01 1.128997e+00 1.160610e+00 1.440848e+00 1.311316e+00 1.534221e+00 1.235685e+00 1.172722e+00 1.545339e-04
<GCONST> 7.031007e+01
<MIXTURE> 64 4.351215e-03
<MEAN> 25
 -3.942307e+00 -1.005064e+00 -4.862229e+00 3.194934e+00 4.047469e+00 6.719308e-01 3.944373e+00 1.456873e+00 3.848860e+00 -9.193512e-01 -3.778920e-01 2.948599e+00 -1.465131e-01 3.415857e-01 3.691377e-01 4.911744e-01 3.232506e-01 4.887890e-01 4.209666e-01 1.413770e-01 5.269328e-02 6.350379e-02 1.444666e-01 1.900316e-01 -4.922556e-03
<VARIANCE> 25
 7.446385e+00 1.861892e+01 1.455530e+01 1.442148e+01 1.666600e+01 2.594081e+01 2.626691e+01 2.330308e+01 2.812666e+01 2.055534e+01 1.832785e+01 1.494839e+01 2.348875e-01 4.627371e-01 5.254322e-01 7.760592e-01 8.281955e-01 1.128997e+00 1.160610e+00 1.440848e+00 1.311316e+00 1.534221e+00 1.235685e+00 1.172722e+00 1.545339e-04
<GCONST> 7.031007e+01
<MIXTURE> 65 1.721197e-02
<MEAN> 25
 7.504965e+00 1.272305e+00 1.572224e+00 1.675985e+00 -5.809439e+00 -4.367280e+00 -4.661850e+00 -6.174287e+00 -4.592179e+00 -1.139044e+00 -5.253307e+00 -1.408211e+00 1.850179e-01 1.903323e-02 1.249261e-01 3.438984e-02 -2.544894e-01 3.881278e-01 -8.264380e-02 -9.864477e-02 2.901947e-02 -3.653077e-02 -2.254758e-02 -1.422629e-01 -4.757973e-03
<VARIANCE> 25
 9.105011e+00 1.940376e+01 2.315485e+01 3.684937e+01 3.743596e+01 5.675617e+01 6.802629e+01 6.250613e+01 5.567020e+01 5.181066e+01 4.440230e+01 4.117978e+01 4.922074e-01 9.100636e-01 1.674255e+00 1.806152e+00 2.277670e+00 2.233916e+00 2.285710e+00 3.266150e+00 3.107081e+00 2.062623e+00 2.239174e+00 1.832229e+00 4.502941e-04
<GCONST> 8.886944e+01
<MIXTURE> 66 1.191532e-02
<MEAN> 25
 6.632241e+00 -4.023514e+00 -5.781601e+00 -4.981100e+00 1.010880e+00 -5.336944e+00 -6.983622e+00 2.240420e+00 3.523160e-01 8.457571e-02 -6.607041e+00 -3.554261e+00 -2.035988e-01 1.709791e+00 2.038212e+00 2.531721e+00 -1.459837e+00 -1.273261e+00 8.390450e-02 -9.542521e-01 3.218275e-02 -4.148025e-01 1.034790e-01 1.251112e+00 -5.810115e-02
<VARIANCE> 25
 7.347427e+00 1.922629e+01 2.582329e+01 3.107200e+01 3.526854e+01 4.694843e+01 4.797595e+01 4.235309e+01 4.527409e+01 7.785657e+01 3.493409e+01 3.120216e+01 1.438497e+00 2.620412e+00 2.176233e+00 2.419698e+00 3.822714e+00 3.741870e+00 3.820215e+00 5.466126e+00 3.796196e+00 4.454837e+00 3.754677e+00 3.022637e+00 1.517873e-03
<GCONST> 9.522976e+01
<MIXTURE> 67 1.559142e-02
<MEAN> 25
 8.327960e+00 4.744284e-01 -6.514462e+00 -7.485418e+00 1.631235e+00 3.144166e+00 -2.009791e+00 -2.188929e+00 -3.614300e+00 1.441978e+00 -1.850255e+00 -2.094468e+00 -1.058241e+00 2.138973e+00 6.491691e-01 3.036571e+00 1.356947e+00 -2.930811e-01 1.415017e+00 -3.150063e-01 8.103026e-01 -1.724842e-01 1.561791e-01 5.894989e-01 -1.379434e-01
<VARIANCE> 25
 1.181370e+01 4.676369e+01 2.793230e+01 5.371754e+01 5.291937e+01 4.536746e+01 5.682194e+01 4.722948e+01 5.149882e+01 5.678677e+01 6.115004e+01 3.801094e+01 1.767774e+00 3.127298e+00 3.316596e+00 3.632150e+00 3.776022e+00 3.964834e+00 3.827631e+00 4.742650e+00 5.944313e+00 4.573541e+00 5.065882e+00 2.950430e+00 2.705466e-03
<GCONST> 1.008837e+02
<MIXTURE> 68 1.485092e-02
<MEAN> 25
 -2.189616e+00 -1.894792e+00 -3.898725e+00 1.119091e+00 5.399944e+00 -7.967057e-01 2.466112e+00 1.589954e+00 2.088967e+00 1.135774e+00 5.288473e-01 1.837742e+00 2.745223e+00 2.925429e-01 2.053183e-01 -2.171032e+00 -2.438127e+00 -1.706416e+00 -2.701907e+00 -1.328818e+00 -1.907224e+00 -1.306555e+00 -1.744861e+00 -1.249517e+00 9.517269e-02
<VARIANCE> 25
 2.271534e+01 4.273719e+01 5.097857e+01 5.418526e+01 4.070261e+01 4.766119e+01 4.224726e+01 4.067629e+01 3.443059e+01 3.748956e+01 3.625288e+01 2.902361e+01 1.584784e+00 3.733186e+00 5.325910e+00 5.874574e+00 4.801308e+00 4.685318e+00 6.216604e+00 5.271972e+00 4.329174e+00 4.649250e+00 4.859115e+00 3.506727e+00 5.780841e-03
<GCONST> 1.023984e+02
<MIXTURE> 69 1.204884e-02
<MEAN> 25
 4.966486e+00 -4.236559e+00 -3.324025e+00 -2.875741e+00 -3.460764e+00 -7.825022e+00 -1.939613e+00 2.414116e+00 -3.035381e-01 -3.133102e+00 -5.652706e+00 6.657538e-01 1.600934e+00 -2.322422e+00 -1.374962e+00 -2.014353e+00 -5.595250e-01 -3.255270e-01 -6.339310e-01 1.375022e+00 -7.204102e-01 -9.284294e-01 -2.223356e+00 -3.814441e-01 6.572028e-02
<VARIANCE> 25
 9.165658e+00 2.293207e+01 2.458156e+01 2.495685e+01 4.146245e+01 3.319042e+01 4.620683e+01 3.137884e+01 3.440792e+01 4.184398e+01 2.814135e+01 2.235207e+01 2.951729e+00 2.571400e+00 3.347479e+00 3.804910e+00 5.105338e+00 4.173620e+00 6.186809e+00 8.941146e+00 5.177541e+00 5.895987e+00 3.895534e+00 3.841722e+00 2.355004e-03
<GCONST> 9.765343e+01
<MIXTURE> 70 1.329190e-02
<MEAN> 25
 6.836418e+00 -1.937690e+00 -3.405346e+00 -2.382104e+00 -2.207614e-01 -3.060714e+00 -8.116748e+00 -3.036055e+00 -2.913505e-01 2.666148e+00 -2.277229e-02 -5.275329e+00 1.852414e+00 -1.315662e+00 -4.994845e-01 -1.880244e+00 -1.394511e+00 7.212477e-01 -1.802013e+00 1.123699e-01 -5.968115e-02 2.311897e-04 5.875252e-01 -1.554975e+00 6.173728e-02
<VARIANCE> 25
 1.013517e+01 2.000263e+01 2.529688e+01 4.322079e+01 3.021444e+01 5.560507e+01 4.888396e+01 3.914414e+01 4.144823e+01 3.081115e+01 4.213346e+01 2.568816e+01 2.819206e+00 2.762735e+00 4.395579e+00 4.569126e+00 4.458678e+00 6.158692e+00 6.947814e+00 6.816571e+00 5.823387e+00 4.545744e+00 4.872279e+00 4.495454e+00 2.309389e-03
<GCONST> 9.989333e+01
<MIXTURE> 71 1.406903e-02
<MEAN> 25
 6.005713e+00 4.035920e+00 4.608400e+00 3.504286e+00 -4.097855e+00 -3.524836e+00 -2.030102e+00 -7.302503e+00 -4.652749e+00 -2.053108e+00 -4.850778e+00 -2.508767e+00 -1.465676e+00 -7.007807e-01 -1.281002e-01 -1.819737e+00 9.360373e-01 -4.036794e-01 -1.397082e-02 1.804003e+00 1.040882e-01 -1.958544e-01 6.011085e-01 3.440508e-02 4.051814e-02
<VARIANCE> 25
 1.693596e+01 2.779715e+01 2.316121e+01 4.390081e+01 4.061085e+01 3.752668e+01 4.805159e+01 4.647028e+01 3.634333e+01 4.102485e+01 3.325724e+01 3.277870e+01 1.570300e+00 2.656534e+00 4.641267e+00 4.275384e+00 4.506230e+00 5.065856e+00 4.401304e+00 5.841808e+00 4.109661e+00 3.877704e+00 3.334775e+00 2.937609e+00 1.264951e-03
<GCONST> 9.753606e+01
<MIXTURE> 72 8.134747e-03
<MEAN> 25
 3.408920e+00 -3.300303e+00 6.879423e+00 -2.549424e+00 -1.016244e+01 -9.436193e+00 -3.632594e+00 1.574044e+00 -5.542717e+00 -1.414819e+00 -2.360895e-01 7.080024e-01 9.037011e-01 -6.660795e-01 -2.539668e+00 7.687348e-01 2.114826e+00 -6.142318e-01 -6.472136e-01 1.562211e+00 1.719762e+00 -7.644964e-03 -1.423728e+00 4.883603e-01 -1.472374e-02
<VARIANCE> 25
 8.547631e+00 1.555441e+01 2.994395e+01 3.041208e+01 2.550645e+01 2.821774e+01 3.485517e+01 3.624403e+01 4.155608e+01 3.389194e+01 3.753766e+01 2.328890e+01 3.870053e-01 9.639282e-01 1.653202e+00 1.307924e+00 2.209969e+00 2.092713e+00 4.399414e+00 4.155494e+00 2.149535e+00 3.831730e+00 2.680425e+00 1.721132e+00 6.815869e-04
<GCONST> 8.596387e+01
<MIXTURE> 73 1.213625e-02
<MEAN> 25
 -5.446077e+00 2.550044e-01 -1.054489e+00 4.479305e+00 4.452614e+00 2.438523e+00 5.696923e+00 2.295773e+00 4.429135e+00 2.911618e+00 4.097140e+00 3.329488e+00 7.312853e-01 -1.368176e+00 -1.005048e+00 -2.718081e+00 -7.572243e-01 -1.714343e+00 -9.123947e-01 -4.841186e-01 -9.218075e-01 -5.911072e-01 -1.399585e+00 -5.723641e-01 1.592695e-01
<VARIANCE> 25
 1.088888e+01 1.825726e+01 1.275514e+01 2.066746e+01 2.029479e+01 2.175815e+01 2.159675e+01 2.456892e+01 1.539620e+01 1.648447e+01 2.081060e+01 1.349258e+01 3.625986e+00 4.586211e+00 5.120203e+00 4.003305e+00 6.225657e+00 4.127367e+00 3.950212e+00 3.755454e+00 3.277282e+00 3.696475e+00 3.462388e+00 2.780210e+00 5.884194e-03
<GCONST> 9.175045e+01
<MIXTURE> 74 1.756491e-02
<MEAN> 25
 4.332860e+00 -3.889823e+00 5.706645e+00 -1.098824e+00 -8.624310e+00 -7.470204e+00 -3.280402e+00 2.904619e+00 -5.648591e+00 -1.252599e+00 -2.266659e+00 1.130734e-01 4.939398e-01 1.678441e+00 -1.002314e+00 1.754654e+00 1.846344e+00 5.009605e-01 1.095094e+00 -1.529878e+00 6.735157e-01 3.207412e-01 -4.117584e-01 -8.825918e-02 -7.887658e-02
<VARIANCE> 25
 8.991747e+00 2.912885e+01 3.492702e+01 3.156102e+01 3.384702e+01 3.403707e+01 4.005793e+01 4.349620e+01 4.905676e+01 2.804964e+01 2.920931e+01 2.104270e+01 1.931579e+00 2.269889e+00 4.005149e+00 1.704738e+00 4.174297e+00 3.357523e+00 4.690421e+00 6.650128e+00 3.780020e+00 2.846347e+00 3.809236e+00 2.653886e+00 1.463695e-03
<GCONST> 9.432225e+01
<MIXTURE> 75 9.711651e-03
<MEAN> 25
 2.286302e+00 -2.571499e+00 1.038628e+01 1.180616e+00 -1.026879e+01 -7.262751e+00 -6.670988e+00 -8.549484e-01 -6.946000e+00 -5.128789e+00 2.965978e+00 -8.948237e-01 1.268131e+00 -1.627691e+00 7.943618e-01 1.930541e-01 -2.542861e+00 -5.896442e-01 -1.557732e+00 1.310405e+00 -9.926259e-01 -3.651878e-01 1.162204e+00 -7.023755e-01 3.688603e-02
<VARIANCE> 25
 1.020693e+01 2.167989e+01 4.467734e+01 3.113427e+01 3.484955e+01 2.472215e+01 3.751823e+01 2.636695e+01 3.398425e+01 4.229491e+01 1.690525e+01 1.778387e+01 1.977501e+00 1.584431e+00 3.630134e+00 3.402079e+00 7.656101e+00 3.723154e+00 3.350101e+00 4.451582e+00 3.628474e+00 3.305391e+00 2.860324e+00 2.206988e+00 1.877834e-03
<GCONST> 9.297364e+01
<MIXTURE> 76 1.052359e-02
<MEAN> 25
 -6.997424e+00 -4.517161e-01 -2.444423e+00 4.025702e+00 4.603812e+00 1.684368e+00 5.710529e+00 1.975964e+00 3.656193e+00 2.279667e-01 2.305888e+00 3.153770e+00 -1.039154e-01 -6.169769e-01 -1.118874e-01 -6.999673e-01 -5.603074e-01 -9.486163e-01 -4.945873e-01 -5.998531e-02 -4.399544e-01 -3.980504e-01 -1.817331e-01 -4.159353e-02 2.048719e-02
<VARIANCE> 25
 3.117268e+01 2.845849e+01 2.651547e+01 2.496951e+01 2.699316e+01 3.146609e+01 3.507758e+01 2.514232e+01 2.550790e+01 2.223645e+01 2.403018e+01 1.807863e+01 9.825713e-01 1.232662e+00 1.356600e+00 1.163051e+00 1.346765e+00 1.683699e+00 1.746551e+00 1.980883e+00 1.420485e+00 1.397775e+00 1.389295e+00 1.433914e+00 1.088546e-03
<GCONST> 8.243135e+01
<MIXTURE> 77 1.244626e-02
<MEAN> 25
 -3.439811e-01 8.209803e+00 1.299270e+01 -1.140059e+01 -6.626786e+00 8.266405e-01 -9.324782e+00 -6.863361e+00 -4.130978e+00 -9.100125e-01 -3.948626e+00 -1.150978e+00 7.068645e-02 1.191485e-01 -4.175640e-02 1.838093e-01 1.023418e-01 -4.794817e-02 -1.801483e-01 2.197723e-02 9.140632e-02 -1.005482e-01 9.688123e-02 2.023250e-01 -7.506276e-03
<VARIANCE> 25
 9.468968e+00 1.929218e+01 2.704633e+01 3.762305e+01 3.102543e+01 3.059399e+01 3.300522e+01 2.962442e+01 3.590078e+01 3.428467e+01 3.744847e+01 3.228719e+01 2.743740e-01 7.553120e-01 7.554598e-01 1.076453e+00 1.446694e+00 1.092180e+00 1.240344e+00 1.032586e+00 9.688770e-01 1.100300e+00 9.230132e-01 8.866863e-01 5.302729e-04
<GCONST> 7.727950e+01
<MIXTURE> 78 9.702551e-03
<MEAN> 25
 -1.118633e+01 1.134798e+00 -1.483916e+00 2.188826e+00 4.186019e+00 -2.698972e+00 4.306695e+00 2.523155e+00 3.094286e+00 7.792225e-01 -2.404908e-01 3.328847e+00 2.367939e+00 -3.048629e-01 1.442189e-01 5.901321e-01 -1.336453e-01 -5.793355e-02 -4.721370e-01 -2.033653e-02 5.791258e-02 1.518976e-01 -3.721802e-01 -4.695286e-01 -5.848149e-02
<VARIANCE> 25
 3.984013e+01 3.328054e+01 3.221933e+01 3.113970e+01 3.765474e+01 3.715954e+01 4.258026e+01 3.509528e+01 2.869158e+01 2.590660e+01 2.682449e+01 2.089815e+01 4.584172e+00 2.545683e+00 2.669198e+00 2.849836e+00 2.779830e+00 3.502325e+00 3.915749e+00 2.798830e+00 2.466797e+00 2.353946e+00 2.091895e+00 2.023082e+00 4.475929e-03
<GCONST> 9.448978e+01
<MIXTURE> 79 1.156824e-02
<MEAN> 25
 2.215014e+00 1.028173e+00 9.735868e+00 -6.323101e+00 -1.170751e+01 -2.780744e+00 -3.013460e+00 -5.452313e+00 -7.032159e+00 -2.011758e-01 -2.041602e+00 -2.741563e+00 1.168506e+00 -4.721218e-01 -1.498946e+00 2.203771e+00 2.921922e-01 -1.381413e+00 6.240123e-01 9.189464e-01 -1.366982e-01 1.704798e-02 1.783995e-01 4.443624e-01 -3.613065e-02
<VARIANCE> 25
 1.220427e+01 2.258463e+01 3.389040e+01 4.186415e+01 2.964684e+01 4.140849e+01 4.025681e+01 3.582567e+01 3.664811e+01 3.533130e+01 4.466344e+01 2.867115e+01 8.599182e-01 2.018294e+00 1.816714e+00 1.905684e+00 2.419077e+00 2.820171e+00 3.167809e+00 3.945643e+00 2.875149e+00 4.150537e+00 2.417607e+00 1.964705e+00 1.166138e-03
<GCONST> 9.105396e+01
<MIXTURE> 80 7.550998e-03
<MEAN> 25
 -1.483704e+01 3.835536e+00 9.382414e-01 1.908567e+00 2.582526e+00 1.211485e+00 6.652010e+00 2.163137e+00 3.023889e+00 2.062893e+00 4.542964e+00 7.271396e-01 4.248685e+00 1.240977e-01 1.614933e+00 -9.185359e-01 -2.698830e+00 -2.766369e+00 -2.482372e+00 -1.997672e+00 -2.139376e+00 -1.846727e+00 -1.495937e+00 -6.745288e-01 -4.473175e-02
<VARIANCE> 25
 2.383790e+01 1.811965e+01 3.183325e+01 4.504742e+01 2.731067e+01 2.678274e+01 2.619626e+01 2.936060e+01 2.477485e+01 2.670412e+01 2.623666e+01 2.521690e+01 2.149708e+00 2.584323e+00 2.528545e+00 4.085674e+00 3.362549e+00 2.496389e+00 3.380764e+00 2.955897e+00 2.702160e+00 2.884060e+00 2.719711e+00 2.237856e+00 1.415620e-03
<GCONST> 9.129153e+01
<MIXTURE> 81 8.025434e-03
<MEAN> 25
 -1.087207e+00 4.038604e+00 1.024856e+01 -1.470719e+01 -9.009007e+00 -1.456477e+00 -6.824789e+00 -8.333566e+00 -4.241724e+00 -4.654123e-01 -7.412778e+00 -2.184781e+00 1.379664e-01 -5.901251e-01 -2.587463e-02 -5.390336e-01 -4.748014e-01 3.153053e-01 3.170988e-01 1.469341e-01 -1.167189e-01 1.203995e-01 -4.616855e-01 -1.133931e-01 1.139363e-02
<VARIANCE> 25
 1.006431e+01 3.256002e+01 2.649977e+01 2.942558e+01 3.372939e+01 3.019071e+01 4.501323e+01 2.843272e+01 3.795182e+01 3.163655e+01 2.655332e+01 3.094780e+01 7.653629e-01 2.259854e+00 1.576752e+00 2.872926e+00 2.668131e+00 2.133214e+00 3.245923e+00 2.269313e+00 2.367505e+00 2.546371e+00 2.270375e+00 2.069467e+00 1.169918e-03
<GCONST> 8.866788e+01
<MIXTURE> 82 8.213053e-03
<MEAN> 25
 -9.356752e+00 -3.646008e+00 1.279759e+00 -3.076196e+00 3.235924e+00 4.394475e-01 1.892870e+00 6.441133e-02 3.060015e+00 1.453724e+00 1.320103e+00 2.746195e+00 -1.127355e+00 -5.856411e-01 2.281429e-01 -2.641364e+00 -1.066408e+00 -1.228991e+00 -1.016765e+00 -7.493716e-01 -3.474594e-01 -5.525504e-01 -4.280050e-01 -1.900790e-01 1.841752e-01
<VARIANCE> 25
 1.954856e+01 2.429292e+01 3.061516e+01 2.923519e+01 3.026447e+01 2.975986e+01 2.991530e+01 3.656192e+01 2.819607e+01 2.369438e+01 3.081857e+01 1.715797e+01 3.738441e+00 4.634063e+00 3.061229e+00 2.989661e+00 3.420557e+00 3.004256e+00 2.688554e+00 2.901847e+00 2.554585e+00 2.332519e+00 2.343165e+00 1.788273e+00 3.472974e-03
<GCONST> 9.248750e+01
<MIXTURE> 83 1.167529e-02
<MEAN> 25
 -2.074254e+01 4.755293e+00 -4.598587e-01 -2.212193e+00 7.141615e+00 -6.298018e-01 5.425339e+00 1.641631e+00 1.965707e+00 4.091825e-01 5.144913e-01 2.690139e+00 -1.149813e-01 -4.838927e-01 -9.111179e-02 -4.596266e-01 -3.231083e-01 8.216632e-02 -5.677037e-02 -1.667123e-01 1.688435e-02 4.738896e-02 3.406188e-02 -2.957156e-02 3.494677e-03
<VARIANCE> 25
 8.617656e+00 1.452511e+01 2.766601e+01 2.780831e+01 1.871995e+01 2.111932e+01 1.894476e+01 2.437023e+01 1.926041e+01 2.877884e+01 1.904721e+01 1.167517e+01 9.632936e-01 8.441511e-01 1.117456e+00 9.784973e-01 1.200983e+00 1.226620e+00 1.103619e+00 1.132265e+00 1.166630e+00 1.357086e+00 1.235362e+00 9.755625e-01 7.675225e-04
<GCONST> 7.522536e+01
<MIXTURE> 84 1.066614e-02
<MEAN> 25
 8.664264e-01 8.786489e+00 6.626448e+00 8.172564e+00 2.760619e+00 -1.197161e+00 -1.223246e+00 -4.759525e+00 -3.992878e+00 -3.558221e+00 -1.975373e+00 -1.476326e+00 -1.748274e+00 -7.232968e-01 -9.176875e-01 1.137209e+00 1.748987e+00 1.499089e+00 1.521668e+00 1.116071e+00 1.084688e+00 2.137920e-01 6.469495e-01 4.819027e-01 -7.408258e-02
<VARIANCE> 25
 2.112303e+01 1.641183e+01 2.136161e+01 2.145013e+01 2.660640e+01 2.571587e+01 2.572399e+01 2.444982e+01 2.275295e+01 2.502149e+01 2.245048e+01 2.254057e+01 2.009574e+00 3.549931e+00 3.981169e+00 3.114265e+00 4.427446e+00 3.123586e+00 2.939548e+00 3.261593e+00 3.269637e+00 3.329908e+00 3.582419e+00 2.582419e+00 3.209918e-03
<GCONST> 9.170657e+01
<MIXTURE> 85 7.591393e-03
<MEAN> 25
 -3.522498e+00 8.205072e+00 5.828402e+00 -1.551607e-01 -2.383154e+00 -5.130775e+00 -2.841419e+00 -6.859440e+00 -2.995557e+00 -4.083843e+00 -6.945865e-01 -1.894218e+00 3.894357e+00 1.477693e-01 2.039259e+00 -1.540236e+00 -3.128353e+00 -2.471032e+00 -3.019960e+00 -1.972540e+00 -2.628345e+00 -1.689712e+00 -1.836321e+00 -6.134883e-01 1.092504e-02
<VARIANCE> 25
 4.474900e+01 1.947962e+01 4.268905e+01 4.135992e+01 3.646482e+01 3.429336e+01 2.689842e+01 3.578737e+01 2.442908e+01 2.554208e+01 2.622156e+01 1.726507e+01 2.406061e+00 3.780570e+00 3.632854e+00 5.725460e+00 4.255624e+00 3.162857e+00 3.509874e+00 3.605318e+00 3.579638e+00 4.568317e+00 4.372073e+00 2.910011e+00 5.739472e-03
<GCONST> 9.730387e+01
<MIXTURE> 86 1.273941e-02
<MEAN> 25
 -4.702798e+00 8.427782e-02 -1.614114e+00 6.310863e+00 5.561892e+00 4.831985e+00 6.370574e+00 3.616493e+00 5.874287e+00 2.632211e+00 4.824021e+00 3.228179e+00 -2.774847e-02 6.060451e-02 3.983061e-02 1.368011e-02 -1.377146e-01 -8.503874e-02 -1.355326e-01 -2.678121e-01 -2.490696e-01 -2.866710e-01 -9.704428e-02 9.835789e-03 -9.424641e-04
<VARIANCE> 25
 6.125668e+00 9.256045e+00 1.225434e+01 1.036508e+01 1.391109e+01 1.530835e+01 1.323229e+01 1.551189e+01 1.498806e+01 1.646551e+01 1.232812e+01 1.184258e+01 9.155149e-02 2.349750e-01 2.964423e-01 5.499271e-01 6.258324e-01 7.226220e-01 7.649132e-01 7.946318e-01 8.498130e-01 9.460964e-01 8.606236e-01 8.057827e-01 4.779931e-05
<GCONST> 5.852937e+01
<MIXTURE> 87 1.100681e-02
<MEAN> 25
 -3.097893e+00 5.450713e+00 2.678816e+00 6.552986e+00 4.497883e+00 1.278610e+00 1.626685e+00 -1.831643e+00 2.354885e-01 -4.852923e-01 5.968719e-01 1.057055e+00 -1.696692e+00 -2.965172e+00 -2.146765e+00 -2.283024e+00 4.809657e-01 -3.560438e-01 3.370289e-01 1.231974e+00 1.076898e+00 1.233166e+00 3.687515e-01 7.850482e-01 1.110841e-01
<VARIANCE> 25
 3.138225e+01 2.670119e+01 2.493617e+01 2.814315e+01 2.718659e+01 2.776963e+01 2.466861e+01 2.496993e+01 2.389240e+01 2.106583e+01 2.674297e+01 2.209730e+01 3.790009e+00 2.942711e+00 3.609023e+00 3.030498e+00 4.915749e+00 3.797946e+00 3.848044e+00 3.696639e+00 3.316288e+00 3.018614e+00 3.929239e+00 2.409459e+00 5.108345e-03
<GCONST> 9.454468e+01
<MIXTURE> 88 1.256585e-02
<MEAN> 25
 -4.445741e+00 7.522106e-01 -1.775359e+00 5.561012e+00 5.023973e+00 3.950771e+00 6.270105e+00 2.744537e+00 4.972984e+00 1.605870e+00 3.606222e+00 2.871518e+00 5.700991e-02 3.477937e-01 1.617848e-01 2.328228e-01 2.461400e-01 2.221546e-01 -2.550718e-01 -3.724232e-01 -3.599003e-01 -7.467520e-02 -1.712449e-04 2.827878e-02 -8.780644e-03
<VARIANCE> 25
 7.290675e+00 1.134822e+01 1.437125e+01 1.177470e+01 1.533735e+01 1.814568e+01 2.076628e+01 1.989568e+01 1.749584e+01 1.653083e+01 1.837334e+01 1.103024e+01 1.093739e+00 1.752106e+00 1.870193e+00 1.995359e+00 2.380308e+00 2.097234e+00 2.340918e+00 2.357180e+00 2.367812e+00 2.214279e+00 1.928413e+00 1.613524e+00 1.095226e-03
<GCONST> 7.938343e+01
<MIXTURE> 89 9.333527e-03
<MEAN> 25
 5.728610e+00 -8.544236e+00 -4.706518e+00 -3.740126e+00 -7.443486e-01 -5.025061e+00 -4.672434e+00 5.732182e+00 7.104885e-01 -1.171708e+00 -7.450153e+00 -2.767121e+00 -5.891524e-01 -1.151713e-01 1.971799e+00 1.113264e+00 -2.173325e+00 -1.433825e+00 1.122408e+00 7.686798e-01 -7.100347e-01 -9.235692e-01 2.108609e-01 1.542314e+00 -5.294221e-03
<VARIANCE> 25
 6.224771e+00 2.884986e+01 2.487050e+01 2.391827e+01 3.434041e+01 3.366923e+01 6.708549e+01 3.057748e+01 3.451831e+01 3.036091e+01 3.320816e+01 2.244652e+01 4.437279e-01 7.370147e-01 1.692196e+00 9.852266e-01 1.755943e+00 2.569365e+00 2.753788e+00 2.611414e+00 2.438550e+00 1.947566e+00 1.890478e+00 1.155836e+00 2.743939e-04
<GCONST> 8.278529e+01
<MIXTURE> 90 7.114505e-03
<MEAN> 25
 2.328031e+00 -1.037644e+01 -4.348506e+00 -3.940022e+00 -3.758484e+00 -1.658008e+00 3.541531e+00 2.227484e+00 -7.029683e+00 -8.685726e+00 -4.785127e+00 -3.382892e-01 -1.699667e-01 7.014453e-01 1.302089e+00 -7.117876e-01 -1.868223e+00 3.023546e-02 4.297406e-01 -9.430540e-02 -4.483771e-02 5.018414e-01 3.988821e-01 -5.472630e-01 -1.220951e-02
<VARIANCE> 25
 7.885053e+00 1.873175e+01 1.852459e+01 2.567545e+01 3.311143e+01 2.815524e+01 3.507576e+01 3.804657e+01 3.253461e+01 3.574283e+01 3.308715e+01 2.342097e+01 2.033641e-01 7.610459e-01 8.197810e-01 1.043142e+00 1.631211e+00 1.721307e+00 1.868728e+00 1.671067e+00 1.652625e+00 1.766279e+00 1.576043e+00 1.253486e+00 1.948856e-04
<GCONST> 7.820995e+01
<MIXTURE> 91 7.852945e-03
<MEAN> 25
 6.316825e+00 -7.569834e+00 -8.719533e+00 -5.894621e+00 3.726165e+00 1.419500e-01 -2.454505e+00 1.477197e+00 4.620024e-01 -1.745820e+00 -5.618634e+00 -5.192710e+00 2.182247e-01 9.609566e-01 2.404054e-01 5.648060e-01 -1.707016e-01 -6.128191e-01 -2.983589e-01 -1.923900e-01 -8.525923e-03 4.190367e-01 -7.781655e-02 2.796806e-01 -3.486840e-02
<VARIANCE> 25
 9.022116e+00 2.063616e+01 1.956578e+01 4.102124e+01 3.705544e+01 5.348883e+01 4.904332e+01 4.158857e+01 4.974530e+01 6.868224e+01 3.715413e+01 3.803489e+01 4.261996e-01 8.401326e-01 1.060269e+00 1.455701e+00 2.173966e+00 2.217280e+00 2.510990e+00 2.386048e+00 2.138716e+00 1.983949e+00 1.964055e+00 1.673646e+00 6.435406e-04
<GCONST> 8.652084e+01
<MIXTURE> 92 7.852945e-03
<MEAN> 25
 6.316825e+00 -7.569834e+00 -8.719533e+00 -5.894621e+00 3.726165e+00 1.419500e-01 -2.454505e+00 1.477197e+00 4.620024e-01 -1.745820e+00 -5.618634e+00 -5.192710e+00 2.182247e-01 9.609566e-01 2.404054e-01 5.648060e-01 -1.707016e-01 -6.128191e-01 -2.983589e-01 -1.923900e-01 -8.525923e-03 4.190367e-01 -7.781655e-02 2.796806e-01 -3.486840e-02
<VARIANCE> 25
 9.022116e+00 2.063616e+01 1.956578e+01 4.102124e+01 3.705544e+01 5.348883e+01 4.904332e+01 4.158857e+01 4.974530e+01 6.868224e+01 3.715413e+01 3.803489e+01 4.261996e-01 8.401326e-01 1.060269e+00 1.455701e+00 2.173966e+00 2.217280e+00 2.510990e+00 2.386048e+00 2.138716e+00 1.983949e+00 1.964055e+00 1.673646e+00 6.435406e-04
<GCONST> 8.652084e+01
<MIXTURE> 93 6.122769e-03
<MEAN> 25
 -6.614277e+00 -5.666174e-01 -2.522204e+00 5.776206e+00 6.023679e+00 4.097735e+00 6.255633e+00 3.319576e+00 4.473083e+00 2.357115e+00 2.038079e+00 3.753933e+00 -5.542950e-02 -1.493962e-01 -2.445685e-01 -3.211967e-01 -3.176303e-01 -2.703747e-01 -2.228152e-01 -1.649828e-01 -1.172593e-01 -1.266734e-01 -8.659571e-02 -3.595316e-02 6.816346e-06
<VARIANCE> 25
 9.121635e+00 8.066688e+00 8.308875e+00 1.082434e+01 1.118137e+01 1.586772e+01 1.494408e+01 1.677199e+01 1.632212e+01 1.467140e+01 1.667802e+01 1.341413e+01 7.966275e-02 1.475750e-01 2.595333e-01 3.764885e-01 4.853505e-01 6.217452e-01 7.568712e-01 8.793738e-01 9.579251e-01 9.099039e-01 8.952940e-01 9.136018e-01 1.210362e-06
<GCONST> 5.399852e+01
<MIXTURE> 94 6.122769e-03
<MEAN> 25
 -6.614277e+00 -5.666174e-01 -2.522204e+00 5.776206e+00 6.023679e+00 4.097735e+00 6.255633e+00 3.319576e+00 4.473083e+00 2.357115e+00 2.038079e+00 3.753933e+00 -5.542950e-02 -1.493962e-01 -2.445685e-01 -3.211967e-01 -3.176303e-01 -2.703747e-01 -2.228152e-01 -1.649828e-01 -1.172593e-01 -1.266734e-01 -8.659571e-02 -3.595316e-02 6.816346e-06
<VARIANCE> 25
 9.121635e+00 8.066688e+00 8.308875e+00 1.082434e+01 1.118137e+01 1.586772e+01 1.494408e+01 1.677199e+01 1.632212e+01 1.467140e+01 1.667802e+01 1.341413e+01 7.966275e-02 1.475750e-01 2.595333e-01 3.764885e-01 4.853505e-01 6.217452e-01 7.568712e-01 8.793738e-01 9.579251e-01 9.099039e-01 8.952940e-01 9.136018e-01 1.210362e-06
<GCONST> 5.399852e+01
<MIXTURE> 95 5.258835e-03
<MEAN> 25
 -5.756535e+00 -5.215453e-01 -2.037533e+00 4.948555e+00 4.318366e+00 2.910901e+00 4.380298e+00 1.622489e+00 2.441687e+00 7.379741e-01 1.271406e+00 2.674442e+00 1.409174e-01 1.653350e-01 9.624001e-02 -7.733337e-02 -3.545664e-01 -6.799085e-01 -1.036324e+00 -1.262595e+00 -1.217281e+00 -9.636044e-01 -6.353763e-01 -2.967107e-01 -2.756501e-04
<VARIANCE> 25
 1.000631e+01 7.539901e+00 1.195095e+01 1.276489e+01 1.376408e+01 1.814283e+01 1.842328e+01 1.689245e+01 1.611060e+01 1.592443e+01 1.967377e+01 1.410170e+01 2.056370e-01 3.019987e-01 4.464497e-01 6.277319e-01 7.980868e-01 9.219888e-01 9.082415e-01 9.384273e-01 1.016756e+00 1.107115e+00 1.141064e+00 1.097913e+00 4.344102e-05
<GCONST> 6.351363e+01
<MIXTURE> 96 7.034694e-03
<MEAN> 25
 -4.745608e+00 4.802283e-01 -2.771799e+00 5.018896e+00 4.581382e+00 2.618496e+00 4.170152e+00 1.178047e+00 3.538987e+00 1.078559e+00 1.732098e+00 2.839531e+00 -7.100135e-02 7.802252e-02 2.413109e-01 4.012809e-01 5.157353e-01 4.376486e-01 2.764525e-01 -4.378621e-02 -3.810981e-01 -7.201756e-01 -5.916054e-01 -2.231632e-01 7.248785e-05
<VARIANCE> 25
 1.025329e+01 1.286545e+01 1.396122e+01 1.242908e+01 1.536788e+01 1.994170e+01 1.821781e+01 1.855105e+01 2.264160e+01 1.621445e+01 1.849903e+01 1.357776e+01 1.161009e-01 2.041378e-01 2.964015e-01 3.695104e-01 4.579899e-01 6.616967e-01 7.809892e-01 1.033416e+00 9.663405e-01 9.113392e-01 8.514625e-01 1.002070e+00 1.243044e-06
<GCONST> 5.771944e+01
<MIXTURE> 97 7.034694e-03
<MEAN> 25
 -4.745608e+00 4.802283e-01 -2.771799e+00 5.018896e+00 4.581382e+00 2.618496e+00 4.170152e+00 1.178047e+00 3.538987e+00 1.078559e+00 1.732098e+00 2.839531e+00 -7.100135e-02 7.802252e-02 2.413109e-01 4.012809e-01 5.157353e-01 4.376486e-01 2.764525e-01 -4.378621e-02 -3.810981e-01 -7.201756e-01 -5.916054e-01 -2.231632e-01 7.248785e-05
<VARIANCE> 25
 1.025329e+01 1.286545e+01 1.396122e+01 1.242908e+01 1.536788e+01 1.994170e+01 1.821781e+01 1.855105e+01 2.264160e+01 1.621445e+01 1.849903e+01 1.357776e+01 1.161009e-01 2.041378e-01 2.964015e-01 3.695104e-01 4.579899e-01 6.616967e-01 7.809892e-01 1.033416e+00 9.663405e-01 9.113392e-01 8.514625e-01 1.002070e+00 1.243044e-06
<GCONST> 5.771944e+01
<MIXTURE> 98 9.917808e-03
<MEAN> 25
 -1.467161e+00 1.762939e+00 -7.099452e-02 4.961987e+00 3.157847e+00 2.369158e+00 3.440140e+00 1.053293e+00 1.787728e+00 5.213245e-01 1.182219e+00 1.076611e+00 -1.726260e+00 -1.276619e+00 -8.570977e-01 4.934735e-02 5.421281e-01 7.957761e-01 1.196275e+00 1.352472e+00 1.621986e+00 1.288668e+00 1.319626e+00 1.008755e+00 -3.170258e-02
<VARIANCE> 25
 1.260908e+01 2.164005e+01 2.907968e+01 3.007266e+01 4.068463e+01 3.267677e+01 2.914040e+01 2.823487e+01 2.564884e+01 2.829194e+01 2.490266e+01 2.122890e+01 1.246510e+00 1.765352e+00 2.276392e+00 2.368669e+00 2.751639e+00 2.599784e+00 2.600331e+00 2.537085e+00 2.379750e+00 2.889364e+00 2.669209e+00 1.980772e+00 2.468348e-03
<GCONST> 8.900916e+01
<MIXTURE> 99 6.696178e-03
<MEAN> 25
 -6.370227e+00 1.037679e+01 4.312464e+00 3.843643e+00 1.659562e+00 -5.260057e+00 -2.547324e+00 -5.700141e+00 -1.121555e+00 -3.712734e+00 -1.810962e+00 7.560860e-01 5.948350e-01 -7.634860e-01 2.614354e-01 -2.586614e-01 -1.182571e+00 -5.674251e-01 -5.551305e-02 -1.882335e-01 -1.128171e-01 3.198155e-02 3.011142e-01 1.103606e-01 5.893760e-03
<VARIANCE> 25
 2.947292e+01 2.115140e+01 5.563470e+01 2.716949e+01 3.074358e+01 2.987614e+01 2.651386e+01 3.368034e+01 4.164112e+01 2.270644e+01 1.712501e+01 2.361425e+01 2.028885e+00 1.929338e+00 1.197478e+00 1.519113e+00 2.314932e+00 2.186622e+00 1.650429e+00 1.614736e+00 1.601514e+00 1.568790e+00 1.283459e+00 1.520924e+00 1.333432e-03
<GCONST> 8.570952e+01
<MIXTURE> 100 4.498084e-03
<MEAN> 25
 -1.610797e+00 6.331765e+00 1.029241e+01 -7.454855e+00 -1.072945e+01 -5.073825e+00 -4.955799e+00 -9.963469e+00 -4.738774e+00 -9.158470e-01 -2.709459e+00 -2.709289e+00 2.916903e+00 -1.263607e+00 1.302362e+00 -2.168851e+00 -3.412918e+00 -7.823811e-01 -1.226741e+00 -8.056151e-01 -1.482382e+00 3.366691e-01 -1.641864e+00 -2.904220e-01 1.937009e-03
<VARIANCE> 25
 1.362643e+01 2.109172e+01 2.250680e+01 2.634189e+01 2.359280e+01 2.362994e+01 2.906377e+01 2.166199e+01 2.752615e+01 2.352600e+01 2.245405e+01 2.127730e+01 1.794141e+00 3.941126e+00 2.912246e+00 4.336850e+00 4.179024e+00 4.523043e+00 4.018063e+00 4.375016e+00 4.164512e+00 3.912577e+00 3.939756e+00 3.220411e+00 1.670372e-03
<GCONST> 9.263842e+01
<MIXTURE> 101 6.007792e-03
<MEAN> 25
 7.783978e+00 -3.739647e+00 -6.856828e+00 -7.318223e+00 9.173779e-01 -7.995458e-01 -1.030176e+01 -1.359084e+00 1.686570e+00 3.692513e+00 -2.929092e+00 -6.015444e+00 6.033852e-01 5.109079e-01 -1.420262e+00 -1.670270e+00 1.026259e+00 2.578189e+00 3.912510e-01 -1.604469e+00 -9.862306e-01 8.844970e-01 1.151182e+00 -3.963724e-01 -3.263743e-03
<VARIANCE> 25
 8.814289e+00 1.517777e+01 2.826845e+01 3.940962e+01 3.203134e+01 3.572579e+01 3.419346e+01 3.644961e+01 3.354763e+01 4.497869e+01 4.756437e+01 2.634299e+01 2.957809e-01 7.286612e-01 1.073340e+00 1.413273e+00 1.517943e+00 2.361190e+00 2.086118e+00 1.923761e+00 2.188018e+00 2.139689e+00 1.906390e+00 1.819818e+00 3.250806e-04
<GCONST> 8.278618e+01
<MIXTURE> 102 6.007792e-03
<MEAN> 25
 7.783978e+00 -3.739647e+00 -6.856828e+00 -7.318223e+00 9.173779e-01 -7.995458e-01 -1.030176e+01 -1.359084e+00 1.686570e+00 3.692513e+00 -2.929092e+00 -6.015444e+00 6.033852e-01 5.109079e-01 -1.420262e+00 -1.670270e+00 1.026259e+00 2.578189e+00 3.912510e-01 -1.604469e+00 -9.862306e-01 8.844970e-01 1.151182e+00 -3.963724e-01 -3.263743e-03
<VARIANCE> 25
 8.814289e+00 1.517777e+01 2.826845e+01 3.940962e+01 3.203134e+01 3.572579e+01 3.419346e+01 3.644961e+01 3.354763e+01 4.497869e+01 4.756437e+01 2.634299e+01 2.957809e-01 7.286612e-01 1.073340e+00 1.413273e+00 1.517943e+00 2.361190e+00 2.086118e+00 1.923761e+00 2.188018e+00 2.139689e+00 1.906390e+00 1.819818e+00 3.250806e-04
<GCONST> 8.278618e+01
<MIXTURE> 103 5.694618e-03
<MEAN> 25
 3.349195e+00 -9.439858e+00 -6.073557e+00 -3.081877e+00 -1.252067e+00 -1.960268e+00 2.439709e+00 2.587014e+00 -4.616632e+00 -9.071623e+00 -5.111493e+00 3.170833e-01 -1.577978e-01 -1.478584e+00 -9.912080e-01 3.718444e-01 1.230929e+00 1.016659e+00 1.608066e-01 -2.781800e-01 -7.974720e-01 -9.264538e-01 -2.922023e-02 1.029662e-01 2.668917e-02
<VARIANCE> 25
 1.041273e+01 2.047752e+01 2.329373e+01 3.189781e+01 4.816366e+01 3.474715e+01 4.646509e+01 3.688175e+01 4.188725e+01 3.141693e+01 2.993088e+01 2.631467e+01 6.370313e-01 1.248536e+00 1.565919e+00 1.931238e+00 2.985935e+00 2.429433e+00 2.861017e+00 2.672858e+00 2.571429e+00 2.526878e+00 2.080789e+00 2.029070e+00 8.020453e-04
<GCONST> 8.771747e+01
<MIXTURE> 104 5.694618e-03
<MEAN> 25
 3.349195e+00 -9.439858e+00 -6.073557e+00 -3.081877e+00 -1.252067e+00 -1.960268e+00 2.439709e+00 2.587014e+00 -4.616632e+00 -9.071623e+00 -5.111493e+00 3.170833e-01 -1.577978e-01 -1.478584e+00 -9.912080e-01 3.718444e-01 1.230929e+00 1.016659e+00 1.608066e-01 -2.781800e-01 -7.974720e-01 -9.264538e-01 -2.922023e-02 1.029662e-01 2.668917e-02
<VARIANCE> 25
 1.041273e+01 2.047752e+01 2.329373e+01 3.189781e+01 4.816366e+01 3.474715e+01 4.646509e+01 3.688175e+01 4.188725e+01 3.141693e+01 2.993088e+01 2.631467e+01 6.370313e-01 1.248536e+00 1.565919e+00 1.931238e+00 2.985935e+00 2.429433e+00 2.861017e+00 2.672858e+00 2.571429e+00 2.526878e+00 2.080789e+00 2.029070e+00 8.020453e-04
<GCONST> 8.771747e+01
<MIXTURE> 105 4.710235e-03
<MEAN> 25
 2.391456e+00 -1.872398e+00 9.356459e+00 -3.008517e+00 -1.167205e+01 -4.913454e+00 -4.636425e+00 -5.883952e-01 -3.778222e+00 -3.000635e+00 1.310618e+00 -1.078960e+00 9.090513e-03 5.514642e-02 4.595680e-02 -1.760718e-02 1.042721e-02 4.326341e-02 -3.660537e-02 6.991152e-02 -5.153617e-02 -2.390834e-02 4.762453e-02 -4.051764e-02 -2.397331e-03
<VARIANCE> 25
 1.335094e+01 2.776511e+01 4.422309e+01 4.267709e+01 3.481186e+01 4.984050e+01 4.139789e+01 4.109995e+01 4.064885e+01 4.002570e+01 4.017808e+01 2.908135e+01 8.731648e-02 1.851779e-01 3.582469e-01 2.984353e-01 3.853114e-01 4.495549e-01 4.837564e-01 5.113268e-01 5.574402e-01 5.303603e-01 4.207313e-01 3.899240e-01 9.143732e-05
<GCONST> 6.692458e+01
<MIXTURE> 106 4.710235e-03
<MEAN> 25
 2.391456e+00 -1.872398e+00 9.356459e+00 -3.008517e+00 -1.167205e+01 -4.913454e+00 -4.636425e+00 -5.883952e-01 -3.778222e+00 -3.000635e+00 1.310618e+00 -1.078960e+00 9.090513e-03 5.514642e-02 4.595680e-02 -1.760718e-02 1.042721e-02 4.326341e-02 -3.660537e-02 6.991152e-02 -5.153617e-02 -2.390834e-02 4.762453e-02 -4.051764e-02 -2.397331e-03
<VARIANCE> 25
 1.335094e+01 2.776511e+01 4.422309e+01 4.267709e+01 3.481186e+01 4.984050e+01 4.139789e+01 4.109995e+01 4.064885e+01 4.002570e+01 4.017808e+01 2.908135e+01 8.731648e-02 1.851779e-01 3.582469e-01 2.984353e-01 3.853114e-01 4.495549e-01 4.837564e-01 5.113268e-01 5.574402e-01 5.303603e-01 4.207313e-01 3.899240e-01 9.143732e-05
<GCONST> 6.692458e+01
<MIXTURE> 107 5.452374e-03
<MEAN> 25
 8.813121e+00 -2.581358e+00 -8.005372e+00 -9.717554e+00 2.151001e+00 2.796390e+00 -8.797130e+00 -4.124697e+00 -1.830996e+00 3.990367e+00 1.894069e+00 -5.627593e+00 -6.606711e-01 -7.786410e-01 9.963484e-01 1.831038e+00 2.558296e-01 -2.184383e+00 -1.239737e+00 9.827058e-01 1.748548e+00 9.573083e-02 -1.655405e+00 -7.456678e-01 -3.973203e-03
<VARIANCE> 25
 8.314779e+00 1.842076e+01 2.497021e+01 3.803678e+01 3.207929e+01 3.534947e+01 4.673382e+01 3.351326e+01 4.585946e+01 3.876047e+01 5.230704e+01 2.858280e+01 3.395276e-01 8.789939e-01 1.543593e+00 2.171740e+00 2.189450e+00 2.782821e+00 3.150716e+00 2.571988e+00 2.034279e+00 3.105619e+00 1.819630e+00 2.189328e+00 6.455214e-04
<GCONST> 8.679752e+01
<MIXTURE> 108 5.452374e-03
<MEAN> 25
 8.813121e+00 -2.581358e+00 -8.005372e+00 -9.717554e+00 2.151001e+00 2.796390e+00 -8.797130e+00 -4.124697e+00 -1.830996e+00 3.990367e+00 1.894069e+00 -5.627593e+00 -6.606711e-01 -7.786410e-01 9.963484e-01 1.831038e+00 2.558296e-01 -2.184383e+00 -1.239737e+00 9.827058e-01 1.748548e+00 9.573083e-02 -1.655405e+00 -7.456678e-01 -3.973203e-03
<VARIANCE> 25
 8.314779e+00 1.842076e+01 2.497021e+01 3.803678e+01 3.207929e+01 3.534947e+01 4.673382e+01 3.351326e+01 4.585946e+01 3.876047e+01 5.230704e+01 2.858280e+01 3.395276e-01 8.789939e-01 1.543593e+00 2.171740e+00 2.189450e+00 2.782821e+00 3.150716e+00 2.571988e+00 2.034279e+00 3.105619e+00 1.819630e+00 2.189328e+00 6.455214e-04
<GCONST> 8.679752e+01
<MIXTURE> 109 6.661064e-03
<MEAN> 25
 4.210069e+00 -1.034438e+01 -8.179237e+00 -2.005266e+00 2.275654e+00 -4.049128e-02 -6.507754e-01 2.666101e+00 -2.292512e+00 -7.454617e+00 -6.003682e+00 -1.254394e-01 -4.343622e-02 -7.266262e-02 -6.372702e-03 2.575589e-01 7.076196e-02 1.202597e-01 -3.413235e-02 -2.628881e-01 5.960866e-02 -1.635501e-01 2.300658e-01 7.686593e-02 -3.792109e-03
<VARIANCE> 25
 8.364807e+00 1.698361e+01 1.838310e+01 3.212746e+01 3.955627e+01 3.344964e+01 4.523751e+01 4.428016e+01 4.255445e+01 3.909478e+01 3.004902e+01 2.593548e+01 1.815364e-01 4.416687e-01 5.418574e-01 6.099012e-01 1.410756e+00 9.258859e-01 1.230313e+00 1.237139e+00 1.120827e+00 8.829122e-01 8.335343e-01 8.447228e-01 1.669523e-04
<GCONST> 7.414719e+01
<MIXTURE> 110 6.661064e-03
<MEAN> 25
 4.210069e+00 -1.034438e+01 -8.179237e+00 -2.005266e+00 2.275654e+00 -4.049128e-02 -6.507754e-01 2.666101e+00 -2.292512e+00 -7.454617e+00 -6.003682e+00 -1.254394e-01 -4.343622e-02 -7.266262e-02 -6.372702e-03 2.575589e-01 7.076196e-02 1.202597e-01 -3.413235e-02 -2.628881e-01 5.960866e-02 -1.635501e-01 2.300658e-01 7.686593e-02 -3.792109e-03
<VARIANCE> 25
 8.364807e+00 1.698361e+01 1.838310e+01 3.212746e+01 3.955627e+01 3.344964e+01 4.523751e+01 4.428016e+01 4.255445e+01 3.909478e+01 3.004902e+01 2.593548e+01 1.815364e-01 4.416687e-01 5.418574e-01 6.099012e-01 1.410756e+00 9.258859e-01 1.230313e+00 1.237139e+00 1.120827e+00 8.829122e-01 8.335343e-01 8.447228e-01 1.669523e-04
<GCONST> 7.414719e+01
<MIXTURE> 111 4.337247e-03
<MEAN> 25
 -4.471721e+00 -8.989407e-01 -1.724323e+00 1.692863e+00 9.733756e-01 9.639852e-01 3.240277e-01 2.167956e-01 9.760502e-02 -5.434750e-01 -6.217390e-01 1.965833e+00 -2.145517e-02 -3.175478e-02 -7.190947e-02 -7.262301e-02 -3.791612e-02 6.364733e-03 -7.632262e-07 -5.874671e-02 -1.406915e-01 -2.029786e-01 -1.899243e-01 -1.052238e-01 -2.192214e-04
<VARIANCE> 25
 6.994157e+00 5.013676e+00 1.021248e+01 9.409440e+00 1.313834e+01 2.384466e+01 1.471087e+01 1.320008e+01 1.164455e+01 1.191062e+01 1.365630e+01 1.157837e+01 7.920171e-02 1.640508e-01 2.750766e-01 4.210387e-01 5.694925e-01 7.050979e-01 8.007873e-01 8.577605e-01 8.930646e-01 8.564461e-01 8.612743e-01 8.481956e-01 2.232110e-05
<GCONST> 5.600191e+01
<MIXTURE> 112 4.337247e-03
<MEAN> 25
 -4.471721e+00 -8.989407e-01 -1.724323e+00 1.692863e+00 9.733756e-01 9.639852e-01 3.240277e-01 2.167956e-01 9.760502e-02 -5.434750e-01 -6.217390e-01 1.965833e+00 -2.145517e-02 -3.175478e-02 -7.190947e-02 -7.262301e-02 -3.791612e-02 6.364733e-03 -7.632262e-07 -5.874671e-02 -1.406915e-01 -2.029786e-01 -1.899243e-01 -1.052238e-01 -2.192214e-04
<VARIANCE> 25
 6.994157e+00 5.013676e+00 1.021248e+01 9.409440e+00 1.313834e+01 2.384466e+01 1.471087e+01 1.320008e+01 1.164455e+01 1.191062e+01 1.365630e+01 1.157837e+01 7.920171e-02 1.640508e-01 2.750766e-01 4.210387e-01 5.694925e-01 7.050979e-01 8.007873e-01 8.577605e-01 8.930646e-01 8.564461e-01 8.612743e-01 8.481956e-01 2.232110e-05
<GCONST> 5.600191e+01
<MIXTURE> 113 5.938666e-03
<MEAN> 25
 9.939233e+00 1.647689e+00 -8.840850e+00 -1.703406e+01 -9.820423e-01 5.757265e+00 -5.175363e+00 -1.474651e+00 -5.700856e+00 -3.806272e-01 2.755589e-01 -3.518751e-01 3.304087e-03 1.507367e-02 -6.231546e-02 -1.292738e-01 1.271705e-01 1.512651e-01 3.639415e-02 4.557300e-02 -8.071303e-02 -3.268201e-02 1.862757e-01 3.255905e-02 -1.373545e-03
<VARIANCE> 25
 8.943329e+00 1.673958e+01 2.925921e+01 3.357927e+01 5.198059e+01 3.425044e+01 3.951610e+01 3.868849e+01 3.704348e+01 4.644003e+01 3.677078e+01 2.907818e+01 1.213142e-01 3.146931e-01 3.127048e-01 6.374465e-01 6.340422e-01 6.580426e-01 8.196962e-01 8.598124e-01 9.704641e-01 9.228047e-01 7.452552e-01 7.059538e-01 1.244381e-04
<GCONST> 7.124091e+01
<MIXTURE> 114 5.938666e-03
<MEAN> 25
 9.939233e+00 1.647689e+00 -8.840850e+00 -1.703406e+01 -9.820423e-01 5.757265e+00 -5.175363e+00 -1.474651e+00 -5.700856e+00 -3.806272e-01 2.755589e-01 -3.518751e-01 3.304087e-03 1.507367e-02 -6.231546e-02 -1.292738e-01 1.271705e-01 1.512651e-01 3.639415e-02 4.557300e-02 -8.071303e-02 -3.268201e-02 1.862757e-01 3.255905e-02 -1.373545e-03
<VARIANCE> 25
 8.943329e+00 1.673958e+01 2.925921e+01 3.357927e+01 5.198059e+01 3.425044e+01 3.951610e+01 3.868849e+01 3.704348e+01 4.644003e+01 3.677078e+01 2.907818e+01 1.213142e-01 3.146931e-01 3.127048e-01 6.374465e-01 6.340422e-01 6.580426e-01 8.196962e-01 8.598124e-01 9.704641e-01 9.228047e-01 7.452552e-01 7.059538e-01 1.244381e-04
<GCONST> 7.124091e+01
<MIXTURE> 115 2.935202e-03
<MEAN> 25
 -4.028363e+00 -7.304916e-01 -3.108059e+00 3.660488e+00 2.421482e+00 -4.149634e-01 2.242499e+00 4.027230e-01 1.404134e+00 -2.050057e-02 5.046720e-02 2.689431e+00 3.185776e-02 -7.169518e-02 -2.307145e-01 -4.383463e-01 -6.318594e-01 -6.685033e-01 -5.927307e-01 -5.089286e-01 -4.831713e-01 -4.551230e-01 -3.422869e-01 -1.624069e-01 -5.396852e-06
<VARIANCE> 25
 9.247535e+00 1.004426e+01 1.353552e+01 1.267826e+01 1.351312e+01 1.758973e+01 1.706799e+01 2.080528e+01 1.804516e+01 1.721910e+01 1.918278e+01 1.464631e+01 2.033277e-01 3.448529e-01 4.846678e-01 5.611274e-01 6.337707e-01 7.979951e-01 1.008069e+00 1.131214e+00 1.077209e+00 9.990494e-01 1.026949e+00 1.066900e+00 1.004976e-06
<GCONST> 6.018813e+01
<MIXTURE> 116 2.935202e-03
<MEAN> 25
 -4.028363e+00 -7.304916e-01 -3.108059e+00 3.660488e+00 2.421482e+00 -4.149634e-01 2.242499e+00 4.027230e-01 1.404134e+00 -2.050057e-02 5.046720e-02 2.689431e+00 3.185776e-02 -7.169518e-02 -2.307145e-01 -4.383463e-01 -6.318594e-01 -6.685033e-01 -5.927307e-01 -5.089286e-01 -4.831713e-01 -4.551230e-01 -3.422869e-01 -1.624069e-01 -5.396852e-06
<VARIANCE> 25
 9.247535e+00 1.004426e+01 1.353552e+01 1.267826e+01 1.351312e+01 1.758973e+01 1.706799e+01 2.080528e+01 1.804516e+01 1.721910e+01 1.918278e+01 1.464631e+01 2.033277e-01 3.448529e-01 4.846678e-01 5.611274e-01 6.337707e-01 7.979951e-01 1.008069e+00 1.131214e+00 1.077209e+00 9.990494e-01 1.026949e+00 1.066900e+00 1.004976e-06
<GCONST> 6.018813e+01
<MIXTURE> 117 6.506003e-03
<MEAN> 25
 -4.620277e+00 1.688946e+00 6.571469e-01 9.341900e+00 6.345454e+00 6.431037e+00 6.557098e+00 4.405492e+00 6.551270e+00 4.535810e+00 6.362764e+00 2.852592e+00 -6.135655e-02 -2.135241e-01 -3.328298e-01 -3.811069e-01 -3.379883e-01 -2.708090e-01 -2.764147e-01 -3.067552e-01 -3.323340e-01 -3.273261e-01 -2.195880e-01 -1.227721e-01 -2.685858e-05
<VARIANCE> 25
 6.536202e+00 1.064998e+01 1.041797e+01 1.442601e+01 1.434381e+01 1.438608e+01 1.659752e+01 1.986328e+01 1.574042e+01 1.679370e+01 1.576067e+01 1.414706e+01 2.031420e-01 2.888368e-01 4.227799e-01 5.863198e-01 8.007129e-01 9.816235e-01 1.098684e+00 1.171370e+00 1.232317e+00 1.161959e+00 1.185515e+00 1.066846e+00 1.187324e-06
<GCONST> 6.004541e+01
<MIXTURE> 118 6.506003e-03
<MEAN> 25
 -4.620277e+00 1.688946e+00 6.571469e-01 9.341900e+00 6.345454e+00 6.431037e+00 6.557098e+00 4.405492e+00 6.551270e+00 4.535810e+00 6.362764e+00 2.852592e+00 -6.135655e-02 -2.135241e-01 -3.328298e-01 -3.811069e-01 -3.379883e-01 -2.708090e-01 -2.764147e-01 -3.067552e-01 -3.323340e-01 -3.273261e-01 -2.195880e-01 -1.227721e-01 -2.685858e-05
<VARIANCE> 25
 6.536202e+00 1.064998e+01 1.041797e+01 1.442601e+01 1.434381e+01 1.438608e+01 1.659752e+01 1.986328e+01 1.574042e+01 1.679370e+01 1.576067e+01 1.414706e+01 2.031420e-01 2.888368e-01 4.227799e-01 5.863198e-01 8.007129e-01 9.816235e-01 1.098684e+00 1.171370e+00 1.232317e+00 1.161959e+00 1.185515e+00 1.066846e+00 1.187324e-06
<GCONST> 6.004541e+01
<MIXTURE> 119 4.297961e-03
<MEAN> 25
 -4.976721e+00 -7.628784e+00 2.231334e+00 2.021193e+00 2.240901e+00 2.117896e-01 5.278385e+00 5.935385e+00 1.173651e+00 9.673948e-01 6.611574e+00 1.572352e+00 -4.985089e-02 -7.913236e-02 3.770879e-02 -5.719708e-02 -1.266039e-01 -1.796543e-01 -6.884560e-02 -1.389054e-02 -9.199432e-02 -1.121486e-01 -5.452799e-02 -5.827855e-02 1.106952e-03
<VARIANCE> 25
 8.500061e+00 9.850396e+00 1.656590e+01 2.019483e+01 2.285735e+01 2.322632e+01 2.499219e+01 2.650602e+01 2.509382e+01 2.805610e+01 2.039484e+01 2.040424e+01 1.603956e-01 2.826896e-01 4.600000e-01 6.326456e-01 8.033699e-01 1.003493e+00 1.100774e+00 1.277293e+00 1.285155e+00 1.245179e+00 1.192360e+00 1.111955e+00 2.315300e-04
<GCONST> 6.972444e+01
<MIXTURE> 120 4.297961e-03
<MEAN> 25
 -4.976721e+00 -7.628784e+00 2.231334e+00 2.021193e+00 2.240901e+00 2.117896e-01 5.278385e+00 5.935385e+00 1.173651e+00 9.673948e-01 6.611574e+00 1.572352e+00 -4.985089e-02 -7.913236e-02 3.770879e-02 -5.719708e-02 -1.266039e-01 -1.796543e-01 -6.884560e-02 -1.389054e-02 -9.199432e-02 -1.121486e-01 -5.452799e-02 -5.827855e-02 1.106952e-03
<VARIANCE> 25
 8.500061e+00 9.850396e+00 1.656590e+01 2.019483e+01 2.285735e+01 2.322632e+01 2.499219e+01 2.650602e+01 2.509382e+01 2.805610e+01 2.039484e+01 2.040424e+01 1.603956e-01 2.826896e-01 4.600000e-01 6.326456e-01 8.033699e-01 1.003493e+00 1.100774e+00 1.277293e+00 1.285155e+00 1.245179e+00 1.192360e+00 1.111955e+00 2.315300e-04
<GCONST> 6.972444e+01
<MIXTURE> 121 4.567511e-03
<MEAN> 25
 2.375608e-01 -2.531201e+00 5.129796e+00 -1.285985e+01 -1.264389e+01 -1.678349e+00 9.710431e-01 -5.026583e+00 -4.174964e+00 -4.769192e-01 -5.513325e+00 -4.257134e+00 2.532271e-02 1.357042e-01 -4.468413e-02 8.109877e-02 1.596794e-01 7.462715e-02 -7.408804e-02 -1.840656e-01 -2.650836e-01 -2.504363e-01 -1.216065e-01 4.371563e-03 -7.450811e-03
<VARIANCE> 25
 7.814913e+00 1.550671e+01 1.737275e+01 2.047465e+01 2.424283e+01 2.911616e+01 2.946758e+01 2.532676e+01 3.530511e+01 2.818016e+01 1.970892e+01 2.154062e+01 1.552783e-01 6.414995e-01 6.212440e-01 7.021436e-01 7.672020e-01 1.145114e+00 1.125828e+00 1.116273e+00 1.211639e+00 1.192741e+00 9.469896e-01 8.691164e-01 2.106216e-04
<GCONST> 7.141746e+01
<MIXTURE> 122 4.567511e-03
<MEAN> 25
 2.375608e-01 -2.531201e+00 5.129796e+00 -1.285985e+01 -1.264389e+01 -1.678349e+00 9.710431e-01 -5.026583e+00 -4.174964e+00 -4.769192e-01 -5.513325e+00 -4.257134e+00 2.532271e-02 1.357042e-01 -4.468413e-02 8.109877e-02 1.596794e-01 7.462715e-02 -7.408804e-02 -1.840656e-01 -2.650836e-01 -2.504363e-01 -1.216065e-01 4.371563e-03 -7.450811e-03
<VARIANCE> 25
 7.814913e+00 1.550671e+01 1.737275e+01 2.047465e+01 2.424283e+01 2.911616e+01 2.946758e+01 2.532676e+01 3.530511e+01 2.818016e+01 1.970892e+01 2.154062e+01 1.552783e-01 6.414995e-01 6.212440e-01 7.021436e-01 7.672020e-01 1.145114e+00 1.125828e+00 1.116273e+00 1.211639e+00 1.192741e+00 9.469896e-01 8.691164e-01 2.106216e-04
<GCONST> 7.141746e+01
<MIXTURE> 123 4.393044e-03
<MEAN> 25
 -3.960306e+00 2.454262e+00 -3.249823e-01 6.487249e+00 5.221322e+00 2.952719e+00 3.346666e+00 -3.953160e-02 8.468835e-01 -1.162500e+00 5.319363e-01 1.848768e+00 -4.271208e-01 -5.726075e-01 -7.412755e-01 -6.653278e-01 -3.412030e-01 1.544633e-01 4.329770e-01 7.009170e-01 8.324588e-01 7.863888e-01 6.547090e-01 6.055584e-01 -3.264063e-03
<VARIANCE> 25
 8.527911e+00 1.518046e+01 1.294398e+01 1.439967e+01 1.836826e+01 2.402512e+01 2.231131e+01 1.934782e+01 2.230966e+01 1.540140e+01 1.963985e+01 1.920394e+01 3.414709e-01 4.408274e-01 4.603440e-01 7.217445e-01 8.325988e-01 1.344859e+00 1.212630e+00 9.730551e-01 9.510127e-01 9.534730e-01 1.001380e+00 1.099863e+00 9.480824e-05
<GCONST> 6.798582e+01
<MIXTURE> 124 4.069876e-03
<MEAN> 25
 -6.279016e+00 -4.549403e-01 -2.980857e+00 5.098023e+00 5.255029e+00 3.607861e+00 5.811272e+00 2.328350e+00 3.684030e+00 1.063178e+00 1.369314e+00 3.276322e+00 -1.956547e-01 -2.839504e-01 -3.308770e-01 -1.844124e-01 1.000734e-01 4.899622e-01 7.824427e-01 8.005671e-01 5.888515e-01 2.976054e-01 4.297578e-02 1.180240e-02 1.225575e-04
<VARIANCE> 25
 1.058151e+01 1.119126e+01 1.105986e+01 1.197035e+01 1.208292e+01 1.903983e+01 1.572781e+01 1.663380e+01 1.726720e+01 1.616966e+01 1.815492e+01 1.408839e+01 9.927040e-02 1.812572e-01 2.713349e-01 4.630393e-01 5.806012e-01 7.224059e-01 7.578875e-01 8.416937e-01 9.166607e-01 9.678937e-01 9.950907e-01 9.654032e-01 1.814107e-05
<GCONST> 5.930072e+01
<MIXTURE> 125 4.069876e-03
<MEAN> 25
 -6.279016e+00 -4.549403e-01 -2.980857e+00 5.098023e+00 5.255029e+00 3.607861e+00 5.811272e+00 2.328350e+00 3.684030e+00 1.063178e+00 1.369314e+00 3.276322e+00 -1.956547e-01 -2.839504e-01 -3.308770e-01 -1.844124e-01 1.000734e-01 4.899622e-01 7.824427e-01 8.005671e-01 5.888515e-01 2.976054e-01 4.297578e-02 1.180240e-02 1.225575e-04
<VARIANCE> 25
 1.058151e+01 1.119126e+01 1.105986e+01 1.197035e+01 1.208292e+01 1.903983e+01 1.572781e+01 1.663380e+01 1.726720e+01 1.616966e+01 1.815492e+01 1.408839e+01 9.927040e-02 1.812572e-01 2.713349e-01 4.630393e-01 5.806012e-01 7.224059e-01 7.578875e-01 8.416937e-01 9.166607e-01 9.678937e-01 9.950907e-01 9.654032e-01 1.814107e-05
<GCONST> 5.930072e+01
<MIXTURE> 126 2.402244e-03
<MEAN> 25
 -3.786671e+00 -6.910802e+00 -5.285945e+00 2.327249e+00 4.284902e+00 -3.226037e+00 1.018786e-01 3.553359e+00 3.369444e+00 -2.696314e+00 -1.417158e+00 3.071681e+00 -2.573575e-03 -6.482627e-03 -3.520378e-02 -1.591242e-01 -3.189475e-01 -3.867056e-01 -2.736605e-01 -1.585001e-01 -1.130974e-01 -1.137093e-01 -9.674676e-02 -2.899013e-02 -1.468317e-03
<VARIANCE> 25
 7.407540e+00 1.281096e+01 1.380001e+01 1.510597e+01 2.462413e+01 2.370904e+01 2.301406e+01 2.833386e+01 3.145747e+01 2.617354e+01 2.174170e+01 1.924845e+01 1.702031e-01 3.514617e-01 4.817021e-01 5.681463e-01 7.519820e-01 9.968513e-01 1.120678e+00 1.262991e+00 1.326478e+00 1.313064e+00 1.211568e+00 1.145615e+00 2.101918e-04
<GCONST> 6.980154e+01
<MIXTURE> 127 2.402244e-03
<MEAN> 25
 -3.786671e+00 -6.910802e+00 -5.285945e+00 2.327249e+00 4.284902e+00 -3.226037e+00 1.018786e-01 3.553359e+00 3.369444e+00 -2.696314e+00 -1.417158e+00 3.071681e+00 -2.573575e-03 -6.482627e-03 -3.520378e-02 -1.591242e-01 -3.189475e-01 -3.867056e-01 -2.736605e-01 -1.585001e-01 -1.130974e-01 -1.137093e-01 -9.674676e-02 -2.899013e-02 -1.468317e-03
<VARIANCE> 25
 7.407540e+00 1.281096e+01 1.380001e+01 1.510597e+01 2.462413e+01 2.370904e+01 2.301406e+01 2.833386e+01 3.145747e+01 2.617354e+01 2.174170e+01 1.924845e+01 1.702031e-01 3.514617e-01 4.817021e-01 5.681463e-01 7.519820e-01 9.968513e-01 1.120678e+00 1.262991e+00 1.326478e+00 1.313064e+00 1.211568e+00 1.145615e+00 2.101918e-04
<GCONST> 6.980154e+01
<MIXTURE> 128 3.790457e-03
<MEAN> 25
 -3.904905e+00 1.572122e+00 -4.614752e-01 6.546822e+00 3.708272e+00 1.926596e+00 3.617580e+00 2.326142e+00 4.090890e+00 3.670731e+00 3.771151e+00 3.514405e+00 -3.948613e-01 -1.977253e-01 1.016354e-01 7.272637e-01 1.173238e+00 1.114791e+00 7.154624e-01 1.418961e-01 -4.303410e-01 -7.965686e-01 -7.014875e-01 -3.728320e-01 -4.166471e-05
<VARIANCE> 25
 1.011767e+01 1.163430e+01 1.572921e+01 1.911049e+01 2.022693e+01 2.116492e+01 2.405907e+01 2.458230e+01 2.710875e+01 2.379790e+01 2.645224e+01 1.807315e+01 8.790563e-01 1.132771e+00 1.345904e+00 1.486230e+00 1.565032e+00 1.867714e+00 2.219766e+00 2.313859e+00 2.125838e+00 1.849093e+00 1.726007e+00 1.756951e+00 1.013832e-06
<GCONST> 7.357652e+01
<TRANSP> 3
 0.000000e+00 1.000000e+00 0.000000e+00
 0.000000e+00 9.999990e-01 9.999998e-07
 0.000000e+00 0.000000e+00 0.000000e+00
<ENDHMM>
