~o
<STREAMINFO> 1 25
<VECSIZE> 25<NULLD><MFCC_E_D_N><DIAGC>
~h "jmodel"
<BEGINHMM>
<NUMSTATES> 3
<STATE> 2
<NUMMIXES> 128
<MIXTURE> 1 5.748963e-03
<MEAN> 25
 -2.603862e+00 3.208655e+00 2.317599e+00 8.720651e+00 4.365849e+00 3.426914e+00 4.066392e+00 3.909385e+00 5.821871e+00 5.180946e+00 5.837039e+00 3.083486e+00 -1.997423e+00 -1.621859e+00 -8.745209e-01 1.089505e+00 1.572505e+00 2.226164e+00 2.162923e+00 2.080903e+00 1.697072e+00 1.253678e+00 1.540978e+00 6.123697e-01 -4.710250e-02
<VARIANCE> 25
 1.005297e+01 1.177088e+01 1.487795e+01 1.871069e+01 2.311586e+01 2.208851e+01 2.175139e+01 2.195841e+01 2.087660e+01 2.307489e+01 2.112677e+01 1.695765e+01 1.783041e+00 2.119426e+00 3.022668e+00 3.214244e+00 3.739697e+00 3.338868e+00 3.310977e+00 3.362469e+00 3.513603e+00 3.734902e+00 3.593827e+00 2.814400e+00 3.106845e-03
<GCONST> 8.846439e+01
<MIXTURE> 2 4.549242e-03
<MEAN> 25
 -4.950005e+00 1.443792e+00 9.046229e-01 9.806284e+00 6.775018e+00 7.300085e+00 7.995435e+00 6.748765e+00 8.483753e+00 6.167231e+00 7.380009e+00 3.178903e+00 -6.853765e-02 3.876530e-02 1.390222e-01 2.228898e-01 2.732789e-01 2.836044e-01 2.833626e-01 2.966388e-01 3.466818e-01 3.126212e-01 1.778642e-01 8.212309e-02 -3.104646e-05
<VARIANCE> 25
 6.873712e+00 9.042926e+00 1.054227e+01 1.563610e+01 1.685854e+01 1.546838e+01 1.713039e+01 1.932359e+01 1.656868e+01 1.792297e+01 1.911706e+01 1.421258e+01 1.228585e-01 2.220472e-01 3.270895e-01 4.577501e-01 6.445863e-01 7.994346e-01 9.098399e-01 1.063607e+00 1.037786e+00 1.048151e+00 1.053459e+00 9.932413e-01 1.090056e-06
<GCONST> 5.804949e+01
<MIXTURE> 3 4.549242e-03
<MEAN> 25
 -4.950005e+00 1.443792e+00 9.046229e-01 9.806284e+00 6.775018e+00 7.300085e+00 7.995435e+00 6.748765e+00 8.483753e+00 6.167231e+00 7.380009e+00 3.178903e+00 -6.853765e-02 3.876530e-02 1.390222e-01 2.228898e-01 2.732789e-01 2.836044e-01 2.833626e-01 2.966388e-01 3.466818e-01 3.126212e-01 1.778642e-01 8.212309e-02 -3.104646e-05
<VARIANCE> 25
 6.873712e+00 9.042926e+00 1.054227e+01 1.563610e+01 1.685854e+01 1.546838e+01 1.713039e+01 1.932359e+01 1.656868e+01 1.792297e+01 1.911706e+01 1.421258e+01 1.228585e-01 2.220472e-01 3.270895e-01 4.577501e-01 6.445863e-01 7.994346e-01 9.098399e-01 1.063607e+00 1.037786e+00 1.048151e+00 1.053459e+00 9.932413e-01 1.090056e-06
<GCONST> 5.804949e+01
<MIXTURE> 4 1.671429e-02
<MEAN> 25
 3.058781e+00 2.291582e+00 -4.408669e+00 9.424517e-01 3.500314e+00 -3.677656e-01 1.618963e+00 -2.733456e-01 2.044159e+00 5.274132e-01 -1.702738e+00 5.805755e-01 -2.409230e+00 1.314683e+00 1.593077e+00 2.852485e+00 9.470871e-01 1.185629e-01 1.478047e+00 3.874553e-01 9.758099e-01 3.343613e-01 9.420764e-01 7.446394e-01 -1.038420e-01
<VARIANCE> 25
 1.780960e+01 3.223243e+01 2.645891e+01 3.390067e+01 4.044002e+01 5.345118e+01 5.576418e+01 4.281310e+01 5.261325e+01 4.912959e+01 4.373223e+01 3.069724e+01 2.404709e+00 4.513747e+00 3.375420e+00 4.737015e+00 4.520415e+00 6.078753e+00 4.885745e+00 5.728850e+00 5.448282e+00 5.589238e+00 7.421923e+00 3.624885e+00 5.470433e-03
<GCONST> 1.029166e+02
<MIXTURE> 5 3.206198e-03
<MEAN> 25
 -3.419595e+00 2.184793e+00 6.080512e-01 9.427045e+00 6.698662e+00 6.311742e+00 7.115862e+00 4.717934e+00 5.499682e+00 3.843523e+00 4.653714e+00 2.609940e+00 -3.245336e-01 7.517312e-01 1.223719e+00 1.031867e+00 3.079175e-01 -9.997458e-02 -8.358759e-02 3.272228e-02 4.582769e-01 6.837795e-01 4.034562e-01 8.824827e-02 -2.860076e-05
<VARIANCE> 25
 1.024608e+01 1.394075e+01 2.347180e+01 2.559658e+01 2.020666e+01 1.942661e+01 2.010572e+01 2.037337e+01 2.141616e+01 2.128664e+01 2.410052e+01 1.635826e+01 1.208930e+00 1.244473e+00 1.357027e+00 1.672509e+00 2.283005e+00 2.374215e+00 2.299988e+00 2.275722e+00 2.314105e+00 2.236327e+00 2.084071e+00 1.873385e+00 1.003274e-06
<GCONST> 7.516109e+01
<MIXTURE> 6 5.475854e-03
<MEAN> 25
 9.592357e+00 -7.861208e-01 -7.376898e+00 -1.007732e+01 -2.383770e+00 6.427634e+00 -5.857949e+00 -4.787683e+00 -3.464952e+00 1.632957e+00 5.271618e+00 -1.676511e+00 4.405477e-01 8.232601e-01 -2.892539e-01 -1.512240e+00 -5.732601e-01 1.237229e+00 1.586875e+00 2.519849e-01 -1.276161e+00 -1.086098e+00 3.562422e-01 1.132509e+00 -6.742759e-03
<VARIANCE> 25
 8.358896e+00 1.705260e+01 2.670820e+01 4.565342e+01 3.610047e+01 3.001515e+01 4.089035e+01 3.791411e+01 3.960912e+01 4.183683e+01 4.242105e+01 2.811252e+01 3.308237e-01 8.370383e-01 1.022124e+00 1.876406e+00 1.567062e+00 2.011200e+00 1.883610e+00 2.070656e+00 2.506044e+00 2.173350e+00 2.256549e+00 1.459531e+00 5.562042e-04
<GCONST> 8.411224e+01
<MIXTURE> 7 5.475854e-03
<MEAN> 25
 9.592357e+00 -7.861208e-01 -7.376898e+00 -1.007732e+01 -2.383770e+00 6.427634e+00 -5.857949e+00 -4.787683e+00 -3.464952e+00 1.632957e+00 5.271618e+00 -1.676511e+00 4.405477e-01 8.232601e-01 -2.892539e-01 -1.512240e+00 -5.732601e-01 1.237229e+00 1.586875e+00 2.519849e-01 -1.276161e+00 -1.086098e+00 3.562422e-01 1.132509e+00 -6.742759e-03
<VARIANCE> 25
 8.358896e+00 1.705260e+01 2.670820e+01 4.565342e+01 3.610047e+01 3.001515e+01 4.089035e+01 3.791411e+01 3.960912e+01 4.183683e+01 4.242105e+01 2.811252e+01 3.308237e-01 8.370383e-01 1.022124e+00 1.876406e+00 1.567062e+00 2.011200e+00 1.883610e+00 2.070656e+00 2.506044e+00 2.173350e+00 2.256549e+00 1.459531e+00 5.562042e-04
<GCONST> 8.411224e+01
<MIXTURE> 8 1.165917e-02
<MEAN> 25
 -4.726838e+00 1.429049e+00 1.188274e+00 9.466353e+00 6.561166e+00 6.143313e+00 6.523344e+00 5.594049e+00 6.769514e+00 5.673823e+00 6.532239e+00 3.215854e+00 -6.080030e-01 -1.424334e+00 -1.056927e+00 -1.666794e+00 -2.199530e-01 -9.598431e-01 -2.033240e-01 -3.389695e-01 -2.673466e-01 -1.867837e-01 -2.462371e-01 6.758539e-02 9.924785e-02
<VARIANCE> 25
 9.192676e+00 9.928359e+00 1.209988e+01 1.628488e+01 1.647447e+01 1.619921e+01 1.794262e+01 1.788710e+01 1.754109e+01 1.731837e+01 1.868694e+01 1.401620e+01 2.740159e+00 2.778603e+00 3.858542e+00 3.939905e+00 3.410908e+00 3.275726e+00 3.126584e+00 3.210360e+00 2.838025e+00 2.629895e+00 2.457064e+00 1.882219e+00 6.631050e-03
<GCONST> 8.638327e+01
<MIXTURE> 9 1.199672e-02
<MEAN> 25
 9.274016e+00 3.203902e+00 -6.431763e+00 -1.032658e+01 -2.330916e+00 4.879590e+00 -2.206469e+00 -2.358840e+00 -5.135532e+00 -1.386871e+00 7.047737e-01 2.558349e-03 1.400842e+00 -1.190118e-01 -4.722695e-01 -2.681079e+00 -1.659804e+00 9.011265e-01 -9.478217e-01 -1.786385e-01 -2.329374e-01 -6.059321e-01 6.777851e-01 -1.815247e-01 7.227359e-02
<VARIANCE> 25
 1.214698e+01 2.268643e+01 3.577760e+01 5.820173e+01 4.981319e+01 3.232236e+01 4.237190e+01 5.133748e+01 4.462994e+01 4.162701e+01 3.663146e+01 2.651100e+01 2.122239e+00 2.407290e+00 4.507846e+00 4.812436e+00 4.974977e+00 4.173675e+00 4.208704e+00 6.047254e+00 5.068793e+00 4.137132e+00 4.259109e+00 2.811526e+00 2.224123e-03
<GCONST> 9.907706e+01
<MIXTURE> 10 6.596976e-03
<MEAN> 25
 6.022700e-01 7.449079e+00 5.159503e+00 6.548418e+00 1.574457e+00 -2.089568e+00 -3.691310e-01 -1.748575e+00 1.081699e+00 5.145853e-01 6.736832e-01 8.973081e-01 -1.778668e+00 -5.724321e-01 -7.708151e-01 3.044848e+00 2.549413e+00 2.570832e+00 2.476210e+00 2.144783e+00 2.072741e+00 1.350574e+00 1.996727e+00 5.274172e-01 -1.336466e-01
<VARIANCE> 25
 1.856848e+01 1.975183e+01 2.089542e+01 3.367284e+01 3.614509e+01 3.283747e+01 3.267812e+01 3.164055e+01 2.565511e+01 2.770348e+01 3.226555e+01 2.348148e+01 2.333973e+00 3.229546e+00 6.252132e+00 4.922942e+00 5.288289e+00 4.246811e+00 4.472097e+00 4.566467e+00 4.892394e+00 4.954114e+00 5.094964e+00 2.911343e+00 2.663634e-03
<GCONST> 9.715633e+01
<MIXTURE> 11 1.633820e-02
<MEAN> 25
 7.244088e+00 3.928943e+00 3.095015e+00 5.761845e+00 -2.442827e+00 -1.171400e+00 -7.982957e-01 -7.261760e+00 -3.747298e+00 1.139601e+00 -2.770270e+00 -1.606794e+00 -2.577032e-01 5.698848e-01 8.163659e-02 4.732559e-01 5.335479e-01 -9.064929e-02 4.777025e-01 -3.329495e-01 -1.922272e-01 -2.048508e-01 -2.684872e-01 9.266624e-02 -1.685670e-02
<VARIANCE> 25
 9.875850e+00 2.724167e+01 2.647164e+01 2.648865e+01 4.050893e+01 3.519727e+01 5.236859e+01 3.740531e+01 3.759502e+01 3.479447e+01 3.432325e+01 2.840737e+01 8.268198e-01 1.256814e+00 1.508766e+00 2.345187e+00 1.717166e+00 1.813902e+00 2.071640e+00 2.589216e+00 1.868321e+00 2.054340e+00 1.900105e+00 1.499303e+00 8.373386e-04
<GCONST> 8.642049e+01
<MIXTURE> 12 5.904134e-03
<MEAN> 25
 1.076504e+01 3.742148e+00 -4.504511e+00 -1.599122e+01 -8.695249e+00 8.641448e+00 -8.978729e-01 -1.921332e+00 -1.723344e+00 -4.885074e+00 1.776607e+00 7.152874e-01 6.768879e-02 2.937228e-01 7.969002e-02 -3.685397e-01 -3.101506e-01 2.951142e-02 3.058159e-01 4.477483e-01 1.409070e-01 -3.845797e-01 -3.854345e-01 5.391933e-02 -6.299610e-03
<VARIANCE> 25
 8.882751e+00 2.101014e+01 2.336986e+01 3.505968e+01 4.206145e+01 3.096375e+01 4.179473e+01 4.897545e+01 4.405667e+01 3.739898e+01 3.800841e+01 2.893149e+01 2.467934e-01 6.882170e-01 6.860702e-01 1.170125e+00 1.186380e+00 1.053700e+00 1.171390e+00 1.386137e+00 1.241192e+00 1.222537e+00 1.221541e+00 9.563221e-01 5.785877e-04
<GCONST> 7.892339e+01
<MIXTURE> 13 5.904134e-03
<MEAN> 25
 1.076504e+01 3.742148e+00 -4.504511e+00 -1.599122e+01 -8.695249e+00 8.641448e+00 -8.978729e-01 -1.921332e+00 -1.723344e+00 -4.885074e+00 1.776607e+00 7.152874e-01 6.768879e-02 2.937228e-01 7.969002e-02 -3.685397e-01 -3.101506e-01 2.951142e-02 3.058159e-01 4.477483e-01 1.409070e-01 -3.845797e-01 -3.854345e-01 5.391933e-02 -6.299610e-03
<VARIANCE> 25
 8.882751e+00 2.101014e+01 2.336986e+01 3.505968e+01 4.206145e+01 3.096375e+01 4.179473e+01 4.897545e+01 4.405667e+01 3.739898e+01 3.800841e+01 2.893149e+01 2.467934e-01 6.882170e-01 6.860702e-01 1.170125e+00 1.186380e+00 1.053700e+00 1.171390e+00 1.386137e+00 1.241192e+00 1.222537e+00 1.221541e+00 9.563221e-01 5.785877e-04
<GCONST> 7.892339e+01
<MIXTURE> 14 6.488954e-03
<MEAN> 25
 -4.339571e+00 1.273783e-01 -7.737328e-01 8.364661e+00 7.516450e+00 6.788333e+00 8.050234e+00 7.132793e+00 7.871712e+00 5.235246e+00 6.707515e+00 4.218374e+00 -2.592947e-01 1.272559e-01 3.622932e-01 4.508362e-01 9.156322e-02 -5.612269e-02 3.815813e-02 5.870625e-02 2.252974e-01 5.280466e-01 3.307534e-01 4.063481e-02 -6.810642e-03
<VARIANCE> 25
 8.643809e+00 1.486978e+01 1.990569e+01 1.894546e+01 1.982867e+01 2.151036e+01 2.021747e+01 1.944693e+01 2.336191e+01 2.337292e+01 2.016895e+01 1.489464e+01 8.798874e-01 1.583749e+00 1.642335e+00 2.019914e+00 2.151104e+00 2.254422e+00 2.224451e+00 2.428179e+00 2.177056e+00 2.307179e+00 2.309555e+00 1.698150e+00 1.018157e-03
<GCONST> 8.166077e+01
<MIXTURE> 15 2.475190e-03
<MEAN> 25
 -5.491973e+00 -2.052380e-01 -3.105614e-01 7.172214e+00 5.816678e+00 5.566980e+00 6.302763e+00 4.692760e+00 5.565275e+00 4.007586e+00 5.353445e+00 2.702988e+00 -1.347231e-01 -2.774629e-02 7.220136e-02 1.896982e-01 5.220460e-01 7.467212e-01 1.002036e+00 1.255648e+00 1.065513e+00 7.198415e-01 3.926019e-01 1.538942e-01 -2.468883e-05
<VARIANCE> 25
 6.677232e+00 7.236395e+00 9.441001e+00 1.248227e+01 1.321136e+01 1.403241e+01 1.467667e+01 1.647245e+01 1.500143e+01 1.369396e+01 1.425773e+01 1.217376e+01 1.187805e-01 1.957279e-01 3.067460e-01 5.128602e-01 6.831887e-01 7.883734e-01 7.724853e-01 8.443800e-01 8.768048e-01 9.611555e-01 1.071840e+00 9.841671e-01 2.663933e-05
<GCONST> 5.847836e+01
<MIXTURE> 16 2.475190e-03
<MEAN> 25
 -5.491973e+00 -2.052380e-01 -3.105614e-01 7.172214e+00 5.816678e+00 5.566980e+00 6.302763e+00 4.692760e+00 5.565275e+00 4.007586e+00 5.353445e+00 2.702988e+00 -1.347231e-01 -2.774629e-02 7.220136e-02 1.896982e-01 5.220460e-01 7.467212e-01 1.002036e+00 1.255648e+00 1.065513e+00 7.198415e-01 3.926019e-01 1.538942e-01 -2.468883e-05
<VARIANCE> 25
 6.677232e+00 7.236395e+00 9.441001e+00 1.248227e+01 1.321136e+01 1.403241e+01 1.467667e+01 1.647245e+01 1.500143e+01 1.369396e+01 1.425773e+01 1.217376e+01 1.187805e-01 1.957279e-01 3.067460e-01 5.128602e-01 6.831887e-01 7.883734e-01 7.724853e-01 8.443800e-01 8.768048e-01 9.611555e-01 1.071840e+00 9.841671e-01 2.663933e-05
<GCONST> 5.847836e+01
<MIXTURE> 17 9.518312e-03
<MEAN> 25
 2.951453e+00 -2.049965e+00 5.912450e+00 4.614490e-01 -5.729412e+00 -5.805181e+00 -1.288618e+00 1.528872e+00 -3.304783e+00 -1.795905e+00 -1.276878e+00 -3.072302e-01 -7.723981e-01 -1.215783e+00 1.757877e+00 -2.187254e+00 -2.292456e+00 -1.880163e-01 -5.011491e-01 8.402361e-01 -5.141001e-01 3.299105e-01 1.396715e+00 1.294147e-01 7.861816e-02
<VARIANCE> 25
 1.379767e+01 3.324509e+01 3.623928e+01 5.022188e+01 3.400829e+01 4.841987e+01 6.316172e+01 3.905325e+01 2.953771e+01 3.029279e+01 3.900046e+01 2.929657e+01 1.477282e+00 2.357471e+00 3.542890e+00 3.339863e+00 3.573064e+00 4.858136e+00 6.369206e+00 3.887645e+00 3.588922e+00 4.876447e+00 2.685444e+00 2.843774e+00 1.952384e-03
<GCONST> 9.707527e+01
<MIXTURE> 18 1.221018e-02
<MEAN> 25
 3.496343e+00 3.326112e+00 6.344867e+00 6.329926e+00 -4.945497e+00 -8.486007e+00 -1.071962e+00 -1.242326e+00 -1.907206e+00 -3.045300e+00 -1.178192e+00 1.089469e+00 -7.671548e-01 2.102397e+00 -5.383600e-02 1.809901e+00 3.202381e+00 1.186930e+00 1.595702e+00 -1.642434e-01 5.280743e-01 7.327135e-01 -4.652511e-01 8.225969e-03 -1.263637e-01
<VARIANCE> 25
 1.467266e+01 3.272053e+01 2.977782e+01 4.703740e+01 4.540018e+01 3.215555e+01 3.863128e+01 3.243007e+01 4.184886e+01 3.074987e+01 3.003697e+01 2.713164e+01 2.178799e+00 2.706441e+00 4.699237e+00 5.148719e+00 3.616644e+00 4.739409e+00 6.807889e+00 3.867159e+00 4.576291e+00 4.113451e+00 4.197491e+00 3.057649e+00 3.641193e-03
<GCONST> 9.859241e+01
<MIXTURE> 19 9.912824e-03
<MEAN> 25
 -9.544685e+00 2.650672e+00 7.286315e-01 1.864403e+00 5.518655e+00 1.810272e+00 4.421463e+00 1.724551e+00 2.672417e+00 1.185719e+00 5.400501e-01 1.666518e+00 1.957884e+00 1.752603e+00 2.279256e+00 5.992330e-01 -1.022097e+00 -1.032462e+00 -1.279382e+00 -1.458791e+00 -1.758284e+00 -1.136141e+00 -8.189752e-01 -9.960807e-01 1.236256e-02
<VARIANCE> 25
 4.672025e+01 2.850658e+01 4.176425e+01 4.787344e+01 4.026685e+01 2.922635e+01 3.086738e+01 2.704565e+01 2.655791e+01 2.390682e+01 2.694269e+01 1.749280e+01 2.264570e+00 1.855997e+00 1.973304e+00 2.292186e+00 2.598985e+00 1.911834e+00 2.468819e+00 2.049885e+00 2.058067e+00 1.878725e+00 2.080104e+00 1.770475e+00 3.143055e-03
<GCONST> 9.021185e+01
<MIXTURE> 20 6.308331e-03
<MEAN> 25
 -1.418080e+01 7.416031e+00 8.452559e-01 6.152166e+00 4.843992e+00 1.637329e+00 5.209314e+00 8.540294e-01 9.228534e-01 7.982299e-01 2.568299e+00 -3.020775e-01 -3.285699e+00 -8.668444e-01 -1.565148e+00 3.327186e-01 1.541047e+00 2.063068e+00 1.979308e+00 2.056131e+00 2.144441e+00 2.040019e+00 1.684529e+00 9.452689e-01 4.731481e-02
<VARIANCE> 25
 1.966641e+01 2.345381e+01 3.095794e+01 3.717303e+01 3.084959e+01 2.788860e+01 2.993020e+01 3.147385e+01 2.796492e+01 2.821431e+01 2.515840e+01 2.091724e+01 2.092529e+00 2.182081e+00 1.909785e+00 2.541357e+00 2.702532e+00 2.312947e+00 2.309954e+00 2.319878e+00 2.235540e+00 2.652576e+00 2.241777e+00 1.865512e+00 1.886750e-03
<GCONST> 8.921870e+01
<MIXTURE> 21 7.928653e-03
<MEAN> 25
 2.426959e+00 -5.244934e+00 6.391727e+00 -2.890916e+00 -1.027856e+01 -8.782476e+00 -2.293659e+00 4.700485e+00 -2.924228e+00 -8.910596e-01 -5.512247e-01 1.575419e+00 -8.616463e-01 1.189112e+00 2.536983e+00 4.412365e-02 -1.204230e+00 4.373403e-01 -4.536257e-01 -1.503326e+00 -1.823773e+00 -1.173007e-01 1.395374e+00 3.566131e-01 -1.084301e-02
<VARIANCE> 25
 1.380169e+01 1.621886e+01 2.537119e+01 2.654651e+01 2.253026e+01 2.592234e+01 3.651022e+01 3.154055e+01 3.616387e+01 4.179190e+01 2.859080e+01 2.236146e+01 3.579561e-01 1.007095e+00 1.443759e+00 1.025925e+00 2.249693e+00 1.752760e+00 5.714709e+00 1.947111e+00 1.756175e+00 2.723539e+00 1.621929e+00 1.851339e+00 4.330637e-04
<GCONST> 8.314434e+01
<MIXTURE> 22 8.827789e-03
<MEAN> 25
 -1.792029e+01 7.154703e+00 -4.131111e+00 7.392349e+00 4.602866e+00 2.761114e+00 8.399698e+00 1.748567e+00 5.379400e+00 3.300647e+00 5.716127e+00 1.185336e+00 -3.095812e-01 -2.075897e-01 -1.255949e-01 -1.491796e-01 -7.125162e-03 1.370069e-01 1.808583e-01 1.779861e-01 2.484448e-01 2.072777e-01 1.726149e-01 1.924327e-01 8.856279e-03
<VARIANCE> 25
 8.123454e+00 1.682463e+01 1.738358e+01 2.517110e+01 2.289712e+01 2.083615e+01 1.943027e+01 1.871041e+01 1.813918e+01 2.086827e+01 1.924257e+01 1.378728e+01 1.090706e+00 1.357307e+00 1.363954e+00 1.572090e+00 1.408871e+00 1.526942e+00 1.509088e+00 1.532797e+00 1.614202e+00 1.544699e+00 1.357410e+00 1.167976e+00 1.745543e-03
<GCONST> 7.831014e+01
<MIXTURE> 23 6.455497e-03
<MEAN> 25
 7.745023e+00 2.589386e+00 2.806269e+00 2.761662e+00 -4.309266e+00 -2.860629e+00 -3.500700e+00 -6.619119e+00 -3.543450e+00 -8.082154e-01 -4.133533e+00 -2.075309e+00 8.762297e-03 1.809788e-01 3.529467e-02 5.717184e-02 8.403310e-03 4.166991e-02 6.512053e-02 -9.546153e-03 -5.521903e-03 -8.379225e-02 -2.743904e-02 2.041131e-02 -4.285813e-03
<VARIANCE> 25
 1.035342e+01 2.296567e+01 2.559436e+01 3.979200e+01 4.198431e+01 5.216426e+01 6.474382e+01 5.168267e+01 4.564020e+01 4.542815e+01 4.579897e+01 3.875496e+01 1.238185e-01 3.131376e-01 4.033827e-01 4.603786e-01 5.725492e-01 6.725894e-01 7.742741e-01 9.029270e-01 8.458879e-01 1.069203e+00 8.354526e-01 7.217426e-01 8.289697e-05
<GCONST> 7.301991e+01
<MIXTURE> 24 6.455497e-03
<MEAN> 25
 7.745023e+00 2.589386e+00 2.806269e+00 2.761662e+00 -4.309266e+00 -2.860629e+00 -3.500700e+00 -6.619119e+00 -3.543450e+00 -8.082154e-01 -4.133533e+00 -2.075309e+00 8.762297e-03 1.809788e-01 3.529467e-02 5.717184e-02 8.403310e-03 4.166991e-02 6.512053e-02 -9.546153e-03 -5.521903e-03 -8.379225e-02 -2.743904e-02 2.041131e-02 -4.285813e-03
<VARIANCE> 25
 1.035342e+01 2.296567e+01 2.559436e+01 3.979200e+01 4.198431e+01 5.216426e+01 6.474382e+01 5.168267e+01 4.564020e+01 4.542815e+01 4.579897e+01 3.875496e+01 1.238185e-01 3.131376e-01 4.033827e-01 4.603786e-01 5.725492e-01 6.725894e-01 7.742741e-01 9.029270e-01 8.458879e-01 1.069203e+00 8.354526e-01 7.217426e-01 8.289697e-05
<GCONST> 7.301991e+01
<MIXTURE> 25 1.118642e-02
<MEAN> 25
 -1.957323e+00 1.043457e+00 1.636546e+01 -4.817206e+00 -9.295131e+00 1.916725e-01 -7.155382e+00 1.039236e+00 -8.135820e+00 -6.030114e+00 3.551430e+00 -1.688222e+00 -1.684783e-02 7.463300e-01 1.396793e-01 2.682159e-02 2.103507e-01 -4.177052e-02 3.826786e-01 -3.070833e-01 1.298897e-01 -5.628786e-02 -1.243267e-01 9.643059e-02 -2.175008e-02
<VARIANCE> 25
 5.750481e+00 1.515809e+01 1.283601e+01 2.148934e+01 2.272372e+01 3.418744e+01 1.533646e+01 1.945501e+01 1.399053e+01 2.351787e+01 1.541786e+01 2.187453e+01 4.895211e-01 1.510745e+00 1.350918e+00 9.444529e-01 1.559229e+00 2.130982e+00 1.459476e+00 1.251389e+00 9.704593e-01 1.760594e+00 7.633979e-01 1.027363e+00 1.215059e-03
<GCONST> 7.532988e+01
<MIXTURE> 26 7.727677e-03
<MEAN> 25
 2.044677e+00 -5.621048e+00 -1.039527e+01 -4.464409e-01 7.663119e+00 4.620233e+00 4.634315e+00 -7.484139e-01 3.214636e+00 -7.865897e-01 -3.156248e+00 -8.459456e-01 -5.671348e-01 8.785905e-01 1.709189e-01 8.527070e-01 2.931285e-01 2.869600e-01 3.945035e-01 3.613509e-01 4.617369e-01 1.301310e-01 4.965583e-01 4.852228e-01 -6.858707e-02
<VARIANCE> 25
 2.283334e+01 3.550512e+01 2.286838e+01 5.381513e+01 3.455127e+01 4.247382e+01 4.245124e+01 4.174188e+01 4.642746e+01 4.612809e+01 3.983819e+01 4.415603e+01 1.465534e+00 2.146897e+00 2.137787e+00 2.132836e+00 2.351443e+00 2.166787e+00 2.308710e+00 2.604051e+00 2.620034e+00 2.134088e+00 2.296424e+00 1.848599e+00 4.725512e-03
<GCONST> 9.357092e+01
<MIXTURE> 27 7.727677e-03
<MEAN> 25
 2.044677e+00 -5.621048e+00 -1.039527e+01 -4.464409e-01 7.663119e+00 4.620233e+00 4.634315e+00 -7.484139e-01 3.214636e+00 -7.865897e-01 -3.156248e+00 -8.459456e-01 -5.671348e-01 8.785905e-01 1.709189e-01 8.527070e-01 2.931285e-01 2.869600e-01 3.945035e-01 3.613509e-01 4.617369e-01 1.301310e-01 4.965583e-01 4.852228e-01 -6.858707e-02
<VARIANCE> 25
 2.283334e+01 3.550512e+01 2.286838e+01 5.381513e+01 3.455127e+01 4.247382e+01 4.245124e+01 4.174188e+01 4.642746e+01 4.612809e+01 3.983819e+01 4.415603e+01 1.465534e+00 2.146897e+00 2.137787e+00 2.132836e+00 2.351443e+00 2.166787e+00 2.308710e+00 2.604051e+00 2.620034e+00 2.134088e+00 2.296424e+00 1.848599e+00 4.725512e-03
<GCONST> 9.357092e+01
<MIXTURE> 28 5.036674e-03
<MEAN> 25
 -5.466420e+00 3.859202e-01 -1.614956e+00 6.696984e+00 5.454140e+00 3.441828e+00 5.729245e+00 2.858634e+00 4.288981e+00 2.227713e+00 2.436775e+00 3.382224e+00 -1.275316e-01 1.804568e-01 4.977828e-01 7.563524e-01 8.161218e-01 6.533838e-01 5.077599e-01 3.385750e-01 4.836910e-01 4.986157e-01 3.294569e-01 2.117344e-01 -1.046426e-04
<VARIANCE> 25
 9.755052e+00 9.668008e+00 1.156527e+01 1.409739e+01 1.460334e+01 1.678169e+01 1.827311e+01 1.888452e+01 1.811387e+01 1.625550e+01 2.006327e+01 1.461883e+01 2.449337e-01 3.455802e-01 3.967773e-01 4.523501e-01 5.992727e-01 8.334872e-01 1.017668e+00 1.187263e+00 1.070677e+00 9.954189e-01 1.003838e+00 1.095431e+00 1.139197e-06
<GCONST> 6.008066e+01
<MIXTURE> 29 5.036674e-03
<MEAN> 25
 -5.466420e+00 3.859202e-01 -1.614956e+00 6.696984e+00 5.454140e+00 3.441828e+00 5.729245e+00 2.858634e+00 4.288981e+00 2.227713e+00 2.436775e+00 3.382224e+00 -1.275316e-01 1.804568e-01 4.977828e-01 7.563524e-01 8.161218e-01 6.533838e-01 5.077599e-01 3.385750e-01 4.836910e-01 4.986157e-01 3.294569e-01 2.117344e-01 -1.046426e-04
<VARIANCE> 25
 9.755052e+00 9.668008e+00 1.156527e+01 1.409739e+01 1.460334e+01 1.678169e+01 1.827311e+01 1.888452e+01 1.811387e+01 1.625550e+01 2.006327e+01 1.461883e+01 2.449337e-01 3.455802e-01 3.967773e-01 4.523501e-01 5.992727e-01 8.334872e-01 1.017668e+00 1.187263e+00 1.070677e+00 9.954189e-01 1.003838e+00 1.095431e+00 1.139197e-06
<GCONST> 6.008066e+01
<MIXTURE> 30 8.917812e-03
<MEAN> 25
 -4.897660e+00 9.520071e-01 2.130011e-01 8.483921e+00 7.805468e+00 6.621511e+00 8.322853e+00 6.155967e+00 7.259144e+00 3.882520e+00 5.716238e+00 3.843610e+00 -4.502703e-02 -2.093400e-02 1.115373e-01 7.701869e-02 1.051760e-01 1.063445e-01 9.806605e-02 -9.846804e-02 2.275557e-02 1.323543e-01 8.355313e-02 1.095282e-01 -7.734077e-04
<VARIANCE> 25
 6.353819e+00 1.159632e+01 9.984311e+00 1.268226e+01 1.425926e+01 1.546669e+01 1.706340e+01 1.974822e+01 1.593814e+01 1.976758e+01 2.333749e+01 1.231144e+01 8.932155e-02 1.818387e-01 3.372833e-01 4.587034e-01 5.664291e-01 6.664745e-01 7.144350e-01 1.160327e+00 8.288987e-01 8.361766e-01 8.465065e-01 7.769674e-01 4.300694e-05
<GCONST> 5.972957e+01
<MIXTURE> 31 4.136493e-03
<MEAN> 25
 -3.311487e+00 -5.669158e+00 5.637439e-02 4.884930e+00 3.693118e+00 1.691655e+00 5.256168e+00 6.647250e+00 2.746233e+00 1.225475e+00 6.521420e+00 3.164870e+00 2.524806e-01 4.734579e-01 -2.124716e-01 3.110414e-01 1.217125e-01 4.249243e-01 1.938903e-01 1.374940e-02 3.800431e-01 3.830582e-01 1.069471e-01 1.160606e-01 -1.839259e-02
<VARIANCE> 25
 7.159216e+00 1.553377e+01 1.747691e+01 1.795953e+01 2.530141e+01 2.382194e+01 2.361773e+01 2.530557e+01 2.592515e+01 2.805561e+01 2.036796e+01 1.870912e+01 1.909882e-01 4.939518e-01 6.028185e-01 7.678838e-01 9.656008e-01 1.089935e+00 1.223678e+00 1.393046e+00 1.342495e+00 1.313967e+00 1.243633e+00 1.131288e+00 2.562945e-04
<GCONST> 7.182736e+01
<MIXTURE> 32 4.136493e-03
<MEAN> 25
 -3.311487e+00 -5.669158e+00 5.637439e-02 4.884930e+00 3.693118e+00 1.691655e+00 5.256168e+00 6.647250e+00 2.746233e+00 1.225475e+00 6.521420e+00 3.164870e+00 2.524806e-01 4.734579e-01 -2.124716e-01 3.110414e-01 1.217125e-01 4.249243e-01 1.938903e-01 1.374940e-02 3.800431e-01 3.830582e-01 1.069471e-01 1.160606e-01 -1.839259e-02
<VARIANCE> 25
 7.159216e+00 1.553377e+01 1.747691e+01 1.795953e+01 2.530141e+01 2.382194e+01 2.361773e+01 2.530557e+01 2.592515e+01 2.805561e+01 2.036796e+01 1.870912e+01 1.909882e-01 4.939518e-01 6.028185e-01 7.678838e-01 9.656008e-01 1.089935e+00 1.223678e+00 1.393046e+00 1.342495e+00 1.313967e+00 1.243633e+00 1.131288e+00 2.562945e-04
<GCONST> 7.182736e+01
<MIXTURE> 33 1.508826e-02
<MEAN> 25
 6.203072e+00 -3.916411e+00 -1.620628e+00 -2.280521e+00 -2.215578e+00 -6.088051e+00 -8.460238e+00 2.728411e+00 1.438146e+00 8.914734e-02 -4.116460e+00 -2.941667e+00 7.279154e-01 -1.152192e+00 -2.815310e+00 -1.589549e+00 1.536439e+00 1.225958e+00 -8.447104e-01 7.758139e-01 8.136086e-01 8.521242e-01 -1.817550e-01 -1.400530e+00 3.753838e-02
<VARIANCE> 25
 9.333599e+00 1.857202e+01 2.922212e+01 3.168918e+01 3.521012e+01 3.881317e+01 4.540717e+01 4.537133e+01 3.869163e+01 3.931605e+01 3.147172e+01 2.423787e+01 1.017020e+00 1.719293e+00 2.587722e+00 2.292822e+00 3.747016e+00 3.393007e+00 3.752886e+00 4.977386e+00 3.563511e+00 4.230285e+00 3.050910e+00 2.256667e+00 1.296056e-03
<GCONST> 9.255138e+01
<MIXTURE> 34 1.588179e-02
<MEAN> 25
 8.456023e+00 -1.131711e+00 -1.720126e+00 2.133305e+00 -3.277077e+00 -1.972529e+00 -5.880600e+00 -4.422726e+00 -7.206250e-01 -1.006677e-02 -2.005914e+00 -3.596500e+00 7.597154e-02 1.094747e+00 1.133133e+00 2.547380e+00 9.040764e-02 -5.464013e-01 1.045447e+00 -1.750956e+00 -3.734098e-01 1.199806e-01 -1.133560e+00 6.621335e-01 -6.123297e-02
<VARIANCE> 25
 8.405795e+00 3.202938e+01 5.211556e+01 5.077304e+01 4.746179e+01 4.668203e+01 5.767540e+01 4.759798e+01 5.122402e+01 4.674652e+01 4.599855e+01 2.768249e+01 1.222196e+00 2.247517e+00 4.480031e+00 3.719326e+00 5.502286e+00 5.798895e+00 5.861567e+00 5.405270e+00 6.640769e+00 4.688514e+00 5.462371e+00 4.428780e+00 1.281070e-03
<GCONST> 1.006812e+02
<MIXTURE> 35 1.467755e-02
<MEAN> 25
 -1.969063e+00 -5.041500e+00 -9.849226e+00 5.904297e-01 9.276203e+00 4.386148e-01 1.810347e+00 1.953449e+00 1.816397e+00 4.403162e+00 -5.615178e-02 1.898176e+00 5.852354e-01 -1.257849e+00 -1.334509e+00 -1.431027e+00 3.728574e-01 -7.899551e-01 -7.044438e-01 -1.791115e-01 -2.007604e-01 1.184644e-02 -7.622822e-01 -5.184532e-01 1.114756e-01
<VARIANCE> 25
 1.986365e+01 2.946233e+01 4.138446e+01 6.371846e+01 4.265692e+01 5.582094e+01 4.859018e+01 4.633965e+01 5.113410e+01 3.799785e+01 3.480957e+01 2.913887e+01 3.584311e+00 3.898210e+00 6.596400e+00 5.561215e+00 5.075492e+00 5.375102e+00 4.836855e+00 4.637564e+00 5.003422e+00 5.055104e+00 4.271525e+00 3.696114e+00 5.993228e-03
<GCONST> 1.037137e+02
<MIXTURE> 36 1.093293e-02
<MEAN> 25
 5.021972e+00 -3.539687e+00 7.095096e+00 2.688526e+00 -1.016695e+01 -8.955870e+00 -6.300072e+00 3.118513e+00 -1.924163e+00 -4.584207e+00 2.812229e+00 -1.677859e-01 3.652723e-01 1.561170e-01 -9.197618e-01 1.762909e-02 8.796437e-01 4.321515e-02 -4.739360e-01 2.652138e-02 4.230618e-01 5.675877e-01 -4.277382e-01 -3.253843e-01 -1.591904e-02
<VARIANCE> 25
 9.972420e+00 1.682135e+01 2.216468e+01 2.816147e+01 3.142283e+01 3.196539e+01 4.628608e+01 3.522195e+01 3.950595e+01 3.284055e+01 2.780943e+01 2.675289e+01 4.658900e-01 7.472632e-01 1.541941e+00 1.243257e+00 1.630838e+00 1.633297e+00 2.158301e+00 1.746558e+00 2.014693e+00 1.703134e+00 1.413574e+00 1.444654e+00 7.289323e-04
<GCONST> 8.221999e+01
<MIXTURE> 37 1.246826e-02
<MEAN> 25
 -1.668440e-01 6.453016e+00 1.229476e+01 -6.010053e+00 -7.493911e+00 -3.202616e-01 -5.034667e+00 -6.100758e+00 -4.457413e+00 -1.273801e+00 -1.779884e+00 -5.859951e-01 3.326478e-01 5.481613e-01 -1.861108e+00 3.302965e+00 2.003057e+00 -1.934324e-01 1.420101e+00 -2.280419e-01 1.166927e+00 2.489625e-01 -7.883740e-02 3.167535e-01 -9.204223e-02
<VARIANCE> 25
 1.248940e+01 2.412031e+01 2.374872e+01 3.819995e+01 2.993358e+01 2.889914e+01 3.224195e+01 3.382331e+01 2.952872e+01 2.670358e+01 4.021593e+01 2.487080e+01 2.470152e+00 2.957272e+00 3.221396e+00 3.528826e+00 3.347826e+00 3.697800e+00 3.378671e+00 4.066837e+00 4.997236e+00 4.527250e+00 3.980059e+00 2.373836e+00 3.193329e-03
<GCONST> 9.497439e+01
<MIXTURE> 38 1.154525e-02
<MEAN> 25
 -4.466554e+00 8.955879e+00 4.596547e+00 3.233388e+00 8.380201e-01 -5.205585e+00 -5.936652e-01 -2.762679e+00 -2.857105e+00 -3.095377e+00 -1.496537e+00 -5.368288e-01 -4.513439e+00 1.252073e+00 -3.105671e-01 1.447144e+00 2.562304e+00 1.389831e+00 2.045888e+00 9.513286e-01 7.871510e-01 6.325957e-01 1.004315e+00 3.222221e-01 4.845513e-02
<VARIANCE> 25
 3.139586e+01 2.970568e+01 3.902553e+01 3.300113e+01 4.884716e+01 3.563488e+01 3.638668e+01 4.178099e+01 3.483076e+01 3.249570e+01 2.426594e+01 2.870361e+01 2.360971e+00 3.939041e+00 3.908138e+00 5.192367e+00 4.241978e+00 5.021552e+00 4.801015e+00 4.645289e+00 4.443407e+00 4.946667e+00 4.401180e+00 3.266354e+00 2.056143e-03
<GCONST> 9.928453e+01
<MIXTURE> 39 9.501865e-03
<MEAN> 25
 7.473800e-01 2.303879e+00 1.048425e+01 -9.281199e+00 -1.063709e+01 -4.837813e-01 -3.567734e+00 -5.709500e+00 -4.848577e+00 5.952792e-01 -3.088719e+00 -2.040884e+00 -7.221535e-01 1.477183e+00 1.642449e+00 -1.424666e+00 2.176158e-02 1.303952e+00 -1.440097e+00 -8.992291e-01 2.634550e-01 1.970084e-01 -3.076914e-01 8.180472e-03 2.856478e-03
<VARIANCE> 25
 1.040891e+01 3.088150e+01 2.905607e+01 3.585987e+01 3.624686e+01 4.907853e+01 4.355330e+01 3.741988e+01 3.603786e+01 3.221022e+01 3.581779e+01 2.962715e+01 6.445190e-01 1.435609e+00 1.389858e+00 3.068951e+00 2.412105e+00 2.682448e+00 3.293181e+00 4.078199e+00 2.393235e+00 2.777641e+00 2.208260e+00 2.006647e+00 1.178330e-03
<GCONST> 9.004942e+01
<MIXTURE> 40 1.030800e-02
<MEAN> 25
 -8.240613e+00 2.906453e+00 -2.169297e+00 7.358172e+00 4.185934e+00 4.854387e+00 5.884188e+00 3.528955e+00 5.283008e+00 4.346587e+00 5.180423e+00 2.004009e+00 -1.885732e-01 -1.965587e-01 5.421686e-02 -1.260011e-01 -8.662549e-03 -1.041924e-01 1.402728e-01 6.708375e-02 1.159365e-01 1.061717e-01 3.259096e-02 -2.672100e-02 1.399109e-03
<VARIANCE> 25
 4.096944e+01 1.972660e+01 3.207929e+01 2.631477e+01 2.339150e+01 1.807857e+01 1.812092e+01 1.919147e+01 1.773402e+01 1.845981e+01 1.750350e+01 1.321444e+01 6.805051e-01 6.963865e-01 8.351089e-01 1.107085e+00 1.067708e+00 1.113408e+00 1.206310e+00 1.385782e+00 1.354321e+00 1.140700e+00 1.165394e+00 1.071122e+00 7.943287e-04
<GCONST> 7.589373e+01
<MIXTURE> 41 6.713375e-03
<MEAN> 25
 8.751354e-01 5.780134e-01 1.021143e+01 -6.917703e+00 -9.338942e+00 -2.674794e+00 -1.876371e+00 -4.443064e+00 -4.441035e+00 1.667398e+00 -1.072795e+00 -9.489648e-01 -3.997276e-02 -9.111037e-01 1.766368e+00 -3.947077e+00 -2.302975e+00 3.915501e-01 -1.251185e+00 8.091138e-03 -1.206317e+00 8.942592e-01 -4.258309e-01 -3.343172e-01 9.358306e-02
<VARIANCE> 25
 1.057115e+01 3.732516e+01 2.833970e+01 3.527520e+01 3.643901e+01 4.446526e+01 4.619543e+01 2.910848e+01 3.361985e+01 2.884386e+01 2.973779e+01 2.538647e+01 2.692477e+00 3.238792e+00 3.237738e+00 4.999412e+00 4.232234e+00 6.201262e+00 5.961810e+00 4.781637e+00 4.148686e+00 3.963058e+00 4.526167e+00 3.509054e+00 3.133748e-03
<GCONST> 9.829707e+01
<MIXTURE> 42 1.106211e-02
<MEAN> 25
 -1.813534e+00 4.952004e+00 4.998355e+00 2.542665e+00 4.498630e-01 -5.680745e+00 -1.113690e+00 -1.820480e+00 -1.453592e+00 -1.420003e+00 -2.096695e+00 1.252398e+00 3.925237e+00 -4.754127e-01 1.544530e+00 -8.360478e-02 -3.147576e+00 -1.191055e+00 -2.568903e+00 -7.373099e-01 -8.160893e-01 -6.995142e-01 5.917609e-01 -9.862919e-01 2.219748e-02
<VARIANCE> 25
 3.268999e+01 2.277416e+01 4.844538e+01 2.526966e+01 3.773441e+01 3.838691e+01 3.494706e+01 2.541946e+01 2.603185e+01 2.597840e+01 1.853118e+01 1.675943e+01 3.725697e+00 4.618258e+00 5.693604e+00 4.917876e+00 4.567861e+00 5.428637e+00 5.372755e+00 4.903091e+00 4.503064e+00 4.572049e+00 3.837900e+00 3.367142e+00 5.262445e-03
<GCONST> 9.898828e+01
<MIXTURE> 43 7.108249e-03
<MEAN> 25
 3.165973e+00 -6.304051e+00 -2.255611e+00 -5.182627e+00 -7.393806e+00 -3.408623e+00 4.148108e+00 1.324213e+00 -5.063040e+00 -7.080256e+00 -4.340645e+00 -1.244059e+00 2.361011e-01 2.159123e+00 1.915813e+00 -1.362210e-01 -1.432543e+00 -7.961457e-01 -9.667183e-01 -7.760544e-01 8.199838e-01 1.471535e+00 3.466250e-01 2.301627e-02 -4.495933e-02
<VARIANCE> 25
 9.590425e+00 1.967594e+01 2.736755e+01 3.519928e+01 3.838256e+01 3.659674e+01 3.326888e+01 3.985009e+01 3.958157e+01 3.873081e+01 2.665585e+01 2.952969e+01 6.913607e-01 1.268872e+00 1.569252e+00 2.492517e+00 2.375732e+00 2.380599e+00 2.664125e+00 3.029780e+00 2.604136e+00 2.582127e+00 2.337657e+00 1.919013e+00 9.550028e-04
<GCONST> 8.800502e+01
<MIXTURE> 44 7.328289e-03
<MEAN> 25
 -1.537911e+01 1.569163e+00 3.597034e+00 -3.254676e+00 3.410158e+00 2.095522e+00 -1.952469e-02 2.452505e+00 1.546406e+00 -7.980560e-01 1.805590e+00 1.989349e+00 -1.649279e-01 -5.929095e-04 1.566873e-01 3.037646e-01 -1.045342e-01 1.999221e-01 4.773167e-01 1.115889e-01 2.450554e-01 1.364552e-01 5.456639e-02 9.507652e-02 4.294418e-03
<VARIANCE> 25
 4.118534e+01 2.794265e+01 3.499559e+01 3.045466e+01 2.963498e+01 3.005116e+01 2.510217e+01 3.175760e+01 2.802039e+01 2.728161e+01 2.708146e+01 1.936901e+01 1.221797e+00 1.544177e+00 1.401167e+00 1.346795e+00 2.164375e+00 1.653854e+00 1.524695e+00 1.648855e+00 1.568637e+00 1.494285e+00 1.363553e+00 1.220335e+00 1.291293e-03
<GCONST> 8.451718e+01
<MIXTURE> 45 1.364932e-02
<MEAN> 25
 -1.241287e+01 3.433624e+00 -1.263708e+00 2.856443e+00 5.741675e+00 1.106997e-01 4.774829e+00 2.848846e+00 3.307702e+00 2.182441e+00 2.357782e+00 2.590215e+00 -2.934664e+00 5.910705e-01 -4.840271e-01 -5.298933e-01 1.954927e-01 -1.814959e-02 4.562560e-01 6.423675e-02 -7.167193e-02 -6.598794e-02 2.498473e-01 9.370486e-02 1.186761e-01
<VARIANCE> 25
 3.384379e+01 3.024141e+01 3.078462e+01 3.493515e+01 3.132817e+01 2.905221e+01 2.962487e+01 2.656507e+01 2.481932e+01 2.335961e+01 2.802118e+01 1.564914e+01 2.430257e+00 3.066863e+00 2.845051e+00 2.682102e+00 2.496244e+00 2.630302e+00 2.321324e+00 2.267584e+00 2.142673e+00 2.114096e+00 1.971751e+00 1.641991e+00 4.143533e-03
<GCONST> 9.056912e+01
<MIXTURE> 46 9.336259e-03
<MEAN> 25
 -8.439421e+00 2.269467e+00 1.491053e-01 7.064727e+00 5.837219e+00 3.053624e+00 7.075016e+00 4.179105e+00 5.694143e+00 4.200715e+00 4.873120e+00 3.017038e+00 9.849254e-01 1.506491e-01 -2.361628e-02 1.036570e+00 5.512366e-01 9.185635e-01 4.115057e-01 7.443755e-01 3.412910e-01 5.774117e-01 8.146273e-01 6.920120e-01 -1.147781e-01
<VARIANCE> 25
 3.901165e+01 4.214993e+01 4.408236e+01 4.765089e+01 4.592589e+01 3.809031e+01 3.347729e+01 3.401923e+01 3.048271e+01 2.991834e+01 2.629615e+01 1.918572e+01 3.604301e+00 5.038494e+00 3.547583e+00 3.773819e+00 3.854056e+00 3.434612e+00 3.078617e+00 3.007854e+00 2.860264e+00 2.615434e+00 2.382884e+00 1.918475e+00 8.082869e-03
<GCONST> 9.756247e+01
<MIXTURE> 47 7.116147e-03
<MEAN> 25
 7.428118e+00 -7.332237e+00 -8.071226e+00 -6.021593e+00 1.543655e+00 5.767927e-01 -2.460084e+00 8.561013e-01 3.225075e+00 3.215224e-01 -4.123485e+00 -6.436830e+00 -1.806580e-01 -1.215829e+00 -6.789833e-01 -4.107699e-01 5.090768e-01 8.554170e-01 8.687115e-01 2.805585e-01 1.109513e-01 -9.470445e-01 -3.745897e-01 -4.161947e-01 2.966347e-02
<VARIANCE> 25
 1.054834e+01 2.042286e+01 2.206036e+01 3.739200e+01 3.541997e+01 5.316154e+01 4.381313e+01 4.405323e+01 4.502166e+01 4.633678e+01 4.936870e+01 3.504687e+01 5.044895e-01 7.836368e-01 1.094755e+00 1.631671e+00 2.311461e+00 2.210319e+00 2.274950e+00 2.419393e+00 2.148932e+00 2.273359e+00 2.372070e+00 1.984717e+00 5.372136e-04
<GCONST> 8.683476e+01
<MIXTURE> 48 7.116147e-03
<MEAN> 25
 7.428118e+00 -7.332237e+00 -8.071226e+00 -6.021593e+00 1.543655e+00 5.767927e-01 -2.460084e+00 8.561013e-01 3.225075e+00 3.215224e-01 -4.123485e+00 -6.436830e+00 -1.806580e-01 -1.215829e+00 -6.789833e-01 -4.107699e-01 5.090768e-01 8.554170e-01 8.687115e-01 2.805585e-01 1.109513e-01 -9.470445e-01 -3.745897e-01 -4.161947e-01 2.966347e-02
<VARIANCE> 25
 1.054834e+01 2.042286e+01 2.206036e+01 3.739200e+01 3.541997e+01 5.316154e+01 4.381313e+01 4.405323e+01 4.502166e+01 4.633678e+01 4.936870e+01 3.504687e+01 5.044895e-01 7.836368e-01 1.094755e+00 1.631671e+00 2.311461e+00 2.210319e+00 2.274950e+00 2.419393e+00 2.148932e+00 2.273359e+00 2.372070e+00 1.984717e+00 5.372136e-04
<GCONST> 8.683476e+01
<MIXTURE> 49 5.548473e-03
<MEAN> 25
 -5.106033e+00 4.766872e-01 1.383448e-01 8.399068e+00 6.161021e+00 5.509972e+00 6.177942e+00 4.366181e+00 5.095706e+00 3.631917e+00 4.846440e+00 2.976813e+00 3.581848e-01 6.348272e-01 7.006902e-01 3.500937e-01 -2.010624e-01 -6.444307e-01 -9.985511e-01 -1.143929e+00 -9.428464e-01 -6.510274e-01 -4.622435e-01 -2.662450e-01 -1.267858e-05
<VARIANCE> 25
 9.404092e+00 1.036802e+01 1.410427e+01 1.570705e+01 1.556704e+01 1.727490e+01 1.944319e+01 1.970246e+01 1.818192e+01 1.804579e+01 2.055237e+01 1.456275e+01 2.779695e-01 2.747127e-01 3.566154e-01 5.993442e-01 8.552240e-01 9.825729e-01 9.795918e-01 1.096906e+00 1.126617e+00 1.243247e+00 1.298646e+00 1.193308e+00 1.416276e-05
<GCONST> 6.435753e+01
<MIXTURE> 50 6.234641e-03
<MEAN> 25
 -4.731902e+00 4.834061e-01 -1.350069e+00 6.286498e+00 4.364502e+00 2.198596e+00 4.118202e+00 1.732246e+00 2.986782e+00 1.190641e+00 2.127314e+00 3.100355e+00 5.655850e-02 1.428268e-01 1.005561e-01 -1.356297e-01 -4.758496e-01 -5.638295e-01 -4.173516e-01 -1.900508e-01 4.067639e-01 8.122485e-01 7.390899e-01 4.052820e-01 -3.449848e-05
<VARIANCE> 25
 9.858076e+00 1.219790e+01 1.357331e+01 1.451264e+01 1.462506e+01 1.756001e+01 1.934353e+01 1.893061e+01 1.812568e+01 1.695626e+01 2.038482e+01 1.525391e+01 1.385745e-01 2.392586e-01 3.623173e-01 5.095479e-01 6.052069e-01 7.343503e-01 9.261929e-01 1.366921e+00 1.033825e+00 8.882229e-01 8.773457e-01 9.698035e-01 1.324374e-06
<GCONST> 5.948625e+01
<MIXTURE> 51 6.234641e-03
<MEAN> 25
 -4.731902e+00 4.834061e-01 -1.350069e+00 6.286498e+00 4.364502e+00 2.198596e+00 4.118202e+00 1.732246e+00 2.986782e+00 1.190641e+00 2.127314e+00 3.100355e+00 5.655850e-02 1.428268e-01 1.005561e-01 -1.356297e-01 -4.758496e-01 -5.638295e-01 -4.173516e-01 -1.900508e-01 4.067639e-01 8.122485e-01 7.390899e-01 4.052820e-01 -3.449848e-05
<VARIANCE> 25
 9.858076e+00 1.219790e+01 1.357331e+01 1.451264e+01 1.462506e+01 1.756001e+01 1.934353e+01 1.893061e+01 1.812568e+01 1.695626e+01 2.038482e+01 1.525391e+01 1.385745e-01 2.392586e-01 3.623173e-01 5.095479e-01 6.052069e-01 7.343503e-01 9.261929e-01 1.366921e+00 1.033825e+00 8.882229e-01 8.773457e-01 9.698035e-01 1.324374e-06
<GCONST> 5.948625e+01
<MIXTURE> 52 6.367945e-03
<MEAN> 25
 1.011776e+01 1.976526e+00 -6.292389e+00 -1.413594e+01 -4.272551e+00 8.529364e+00 -2.754647e+00 -3.042181e+00 -4.368305e+00 -2.169260e+00 3.446580e+00 7.007542e-01 -3.893648e-01 -4.745790e-01 -5.249041e-02 1.106219e+00 1.337934e+00 -4.701100e-01 -5.812306e-01 -6.394845e-01 1.141308e-02 1.254805e+00 3.711170e-01 -5.357152e-01 -1.368550e-02
<VARIANCE> 25
 9.209752e+00 2.087794e+01 2.605304e+01 4.070055e+01 4.560209e+01 3.045248e+01 4.612666e+01 4.854116e+01 4.285511e+01 4.580285e+01 4.050108e+01 2.996680e+01 4.493940e-01 1.470817e+00 1.331592e+00 2.863529e+00 2.308310e+00 2.185123e+00 3.010782e+00 2.818638e+00 3.091236e+00 2.651283e+00 2.534570e+00 2.269055e+00 1.534011e-03
<GCONST> 8.985996e+01
<MIXTURE> 53 6.367945e-03
<MEAN> 25
 1.011776e+01 1.976526e+00 -6.292389e+00 -1.413594e+01 -4.272551e+00 8.529364e+00 -2.754647e+00 -3.042181e+00 -4.368305e+00 -2.169260e+00 3.446580e+00 7.007542e-01 -3.893648e-01 -4.745790e-01 -5.249041e-02 1.106219e+00 1.337934e+00 -4.701100e-01 -5.812306e-01 -6.394845e-01 1.141308e-02 1.254805e+00 3.711170e-01 -5.357152e-01 -1.368550e-02
<VARIANCE> 25
 9.209752e+00 2.087794e+01 2.605304e+01 4.070055e+01 4.560209e+01 3.045248e+01 4.612666e+01 4.854116e+01 4.285511e+01 4.580285e+01 4.050108e+01 2.996680e+01 4.493940e-01 1.470817e+00 1.331592e+00 2.863529e+00 2.308310e+00 2.185123e+00 3.010782e+00 2.818638e+00 3.091236e+00 2.651283e+00 2.534570e+00 2.269055e+00 1.534011e-03
<GCONST> 8.985996e+01
<MIXTURE> 54 7.368620e-03
<MEAN> 25
 -3.806458e+00 4.145995e-01 -7.121199e-01 8.031231e+00 6.616115e+00 4.536237e+00 4.990058e+00 4.345110e+00 4.400365e+00 3.337108e+00 4.182453e+00 2.538377e+00 -4.693902e-03 2.645278e-02 3.998244e-02 5.506111e-02 7.410402e-02 3.326816e-02 3.068443e-02 1.561180e-02 2.015387e-02 9.026928e-03 -8.653550e-03 -4.387621e-03 -6.452620e-05
<VARIANCE> 25
 9.002714e+00 1.156379e+01 8.899084e+00 1.720451e+01 1.293870e+01 1.304714e+01 1.283059e+01 1.263084e+01 1.264313e+01 1.369176e+01 1.785710e+01 1.269518e+01 4.111059e-02 8.509113e-02 1.469482e-01 2.282945e-01 3.209753e-01 3.877591e-01 4.849049e-01 5.288646e-01 5.350627e-01 5.727583e-01 5.030928e-01 5.091788e-01 1.143209e-06
<GCONST> 4.769656e+01
<MIXTURE> 55 7.368620e-03
<MEAN> 25
 -3.806458e+00 4.145995e-01 -7.121199e-01 8.031231e+00 6.616115e+00 4.536237e+00 4.990058e+00 4.345110e+00 4.400365e+00 3.337108e+00 4.182453e+00 2.538377e+00 -4.693902e-03 2.645278e-02 3.998244e-02 5.506111e-02 7.410402e-02 3.326816e-02 3.068443e-02 1.561180e-02 2.015387e-02 9.026928e-03 -8.653550e-03 -4.387621e-03 -6.452620e-05
<VARIANCE> 25
 9.002714e+00 1.156379e+01 8.899084e+00 1.720451e+01 1.293870e+01 1.304714e+01 1.283059e+01 1.263084e+01 1.264313e+01 1.369176e+01 1.785710e+01 1.269518e+01 4.111059e-02 8.509113e-02 1.469482e-01 2.282945e-01 3.209753e-01 3.877591e-01 4.849049e-01 5.288646e-01 5.350627e-01 5.727583e-01 5.030928e-01 5.091788e-01 1.143209e-06
<GCONST> 4.769656e+01
<MIXTURE> 56 6.132464e-03
<MEAN> 25
 7.394583e+00 -6.342618e+00 -9.835667e+00 -8.127722e+00 3.446736e+00 2.933932e+00 -2.578315e+00 -7.437029e-01 1.101543e+00 2.187539e+00 -1.146230e+00 -7.158040e+00 -4.888770e-02 -7.006618e-03 -5.848687e-02 -1.750105e-02 2.666290e-01 5.561542e-02 8.830751e-02 -8.702871e-02 2.631845e-02 6.418812e-02 -1.370696e-03 -1.663459e-02 -4.158363e-03
<VARIANCE> 25
 7.996742e+00 2.082183e+01 1.823361e+01 3.886275e+01 2.917375e+01 4.626755e+01 5.138755e+01 3.627333e+01 3.966471e+01 4.040523e+01 6.822184e+01 2.753834e+01 1.895922e-01 3.632386e-01 3.821348e-01 7.321709e-01 7.380668e-01 1.135413e+00 9.973550e-01 8.908310e-01 8.898450e-01 9.763381e-01 9.807981e-01 7.576140e-01 2.409856e-04
<GCONST> 7.426855e+01
<MIXTURE> 57 6.132464e-03
<MEAN> 25
 7.394583e+00 -6.342618e+00 -9.835667e+00 -8.127722e+00 3.446736e+00 2.933932e+00 -2.578315e+00 -7.437029e-01 1.101543e+00 2.187539e+00 -1.146230e+00 -7.158040e+00 -4.888770e-02 -7.006618e-03 -5.848687e-02 -1.750105e-02 2.666290e-01 5.561542e-02 8.830751e-02 -8.702871e-02 2.631845e-02 6.418812e-02 -1.370696e-03 -1.663459e-02 -4.158363e-03
<VARIANCE> 25
 7.996742e+00 2.082183e+01 1.823361e+01 3.886275e+01 2.917375e+01 4.626755e+01 5.138755e+01 3.627333e+01 3.966471e+01 4.040523e+01 6.822184e+01 2.753834e+01 1.895922e-01 3.632386e-01 3.821348e-01 7.321709e-01 7.380668e-01 1.135413e+00 9.973550e-01 8.908310e-01 8.898450e-01 9.763381e-01 9.807981e-01 7.576140e-01 2.409856e-04
<GCONST> 7.426855e+01
<MIXTURE> 58 6.172147e-03
<MEAN> 25
 2.554077e+00 -3.095378e+00 7.424880e+00 -5.274743e+00 -1.342118e+01 -5.520807e+00 1.599799e+00 8.260647e-01 -2.478953e+00 1.827207e+00 5.244488e-01 -8.097742e-01 -3.234099e-02 -1.331028e-01 -7.228552e-02 -1.606345e-01 -1.666813e-02 2.260659e-01 3.802679e-01 2.165085e-01 1.986635e-02 9.471497e-03 -7.117441e-02 -1.417773e-01 -2.920048e-03
<VARIANCE> 25
 7.559155e+00 1.507108e+01 2.037739e+01 2.731498e+01 2.340503e+01 4.727245e+01 3.310389e+01 3.487251e+01 3.247599e+01 3.147396e+01 2.303310e+01 2.020763e+01 3.083025e-01 8.151413e-01 7.501912e-01 1.011158e+00 8.831201e-01 1.215416e+00 1.149540e+00 1.293918e+00 1.066668e+00 1.065068e+00 9.126291e-01 8.718954e-01 7.199673e-04
<GCONST> 7.561038e+01
<MIXTURE> 59 6.172147e-03
<MEAN> 25
 2.554077e+00 -3.095378e+00 7.424880e+00 -5.274743e+00 -1.342118e+01 -5.520807e+00 1.599799e+00 8.260647e-01 -2.478953e+00 1.827207e+00 5.244488e-01 -8.097742e-01 -3.234099e-02 -1.331028e-01 -7.228552e-02 -1.606345e-01 -1.666813e-02 2.260659e-01 3.802679e-01 2.165085e-01 1.986635e-02 9.471497e-03 -7.117441e-02 -1.417773e-01 -2.920048e-03
<VARIANCE> 25
 7.559155e+00 1.507108e+01 2.037739e+01 2.731498e+01 2.340503e+01 4.727245e+01 3.310389e+01 3.487251e+01 3.247599e+01 3.147396e+01 2.303310e+01 2.020763e+01 3.083025e-01 8.151413e-01 7.501912e-01 1.011158e+00 8.831201e-01 1.215416e+00 1.149540e+00 1.293918e+00 1.066668e+00 1.065068e+00 9.126291e-01 8.718954e-01 7.199673e-04
<GCONST> 7.561038e+01
<MIXTURE> 60 4.479129e-03
<MEAN> 25
 -4.281221e+00 -5.713404e-01 -1.079496e+00 3.744562e+00 1.780194e+00 2.119856e+00 1.753002e+00 1.500465e+00 2.215461e+00 1.223866e+00 2.383016e+00 1.970159e+00 -2.807719e-02 5.207618e-02 9.628735e-02 1.350758e-01 1.298983e-01 1.342081e-01 1.812247e-01 3.059101e-01 5.448713e-01 6.728057e-01 5.608278e-01 2.998546e-01 -4.186499e-04
<VARIANCE> 25
 6.864838e+00 5.036589e+00 1.022114e+01 1.135252e+01 1.360816e+01 1.678830e+01 1.468332e+01 1.189569e+01 1.284061e+01 1.329025e+01 1.576018e+01 1.236347e+01 8.661913e-02 1.676041e-01 2.788797e-01 4.345391e-01 5.808405e-01 7.244400e-01 8.219577e-01 9.274685e-01 8.942557e-01 8.319993e-01 8.311468e-01 8.531128e-01 2.292734e-05
<GCONST> 5.644756e+01
<MIXTURE> 61 4.479129e-03
<MEAN> 25
 -4.281221e+00 -5.713404e-01 -1.079496e+00 3.744562e+00 1.780194e+00 2.119856e+00 1.753002e+00 1.500465e+00 2.215461e+00 1.223866e+00 2.383016e+00 1.970159e+00 -2.807719e-02 5.207618e-02 9.628735e-02 1.350758e-01 1.298983e-01 1.342081e-01 1.812247e-01 3.059101e-01 5.448713e-01 6.728057e-01 5.608278e-01 2.998546e-01 -4.186499e-04
<VARIANCE> 25
 6.864838e+00 5.036589e+00 1.022114e+01 1.135252e+01 1.360816e+01 1.678830e+01 1.468332e+01 1.189569e+01 1.284061e+01 1.329025e+01 1.576018e+01 1.236347e+01 8.661913e-02 1.676041e-01 2.788797e-01 4.345391e-01 5.808405e-01 7.244400e-01 8.219577e-01 9.274685e-01 8.942557e-01 8.319993e-01 8.311468e-01 8.531128e-01 2.292734e-05
<GCONST> 5.644756e+01
<MIXTURE> 62 3.278034e-03
<MEAN> 25
 -5.073893e+00 1.779843e+00 6.580669e-01 8.834745e+00 6.235803e+00 4.536307e+00 5.959898e+00 4.067159e+00 5.410702e+00 3.250569e+00 4.623278e+00 3.124637e+00 -9.810831e-01 -1.109791e+00 -8.501593e-01 -2.793515e-01 4.407752e-01 1.016114e+00 1.438719e+00 1.528699e+00 1.541481e+00 1.148972e+00 9.740618e-01 8.267846e-01 -1.406010e-03
<VARIANCE> 25
 8.993547e+00 1.165918e+01 1.336229e+01 1.554490e+01 1.595903e+01 1.834925e+01 1.991845e+01 1.772700e+01 1.886036e+01 2.171881e+01 2.074546e+01 1.380263e+01 3.706309e-01 4.225773e-01 6.007915e-01 7.142488e-01 9.443766e-01 1.100822e+00 1.187868e+00 1.175385e+00 1.255968e+00 1.321211e+00 1.362478e+00 1.363599e+00 1.524263e-05
<GCONST> 6.686157e+01
<MIXTURE> 63 4.351215e-03
<MEAN> 25
 -4.005801e+00 -1.427254e+00 -5.057201e+00 2.774181e+00 3.632835e+00 -3.718960e-02 3.474683e+00 1.201073e+00 2.963295e+00 -2.867794e-01 -7.790976e-01 2.543799e+00 -1.527442e-01 2.917305e-01 3.871650e-01 4.728070e-01 3.877849e-01 3.832911e-01 4.365719e-01 1.826124e-01 2.793350e-01 3.060582e-01 2.110567e-01 6.422783e-02 -5.032070e-03
<VARIANCE> 25
 8.552849e+00 2.053436e+01 1.716741e+01 1.571537e+01 1.682511e+01 2.470728e+01 2.337265e+01 2.325817e+01 2.501684e+01 2.372178e+01 1.897507e+01 1.533803e+01 2.668920e-01 4.435129e-01 5.999957e-01 7.088864e-01 8.367513e-01 1.056807e+00 1.165183e+00 1.372703e+00 1.406709e+00 1.345792e+00 1.274567e+00 1.246534e+00 1.650138e-04
<GCONST> 7.085012e+01
<MIXTURE> 64 4.351215e-03
<MEAN> 25
 -4.005801e+00 -1.427254e+00 -5.057201e+00 2.774181e+00 3.632835e+00 -3.718960e-02 3.474683e+00 1.201073e+00 2.963295e+00 -2.867794e-01 -7.790976e-01 2.543799e+00 -1.527442e-01 2.917305e-01 3.871650e-01 4.728070e-01 3.877849e-01 3.832911e-01 4.365719e-01 1.826124e-01 2.793350e-01 3.060582e-01 2.110567e-01 6.422783e-02 -5.032070e-03
<VARIANCE> 25
 8.552849e+00 2.053436e+01 1.716741e+01 1.571537e+01 1.682511e+01 2.470728e+01 2.337265e+01 2.325817e+01 2.501684e+01 2.372178e+01 1.897507e+01 1.533803e+01 2.668920e-01 4.435129e-01 5.999957e-01 7.088864e-01 8.367513e-01 1.056807e+00 1.165183e+00 1.372703e+00 1.406709e+00 1.345792e+00 1.274567e+00 1.246534e+00 1.650138e-04
<GCONST> 7.085012e+01
<MIXTURE> 65 1.721197e-02
<MEAN> 25
 7.869052e+00 1.816830e+00 2.206752e+00 9.011956e-01 -5.339241e+00 -3.968423e+00 -5.455326e+00 -6.946129e+00 -4.000307e+00 -1.872316e+00 -5.696644e+00 -1.610479e+00 1.594353e-01 1.325330e-01 -3.458102e-02 1.834345e-01 -1.549463e-01 2.175403e-01 -2.027304e-02 -2.411614e-01 1.888782e-01 3.522621e-03 -7.774252e-02 -1.117136e-01 -4.613404e-03
<VARIANCE> 25
 1.011316e+01 2.070699e+01 2.773446e+01 3.591510e+01 3.750331e+01 5.896733e+01 6.018348e+01 5.701687e+01 5.458944e+01 6.028410e+01 5.456335e+01 5.132563e+01 5.471232e-01 9.438080e-01 1.603628e+00 1.836684e+00 1.951017e+00 2.181788e+00 2.408595e+00 2.995859e+00 2.355141e+00 2.507034e+00 2.434216e+00 2.107993e+00 4.045847e-04
<GCONST> 8.951617e+01
<MIXTURE> 66 1.191532e-02
<MEAN> 25
 6.298367e+00 -4.380861e+00 -7.349568e+00 -3.871212e+00 1.109627e+00 -4.367228e+00 -5.564080e+00 6.046907e-01 -7.904701e-01 -4.048480e-01 -6.655795e+00 -4.048511e+00 -1.845583e-01 1.481742e+00 2.161017e+00 2.290189e+00 -1.099729e+00 -1.227974e+00 1.886558e-01 -3.767719e-01 3.276471e-01 -8.624446e-01 -1.176739e-01 1.315997e+00 -6.276587e-02
<VARIANCE> 25
 7.886302e+00 1.941442e+01 3.520063e+01 3.614079e+01 3.423836e+01 4.722712e+01 6.383662e+01 3.827113e+01 5.204887e+01 7.264462e+01 5.218770e+01 2.985950e+01 1.281685e+00 2.636570e+00 2.581513e+00 2.154657e+00 4.185541e+00 3.857160e+00 3.455297e+00 5.589117e+00 4.175087e+00 5.130785e+00 6.752618e+00 2.946159e+00 1.434479e-03
<GCONST> 9.708884e+01
<MIXTURE> 67 1.559142e-02
<MEAN> 25
 8.352546e+00 5.857834e-01 -8.245268e+00 -7.046891e+00 8.117214e-01 2.765803e+00 -1.679367e+00 -2.548453e+00 -3.972174e+00 1.147078e+00 -6.488081e-01 -2.482173e+00 -1.013074e+00 2.041281e+00 9.295068e-01 2.704479e+00 1.153001e+00 -2.320799e-01 1.353384e+00 -3.562317e-01 -8.893123e-02 6.663626e-02 -6.998823e-01 3.850631e-01 -1.169171e-01
<VARIANCE> 25
 1.074693e+01 3.445511e+01 3.989832e+01 4.872836e+01 4.346838e+01 4.694447e+01 5.546546e+01 4.007988e+01 5.276040e+01 4.598771e+01 6.370808e+01 4.026151e+01 2.002738e+00 3.403513e+00 3.953395e+00 4.767554e+00 3.614647e+00 5.013457e+00 3.986516e+00 4.713696e+00 7.195596e+00 5.827330e+00 6.472062e+00 3.795694e+00 3.578461e-03
<GCONST> 1.023961e+02
<MIXTURE> 68 1.485092e-02
<MEAN> 25
 -1.948584e+00 -2.016992e+00 -4.249656e+00 2.111886e+00 5.277413e+00 -1.052769e+00 2.544934e+00 6.619458e-01 2.881776e+00 1.725317e+00 1.689991e-01 1.832244e+00 2.680618e+00 -2.809387e-02 2.531848e-02 -2.635084e+00 -2.215093e+00 -1.363906e+00 -2.307419e+00 -1.603707e+00 -1.662158e+00 -1.691420e+00 -1.910106e+00 -1.108817e+00 1.176812e-01
<VARIANCE> 25
 2.369611e+01 3.172805e+01 5.525972e+01 5.506292e+01 4.345686e+01 5.041104e+01 4.083773e+01 4.605479e+01 4.111095e+01 4.063860e+01 3.277514e+01 2.231481e+01 1.744323e+00 5.728780e+00 5.486317e+00 5.746296e+00 4.465108e+00 5.329999e+00 5.296488e+00 4.798937e+00 4.545509e+00 5.518192e+00 4.796351e+00 3.082157e+00 7.123834e-03
<GCONST> 1.029664e+02
<MIXTURE> 69 1.204884e-02
<MEAN> 25
 4.760668e+00 -5.758330e+00 -4.299862e+00 -3.962047e+00 -2.350492e+00 -6.955056e+00 5.797173e-02 1.893736e+00 9.650946e-01 -4.959755e+00 -5.618570e+00 1.147394e+00 1.712793e+00 -2.066357e+00 -1.466011e+00 -2.603603e+00 -5.781529e-01 4.085033e-02 -3.114696e-01 6.278041e-01 -1.252288e+00 -1.130573e+00 -2.208034e+00 -5.572613e-01 6.196766e-02
<VARIANCE> 25
 7.594440e+00 3.016233e+01 2.528641e+01 2.450116e+01 4.189691e+01 3.310656e+01 4.676701e+01 2.818649e+01 4.930356e+01 3.297766e+01 2.817138e+01 2.115814e+01 3.595986e+00 2.800369e+00 3.826735e+00 4.232961e+00 5.070555e+00 5.434377e+00 6.111115e+00 5.126122e+00 7.390104e+00 5.805484e+00 4.335876e+00 4.124921e+00 3.079164e-03
<GCONST> 9.872800e+01
<MIXTURE> 70 1.329190e-02
<MEAN> 25
 7.123269e+00 -3.275585e+00 -5.814034e+00 -1.381683e+00 -1.417389e+00 -1.738954e+00 -7.647972e+00 -4.575663e+00 1.283052e+00 1.535111e+00 8.953136e-01 -4.052142e+00 1.572826e+00 -1.119344e+00 -4.327799e-01 -1.348361e+00 -2.097978e+00 1.435036e+00 -1.629508e+00 6.130361e-01 6.764823e-02 -8.819007e-01 1.472971e+00 -1.577557e+00 5.043435e-02
<VARIANCE> 25
 9.871821e+00 1.924358e+01 4.136623e+01 4.760643e+01 3.011277e+01 3.441107e+01 4.797232e+01 3.450734e+01 4.864465e+01 3.097368e+01 3.637130e+01 2.786771e+01 3.193744e+00 2.645802e+00 3.758273e+00 5.965671e+00 4.515959e+00 5.310892e+00 7.177318e+00 6.140619e+00 5.320053e+00 5.988867e+00 6.056881e+00 3.617030e+00 1.939815e-03
<GCONST> 9.988371e+01
<MIXTURE> 71 1.406903e-02
<MEAN> 25
 4.555972e+00 4.139177e+00 4.841606e+00 3.941879e+00 -3.085506e+00 -2.292754e+00 -1.449945e+00 -7.692982e+00 -4.183644e+00 -1.835177e+00 -4.641834e+00 -2.339975e+00 -1.613567e+00 -1.116720e-01 4.282008e-03 -2.568188e+00 1.200479e+00 4.561785e-01 -5.742611e-01 1.465155e+00 1.329277e-01 -6.750370e-01 1.230685e+00 -4.062598e-01 3.905071e-02
<VARIANCE> 25
 2.233596e+01 2.319065e+01 2.046814e+01 6.085863e+01 3.703978e+01 4.462964e+01 4.243236e+01 4.141520e+01 3.308846e+01 3.601784e+01 2.961085e+01 2.986289e+01 1.365929e+00 3.611649e+00 4.252899e+00 5.734523e+00 3.655831e+00 4.856074e+00 5.697176e+00 5.144524e+00 4.116429e+00 4.235735e+00 3.369467e+00 3.347507e+00 1.161866e-03
<GCONST> 9.764254e+01
<MIXTURE> 72 8.134747e-03
<MEAN> 25
 3.758594e+00 -3.630239e+00 5.476325e+00 -2.430484e+00 -1.023473e+01 -9.615882e+00 -2.770457e+00 2.067992e+00 -4.918870e+00 -2.095042e+00 -1.853084e+00 5.456699e-01 9.395302e-01 -8.052559e-01 -2.638421e+00 4.622234e-01 2.123440e+00 -6.645973e-01 -1.320659e+00 1.539465e+00 1.758511e+00 -5.126455e-01 -1.260587e+00 3.491469e-01 -4.768670e-03
<VARIANCE> 25
 1.061665e+01 1.924492e+01 3.236807e+01 3.763433e+01 3.249905e+01 3.263610e+01 4.365650e+01 3.610173e+01 4.265078e+01 4.069315e+01 3.780165e+01 2.793734e+01 4.225175e-01 1.030720e+00 2.108364e+00 1.434446e+00 2.133706e+00 2.327136e+00 3.015227e+00 2.700393e+00 2.681919e+00 3.148746e+00 2.017140e+00 2.183612e+00 6.111910e-04
<GCONST> 8.731353e+01
<MIXTURE> 73 1.213625e-02
<MEAN> 25
 -5.295100e+00 -3.111439e-01 -1.891592e+00 5.042355e+00 4.245706e+00 1.660437e+00 5.640054e+00 2.368239e+00 5.227746e+00 3.816035e+00 3.873831e+00 3.242629e+00 8.890488e-01 -1.268573e+00 -8.565107e-01 -2.315509e+00 -1.143766e+00 -1.673238e+00 -1.065208e+00 -7.422498e-01 -9.505292e-01 -8.783227e-01 -1.196189e+00 -3.968382e-01 1.586562e-01
<VARIANCE> 25
 1.226859e+01 1.401884e+01 1.606520e+01 2.239894e+01 2.140874e+01 2.498610e+01 1.885543e+01 2.552928e+01 2.150573e+01 1.967093e+01 2.159948e+01 1.480469e+01 3.637142e+00 3.360776e+00 5.249312e+00 5.779107e+00 5.544513e+00 4.142430e+00 3.985967e+00 4.600564e+00 3.417024e+00 4.372014e+00 3.409990e+00 2.458829e+00 4.150403e-03
<GCONST> 9.255846e+01
<MIXTURE> 74 1.756491e-02
<MEAN> 25
 4.149834e+00 -2.183777e+00 5.363229e+00 -1.136080e-01 -9.377454e+00 -7.669237e+00 -3.240925e+00 2.034414e-01 -3.292617e+00 -3.405923e+00 -1.444063e+00 4.003087e-01 2.566944e-01 1.907643e+00 1.258794e-01 1.877320e+00 1.278391e+00 9.561164e-02 6.092945e-01 -1.338072e+00 2.670844e-01 2.580269e-01 -5.070400e-01 1.814127e-01 -8.392836e-02
<VARIANCE> 25
 1.183322e+01 2.528277e+01 3.710696e+01 5.312100e+01 4.108987e+01 4.283682e+01 5.186074e+01 4.387132e+01 5.229411e+01 4.714381e+01 3.838581e+01 3.133542e+01 1.991210e+00 2.115423e+00 3.909208e+00 2.677700e+00 3.661308e+00 4.071768e+00 7.670590e+00 3.914571e+00 3.986032e+00 4.184279e+00 3.919621e+00 3.567358e+00 1.974555e-03
<GCONST> 9.845467e+01
<MIXTURE> 75 9.711651e-03
<MEAN> 25
 2.446252e+00 -1.038695e+00 1.115956e+01 9.680280e-01 -1.065595e+01 -6.661472e+00 -5.984073e+00 -3.738287e-02 -4.103702e+00 -4.282588e+00 2.832178e+00 -1.535283e-01 1.583715e+00 -2.006886e+00 -1.393073e-01 -1.657253e-01 -2.345506e+00 -8.413464e-01 -1.827868e+00 1.212852e+00 -2.556830e-01 -3.024806e-02 8.813683e-01 -7.674236e-01 4.857964e-02
<VARIANCE> 25
 9.410616e+00 1.928912e+01 2.790539e+01 2.547754e+01 2.764196e+01 3.221209e+01 3.360583e+01 2.728914e+01 2.981733e+01 2.695189e+01 1.834451e+01 2.218711e+01 2.113869e+00 2.167913e+00 4.913878e+00 2.299245e+00 3.530061e+00 4.150149e+00 4.051435e+00 3.106393e+00 3.378582e+00 3.747160e+00 2.745569e+00 2.260000e+00 1.706866e-03
<GCONST> 9.118040e+01
<MIXTURE> 76 1.052359e-02
<MEAN> 25
 -6.585707e+00 -1.264850e+00 -2.921447e+00 4.042504e+00 4.407256e+00 1.922645e+00 4.426950e+00 1.958942e+00 2.621711e+00 6.126110e-01 1.670589e+00 2.465534e+00 -1.136150e-01 -5.642415e-01 -2.808597e-01 -7.813843e-01 -5.488420e-01 -8.296050e-01 -5.824839e-01 -3.288898e-01 -4.473801e-01 -4.288040e-01 -3.015839e-01 -1.735660e-01 2.039161e-02
<VARIANCE> 25
 3.718026e+01 2.967282e+01 2.931246e+01 2.716223e+01 2.982456e+01 3.049656e+01 2.844588e+01 2.814296e+01 2.486433e+01 2.472747e+01 2.697354e+01 1.976617e+01 1.087534e+00 1.110821e+00 1.373373e+00 1.280518e+00 1.490425e+00 1.644843e+00 1.638026e+00 1.707322e+00 1.588590e+00 1.647913e+00 1.485060e+00 1.310738e+00 1.254512e-03
<GCONST> 8.345727e+01
<MIXTURE> 77 1.244626e-02
<MEAN> 25
 -1.199155e+00 7.272633e+00 1.274653e+01 -1.140006e+01 -7.110693e+00 3.243411e+00 -9.464169e+00 -4.184909e+00 -5.069163e+00 -1.519373e+00 -2.465989e+00 -1.405129e+00 1.094657e-01 9.939190e-02 9.567060e-02 2.425070e-01 -1.979312e-01 -6.194567e-02 4.526680e-02 1.841098e-01 -6.883129e-02 -1.343854e-01 4.088785e-02 2.210187e-01 -1.059760e-02
<VARIANCE> 25
 8.819551e+00 1.978186e+01 2.092929e+01 3.249540e+01 2.783720e+01 5.155413e+01 2.822872e+01 4.219878e+01 3.176768e+01 2.926943e+01 3.928375e+01 2.666923e+01 2.414251e-01 9.274544e-01 5.068355e-01 9.327144e-01 1.223726e+00 9.216637e-01 9.600796e-01 1.160074e+00 9.095255e-01 8.216982e-01 7.517068e-01 7.951659e-01 4.227696e-04
<GCONST> 7.517979e+01
<MIXTURE> 78 9.702551e-03
<MEAN> 25
 -1.118436e+01 1.456038e+00 -1.673249e+00 2.384482e+00 4.368290e+00 -2.351140e+00 3.897910e+00 2.536390e+00 2.837813e+00 6.190943e-01 -4.354477e-01 3.119956e+00 2.217592e+00 -1.995606e-01 2.256871e-01 6.501573e-01 -2.469427e-02 -6.399599e-02 -3.185427e-01 -1.692207e-01 1.050544e-01 2.026629e-01 -2.953869e-01 -4.664924e-01 -6.401027e-02
<VARIANCE> 25
 4.296728e+01 3.458866e+01 3.209983e+01 3.143484e+01 3.842833e+01 3.602363e+01 3.439293e+01 3.205705e+01 2.821209e+01 2.701243e+01 2.623438e+01 1.948442e+01 5.413778e+00 2.641349e+00 2.788425e+00 3.055666e+00 2.799594e+00 3.578714e+00 3.170682e+00 2.867049e+00 2.684229e+00 2.329334e+00 2.389480e+00 2.061983e+00 4.614457e-03
<GCONST> 9.464230e+01
<MIXTURE> 79 1.156824e-02
<MEAN> 25
 2.263366e+00 9.136478e-01 9.636754e+00 -5.655998e+00 -1.148137e+01 -5.207736e-01 -2.041244e+00 -6.362068e+00 -6.692966e+00 5.967037e-01 -3.310502e+00 -2.636202e+00 1.277006e+00 -6.049200e-01 -1.502702e+00 2.479656e+00 5.245910e-01 -1.291140e+00 8.121452e-01 2.822832e-01 -4.610181e-01 1.432639e-01 -1.609225e-01 5.641760e-01 -3.839860e-02
<VARIANCE> 25
 1.325315e+01 2.355764e+01 3.383937e+01 5.164948e+01 3.076635e+01 4.503437e+01 3.868685e+01 3.458890e+01 3.321003e+01 4.116943e+01 4.210295e+01 3.004549e+01 8.686287e-01 2.040330e+00 1.660252e+00 1.934110e+00 2.218781e+00 2.745665e+00 3.063203e+00 4.712249e+00 2.194219e+00 4.689013e+00 3.353635e+00 2.153410e+00 1.151176e-03
<GCONST> 9.170965e+01
<MIXTURE> 80 7.550998e-03
<MEAN> 25
 -1.460832e+01 3.983099e+00 6.889955e-01 2.866144e+00 2.449925e+00 1.410426e+00 6.397166e+00 2.496854e+00 2.719689e+00 2.373402e+00 4.852557e+00 1.186887e+00 4.286223e+00 -1.594695e-02 1.638007e+00 -1.135547e+00 -2.889433e+00 -2.777503e+00 -2.323281e+00 -2.021436e+00 -1.975079e+00 -1.685194e+00 -1.650799e+00 -6.027879e-01 -4.422609e-02
<VARIANCE> 25
 2.095152e+01 1.984615e+01 3.444356e+01 3.470689e+01 3.018638e+01 2.920815e+01 2.828621e+01 2.855407e+01 2.674559e+01 2.881050e+01 2.685551e+01 1.810633e+01 2.357442e+00 2.666208e+00 2.673146e+00 4.119759e+00 3.394135e+00 2.705111e+00 3.025190e+00 3.203976e+00 2.749056e+00 2.701594e+00 2.782105e+00 2.145721e+00 1.513018e-03
<GCONST> 9.139723e+01
<MIXTURE> 81 8.025434e-03
<MEAN> 25
 -1.274605e+00 4.149389e+00 1.038810e+01 -1.464048e+01 -8.761732e+00 -6.759005e-01 -7.064851e+00 -7.785388e+00 -4.477290e+00 -6.398804e-01 -6.871716e+00 -2.315279e+00 1.518869e-01 -5.290231e-01 3.538894e-02 -5.999870e-01 -5.547178e-01 4.359007e-01 2.124776e-01 3.196347e-01 -1.676681e-01 5.449498e-02 -4.389670e-01 -1.017214e-01 1.138359e-02
<VARIANCE> 25
 9.821008e+00 3.091495e+01 2.539069e+01 2.790558e+01 3.316562e+01 3.955333e+01 4.388158e+01 3.183767e+01 3.691278e+01 3.053457e+01 3.062361e+01 2.931704e+01 7.310023e-01 2.190373e+00 1.676078e+00 2.736699e+00 2.874533e+00 2.130704e+00 3.423983e+00 2.910393e+00 2.443864e+00 2.413229e+00 2.284617e+00 1.956091e+00 1.152951e-03
<GCONST> 8.908620e+01
<MIXTURE> 82 8.213053e-03
<MEAN> 25
 -9.833394e+00 -3.765524e+00 1.520794e+00 -2.533928e+00 3.207119e+00 3.574397e-01 1.902410e+00 4.662896e-01 2.611976e+00 1.619287e+00 1.550840e+00 3.057034e+00 -1.279794e+00 -2.121035e-01 2.688566e-01 -2.625933e+00 -1.191081e+00 -1.296845e+00 -1.148113e+00 -8.505852e-01 -2.997199e-01 -3.679394e-01 -2.204229e-01 -8.875749e-02 1.774423e-01
<VARIANCE> 25
 1.784233e+01 2.420388e+01 3.132394e+01 3.385104e+01 3.223846e+01 3.283470e+01 3.062301e+01 3.602394e+01 3.260614e+01 2.427255e+01 3.009859e+01 1.673127e+01 3.630691e+00 3.059194e+00 3.176811e+00 3.166695e+00 3.545835e+00 3.196437e+00 3.161563e+00 2.904616e+00 2.689779e+00 2.623403e+00 2.523698e+00 1.871673e+00 3.301801e-03
<GCONST> 9.300204e+01
<MIXTURE> 83 1.167529e-02
<MEAN> 25
 -2.004081e+01 5.504238e+00 -1.789702e+00 -4.051103e-01 7.829639e+00 -1.234488e+00 5.460100e+00 3.044532e+00 1.192393e+00 2.190908e+00 7.244872e-01 2.881716e+00 -2.631321e-02 -4.501706e-01 4.872012e-03 -3.655977e-01 -4.974648e-01 -1.258521e-01 -1.343577e-01 -9.942717e-02 -4.144356e-02 -3.920248e-02 -3.058213e-02 -3.465528e-02 4.403248e-03
<VARIANCE> 25
 8.819281e+00 1.645402e+01 2.851271e+01 2.248555e+01 2.127508e+01 2.407955e+01 2.202746e+01 2.336420e+01 2.042958e+01 2.221887e+01 2.319599e+01 1.448780e+01 1.060910e+00 9.362046e-01 1.240790e+00 1.065688e+00 1.359398e+00 1.291389e+00 1.283447e+00 1.388157e+00 1.349015e+00 1.310737e+00 1.220778e+00 1.071650e+00 8.923843e-04
<GCONST> 7.703519e+01
<MIXTURE> 84 1.066614e-02
<MEAN> 25
 5.594892e-01 8.619767e+00 6.972662e+00 6.619020e+00 2.756200e+00 -8.129331e-01 -1.089992e+00 -3.899216e+00 -3.362831e+00 -3.020795e+00 -2.654246e+00 -9.387206e-01 -1.509860e+00 -1.023909e+00 -1.695157e+00 1.551282e+00 2.375634e+00 1.563881e+00 1.830317e+00 1.265376e+00 1.737383e+00 2.118881e-01 3.992175e-02 4.793598e-01 -7.129391e-02
<VARIANCE> 25
 2.260472e+01 1.671055e+01 2.179869e+01 3.287652e+01 2.613390e+01 2.468684e+01 2.669165e+01 2.454601e+01 2.682479e+01 2.177483e+01 2.600500e+01 2.308844e+01 2.372829e+00 2.321734e+00 4.891022e+00 3.216336e+00 2.993258e+00 2.979316e+00 3.494862e+00 2.982463e+00 5.093985e+00 2.945576e+00 3.833385e+00 2.402766e+00 3.055770e-03
<GCONST> 9.231000e+01
<MIXTURE> 85 7.591393e-03
<MEAN> 25
 -2.933306e+00 8.257356e+00 6.190780e+00 1.339968e+00 -2.653478e+00 -4.811195e+00 -2.807038e+00 -5.700970e+00 -3.396873e+00 -3.202021e+00 -5.281826e-01 -1.793491e+00 3.794178e+00 2.287411e-01 1.852151e+00 -2.133806e+00 -3.562384e+00 -2.480129e+00 -3.126910e+00 -2.227876e+00 -2.192354e+00 -1.300204e+00 -2.033389e+00 -4.916679e-01 1.986307e-02
<VARIANCE> 25
 3.928035e+01 2.303615e+01 3.579562e+01 3.584495e+01 4.468864e+01 4.037280e+01 3.067632e+01 2.761587e+01 2.463257e+01 2.424440e+01 2.426570e+01 1.965459e+01 2.701918e+00 4.146636e+00 3.871491e+00 4.765131e+00 4.269523e+00 3.681472e+00 4.108973e+00 3.834915e+00 3.575907e+00 3.779903e+00 4.336317e+00 3.361651e+00 6.121180e-03
<GCONST> 9.774186e+01
<MIXTURE> 86 1.273941e-02
<MEAN> 25
 -5.003797e+00 -9.961938e-01 -8.155345e-01 6.336873e+00 5.081610e+00 4.613481e+00 5.488132e+00 4.499014e+00 4.794782e+00 3.787015e+00 5.210214e+00 2.778224e+00 -9.570390e-03 -1.659935e-02 -2.663649e-02 -5.642809e-02 -1.117532e-01 -1.689662e-01 -2.479131e-01 -3.491993e-01 -3.391212e-01 -2.879097e-01 -2.082887e-01 -8.944450e-02 -5.957881e-04
<VARIANCE> 25
 7.715971e+00 6.752535e+00 9.893021e+00 1.203773e+01 1.578494e+01 1.402271e+01 1.397235e+01 1.338872e+01 1.359651e+01 1.470996e+01 1.462196e+01 1.264643e+01 9.928710e-02 1.903974e-01 3.268779e-01 4.822706e-01 6.245195e-01 7.321447e-01 7.459967e-01 7.961023e-01 8.314952e-01 9.003180e-01 9.101081e-01 8.947272e-01 5.223171e-05
<GCONST> 5.835527e+01
<MIXTURE> 87 1.100681e-02
<MEAN> 25
 -2.484237e+00 4.140170e+00 2.244710e+00 7.138760e+00 6.215683e+00 5.685512e-01 1.978304e+00 -2.067394e+00 -1.025424e+00 -1.394393e+00 -1.331455e+00 -4.590761e-03 -2.143821e+00 -2.668933e+00 -1.682062e+00 -2.130996e+00 -2.904733e-01 -5.307062e-01 -1.973207e-01 9.282542e-01 1.132436e+00 9.770303e-01 9.255228e-01 1.150912e+00 1.100462e-01
<VARIANCE> 25
 3.921549e+01 2.635245e+01 2.923895e+01 2.776760e+01 2.547004e+01 2.878686e+01 2.838538e+01 2.873229e+01 2.266437e+01 2.156650e+01 2.224607e+01 2.412523e+01 3.254298e+00 2.268591e+00 3.861674e+00 3.271301e+00 4.461208e+00 3.995117e+00 5.808800e+00 3.679762e+00 3.191301e+00 2.994077e+00 2.831925e+00 2.410239e+00 4.333457e-03
<GCONST> 9.458011e+01
<MIXTURE> 88 1.256585e-02
<MEAN> 25
 -4.439380e+00 2.061723e-01 -1.661703e+00 5.413696e+00 5.293486e+00 3.243941e+00 5.105902e+00 2.988220e+00 4.121311e+00 1.974791e+00 2.767423e+00 3.152408e+00 -7.409209e-02 1.642956e-01 1.960323e-01 4.851274e-01 4.316227e-01 1.993617e-01 6.089461e-02 -1.676726e-01 -3.876396e-01 -1.758434e-01 -1.599619e-01 -1.099861e-01 -8.516419e-03
<VARIANCE> 25
 8.581258e+00 1.397215e+01 1.518249e+01 1.377720e+01 2.039399e+01 1.886296e+01 1.764313e+01 1.880901e+01 1.859535e+01 1.818054e+01 1.901449e+01 1.426335e+01 1.229190e+00 1.627696e+00 1.905385e+00 2.045816e+00 2.429970e+00 2.416309e+00 2.497502e+00 2.401606e+00 2.241407e+00 2.237688e+00 2.148442e+00 1.835166e+00 1.507287e-03
<GCONST> 8.136253e+01
<MIXTURE> 89 9.333527e-03
<MEAN> 25
 5.321015e+00 -5.929109e+00 -3.898426e+00 -2.405053e+00 -9.987482e-01 -5.403534e+00 -4.921879e+00 4.340205e+00 2.258040e+00 -3.390324e+00 -7.540807e+00 -2.835827e+00 -4.871385e-01 -1.099748e-02 2.050844e+00 8.366385e-01 -1.862181e+00 -1.747549e+00 1.029571e+00 1.557459e+00 -3.507399e-01 -1.051342e+00 4.508729e-01 1.715238e+00 -5.215844e-03
<VARIANCE> 25
 9.279333e+00 2.546130e+01 2.705662e+01 2.991239e+01 3.627236e+01 3.392112e+01 6.788064e+01 3.680402e+01 3.877361e+01 3.622322e+01 5.108054e+01 3.112225e+01 3.183969e-01 7.879550e-01 1.257153e+00 1.607610e+00 1.921793e+00 1.876214e+00 2.294554e+00 2.515851e+00 2.680853e+00 2.934675e+00 2.296904e+00 1.405281e+00 3.953418e-04
<GCONST> 8.542056e+01
<MIXTURE> 90 7.114505e-03
<MEAN> 25
 2.449791e+00 -9.714828e+00 -4.758826e+00 -3.976432e+00 -3.376384e+00 -1.816511e+00 3.365813e+00 1.188162e+00 -7.526831e+00 -1.021273e+01 -3.441229e+00 -7.345426e-01 -1.635330e-01 9.071916e-01 1.169750e+00 -8.544988e-01 -1.612732e+00 -2.137488e-01 6.466089e-01 -2.068998e-01 -1.691234e-01 7.391875e-01 1.843365e-01 -5.477122e-01 -1.111978e-02
<VARIANCE> 25
 8.491678e+00 1.784403e+01 1.981761e+01 2.799852e+01 3.688303e+01 3.217656e+01 3.848692e+01 3.641927e+01 3.521032e+01 2.767950e+01 2.723719e+01 2.613869e+01 2.235766e-01 6.153534e-01 7.865241e-01 1.042403e+00 1.469710e+00 1.593773e+00 1.781195e+00 1.661096e+00 1.810548e+00 1.680268e+00 1.496564e+00 1.312654e+00 2.155498e-04
<GCONST> 7.816010e+01
<MIXTURE> 91 7.852945e-03
<MEAN> 25
 6.175726e+00 -7.813884e+00 -9.016075e+00 -5.318658e+00 4.127216e+00 -6.889163e-01 -2.075946e+00 1.102600e+00 4.803627e-01 -9.971809e-01 -6.035505e+00 -4.977144e+00 2.864057e-01 9.646664e-01 2.186086e-01 4.481706e-01 3.159222e-02 -7.155895e-01 -3.241151e-01 -2.449549e-01 -1.912807e-01 3.638613e-01 2.064214e-01 2.496394e-01 -3.418835e-02
<VARIANCE> 25
 9.909372e+00 2.078288e+01 1.973626e+01 4.077621e+01 3.222455e+01 5.303275e+01 4.875996e+01 4.036400e+01 5.120979e+01 8.735245e+01 4.560756e+01 3.782222e+01 4.194748e-01 8.945336e-01 1.037335e+00 1.285824e+00 2.108727e+00 2.436065e+00 2.154104e+00 2.373525e+00 2.234668e+00 2.143460e+00 3.273889e+00 1.687080e+00 5.543962e-04
<GCONST> 8.720634e+01
<MIXTURE> 92 7.852945e-03
<MEAN> 25
 6.175726e+00 -7.813884e+00 -9.016075e+00 -5.318658e+00 4.127216e+00 -6.889163e-01 -2.075946e+00 1.102600e+00 4.803627e-01 -9.971809e-01 -6.035505e+00 -4.977144e+00 2.864057e-01 9.646664e-01 2.186086e-01 4.481706e-01 3.159222e-02 -7.155895e-01 -3.241151e-01 -2.449549e-01 -1.912807e-01 3.638613e-01 2.064214e-01 2.496394e-01 -3.418835e-02
<VARIANCE> 25
 9.909372e+00 2.078288e+01 1.973626e+01 4.077621e+01 3.222455e+01 5.303275e+01 4.875996e+01 4.036400e+01 5.120979e+01 8.735245e+01 4.560756e+01 3.782222e+01 4.194748e-01 8.945336e-01 1.037335e+00 1.285824e+00 2.108727e+00 2.436065e+00 2.154104e+00 2.373525e+00 2.234668e+00 2.143460e+00 3.273889e+00 1.687080e+00 5.543962e-04
<GCONST> 8.720634e+01
<MIXTURE> 93 6.122769e-03
<MEAN> 25
 -6.813632e+00 -6.889194e-01 -2.357980e+00 5.889163e+00 6.040713e+00 3.864983e+00 6.329059e+00 3.489975e+00 4.371361e+00 2.386171e+00 1.745063e+00 3.812224e+00 -6.269119e-02 -1.533950e-01 -2.408091e-01 -3.105091e-01 -3.070151e-01 -2.631046e-01 -2.050031e-01 -1.965111e-01 -1.621358e-01 -1.395748e-01 -1.077716e-01 -3.005258e-02 -5.533389e-05
<VARIANCE> 25
 8.725224e+00 7.333564e+00 7.948150e+00 1.115280e+01 1.148881e+01 1.549586e+01 1.570678e+01 1.669920e+01 1.574894e+01 1.435618e+01 1.633219e+01 1.331384e+01 8.190410e-02 1.515546e-01 2.619951e-01 3.813454e-01 5.110265e-01 6.358318e-01 7.716385e-01 9.429725e-01 9.135098e-01 8.782443e-01 8.732556e-01 8.987851e-01 1.115024e-06
<GCONST> 5.384076e+01
<MIXTURE> 94 6.122769e-03
<MEAN> 25
 -6.813632e+00 -6.889194e-01 -2.357980e+00 5.889163e+00 6.040713e+00 3.864983e+00 6.329059e+00 3.489975e+00 4.371361e+00 2.386171e+00 1.745063e+00 3.812224e+00 -6.269119e-02 -1.533950e-01 -2.408091e-01 -3.105091e-01 -3.070151e-01 -2.631046e-01 -2.050031e-01 -1.965111e-01 -1.621358e-01 -1.395748e-01 -1.077716e-01 -3.005258e-02 -5.533389e-05
<VARIANCE> 25
 8.725224e+00 7.333564e+00 7.948150e+00 1.115280e+01 1.148881e+01 1.549586e+01 1.570678e+01 1.669920e+01 1.574894e+01 1.435618e+01 1.633219e+01 1.331384e+01 8.190410e-02 1.515546e-01 2.619951e-01 3.813454e-01 5.110265e-01 6.358318e-01 7.716385e-01 9.429725e-01 9.135098e-01 8.782443e-01 8.732556e-01 8.987851e-01 1.115024e-06
<GCONST> 5.384076e+01
<MIXTURE> 95 5.258835e-03
<MEAN> 25
 -5.835772e+00 -6.380669e-01 -1.947264e+00 4.918931e+00 4.270251e+00 2.758437e+00 4.282751e+00 1.608695e+00 2.289885e+00 8.297956e-01 1.185870e+00 2.702624e+00 1.463741e-01 1.395208e-01 9.430134e-02 -8.120909e-02 -3.840011e-01 -6.922007e-01 -1.052159e+00 -1.313532e+00 -1.254812e+00 -9.571368e-01 -6.160900e-01 -3.100223e-01 -1.051354e-04
<VARIANCE> 25
 1.005775e+01 6.921038e+00 1.211754e+01 1.259518e+01 1.385626e+01 1.814709e+01 1.824940e+01 1.679558e+01 1.538192e+01 1.525982e+01 1.964305e+01 1.476761e+01 2.058371e-01 2.909071e-01 4.511513e-01 6.192210e-01 7.893208e-01 9.167917e-01 8.995007e-01 9.700834e-01 9.588278e-01 1.127742e+00 1.203586e+00 1.096129e+00 4.132721e-05
<GCONST> 6.330972e+01
<MIXTURE> 96 7.034694e-03
<MEAN> 25
 -5.164772e+00 3.343497e-01 -2.250247e+00 5.668352e+00 4.364771e+00 1.806486e+00 4.273088e+00 1.471837e+00 3.167917e+00 5.838513e-01 9.620615e-01 3.300876e+00 -9.706528e-03 5.528643e-02 1.807492e-01 4.023297e-01 5.720407e-01 4.494589e-01 2.311387e-01 -1.363188e-01 -4.113366e-01 -6.768468e-01 -6.256827e-01 -4.239305e-01 -9.835348e-05
<VARIANCE> 25
 9.929101e+00 1.287886e+01 1.145640e+01 1.443582e+01 1.522317e+01 1.784794e+01 1.981849e+01 1.830504e+01 1.973901e+01 1.609272e+01 1.799237e+01 1.496722e+01 1.143226e-01 2.129832e-01 2.910827e-01 3.591721e-01 4.943229e-01 6.185355e-01 8.232514e-01 9.174932e-01 9.395691e-01 8.287858e-01 8.138997e-01 9.028138e-01 1.030707e-06
<GCONST> 5.697902e+01
<MIXTURE> 97 7.034694e-03
<MEAN> 25
 -5.164772e+00 3.343497e-01 -2.250247e+00 5.668352e+00 4.364771e+00 1.806486e+00 4.273088e+00 1.471837e+00 3.167917e+00 5.838513e-01 9.620615e-01 3.300876e+00 -9.706528e-03 5.528643e-02 1.807492e-01 4.023297e-01 5.720407e-01 4.494589e-01 2.311387e-01 -1.363188e-01 -4.113366e-01 -6.768468e-01 -6.256827e-01 -4.239305e-01 -9.835348e-05
<VARIANCE> 25
 9.929101e+00 1.287886e+01 1.145640e+01 1.443582e+01 1.522317e+01 1.784794e+01 1.981849e+01 1.830504e+01 1.973901e+01 1.609272e+01 1.799237e+01 1.496722e+01 1.143226e-01 2.129832e-01 2.910827e-01 3.591721e-01 4.943229e-01 6.185355e-01 8.232514e-01 9.174932e-01 9.395691e-01 8.287858e-01 8.138997e-01 9.028138e-01 1.030707e-06
<GCONST> 5.697902e+01
<MIXTURE> 98 9.917808e-03
<MEAN> 25
 -1.511238e+00 9.204025e-01 -3.370261e-01 4.543828e+00 3.517799e+00 2.521717e+00 3.282385e+00 1.479755e+00 1.670551e+00 7.390925e-01 5.952483e-01 1.032820e+00 -1.816771e+00 -1.468943e+00 -9.677672e-01 1.708293e-01 7.232653e-01 7.420886e-01 1.294065e+00 1.354331e+00 1.723033e+00 1.128219e+00 1.204163e+00 9.204466e-01 -3.629148e-02
<VARIANCE> 25
 1.402240e+01 2.026075e+01 3.176168e+01 3.188997e+01 4.360178e+01 3.599734e+01 3.159062e+01 2.990153e+01 2.707734e+01 3.011529e+01 2.668065e+01 2.302291e+01 1.346518e+00 1.481218e+00 2.525601e+00 2.424433e+00 3.031710e+00 3.044958e+00 2.844637e+00 2.969805e+00 2.685539e+00 2.936235e+00 3.162186e+00 2.139528e+00 2.361772e-03
<GCONST> 9.063779e+01
<MIXTURE> 99 6.696178e-03
<MEAN> 25
 -6.462528e+00 1.003532e+01 6.842814e+00 3.495858e+00 9.530347e-01 -5.319632e+00 -1.702559e+00 -4.171677e+00 -3.501493e+00 -3.762433e+00 -1.629182e+00 3.781919e-01 5.658165e-01 -7.287768e-01 3.167405e-01 -3.899876e-01 -1.143929e+00 -5.143920e-01 -3.331722e-01 -2.538344e-01 -1.056587e-01 -5.382706e-02 2.386402e-01 1.679974e-01 1.051384e-02
<VARIANCE> 25
 3.595960e+01 2.515268e+01 4.716161e+01 3.189260e+01 3.676279e+01 3.536087e+01 2.805736e+01 2.958950e+01 2.698591e+01 2.797793e+01 2.071829e+01 2.923175e+01 2.209686e+00 1.901992e+00 1.444181e+00 1.753008e+00 2.679566e+00 2.109404e+00 1.608152e+00 1.657597e+00 1.565836e+00 1.586854e+00 1.314664e+00 1.278554e+00 1.580433e-03
<GCONST> 8.705157e+01
<MIXTURE> 100 4.498084e-03
<MEAN> 25
 -1.599011e+00 6.344668e+00 1.027782e+01 -7.463325e+00 -1.078003e+01 -5.071201e+00 -4.943247e+00 -9.965837e+00 -4.718435e+00 -8.563622e-01 -2.731550e+00 -2.707935e+00 2.917226e+00 -1.260391e+00 1.299572e+00 -2.185824e+00 -3.419451e+00 -7.837255e-01 -1.219422e+00 -8.186632e-01 -1.475391e+00 3.465038e-01 -1.654932e+00 -2.861598e-01 2.032960e-03
<VARIANCE> 25
 1.362406e+01 2.105449e+01 2.245770e+01 2.642788e+01 2.302736e+01 2.378394e+01 2.911336e+01 2.173217e+01 2.747849e+01 2.265076e+01 2.241627e+01 2.133912e+01 1.800329e+00 3.953556e+00 2.919532e+00 4.285648e+00 4.183930e+00 4.537948e+00 4.016574e+00 4.344425e+00 4.166753e+00 3.895481e+00 3.911056e+00 3.224264e+00 1.676099e-03
<GCONST> 9.257406e+01
<MIXTURE> 101 6.007792e-03
<MEAN> 25
 7.852132e+00 -3.490863e+00 -6.892319e+00 -5.932712e+00 6.507838e-01 -1.247485e+00 -1.095159e+01 -1.074544e+00 1.146217e+00 3.012058e+00 -1.113380e+00 -5.452758e+00 6.491216e-01 5.776730e-01 -1.588249e+00 -1.536961e+00 8.844748e-01 2.304305e+00 4.213877e-01 -1.381608e+00 -1.073810e+00 9.870709e-01 1.540488e+00 -5.506342e-01 -2.050550e-03
<VARIANCE> 25
 8.272777e+00 1.435040e+01 2.919260e+01 4.142401e+01 3.339833e+01 3.193230e+01 3.737628e+01 3.890046e+01 3.651133e+01 4.655963e+01 5.423734e+01 2.188420e+01 2.694444e-01 5.982589e-01 1.476425e+00 1.401426e+00 1.675268e+00 1.867378e+00 2.238920e+00 2.012146e+00 2.197782e+00 2.021229e+00 1.662661e+00 1.846761e+00 3.272606e-04
<GCONST> 8.272905e+01
<MIXTURE> 102 6.007792e-03
<MEAN> 25
 7.852132e+00 -3.490863e+00 -6.892319e+00 -5.932712e+00 6.507838e-01 -1.247485e+00 -1.095159e+01 -1.074544e+00 1.146217e+00 3.012058e+00 -1.113380e+00 -5.452758e+00 6.491216e-01 5.776730e-01 -1.588249e+00 -1.536961e+00 8.844748e-01 2.304305e+00 4.213877e-01 -1.381608e+00 -1.073810e+00 9.870709e-01 1.540488e+00 -5.506342e-01 -2.050550e-03
<VARIANCE> 25
 8.272777e+00 1.435040e+01 2.919260e+01 4.142401e+01 3.339833e+01 3.193230e+01 3.737628e+01 3.890046e+01 3.651133e+01 4.655963e+01 5.423734e+01 2.188420e+01 2.694444e-01 5.982589e-01 1.476425e+00 1.401426e+00 1.675268e+00 1.867378e+00 2.238920e+00 2.012146e+00 2.197782e+00 2.021229e+00 1.662661e+00 1.846761e+00 3.272606e-04
<GCONST> 8.272905e+01
<MIXTURE> 103 5.694618e-03
<MEAN> 25
 3.368896e+00 -9.477920e+00 -6.135791e+00 -3.087209e+00 -1.331732e+00 -1.971817e+00 2.440208e+00 2.515039e+00 -4.609515e+00 -9.256058e+00 -5.063650e+00 3.630425e-01 -1.577331e-01 -1.488397e+00 -9.800581e-01 3.747439e-01 1.212420e+00 1.020218e+00 1.592205e-01 -2.664185e-01 -7.812235e-01 -9.462714e-01 -3.416016e-02 1.204378e-01 2.694322e-02
<VARIANCE> 25
 1.034288e+01 2.034361e+01 2.291972e+01 3.170483e+01 4.805032e+01 3.500848e+01 4.641066e+01 3.671500e+01 4.215312e+01 2.933071e+01 3.009982e+01 2.640143e+01 6.436142e-01 1.251895e+00 1.539713e+00 1.940926e+00 2.931635e+00 2.412286e+00 2.890278e+00 2.577890e+00 2.563605e+00 2.527681e+00 2.100250e+00 2.017015e+00 8.070858e-04
<GCONST> 8.758443e+01
<MIXTURE> 104 5.694618e-03
<MEAN> 25
 3.368896e+00 -9.477920e+00 -6.135791e+00 -3.087209e+00 -1.331732e+00 -1.971817e+00 2.440208e+00 2.515039e+00 -4.609515e+00 -9.256058e+00 -5.063650e+00 3.630425e-01 -1.577331e-01 -1.488397e+00 -9.800581e-01 3.747439e-01 1.212420e+00 1.020218e+00 1.592205e-01 -2.664185e-01 -7.812235e-01 -9.462714e-01 -3.416016e-02 1.204378e-01 2.694322e-02
<VARIANCE> 25
 1.034288e+01 2.034361e+01 2.291972e+01 3.170483e+01 4.805032e+01 3.500848e+01 4.641066e+01 3.671500e+01 4.215312e+01 2.933071e+01 3.009982e+01 2.640143e+01 6.436142e-01 1.251895e+00 1.539713e+00 1.940926e+00 2.931635e+00 2.412286e+00 2.890278e+00 2.577890e+00 2.563605e+00 2.527681e+00 2.100250e+00 2.017015e+00 8.070858e-04
<GCONST> 8.758443e+01
<MIXTURE> 105 4.710235e-03
<MEAN> 25
 1.325283e+00 -1.390493e+00 1.016486e+01 -3.475024e+00 -1.102167e+01 -3.840015e+00 -5.095206e+00 -9.761249e-03 -4.592047e+00 -3.352396e+00 1.629828e+00 -1.104002e+00 4.110680e-02 2.899719e-02 3.486627e-02 1.044434e-02 3.019885e-02 2.576941e-02 5.962140e-02 2.002770e-02 -2.729170e-02 -5.301508e-02 2.296770e-02 -2.182533e-02 -2.944428e-03
<VARIANCE> 25
 1.578615e+01 2.725629e+01 4.010546e+01 4.252990e+01 3.514474e+01 6.082173e+01 3.993078e+01 4.037328e+01 3.739817e+01 3.883426e+01 3.739961e+01 2.827514e+01 9.275012e-02 2.651164e-01 3.131866e-01 3.352950e-01 3.978484e-01 4.991193e-01 4.351603e-01 4.700359e-01 4.528587e-01 4.224430e-01 3.813662e-01 4.770166e-01 8.288451e-05
<GCONST> 6.683151e+01
<MIXTURE> 106 4.710235e-03
<MEAN> 25
 1.325283e+00 -1.390493e+00 1.016486e+01 -3.475024e+00 -1.102167e+01 -3.840015e+00 -5.095206e+00 -9.761249e-03 -4.592047e+00 -3.352396e+00 1.629828e+00 -1.104002e+00 4.110680e-02 2.899719e-02 3.486627e-02 1.044434e-02 3.019885e-02 2.576941e-02 5.962140e-02 2.002770e-02 -2.729170e-02 -5.301508e-02 2.296770e-02 -2.182533e-02 -2.944428e-03
<VARIANCE> 25
 1.578615e+01 2.725629e+01 4.010546e+01 4.252990e+01 3.514474e+01 6.082173e+01 3.993078e+01 4.037328e+01 3.739817e+01 3.883426e+01 3.739961e+01 2.827514e+01 9.275012e-02 2.651164e-01 3.131866e-01 3.352950e-01 3.978484e-01 4.991193e-01 4.351603e-01 4.700359e-01 4.528587e-01 4.224430e-01 3.813662e-01 4.770166e-01 8.288451e-05
<GCONST> 6.683151e+01
<MIXTURE> 107 5.452374e-03
<MEAN> 25
 8.381511e+00 -2.398520e+00 -8.392240e+00 -9.163297e+00 1.748318e+00 2.877836e+00 -8.571456e+00 -3.915939e+00 -8.286479e-01 3.811335e+00 1.574468e+00 -5.428143e+00 -5.375235e-01 -7.309014e-01 7.002992e-01 1.902626e+00 1.722842e-01 -2.010513e+00 -7.471607e-01 5.900511e-01 1.885291e+00 -8.408802e-02 -1.772543e+00 -5.827627e-01 -2.313980e-03
<VARIANCE> 25
 9.144815e+00 1.886710e+01 2.743730e+01 4.119679e+01 3.345901e+01 3.545484e+01 4.734687e+01 3.774455e+01 4.315641e+01 4.062373e+01 5.235703e+01 2.918161e+01 4.054523e-01 9.126765e-01 1.561603e+00 2.467481e+00 2.176167e+00 2.717003e+00 2.736402e+00 3.041802e+00 2.299587e+00 2.995761e+00 2.003058e+00 2.606700e+00 6.515452e-04
<GCONST> 8.799301e+01
<MIXTURE> 108 5.452374e-03
<MEAN> 25
 8.381511e+00 -2.398520e+00 -8.392240e+00 -9.163297e+00 1.748318e+00 2.877836e+00 -8.571456e+00 -3.915939e+00 -8.286479e-01 3.811335e+00 1.574468e+00 -5.428143e+00 -5.375235e-01 -7.309014e-01 7.002992e-01 1.902626e+00 1.722842e-01 -2.010513e+00 -7.471607e-01 5.900511e-01 1.885291e+00 -8.408802e-02 -1.772543e+00 -5.827627e-01 -2.313980e-03
<VARIANCE> 25
 9.144815e+00 1.886710e+01 2.743730e+01 4.119679e+01 3.345901e+01 3.545484e+01 4.734687e+01 3.774455e+01 4.315641e+01 4.062373e+01 5.235703e+01 2.918161e+01 4.054523e-01 9.126765e-01 1.561603e+00 2.467481e+00 2.176167e+00 2.717003e+00 2.736402e+00 3.041802e+00 2.299587e+00 2.995761e+00 2.003058e+00 2.606700e+00 6.515452e-04
<GCONST> 8.799301e+01
<MIXTURE> 109 6.661064e-03
<MEAN> 25
 4.096406e+00 -1.053458e+01 -8.340148e+00 -1.336984e+00 2.774076e+00 -7.402200e-02 -8.493854e-02 1.426864e+00 -2.522382e+00 -8.302020e+00 -5.406548e+00 6.199579e-02 -3.153200e-02 -1.342588e-01 -3.321218e-02 2.516941e-01 1.954704e-01 1.182098e-01 -1.253051e-01 -1.099481e-01 -3.617032e-02 -1.341087e-01 2.177016e-01 1.687298e-02 -3.525794e-03
<VARIANCE> 25
 9.119274e+00 1.823475e+01 2.020306e+01 3.166253e+01 4.081113e+01 3.692801e+01 4.652158e+01 3.473960e+01 4.669595e+01 3.644963e+01 2.972958e+01 2.809225e+01 1.933970e-01 4.227800e-01 5.368190e-01 6.332665e-01 1.231643e+00 9.966994e-01 1.253572e+00 1.095606e+00 1.121463e+00 9.552174e-01 8.769363e-01 8.896945e-01 1.813375e-04
<GCONST> 7.453952e+01
<MIXTURE> 110 6.661064e-03
<MEAN> 25
 4.096406e+00 -1.053458e+01 -8.340148e+00 -1.336984e+00 2.774076e+00 -7.402200e-02 -8.493854e-02 1.426864e+00 -2.522382e+00 -8.302020e+00 -5.406548e+00 6.199579e-02 -3.153200e-02 -1.342588e-01 -3.321218e-02 2.516941e-01 1.954704e-01 1.182098e-01 -1.253051e-01 -1.099481e-01 -3.617032e-02 -1.341087e-01 2.177016e-01 1.687298e-02 -3.525794e-03
<VARIANCE> 25
 9.119274e+00 1.823475e+01 2.020306e+01 3.166253e+01 4.081113e+01 3.692801e+01 4.652158e+01 3.473960e+01 4.669595e+01 3.644963e+01 2.972958e+01 2.809225e+01 1.933970e-01 4.227800e-01 5.368190e-01 6.332665e-01 1.231643e+00 9.966994e-01 1.253572e+00 1.095606e+00 1.121463e+00 9.552174e-01 8.769363e-01 8.896945e-01 1.813375e-04
<GCONST> 7.453952e+01
<MIXTURE> 111 4.337247e-03
<MEAN> 25
 -4.474113e+00 -9.042302e-01 -1.720737e+00 1.689603e+00 9.658241e-01 9.646813e-01 3.171123e-01 2.109062e-01 9.067748e-02 -5.420024e-01 -6.292483e-01 1.965824e+00 -2.105075e-02 -3.253787e-02 -7.239753e-02 -7.333300e-02 -3.721111e-02 6.509313e-03 -9.741824e-04 -5.964094e-02 -1.402948e-01 -2.024815e-01 -1.898580e-01 -1.064729e-01 -2.156235e-04
<VARIANCE> 25
 6.999701e+00 4.989704e+00 1.021214e+01 9.414450e+00 1.310986e+01 2.383581e+01 1.468802e+01 1.316533e+01 1.160749e+01 1.191189e+01 1.362756e+01 1.159147e+01 7.917523e-02 1.635427e-01 2.752299e-01 4.206626e-01 5.693565e-01 7.053038e-01 8.005146e-01 8.588229e-01 8.927011e-01 8.565295e-01 8.622141e-01 8.476790e-01 2.231549e-05
<GCONST> 5.598469e+01
<MIXTURE> 112 4.337247e-03
<MEAN> 25
 -4.474113e+00 -9.042302e-01 -1.720737e+00 1.689603e+00 9.658241e-01 9.646813e-01 3.171123e-01 2.109062e-01 9.067748e-02 -5.420024e-01 -6.292483e-01 1.965824e+00 -2.105075e-02 -3.253787e-02 -7.239753e-02 -7.333300e-02 -3.721111e-02 6.509313e-03 -9.741824e-04 -5.964094e-02 -1.402948e-01 -2.024815e-01 -1.898580e-01 -1.064729e-01 -2.156235e-04
<VARIANCE> 25
 6.999701e+00 4.989704e+00 1.021214e+01 9.414450e+00 1.310986e+01 2.383581e+01 1.468802e+01 1.316533e+01 1.160749e+01 1.191189e+01 1.362756e+01 1.159147e+01 7.917523e-02 1.635427e-01 2.752299e-01 4.206626e-01 5.693565e-01 7.053038e-01 8.005146e-01 8.588229e-01 8.927011e-01 8.565295e-01 8.622141e-01 8.476790e-01 2.231549e-05
<GCONST> 5.598469e+01
<MIXTURE> 113 5.938666e-03
<MEAN> 25
 9.841011e+00 1.502817e+00 -8.953416e+00 -1.651343e+01 -9.781355e-01 5.348299e+00 -5.284099e+00 -1.260418e+00 -5.638556e+00 -1.357361e-01 8.502483e-01 -6.068108e-01 -6.554454e-03 9.252868e-03 -5.791466e-02 -1.391642e-01 1.062971e-01 1.477123e-01 8.945724e-02 3.791344e-02 -2.584736e-02 -4.089709e-02 1.954397e-01 1.619689e-02 -6.288220e-04
<VARIANCE> 25
 8.762950e+00 1.665083e+01 2.865852e+01 3.746397e+01 5.009753e+01 3.387919e+01 3.788757e+01 3.801917e+01 3.556746e+01 4.642619e+01 3.981260e+01 3.007400e+01 1.201922e-01 3.047326e-01 3.012253e-01 6.424819e-01 5.834938e-01 6.391336e-01 8.563282e-01 8.260594e-01 9.453337e-01 9.140055e-01 7.211131e-01 6.993123e-01 1.297214e-04
<GCONST> 7.105266e+01
<MIXTURE> 114 5.938666e-03
<MEAN> 25
 9.841011e+00 1.502817e+00 -8.953416e+00 -1.651343e+01 -9.781355e-01 5.348299e+00 -5.284099e+00 -1.260418e+00 -5.638556e+00 -1.357361e-01 8.502483e-01 -6.068108e-01 -6.554454e-03 9.252868e-03 -5.791466e-02 -1.391642e-01 1.062971e-01 1.477123e-01 8.945724e-02 3.791344e-02 -2.584736e-02 -4.089709e-02 1.954397e-01 1.619689e-02 -6.288220e-04
<VARIANCE> 25
 8.762950e+00 1.665083e+01 2.865852e+01 3.746397e+01 5.009753e+01 3.387919e+01 3.788757e+01 3.801917e+01 3.556746e+01 4.642619e+01 3.981260e+01 3.007400e+01 1.201922e-01 3.047326e-01 3.012253e-01 6.424819e-01 5.834938e-01 6.391336e-01 8.563282e-01 8.260594e-01 9.453337e-01 9.140055e-01 7.211131e-01 6.993123e-01 1.297214e-04
<GCONST> 7.105266e+01
<MIXTURE> 115 2.935202e-03
<MEAN> 25
 -4.034405e+00 -7.430351e-01 -3.104038e+00 3.662659e+00 2.420207e+00 -4.268506e-01 2.246314e+00 4.088831e-01 1.395763e+00 -2.126495e-02 4.184544e-02 2.696455e+00 3.184811e-02 -7.220419e-02 -2.298100e-01 -4.376541e-01 -6.331445e-01 -6.687875e-01 -5.923267e-01 -5.120046e-01 -4.870128e-01 -4.554195e-01 -3.420122e-01 -1.652337e-01 -1.495653e-06
<VARIANCE> 25
 9.261097e+00 9.926018e+00 1.352560e+01 1.271226e+01 1.349744e+01 1.753780e+01 1.714374e+01 2.078841e+01 1.794718e+01 1.719156e+01 1.917004e+01 1.469988e+01 2.035091e-01 3.452137e-01 4.855572e-01 5.616349e-01 6.336454e-01 7.988101e-01 1.006803e+00 1.136391e+00 1.073851e+00 9.961843e-01 1.026853e+00 1.063401e+00 1.004721e-06
<GCONST> 6.017434e+01
<MIXTURE> 116 2.935202e-03
<MEAN> 25
 -4.034405e+00 -7.430351e-01 -3.104038e+00 3.662659e+00 2.420207e+00 -4.268506e-01 2.246314e+00 4.088831e-01 1.395763e+00 -2.126495e-02 4.184544e-02 2.696455e+00 3.184811e-02 -7.220419e-02 -2.298100e-01 -4.376541e-01 -6.331445e-01 -6.687875e-01 -5.923267e-01 -5.120046e-01 -4.870128e-01 -4.554195e-01 -3.420122e-01 -1.652337e-01 -1.495653e-06
<VARIANCE> 25
 9.261097e+00 9.926018e+00 1.352560e+01 1.271226e+01 1.349744e+01 1.753780e+01 1.714374e+01 2.078841e+01 1.794718e+01 1.719156e+01 1.917004e+01 1.469988e+01 2.035091e-01 3.452137e-01 4.855572e-01 5.616349e-01 6.336454e-01 7.988101e-01 1.006803e+00 1.136391e+00 1.073851e+00 9.961843e-01 1.026853e+00 1.063401e+00 1.004721e-06
<GCONST> 6.017434e+01
<MIXTURE> 117 6.506003e-03
<MEAN> 25
 -4.684978e+00 1.216608e+00 1.002022e+00 9.724177e+00 6.311160e+00 6.183786e+00 6.558551e+00 4.925580e+00 6.453254e+00 4.805623e+00 6.226993e+00 2.780606e+00 -7.461902e-02 -2.304550e-01 -3.499966e-01 -4.047740e-01 -3.472263e-01 -2.940013e-01 -2.841660e-01 -3.362290e-01 -3.819594e-01 -3.578778e-01 -2.634233e-01 -1.171436e-01 -2.644578e-05
<VARIANCE> 25
 7.101367e+00 8.981289e+00 9.746182e+00 1.407672e+01 1.543376e+01 1.529553e+01 1.781515e+01 1.839528e+01 1.637747e+01 1.669435e+01 1.725839e+01 1.472632e+01 2.136242e-01 3.032993e-01 4.212380e-01 6.158978e-01 8.619148e-01 1.041330e+00 1.160978e+00 1.248166e+00 1.219984e+00 1.194859e+00 1.150214e+00 1.097683e+00 1.044263e-06
<GCONST> 6.044378e+01
<MIXTURE> 118 6.506003e-03
<MEAN> 25
 -4.684978e+00 1.216608e+00 1.002022e+00 9.724177e+00 6.311160e+00 6.183786e+00 6.558551e+00 4.925580e+00 6.453254e+00 4.805623e+00 6.226993e+00 2.780606e+00 -7.461902e-02 -2.304550e-01 -3.499966e-01 -4.047740e-01 -3.472263e-01 -2.940013e-01 -2.841660e-01 -3.362290e-01 -3.819594e-01 -3.578778e-01 -2.634233e-01 -1.171436e-01 -2.644578e-05
<VARIANCE> 25
 7.101367e+00 8.981289e+00 9.746182e+00 1.407672e+01 1.543376e+01 1.529553e+01 1.781515e+01 1.839528e+01 1.637747e+01 1.669435e+01 1.725839e+01 1.472632e+01 2.136242e-01 3.032993e-01 4.212380e-01 6.158978e-01 8.619148e-01 1.041330e+00 1.160978e+00 1.248166e+00 1.219984e+00 1.194859e+00 1.150214e+00 1.097683e+00 1.044263e-06
<GCONST> 6.044378e+01
<MIXTURE> 119 4.297961e-03
<MEAN> 25
 -4.975598e+00 -7.634647e+00 2.231646e+00 2.016639e+00 2.239614e+00 2.076994e-01 5.275206e+00 5.939713e+00 1.166136e+00 9.677677e-01 6.613866e+00 1.569998e+00 -4.997206e-02 -7.931148e-02 3.729610e-02 -5.719883e-02 -1.261394e-01 -1.799054e-01 -6.905186e-02 -1.393463e-02 -9.187473e-02 -1.121016e-01 -5.515629e-02 -5.818786e-02 1.111643e-03
<VARIANCE> 25
 8.501863e+00 9.813537e+00 1.656438e+01 2.018279e+01 2.286663e+01 2.320607e+01 2.499717e+01 2.648552e+01 2.503739e+01 2.807428e+01 2.040337e+01 2.041015e+01 1.604242e-01 2.824877e-01 4.597538e-01 6.328265e-01 8.034651e-01 1.003842e+00 1.099947e+00 1.277788e+00 1.285857e+00 1.245821e+00 1.192396e+00 1.112443e+00 2.316193e-04
<GCONST> 6.971953e+01
<MIXTURE> 120 4.297961e-03
<MEAN> 25
 -4.975598e+00 -7.634647e+00 2.231646e+00 2.016639e+00 2.239614e+00 2.076994e-01 5.275206e+00 5.939713e+00 1.166136e+00 9.677677e-01 6.613866e+00 1.569998e+00 -4.997206e-02 -7.931148e-02 3.729610e-02 -5.719883e-02 -1.261394e-01 -1.799054e-01 -6.905186e-02 -1.393463e-02 -9.187473e-02 -1.121016e-01 -5.515629e-02 -5.818786e-02 1.111643e-03
<VARIANCE> 25
 8.501863e+00 9.813537e+00 1.656438e+01 2.018279e+01 2.286663e+01 2.320607e+01 2.499717e+01 2.648552e+01 2.503739e+01 2.807428e+01 2.040337e+01 2.041015e+01 1.604242e-01 2.824877e-01 4.597538e-01 6.328265e-01 8.034651e-01 1.003842e+00 1.099947e+00 1.277788e+00 1.285857e+00 1.245821e+00 1.192396e+00 1.112443e+00 2.316193e-04
<GCONST> 6.971953e+01
<MIXTURE> 121 4.567511e-03
<MEAN> 25
 2.017772e-01 -2.523542e+00 5.166507e+00 -1.289645e+01 -1.263772e+01 -1.663844e+00 9.859995e-01 -5.095891e+00 -4.206552e+00 -4.913991e-01 -5.500547e+00 -4.304168e+00 2.415107e-02 1.328277e-01 -4.080940e-02 7.988624e-02 1.591166e-01 7.878118e-02 -7.962541e-02 -1.833929e-01 -2.685621e-01 -2.585975e-01 -1.141677e-01 1.782472e-04 -7.438821e-03
<VARIANCE> 25
 7.750390e+00 1.559857e+01 1.738757e+01 2.037927e+01 2.445115e+01 2.927070e+01 2.962881e+01 2.465746e+01 3.527945e+01 2.832095e+01 1.977800e+01 2.122104e+01 1.552232e-01 6.440731e-01 6.240391e-01 7.043108e-01 7.706276e-01 1.150166e+00 1.119109e+00 1.119746e+00 1.216276e+00 1.192417e+00 9.408151e-01 8.716694e-01 2.107263e-04
<GCONST> 7.141424e+01
<MIXTURE> 122 4.567511e-03
<MEAN> 25
 2.017772e-01 -2.523542e+00 5.166507e+00 -1.289645e+01 -1.263772e+01 -1.663844e+00 9.859995e-01 -5.095891e+00 -4.206552e+00 -4.913991e-01 -5.500547e+00 -4.304168e+00 2.415107e-02 1.328277e-01 -4.080940e-02 7.988624e-02 1.591166e-01 7.878118e-02 -7.962541e-02 -1.833929e-01 -2.685621e-01 -2.585975e-01 -1.141677e-01 1.782472e-04 -7.438821e-03
<VARIANCE> 25
 7.750390e+00 1.559857e+01 1.738757e+01 2.037927e+01 2.445115e+01 2.927070e+01 2.962881e+01 2.465746e+01 3.527945e+01 2.832095e+01 1.977800e+01 2.122104e+01 1.552232e-01 6.440731e-01 6.240391e-01 7.043108e-01 7.706276e-01 1.150166e+00 1.119109e+00 1.119746e+00 1.216276e+00 1.192417e+00 9.408151e-01 8.716694e-01 2.107263e-04
<GCONST> 7.141424e+01
<MIXTURE> 123 4.393044e-03
<MEAN> 25
 -4.225708e+00 1.545856e+00 -2.486307e-01 6.278814e+00 5.453077e+00 3.110091e+00 3.681983e+00 1.898605e-01 8.942922e-01 -3.242979e-01 1.831177e-02 8.551762e-01 -4.908517e-01 -7.498037e-01 -8.135343e-01 -4.971135e-01 -1.590514e-01 1.425245e-01 4.538765e-01 6.988790e-01 7.870679e-01 6.665846e-01 6.842270e-01 4.815374e-01 -3.629975e-03
<VARIANCE> 25
 9.825976e+00 1.194642e+01 1.577066e+01 1.664810e+01 2.018476e+01 2.638734e+01 2.132580e+01 1.837024e+01 2.023253e+01 1.707649e+01 2.007919e+01 1.831205e+01 3.400087e-01 3.338193e-01 4.926123e-01 7.999507e-01 9.763481e-01 1.141320e+00 1.173476e+00 1.139875e+00 1.084076e+00 1.190780e+00 1.131087e+00 1.110332e+00 9.579825e-05
<GCONST> 6.880542e+01
<MIXTURE> 124 4.069876e-03
<MEAN> 25
 -6.304064e+00 2.599623e-01 -2.859249e+00 5.279788e+00 5.304521e+00 3.024288e+00 5.936812e+00 1.994312e+00 4.123298e+00 1.202229e+00 1.306290e+00 3.212049e+00 -2.389509e-01 -2.907163e-01 -3.070830e-01 -1.868699e-01 2.080181e-01 4.717301e-01 7.725648e-01 9.650342e-01 7.683531e-01 2.974586e-01 8.079542e-02 3.481389e-02 -4.955987e-04
<VARIANCE> 25
 9.509589e+00 1.294868e+01 1.146614e+01 1.172756e+01 1.075924e+01 1.766724e+01 1.439852e+01 1.653514e+01 1.641843e+01 1.516213e+01 1.623990e+01 1.250075e+01 9.792385e-02 1.530619e-01 2.531241e-01 3.945893e-01 5.550581e-01 6.614561e-01 6.853327e-01 9.983598e-01 8.516554e-01 8.823140e-01 9.817107e-01 9.132805e-01 1.856451e-05
<GCONST> 5.803715e+01
<MIXTURE> 125 4.069876e-03
<MEAN> 25
 -6.304064e+00 2.599623e-01 -2.859249e+00 5.279788e+00 5.304521e+00 3.024288e+00 5.936812e+00 1.994312e+00 4.123298e+00 1.202229e+00 1.306290e+00 3.212049e+00 -2.389509e-01 -2.907163e-01 -3.070830e-01 -1.868699e-01 2.080181e-01 4.717301e-01 7.725648e-01 9.650342e-01 7.683531e-01 2.974586e-01 8.079542e-02 3.481389e-02 -4.955987e-04
<VARIANCE> 25
 9.509589e+00 1.294868e+01 1.146614e+01 1.172756e+01 1.075924e+01 1.766724e+01 1.439852e+01 1.653514e+01 1.641843e+01 1.516213e+01 1.623990e+01 1.250075e+01 9.792385e-02 1.530619e-01 2.531241e-01 3.945893e-01 5.550581e-01 6.614561e-01 6.853327e-01 9.983598e-01 8.516554e-01 8.823140e-01 9.817107e-01 9.132805e-01 1.856451e-05
<GCONST> 5.803715e+01
<MIXTURE> 126 2.402244e-03
<MEAN> 25
 -3.789792e+00 -6.938813e+00 -5.282962e+00 2.319729e+00 4.276637e+00 -3.241938e+00 6.935563e-02 3.553751e+00 3.340267e+00 -2.697295e+00 -1.428690e+00 3.055958e+00 -2.223658e-03 -6.531443e-03 -3.579494e-02 -1.582150e-01 -3.186227e-01 -3.892785e-01 -2.736847e-01 -1.575700e-01 -1.132154e-01 -1.154460e-01 -9.801205e-02 -3.073276e-02 -1.474364e-03
<VARIANCE> 25
 7.428358e+00 1.261403e+01 1.383601e+01 1.512350e+01 2.466897e+01 2.369070e+01 2.273970e+01 2.841117e+01 3.128282e+01 2.624015e+01 2.176521e+01 1.918654e+01 1.706427e-01 3.518741e-01 4.831144e-01 5.669501e-01 7.536256e-01 9.955871e-01 1.122039e+00 1.262413e+00 1.328960e+00 1.310725e+00 1.213663e+00 1.147070e+00 2.108098e-04
<GCONST> 6.979150e+01
<MIXTURE> 127 2.402244e-03
<MEAN> 25
 -3.789792e+00 -6.938813e+00 -5.282962e+00 2.319729e+00 4.276637e+00 -3.241938e+00 6.935563e-02 3.553751e+00 3.340267e+00 -2.697295e+00 -1.428690e+00 3.055958e+00 -2.223658e-03 -6.531443e-03 -3.579494e-02 -1.582150e-01 -3.186227e-01 -3.892785e-01 -2.736847e-01 -1.575700e-01 -1.132154e-01 -1.154460e-01 -9.801205e-02 -3.073276e-02 -1.474364e-03
<VARIANCE> 25
 7.428358e+00 1.261403e+01 1.383601e+01 1.512350e+01 2.466897e+01 2.369070e+01 2.273970e+01 2.841117e+01 3.128282e+01 2.624015e+01 2.176521e+01 1.918654e+01 1.706427e-01 3.518741e-01 4.831144e-01 5.669501e-01 7.536256e-01 9.955871e-01 1.122039e+00 1.262413e+00 1.328960e+00 1.310725e+00 1.213663e+00 1.147070e+00 2.108098e-04
<GCONST> 6.979150e+01
<MIXTURE> 128 3.790457e-03
<MEAN> 25
 -3.935258e+00 1.553733e+00 -3.446704e-01 6.580847e+00 3.633672e+00 1.857452e+00 3.595670e+00 2.362625e+00 3.973982e+00 3.684641e+00 3.760033e+00 3.531117e+00 -3.952120e-01 -1.976642e-01 9.810784e-02 7.250297e-01 1.184099e+00 1.133175e+00 7.170510e-01 1.310831e-01 -4.361801e-01 -7.868279e-01 -7.023263e-01 -3.937978e-01 -3.884114e-05
<VARIANCE> 25
 1.020574e+01 1.171989e+01 1.496088e+01 1.928242e+01 2.006002e+01 2.113097e+01 2.436531e+01 2.464953e+01 2.641092e+01 2.391422e+01 2.678231e+01 1.819908e+01 8.905667e-01 1.143879e+00 1.362497e+00 1.499973e+00 1.577428e+00 1.860566e+00 2.244756e+00 2.323896e+00 2.147205e+00 1.855691e+00 1.740770e+00 1.746887e+00 1.007018e-06
<GCONST> 7.362843e+01
<TRANSP> 3
 0.000000e+00 1.000000e+00 0.000000e+00
 0.000000e+00 9.999990e-01 9.999998e-07
 0.000000e+00 0.000000e+00 0.000000e+00
<ENDHMM>
